2191 100
0 -0.17160384 0.036647465 0.10276823 -0.11620168 0.06831314 0.25980937 -0.05793571 -0.22829045 0.12037815 -0.1486697 0.005063503 -0.11982039 0.4246277 0.086881176 0.36849868 -0.25687262 -0.42587292 0.4564857 -0.04700055 0.15330726 -0.01806817 0.3384498 0.2228996 0.15131474 0.16883396 0.072720945 -0.19536248 -0.086155996 0.28195626 0.058440875 0.2423802 0.16410977 -0.08290145 -0.1627705 -0.085631415 -0.033150375 0.15375984 0.4715536 0.3173849 -0.24183224 -0.16654897 0.0947645 -0.07090177 -0.10311924 -0.2617348 0.0076008867 0.19764698 -0.05490722 -0.13555408 0.3199476 0.36833683 -0.13633484 0.13911684 -0.088943325 -0.07414517 0.094057 0.10936028 -0.29811308 0.40511268 -0.16042334 0.3047427 0.07434237 -0.0919167 -0.12991321 0.17515297 0.07924773 0.22608885 -0.066318184 0.08804984 -0.059014905 -0.099013805 0.09811172 0.010926307 -0.1602171 -0.1049082 0.0695037 -0.14455451 -0.42704308 -0.06447584 -0.11807687 -0.046843637 -0.13000527 -0.036558595 0.0450953 -0.12386577 -0.1477059 -0.30356094 -0.19957173 -0.24706997 0.22610785 0.17105976 0.029121106 -0.17765522 0.27869117 0.43585318 0.039960593 0.20204946 -0.10724036 -0.36760372 -0.36621043
1611 -0.10343251 0.049273983 0.10845393 -0.063572176 0.24345821 0.05447475 0.06245611 -0.38767463 0.04282567 -0.087319255 0.13776356 0.030033894 0.14664763 0.026811106 0.27768943 -0.1809519 -0.21579374 0.2023195 -0.0025488192 0.02235587 0.19558004 0.32388338 0.16568336 0.25176692 0.0268275 -0.079597265 -0.055222597 -0.05675734 0.07136012 -0.08541923 0.19035268 0.035924204 -0.1453306 -0.1992859 0.04483204 0.072076984 0.0641856 0.48634148 0.18420616 -0.19416396 -0.14540271 0.2340851 -0.1630916 -0.1631557 -0.09768113 0.14403956 0.17699997 0.059116926 -0.0054761167 0.29780763 0.04536735 -0.009934324 0.019117763 -0.2496417 -0.09669452 -0.10213036 0.23581678 -0.43059075 0.26146212 -0.0024811407 0.55784726 0.23355949 -0.107281104 0.009494941 0.07008113 0.24869312 0.124946006 -0.16164231 -0.12247005 -0.12798399 0.072814964 -0.12514208 0.19281958 -0.07110585 0.06460855 0.118118316 -0.2986364 -0.42528853 -0.16142239 0.16178925 -0.04428988 -0.04148841 -0.09925066 0.027920865 -0.097201176 0.09254733 -0.26152748 -0.2557395 0.015007206 0.3217996 0.09762881 0.044997662 -0.3576358 0.21075435 0.504652 -0.078685485 0.076616466 -0.10212075 -0.1549791 -0.26995254
553 0.039867364 0.029575357 0.048878435 -0.12906921 0.027359713 0.18280742 0.14731188 -0.14857346 -0.12142836 0.11410247 0.09728903 0.037767988 0.08579796 -0.006348963 0.19047317 -0.10949073 -0.23908588 0.29509205 -0.12159922 0.040301494 0.2258645 -0.016807662 -0.18185727 0.057288684 0.00820123 0.07141922 0.038174283 0.103681065 -0.09857477 -0.09277955 0.11402522 -0.011439726 -0.046687875 -0.39685234 -0.06882052 0.15331538 -0.024220126 -0.0982679 -0.09480578 -0.33024526 -0.30494934 0.069122374 -0.3941568 -0.10019311 -0.09127643 0.20425817 0.053926416 0.15461397 0.016968882 0.1233916 0.18232659 -0.006463616 0.021702606 -0.101843424 0.048658796 0.017673027 0.0139663 -0.28764266 0.09501126 0.036562078 0.021712543 0.04453224 -0.16870409 -0.17356196 0.20405594 0.06614384 -0.02322531 -0.07830361 -0.04314869 -0.27259678 -0.026534194 -0.010730033 -0.0450835 0.03518889 0.05516304 0.13753767 -0.2896626 -0.107802495 -0.09823687 -0.07261322 -0.21725564 -0.1022759 -0.03400913 -0.054536838 -0.25182286 -0.04346516 -0.26417485 -0.3415135 -0.07262014 0.284159 0.20290515 0.097285 -0.14482704 -0.10757977 0.326074 -0.11443556 0.019289656 -0.17154613 -0.14821689 -0.35936224
554 -0.073052846 0.05821646 0.044605665 -0.10962465 0.30501297 0.2681594 0.06291088 -0.41489926 0.06944738 0.010856263 0.1437971 -0.029076938 0.14666893 0.012590518 0.4155171 -0.19756053 -0.3609867 0.35966778 -0.1350313 0.028953068 0.16798365 0.26363403 0.24189857 0.18214403 0.06764684 -0.18435664 -0.06668064 -0.047217503 0.13586845 -0.14078273 0.37012127 0.16392772 -0.13419734 -0.24840677 0.002056203 0.004921388 0.2208461 0.47268298 0.23717159 -0.07096564 -0.07981666 0.12899059 -0.057733923 -0.1495072 -0.22076589 0.07433527 0.24256077 -0.023096552 -0.032256868 0.27323106 0.2850799 -0.08469048 0.052291475 -0.33838907 -0.17310332 -0.091491915 0.09199463 -0.39510134 0.37991562 -0.144224 0.4093303 0.13087468 -0.095658354 -0.045330513 0.13797645 0.2269896 0.2525727 -0.23904707 -0.065753676 -0.23325843 -0.101809636 -0.17091365 0.16997607 -0.06393358 0.011233228 0.19117206 -0.4314716 -0.49887657 -0.11067387 0.23375048 -0.052783757 -0.2012974 0.07426758 -0.0037434201 -0.18759131 0.10679145 -0.44356048 -0.38982624 -0.22673553 0.33586022 0.05273174 0.119139425 -0.443736 0.15749025 0.5585704 -0.008956019 0.15089504 -0.27857545 -0.44437823 -0.5235479
1614 -0.08631527 0.19582477 0.16073816 0.07586658 -0.000161806 0.035034936 0.16185369 -0.15235126 -0.27563497 0.043512154 0.20009404 0.09314247 0.49159813 0.18430902 0.102647506 -0.22433792 -0.21770585 0.3217512 0.23724444 0.2872794 0.052181415 0.10565764 -0.04598982 0.46514276 0.18685076 0.19291453 -0.22781414 -0.22693488 0.051189028 -0.00535347 0.37696928 0.2854364 -0.023191852 -0.002093605 -0.08935437 -0.025192393 0.28165925 0.18318978 0.07212018 -0.19307514 -0.15662879 0.19833115 0.029742057 -0.0067058196 -0.15528981 0.1608135 0.052475564 -0.09728153 -0.09256292 0.063746095 0.10082324 0.031016976 0.22800171 -0.12456649 -0.17948003 -0.06688432 0.13267872 0.02033019 0.26828736 0.05120109 0.06824298 0.031550605 0.08085881 -0.023733804 -0.050552104 0.2529583 0.20226994 -0.124112755 0.15400355 -0.18433024 -0.2271878 -0.09035869 -0.040281415 -0.04699649 0.08583597 0.15694334 -0.16963984 -0.22910403 -0.12857251 0.090375446 -0.1669342 -0.1491549 0.05920588 0.12585393 -0.013128437 0.020184739 -0.16142526 -0.39543793 -0.06779874 0.36769548 -0.009280067 -0.063691154 -0.18550108 0.079208575 0.3032098 0.075939715 -0.06302032 -0.14394844 -0.15073544 -0.44782344
1615 0.07798926 0.07065811 0.09400676 -0.12468013 0.08947697 0.122909665 0.037854273 -0.1767279 0.11077024 -0.08128978 0.25116834 0.049846817 0.045881517 0.07320092 0.18836737 -0.031897273 -0.07835983 0.11880343 0.116761565 -0.029261896 0.06107667 0.12085892 0.0664561 0.1176253 0.081856735 -0.26427802 0.01588863 -0.04095689 -0.02530583 -0.091855474 0.31437293 -0.04078887 0.008872615 -0.22210018 0.23874791 0.11357549 -0.052897498 0.029506415 0.21440817 -0.40026045 -0.26827165 0.12104679 -0.111429885 -0.1688088 -0.14795136 0.028297024 0.060292557 -0.01810764 -0.024304686 0.10384276 0.01553379 -0.14627191 0.09376554 0.12053543 -0.09263091 0.0049413405 -0.07271289 -0.3148416 0.055334195 -0.33090878 0.38850033 0.26431867 -0.008212535 -0.08201884 0.12991351 0.03529133 0.13986121 -0.19062886 0.06771455 -0.20237698 -0.12435876 -0.20666283 0.068146616 -0.18408313 -0.03222098 0.14469163 -0.1856587 -0.106986254 0.003067316 0.1081596 0.01512228 -0.19158411 -0.04816581 -0.060146723 0.048710942 0.035417024 -0.25422278 -0.09341216 -0.015897872 0.24437939 0.14447069 0.063124284 -0.22099572 0.2195878 0.39717773 -0.0141836945 0.05342097 -0.19839324 -0.18373452 -0.16820487
368 0.039414078 0.10659551 0.20172146 -0.17182623 0.07258889 0.3672384 0.0898833 -0.29170716 0.11481865 0.019095905 0.3538534 0.08685516 0.105797976 -0.21474035 0.32139635 -0.05546916 -0.14137962 0.21570475 0.09890903 0.090581775 0.124956 0.34803864 -0.008000872 -0.033175267 0.26992846 -0.057789974 -0.12691775 -0.13549426 0.10894434 -0.031737037 0.18940513 0.047585662 -0.113997705 -0.055924665 0.051678464 0.07396901 0.046495114 0.26296175 0.02221262 -0.26476514 -0.1655936 0.22699979 -0.20418075 -0.18073146 -0.016512716 0.10359932 0.03510752 0.024894975 0.1695524 0.27534124 0.04314234 -0.028011238 -0.14594525 -0.08429685 -0.0621298 -0.13069332 0.12768868 -0.2972265 0.22514321 0.023431664 0.31315556 0.068727896 -0.12731203 0.080587365 -0.01615683 0.2670082 0.062020764 -0.1750175 0.0049989126 -0.13662127 0.031352658 -0.06278494 0.12575878 0.011452221 -0.05485994 0.085176624 -0.17732756 -0.27156824 -0.056237556 0.1860476 0.027333217 -0.009995554 -0.10261396 0.010548704 0.07491734 -0.03932466 -0.35854238 -0.36387643 -0.026423195 0.21554893 0.15519352 0.08818847 -0.21693881 0.2512361 0.37055248 0.01562893 0.3477613 -0.27339488 -0.33491987 -0.25088114
1093 0.32404357 0.18071193 0.07485561 0.017425992 -0.03108538 0.2410751 0.015094497 -0.1770867 -0.09556371 0.007862389 0.07135203 0.013634514 0.08200956 0.06428265 0.30194837 -0.17497025 -0.14891668 0.14297552 -0.038505446 0.08714147 0.060048234 0.20302385 0.018876765 0.1804832 0.21995166 -0.032131243 -0.006437736 -0.11932415 0.08219933 -0.013634187 0.17135058 -0.007934498 -0.054125566 -0.18430836 -0.012327308 0.15479279 -0.093089655 0.10477675 0.14047116 -0.48510918 -0.17419784 0.07200592 -0.17984599 -0.22602725 -0.075547695 0.21200965 0.019158103 0.18221787 -0.20168164 0.26815176 0.05611585 -0.09380228 -0.015932305 0.08791409 -0.14895134 -0.058721855 0.17641689 -0.25276238 0.36041966 0.010679954 0.26393965 0.17013533 -0.06651411 -0.14990129 -0.011837194 0.022289513 0.043326154 -0.018668765 0.03525441 -0.031463012 -0.049832806 0.02046318 -0.14786625 -0.046516567 -0.07414961 0.009621996 -0.14429322 -0.34964842 -0.051044535 -0.109996684 0.07308808 -0.0428763 -0.1285353 0.10029239 -0.010499387 -0.010007404 -0.07513136 -0.14541978 0.09529396 0.36548322 0.2646351 0.17841838 -0.04668892 0.2132572 0.459649 -0.08377186 0.13557774 -0.09417983 -0.32546052 -0.08471361
780 -0.18983042 0.077350795 0.021703789 -0.07015252 0.26446894 0.12730138 0.11710641 -0.5791835 -0.01543372 0.08251296 0.039782863 -0.0048256465 0.3544584 -0.11846248 0.36261722 -0.23338836 -0.44478685 0.4752469 -0.11872598 0.07029163 0.24330074 0.44018334 0.1544779 0.30114552 0.16270669 -0.005499116 -0.038380023 -0.061598826 0.11759357 -0.031968296 0.3996302 0.21927269 -0.09549394 -0.25732997 -0.032748897 0.19890583 0.2064293 0.5159611 0.059891734 -0.10134848 -0.17491855 0.22372021 -0.10353108 -0.160956 -0.13384579 0.09788251 0.23881713 0.005524507 -0.09686337 0.33325684 0.30316314 -0.03978877 0.10619543 -0.11673358 -0.047252968 -0.210366 0.1471706 -0.37964627 0.31808424 -0.076626174 0.41380987 0.014063476 -0.1111278 -0.06052987 0.07575091 0.2605253 0.2852627 -0.2358473 0.07021375 -0.23107412 -0.003388494 -0.20542003 0.123364754 -0.032307323 0.17376041 0.20340861 -0.43491182 -0.44414195 -0.13484418 0.118388906 -0.12048781 -0.12896188 0.053834952 0.045459256 -0.21107332 0.101492964 -0.27839014 -0.39781314 -0.18767984 0.14458147 0.06314739 0.090587705 -0.35398293 0.2610156 0.5823641 0.019748246 0.075383306 -0.20594168 -0.4163741 -0.5275784
1622 -0.041369434 0.005564127 0.11856756 -0.17110926 0.04004354 -0.19103874 0.16085388 -0.33761156 -0.029215107 0.18660775 0.21152271 0.21071057 0.19288146 -0.068233326 0.09881655 -0.033838257 -0.24284366 0.24475448 0.04322848 0.14827712 0.21235679 0.05362203 0.13051577 0.37108073 0.1372368 0.00027676328 -0.07669403 0.06741781 -0.15160306 -0.043165952 0.25292113 -0.032082018 -0.15247093 -0.009280213 -0.089511156 0.09018391 0.1295116 0.20801672 0.032041855 -0.014056103 -0.30086273 0.096806504 -0.20585479 0.04202623 0.118117 0.14316863 0.116598696 0.081781164 -0.024170857 0.15085204 -0.11081413 -0.0038956767 -0.088212706 -0.04551906 0.0046267877 0.005841848 0.17425847 -0.20818338 0.2623192 0.09508031 0.21239999 0.053595047 -0.15601484 0.11190125 0.28780216 0.20171222 0.008223804 -0.08653722 -0.09795418 -0.35670224 0.1892336 0.12002756 0.21744306 0.13574892 0.06519557 0.2507945 -0.4107109 -0.310647 -0.2894173 0.11898549 0.071097575 0.09628709 -0.010118105 0.018114258 -0.018601982 0.1340537 -0.34968615 -0.45669183 -0.041252214 0.20035043 0.13253094 -0.033546537 -0.4604376 0.11620453 0.36676845 -0.014591373 -0.050302513 -0.29387793 -0.25175598 -0.54809713
1099 -0.107695624 0.039397664 0.14344247 -0.054453824 0.3350167 0.18176164 -0.10693055 -0.32765105 0.1332051 -0.14454806 0.0042532315 -0.06773294 0.29938906 0.114781715 0.34761575 -0.18699598 -0.23473543 0.33577943 -0.18333203 0.09586393 0.071368456 0.3342684 0.19150826 0.23375033 -0.10218289 -0.07900637 -0.070346 -0.052766014 0.18187489 -0.061090697 0.14071819 0.13586639 -0.1248899 -0.23138511 0.06358516 -0.056482237 0.19800322 0.4444258 0.27971894 -0.1963306 -0.08157875 0.18596457 -0.1587171 -0.23618959 -0.24753314 0.1435284 0.32510343 0.10084319 -0.0129566 0.30789447 0.21954882 -0.15533541 0.11225809 -0.33192986 -0.21157533 -0.028934222 0.0814242 -0.41835913 0.31215286 -0.104893886 0.39844826 0.18541381 -0.10998523 -0.09493345 0.16421758 0.19381697 0.18741184 -0.15975185 0.18277822 -0.27126443 -0.17231709 -0.1325376 0.15503211 -0.16596508 -0.05195611 0.100379474 -0.29582056 -0.45736298 -0.13353103 0.122322984 -0.0026460346 -0.09952793 -0.04224569 0.014725032 -0.2508753 0.07698046 -0.31072104 -0.30517322 -0.17666577 0.6245765 0.09425554 0.10950607 -0.3434359 0.28471467 0.56439954 -0.025040323 0.21130289 -0.09411964 -0.3805799 -0.37493846
1626 -0.15572919 0.12236703 0.06280104 -0.06421651 0.30820274 0.0779124 0.02295987 -0.4235726 0.083955005 -0.13382113 0.10387228 -0.007957917 0.45013896 0.049433425 0.35375598 -0.20502508 -0.26225087 0.33934322 -0.13253354 0.05600263 0.09516015 0.22959022 0.16991512 0.15216462 0.031201394 0.0042814743 -0.114323504 -0.05613872 0.17136481 -0.025176851 0.24767499 0.17580806 -0.05042899 -0.37810257 0.059534296 0.020177176 0.15646423 0.43282706 0.3003512 -0.22781913 -0.11726766 0.1897436 -0.11674091 -0.21992043 -0.2528823 0.11886561 0.34603342 0.08098482 -0.0040781437 0.34447777 0.32945567 -0.1840065 0.09422362 -0.31816208 -0.2838591 -0.1000924 0.020039039 -0.3303656 0.3613256 -0.1581126 0.42229223 0.103340395 -0.113531776 -0.13716571 0.045667976 0.24067405 0.19223091 -0.2112407 0.1741238 -0.17986163 -0.10170611 -0.08349834 0.11937186 -0.03975866 -0.035165478 0.099666014 -0.36340198 -0.52182335 -0.1913022 0.13429946 0.04866801 -0.14783294 0.07900958 0.10642505 -0.21990365 0.13125792 -0.24352945 -0.30525625 -0.2340252 0.5392089 0.0635577 -0.022266282 -0.42937794 0.3113799 0.5495657 -0.023838505 0.12935731 -0.11493973 -0.24054903 -0.32906947
73 -0.10074316 0.10738414 0.034920298 -0.094014935 0.3262949 0.29248884 0.0937259 -0.35553208 -0.018864203 0.02135247 0.12504426 -0.032124087 0.17724529 -0.088926494 0.38391578 -0.2956377 -0.27229133 0.34858745 -0.21246766 0.05631876 0.0532281 0.43277073 0.12392917 0.19446047 0.17046916 -0.039602235 -0.028200382 -0.13934611 0.12340973 -0.07868099 0.25900546 0.24159826 -0.1432735 -0.24346186 0.07527446 -0.033213228 0.13704138 0.39630193 0.34182054 -0.21293731 -0.1672522 0.1074495 -0.20301743 -0.25975502 -0.33358857 0.21630907 0.23079053 0.03528129 -0.08547108 0.36859187 0.28505492 -0.17925532 0.032763362 -0.3185032 -0.19184911 -0.04329336 0.08622381 -0.32120684 0.4049664 -0.12049049 0.513862 0.07453308 -0.107684396 -0.17232263 0.105144575 0.19923648 0.3036145 -0.18755807 0.002846511 -0.20952453 -0.077680886 -0.10043814 -0.051067878 -0.20690763 -0.14548482 0.09612553 -0.3935883 -0.47458777 -0.07958985 0.10542901 0.015681557 -0.07003205 -0.0702968 0.119975135 -0.1670699 0.15568517 -0.16189761 -0.3482199 -0.12470105 0.38660845 0.068630084 -0.033957105 -0.34980386 0.23445968 0.6121039 -0.18759689 0.18537621 -0.1833436 -0.45057532 -0.33102193
1353 0.29094696 0.029926505 -0.0037613881 -0.11658696 -0.093811184 0.3286075 -0.02748092 0.13730663 -0.0033721991 0.14172055 0.14020157 0.048252814 -0.005131663 0.14643252 0.19097556 -0.2982301 -0.14414501 0.06361025 0.15329143 0.117776975 -0.2756435 0.1637928 -0.097598836 0.14578912 0.31233114 0.12757933 -0.115017526 -0.09064949 0.26586652 0.023619082 0.025865503 0.052663103 -0.14814483 -0.075485036 0.06847924 0.076232575 -0.30867088 -0.20239313 0.21369551 -0.70527375 -0.2674181 0.08409074 -0.19373429 -0.24551347 -0.0007259926 0.23175006 -0.018094448 0.08764133 -0.19502516 0.1863731 0.09705566 -0.06442858 0.039709833 0.03717052 0.060354564 -0.024882859 0.07744085 -0.11684681 0.45960248 0.13862053 0.43264258 0.007553522 0.01653916 -0.27179953 0.0020394512 0.019228226 -0.011525607 0.009462803 -0.02436867 0.077619284 0.010217113 0.053862356 -0.05186881 0.091148384 -0.19537036 0.14610003 -0.010720868 -0.15453832 -0.11304241 -0.07690536 0.122383736 -0.05689499 -0.26884323 0.23580272 0.043553133 -0.13105024 -0.00040712344 -0.108331844 0.08843384 0.32246667 0.28903863 -0.095727876 0.06626661 0.0013885275 0.12205404 0.097024515 -0.007950587 -0.09421103 -0.13890882 0.27107012
1906 -0.15803811 0.07415833 0.1783553 0.01081473 0.3134951 -0.11439192 0.07046247 -0.4313652 0.1451999 -0.16484195 0.060621385 -0.1145789 0.32778502 0.0033228844 0.27466086 -0.052974638 -0.2601992 0.29100984 -0.040522702 0.09826599 0.1609388 0.34072387 0.2591816 0.21829696 0.0150533905 -0.14859039 -0.031714536 -0.027291318 0.08091353 0.00022260076 0.15326667 0.17654178 -0.09755365 -0.33182338 -0.02269998 -0.043343414 0.2478778 0.37741917 0.26825333 -0.34200692 -0.1996217 0.1702516 -0.2788497 -0.123800516 -0.15676704 0.21688937 0.17693505 0.05368534 0.03319567 0.2994344 0.20716472 -0.1564234 0.055327054 -0.2725726 -0.13621454 -0.010282129 0.098901615 -0.33793655 0.2857869 -0.09773124 0.35080537 0.2003295 -0.12944375 0.003610302 0.15749496 0.104360655 0.13533774 -0.08424309 0.07659302 -0.17108622 -0.045661055 -0.063795626 0.15382221 -0.061471876 -0.047369167 0.015852347 -0.39563304 -0.37751544 -0.13195318 0.16012168 0.054308787 -0.11903366 0.038248394 -0.008968389 -0.06117149 0.14924699 -0.2999882 -0.37216717 -0.10651487 0.4152425 0.08152861 0.06738337 -0.57669705 0.21022518 0.6762571 -0.033554982 -0.0052180653 -0.10606999 -0.19985189 -0.406861
523 0.36665347 -0.023167321 0.20364515 -0.25574175 -0.14845291 0.26682773 0.0192564 0.1588357 0.027742678 -0.17617418 -0.046049826 -0.04738338 -0.060864475 -0.038028747 0.081943825 -0.20856266 -0.3817484 0.089163534 -0.1194156 -0.044889465 0.05191409 -0.0694883 -0.04372946 0.022890145 0.12625971 -0.08347902 -0.051503446 -0.007377003 0.11641084 -0.0075437403 0.05731846 -0.03415631 0.084485136 -0.40112418 0.0041827043 0.14492758 -0.25651568 -0.17703617 0.034857634 -0.5195286 -0.37538335 -0.02438205 -0.18677606 -0.12953484 0.015459121 0.02848691 -0.20977625 0.07486232 -0.0144909145 0.069659404 0.2512929 -0.026236238 0.072378084 0.24563427 0.29732203 -0.15169409 0.026018778 -0.2138256 0.13157703 0.11762893 0.080255546 0.09414046 -0.006218429 -0.2212113 0.20999973 -0.23535831 -0.21139614 -0.06174974 -0.025849354 -0.17703706 0.06561145 0.043614388 -0.16243392 -0.015569588 0.06253981 0.0741784 -0.17932709 -0.11294763 -0.09325652 -0.1436917 -0.010501076 0.07791529 -0.08189138 -0.028932799 -0.14572036 0.044308346 -0.24798238 -0.10579151 0.16306876 0.28385434 0.4472292 0.20365526 -0.061623823 0.016155485 0.48662195 -0.07024859 0.029196879 -0.22873178 -0.36019713 -0.13288881
572 0.32001203 0.16399284 0.2860831 0.006217835 0.08452288 0.3276297 0.1056308 -0.14696346 -0.08995075 -0.05593533 0.07643516 0.037426706 -0.008048186 -0.033607975 0.21831013 -0.15897468 -0.030250855 0.1537597 -0.016478842 0.09829881 0.07540345 0.07308946 0.017518925 0.1477064 0.21305628 -0.08668239 -0.0551099 -0.16332166 -0.119777136 -0.037535552 0.11917138 0.012227609 -0.027067624 -0.11590772 0.043517165 0.022667125 0.010677102 0.056095257 0.18449485 -0.3964616 -0.3235769 0.07642034 -0.20235232 -0.1428843 -0.17298953 0.050366048 -0.19646181 0.21973452 -0.117963135 0.03134908 -0.054714482 -0.1157125 0.07873158 -0.03976814 -0.0066191833 0.03650187 0.03232999 -0.27595493 0.22339979 0.07313834 0.2092786 0.3340242 -0.030148882 -0.16413172 0.15711586 -0.031073492 0.04241281 -0.12893185 0.086122096 -0.41368982 -0.17198129 0.012624867 -0.19545989 -0.16758998 -0.02776563 0.12268136 0.00278718 -0.1583543 -0.09967292 -0.057840295 -0.041041154 0.021000117 -0.1343649 0.10756687 0.027374314 -0.021883378 -0.09844148 -0.25822967 0.04567134 0.2810471 0.22521448 0.10588546 -0.050799895 0.12770273 0.3638131 0.109415606 0.14563975 -0.15245534 -0.100209124 0.03097806
1107 -0.16787866 0.05034622 0.056268714 -0.20717953 0.22010368 0.24151964 0.04123574 -0.48416442 0.10435214 0.038229648 0.19232415 0.06060255 0.25069243 -0.0065835197 0.45829237 -0.033437185 -0.36464566 0.31848258 -0.17998853 0.032504767 0.12354175 0.43653283 0.20158276 0.18780707 0.07582149 -0.0510294 -0.00026959376 0.05914434 -0.00402183 -0.08884892 0.27306777 -0.012550836 -0.14224574 -0.106036976 0.03822087 0.10000816 0.12347483 0.4165097 0.17949837 -0.11904832 -0.19610447 0.2299395 -0.12058316 -0.17499569 -0.22122502 0.058155708 0.23997518 0.13819483 -0.064721994 0.2564066 0.13263918 -0.15703034 -0.014560942 -0.09977904 -0.11478347 -0.14193779 0.019825272 -0.4101483 0.36044142 0.04041548 0.502064 0.122700386 -0.19656165 -0.085802555 0.13635448 0.13809751 0.21918269 -0.14767894 -0.1985594 -0.2908323 -0.08661488 -0.099395394 0.28037494 -0.23297419 0.060037605 0.15009354 -0.25641817 -0.40696657 -0.24345179 0.045685492 0.15659487 -0.010564455 0.14143562 0.00461684 -0.19824164 0.097181246 -0.3922573 -0.36748976 -0.15007041 0.30066162 0.14150213 0.07725868 -0.39910528 0.409213 0.5651121 -0.02732051 0.29214016 -0.17903586 -0.30137488 -0.38141775
1638 -0.07760811 0.028241651 0.024652027 -0.05707786 0.36553192 0.03945694 0.0070661614 -0.46877256 0.18247683 0.0018666248 0.20322508 0.09165428 0.33374956 -0.15522271 0.40243125 -0.17120542 -0.3051827 0.22626932 -0.19434498 -0.0010184343 0.23555873 0.37809715 0.07084204 0.23079886 -0.023263084 0.05375999 -0.09187683 -0.070300914 0.06511626 -0.08853 0.21859671 0.03939221 -0.081908576 -0.20406765 0.012725225 0.030071082 0.0770655 0.36207584 0.17616622 -0.3013623 -0.04086914 0.15968364 -0.09964999 -0.17062496 -0.09354054 0.18165639 0.17106733 0.077404365 -0.008476899 0.28510004 0.1761736 -0.06959318 0.09441591 -0.114686236 -0.10777379 -0.24869388 0.077558085 -0.28235713 0.44303787 0.037917968 0.3692272 0.11379998 -0.18680409 -0.0802582 0.03211366 0.2780893 0.18978691 -0.31618375 0.11166722 -0.23574105 -0.027907142 -0.09855078 0.14076225 -0.09159775 0.1331279 0.2515578 -0.24875666 -0.33208734 -0.121730216 0.1086775 0.073262766 -0.0013110614 0.08141694 0.15788136 -0.13389526 0.16473612 -0.25493902 -0.4004488 -0.0997838 0.2801022 0.0962687 -0.0028764573 -0.22644491 0.23122546 0.46993193 0.06596599 0.38141447 -0.33280954 -0.41502947 -0.3934588
1639 -0.03419374 0.03390021 0.0054895966 -0.2019496 0.105607904 0.14824113 0.18017547 -0.29516977 0.17354755 0.1289527 0.10964934 0.18128958 0.14012496 0.012918945 0.28303614 -0.09542952 -0.38166025 0.25204697 -0.09215873 0.09768785 0.15831062 0.105911486 0.13199982 0.33482745 0.05814308 -0.109597355 -0.07856209 -0.009815701 0.043075126 -0.097738646 0.301656 0.014819187 0.050025184 -0.27959833 -0.0016574002 0.10046453 0.09247985 0.2556861 0.12752986 -0.09764709 -0.12323012 0.11917492 -0.18520686 -0.077344894 -0.07737303 0.1911766 0.12119763 0.011960429 -0.024488846 0.2137563 0.1721482 -0.035550993 0.055490896 -0.1636558 -0.08486919 -0.031521846 0.14015917 -0.14576909 0.2792052 -0.031129306 0.22003643 0.013662919 -0.021745188 -0.14131919 0.19570747 0.16641662 0.101218544 -0.1997265 0.01759869 -0.28864768 0.09990017 0.03004894 0.14343812 0.05270956 0.023082491 0.22177316 -0.27416456 -0.34643194 -0.17785878 0.13834895 0.028162863 -0.10881635 -0.027404094 0.009516984 -0.154049 0.034006137 -0.16603152 -0.34913024 -0.103239976 0.22876844 0.083886355 0.10738532 -0.3094217 0.12782101 0.3037054 0.070649385 -0.100048974 -0.1896142 -0.26353332 -0.45402628
1112 0.1558272 0.13073328 0.0794709 0.035674952 -0.13666065 0.13416962 0.23399214 -0.09544249 -0.19620383 0.2043314 0.28086922 0.27778158 0.023873668 0.22518751 0.08193974 0.07826961 -0.13442712 0.040175494 0.15262204 0.20532389 0.053625893 -0.103104554 -0.24902909 0.40210298 0.40687147 -0.06230004 -0.09930954 -0.24627618 -0.25509837 0.0634688 0.14008124 0.083132565 0.08366512 -0.085066505 -0.14752218 0.18204772 0.056742333 -0.17178018 -0.21272606 -0.41083962 -0.31847322 0.13592277 -0.31934413 -0.061957635 0.017474245 0.206143 -0.1972972 0.14789046 -0.1063817 -0.037371155 -0.13061488 -0.05780787 0.082540736 0.08963633 -0.0771494 -0.01791955 0.059426133 0.07397419 0.08225479 0.16419336 0.027141137 0.032003637 -0.0056211855 -0.11528726 0.1541556 0.14672837 -0.0026875855 -0.12627235 -0.042507842 -0.52033633 -0.087303914 -0.019559164 0.022139808 0.14983755 0.038603384 0.055144865 -0.32756457 -0.114288405 -0.23398934 0.0067037884 0.087630406 -0.030067643 -0.19291387 -0.002762038 -0.009920087 -0.026755752 -0.031633817 -0.42004958 0.12395314 0.23799236 0.19135389 0.02914355 -0.115045644 0.120126404 0.18792018 -0.03387553 -0.10913742 -0.020649165 0.03175588 -0.1347657
409 0.12213307 0.10780397 0.1093175 -0.17217864 -0.06534073 0.09402264 -0.024663266 0.023851344 0.11087382 -0.19341555 0.05805528 -0.018321767 0.12665176 0.22130674 0.04207723 -0.23987809 -0.051504835 0.030300764 0.064432085 0.0627602 0.030720863 -0.023357222 -0.060293075 0.2001548 -0.016617412 0.044256236 -0.12167748 -0.09395658 0.107967444 -0.05566463 0.111205764 -0.08290169 -0.036776595 -0.3635514 0.07447458 0.07482998 -0.17574461 0.012248283 0.21605437 -0.5474485 -0.26879287 0.06016887 -0.091296986 -0.10284118 -0.069459766 0.14409141 0.005527695 0.057181608 0.029495047 0.09129 0.21825297 -0.015150506 0.21986969 0.0663202 0.07526557 -0.06930229 0.004285969 -0.24549116 0.2590476 -0.05055992 0.15167953 0.31500784 0.15090406 -0.12242871 0.15921478 0.015952697 -0.0749201 -0.17764704 0.0930746 -0.12072665 -0.059014045 -0.05143422 -0.020002695 -0.0027317023 0.030406898 0.07717052 -0.060735524 -0.043513473 -0.018002035 0.01552838 0.026541125 -0.13523377 -0.13438103 0.062054086 -0.015581952 0.023447026 -0.13804953 -0.08592658 0.08635545 0.41031125 0.256729 0.06938344 -0.023008578 -0.115185 0.23844163 0.09236941 0.015215861 -0.1663005 -0.08796095 0.09294391
1249 -0.18053304 0.08178115 0.0829593 -0.1885129 0.3344299 0.0477531 -0.03027802 -0.4764602 0.09817698 0.017888457 -0.03152408 0.016334355 0.23428726 -0.023603827 0.33572707 -0.20052293 -0.36485705 0.37267444 -0.20691743 0.11651743 0.1404582 0.35776016 0.20143804 0.21468775 -0.11960471 -0.09500548 0.020070313 0.086013824 0.15267833 -0.089815795 0.18657328 0.079731315 -0.09862471 -0.29965496 0.05636886 0.03500464 0.13938338 0.44463482 0.28190482 -0.120671354 -0.11523307 0.24749964 -0.20881757 -0.20793279 -0.14426024 0.18823916 0.30747414 0.07939556 -0.045351896 0.20402761 0.14728136 -0.077042505 0.07838281 -0.32625607 -0.13150315 -0.08906221 0.13279018 -0.4687939 0.30699322 -0.049523424 0.42929754 0.020357799 -0.14748348 -0.063039735 0.20654534 0.14468339 0.24828099 -0.19260891 -0.056442384 -0.21524101 0.052117616 -0.081401445 0.26713142 -0.080216154 0.03850513 0.13261504 -0.39213604 -0.4674367 -0.15205103 0.18397881 0.046452574 -0.07062292 -0.026618615 0.041538667 -0.34262532 0.15605877 -0.3724583 -0.30850023 -0.12761219 0.41416705 0.111823924 0.11459628 -0.46638697 0.22167881 0.5848739 -0.08625568 0.060307637 -0.20409039 -0.3633787 -0.40754166
1263 -0.109305926 0.13766287 0.062399052 -0.050501555 0.3024383 0.29425132 0.006260377 -0.35906398 0.102882735 -0.11256883 0.089418024 0.087070525 0.28614426 0.18869407 0.5208755 -0.30092067 -0.301906 0.38972574 -0.22465082 0.043288812 0.18269409 0.41687936 0.05740803 0.22980998 0.051886786 0.04507936 -0.021416109 -0.06321934 0.19573407 -0.12939174 0.22550666 0.022191843 -0.06709429 -0.35187322 0.033324618 0.10338574 0.012831621 0.52694345 0.2727796 -0.25250766 -0.09549843 0.3468137 -0.09662313 -0.2904234 -0.30100453 0.14971274 0.24550495 0.10802426 -0.10001816 0.429079 0.22737035 -0.18215846 0.080276705 -0.2652199 -0.29871592 -0.1311728 0.1740277 -0.34311 0.36134163 -0.089642785 0.4382648 0.11811112 -0.035921574 -0.24589494 -0.069742516 0.19554703 0.1882247 -0.19507194 0.06565685 -0.073830515 -0.17991723 -0.025295949 0.13548222 -0.16834232 0.06861963 0.029410204 -0.2179782 -0.49315053 -0.03243599 0.0865261 0.054442447 -0.13506798 -0.030130701 0.09364956 -0.28865284 0.12657674 -0.16186789 -0.19188088 -0.07452384 0.48611566 0.23094358 0.18247607 -0.1910788 0.35122296 0.5756247 -0.088030435 0.2984641 -0.141345 -0.32008177 -0.32044372
177 -0.0012607955 0.14501625 0.029118001 -0.0841014 0.2896552 0.13656579 0.050474837 -0.43654028 0.16774827 -0.0691762 0.14315706 0.10847063 0.16999617 0.017414177 0.44945347 -0.2517788 -0.32311738 0.39192748 0.047595624 0.08041588 0.31961668 0.38675594 0.1879234 0.29106444 0.059489828 -0.15549347 -0.053737108 -0.122837104 0.20367803 -0.0997683 0.2608576 -0.03555247 -0.071521334 -0.20817004 0.024267389 0.010827749 0.14876045 0.5117843 0.27344826 -0.07632232 -0.044275347 0.19806029 -0.095385574 -0.093781725 -0.20050754 0.09333354 0.11913729 0.02359436 0.018550139 0.28387716 0.088309124 -0.100277424 0.015951918 -0.32455456 -0.19827433 -0.022578718 0.19629557 -0.27902156 0.2400594 -0.08529787 0.41691056 0.06711457 -0.09046823 -0.059250448 0.0301637 0.23981176 0.1726456 -0.2241934 0.042360082 -0.14794572 -0.048028763 0.015907539 0.21038203 -0.155459 0.035466358 0.14399964 -0.31580472 -0.5913168 -0.14682847 0.113558345 0.028158627 -0.056805715 -0.015628813 0.00048322874 -0.22884336 0.10792886 -0.24503951 -0.29072264 -0.066236265 0.3794841 0.11953817 0.16835603 -0.4180169 0.26129508 0.66305417 -0.087699145 0.046005066 -0.14905043 -0.3063471 -0.5188633
1052 -0.14844655 -0.046825916 -0.0060304855 -0.0469145 0.33685243 0.041896727 0.03288786 -0.35793176 0.004708132 0.08395271 0.058533203 -0.012588665 0.26795736 -0.029769005 0.40060958 -0.11509697 -0.22295602 0.3317698 -0.14181834 0.041404385 0.2605855 0.19232804 0.16229066 0.2281988 -0.10213554 0.026122808 0.0527965 -0.068275996 0.069872625 -0.11976891 0.19108394 0.040783208 -0.22664142 -0.15329319 -0.0058463514 -0.0067219385 0.13216698 0.32769012 0.24769475 -0.36368397 -0.24380785 0.12842108 -0.30163378 -0.20415498 -0.16198243 0.18126793 0.22814319 0.064190745 0.004400677 0.3448266 0.03505136 -0.16160896 -0.01024009 -0.20126462 -0.14610311 -0.0027211946 0.27609557 -0.45763773 0.43559885 -0.013552843 0.40951636 0.22352347 -0.16027105 -0.09582759 0.15348892 0.21076623 0.110913545 -0.05352942 -0.03195509 -0.2965544 -0.085361555 -0.0024301314 0.1524809 0.05886575 -0.052603256 0.13024472 -0.19963932 -0.36081284 -0.12783292 0.09015891 0.015559454 -0.05600722 -0.021751463 0.10822215 -0.11801016 0.13921723 -0.26582497 -0.32422504 -0.18836519 0.4887059 0.052988395 0.044985685 -0.38677147 0.0775841 0.4147708 0.0870461 0.15295288 -0.27965152 -0.32584462 -0.40647802
587 0.066192396 -0.035168212 -0.19639455 0.04804721 0.08892358 0.19272313 -0.03823672 -0.00043439673 0.17212264 -0.09685131 0.030908212 0.20746394 0.13017176 0.22362943 0.21482784 -0.2891563 -0.07209845 0.022557603 0.008393761 0.01033029 -0.053946476 -0.14335455 0.032961715 0.2748249 -0.08508174 0.07212773 -0.12367671 -0.088863194 0.10487988 -0.05391736 0.008228874 -0.012939708 0.033872463 -0.2555142 0.012212416 0.13932464 -0.17296265 0.11903992 0.15647107 -0.11586727 -0.13762058 0.14511839 -0.1669238 -0.2536266 -0.13069196 -0.053073637 0.074363336 0.15453675 -0.16231653 0.055786673 0.2706683 -0.09304851 0.13796031 -0.045088336 -0.058530793 -0.10824956 0.02362606 -0.14249393 0.16274424 -0.15053996 0.34409937 0.21619117 0.13283402 -0.1632986 0.21374919 0.19526434 -0.08461925 -0.31996614 0.18201423 -0.40217623 0.20181286 -0.07342086 0.07955723 0.12833957 0.14764583 0.1487049 -0.16100258 -0.37242696 -0.27184564 -0.042128965 -0.003161241 0.020139828 -0.11865957 -0.014724091 -0.13372125 -0.08505165 -0.14719367 -0.23060758 0.081660464 0.49991438 0.21116586 -0.0111323465 -0.14384185 0.050080847 0.21185558 0.10082493 0.07048325 -0.088795476 -0.27117538 0.18935785
588 0.29136768 0.14838222 0.16614722 0.13256736 -0.08283426 0.0418717 0.1417356 -0.14788583 -0.06860837 -0.043339606 0.13423589 0.06268404 -0.018418832 0.18620409 -0.0010847176 -0.018356565 -0.09454577 0.116263546 0.23252593 0.031841904 0.14952262 0.06699078 -0.06835578 0.23254545 0.09287004 -0.04833499 -0.11278834 -0.1790761 -0.06895799 0.08706296 0.07013038 0.05069422 -0.07851041 -0.13717547 -0.060836136 0.0049495 0.07324268 0.008256119 -0.039213255 -0.3879483 -0.22500777 0.11247319 -0.036882345 -0.058553968 -0.027174793 0.05842203 -0.1438745 0.05662675 -0.15523952 0.17091155 -0.101575375 -0.06333492 0.12433486 0.09889542 -0.07747508 0.0110212285 0.06602323 -0.29791042 0.052413333 0.21036075 0.049152084 0.24274556 0.000770257 0.09744468 0.060263544 0.20990525 -0.026024459 -0.12851225 0.112162694 -0.30090746 -0.11531308 -0.087650105 -0.12325458 0.05507552 0.09405207 0.1440433 -0.03940582 -0.18379325 -0.07483236 -0.13937841 -0.15158208 -0.10650063 -0.111622766 0.11086962 0.1826534 -0.24285367 -0.25109965 -0.30073586 0.039652944 0.16790906 0.36363414 0.06434783 0.03254679 0.06704386 0.36274794 0.21290793 0.10260677 -0.11847926 -0.19338444 -0.32619494
1124 -0.0855314 0.02976561 0.17497191 -0.0986206 0.41326845 0.0023316743 0.058003645 -0.40004364 -0.088613875 0.107506104 0.19746825 0.04092629 0.04886304 -0.03753337 0.3057 -0.14083181 -0.23014715 0.33600974 -0.2554136 0.1121946 0.19229111 0.21779418 0.15431117 0.36725485 0.18931594 -0.09012712 -0.020241296 -0.008821978 0.09967596 -0.05411403 0.1737979 0.14076824 -0.12877584 -0.1600047 0.13845661 -0.14668696 0.101397306 0.4044666 0.120373234 -0.13604762 -0.10943062 0.011350351 -0.26054305 -0.114340864 -0.28392425 0.20563371 0.13411668 -0.042396534 0.003774353 0.23173665 0.2451819 -0.20912896 0.0018815671 -0.3249301 -0.044782683 0.03131679 0.077987045 -0.37924737 0.2283773 0.0137278875 0.3134672 0.12767208 -0.16263705 -0.010986373 0.07411481 0.3015162 0.160141 -0.21671957 0.21035647 -0.33278707 -0.03199894 -0.07538155 0.10009762 -0.12196832 -0.049674448 0.13078517 -0.39920998 -0.28342184 -0.16047989 0.11410558 -0.026709264 -0.05597793 0.011068356 0.026716013 -0.1871182 0.24032924 -0.14967959 -0.3442084 -0.14082006 0.33593225 0.051265996 -0.011477339 -0.26822242 0.012471963 0.46622762 -0.015063396 0.20435597 -0.14575803 -0.31647468 -0.3632218
590 -0.040851187 0.14086817 0.09955687 -0.12250389 0.24484754 0.17654791 0.052394036 -0.5427763 0.00533228 0.030364767 0.056646578 -0.008409013 0.27566794 -0.077060476 0.25341618 -0.116553135 -0.29021975 0.3111313 -0.007005802 0.1528389 0.17829579 0.28585097 0.025180517 0.17215492 -0.06609897 0.0017534428 0.08245645 0.06363949 0.041377887 -0.05619382 0.20353466 0.09569185 -0.12085509 -0.38201305 0.0062004444 0.044633277 0.14667726 0.3589685 0.18781666 -0.25514957 -0.1097718 0.1017965 -0.16302796 -0.1818703 -0.14184928 0.10692042 0.31159252 0.07023981 -0.10086876 0.19577596 0.18228579 -0.074177146 -0.007764238 -0.28780118 -0.13500787 -0.0984852 0.11520056 -0.44704956 0.2613659 -0.005661728 0.40216425 -0.010147445 -0.20025308 0.06922138 0.16558282 0.16191149 0.2054949 -0.16680725 -0.006259363 -0.23611408 0.021659171 -0.09473887 0.09792602 -0.057359844 0.011387744 0.048279397 -0.3005718 -0.4337217 -0.122211896 0.10980972 -0.066397615 -0.21885288 0.033979714 0.10132702 -0.260268 0.036138758 -0.33906144 -0.20559573 -0.14505662 0.29038405 0.08617193 -0.019782722 -0.38876078 0.23989491 0.5006894 -0.050861515 0.089703545 -0.315747 -0.4991847 -0.59978706
1654 -0.015765432 0.25346115 -0.0017583091 -0.18121022 0.037686218 0.17819658 -0.08856033 -0.505276 -0.07684882 -0.013527241 0.08987729 -0.1391819 0.46129498 0.12578349 0.372176 -0.27148286 -0.25696382 0.32748228 0.120094046 0.28319559 0.019561261 0.3813502 -0.06645307 0.27504963 0.04255432 0.103414975 -0.10667249 0.14449824 0.16720326 -0.059789535 0.29829326 0.010483672 -0.0803987 -0.033626214 0.041575976 -0.2697936 -0.10071996 0.38517827 0.40895012 -0.3328948 -0.049129687 -0.08225695 -0.10092854 -0.042951014 -0.28147623 -0.025273424 0.27814156 -0.020737559 -0.22993703 0.17818241 0.086514704 0.037475076 0.120176814 -0.29957557 -0.23601054 -0.021964828 -0.007882083 -0.40639004 0.27892807 -0.029015183 0.26026824 -0.016821204 -0.29575238 -0.16011596 0.2903685 0.13842683 0.32931623 -0.111622445 -0.08506867 -0.18406756 -0.043612733 0.21974412 -0.04426727 -0.3050989 -0.28995374 -0.17567003 0.03264842 -0.427804 -0.1588954 -0.3499477 0.099862196 -0.04498636 0.056930374 0.22268105 -0.28242716 -0.16697283 -0.06412715 -0.12127699 -0.18289658 0.3650622 0.17284147 -0.21974316 -0.061210576 0.24653028 0.34571707 -0.053248957 0.21100882 -0.22196521 -0.39942935 -0.3803974
1299 0.3811012 0.18964787 0.11323088 -0.009137557 -0.23937306 0.28460467 -0.012275086 -0.019730376 -0.07630945 -0.21363278 0.0799136 -0.07473333 0.017650798 0.20897233 0.11297337 -0.15982378 -0.19427414 0.08700496 0.30636635 0.011393951 -0.045784995 0.116049565 -0.00024730293 0.16331577 0.37863818 -0.09170273 -0.09714741 -0.17398572 0.09931359 0.025743542 0.22355537 -0.0051942132 -0.044988483 -0.13118862 0.011518162 0.2158736 0.021042613 0.0076434086 0.12449085 -0.4533723 -0.25906217 0.16512193 0.048061382 -0.13754144 -0.014692047 -0.08922807 -0.11698688 0.07835976 -0.2567611 0.07836915 0.02739792 -0.111317664 0.13034266 0.31369996 0.047582183 0.04768726 0.05119002 -0.20393468 0.19419959 -0.11970153 0.26300457 0.18650521 0.08944779 -0.18114664 0.08455787 -0.01476024 -0.056548208 -0.13154905 0.03861454 -0.06800893 -0.08776888 -0.05838431 -0.04073007 -0.091920026 0.057747692 0.07959078 -0.11607124 -0.2825583 -0.06215275 -0.18555905 0.006781033 -0.003986345 -0.16168025 0.013478127 0.040953495 -0.14902738 -0.11347887 -0.030950803 0.08091115 0.18496665 0.40967742 0.14009635 -0.050086956 0.33839095 0.41512436 -0.043161273 -0.09281656 0.03359333 -0.18048277 -0.07040728
594 0.017682727 0.02433729 0.16998382 -0.04151499 0.062956564 0.10707483 -0.017551268 -0.09119194 0.07021869 -0.14133 0.00855445 0.09393656 0.07076281 0.18479103 0.2941242 -0.08766937 -0.32050973 0.2950769 0.011564721 -0.013115463 0.24155326 0.12900567 0.27359185 0.21839485 0.06426068 0.011184337 -0.04175709 -0.06250265 0.05255976 0.09595561 0.09059926 -0.042054385 -0.024416257 -0.3283897 -0.048628937 0.053657852 -0.019525526 0.29160973 0.103459045 -0.2911619 -0.12245083 0.25428736 -0.1472562 0.011502927 -0.06126792 0.05072919 0.08254715 0.1507979 -0.1995871 0.20319556 0.049978267 -0.08918923 0.064975835 0.06302725 -0.05177553 0.028720807 0.34778827 -0.28967166 0.1233926 0.0633304 0.24010229 0.23800938 -0.06212909 -0.0686456 0.062149964 0.15459864 0.101817854 -0.1378363 0.15124302 -0.037065286 -0.17194377 0.08154165 0.07508223 -0.05780354 0.07042725 0.10045798 -0.08129793 -0.3664449 0.07325006 -0.17085539 -0.044856116 -0.15125175 -0.10948506 0.060667478 -0.055882197 -0.021296525 -0.26945066 -0.16670452 0.0048192195 0.2943807 0.28678668 0.1788033 -0.07554813 0.17713654 0.47346854 0.16205342 0.18659058 -0.045579765 -0.2760378 -0.24080962
1128 0.23922355 0.12431705 0.043962922 -0.14207448 -0.08111039 0.23739633 -0.12407082 0.04663855 0.042145062 -0.26673344 0.22732954 -0.06695954 0.06935938 0.09259886 0.09816074 -0.08123764 -0.032042913 0.0038655933 0.21940719 0.056344327 -0.03548451 -0.053329103 -0.021667814 -0.05432793 0.055700596 0.059478242 -0.1546576 -0.124223754 0.1752669 -0.05916334 -0.15299803 -0.05455944 0.08692995 -0.32193473 0.015491405 -0.031061018 -0.23171179 -0.19967769 0.21264659 -0.45409945 -0.2082333 0.1614887 -0.17453314 -0.1679029 -0.015665896 0.036116272 -0.1180776 0.18700927 0.064211816 -0.04553344 0.097997755 0.064951 0.13059562 -0.03479688 0.099529095 0.028528439 -0.1279791 -0.24344656 0.102287695 -0.10949549 0.20648678 0.15787779 -0.025574725 -0.11969057 0.10844975 0.04628778 -0.15014479 -0.20271936 0.13296857 -0.19533813 0.14750347 0.04593362 0.09540355 -0.05582471 -0.08063565 0.019729605 -0.11157471 -0.16893488 -0.21952233 -0.13168745 0.036361787 0.02333221 -0.13518928 -0.01364193 -0.17540888 -0.15621349 -0.24021907 -0.1955607 0.19838959 0.39824915 0.39722708 -0.020852523 -0.15309183 -0.0019942683 0.2616829 -0.028528411 0.047402684 -0.04359087 -0.009368077 0.28164083
1658 0.06681732 0.088303186 0.008047263 -0.09117362 0.17934148 0.068372354 0.019724958 -0.42991072 -0.016173989 0.085532255 -0.0048997407 -0.023225121 0.20213197 -0.10972874 0.26399574 -0.27196914 -0.3432434 0.31737244 -0.062352546 0.06504255 0.14149031 0.30133873 0.06158608 0.13841774 0.1958849 0.042267486 0.06078833 0.005352966 0.11862415 -0.12918729 0.27613914 0.08222517 -0.12981506 -0.18893377 0.11375855 0.123460844 0.03205562 0.2520994 0.22713566 -0.24471597 -0.22319917 0.10237975 -0.12353606 -0.14182335 -0.109316476 0.10412301 0.11281532 0.018717792 -0.09315083 0.25344247 0.10393527 -0.10988937 0.018432025 -0.10787988 -0.05951812 -0.053104423 0.021070482 -0.3771196 0.39835715 0.00029804333 0.38001403 -0.017787842 -0.15446131 -0.082950726 0.17359583 0.10109605 0.102004655 -0.1196037 0.0030126092 -0.17408657 0.011200253 -0.0837663 0.10685357 -0.10428498 -0.054814015 0.1291874 -0.31674242 -0.37797448 -0.19711949 0.027157638 0.08548786 -0.09126985 0.012745948 0.13624993 -0.21862659 0.11163638 -0.22878842 -0.20844007 -0.08093835 0.26104808 0.22929151 0.08480538 -0.25857237 0.23628426 0.59630597 -0.09974527 0.08919408 -0.18481152 -0.2945752 -0.2533698
1659 -0.005220721 0.026708683 0.10983673 -0.09853901 0.18388398 0.32393575 0.1414474 -0.070028506 -0.011657818 -0.013785829 0.1733344 -0.04602368 0.058626276 0.20152119 0.19912753 -0.053609774 -0.18921098 0.11530717 -0.081233606 0.037391406 -0.05471922 -0.048897047 0.07611362 0.25964174 0.05926407 0.012800842 -0.12306829 -0.06807097 -0.019314572 -0.15645444 0.062021706 0.022437647 -0.011456675 -0.14200677 -0.08164451 -0.10229706 -0.01935049 0.10416798 0.088017985 -0.21081163 -0.2596568 -0.055625618 -0.30585915 -0.07132851 -0.25720847 0.07553954 -0.018937934 0.08123389 -0.12489272 0.03386008 0.19212788 -0.11684839 0.051188692 -0.12835765 -0.025100335 0.110555895 0.04709533 -0.1362275 0.03850856 -0.104907416 0.26015714 0.26069424 -0.11183631 0.0011876421 0.19970573 0.081468426 0.07581578 -0.22304578 -0.031713072 -0.34380415 0.10960562 0.023650967 0.054351117 -0.20889618 0.02347661 0.112758845 -0.23733154 -0.15920423 -0.26775032 -0.08615027 -0.053945974 -0.09986056 -0.08306523 -0.14646702 -0.08640796 -0.049321465 -0.12706035 -0.30144727 0.037244085 0.23144867 0.21794957 0.022512442 -0.1948189 -0.04542022 0.23968096 -0.08159699 0.055360653 -0.19642334 -0.14979085 -0.15282176
597 -0.046381664 0.07484896 0.076866634 -0.046581652 0.11248064 -0.04399574 0.14312655 -0.34176347 -0.116871536 -0.04231934 0.19764301 -0.04888544 0.21011901 0.01203998 0.20046312 -0.24941623 -0.25064555 0.07690344 -0.19544213 0.061769214 0.09109361 0.13237876 0.06805791 0.27123374 0.09975552 0.13838696 -0.018135002 -0.053882644 0.03478063 -0.058956474 0.24004722 0.09155412 -0.1352881 -0.14043194 0.05888312 0.12445185 0.010381286 0.26006883 0.15882288 -0.22221275 -0.1403121 0.22169031 -0.28440443 -0.12930314 -0.16392392 0.19223358 0.067880034 0.08731049 -0.07084175 0.3355432 0.22524738 -0.060583245 -0.021854272 -0.051140245 -0.10064685 -0.121732116 -0.02334674 -0.32042864 0.36681065 0.09627163 0.28645164 0.21007904 -0.20697068 -0.047177535 0.036504533 0.16192439 0.06971293 -0.24339236 0.0775118 -0.21751359 0.08107494 -0.10421592 -0.10676131 -0.047648307 0.06517831 0.17132103 -0.19854158 -0.4265473 -0.14244032 0.03334133 0.1392112 -0.013916151 -0.0040084124 0.11684013 -0.0017975993 0.09897368 -0.18762769 -0.11594709 0.011959951 0.34928367 0.16566351 -0.09186688 -0.18118437 0.11327835 0.44992825 -0.08305146 0.04147513 -0.10917181 -0.20525576 -0.16751999
1662 0.11503346 0.16302976 0.113596536 -0.11749675 0.008334246 0.14874057 -0.0014239383 -0.3774938 -0.18045276 0.009333388 -0.076325364 -0.058126505 0.17673999 0.13470069 0.15566982 -0.15629587 -0.10250732 0.22472863 0.0057740235 0.018408015 0.10289503 0.20515804 0.25496054 0.29867646 0.24030666 -0.07496369 0.025599493 -0.02699873 0.07722658 -0.20355979 0.33476803 0.0002687481 0.113928035 -0.2395178 0.013601719 0.13927877 -0.004210578 0.3130705 0.20782427 -0.28311667 -0.20762807 0.23977883 -0.13111843 -0.27957535 -0.012859013 -0.006755908 0.19580635 0.18147205 -0.24804942 0.25822073 -0.048552897 -0.046225373 0.04891681 0.003498967 -0.15173905 0.08103839 0.049154352 -0.40331504 0.18982571 -0.19005956 0.44125187 0.05513173 -0.17413677 -0.19991995 0.06327024 0.12894477 -0.004812009 -0.13237742 0.17686766 -0.25223207 -0.008172709 0.026157595 0.13820577 -0.07384719 0.05360255 0.03572049 -0.35085595 -0.26608098 -0.29133424 -0.1676316 0.008114226 0.06284967 -0.100738 -0.014289889 -0.13367486 0.04906415 0.027869785 0.09201364 0.14329052 0.2782075 0.24427122 0.022122877 -0.16187377 0.33030504 0.42135283 -0.17874253 -0.16218649 0.020291578 -0.060968045 -0.14616403
267 -0.19185996 0.0016821782 -0.091056176 -0.30314708 0.024232425 0.0851715 -0.07438523 -0.17436211 0.14069691 -0.09838 0.032672174 -0.07714486 0.2861761 0.110197596 0.19805694 -0.09773958 -0.23580132 0.06364602 0.05253533 -0.10090181 0.053581096 0.05048174 0.0761734 0.17184822 -0.25742376 -0.056335967 -0.10163191 -0.02450646 0.0730042 -0.040161416 0.10191008 -0.055415418 0.10736969 -0.38101727 -0.00071494863 0.0023567015 -0.05031897 0.094590455 0.20015512 -0.3024981 -0.12755176 0.13798985 -0.2431664 -0.18513827 -0.074718 -0.04113256 0.35317287 0.16847469 0.112573676 0.23450385 0.0661721 -0.006308722 0.13522424 -0.09849011 -0.16045623 -0.07123671 -0.112392634 -0.49984074 0.08778521 -0.07896944 0.27730826 0.0751873 -0.037074786 -0.29021648 0.2299215 0.020302199 0.096476175 -0.12822022 0.08445806 -0.29568535 -0.081698455 -0.073132165 0.14061311 0.08225254 -0.039204642 0.04972595 -0.22289278 -0.2965815 -0.06511585 -0.02707324 0.021497997 -0.15116118 -0.095337145 0.04977542 -0.15660632 -0.08925552 -0.2531982 -0.15634255 -0.098787524 0.51888746 0.1715551 -0.02260361 -0.3510081 0.08107781 0.28134704 0.09419288 0.08185172 -0.24056983 -0.23837534 -0.25218624
1666 -0.14494674 -0.03198259 0.07321859 -0.2550579 0.04871885 0.24773975 0.110584125 -0.27641594 0.23512246 0.015666671 0.18236019 0.02853366 0.30497217 -0.0892562 0.28466558 -0.08826498 -0.4387582 0.26798388 -0.07925226 0.09739758 0.079087995 0.2931582 0.23076336 0.13906749 0.029761251 -0.08778342 -0.10836953 -0.011583907 0.09003821 -0.09814569 0.35758594 0.13623245 0.034068003 -0.22569966 0.030824544 0.109206 0.21296458 0.2752247 0.23482767 -0.16433449 -0.26074067 0.23292099 -0.061615575 -0.07052748 -0.15294218 0.16428323 0.2616245 -0.062081065 -0.017912034 0.2301446 0.27452824 -0.073317535 0.073132806 0.005538592 -0.1697142 -0.1042617 0.06665083 -0.25589582 0.44137618 -0.0013843302 0.2996205 0.04151733 -0.111102365 -0.08854621 0.17154972 0.00059325714 0.18597266 -0.060834985 -0.12483021 -0.036117867 -0.0561434 -0.041969102 0.069602415 -0.05810702 -0.008762885 0.20394874 -0.29922032 -0.465533 -0.07758419 0.03284488 0.16927363 -0.11085129 0.020891814 0.071556486 -0.12660775 -0.12928809 -0.38044757 -0.19302215 -0.11715582 0.22394785 0.15596527 -0.05987646 -0.3325319 0.23595376 0.48748794 0.013569882 0.058067366 -0.3371951 -0.59859747 -0.73606324
1671 0.10968369 0.060587965 0.06389305 0.087776855 -0.06749522 0.28558758 0.114048116 0.23960371 -0.17901976 -0.026140656 0.12593304 0.104831435 -0.0778944 0.25718486 0.17146732 -0.21718459 -0.17155723 0.1077005 -0.113293394 0.135282 -0.07830224 -0.033856407 -0.03521958 0.16003941 0.27697003 -0.028502773 -0.19979906 -0.1974604 0.040196963 0.060620524 0.08453812 0.2610728 0.029411836 -0.17051753 -0.05359084 0.029222785 -0.009772565 0.08588562 0.06798969 -0.33683524 -0.18186726 0.1063358 -0.1510772 -0.080519095 -0.030462777 0.26441997 -0.16161579 0.11835314 -0.22309034 0.25778615 0.126725 0.04556447 0.120570995 0.014635555 -0.15805288 0.034426164 0.0007798547 -0.105474755 0.31970745 0.09428517 0.17817299 0.26384076 0.047517035 -0.19928887 0.019354843 0.15776701 -0.05901591 -0.08133048 0.11550393 -0.25922942 -0.23026983 0.00065966375 -0.09001551 0.051441114 -0.14177622 0.16367993 -0.10815938 -0.17950597 -0.086759575 -0.09273888 0.029039413 -0.11033858 -0.21713367 0.026929777 -0.033525255 -0.1160851 -0.12287215 -0.15644437 0.037095174 0.37091744 0.22931682 0.13203079 0.0078112925 -0.023126313 0.35959536 -0.025758123 -0.012869656 0.079735376 -0.12448247 -0.1282927
1672 -0.26862487 0.110689834 0.089414865 -0.04897245 0.18575011 0.28208345 -0.010359519 -0.21665621 0.14662844 -0.07852125 0.06471948 -0.044779655 0.3585594 -0.059214387 0.3447185 -0.15260234 -0.27429527 0.35124338 -0.09950525 0.11403238 0.036888596 0.3148313 0.10940026 0.24759635 0.01853867 0.22469266 0.012327282 -0.093245156 0.180236 -0.0112664355 0.07100757 0.16989256 -0.08173165 -0.2261619 0.04334512 -0.1710925 0.19770737 0.28192157 0.3610864 -0.4010952 -0.13432746 0.13712128 -0.3160915 -0.0673458 -0.3557769 0.2559 0.15160576 0.09998174 -0.11446961 0.2758822 0.2905776 -0.17036958 0.07919159 -0.20196387 -0.06381364 0.022315327 0.16102347 -0.08923121 0.41447157 -0.03307676 0.439224 0.021491429 -0.06468691 -0.1493146 0.05500635 0.13521789 0.28975895 -0.16201541 0.07021777 -0.12370429 -0.08222896 -0.050180376 0.018618008 -0.35004655 -0.15862407 0.07019349 -0.25892496 -0.3471517 -0.02962566 -0.03413388 0.115755975 -0.15820687 -0.035940215 0.05887447 -0.24469332 0.079650134 -0.06383163 -0.33857703 -0.035446204 0.31816986 0.14297073 -0.01833952 -0.3361245 0.2494598 0.5765774 -0.20258307 0.2003148 -0.08436208 -0.2532462 -0.21589677
1141 0.12627578 0.088414766 0.07161486 -0.007393288 0.030175392 0.1574006 -0.07143426 0.016851129 0.0436337 -0.23257233 -0.027155742 -0.032672774 0.03159665 0.371693 0.21148676 -0.25243914 -0.16800018 0.096280776 0.0010646326 -0.017505517 0.004819637 0.01599825 0.12818131 0.109439366 0.0015515363 0.0062515414 -0.071185 -0.059221838 0.13925822 -0.11443972 0.051155135 -0.0012221723 -0.08241518 -0.13534844 0.024449527 0.18746583 -0.08219821 0.2783677 0.15089947 -0.27334678 -0.17580311 0.28613967 -0.14331506 -0.19090389 0.019163536 -0.0027430363 -0.00974346 0.07818859 -0.18571806 0.12553361 0.033095624 0.031424567 0.020855896 -0.013728601 -0.036797512 -0.08060623 0.10554453 -0.23124059 0.10764968 -0.052476868 0.52746224 0.20368072 -0.07918867 -0.009150191 0.0860127 0.0292915 -0.020724826 -0.14150023 -0.09689198 -0.20900723 0.1268828 -0.08839323 0.045834236 -0.10569563 0.050655454 0.0071297167 -0.15160654 -0.32750142 -0.118766345 -0.089603454 0.0041721277 -0.05076008 -0.16437283 -0.07381554 -0.1305403 -0.017158575 -0.19522215 -0.018765323 0.20851569 0.47276384 0.26086637 0.21943931 -0.25230706 0.35598713 0.48699352 -0.043850504 -0.026017718 -0.07228667 -0.25239637 0.017200636
1143 -0.008046426 0.20763582 0.07129552 -0.18965949 0.1450711 0.27983135 0.008835551 -0.22613211 0.033655073 0.14348559 0.13907982 0.024605695 0.21679272 0.09865799 0.33063915 -0.17966597 -0.14196257 0.23554575 0.0748329 0.007710681 0.13230363 0.1109271 0.09324334 0.12253522 0.13593644 -0.121099554 -0.09432591 -0.0145327365 0.19959345 -0.12633964 0.15291134 0.14093146 -0.0012773043 -0.28301963 0.14981362 -0.029328514 0.045551106 0.11740894 0.33921352 -0.3011218 -0.2403447 0.04057158 -0.2459114 -0.23304103 -0.09521092 0.12434453 0.24655978 0.118800186 -0.02423056 0.13405634 0.119113155 -0.061874673 0.014389668 -0.30454525 -0.15061559 -0.020950895 -0.040792473 -0.37493375 0.34156686 -0.101597585 0.50374144 0.07267791 -0.059168987 -0.19765595 -0.001562688 0.08405302 0.013130922 0.04161445 -0.053774465 -0.22121961 -0.03007864 0.097494766 0.10127152 -0.019652218 -0.12204673 0.027153965 -0.23494886 -0.23540507 -0.13737032 0.055397283 0.003328369 -0.037662946 0.06927446 0.07839574 -0.21206199 0.048079338 -0.080721945 -0.21652159 0.0041185427 0.29234338 0.0023356671 -0.08556429 -0.30366254 -0.014183195 0.188554 0.016755031 -0.033379238 -0.10709817 -0.08113241 -0.14489909
1419 0.08567399 0.0926219 0.09239591 0.036188737 0.20718786 0.13525505 0.16065514 -0.32045707 -0.09778971 -0.066707194 0.16047975 -0.007843711 0.09330798 0.09699786 0.2536176 -0.07444587 -0.10287237 0.16449481 -0.19668211 0.099060826 0.20734526 0.0862672 -0.008571535 0.13550588 0.104030594 0.005880454 -0.056997128 -0.084610194 0.04951737 -0.07265814 0.14534451 0.08798157 -0.10193396 -0.32844555 -0.06362148 0.061745495 0.00431711 0.22618182 0.019307544 -0.3039588 -0.2643663 0.11310288 -0.20345686 -0.21084782 -0.11078232 0.17035459 0.06808435 0.030389436 -0.03983585 0.321549 0.19759193 -0.041911304 0.0394914 -0.14024861 -0.11494362 -0.10381488 0.12613875 -0.34506938 0.24832448 -0.047768313 0.30388343 0.20721751 -0.102967486 -0.056084454 0.068147324 0.2016668 0.0009902419 -0.13648628 0.094681375 -0.20856397 -0.038448755 -0.101002194 0.091638215 0.056089666 0.062366508 0.03169902 -0.2810249 -0.25112727 -0.098039225 0.15623604 -0.1579833 -0.08573985 -0.0022785927 -0.00061020843 -0.078817315 0.08364873 -0.23144583 -0.2784958 -0.06545666 0.31835523 0.10491877 0.078978166 -0.25717038 -0.0071735615 0.29831818 -0.023273239 0.10892741 -0.21044053 -0.22599016 -0.27289656
1678 -0.0011981966 0.029983629 -0.095880866 -0.015501791 0.18987322 0.26151848 -0.019690858 -0.18177892 -0.04680236 0.075865075 0.07415717 -0.00932657 0.21617433 -0.06225185 0.3600818 -0.3027109 -0.2735739 0.29798183 -0.051940516 0.090361126 0.064150386 0.34929615 -0.032309912 0.079963885 0.15972912 0.112150334 -0.09242859 -0.15325058 0.15033314 0.039426878 0.11279035 0.11957399 -0.1274716 -0.10922486 -0.005715154 0.10943595 -0.016108762 0.22476023 0.19444501 -0.390411 -0.20269509 0.15306623 -0.062443204 -0.31336993 -0.1831116 0.16514623 0.088318095 0.025287984 -0.10556094 0.27539885 0.25938413 -0.121731155 0.032266263 -0.14354402 -0.08252989 -0.083218865 0.18600367 -0.2405291 0.37657604 0.05770296 0.37988898 -0.01536244 0.008905122 -0.21153435 -0.04426728 0.21082272 0.13200037 -0.10668303 0.0051282635 -0.07356802 -0.025418589 0.04125386 -0.030261802 -0.024144625 -0.05058432 0.14203553 -0.2814584 -0.38703403 -0.09336578 -0.08303557 -0.02895203 -0.04406181 -0.19811058 0.1472708 -0.07629509 -0.09502605 -0.13356604 -0.267031 -0.054148953 0.36092034 0.22429858 -0.01281104 -0.19169797 0.21910174 0.52153826 -0.056813847 0.20684007 -0.20069088 -0.41468012 -0.091401964
608 0.20729771 -0.0042021866 -0.012112663 -0.12185335 -0.03651918 0.18142664 -0.046283178 0.2779564 0.066864945 -0.097484566 0.024417125 -0.02511216 -0.04302729 0.2197383 0.038416784 -0.3849568 -0.15802704 0.029605413 0.01423661 -0.08730827 -0.0022531913 0.06781088 0.07937294 0.1090245 0.17679317 0.031813156 -0.15961172 -0.1498672 0.33159798 -0.08771333 -0.032314107 0.021091959 0.071185715 -0.23608749 0.1552144 -0.008836564 -0.23838545 -0.08605695 0.21540272 -0.46861216 -0.34921077 0.17146154 -0.21654822 -0.22861074 -0.087942764 0.122131534 -0.08243249 -0.09559469 -0.17693229 0.17396094 0.14460832 -0.13285217 0.16972393 0.045023203 0.060114913 0.020157088 0.0035291607 -0.23426004 0.2510838 -0.027027208 0.27216798 0.14488886 0.06405468 -0.2568411 0.11288109 0.017898375 -0.1262169 -0.07352624 0.13993356 -0.07219365 0.007144368 0.058691468 -0.041771974 -0.0869665 -0.068949014 0.090129584 -0.057836346 -0.14992158 -0.044609144 -0.11941729 0.092344716 0.029005984 -0.1380304 0.09697774 -0.13852558 -0.021321932 -0.07832506 -0.08588566 0.28216124 0.23208323 0.39064643 0.035937496 0.072708145 -0.13332503 0.2716471 0.13431053 0.00795216 -0.16595735 -0.3548072 -0.056586754
610 0.2584647 0.08830488 0.19322667 -0.2567916 -0.14538778 0.33600643 0.07217552 -0.0003114537 -0.056126244 0.014381052 0.1604932 -0.055217892 0.010318351 0.28102976 0.27338704 -0.08244249 -0.13856037 0.18334979 -0.060287002 0.117223464 0.07912412 -0.085471705 -0.1102794 0.14978498 0.132914 0.11095036 -0.2450566 -0.03668168 0.19036235 -0.13676332 0.09269832 0.009760143 -0.081231505 -0.29555112 -0.24321505 -0.022456624 -0.19998308 -0.06018403 -0.02351036 -0.49387985 -0.30544773 0.08438906 -0.36632937 -0.11305959 0.07529719 0.2015488 -0.13659483 0.33414972 -0.119297415 0.15598387 0.15054248 0.115450054 -0.028060893 -0.034709435 0.019045219 -0.038233977 0.17926134 -0.15425503 0.17031907 -0.014459467 0.008142254 0.21691886 0.02804382 -0.26973444 0.022265945 0.015851617 -0.15261601 0.021763114 -0.10486332 -0.18201211 -0.066461146 0.02513872 -0.020489888 0.0774316 -0.022106882 0.06667401 -0.16699004 0.001011595 -0.11829205 -0.12551412 -0.011711318 0.029943855 -0.08587346 -0.009711407 -0.15325272 0.014528772 -0.010434097 -0.1858367 0.1147611 0.25325614 0.17076108 0.19042063 -0.04339813 -0.17462543 0.07283267 -0.0026311825 0.013573968 -0.108315445 -0.11480409 -0.18154888
1146 0.19872831 0.031937353 0.09678545 -0.1700254 -0.11698876 0.08068134 -0.045737777 0.14818029 -0.027198652 -0.12499935 0.09355517 0.12687427 0.078214124 0.33074704 0.06479056 -0.18301058 -0.082323276 0.07045446 0.1669609 0.14194116 -0.07430645 -0.04910692 -0.00044113255 0.2076719 0.08514906 -0.040244155 -0.06075808 0.04386879 0.11748926 0.06858056 -0.031925537 -0.07531903 0.057864178 -0.32934198 0.11416121 -0.0150105795 -0.3087758 -0.16699089 0.28858265 -0.5019803 -0.30436072 0.21021238 -0.2694871 -0.1816784 -0.053906642 0.19225748 0.08260523 0.0668125 -0.18442579 0.103391655 -0.26601872 -0.113247804 0.12611595 -0.002462478 -0.22763069 0.18436266 0.09558605 -0.26701 0.008040764 -0.12263587 0.18175338 0.122683994 -0.0060250894 -0.29083294 0.2736164 -0.014529645 0.0022487 -0.047234237 0.2460639 -0.121772096 -0.052707657 0.1912141 -0.028091818 0.09703091 -0.10764196 0.036901686 0.077416286 -0.2209225 -0.08715137 -0.17921016 0.027379034 0.01448169 -0.23290232 0.07190943 -0.049925804 -0.21729493 -0.057889152 0.18006663 0.15402459 0.48261306 0.29992008 -0.07892764 0.022207463 0.08687127 0.084041215 -0.066171445 -0.11120284 -0.16934456 -0.23686399 -0.18648134
2126 -0.23629117 0.06972833 -0.0096258335 -0.12604387 0.20123535 0.03527674 0.017349333 -0.39477292 0.15091404 -0.007593866 0.05361452 -0.035675395 0.33024937 0.055898577 0.42967215 -0.040097207 -0.1869797 0.2085245 -0.054689545 -0.020869091 0.15336533 0.2426002 0.22310367 0.1449454 0.009587573 -0.025667276 -0.0409353 -0.05159317 0.009900586 -0.043951355 0.23096842 0.11289277 -0.13728747 -0.14225787 -0.0059455233 0.114658624 0.15106755 0.3734335 0.22317001 -0.25200883 -0.2748919 0.2025099 -0.35932934 -0.19395654 -0.1336193 0.096642554 0.2470429 0.16128287 0.013513686 0.23087724 0.13624606 -0.17027476 0.010881683 -0.15171233 -0.15476179 -0.0630602 -0.015856942 -0.39183083 0.20484062 -0.1516301 0.42726418 0.17132878 -0.14524865 -0.19500947 0.1120632 0.047492012 0.111530855 -0.028388474 -0.13476133 -0.35420355 -0.042933792 -0.13157131 0.19289829 -0.04636114 -0.04985686 0.072825134 -0.3489142 -0.3680333 -0.2002485 0.10783224 0.076642506 -0.043989476 -0.0034346662 -0.017179959 -0.06996993 0.10470754 -0.2769524 -0.44200107 -0.086211056 0.5210564 -0.008926768 0.0337939 -0.5729389 0.23633157 0.50385773 0.0014940273 0.09665375 -0.21746711 -0.35596472 -0.2878281
53 0.19704577 -0.052274127 0.25224695 0.057822976 -0.03921087 0.39132327 -0.06166826 0.15711293 0.07030362 -0.14032887 0.21282142 0.02342914 -0.0036709828 0.25882962 0.18419905 -0.15785943 -0.20266043 0.113462165 0.113777936 0.124249764 -0.2066439 0.06550295 -0.10632582 0.08411464 0.20543605 0.042952403 -0.03688069 -0.1254539 0.092721455 -0.004170967 -0.07601603 0.11703804 -0.12570307 -0.13387634 0.18656804 -0.051641352 -0.09525276 -0.17165494 0.18118738 -0.6242897 -0.21374494 0.14385208 -0.2755506 -0.09964338 -0.16839021 0.0699558 -0.060758274 -0.019164244 -0.14015828 0.12892914 -0.1952159 -0.15861969 -0.047467664 0.1474351 -0.006731643 0.061756752 0.26943785 -0.12218214 0.22779624 0.22585888 0.43931508 0.15573427 -0.18549258 0.0013699298 0.24358961 -0.05379119 3.09869e-05 -0.03250764 -0.0120240385 -0.0996792 -0.029765166 0.053426877 -0.16148278 -0.19690537 -0.17877893 0.060806982 0.13137768 -0.33521256 -0.12254035 -0.14986168 0.06820813 -0.109451346 -0.21268587 0.039263204 0.11682803 -0.20719998 -0.17801659 -0.027872633 -0.003688903 0.3335348 0.47851557 -0.065609716 -0.0028006057 0.31358248 0.3455859 0.0023082478 0.2747689 0.008000108 -0.096651085 0.17831154
1151 -0.12310847 0.09743639 -0.022142649 -0.123079956 0.28580078 0.09019331 0.16646206 -0.4661507 -0.048557933 0.052841455 0.19558538 -0.031932432 0.09280686 0.07349627 0.38958296 -0.10032902 -0.17926095 0.3200305 -0.031904183 0.07752234 0.24074799 0.03496891 0.19850093 0.18549159 0.09002776 -0.08716735 -0.26099223 -0.12950167 0.19507866 -0.23661129 0.31203577 0.22638243 -0.17579545 -0.23475988 -0.110507146 -0.08984113 0.20242405 0.27770886 0.19406365 -0.1257016 -0.17880607 0.100143775 -0.30890176 -0.11784419 -0.062126637 0.17238632 0.14500535 0.12399883 0.09132543 0.32755643 0.19266947 -0.098929584 0.022044117 -0.4881316 -0.14935409 0.018839842 0.096759364 -0.3599398 0.23129767 -0.12783603 0.1787018 0.09676581 -0.126149 -0.05147739 0.12750512 0.2224832 0.059545606 -0.07116382 -0.057793014 -0.38117114 0.049530488 -0.05168694 0.18562944 0.18920417 -0.071208425 0.056636877 -0.41736016 -0.36187145 -0.22210757 0.24855356 -0.04347005 -0.07816624 0.05013673 0.06605196 -0.12711588 0.19451964 -0.24542944 -0.4112815 -0.19767144 0.3701178 -0.061088614 0.02873757 -0.58375263 -0.075330466 0.41242972 0.032222636 -0.009897315 -0.28939283 -0.27856806 -0.55577177
1686 0.008373761 0.040089883 0.1309738 -0.04544679 0.12915683 0.24267876 0.08163542 -0.18601324 -0.009853166 -0.011304024 0.32121375 0.13280113 0.1957461 0.10688274 0.3551382 -0.16862567 -0.24578083 -0.00085173093 -0.2704846 -0.04287892 0.08331737 0.07390479 0.11534507 0.15004554 0.075113274 0.13279696 0.015140308 -0.14336476 -0.112306975 -0.098930605 0.16139047 0.09718072 0.0033678603 -0.27573577 0.07904941 0.20687531 -0.08719392 0.1317736 0.08457511 -0.2397508 -0.15582478 0.18526508 -0.25883913 -0.15043628 -0.12656824 0.012305035 0.019360546 0.19591312 0.007971303 0.18453145 0.030004412 -0.18960549 -0.11770249 0.045865394 -0.19162151 -0.11976086 -0.001278948 -0.2748738 0.32452244 0.10007234 0.39423716 0.18793751 -0.22929743 -0.15200149 0.09547801 0.032303173 -0.01765911 -0.20665926 -0.010708059 -0.39325944 -0.047107685 -0.096983 -0.053304136 -0.08314375 -0.06213162 0.099798255 -0.22733429 -0.51051044 -0.17868055 -0.0033572123 0.24750778 0.05314058 -0.013011446 0.13394558 -0.024621502 0.11086855 -0.17413229 -0.19284408 0.046543423 0.41383982 0.25238043 -0.071317695 -0.22280946 0.23270161 0.41704813 0.06689366 0.19173303 -0.19593735 -0.39993113 -0.077095665
1734 -0.026654776 0.03042603 0.122265175 -0.118411206 -0.13585342 0.15231597 -0.10468473 0.54560566 0.28019357 -0.19139378 0.34210625 0.046865787 0.22196884 0.22091936 0.16987336 -0.08330037 -0.24696076 0.030223863 0.29365313 0.054168496 -0.049795594 -0.048705474 -0.0523039 0.024477296 0.1835448 0.119219884 -0.3307261 -0.06675054 0.105541654 0.05623946 0.15393886 -0.031064574 0.07705939 -0.1996041 0.08014993 0.09000418 -0.08162515 -0.20073868 0.03849393 -0.4129585 -0.22692795 0.13846728 -0.102655 0.012005604 -0.105411276 -0.00074922876 0.022171127 -0.16113791 0.12157348 -0.02166767 0.1798812 -0.025906255 0.14999938 0.182212 -0.08922753 0.15197517 0.0917526 -0.048604123 0.09326508 -0.024395872 0.05598575 0.14230506 0.05246785 -0.13009793 0.20796233 0.045439348 0.024465296 -0.11951238 0.118266076 -0.024344755 -0.05965999 0.04649874 0.09877545 0.02166351 -0.15775728 0.06522118 -0.11086197 -0.34538803 -0.017442461 0.00020714873 0.11164792 -0.18393224 -0.19573893 -0.014809544 -0.058601335 -0.3300427 -0.35371608 -0.17137946 -0.062333446 0.47482967 0.40074933 0.113586955 -0.10819652 0.020274173 0.26686135 0.15379238 0.081794426 -0.11124407 -0.35400337 0.23346126
1155 0.025534742 0.08742579 0.072463706 -0.16827755 0.1765951 0.27546316 -0.033871092 -0.31986088 0.07968295 0.08590006 0.06265666 -0.02551321 0.30220956 0.030728765 0.3898318 -0.07411897 -0.19559166 0.34957272 -0.061338063 0.098336644 0.08859747 0.31738755 0.15581934 0.04640602 0.12796652 0.18255927 -0.049010314 -0.064627044 0.22464538 -0.093158334 0.19947335 0.13172266 -0.11354326 -0.10741091 -0.023422204 -0.009224005 0.054274384 0.16659863 0.13484749 -0.38808575 -0.2467495 0.1978521 -0.29425427 -0.10291769 -0.11949904 0.0727916 0.049788512 0.15115108 -0.06601645 0.18148525 0.042903796 -0.029812394 0.09790185 -0.31097215 -0.03140981 -0.0561326 0.11668667 -0.25752044 0.2926969 -0.058260456 0.35776323 0.044205736 -0.22907802 -0.19379823 0.038540706 0.08233001 0.16279317 -0.11824003 -0.05108383 -0.104016095 -0.14121325 -0.033519108 0.06292789 -0.041593555 -0.09155092 0.1137603 -0.12740074 -0.27973855 -0.1456424 0.02560555 -0.018481907 -0.069493525 0.0038872953 0.101969294 -0.11245653 -0.028264383 -0.12159342 -0.27985206 0.0047937883 0.39263174 0.119804025 0.11406366 -0.28334314 0.17274384 0.35073385 0.12884878 0.077610664 -0.26685008 -0.33874354 -0.09496921
616 -0.16946629 -0.07896551 -0.04259106 -0.20682228 0.21471338 0.09372037 0.061308857 -0.43096608 0.14600073 -0.06395316 0.10647906 -0.040871926 0.42900965 -0.041456115 0.4454768 -0.09816618 -0.43399724 0.28399548 -0.16612838 0.053129915 0.20635493 0.38629657 0.22073407 0.22576113 0.06572568 -0.013112177 0.015057756 -0.01334742 0.08091351 0.028472109 0.31131095 0.0537606 -0.01044171 -0.3336446 -0.054600578 0.09900127 0.12941849 0.36066592 0.2727726 -0.323886 -0.36836386 0.2441482 -0.33588043 -0.18836522 -0.29337916 0.1808644 0.32313603 0.077549264 -0.07754195 0.48995855 0.2048647 -0.22155467 0.10747352 -0.059386972 -0.18507993 -0.105315104 0.19239248 -0.36751693 0.41750282 -0.09136963 0.4692796 0.12763776 -0.12502122 -0.33384812 0.13944903 -0.008006927 0.23175554 -0.08228267 -0.07287317 -0.021517484 -0.13884304 -0.07403544 0.08859369 -0.061942153 -0.01156168 0.15559502 -0.43172845 -0.5252992 -0.0789077 0.07796433 0.14913033 -0.0750171 0.009106152 0.031312574 -0.121839106 0.04392358 -0.24186175 -0.29919386 -0.16080166 0.38240567 0.07848226 0.026612438 -0.49293017 0.26435286 0.5882708 -0.099722885 0.045634408 -0.24799547 -0.40660584 -0.47599748
1690 0.27613202 0.044996545 0.05622907 -0.019666042 -0.13046691 0.35295054 -0.06693379 0.06974506 -0.030213023 -0.07493269 0.008482094 -0.0061908546 0.004253082 0.15314698 0.17781258 -0.10369349 -0.091234066 0.07108725 0.034956753 -0.019888964 -0.13233411 -0.108419724 0.009395069 0.07992511 -0.034229696 -0.0029331567 -0.08450679 -0.0025500425 0.08829295 -0.08316393 -0.02297903 0.11267079 -0.054001007 -0.22895364 -0.06795105 0.15708919 -0.12656282 -0.26762 0.056723207 -0.46745583 -0.2679855 0.046216235 -0.2726254 -0.27273053 0.0707234 0.072906315 -0.054106504 0.1715185 -0.16891095 0.004060416 0.081414886 -0.018070675 0.16560167 0.12053689 0.121639036 0.07349617 -0.0015645851 -0.20807488 0.15473194 -0.032637447 0.101088285 0.20455438 -0.030402346 -0.1999873 0.22872494 -0.068769805 -0.022605196 -0.05736229 0.039548337 -0.31616876 0.012970245 -0.025427498 0.017039005 0.1932732 0.06062204 0.1155048 -0.110447794 -0.07343437 -0.18409643 -0.07857995 -0.052693088 0.0022809515 -0.16022412 0.114735015 -0.073462196 -0.109959565 -0.14661959 -0.18761404 0.0108125815 0.38274753 0.2535916 0.06022116 -0.20164022 -0.08123978 0.22615178 0.07134347 0.03170381 -0.20219453 -0.37971503 0.031411044
1691 -0.019974649 0.062122237 -0.0044548716 -0.06686781 0.23635061 0.2211914 -0.012253172 -0.21863617 0.020964054 -0.025404938 0.017390762 -0.093500644 0.1602247 0.07111978 0.24283038 -0.27522603 -0.27591348 0.24939142 0.015000702 -0.080253534 0.024570659 0.35181051 0.14790566 0.120359 0.062623866 -0.10545221 0.012203216 -0.068786144 0.21536364 -0.028299974 0.17685673 0.1517555 -0.06239497 -0.2575258 0.16668905 -0.052317437 0.121469446 0.35800517 0.32690862 -0.32209754 -0.07444798 0.18277065 -0.14638065 -0.22737603 -0.26451427 0.1837126 0.20824052 -0.02252599 -0.14977048 0.24502891 0.21017769 -0.16541989 0.11020981 -0.18441986 -0.18535179 -0.04883516 0.1012188 -0.27286583 0.25867644 -0.017623981 0.43422303 0.07847228 -0.018149022 -0.12825575 0.08187483 0.14638305 0.21815234 -0.099376395 0.014742473 -0.11697083 -0.054979376 -0.08177862 0.069462694 -0.17130977 -0.06139817 0.15383814 -0.27384344 -0.41525146 -0.057353612 0.017612215 -0.03336724 -0.17543119 -0.05349979 0.084460825 -0.14889017 0.020499526 -0.16298854 -0.21503688 -0.07872161 0.40115708 0.17024891 -0.044465803 -0.2300317 0.12865427 0.5392366 0.011628198 0.15813437 -0.033047408 -0.28502622 -0.25270274
1693 0.07870774 0.084067784 0.005898966 -0.255381 -0.13119021 0.272885 -0.06901056 0.10252966 0.051963747 0.10925567 0.055714328 -0.038765397 0.047948495 0.12487876 0.035340574 -0.06791542 -0.11015293 -0.022169905 0.20013553 -0.0075504007 -0.0977547 -0.0117338775 -0.057712663 0.13597696 0.021583777 0.09818293 -0.056545842 -0.0037328703 0.05006713 -0.007691299 0.068206266 -0.023635143 0.061015014 -0.23529164 -0.06636512 0.07463574 -0.13351862 -0.32989976 -0.07758112 -0.4541133 -0.26263306 0.06650222 -0.22607553 -0.10837274 -0.08783644 -0.03943053 -0.050744846 0.17716774 -0.000660959 -0.021041479 0.16561474 0.06641986 0.099509254 0.121101364 0.19625108 -0.094000645 0.04414617 -0.24329515 0.07681119 0.12190829 0.073104665 -0.08949414 0.020753196 -0.13095237 0.112758406 -0.029370718 -0.04668542 -0.15043695 -0.046945494 -0.32864982 -0.030288246 -0.08548913 0.1597808 0.24044089 0.0070039122 0.033729598 -0.17803828 -0.06036956 -0.13856393 -0.045951564 0.034379642 -0.10922319 -0.104343124 0.0643757 -0.11101878 -0.17347829 -0.12778476 -0.1738596 0.010720565 0.4477207 0.33334005 0.091070846 -0.30722857 -0.091732524 0.20178944 0.2551434 -0.051858447 -0.30775174 -0.3950435 -0.060812425
620 0.022072913 0.20199376 0.25087026 -0.10984723 -0.021890132 0.28188336 0.25254238 -0.18463174 0.145943 0.06969461 0.32585523 0.26573494 0.2292604 0.09029704 0.39208415 -0.08659181 -0.44621605 0.35192707 0.16706115 0.2187131 0.066238694 0.24746966 0.059615888 0.3973415 0.3675135 -0.074152686 -0.2417443 -0.13064662 0.09359452 -0.018573804 0.28676185 0.2386784 -0.020388698 -0.11381348 0.040716574 0.017919999 0.2772291 0.16474707 0.2063866 -0.17789619 -0.16144714 0.13955823 -0.13818783 0.093658835 -0.17184933 0.24035886 0.052666746 0.06990077 -0.0822896 0.12368121 0.06855554 -0.11730855 0.059058547 -0.064154014 -0.08389109 0.05136508 0.081947654 0.026703823 0.28946385 -0.009404928 0.2809336 -0.057695102 -0.17256783 -0.027312893 -0.066604376 0.08569021 0.20977637 -0.041368976 -0.014967708 -0.063778765 -0.13096008 -0.055158693 0.017819133 -0.21597095 0.04617376 0.171164 -0.1795921 -0.23666935 -0.098568946 0.03633836 0.12932277 -0.10361138 0.18823583 0.07003087 -0.07715104 0.09661802 -0.07572927 -0.2513431 -0.06836727 -0.038858816 -0.039937604 -0.00073356857 -0.19103684 0.30796963 0.34556076 -0.19229539 0.12186993 0.0015946149 -0.09165016 -0.51234907
1483 0.12665465 0.07431082 0.042688977 -0.15958948 0.11046863 0.07320685 0.030371528 -0.1983895 -0.023728047 0.1326793 -0.05002945 0.011789401 0.076238915 0.11000172 0.26953956 -0.167648 -0.2709235 0.33480284 -0.11424383 -0.004555087 0.11019063 0.052911706 0.101122946 0.09559516 0.18426019 -0.0388521 0.06359687 0.161478 0.20304745 -0.021874078 0.21893714 -0.009123812 -0.15431146 -0.39898768 0.051967897 0.11565647 -0.0701558 0.049600154 0.1880379 -0.4204634 -0.21829824 0.18665071 -0.27534226 -0.17976755 -0.07104815 0.14200824 0.17958356 0.19057478 -0.107987605 0.26080692 0.20089935 -0.10501961 0.062348004 -0.15321575 -0.073506474 -0.04329334 0.14746022 -0.44411454 0.36302957 0.026993206 0.31753856 0.053328782 -0.16142716 -0.1423659 0.02793881 0.09622 -0.056020614 -0.08626975 0.114443265 0.11315777 -0.020199625 0.075888045 0.09573563 0.18318644 0.1438508 0.13419916 -0.21991876 -0.39006808 -0.14142226 0.019099133 0.0019453161 -0.013258529 0.052047215 0.06993074 -0.1874139 0.06900244 -0.11185884 -0.06865448 -0.11922616 0.43024954 0.20367675 0.07647573 -0.11718353 0.0073552253 0.43068472 -0.040459402 0.041060627 -0.06600456 -0.17856598 -0.04565786
622 0.29659474 -0.020564595 -0.0976603 0.026734455 0.04339902 0.3161945 0.09954233 -0.36467987 -0.0066070533 0.04507814 0.15572314 0.14430076 -0.09497784 0.044340868 0.31982473 0.016540077 -0.20776738 0.07143352 0.03406504 -0.029963389 0.034448955 0.32856992 0.032840002 0.14880474 0.19878794 -0.3557935 0.07813718 -0.05875545 -0.08232367 -0.12401054 0.11094264 -0.0016533966 0.09069125 -0.24379401 -0.11062471 0.13691881 -0.075822294 0.0074044913 0.009053622 -0.47647035 -0.15730241 0.1508062 -0.20797828 -0.25671518 -0.042782955 0.12159648 0.024452535 0.17300846 -0.18484521 0.21533182 0.02197338 -0.0021602656 0.021511242 0.07014796 -0.093488365 -0.17277445 -0.02616579 -0.2726929 0.17656672 -0.018027054 0.3697612 0.081665695 -0.110079005 -0.16994305 0.12649444 0.15277238 0.03753506 -0.21662487 0.04090474 -0.27524832 -0.099339664 -0.060082555 0.04230013 0.015329529 0.1586555 0.12554716 -0.21381761 -0.12439596 -0.2246431 -0.15067281 -0.05404844 0.08633369 -0.07861546 -0.027990606 -0.015181168 -0.1460422 -0.023330646 -0.2563221 -0.019186623 0.110573255 0.179252 0.1190971 -0.056072958 0.20807639 0.40838352 -0.07971514 0.27905333 -0.10582118 -0.26067835 -0.2445849
1566 -0.068715915 0.020585582 0.08550859 -0.21210872 0.09996546 0.060722657 0.07977605 -0.28934592 0.011079697 0.018814646 0.11549861 -0.07096289 0.20158273 0.03346936 0.20284246 -0.01740501 -0.23122443 0.1913228 0.00096197193 0.14672236 0.12180624 0.23669147 0.11669555 0.14356413 0.17130074 -0.11630289 -0.005033026 -0.083588965 0.038781356 -0.07147045 0.2267216 0.022968298 -0.062227897 -0.19641924 -0.075257525 0.058654677 0.08868879 0.20499189 0.21953109 -0.37643462 -0.32519934 0.1388738 -0.17469573 -0.11266788 -0.057614546 0.15983795 0.10742515 0.002916988 -0.04980341 0.22977495 0.010384426 -0.06853582 0.07387195 -0.10928365 -0.015401027 -0.0895759 0.12216013 -0.3823581 0.19047998 -0.0750858 0.30149442 0.20506264 -0.08425205 -0.18220656 0.19611795 0.12888214 0.09947636 -0.062861696 -0.067898385 -0.12444708 -0.061670095 -0.0713509 0.09501192 -0.023360854 0.015506157 0.0681171 -0.21471563 -0.23189501 -0.18672033 0.023328975 0.051492292 -0.06174311 -0.12963866 0.033343285 -0.044273093 -0.0024145646 -0.2717682 -0.28689507 -0.0319097 0.21760955 0.13821286 0.06278494 -0.20223841 0.16768825 0.415526 -0.069102906 -0.053807285 -0.1485184 -0.22699656 -0.23436306
625 0.04848885 0.13776359 0.08490132 -0.29668462 0.13962187 0.09935963 0.011109705 -0.5191557 0.042032123 0.13640527 0.21392137 0.10432606 0.31459478 -0.16663766 0.36662456 -0.22945836 -0.2591617 0.28133819 0.00026071235 0.15374558 0.05441871 0.26710057 0.0019268427 0.26088172 0.11384149 -0.027460935 -0.06342641 0.039920174 0.1442244 -0.117278785 0.32405847 0.04366126 -0.06054693 -0.09196012 0.1355331 0.04779339 -0.019704662 0.20850231 0.18083343 -0.04868204 -0.041422624 -0.047163185 -0.09301493 -0.22197957 -0.036278114 0.09394353 0.20245104 -0.036522474 0.029883703 0.15723212 0.14962399 -0.07220035 -0.056821577 -0.13728827 -0.10917021 -0.15888292 -0.09578869 -0.29423112 0.364565 -0.1683789 0.21874689 -0.08862367 -0.06842113 -0.11892107 0.16202758 0.12632273 0.17326249 -0.19926299 0.12988923 -0.2218054 0.07415543 -0.15640593 0.29313815 0.045052692 -0.1468172 0.13735516 -0.33946338 -0.33038917 -0.235937 0.17223006 0.16341214 -0.10943504 0.078178555 0.13871855 -0.28618824 0.15768868 -0.22976066 -0.34385842 -0.14507647 0.33932287 0.040617544 -0.0038631242 -0.32435998 0.15389398 0.27955475 0.044655066 0.0838658 -0.34993097 -0.4898538 -0.5323507
441 -0.15383624 -0.04550666 0.03458022 -0.119687 0.23510782 0.20984238 -0.09294654 -0.39417917 0.31768048 -0.11693924 -0.04501558 0.055525795 0.39758536 0.14741601 0.5194965 -0.27098858 -0.4522923 0.46984679 -0.09762034 0.06885335 0.1905484 0.31813166 0.17920479 0.31555307 -0.034153055 -0.08035649 -0.06720698 -0.0028705744 0.28503016 -0.10915678 0.22112603 -0.0021243808 0.019140366 -0.2519023 0.009467346 0.10653097 0.11488496 0.5668304 0.31546643 -0.1626154 -0.073138736 0.29881757 -0.1206152 -0.15645295 -0.19739312 0.09010966 0.2659516 0.012113813 -0.095732085 0.31230265 0.23129041 -0.09857126 0.10712195 -0.21816391 -0.1389185 -0.03769474 0.18807152 -0.34660986 0.31035244 -0.19117337 0.4487353 -0.010903315 -0.047584057 -0.2610159 0.0507017 0.098127715 0.23817608 -0.18127246 0.18460889 -0.10782743 -0.05574553 0.0025066957 0.25368705 -0.06852757 0.094544105 0.1719625 -0.28746164 -0.50956094 -0.1396449 0.046007592 0.09751817 -0.16387996 -0.044213504 -0.042628333 -0.37175745 -0.0057295766 -0.21606848 -0.16006397 -0.12943238 0.37991786 0.1667539 0.24424995 -0.32856473 0.40180874 0.5157373 -0.042380296 0.053700324 -0.21008843 -0.3920805 -0.5154219
627 -0.19533944 0.039678358 0.058649994 -0.021957118 0.1671617 0.29455474 -0.06596482 -0.10117089 0.16731313 -0.1048764 0.07806893 -0.03789358 0.2565939 -0.08020738 0.426743 -0.09906817 -0.32422945 0.30050793 -0.04820368 -0.008822809 0.022381103 0.32561395 0.233575 0.12999047 0.11892026 -0.017539741 -0.14981017 -0.087086804 0.16324331 0.0693092 0.13301904 0.16851567 -0.091916695 -0.14285755 0.01000386 -0.022226214 0.19269426 0.1869509 0.2871142 -0.33162275 -0.1469565 0.15290068 -0.17679426 -0.09890573 -0.28711122 0.03748178 0.16410655 0.037959218 -0.06976942 0.26822448 0.31520885 -0.15498954 0.10379407 -0.08095044 -0.0676151 -0.08155982 0.18691987 -0.23858152 0.41742358 -0.03207461 0.4566956 0.22153348 -0.007945439 -0.22620355 0.091003396 0.11862605 0.23378529 -0.11972574 0.033567294 -0.12795876 -0.20975088 -0.016022505 0.02907776 -0.17531674 -0.042192023 0.06497244 -0.22791195 -0.37394154 -0.019071894 -0.018734876 0.08650975 -0.06771585 -0.014039289 0.0611769 -0.056063842 -0.0072286534 -0.2081692 -0.3006126 -0.13222921 0.3597608 0.10062827 0.08963759 -0.37515658 0.27047944 0.6037018 -0.008600247 0.25760308 -0.12509339 -0.3074038 -0.022200007
1730 -0.20261972 0.114315554 0.11837219 -0.13299985 0.2946494 0.19292888 0.016859254 -0.49422446 0.10757923 -0.02258892 0.12361259 -0.052248213 0.43329412 -0.027823128 0.4862313 -0.25123212 -0.36822468 0.41325095 -0.12013342 0.11685751 0.113402136 0.46376607 0.18187398 0.17931482 -0.022563985 -0.024903316 -0.04436009 -0.011326615 0.20024842 0.023026085 0.26949245 0.20845042 -0.19855392 -0.15786967 0.05631116 -0.03273866 0.22850588 0.47802147 0.3970651 -0.20710218 -0.12569655 0.12920086 -0.0843774 -0.23962349 -0.31121957 0.1593107 0.28492838 -0.08035634 -0.17145124 0.23649675 0.2881098 -0.2243481 0.115228735 -0.2526137 -0.30251026 -0.048671283 0.12924741 -0.43535256 0.40299955 -0.09312063 0.3942892 0.18708716 -0.13779765 -0.12811299 0.21368241 0.13691163 0.37438846 -0.16808069 -0.011619689 -0.23267597 -0.07558964 -0.079257816 0.10329012 -0.20214438 -0.11867211 0.06346002 -0.16313472 -0.52585214 -0.08125278 0.08442765 0.092220575 -0.1335044 -0.0008054585 0.18813275 -0.15797406 0.04237396 -0.34143344 -0.33026373 -0.24444298 0.44523543 0.0539664 -0.03523984 -0.45809442 0.27771926 0.62031454 0.04669178 0.19585145 -0.230964 -0.52002376 -0.34286618
1527 0.2292272 0.0075894175 0.07134908 -0.11623601 0.08313722 0.0058520827 0.024316797 0.20392612 0.09112792 -0.08145437 -0.10308875 0.045251485 -0.027691796 0.1947015 0.20943658 -0.37681654 -0.16848584 0.04780999 0.03511515 0.053490467 -0.03297308 0.009550822 -0.029732851 0.24067575 0.10464196 -0.03246042 -0.041498 -0.020497482 0.22644657 0.000506335 -0.052995216 0.015217334 -0.014485634 -0.30080384 0.044085313 0.014499514 -0.21207789 -0.05252853 0.17745692 -0.41724992 -0.09613199 -0.033049323 -0.2118603 -0.18683447 0.0026796344 0.21136051 0.021047065 0.19718543 0.013820458 0.18919311 0.12291649 0.017675612 0.09232404 -0.118469425 0.0697326 -0.0024084281 0.04514041 -0.12754755 0.34581205 0.057727735 0.14957781 0.111018926 0.049041174 -0.21772392 0.13289247 0.018249506 -0.068032905 -0.067772776 0.15323089 -0.19984362 -0.008270696 -0.040413465 0.03355026 -0.048544254 -0.10247482 0.12557015 -0.049334276 -0.158293 -0.046874434 -0.10310497 0.060974624 -0.01914689 -0.20029208 0.18301517 -0.22744414 0.12744586 -0.0832302 -0.13805732 0.027850568 0.53578657 0.30079544 0.11144994 0.039143678 -0.031173656 0.35987002 0.03937876 0.028070003 -0.06502596 -0.15024514 0.023013754
235 0.30730477 0.011757493 0.22718722 -0.18323967 -0.085998304 0.11032678 -0.006704049 0.14998414 0.085909866 -0.04141107 -0.002428663 0.020348253 -0.014478281 0.011246991 0.05652243 -0.21489908 -0.21021575 -0.0839106 0.20440315 0.04388617 0.0029559582 0.02651823 -0.07642176 0.09773849 0.08913934 0.012766202 -0.020118432 -0.00087071426 0.050465804 0.059034586 -0.008646712 0.027664622 0.032666598 -0.20744625 0.12448294 0.1786845 -0.20349263 -0.21998489 0.009362817 -0.41586065 -0.299106 0.06495385 -0.34686005 -0.09078997 0.05834003 0.16763946 -0.0333222 0.09940079 0.1270962 0.04625591 -0.19700663 0.14488035 -0.027389936 0.11976311 0.22515444 -0.094706416 0.06990358 -0.21933644 0.1388516 0.09963535 0.33183366 0.11752885 -0.18470041 -0.06705844 0.12328647 -0.16337451 -0.13226165 -0.016281739 -0.089250885 -0.12422884 0.10804837 -0.1372982 -0.14407727 0.037330564 -0.08200521 0.20653607 -0.080078185 -0.14828043 -0.081818074 -0.0006445247 -0.06489714 0.0020902476 -0.15934786 0.07445212 -0.014480066 -0.016329242 -0.3084621 -0.108207695 0.12042084 0.38440764 0.2744986 -0.014640403 -0.18771064 -0.0028603454 0.3010531 0.029931085 -0.020870622 -0.19334848 -0.13736728 -0.07164712
475 -0.26263696 0.08303406 0.06915026 -0.08551362 0.31823462 0.17971897 -0.021119267 -0.40211055 0.11100928 -0.0816362 0.03941711 -0.12951285 0.4673129 -0.04512332 0.38929307 -0.20346038 -0.32362574 0.47823322 -0.026872821 0.049660567 0.24930304 0.33209887 0.2984914 0.18610184 -0.07324917 0.017002754 -0.16022347 -0.04286359 0.34303126 -0.1397037 0.23758258 0.18920378 -0.15345745 -0.2499532 0.01802827 -0.23487416 0.28197265 0.4601378 0.37135196 -0.2508594 -0.13768798 0.086636715 -0.30370432 -0.14060579 -0.18312287 0.15195867 0.3175934 -0.059051804 -0.11281673 0.32513446 0.14889155 -0.050996378 0.16666688 -0.38442335 -0.23707452 0.05519431 0.248089 -0.44648457 0.2865021 -0.12117079 0.35928404 0.15232891 -0.18577445 -0.15467335 0.19182277 0.20892604 0.2535402 -0.062327277 0.04483787 -0.20892878 -0.023789179 0.0662554 0.1119751 -0.20307653 -0.13453636 0.045584615 -0.18724267 -0.47078553 -0.12693688 0.040073857 -0.06316638 -0.080408454 0.018071054 0.071271636 -0.26530904 0.02511553 -0.28159577 -0.28971964 -0.18047784 0.344214 0.041798398 -0.035896216 -0.44260898 0.18202208 0.49819964 0.042448536 0.04843923 -0.20817713 -0.3966243 -0.5282621
1537 0.008948212 0.07935163 0.08545925 -0.08638857 0.3995791 0.40394792 0.059773322 -0.3018105 0.21549702 -0.032464307 0.05432479 -0.033156924 0.3172907 0.06872099 0.5313657 -0.24155681 -0.37303957 0.45650145 -0.22938846 0.0057250084 0.15967658 0.36124644 0.10982514 0.073435776 0.09309372 -0.07015314 -0.0912767 -0.06225685 0.2306818 -0.015120394 0.18662663 0.24777296 -0.1381968 -0.340381 -0.009226997 0.11787118 0.20547274 0.44518504 0.31179827 -0.32149458 -0.1814334 0.08113029 -0.13255435 -0.31560883 -0.20877725 0.20225912 0.2746006 0.05677997 -0.097807825 0.29840252 0.36619788 -0.24772768 0.057236675 -0.2572252 -0.329865 -0.095968634 0.18610416 -0.3306431 0.46735862 -0.16203819 0.4800965 0.12445344 -0.09196736 -0.21717437 0.035583798 0.06688177 0.15281841 -0.12050408 0.011410009 -0.23083124 -0.082880296 -0.10261487 0.06346083 0.00974301 -0.0143705895 0.15905194 -0.31540692 -0.47234634 -0.0530421 0.16167277 -0.0439022 -0.11980689 0.05596869 0.008510635 -0.24092795 0.10466916 -0.1985279 -0.33062252 -0.21961673 0.46115267 -0.021869538 0.09773772 -0.443495 0.2594833 0.4304894 -0.020172285 0.110359475 -0.19095941 -0.4547894 -0.43365952
1634 -0.14946777 0.18000576 0.086201735 -0.15022516 0.17392588 0.13072783 0.04569646 -0.4947533 0.11983499 -0.022354152 0.02592072 0.06807607 0.290935 -0.017634496 0.41601112 -0.22990839 -0.40857112 0.3561151 -0.14155278 0.007964953 0.26708597 0.35020506 0.23307285 0.22666106 -0.06181267 -0.06334371 -0.12219214 -0.0050015 0.111549385 0.03111212 0.259195 0.14177416 -0.058852527 -0.3120726 0.0119036175 0.09371583 0.2573633 0.48399794 0.2036528 -0.09721839 -0.18546878 0.2231007 -0.118484385 -0.062150735 -0.1467298 0.14333159 0.15095459 0.14787881 -0.08690113 0.18773209 0.25632578 -0.11183644 0.08951314 -0.24233314 -0.09720825 -0.16687743 0.07812225 -0.3563509 0.36634633 0.026773931 0.385344 0.07659193 -0.13146055 -0.09745938 0.15115377 0.07171845 0.25224224 -0.17021023 -0.120220646 -0.22808628 -0.054455504 -0.1394906 0.20924194 -0.13142031 -0.004305576 0.15326025 -0.3174046 -0.5355117 -0.0989235 0.08135548 0.07833743 -0.14357069 0.0812229 0.06726649 -0.27108642 0.15482785 -0.3155235 -0.4218105 -0.18240194 0.32260704 0.02465921 0.069194034 -0.47256574 0.2751228 0.6375924 0.077599876 0.057049904 -0.08483692 -0.25799242 -0.4976481
1946 -0.18349393 0.0078030447 0.066961445 -0.12280856 0.27850732 0.1629124 0.030682135 -0.41962585 0.19426446 -0.015416212 0.119576216 0.004644867 0.3147008 0.004101112 0.4082275 -0.06547516 -0.30423293 0.29528046 -0.09766494 0.09435222 0.07864296 0.40293482 0.309602 0.14598526 0.05591733 -0.077699676 -0.13098612 -0.024994781 0.14998686 0.011857367 0.18992928 0.2558456 -0.1441219 -0.12790473 0.0095412135 -0.05306082 0.23993291 0.39060083 0.29712784 -0.2321566 -0.21064368 0.09993175 -0.22547603 -0.19252995 -0.15654331 0.1644048 0.21951522 0.09075144 -0.08481982 0.24176396 0.20643733 -0.15564711 0.084697396 -0.24219127 -0.22383884 -0.061135445 -0.0054462487 -0.35171366 0.2958026 -0.08344131 0.48374665 0.14475633 -0.1857572 -0.06861475 0.12480737 0.06241209 0.2466949 -0.122823864 -0.054560095 -0.21821108 -0.10002714 -0.15776852 0.2226667 -0.162252 -0.07990645 0.1349735 -0.32306942 -0.36883655 -0.13899985 0.097273506 0.08399557 -0.075990856 0.023244279 0.045507368 -0.03528516 -0.006625376 -0.30858555 -0.3488187 -0.14341871 0.36305913 -0.017621385 -0.069826156 -0.48485905 0.2754764 0.5599642 0.0076050763 0.17245229 -0.17060441 -0.3853511 -0.30995837
1819 0.25155377 0.08527841 0.22308294 -0.07025894 -0.15312329 0.35941848 0.07525877 0.11957984 -0.13075356 -0.082127795 0.13192517 0.040249348 -0.1441598 0.26022443 0.22849186 -0.14674602 -0.21089974 0.09506351 -0.041793898 0.12360827 -0.0836865 -0.0837128 0.011362672 0.16471368 0.23163792 -0.07725254 -0.14996698 -0.06408287 0.033684377 -0.09544727 0.13941035 0.059507348 0.012806622 -0.23965092 0.0062323827 0.12238833 -0.15085645 -0.097886816 0.073446624 -0.37565282 -0.28811067 0.18205866 -0.25849563 -0.10202669 0.015432623 0.18872826 -0.10625265 0.15996364 -0.18444012 0.14952284 -0.03697427 0.059282787 0.0056708725 0.10220817 -0.017994346 0.037721 0.105595216 -0.24261576 0.21254553 0.02511274 0.23144156 0.23471412 -0.09431008 -0.18539861 0.09823573 -0.025576986 -0.07869419 -0.0050388584 0.036517344 -0.20598574 -0.07790671 0.05934653 -0.104773745 -0.0006099066 -0.023264913 0.114302486 -0.010029406 -0.18538906 -0.11988379 -0.13977887 0.03551547 -1.7772029e-05 -0.11258389 -0.017254913 -0.08599824 -0.03264295 -0.07067796 0.04663547 0.10212124 0.20787778 0.2683925 0.1403986 -0.0046086996 0.12233279 0.25778946 -0.089642644 0.01153441 0.009501948 -0.121902294 -0.13653906
87 0.2997762 0.07889489 0.23243241 0.018223228 -0.084893845 0.38445476 0.07972187 0.05862595 0.1344732 -0.14653231 0.1852095 0.059742007 -0.28784296 0.10659142 0.28196424 -0.045487374 -0.09885048 0.09232139 0.18467318 -0.00026074424 0.0771556 0.034276165 0.013711844 0.16025376 0.22346716 -0.14227036 -0.10466261 -0.25549868 0.03316826 -0.040876303 0.119536474 -0.0040211175 -0.14169092 -0.10482474 0.0347679 0.17479758 -0.06848521 -0.03220394 0.07056158 -0.37267298 -0.28619346 0.1254 -0.11725546 -0.11294431 0.022855043 0.075564116 -0.20762427 0.04834157 0.009897161 0.15580134 -0.043113504 -0.0626188 -0.09690615 0.14280902 0.18105082 -0.00068201404 0.17072679 -0.24235345 0.17433672 -0.089313455 0.27459154 0.32209644 -0.024192434 -0.025280612 0.102842025 0.15497376 -0.06935055 -0.122417144 0.15041564 -0.26690936 -0.090062045 -0.099782914 -0.059763484 0.08564224 0.00023994736 0.08745541 -0.021396406 -0.102869704 0.008358976 0.006431365 -0.09626116 -0.11693746 -0.20645389 -0.026693778 0.07734418 -0.016167315 -0.17874712 -0.17816994 0.113429815 0.08770319 0.29166666 0.34228027 0.059027288 0.20379345 0.3506715 0.046194106 0.19949907 -0.14406775 -0.27262858 -0.19488879
2071 0.0044627665 0.14892177 0.13897674 -0.2414277 0.20168172 0.13015027 0.1284008 -0.48059255 0.010913117 -0.018185275 0.1760728 -0.05255997 0.06551204 -0.12564684 0.30439883 -0.17863992 -0.2378918 0.24028216 -0.03881804 -0.07203461 0.2808663 0.35018247 0.3030754 0.170443 0.10373121 -0.123245314 0.037948586 -0.011704867 0.060976516 -0.03975499 0.28114662 0.045648016 -0.16626525 -0.26707458 0.0390737 0.057612292 0.06741888 0.4083016 0.2713933 -0.27094477 -0.25296536 0.11897768 -0.15192142 -0.14695553 -0.2727258 0.07549547 0.22623181 0.12619624 -0.033261195 0.26111585 0.26299173 -0.14503099 -0.05369191 -0.19404137 -0.058577634 -0.18641938 0.095947586 -0.49018636 0.37725386 0.033201538 0.5866719 0.23714879 -0.09662551 -0.045536384 0.15808095 0.038419757 0.20290157 -0.14437586 -0.2822058 -0.12269397 -0.03786294 -0.19648503 0.041156642 -0.15557814 -0.028391307 0.09699701 -0.39444062 -0.43822345 -0.072584726 0.042413257 0.036363028 -0.10811705 0.023894921 0.07571458 -0.099805415 0.17863826 -0.21482176 -0.3074407 -0.053963106 0.24766476 0.055752497 -0.00887317 -0.41354358 0.15782094 0.657401 0.00076529756 0.049084477 -0.25250518 -0.38303876 -0.4864165
744 -0.13727121 0.13829687 0.03292945 -0.22900024 0.23473583 0.20100571 0.020577379 -0.26666817 0.01832792 -0.09891896 0.112419516 -0.0558059 0.3702338 -0.13197969 0.40715694 -0.1788564 -0.29280692 0.34408626 -0.2578396 0.050373808 0.1552807 0.26754284 0.17150447 0.035831213 -0.11848395 0.09898071 -0.055430867 0.03955104 0.110419676 -0.057803817 0.12993924 0.16506903 -0.08494557 -0.37332234 0.06498394 -0.11381225 0.057975795 0.2743558 0.3397545 -0.26027068 -0.15790375 0.08962666 -0.22103964 -0.16608766 -0.27340007 0.14349179 0.32441765 0.11369945 0.03315525 0.33280283 0.32030025 -0.13666211 0.019564116 -0.3190758 -0.217997 -0.03327468 0.008051291 -0.41437593 0.49596912 0.036940083 0.33965582 0.07446054 -0.08866006 -0.22661766 0.25544584 0.06500171 0.20284106 -0.100220256 -0.056533705 -0.24836059 -0.10359467 -0.013520209 0.0218188 -0.16567424 -0.23579471 0.0055989814 -0.30837697 -0.483966 -0.07818345 -0.0048078834 0.115771614 -0.1492084 0.09497141 0.18115814 -0.4002971 0.15654667 -0.3171687 -0.36596194 -0.18732198 0.5299016 0.15086174 -0.009715551 -0.47795114 0.1296687 0.6100527 0.0026594384 0.15508176 -0.23447223 -0.4239106 -0.41332123
1600 0.027876172 -0.015142776 0.07755826 -0.07782002 0.13048995 0.25924814 -0.01267682 -0.3619716 0.091188446 0.05243789 0.026586244 0.0677844 0.2405701 0.09625619 0.430108 -0.11903377 -0.32926142 0.35877433 -0.007921475 0.2297016 0.046131607 0.3059669 0.070971236 0.18861803 0.14305961 0.08207554 0.095742635 -0.04781321 0.10738235 -0.010304341 0.22816752 -0.020454893 -0.10375666 -0.15543304 -0.08011145 0.19816807 0.046800736 0.31031302 0.24219485 -0.32966405 -0.16298383 0.36920246 -0.08919343 -0.25259975 -0.16180749 0.0493627 0.14354086 0.14126176 -0.1429052 0.18904215 0.074773684 -0.20683935 -0.113429174 -0.05786287 -0.100545324 -0.051868986 0.22068745 -0.24149027 0.3182695 -0.12537788 0.5151416 -0.004848518 -0.06895882 -0.1600993 0.039118413 0.1119588 0.13618848 -0.111863755 -0.016327893 0.0645784 -0.14409183 -0.10074136 0.18254063 -0.07093752 0.079039775 0.17048168 -0.22250937 -0.46373296 -0.16648732 0.03524746 -0.017347975 -0.14945021 -0.1707651 0.02714755 -0.09340327 -0.041731652 -0.29039642 -0.24783012 -0.05637041 0.47890744 0.22508278 0.18653508 -0.27670053 0.4244949 0.50530535 -0.19519049 0.203457 -0.16151386 -0.2759426 -0.13350551
1821 -0.072427936 0.045655645 0.017292531 -0.09980257 0.15278184 0.18181862 0.09450126 -0.21597047 -0.07587795 -0.005425885 0.18811235 -0.02687222 0.009247278 0.09726213 0.2690324 -0.13715465 -0.121235594 0.26778147 -0.016723556 0.0558821 0.2503848 0.029009465 0.14231725 0.09095035 0.17876053 -0.05913383 -0.15929927 -0.09048313 0.34640557 -0.17407678 0.17923492 0.141417 -0.17093128 -0.32274702 -0.034236647 -0.19877467 0.114071205 0.24023932 0.11772207 -0.2767078 -0.25286856 0.12228603 -0.3682277 -0.0448477 -0.16611244 0.17532183 0.046092346 0.074107975 0.13115394 0.32246336 0.20763627 -0.03565921 0.043612733 -0.48104304 0.020359986 0.0002391449 0.15481436 -0.24698582 0.22616787 -0.09271242 0.37353444 0.17615151 -0.06951911 -0.023947615 0.1056245 0.28112823 -0.007462621 -0.123920836 -0.064995475 -0.12649895 -0.023271682 -0.10689821 0.015127603 0.017116878 -0.062722266 -0.0008286407 -0.3528112 -0.23696749 -0.12128912 0.13939051 -0.10306049 -0.10083406 0.030821983 -0.10076839 -0.104273155 0.12811072 -0.15678221 -0.27448162 -0.11363194 0.24026334 0.014842524 0.109355375 -0.32120472 -0.21036011 0.34235922 -0.07036141 0.057255857 -0.15426162 -0.085141055 -0.26534265
1918 0.09734185 0.17074595 0.0875381 -0.17439665 0.093070894 0.19054511 -0.0039242213 -0.26683342 0.10012838 -0.10571398 0.15570885 0.04322747 0.19426087 0.08997082 0.3346362 -0.36783975 -0.34961775 0.21336728 -0.08503976 0.02084097 0.19050813 0.22806457 -0.060709678 0.17430359 0.027150482 -0.14959504 -0.1626421 0.0020693447 0.01109647 0.06528921 0.10366145 0.004701274 0.02307187 -0.14055945 0.09577935 0.14583546 0.04416496 0.32420146 0.2420068 -0.19008534 -0.12931907 0.12854874 -0.04326352 -0.12706426 -0.16656327 0.058038868 0.18965696 0.10072695 -0.019347964 0.21191165 0.09866386 -0.15325317 -0.09191527 -0.1341867 -0.13468324 -0.10222249 -0.12590723 -0.3611294 0.26105475 0.013588593 0.4252899 0.03893668 -0.23736797 -0.26406217 0.15884916 -0.03884354 0.01726384 -0.13170932 0.064528644 -0.16087468 -0.062291045 0.06337548 0.017884575 -0.16495183 -0.10118428 0.017107079 -0.21823798 -0.47257498 -0.033758342 -0.09394717 0.10573021 -0.07816404 -0.07091502 0.08174947 -0.3163743 0.0072703715 -0.21620692 -0.2093556 -0.06697568 0.41177252 0.20887923 0.07799099 -0.15641898 0.3672155 0.5210645 -0.12678598 0.14030679 -0.027704932 -0.18839842 -0.24104539
647 -0.09311528 0.05024083 0.05041879 -0.04595761 0.27051297 0.09858373 0.121560425 -0.48137298 -0.054770827 0.10968799 0.10947273 0.04437482 0.11553548 -0.0065671876 0.44747227 -0.09478152 -0.2762009 0.20469229 -0.09458812 0.03598616 0.19482507 0.19360742 0.15781741 0.33092073 0.1748506 -0.26350492 -0.08079475 -0.096661784 0.15124744 -0.0823616 0.26030916 0.18662372 -0.10689533 -0.15948741 0.09353396 0.019208591 0.2688806 0.29241315 0.042470597 -0.110767454 -0.20181327 0.11906534 -0.26450658 -0.2603464 -0.22170404 0.12839079 0.040810816 0.07349323 0.023637673 0.17893778 0.19701669 -0.07995585 0.058475416 -0.272596 -0.014527489 -0.064412974 0.0068403143 -0.25277677 0.2829858 -0.10026794 0.42851117 0.17084035 -0.071854785 0.004718045 0.111357935 0.23631187 0.10840773 -0.19075483 0.06105384 -0.35214022 -0.05889319 -0.231765 0.24057625 -0.09454322 0.08361402 0.09415801 -0.40190786 -0.27360347 -0.2679438 0.14663623 -0.058483016 -0.040644225 0.11428425 -0.029408904 -0.08909266 0.22100343 -0.20392269 -0.38013613 -0.2701035 0.1506192 -0.11534883 0.10364064 -0.40492952 0.029763114 0.38721165 0.0817071 0.09680452 -0.085086256 -0.13167389 -0.33019984
583 0.06381025 0.1250939 0.058796216 -0.1420171 0.20696183 0.2241087 -0.09175157 -0.3007081 0.15383814 -0.15339716 -0.062579975 -0.07156284 0.41271278 0.03434947 0.43829274 -0.31717616 -0.42832577 0.42167366 -0.088184655 0.11205786 0.16561927 0.42243093 0.1313845 0.12472492 -0.0027344865 -0.014266425 -0.029297134 -0.0038408549 0.33698583 0.018347146 0.15209173 0.0063179363 -0.052301943 -0.28962037 -0.018200614 0.04483113 0.022284742 0.3388464 0.2955706 -0.21436605 -0.034662742 0.15151457 -0.06567703 -0.3141066 -0.17922203 0.027713604 0.19391072 0.060138915 -0.031413026 0.19905582 0.2089203 -0.080429114 0.12464341 -0.23089635 -0.12009512 -0.058626253 0.06677728 -0.37556595 0.31983352 -0.052327987 0.3066487 0.016184995 -0.03153092 -0.27632242 0.08122035 0.05826211 0.07956687 -0.13216512 0.12334134 -0.15301745 -0.029679872 0.0748797 0.1086073 -0.07166223 -0.070021145 0.00075988687 -0.13724749 -0.58080506 -0.104450926 0.038536962 0.0400183 0.011255807 -0.06853799 0.106055975 -0.35044667 -0.0036191226 -0.23058277 -0.23778479 -0.15127283 0.51078445 0.1942347 0.12215997 -0.33556408 0.25292885 0.4786886 -0.024115218 0.03651894 -0.11421168 -0.45085242 -0.18468732
651 -0.02611898 -0.022409547 0.11505197 -0.2053526 0.14888471 0.27892894 -0.13746195 -0.14780866 0.008145655 -0.08029126 0.12783723 -0.02527701 0.27374992 0.19951265 0.33575004 -0.25224006 -0.22920531 0.34006798 -0.024518806 0.107261 0.076842815 0.15232426 0.108426124 0.15422864 0.07232611 0.0510941 -0.055320892 0.048117783 0.28021464 -0.121494405 0.12277999 -0.011585715 -0.0034398143 -0.26043254 0.09399274 -0.045003437 -0.108853176 0.24105395 0.280981 -0.34458545 -0.15901576 0.22843805 -0.15247583 -0.119675726 -0.13123967 0.031514395 0.23809546 0.012113883 -0.090812005 0.20586275 0.018242564 0.045204394 0.08912175 -0.1562171 -0.06891585 -0.055116583 0.15410331 -0.3603139 0.21779901 -0.17748529 0.5621672 0.09756222 -0.04308126 -0.21917218 0.039811697 0.08299298 0.105443664 -0.090528905 0.028702548 0.057911664 -0.1135515 0.039949615 0.12212164 -0.16562325 -0.038615994 0.028854527 -0.1541775 -0.2987974 0.0049133967 -0.09429557 -0.07563938 -0.12995292 -0.087146804 -0.04994419 -0.29943082 -0.036943037 -0.1639803 0.030486992 -0.0936853 0.3864267 0.2275868 0.0054561463 -0.13004112 0.19829834 0.23858233 -0.046530318 0.1526798 -0.12458612 -0.14330019 -0.1783491
606 -0.06336166 0.10249634 0.1916405 -0.1250462 0.2844328 0.05264006 0.08830497 -0.39403868 0.098264195 -0.022357864 0.16069077 0.1456273 0.10118462 0.027524762 0.30122095 -0.1314129 -0.27238548 0.314328 -0.15697676 0.03130797 0.23857327 0.25111398 0.1696191 0.19847111 -0.022856204 -0.24002175 -0.059656892 0.106337704 0.106756836 -0.032673247 0.20320275 0.08120086 -0.030706437 -0.28642288 0.09127155 -0.023638383 0.10441164 0.42917195 0.124201104 -0.17201215 -0.042204328 0.0751016 -0.12183251 -0.0025194571 -0.16065042 0.15557367 0.24251021 0.013102776 0.013379689 0.20139046 0.1700771 -0.051800273 0.018406877 -0.25618425 -0.21335448 -0.15876578 0.12809063 -0.31292883 0.17408115 0.052162085 0.4216151 0.108007856 -0.19451997 0.058641214 0.1433523 0.17876779 0.1920964 -0.24924329 -0.038520522 -0.16990438 -0.06119569 -0.14190696 0.24681525 -0.17537326 0.021278137 0.1338847 -0.39628023 -0.4393468 -0.03974721 0.11732394 0.040901665 -0.14674674 0.01065865 -0.07923176 -0.15341237 0.08726852 -0.31351846 -0.26997644 -0.14279464 0.4666071 0.023040527 0.042941034 -0.3993152 0.22477321 0.6457497 -0.08223244 0.14239144 -0.20184359 -0.39555463 -0.531234
1687 -0.12876481 0.24307531 0.16119395 -0.041397076 0.2580707 0.051381133 0.01767062 -0.57923275 0.011089818 -0.022214942 0.04610458 0.057828754 0.40830472 0.13774185 0.5001389 -0.32124406 -0.35155335 0.37881133 -0.13037436 0.06717806 0.26076284 0.3728067 0.20788366 0.41172 0.009868387 0.00953447 -0.04303371 0.01030733 0.1524833 -0.1261703 0.33014178 0.119426645 -0.09786878 -0.1917277 0.07770228 0.11636042 0.17243849 0.592055 0.3166452 -0.13937049 -0.027657816 0.23033491 -0.09620254 -0.15721427 -0.2485798 0.11584433 0.3223669 0.07376824 -0.11229095 0.3266009 0.18301605 -0.17615962 0.034617018 -0.28071776 -0.29029015 -0.045937024 0.081174165 -0.43416137 0.4167337 -0.053650014 0.4589803 0.067200705 -0.19321443 -0.14392154 0.035888873 0.16118419 0.23393948 -0.122726664 0.09975171 -0.21278319 -0.1138893 -0.0542066 0.18756534 -0.15708698 0.03357513 0.04641396 -0.26131842 -0.5299284 -0.086127974 0.039750863 0.0553428 -0.13820882 0.10161699 0.14705332 -0.29468235 0.1750075 -0.16278479 -0.2626024 -0.1615439 0.47183198 0.0936447 0.035709213 -0.34162042 0.30290824 0.6018591 0.016982974 0.14772947 -0.10492737 -0.30814868 -0.57277155
