2191 100
0 -0.24806263 0.17178868 -0.0023260722 -0.47328666 0.094724245 -0.15765035 0.018977704 0.049403418 0.036929797 -0.13901177 -0.056227352 -0.037920024 -6.1374885e-07 -0.17427595 0.07939258 -0.12129035 -0.19576474 -0.14280008 0.24546209 0.36694458 0.080544755 0.046137195 0.060215324 -0.082827374 0.18686292 -0.08082998 -0.05227009 -0.057097964 -0.14436035 -0.073350474 0.20742258 0.026248477 0.055502333 -0.038719557 -0.089513056 -0.09135295 -0.07314355 0.18703757 -0.20579275 -0.02215659 0.03261488 -0.37142268 0.043701686 0.283419 0.20040776 -0.045688525 -0.207428 0.15966378 -0.061290856 -0.28915012 -0.055726495 -0.27960145 -0.05238434 0.12131294 0.16743469 0.114141874 0.16993564 -0.21089144 -0.020769114 -0.06351806 0.11497414 0.05725737 -0.1573886 -0.12611982 0.31888875 0.2542757 -0.03695459 0.18370593 -0.09957925 -0.44447237 -0.076372966 0.108167246 0.052886687 -0.09426923 -0.12801372 -0.17022698 -0.2210418 -0.05387797 0.24959639 0.31346905 -0.13978067 -0.39156574 -0.26090878 0.26507777 0.26162553 0.060828887 0.026723005 -0.2833137 -0.07967795 0.13016964 0.23514406 -0.026777465 -0.12776367 0.06871136 0.13741948 0.07875333 0.4515761 -0.2003324 0.36024556 0.094870485
553 0.0349019 0.030541511 0.07848155 -0.23319215 0.015953057 -0.23120318 0.05054529 -0.035345253 0.014094877 -0.18062867 -0.34949705 -0.14074548 0.19105518 -0.022852061 -0.08010253 -0.22675069 -0.28349382 0.00047861476 0.22521186 0.34701872 -0.027305618 0.02487921 -0.063926585 -0.17847845 0.062646255 0.14170192 -0.051288225 0.03824019 -0.02740476 -0.05781216 0.037544314 -0.013253122 -0.037110176 -0.110026784 -0.017222425 -0.016746284 0.013921904 -0.01382257 -0.18836297 -0.22776353 -0.020697981 -0.45677784 -0.08530444 0.31394306 0.19198652 -0.16912325 -0.26975405 0.08517629 0.09769739 -0.10140615 -0.1375782 -0.14788434 -0.042435434 0.16085158 0.29445404 0.07290593 0.20947748 0.1630921 -0.15166111 -0.005560444 0.1260164 -0.09902391 -0.12848741 -0.010884546 0.285599 0.26231247 0.15355732 0.038655825 -0.15652919 -0.43512502 0.02422031 -0.0070793424 -0.055133402 -0.03828181 -0.08698953 0.10890355 -0.1157913 -0.12693821 0.34098086 0.22413437 -0.06877721 -0.2928122 0.017966712 0.08914604 0.060293224 0.13194051 0.033321124 -0.006491723 0.09553888 0.14870046 0.09125277 -0.018044483 0.086792015 -0.021627644 -0.0040559038 -0.017661382 0.4086263 -0.09257255 0.062158342 0.047372583
554 -0.256729 0.11053201 -0.07921156 -0.30957025 -0.00935592 -0.37769157 0.22873996 -0.03323003 0.04378904 -0.4347772 -0.06732808 0.08773107 -0.06793869 -0.16953844 0.18219015 -0.023319945 -0.113355674 -0.11177625 0.38195747 0.41835913 0.027469348 0.0702277 0.017591638 -0.15583815 0.20914309 -0.15508355 -0.21810016 -0.20774207 -0.22741257 -0.07106109 0.34027275 -0.10582983 0.30939883 0.021743715 0.14958622 -0.21122338 -0.05001334 0.084923856 -0.3391729 -0.15356413 -0.11554038 -0.40195674 -0.21345772 0.309563 0.021042066 -0.3746888 -0.2988092 0.08343717 0.08272901 -0.14431599 -0.24534488 -0.2931579 -0.19827768 0.10608177 0.16608208 0.17859586 0.10202639 -0.00086216105 0.015120174 0.144561 0.22074515 -0.07877727 -0.16474561 0.034181647 0.31608975 0.11074604 -0.12906955 0.33424348 -0.4039618 -0.3429048 -0.07557641 -0.14553647 -0.08268207 0.016070811 -0.1498885 -0.33812648 -0.30875245 -0.15722556 0.37231222 0.47019553 0.025063792 -0.0296866 -0.15041561 0.2368375 0.12129958 0.0146451155 0.022570267 -0.30506065 -0.30357 0.046811994 0.34336913 -0.29031697 -0.23315321 0.06607792 0.28124228 0.38448918 0.4162468 -0.15341523 0.56069803 -0.031527817
1614 0.15468208 -0.0055106003 -0.08378218 -0.38393864 0.10118529 -0.11676327 0.1833272 -0.006634861 0.09250858 -0.40852767 -0.23452199 -0.15783645 -0.026299888 -0.06676084 -0.024845367 0.040717803 -0.12792704 -0.016829962 0.22710247 0.54885757 0.019170247 0.022638837 0.067416705 -0.087801345 0.38713598 0.037879415 -0.19660436 -0.094556555 -0.012011736 0.06078963 0.06903577 -0.21216367 0.020442622 -0.023735426 0.11240857 0.11048737 -0.15011719 0.05073513 -0.33904225 -0.37804344 0.2330531 -0.24744214 -0.2208723 0.28797367 0.16567622 0.15294792 -0.21187031 0.12803479 0.047014628 -0.007407463 -0.02982469 0.063938364 -0.4185345 -0.072171606 0.030140812 0.056513023 0.19990067 0.016697116 0.15127598 0.069497034 0.12301271 0.06491602 -0.13719252 0.18787539 0.13487098 -0.0142334625 -0.10271802 0.11720534 -0.17019686 -0.1266966 -0.14629512 0.15707523 0.06447413 0.009489973 0.042805947 -0.2569289 -0.36510733 -0.029015888 0.22895005 0.35999474 0.117365 -0.22077028 -0.09735368 0.03192905 0.04444464 -0.015615961 0.20156983 -0.041882385 -0.2315166 0.20737661 0.12910026 -0.16278365 0.015189717 0.09738872 0.16233684 0.23264973 0.057432353 0.11048158 0.078550294 -0.003948663
1615 0.09325763 -0.06143478 0.010686612 -0.30912894 -0.0029767752 -0.22172014 -0.09685795 0.05928461 -0.042134702 -0.23371893 -0.03356512 -0.18904422 0.0935057 -0.013927573 0.09392582 -0.28798786 -0.32778415 -0.0032271058 0.13206619 0.29408938 0.10496226 0.15855423 -0.10474392 0.0063333595 0.049482837 -0.06623958 -0.097250834 -0.050921243 -0.038569126 0.19448274 0.08829467 0.046771556 -0.0021096214 0.04062462 0.013638013 0.07185981 -0.027872508 0.052148547 -0.10513791 -0.104803406 0.07044818 -0.41114417 -0.104439996 0.19227852 0.29220554 -0.01780945 -0.17150925 0.24553642 -0.072691 -0.20178379 0.02712126 -0.18376032 -0.1263762 0.085799634 0.034077134 0.17100117 0.23784561 0.094326094 -0.020352922 -0.03467646 0.019494178 -0.050474226 -0.18516104 -0.11494685 0.2351849 0.1341104 0.12837923 0.15202442 -0.11684409 -0.3572288 -0.075437285 -0.0507145 0.016503932 -0.16715589 -0.15445107 -0.121983916 -0.24376431 -0.036417723 0.29311115 0.1485427 -0.01092536 -0.32884124 -0.08740197 0.07491482 0.2535974 0.16779989 -0.045804787 0.1199995 0.13826996 0.10813251 0.20583057 -0.2385403 -0.24486454 0.21421681 0.13893035 0.033077616 0.1440989 -0.15203083 0.093836494 0.15604047
368 0.064940944 0.2780265 0.017031623 -0.083157934 -0.019945698 0.014775157 0.09280322 0.11020819 0.12207346 0.07890735 -0.121480905 -0.014935717 -0.052701194 -0.08992077 -0.023606913 -0.10931597 0.029673884 -0.034963965 0.31430346 0.4038871 0.06322909 -0.112372555 0.0693092 -0.061202772 0.23301563 0.27350527 -0.10637365 0.0634135 0.0074450998 0.20146362 -0.09091623 -0.13533516 0.07583277 0.00665335 -0.09437991 0.013993506 0.045414902 0.05886219 -0.10200509 -0.16206498 0.07572589 -0.28076872 -0.057704702 0.3220098 0.167012 0.14379998 -0.06297966 0.18022944 -0.04667042 -0.15895899 -0.21940126 -0.31238317 -0.21153487 0.1265727 0.3041802 0.11268952 0.20275763 0.12229673 0.045374695 0.061274976 0.053589407 0.04414608 -0.15882832 -0.08650494 0.23364769 0.21507332 -0.021743484 0.07446883 -0.20173919 -0.4661116 0.086156644 0.02512791 -0.045381736 -0.006895659 -0.08592734 -0.12843773 -0.19133234 -0.0014485534 0.14333552 0.36843967 0.0028084703 -0.43148318 -0.18072698 0.116902746 0.013333875 0.19771104 0.14811432 0.032579154 0.07811287 0.04756365 0.08558296 -0.18545969 -0.02230756 -0.08173885 0.110403806 -0.04148086 0.18395574 -0.043191478 0.17380628 0.0842522
1093 -0.026050963 0.08071493 0.010445756 -0.18791066 0.019778147 -0.15366928 0.22624505 -0.048582617 -0.04316917 -0.03970275 0.027638856 -0.03679797 0.06645009 -0.15710083 0.048928745 -0.11383353 -0.23334956 -0.050015017 0.117404394 0.17835487 0.07650889 -0.059399948 0.12042567 -0.08534404 0.013552075 -0.040805824 -0.0596392 0.070573285 -0.10580292 0.13983321 -0.022190342 0.0690782 -0.024261635 -0.06625244 0.04890811 -0.15644191 0.076814316 0.21016942 -0.117128186 -0.12616563 0.044044122 -0.58014715 0.07770138 0.3847387 0.36859313 -0.1890527 -0.11063378 0.19839276 -0.002761438 -0.1712559 -0.27370682 -0.17689562 -0.059083547 -0.013580524 0.26417732 0.16291527 0.29044494 0.31481624 0.14555977 -0.120444134 0.112797394 0.0033837405 -0.23895168 -0.09194468 0.052017923 0.310915 0.027473822 0.08510615 -0.09568357 -0.34083554 -0.039926838 -0.11376794 -0.0022785303 -0.03685198 -0.08654541 -0.0035094854 -0.30999917 0.019436713 0.33601156 0.24447846 -0.10383464 -0.020678204 -0.14902376 0.0659852 0.12356223 0.022535287 0.061973132 -0.042862426 0.10690354 0.11294615 0.18100475 -0.08034836 -0.09685755 0.018070143 0.0048296656 -0.0046870457 0.1839597 -0.0825327 0.16399421 0.035176016
780 -0.046017416 0.16549261 0.09069716 -0.4739407 -0.091104336 -0.23704585 0.17985885 0.08129345 0.012676513 -0.27010068 -0.110801265 -0.06974577 -0.09019439 -0.07766345 0.058741022 -0.09493096 -0.48361614 -0.16433692 0.37461895 0.40952834 0.03643798 0.055779498 -0.078008756 -0.21140094 0.08557866 0.046967328 -0.13955016 0.047608864 -0.100952 -0.19563287 0.16210543 -0.016704774 0.0414464 -0.115014985 0.035284713 -0.13969421 0.008301809 0.09007203 -0.2186947 -0.2625908 0.046048775 -0.5892475 -0.2471052 0.26127568 0.12671514 -0.21031271 -0.30882505 0.105642274 0.08839862 -0.25501212 -0.16019514 -0.2634604 -0.086312085 0.13865536 0.106591955 0.15669215 0.01182797 0.046540875 -0.0003824486 0.15464763 0.16770548 -0.052657668 -0.19505788 -0.12643886 0.3902829 0.23163985 0.057592243 0.23152815 -0.19573039 -0.5550668 0.07083367 -0.06530288 -0.17167541 -0.008178856 0.056829873 -0.26210773 -0.28170532 -0.07335202 0.29725552 0.4239451 -0.08378058 -0.30167136 -0.2350605 0.19962105 0.009287496 0.08477092 0.08378547 -0.23187584 -0.10615613 0.084595114 0.3630749 -0.16739094 -0.35501808 0.06173374 0.24671473 0.28317502 0.37432158 -0.043096773 0.4763457 -0.19415331
1622 0.11671839 0.056362845 0.082890145 -0.2967934 0.0014363185 -0.19193709 -0.17670196 0.030185705 -0.05119172 -0.26771116 -0.35323966 -0.28354815 0.20769246 0.104020536 -0.076362744 -0.19394928 -0.38068807 -0.15532686 0.4189115 0.28003275 0.25724426 0.19826841 -0.26162988 -0.36952928 -0.031149402 0.035245802 -0.16071904 0.023792483 0.090365745 -0.012567186 -0.06559454 -0.110707276 -0.010254488 -0.10150085 0.07212382 -0.13556789 -0.081215985 -0.061051548 -0.11000983 -0.28824037 0.07721072 -0.5072865 -0.13215035 0.19088162 0.122956604 -0.0972898 -0.33132485 0.12546661 0.14682929 -0.06849549 -0.21648519 -0.20381673 -0.05873574 0.09798546 0.1194595 0.073271595 0.0018406347 0.024161277 -0.1921089 0.020455824 0.124518536 -0.11802526 -0.009259368 0.003270911 0.48272473 0.33513173 0.20290565 0.06588313 -0.2576549 -0.33592972 0.11338464 -0.1651042 0.0070832637 0.02682656 0.011743358 -0.020960798 -0.1551769 -0.0968042 0.30817023 0.27763113 0.14922547 -0.43830928 0.2340955 0.12849684 0.05435028 0.18740141 0.17720589 0.051935107 0.17866142 0.23330392 0.23385292 -0.14427385 -0.2966591 -0.08579803 0.074977696 -0.073168874 0.23400436 0.029495023 0.061721273 -0.028033325
1099 -0.036054008 0.13948645 -0.020267611 -0.39898077 0.03539755 -0.24938743 0.26323825 0.0592931 0.14845566 -0.31360188 -0.13723078 -0.075851575 0.012938459 -0.094500035 -0.019150985 -0.13069601 -0.25532198 -0.23422088 0.4409296 0.550379 0.02679128 0.08803187 -0.008805077 -0.32089654 0.25491148 -0.0029891578 -0.2067047 -0.07206931 -0.072679676 0.06678322 0.20811841 -0.04569667 0.2035211 -0.07801412 0.04598226 -0.11629725 -0.1342779 0.08660643 -0.45981643 -0.27807507 0.0050415387 -0.5355713 -0.189093 0.24557018 0.21812241 -0.12638794 -0.39866433 0.15635134 0.07448991 -0.18922336 -0.19075935 -0.26926306 -0.17676312 0.15806969 0.16887672 0.11306174 0.047142945 0.07386357 -0.019769497 0.11917563 0.2117849 -0.02380516 -0.19141553 -0.018654628 0.4221557 0.00913803 0.017531728 0.2613159 -0.30475822 -0.39531958 0.045399304 -0.023025535 0.0050777546 0.010680582 0.02678587 -0.39233005 -0.32136184 -0.13546325 0.19537397 0.43300855 -0.045186028 -0.32388663 -0.3274712 0.24136999 0.020285377 -0.012685127 0.104366705 -0.2766577 -0.1711519 0.07877626 0.2352404 -0.20095767 -0.2129187 0.09992763 0.28918305 0.31628188 0.08790214 -0.04489977 0.5182761 -0.098379806
1626 -0.21198998 0.17465651 -0.14550129 -0.52140754 0.037694313 -0.35572106 0.20205888 0.0876874 0.17147298 -0.43007502 -0.06314963 0.0072862934 -0.039672803 -0.22829705 0.1812442 -0.14884779 -0.23587257 -0.2051297 0.33118734 0.41622433 -0.022064092 0.124610186 0.07115537 -0.12836258 0.20724222 -0.16759998 -0.19456822 -0.17115755 -0.21493919 -0.09886752 0.34711802 -0.0046940674 0.28081018 0.011631543 0.06431886 -0.15228175 -0.046871785 0.043718014 -0.45855325 -0.2273708 -0.024984587 -0.5648317 -0.17451718 0.3036863 0.14730133 -0.2790197 -0.38312072 0.16093335 0.19887775 -0.20648421 -0.25835025 -0.2911028 -0.08520331 0.04732088 0.011298405 0.20864114 0.04595517 0.0073116724 0.077585354 0.14298336 0.27374175 0.028148958 -0.12227027 -0.09150818 0.34811023 0.1966334 -0.039638016 0.2734719 -0.38661298 -0.5152088 -0.07434627 -0.042633757 -0.032566283 -0.05074764 -0.079838686 -0.34740034 -0.3208835 -0.1340883 0.37975332 0.49105453 -0.117359646 -0.2568244 -0.30906004 0.3131106 0.117529936 0.050448947 0.12375494 -0.2892132 -0.13687596 0.04783193 0.41178116 -0.2174895 -0.19980739 0.064887844 0.21556947 0.28111663 0.42553732 -0.16358888 0.5272195 -0.15068746
73 -0.23293808 0.09909574 0.053700365 -0.65011096 0.015670259 -0.12071649 0.25411096 -0.041116606 -0.03505582 -0.26743773 -0.13395303 0.039834704 -0.14091064 -0.17652194 0.12971489 -0.05454867 -0.45938185 -0.09456021 0.2564463 0.5698466 -0.033374753 0.12989153 0.10076597 -0.20123722 0.09455774 -0.054032084 -0.2452301 -0.06646448 -0.26382184 -0.11656253 0.36032706 -0.058890298 -0.000811259 0.062724635 -0.233128 -0.039464597 -0.096564904 0.021788608 -0.5524189 -0.26134357 -0.012613596 -0.58495814 -0.15011059 0.24692854 0.10499308 -0.15629141 -0.272472 0.21050842 0.055503283 -0.25022057 -0.11795838 -0.38297355 -0.21531816 0.12291615 0.1423861 0.22946556 0.10996413 -0.057492647 0.03579901 0.07175773 0.14754218 -0.040685844 -0.30967596 0.01865857 0.18979399 0.03295884 0.13679616 0.26021045 -0.31983513 -0.48245475 -0.10718873 0.026231764 0.040322155 0.09690434 -0.096455865 -0.2779425 -0.36841428 -0.08589558 0.33421487 0.3434302 -0.0694576 -0.40840036 -0.40173364 0.25719783 0.20090058 -0.042568 0.11912239 -0.3004626 -0.1975178 0.13771133 0.43929604 -0.18989694 -0.23520368 0.16591874 0.1424483 0.27743658 0.3147424 -0.082361415 0.4933143 -0.09627376
1353 -0.003338159 -0.09947501 0.1685468 -0.17006119 0.12895979 0.14377643 0.21030651 -0.058663115 -0.20686403 0.041269775 -0.313077 -0.121319175 0.19348185 0.09633669 -0.07637555 -0.14605212 -0.076749615 0.24366195 0.07379857 0.27944162 0.050942585 -0.11439468 0.053942557 0.08825082 -0.0021935685 0.078774154 0.13141751 0.2125036 -0.12428993 0.13620074 -0.21735106 -0.092699766 -0.13806209 -0.12045971 -0.122251555 -0.10331162 0.22555561 0.07316938 -0.14933427 -0.22681147 -0.029277084 -0.26162434 -0.029009374 0.49359855 0.31694913 -0.07580006 -0.18760028 0.23281801 -0.066860914 -0.19939126 -0.09270507 -0.07415816 0.07869153 0.16582908 0.1294616 0.08037367 0.17674601 0.14731094 -0.12388781 -0.1415185 0.07581131 -0.05146175 -0.116952494 -0.012978478 0.020070402 0.26463398 -0.020922516 -0.040402927 0.029432846 -0.40148705 -0.08977877 -0.0047164224 0.05998264 7.616654e-05 0.03590397 0.18889748 -0.07340174 0.0073914765 0.088229865 -0.06307476 -0.20831294 -0.20746134 -0.25547534 -0.037778176 0.22491156 0.06666818 -0.07878792 0.028476087 0.07193655 -0.015073902 0.14722502 0.022117231 0.0033732532 -0.03145225 -0.21333243 0.10608893 0.7198696 -0.0002810154 0.27528244 0.034009404
1906 -0.083007984 -0.058087826 0.061899457 -0.42404807 -0.030255347 -0.19730341 0.13919018 0.027075391 0.0503609 -0.4439974 -0.26892778 -0.19912308 0.026368517 -0.071381874 0.08424248 -0.05072817 -0.4541801 -0.33617693 0.33674568 0.46154833 0.03714327 0.091291115 0.056116767 -0.24016136 0.14467633 -0.052995484 -0.34735483 -0.117929734 -0.15646254 -0.028464042 0.17290424 -0.10428016 0.09027916 -0.013892822 0.01568723 -0.11082255 -0.14467102 0.0448963 -0.3854807 -0.29644543 -0.09223934 -0.43640545 -0.18391643 0.15819523 0.023066357 -0.23346218 -0.3618875 -0.07462784 0.083299555 -0.13261719 -0.21140626 -0.3014193 -0.09194914 0.053974 0.15585455 0.09195411 0.006097504 -0.055122107 -0.17781976 0.18545528 0.17996892 -0.013792499 -0.17791675 0.13623928 0.46599752 0.07414662 0.12620123 0.29584837 -0.36734375 -0.3461611 0.20216824 -0.042417984 0.015240144 0.034077108 -0.08295056 -0.3180941 -0.38162053 -0.15113819 0.44846556 0.3647999 -0.037426073 -0.41661662 -0.10840703 0.2632018 0.1480591 0.005321678 0.09485865 -0.14156242 -0.1893732 0.11909958 0.24663886 -0.22022444 -0.30120897 0.10271928 0.16251355 0.20462562 0.25199226 -0.17090595 0.58625114 -0.14515178
523 0.041853778 0.11168843 -0.026567083 -0.24494965 0.16318296 0.004357678 0.053876404 0.012976223 -0.19755775 0.17288205 0.09229722 0.11630933 0.004101366 -0.24838664 -0.12194823 -0.18717025 -0.15706977 0.23804587 0.07985702 0.09595816 0.14404397 0.03574383 -0.048966825 -0.022099817 -0.2649709 0.07001434 -0.00826917 0.16935736 -0.044034746 0.16073328 -0.1887493 0.014739228 0.008945655 0.15230754 -0.10520745 -0.082221285 0.12614264 0.1184708 -0.09625189 -0.23475784 0.26532778 -0.25945276 -0.02549132 0.35163164 0.29746127 0.16780739 -0.073462695 0.32688755 -0.031135667 -0.27782792 -0.0772183 -0.24191411 -0.043239966 0.17370678 0.16820088 0.1176751 0.22837178 0.017400047 0.04326122 -0.33496156 -0.021907281 -0.010571932 -0.14449802 -0.08562432 0.04262026 0.45553315 0.00060554076 0.024539849 -0.007205522 -0.46880662 -0.26063472 0.116748124 0.20751184 0.004247443 0.07964048 -0.011950014 -0.27175155 0.024633808 0.2452147 0.16923347 -0.042733286 -0.23037454 0.025533488 -0.15644503 -0.0030551597 -0.03912244 0.008865543 0.10507275 0.021888882 0.14167042 0.25591737 -0.18094656 -0.27325642 -0.0101969605 -0.066954754 -0.08790313 0.70444065 0.08336155 -0.037722934 0.05615224
572 0.04821902 0.3078679 -0.0790862 -0.3587167 0.068399206 -0.096837915 0.25511268 0.13562548 0.005913638 -0.051226996 -0.049269486 0.0953282 0.12978396 -0.19979236 0.015812889 -0.17618711 -0.0065792245 -0.060827047 0.4061734 0.39775693 0.22776425 -0.12735088 0.16682205 -0.08198547 0.15235618 -0.124420844 -0.048585657 0.1272638 -0.18687308 0.07538 -0.06522947 -0.06687967 0.15632123 0.02282444 0.06753693 -0.1308996 0.062024828 0.0025387912 -0.059483334 -0.20636673 0.069883734 -0.31475914 0.088127404 0.26331687 0.17106888 -0.1471133 -0.030399367 0.3062466 -0.018444765 -0.16405423 -0.25342688 -0.27582082 0.0540331 0.028816672 0.023109205 0.21001385 0.17939687 0.33193475 0.20175037 -0.004602438 0.057360295 0.03025997 -0.022977436 -0.152898 -0.06652413 0.32079056 -0.12494142 0.013694428 -0.08244485 -0.2849716 -0.052336667 -0.033173464 -0.07595555 0.024391672 -0.08227353 -0.009657937 -0.28650603 0.15167002 0.18714948 0.2111668 -0.014623137 -0.05272619 -0.14914268 0.053410638 0.16054748 -0.02257484 0.08703377 -0.00045006303 -0.0019278616 -0.17421843 0.26898074 -0.11251099 -0.23285532 -0.03709919 0.031278893 0.10714718 0.41230902 -0.028841777 0.11102964 0.0031326304
1107 -0.307386 0.18182063 -0.06087382 -0.548583 -0.030215833 -0.28900635 0.05786222 0.03603913 0.09792174 -0.36089137 -0.09519142 -0.08995778 -0.0961467 -0.15583463 0.015489231 -0.16574535 -0.35399434 -0.25001603 0.19048598 0.34732744 -0.0040713632 0.01624347 -0.031263366 -0.11338397 0.20722328 -0.05305199 -0.18444282 -0.10457712 -0.16325799 0.013294965 0.25956815 0.0668799 0.05468335 -0.056010846 0.03156541 -0.13850965 -0.08727155 0.24231668 -0.4421577 -0.1902601 -0.032387797 -0.49094725 -0.19246615 0.31233138 0.1937892 -0.2572183 -0.3677205 0.091416046 0.0147611 -0.28981718 -0.10485373 -0.23229085 -0.027081987 0.054813597 0.042830907 0.18801633 0.099712335 -0.056303762 -0.0040220204 0.061343707 0.15352678 0.08347084 -0.32911515 -0.10196658 0.5291946 0.26776543 0.017929317 0.28544983 -0.27921778 -0.523231 0.13155057 0.08041367 -0.14494419 -0.11480215 -0.053117123 -0.41116324 -0.16967113 -0.16144598 0.37736952 0.4639865 -0.14566801 -0.26394784 -0.2644634 0.32119545 0.06662354 0.06322082 0.013583759 -0.23752078 -0.112852745 0.13587934 0.35960513 -0.15976448 -0.20929278 0.021048522 0.24643736 0.22493036 0.35241237 -0.25600094 0.6060142 -0.09060307
1638 -0.1256782 0.1092275 0.033029832 -0.3685836 -0.049859703 -0.18590973 0.1354867 0.044507667 0.094703205 -0.2139515 -0.03984596 0.009074188 -0.007959603 -0.020114908 0.12210632 -0.051826343 -0.18759388 -0.16301791 0.18096158 0.21747242 0.039315034 0.023608414 -0.089564756 -0.22233818 0.1861575 -0.01306404 -0.21509527 -0.13162601 -0.1283561 -0.012572829 0.26002207 -0.019513136 0.19126181 -0.033391375 0.037220795 -0.14156035 -0.04987771 0.08977115 -0.25345227 -0.1320731 0.021722734 -0.4314261 -0.09215852 0.20426421 0.19108929 -0.12078897 -0.33782607 0.061001033 0.09743218 -0.1854573 -0.099743806 -0.28738812 -0.15371925 0.08319917 0.19906609 0.29278013 0.041806463 -0.052835587 0.03814909 0.13500638 0.14960976 -0.0843922 -0.14530617 -0.053452957 0.3752998 0.025438767 -0.067763336 0.2984651 -0.16718015 -0.448243 0.030690456 -0.08202065 -0.046433426 -0.021751383 -0.12903439 -0.31289765 -0.23994263 -0.13035339 0.27875143 0.3655694 0.02042799 -0.40082064 -0.14515698 0.32067415 0.043540753 -0.04698909 0.037670497 -0.13872619 -0.057040036 0.12761095 0.3676281 -0.20589018 -0.318025 -0.006409835 0.24437185 0.22590548 0.5707571 -0.088712335 0.5125742 -0.22275509
1639 0.15822299 0.23732628 -0.07639559 -0.36894056 0.0091086095 -0.3361353 0.12355175 -0.046812195 -0.064680606 -0.27755034 -0.21192604 -0.0028046425 0.06906279 -0.04848 -0.10216803 -0.37683007 -0.17133838 -0.16939683 0.54072577 0.50629675 0.13527545 0.20124961 0.0013010042 -0.2601409 0.011632194 -0.005966056 -0.14643337 -0.06007646 -0.11511683 -0.05663258 0.11886608 -0.13748904 0.19390175 -0.0057215737 0.11581053 -0.095738254 -0.18758665 -0.08289755 -0.25782704 -0.2659145 -0.028060548 -0.5306374 -0.0121638365 0.22797988 -0.025034256 -0.032670084 -0.12937304 0.20569769 0.13418585 -0.038172632 -0.24436224 -0.2864357 -0.037737295 0.073075 0.004313898 -0.012103244 0.008256406 0.21711646 -0.10390642 -0.018481346 0.22661684 0.02140078 -0.08135975 -0.03802309 0.2031119 0.34353933 0.081329584 0.062755205 -0.1621312 -0.46321467 0.07640076 0.060392912 0.054291062 -0.0532607 0.1711097 -0.0743866 -0.2727171 0.06485197 0.09943379 0.26141024 -0.022150554 -0.29106015 -0.13601196 0.033528384 0.112414084 0.18462878 0.23357895 -0.087736934 0.08205297 0.04216525 0.24195682 -0.16815105 -0.26201397 -0.10202391 0.05720236 0.017903054 0.4730009 -0.08166422 0.24991913 0.14993966
1112 0.32031456 -0.029804818 0.1579017 0.052237563 -0.00419428 -0.007341789 -0.057789333 0.04326298 -0.080836095 -0.08898482 -0.3585944 -0.2510459 0.32310298 0.18700764 -0.23043856 -0.13131814 0.069559105 0.055957783 0.50771457 0.45511287 0.2884834 0.014301968 -0.112668544 -0.17937657 0.068628706 0.029308086 -0.11015917 0.09431614 0.109386526 0.032476448 -0.28572005 -0.17675997 -0.12855236 -0.111346155 0.21597916 -0.022503747 -0.13188297 -0.096922606 -0.06419758 -0.16556118 0.18957046 -0.19594944 -0.042206425 0.25996172 0.1128093 0.07301218 -0.09809248 0.03467898 -0.07243568 0.015719762 -0.12187678 -0.0024074595 -0.041071914 -0.104035914 0.25768346 -0.025815088 0.22811936 0.06394666 -0.028366646 -0.13072012 -0.022935582 -0.062171884 -0.027379582 0.03479903 0.19114877 0.39886516 -0.10935201 -0.16683607 0.08228581 -0.252686 -0.11824451 -0.21035211 0.004169843 -0.001413603 0.20760371 0.2364528 -0.18201265 0.05863937 0.19747195 0.061970823 0.17383046 -0.1833628 0.114757 0.0640088 0.018246394 -0.03982967 0.03770461 0.09092103 0.122995205 0.09527678 0.06889084 -0.045669973 -0.039108984 -0.023738235 -0.057814714 -0.14878762 0.27247706 0.1398599 -0.022569671 0.14207529
409 0.123065904 0.0096233925 0.19997656 0.031555835 0.014984484 0.17700566 -0.044228632 0.09286439 -0.014796242 0.15085429 -0.1330138 -0.0128410235 0.10407693 0.101153314 -0.031179827 -0.097213626 0.16893427 0.08209888 -0.023558877 0.1366921 0.10000026 -0.040080585 0.0064350036 0.015756 -0.011862352 0.05648241 0.20058559 0.22157276 -0.03542325 0.21361437 -0.20661423 -0.023402775 -0.09719835 -0.06087036 -0.0089715775 -0.047935113 0.016683172 0.06660472 -0.0055063274 0.05497422 0.0092440955 -0.28405207 0.06120993 0.5385103 0.34524179 0.040887687 -0.073239796 0.19287163 -0.11147207 -0.19300334 -0.19067855 -0.10654127 -0.080561705 -0.01744134 0.38024205 0.19715016 0.32779798 0.06619031 -0.009954224 -0.18441135 0.05872992 -0.11192937 -0.17948839 -0.13254607 0.116006866 0.3045847 -0.18666261 -0.07841901 -0.08448732 -0.37578896 -0.08512488 -0.2530371 -0.0107130455 -0.024983577 -0.012675108 -0.007957201 -0.16709024 0.061423708 0.009628166 0.1970016 0.11495828 -0.13983811 -0.0872711 -0.044607595 0.07885362 0.008319359 0.03395255 0.06391569 -0.0715834 -0.02198946 0.122431755 0.020040488 -0.047592226 -0.15023899 0.015220886 -0.10009472 0.37884977 0.16044983 0.065114215 0.082989916
1249 -0.16410844 0.09102497 -0.037428416 -0.46012408 0.018311625 -0.15422772 0.091761366 -0.050286192 0.11921777 -0.47614163 -0.21878709 -0.13959105 0.0016133841 0.184253 0.28729987 -0.0410078 -0.37890324 -0.1825579 0.50046396 0.5066692 0.10132494 0.19999073 0.06729363 -0.1630444 0.22199655 -0.21265127 -0.2166363 -0.056478575 -0.2260139 0.032056455 0.176996 -0.1836494 0.16999647 -0.036915973 0.093185805 -0.16131653 -0.114529334 -0.04250466 -0.313407 -0.24930252 0.01064681 -0.46868125 -0.1947242 0.21044092 -0.13275954 -0.33129498 -0.20659348 0.13402034 0.16562799 -0.05368523 -0.15096436 -0.26421407 -0.024028385 -0.01927577 0.08140271 0.08275563 -0.08094255 -0.009305221 0.027696216 0.23196132 0.21443447 -0.09786652 -0.13789979 0.009379442 0.4167655 0.034923036 0.07725503 0.17582639 -0.36248687 -0.3554823 -0.013443311 -0.17548643 -0.10493851 -0.025066998 -0.02882954 -0.2861805 -0.26724744 -0.0022368087 0.3124737 0.32210207 -0.029386107 -0.28805003 -0.19098936 0.1289472 0.13832523 -0.0025831042 0.11514903 -0.14282902 -0.23673032 -0.058352187 0.44497946 -0.20237954 -0.34999555 0.039310277 0.21326001 0.30218628 0.4514445 -0.06649845 0.37302172 -0.073975705
1263 -0.09650784 0.27988553 0.0055177957 -0.56825936 0.060391042 -0.24219064 0.18941188 0.12066583 0.041863836 -0.20485857 -0.21810246 -0.046278983 -0.0054805116 -0.29557866 0.009046083 -0.2727884 -0.1956167 -0.19748108 0.33389822 0.4640516 0.0465086 -0.020401428 -0.015262924 -0.14484261 0.19474643 0.10936533 -0.18459278 -0.011836186 -0.20273986 0.059982862 0.19235435 -0.07718064 0.25349584 -0.018374788 -0.16714288 -0.07771488 0.0034239138 0.113341466 -0.37661573 -0.1627348 -0.10225627 -0.46356717 -0.15243565 0.19237547 0.067775436 -0.15849626 -0.3816962 0.24047962 0.09711701 -0.39516282 -0.12621333 -0.46097517 -0.0059786676 0.28080952 0.015031082 0.25685978 0.026835496 -0.021910947 0.020786706 0.093442075 0.19710736 -0.006777016 -0.21871886 -0.089913875 0.43035987 0.24683324 0.038775127 0.2981354 -0.39680418 -0.6471463 0.07623124 0.006982237 -0.11891079 0.046911933 -0.04658638 -0.4775001 -0.22788033 -0.15520284 0.35549 0.49540466 -0.14747076 -0.37369353 -0.45102182 0.39085865 -0.026092894 0.11722564 0.08686035 -0.31468204 -0.038594894 0.12750773 0.26600114 -0.21771473 -0.15823922 -0.023318067 0.19369362 0.23281594 0.5574304 -0.12888446 0.5627811 -0.15003973
177 -0.1422775 0.19655173 -0.075955525 -0.6857537 0.014311858 -0.11155601 0.20837909 0.13728276 -0.020880982 -0.33791277 -0.12078767 -0.056209356 -0.0015303144 -0.20145097 0.027179176 -0.1267766 -0.40147668 -0.21197471 0.37790862 0.3875965 0.02933168 0.10627862 0.066406526 -0.12799649 0.21710658 -0.021668995 -0.08177511 -0.0056285234 -0.12478628 0.15848103 0.108628266 -0.06358489 0.15170941 -0.015210943 -0.026044168 -0.19586283 0.05376372 0.14655545 -0.3314264 -0.19533399 -0.076332554 -0.5409077 -0.07994172 0.36220062 0.19440337 -0.045759685 -0.28213173 0.2802981 0.063392915 -0.33723578 -0.22963473 -0.28840223 0.0055061746 0.08669986 -0.10328436 0.14062713 -0.079314426 -0.009286841 -0.01671181 0.0018672063 0.21869245 0.023644147 -0.17345572 -0.07869351 0.33302423 0.16284488 0.13382305 0.2252983 -0.3418679 -0.42862183 0.05804243 0.054986604 0.06409343 -0.027965954 -0.07440652 -0.26738635 -0.3154919 0.026558546 0.22929788 0.2868339 -0.16427271 -0.26136923 -0.34363595 0.26533282 0.22304113 0.12832433 0.17020577 -0.2647033 -0.13076067 -0.003408013 0.37537506 -0.1915033 -0.21346822 0.2064144 0.1391653 0.16999814 0.4711005 -0.16433014 0.56563205 -0.07180429
1052 -0.071100965 0.0017245221 -0.08458963 -0.23250711 0.06361618 -0.06740965 0.06194738 0.038704 -0.035912108 -0.16052634 -0.066404305 -0.070735574 -0.01625499 0.016971596 -0.0042504137 -0.20233977 -0.16359818 -0.13645065 0.371999 0.32596737 0.12926148 0.104452685 0.06681598 -0.25473943 -0.07829074 -0.019427521 -0.113644205 -0.08381392 -0.066001035 0.13529378 -0.005555587 -0.16622363 0.15846394 -0.021918707 0.017758729 -0.10598554 -0.31315282 -0.016026784 -0.19391593 -0.0921899 -0.12963389 -0.3733083 0.09688603 0.2154555 0.040292244 -0.14504065 -0.21201135 0.09309899 0.119839616 -0.09792134 -0.06372948 -0.3053908 -0.0073443055 0.04928541 0.03245504 0.00471822 0.13062452 -0.1373729 -0.17161775 0.1406536 0.22978534 -0.18477127 -0.0066025765 0.08595891 0.51612574 0.1778457 0.17313173 0.16715291 -0.30807242 -0.5282972 -0.06755251 -0.1295931 0.2487066 -0.09734457 -0.09996381 -0.32646847 -0.43707585 -0.04111703 0.2367418 0.3988004 0.035032537 -0.43724182 -0.30623144 0.2187935 0.16189486 0.016482998 0.048771273 -0.18275802 -0.066230625 -0.07822232 0.32991663 -0.2552691 -0.2225912 0.024874639 0.22969052 0.085707694 0.53589684 0.03886738 0.46921626 -0.04893723
587 0.0843955 0.06247508 -0.1810308 -0.30978474 0.123308696 0.19552155 0.18718277 0.052755266 0.006101692 0.061209038 -0.18121327 0.10128863 -0.0138982525 -0.081550665 -0.18641818 -0.1677234 0.08253418 0.070598304 0.3707431 0.32126948 0.13045493 -0.030579736 -0.021629257 -0.006359764 -0.08273585 0.11437866 0.092805445 0.22712421 -0.0774028 -0.023922674 -0.17807114 -0.05321477 -0.09884453 0.03598167 0.08285298 -0.035763178 -0.11418731 0.071243644 -0.28004998 -0.120242 -0.045422122 -0.14180678 -0.074025765 0.4617643 0.03717829 0.06469939 -0.22310366 0.16952594 -0.013663726 -0.19748545 -0.16887152 -0.3593527 -0.14312702 0.14930451 0.036364593 -0.09073912 0.032613326 -0.14706495 -0.106190905 -0.14597274 0.115749426 0.057526506 -0.033461206 0.1867584 0.09235075 0.33297074 0.011071245 -0.029669004 -0.0718877 -0.47812155 -0.20014292 0.018768227 0.16395855 0.10319211 0.014127684 -0.23409933 -0.2807047 0.066517755 0.12559785 0.25149795 -0.07201743 -0.16052021 -0.22711903 0.060451176 0.08101955 0.09685995 0.063253544 -0.08769396 -0.048516233 -0.026782673 0.3071971 -0.24140577 0.075017355 0.12431449 -0.1077931 0.035045493 0.53511715 0.10542794 0.3762352 0.05760745
588 0.14737771 0.16464551 -0.03168951 -0.021408161 -0.030927667 -0.010888283 0.1618168 -0.04968005 -0.011736484 0.07221389 -0.25146624 -0.0002316262 0.11364581 0.079255804 -0.07424924 -0.052244365 0.12998006 0.1486511 0.048520744 0.1491232 0.13701777 -0.14306654 0.02836818 0.113113 0.08396807 0.234356 0.05492082 0.06685537 -0.008055222 0.19686525 -0.22808734 -0.016300518 0.049640413 -0.029774293 0.10829521 0.00474575 0.19264972 0.00026848342 -0.095841914 -0.05702053 0.020370077 -0.33998534 -0.09369355 0.42498088 0.14477757 0.014562589 -0.103835724 0.27452525 -0.022103665 -0.18825844 -0.24212232 -0.18408377 -0.28591028 -0.057437323 0.33848798 0.2814196 0.30262986 0.26908398 0.20839275 -0.16829224 0.1097369 0.10527087 -0.18954785 -0.057639677 -0.043402005 0.19334891 -0.100522384 -0.17997548 -0.01395817 -0.41226703 -0.08469364 -0.18703896 0.11004223 0.054208387 -0.06097064 0.016573492 -0.091125906 -0.038142562 0.17003675 0.29544213 0.06898125 -0.126757 -0.0151037965 -0.049119543 -0.0005471108 0.071033925 0.02370072 0.105841525 0.20974237 0.15190819 0.14394455 -0.21493018 -0.060931124 -0.11674031 0.0712761 0.023437273 0.052263115 0.09328373 0.14569505 -0.022354888
1124 0.009002904 0.16565451 0.0009480336 -0.5251609 0.11910738 -0.173105 -0.039570585 0.15558559 -0.0045658285 -0.43692517 -0.21541138 -0.21584512 0.02894307 -0.14007057 0.079071045 -0.2069052 -0.35412392 -0.17436065 0.5453349 0.38144824 0.06713261 0.26717636 0.012563193 -0.29641807 0.052509833 -0.051421553 -0.21767223 -0.047182783 -0.107468255 0.2760817 0.2609488 -0.102580175 0.28256792 -0.016638204 -0.022360228 -0.2592411 0.16817202 0.17676051 -0.20612301 -0.15789777 0.007787096 -0.35074514 -0.22183692 0.02929921 0.08585479 -0.21675885 -0.39332044 0.32599363 0.006760602 -0.20832661 -0.11654129 -0.47157344 0.074562795 0.19752057 0.15062702 0.25855955 0.023992104 0.058780808 -0.05809075 0.11793453 0.08304576 -0.17971683 -0.2302874 -0.07389984 0.44865963 0.072478704 0.22232777 0.33972073 -0.5351044 -0.34500206 0.14953579 0.051520158 -0.055345602 0.051714282 -0.15319273 -0.31604418 -0.22316842 -0.14793551 0.2823297 0.25271738 0.021376217 -0.18267415 -0.13488947 0.13290587 -0.11718632 0.06166576 -0.013367037 -0.09842283 -0.10406392 0.07148453 0.3465447 -0.1703465 -0.36527917 0.054401804 0.26243094 0.18064341 0.36844444 0.007927346 0.51903474 -0.29423475
590 -0.26160085 0.22665586 0.06830946 -0.44664216 -0.033645906 -0.35268185 0.0416103 -0.11962648 0.09536782 -0.37776053 -0.2278618 -0.03635711 -0.018763885 0.0820372 0.23761033 -0.1611806 -0.45781156 -0.20102803 0.42161828 0.47597224 0.049398586 0.12995154 -0.010401576 -0.26106986 0.18014964 -0.13801199 -0.28259876 -0.16029827 -0.15966073 0.00445605 0.32949302 -0.119712494 0.1627895 -0.04092976 0.0633757 -0.2615763 -0.116609015 0.15762787 -0.3079815 -0.15767206 -0.013166821 -0.5098695 -0.13411236 0.16930361 0.025500737 -0.15193649 -0.25143462 0.17967927 0.13574238 -0.31591257 -0.048775963 -0.5019446 -0.012473839 0.06367092 0.30984658 0.31783724 0.09284126 -0.041737575 -0.043889478 0.109996505 0.2514355 -0.012968401 -0.18643634 0.017996777 0.5036223 0.05834836 0.012968291 0.22289787 -0.2188673 -0.47403085 0.0046660337 0.0074052797 0.074334115 -0.016276443 0.037866052 -0.4435133 -0.2218619 -0.06119691 0.23692398 0.37003055 -0.05165115 -0.55464417 -0.18772288 0.0800194 0.06263008 0.08117807 0.0240576 -0.28389037 -0.20184685 -0.014088392 0.36216098 -0.21937653 -0.52445585 0.0013086394 0.30694005 0.37539846 0.08276052 -0.03864546 0.36304402 -0.27601114
1654 -0.13106756 -0.019163854 -0.22974013 0.036208868 0.1988149 -0.09686778 0.21346068 0.108996436 0.10873715 -0.27588528 0.16821949 0.05896274 0.040681798 -0.09792163 0.11976527 -0.24335422 0.18815206 -0.017305003 0.23096403 0.06960092 0.17831954 0.2279494 0.071040414 0.09208676 0.29322594 -0.23398972 -0.038734175 -0.36848783 0.10119383 0.10672998 0.07862203 0.015390673 0.1699157 0.039114263 0.14420089 -0.066149354 -0.14587094 0.08139871 -0.52850634 -0.16589576 0.036496233 -0.18039271 -0.08999712 0.10994675 0.24763474 -0.05205859 -0.45794392 0.24674535 0.12377106 -0.32272607 0.16258515 -0.25676733 -0.037079383 -0.06659905 -0.13653795 -0.104504146 0.19892412 0.013084609 0.3347611 -0.18678427 0.4036824 -0.004884742 -0.084019504 0.109701306 0.31513375 0.24737497 0.15964615 0.12912652 -0.36454803 -0.5949469 -0.32268685 0.190913 0.3086417 -0.10408083 -0.23386513 -0.50393474 -0.31191903 -0.46027493 0.45230561 0.2753766 -0.112777054 -0.32901436 -0.33688438 0.29755843 0.18739572 0.04465907 -0.06836614 -0.14372897 -0.066154584 0.036401555 0.4240931 -0.29205272 0.196281 0.05337226 0.3611672 0.2768281 0.29645932 -0.06779724 0.23526831 0.05561647
1299 0.101275876 0.014570654 -0.003605479 -0.19049667 0.11910989 0.16342409 0.14080171 0.0077908747 -0.050159287 -0.0016622327 -0.11062242 -0.16165547 0.009067518 -0.07980708 -0.04654512 0.055302106 -0.15877825 0.042799335 0.1421673 0.30929804 0.018832088 -0.12066826 0.07447591 0.11334077 0.16784264 0.09326722 0.07001933 0.13532232 0.03563078 0.011932576 -0.16912417 -0.13874021 -0.17684716 -0.18934183 -0.023925519 0.037506703 0.05272235 0.15867403 -0.08100834 -0.039916597 -0.023505822 -0.26466784 0.07338334 0.3167141 0.19975497 0.12121068 -0.099792056 0.1398847 -0.09664814 -0.15542275 -0.05623 -0.0863255 -0.07159929 -0.008261378 0.29927346 0.008384717 0.20679101 0.13521168 0.19595937 -0.12717903 0.08937456 0.034844942 -0.16629371 -0.061032236 -0.021095568 0.2840739 -0.027464846 -0.19947793 0.1816671 -0.34946927 -0.13762881 0.055460166 0.029809708 -0.05789332 -0.19603622 0.26188356 -0.270778 -0.044781238 0.14114538 0.16768502 -0.10587615 -0.3578767 -0.065032266 0.024519889 0.32604238 0.035831146 0.124931484 -0.012169761 0.03011133 -0.010241318 0.25275657 -0.010722648 -0.05763884 0.053694125 -0.06135028 -0.064411744 0.36757857 -0.07704748 0.0531376 0.048695683
594 -0.057341088 0.103769325 -0.06768326 -0.33674115 0.087852746 -0.02654241 0.095091216 0.012115479 0.16936418 -0.026140092 0.037105907 -0.06999614 -0.23365048 -0.04600787 0.00039161797 -0.15267447 -0.282031 -0.14496097 0.07714345 0.24628837 0.008318349 -0.06589658 -0.04582722 -0.03975995 -0.001795151 0.077236615 -0.006864643 0.15094687 -0.008120279 0.08083207 -0.023259204 0.13163494 -0.050577078 0.13772354 0.054557223 -0.041069422 -0.06488109 0.1537236 -0.25197864 -0.20526406 0.020382179 -0.42494035 -0.14017975 0.4405504 0.27979562 -0.014069381 -0.17756064 0.18323842 -0.033894256 -0.27173126 -0.038085494 -0.14731169 -0.15729243 0.17323159 0.27207598 0.07993655 0.14610225 0.13360862 0.025146365 -0.013288588 0.033220608 3.7493002e-05 -0.32301322 -0.0635911 0.34537593 0.14580198 -0.029269995 0.09653149 -0.054994114 -0.26287362 0.040824 0.035121806 -0.14609419 -0.096790634 -0.027338015 -0.034037676 -0.1302351 -0.10003338 0.22748022 0.3042612 -0.12811173 -0.31725785 -0.09182607 -0.03203298 0.08695495 0.04410518 0.06269838 0.08980811 -0.080326565 -0.013317112 0.21162291 -0.23523629 -0.08702151 0.084218934 0.09225307 0.13324383 0.42444625 -0.052496452 0.1436852 0.10580602
1128 -0.053509407 0.05570884 -0.11057953 -0.11740132 0.090865 -0.069071285 0.012702521 0.0056079864 0.033746816 0.028943058 -0.11476425 0.06108315 0.0914147 -0.16150054 -0.033178892 -0.03147433 -0.043607965 0.25714776 -0.0012519404 0.140812 -0.0712018 -0.08891524 -0.07156183 0.24678119 0.20155345 0.084483825 0.086536005 0.05388821 0.0049621053 -0.047948737 0.070521444 -0.06533368 -0.21253681 -0.18703641 0.052821305 0.13833392 0.14392541 0.2990924 -0.2543716 -0.087999776 0.09409705 -0.22006147 -0.1882177 0.46950632 0.38124532 0.2759341 -0.12796347 0.18815522 -0.0677191 -0.27079567 -0.17115685 -0.09674691 -0.23510428 0.020765899 0.4388798 0.16693112 0.42927298 0.03357868 0.11808016 -0.26759368 -0.0064597023 0.2625874 -0.2784952 0.06529892 -0.041261673 0.22947404 -0.02964978 -0.07255451 0.17314652 -0.26021618 -0.20078318 0.26938617 0.0004707342 -0.057080567 -0.118425846 0.22465977 -0.07118477 -0.1074339 0.057409648 0.0094584925 -0.21413293 -0.22460534 -0.042297967 0.077641204 0.33220968 0.099963 -0.039990388 -0.037737377 -0.0046627377 0.1121748 0.17451869 0.03557625 0.078872174 0.007065976 -0.015552698 0.043698814 0.3979198 -0.06169304 0.23175229 0.0797621
1658 -0.3006011 0.1873532 0.052170314 -0.38084933 0.0077882637 -0.26545852 0.28477696 -0.036370244 0.18864246 -0.28810567 -0.29327792 -0.15064423 0.059420537 -0.12508406 0.034061052 -0.17182618 -0.19506204 -0.10990269 0.25907773 0.3442548 0.063898 0.035796847 -0.035610005 -0.13961071 0.28551295 -0.01567362 -0.15805462 -0.15768105 -0.02966402 0.20667 0.15808201 -0.009840319 0.26751825 0.0056575667 0.00069046154 -0.19668587 -0.007096567 0.0926669 -0.32180822 -0.19067204 -0.10002916 -0.5216152 -0.1687136 0.44184422 0.22010784 -0.22808236 -0.32250994 0.31585065 -0.0152919805 -0.34908286 -0.15023714 -0.23907349 -0.06941053 0.08375052 0.19055857 0.265688 0.28149292 0.15013534 -0.06213625 -0.03354456 0.12745504 -0.043972187 -0.23029038 -0.005451118 0.25851315 -0.010740494 -0.0667934 0.14736494 -0.41015315 -0.3589596 0.06551126 0.00013876014 -0.03137325 -0.008986516 -0.0069786925 -0.222177 -0.10826656 -0.18273868 0.23167387 0.28317663 -0.20074926 -0.1439491 -0.33138555 0.11062053 0.018439744 0.06902915 -0.056494903 -0.22589594 -0.09218502 0.07214785 0.16520615 -0.20260124 -0.0653924 -0.051482376 0.22988287 0.32670295 0.08870394 -0.077501535 0.41225561 -0.08090968
1659 -0.0048188814 0.258451 -0.08184695 -0.29347882 0.07765441 0.012605461 0.11751994 0.0037440055 -0.033312693 -0.057091936 -0.11200951 0.06562928 0.19437782 -0.077860065 -0.034810953 -0.2678497 -0.07831504 -0.009183669 0.25701165 0.36828387 0.27280083 0.010393973 -0.02141347 -0.058223777 0.10994156 -0.008996051 0.13960691 0.0696692 -0.10526654 -0.08673104 -0.020759353 -0.001868821 -0.06814827 -0.22796981 0.08135039 0.07774289 -0.023434341 0.017875118 -0.23338853 -0.26689506 0.06456694 -0.30190903 -0.00992836 0.28203985 0.06630449 -0.0553038 -0.17784077 0.24620032 -0.032714654 -0.122080505 -0.050092727 -0.26747975 -0.02499089 0.07304113 0.14399901 0.041622523 0.13512371 0.080107726 -0.0047713714 -0.14497252 0.18635471 0.082402416 -0.07559705 0.0060897325 0.14188305 0.2609711 -0.049494624 -0.0017294093 0.03876719 -0.47281903 -0.16900027 0.05855015 0.0034957733 0.10002871 0.0938585 0.015091034 -0.20113315 -0.035547018 0.08321482 0.21534294 -0.022554306 -0.1988101 -0.1247535 -0.029687382 0.14615463 -0.03192857 -0.017809823 -0.17582746 0.06851785 0.17249745 0.23045072 -0.0374884 -0.13224313 -0.07519176 0.030731408 0.18740742 0.46918386 0.076753825 0.3546947 0.058134682
597 0.07455098 0.15213741 0.088554665 -0.61048204 0.13907683 -0.19050638 0.13928866 0.21362978 0.10051227 -0.26949918 -0.21334378 -0.07250549 0.14868745 -0.03472707 -0.023888066 -0.2601727 -0.20314974 -0.1302757 0.55411994 0.4155289 0.113991655 0.13662411 -0.035700485 -0.27100268 0.20281737 0.06650725 -0.165486 0.022023203 -0.16481784 0.19063117 0.124665216 -0.023052579 0.10341074 0.04439851 -0.06528462 -0.13733804 0.041516345 0.100529864 -0.1548178 -0.09475285 0.053482533 -0.40052345 0.0055254917 0.13500008 0.22024639 -0.020439222 -0.2407033 0.3028902 -0.07017753 -0.34988886 -0.08710588 -0.361316 -0.040122822 0.23610961 0.168304 0.18519798 0.094509184 0.11471617 0.025171308 -0.06962332 0.06580192 0.007854484 -0.06517272 -0.17858674 0.25523356 0.059752874 0.13080028 0.2577447 -0.31275222 -0.35052004 0.07199763 0.12990701 -0.016865589 0.038797457 -0.08245923 -0.23839745 -0.25770617 0.035875868 0.19513915 0.07919753 -0.028302707 -0.24463157 -0.20948946 0.07868526 -0.038751815 0.025977476 -0.003262551 0.0022716727 -0.066938125 -0.112683356 0.27453488 -0.10807273 -0.15689602 0.16937853 0.26496506 0.050286233 0.1656548 -0.045456752 0.12673679 -0.08402632
1662 -0.14241387 0.06416251 0.120726645 -0.24333747 0.0664886 -0.1968372 0.1793487 0.0452371 -0.15763547 -0.120216705 0.04514083 -0.16147543 0.10389899 -0.10071363 0.11315276 -0.15212207 -0.29868302 0.04078326 0.1910169 0.19900024 0.112452924 0.05149641 -0.07201801 -0.09902836 -0.092802055 -0.23020688 -0.020754322 0.14881806 -0.024088139 -0.13917992 -0.027022233 0.0672424 -0.027262283 -0.09667844 -0.051899116 -0.2767986 0.13525933 0.3101802 -0.11095196 -0.093292795 -0.078738466 -0.47620603 -0.067175835 0.34798798 0.29864573 -0.164218 -0.27069804 0.12618633 0.06126015 -0.38364038 -0.10426106 -0.18199667 0.04670664 0.111326605 0.1486123 0.14109237 0.024235943 0.1391836 0.09655591 -0.13874078 0.068980634 -0.11823945 -0.09918923 -0.10360315 0.27904752 0.32781324 0.012334253 0.12334876 0.07213733 -0.33205354 -0.13422804 -0.039691508 -0.107671276 0.029069878 0.0009149265 -0.0082289465 -0.14034389 -0.15124214 0.2335549 0.11773187 -0.18966348 -0.16902281 -0.19315885 0.14576568 0.22416405 0.030958688 -0.002846635 -0.2099881 -0.08751725 0.002560564 0.38316247 -0.10138862 -0.31449813 0.05611007 0.058295097 0.20831092 0.551135 -0.022008583 0.39329788 -0.08851043
267 -0.2897757 0.12475908 -0.0018312616 -0.12526722 -0.015172696 -0.15567061 0.055828128 -0.056002114 -0.05303075 -0.07997895 0.009755731 -0.017201819 -0.036415514 -0.028303599 0.095768765 -0.14224876 -0.11884151 -0.033954643 0.118799224 0.17064293 0.21221255 0.025650246 -0.0134293325 -0.08346204 -0.061999734 -0.16357577 -0.08188837 0.0072144223 -0.10656589 -0.061782926 -0.02302283 -0.023180977 0.07966246 -0.044468045 0.036168948 -0.20568956 -0.09460901 0.20414671 -0.16303253 -0.06707005 -0.03542503 -0.38306737 -0.088177346 0.4766051 0.13549338 -0.15707405 -0.14077555 0.023340208 0.04252594 -0.22237955 -0.11909696 -0.30425137 -0.0997013 0.10925272 0.27266964 0.08768122 0.13176136 -0.062593155 -0.056342885 -0.00957825 0.07099185 -0.098886006 -0.20154428 0.020417891 0.28699946 0.2706018 -0.031837158 0.12250409 -0.10861102 -0.31813642 -0.11979181 -0.10333824 0.09403742 -0.07446871 -0.07822555 -0.15061752 -0.12320328 -0.095486686 0.2394294 0.27965644 -0.0630624 -0.26689714 -0.08628492 0.23893283 0.18273479 0.12236817 0.066514485 -0.22493282 -0.082906485 0.14474316 0.35514918 -0.12530656 -0.3687344 -0.16003694 0.08098828 0.09640706 0.47687986 -0.1796647 0.45240948 -0.0026090064
1666 -0.15004523 0.12388166 -0.08655928 -0.39275697 0.002815343 -0.26478603 0.01088388 0.007387295 0.049410827 -0.31510806 -0.19446905 -0.19179319 -0.100201294 0.021784427 0.019820893 -0.10553202 -0.3103338 -0.24377368 0.37137574 0.41540706 0.11824136 0.17690246 -0.043823782 -0.30390272 0.065599725 -0.03542168 -0.32498813 -0.09644079 -0.08104261 -0.038773406 0.15675044 -0.13396178 0.17315261 0.03015527 0.02819519 -0.15326412 -0.24671316 0.07866795 -0.28689197 -0.18862225 0.08089847 -0.53130877 -0.19640498 0.27324557 0.028801702 -0.18086638 -0.17680825 0.07530954 0.103569515 -0.15017 -0.1490749 -0.32617727 -0.27857164 0.14318797 0.09733085 0.07280992 0.00848771 -0.1052987 -0.08968833 0.20955503 0.16396557 -0.115408346 -0.18681161 -0.006628359 0.43979055 0.06877307 0.12044335 0.21879312 -0.2698602 -0.31369033 0.0079968 -0.078395575 0.10233648 -0.13981733 -0.019939126 -0.3938065 -0.20353676 -0.09420035 0.3345775 0.46976596 0.023854153 -0.33989847 -0.15728584 0.3056165 0.028032737 0.116093054 0.08934855 -0.22608148 -0.17066932 0.17836118 0.33261806 -0.2710396 -0.31555164 0.0009845124 0.300629 0.15258782 0.34172177 -0.11479867 0.4574086 -0.06261625
1671 0.18158694 0.17562686 0.02819215 0.010567233 0.008166154 0.12836064 0.21434225 -0.017242162 -0.03378063 0.18250176 -0.12107421 0.03739643 0.010660479 -0.12937823 -0.09650485 -0.07765581 0.18512373 0.13323134 -0.03139086 0.38802215 0.14835238 -0.19374213 -0.049164962 -0.010920522 0.08400771 0.06970088 0.16896802 0.089948565 -0.06615705 0.21210898 -0.052741967 -0.0019074496 -0.038306225 -0.040588606 -0.05078982 -0.034363497 -0.017033141 0.19397618 0.08237253 0.03195577 0.062130485 -0.32244265 -0.042324297 0.511031 0.46935195 0.074286155 -0.18911749 0.30691984 -0.18375722 -0.22941609 -0.1996277 -0.2877223 -0.1893264 0.11933236 0.21362838 0.063218616 0.30780235 -0.027062003 0.065144494 -0.066029504 0.0034670155 -0.018754898 -0.24098414 -0.07893226 0.05326709 0.22991778 -0.124376155 0.008143961 -0.07222519 -0.47037554 -0.18132764 -0.17253876 0.09409304 -0.0517751 0.00749282 -0.046962224 -0.17073303 0.0029875336 -0.021692015 0.42778513 -0.0059197214 -0.2108607 -0.31876427 0.043505356 0.12387699 0.13503012 -0.0065162345 -0.11881842 0.00446133 0.25849754 0.08081613 -0.018029796 0.06748148 -0.008897236 0.0008799342 0.044000715 0.31910932 0.049991917 0.3259467 0.12451338
1672 -0.07746601 0.17542496 0.09424293 -0.49353352 -0.007745042 -0.16814066 0.31407818 0.014920968 0.071117416 -0.12200794 -0.05201701 -0.013022042 0.069691196 -0.121591076 -0.04252955 -0.2320501 -0.24749859 -0.09130159 0.3391362 0.5976803 0.08296599 -0.090424314 0.035023298 -0.123738095 0.17226483 -0.1951449 -0.015104866 0.008297512 -0.057328884 0.15334913 0.001997853 -0.024724428 0.025482845 -0.0851198 -0.02288202 -0.16969268 -0.14707266 0.11405724 -0.21931346 -0.12365943 -0.049038768 -0.42422807 0.06332554 0.2777298 0.2984742 0.0032788278 -0.19951914 0.1969975 -0.03225066 -0.3388984 -0.037637055 -0.24951892 0.011559152 0.060616445 -0.004804571 0.102428116 0.14097555 0.100162074 0.08955761 0.024849504 0.13273029 0.0032850436 -0.12013494 -0.063420326 0.24694502 0.18398803 0.0299777 0.047752555 -0.08772537 -0.44699794 -0.13728502 0.08091669 0.09255204 -0.038002107 0.06173266 -0.26521775 -0.35649845 0.008139559 0.16717364 0.32134005 -0.11000041 -0.34730113 -0.37690496 0.17559615 0.24518201 0.1017873 0.1472053 -0.25433794 -0.110534236 -0.05677454 0.28949517 -0.23889147 -0.13216715 0.15902819 0.15080965 0.2856301 -0.00095664215 -0.020701993 0.28568736 -0.017303377
1141 -0.17501448 0.11767843 0.065730475 -0.32142252 0.120605335 -0.08396614 0.10766346 0.026790986 0.019119665 -0.027840829 -0.18600875 -0.06257885 0.12015631 -0.14279695 -0.074172184 -0.18637916 -0.32766974 0.0055183754 0.39036235 0.43611252 0.22817309 0.04555829 -0.10079497 -0.09155879 0.14201947 -0.08164887 -0.0040839985 0.22600356 -0.049483918 -0.0025356 -0.09473451 -0.1289069 -0.035498913 -0.071475826 -0.06226427 -0.121597975 -0.021844145 0.06400868 -0.04829801 -0.1986182 -0.15440173 -0.30727142 -0.070831835 0.39046973 0.20382771 0.019382063 -0.17857929 0.16147648 -0.03929154 -0.21148887 -0.23714118 -0.1793894 -0.08295833 0.10057073 0.22929756 0.097809516 0.17577392 0.08042757 -0.07855493 -0.11379551 0.004940677 -0.051298566 -0.16985624 -0.12496074 0.26110062 0.12977712 0.011131629 0.08209537 -0.209562 -0.26232165 -0.118193194 0.043815594 -0.029425317 -0.016494188 -0.10497603 0.1523066 -0.33395275 0.13482705 0.033258006 0.07334558 -0.16590463 -0.342319 -0.20660912 0.037867013 0.30908513 0.12682246 0.17079394 -0.102319404 -0.07201761 -0.0680558 0.35045144 -0.12137774 -0.2256298 0.04967977 -0.03853234 0.023864336 0.09381077 -0.08491723 0.12953535 0.14358743
1143 0.08559717 0.30685306 -0.11596531 -0.49527758 0.06865395 0.0225267 0.06376045 0.20091693 -0.08055459 -0.2097909 -0.070234746 0.080532156 0.17054722 -0.122009546 0.02994952 -0.16358498 -0.19051933 -0.062830105 0.46901613 0.40058848 0.110583276 0.12827213 -0.001584117 -0.2434785 0.12585154 0.13941039 -0.1058243 0.007197686 -0.25580746 0.39657372 0.16464804 0.09171474 0.18975031 0.123384684 0.024227792 -0.1516608 0.22801146 0.10008072 -0.110660195 -0.10167464 0.07033518 -0.18655977 -0.037262607 0.06839541 0.116913244 -0.10810672 -0.28113025 0.40705508 -0.14386794 -0.2383671 -0.265639 -0.39676607 -0.017557546 0.0949967 0.037784047 0.3195427 0.07933786 -0.0070765596 0.07000073 -0.062392782 0.09728762 0.017540604 -0.11495411 -0.13260438 0.2906753 0.056896597 0.0058509526 0.28301865 -0.2830328 -0.5021417 -0.046463795 0.061722342 0.013616511 0.15028071 -0.12096258 -0.31318778 -0.40148577 0.0287121 0.16583622 0.2919261 0.10747297 0.07212581 -0.011583435 -0.01609543 -0.11253964 -0.0747403 -0.14830297 -0.12647301 -0.1577086 -0.0029316964 0.23752083 -0.20836364 -0.21619505 0.17140694 0.2542778 0.2027353 0.3221879 0.17686415 0.34852415 -0.097613335
1419 0.10485507 0.10672506 0.052087806 -0.29563576 0.07473752 -0.18026794 -0.030194415 0.25221 -0.06416621 -0.29932708 -0.16789992 -0.28745934 0.16216782 -0.14353418 -0.09824823 -0.35506707 -0.17040811 -0.08562893 0.55006236 0.46574813 0.17442107 0.09514946 -0.01675601 -0.12018608 0.1674801 -0.15623651 -0.14415611 0.050918993 -0.050624136 0.23168589 0.016055075 -0.017919848 0.10726417 -0.05094527 0.020284273 -0.17664899 -0.06541624 0.16175774 -0.32767716 -0.16640808 -0.032656714 -0.42758623 -0.0849975 0.261278 0.22271569 -0.13383104 -0.27539957 0.26767245 -0.021981165 -0.36403656 -0.06594267 -0.32936698 -0.11109415 0.17154929 0.048072092 0.09249673 0.16447085 -0.0025591217 0.0040448615 0.0018348366 0.110547766 -0.08117576 -0.09816462 -0.09303474 0.38506952 0.19319576 0.043166943 0.29947093 -0.38916695 -0.28404608 0.038417164 0.047970038 -0.020795804 0.015188194 0.041261785 -0.36172238 -0.23289625 -0.025495676 0.18897054 0.15793419 -0.043813784 -0.040937766 -0.27216431 0.26231903 0.072166815 0.08807844 0.012109868 -0.14554712 -0.09837152 -0.08369543 0.15921128 -0.15033881 -0.07600072 0.14376138 0.12919658 0.02129043 -0.04663907 -0.13198328 0.12670302 0.010447179
1678 -0.19987392 0.14853959 0.032753117 -0.3924958 0.10313006 -0.10637083 0.22702439 0.12306697 0.034013733 -0.10974829 -0.014079106 0.02289896 -0.18478902 -0.39280874 0.14295113 -0.09773855 -0.1732453 -0.0057208715 0.33951887 0.31812173 -0.007389846 0.0034102295 0.12594767 -0.01952629 0.15036163 -0.1485466 -0.097930014 0.034214795 -0.066416994 -0.022210632 0.21361776 -0.10502627 0.20175028 -0.035800975 0.06759469 -0.09663534 -0.006427118 0.1373766 -0.3608228 -0.22798623 0.008715782 -0.587751 -0.13820662 0.50957215 0.2536503 -0.06662838 -0.28453562 0.3269244 0.06356576 -0.34057054 -0.16005312 -0.2602318 -0.09159279 0.23286681 0.20717712 0.20293199 0.36330652 0.06853506 0.03333656 -0.07429174 0.19225916 -0.021946969 -0.24259274 -0.03662561 0.15309179 0.24364929 -0.1231293 0.15667222 -0.37288687 -0.3831077 -0.13543591 -0.0031878655 -0.06186047 0.015533075 -0.016136222 -0.21968274 -0.3215054 -0.006491033 0.21757773 0.3250976 -0.18793988 -0.2524049 -0.6202696 0.23967019 0.13354014 0.002406808 0.118301116 -0.3042402 -0.16757378 -0.10199218 0.21517617 -0.062984034 -0.05153004 0.1679081 0.16023014 0.17993465 0.28462258 -0.12810072 0.2248436 -0.01889027
608 0.052415837 0.0045949887 -0.15856774 -0.29766074 0.20833789 0.14097722 -0.0066642785 0.11421861 -0.052987438 0.060652785 -0.18654266 -0.07316756 0.10196855 -0.12995805 -0.296497 -0.14399846 0.10212758 0.13852918 0.023608241 0.09200424 0.025690973 -0.19651331 -0.09195407 0.13795805 0.072814375 0.14348258 0.08189939 0.08869945 0.018676225 0.22191754 -0.10731624 0.0095011415 -0.03539396 0.025464855 -0.090146534 -0.122442774 0.09426852 0.1264713 -0.10975473 -0.058188908 0.12920876 -0.16798228 0.010144458 0.46766752 0.35515177 0.17421524 -0.09748483 0.33923447 -0.08516746 -0.30672345 -0.20547548 -0.13526785 -0.012006996 0.07991588 0.11759707 0.06428836 0.2766423 0.020585893 0.011651026 -0.26919904 -0.038417574 0.12505245 -0.09437655 -0.034613207 0.15510638 0.37707195 -0.08080063 -0.028003076 -0.12535347 -0.43999586 -0.007365191 0.19036058 0.15571788 -0.16424532 -0.08293215 0.11482088 -0.15398411 -0.002497601 0.1805005 0.19894764 -0.16419284 -0.21188992 -0.15597741 0.061288282 0.084538065 0.0636155 -0.039253056 0.0665965 0.01619479 0.016454818 0.07885025 0.04388603 0.07766266 -0.0021391571 -0.05748046 -0.06343281 0.58644485 -0.0072329734 0.06963238 0.047799308
610 0.31761852 -0.12646294 0.10033747 -0.04309297 0.12245554 0.06269195 0.23981309 0.13544248 -0.15125282 0.21049486 -0.43577525 -0.014458816 0.14511204 -0.0038520345 -0.23439813 -0.12544107 0.04100874 0.11163921 0.052610338 0.32697982 0.12735306 -0.13908093 -0.101582274 -0.09833403 0.0061289566 0.156952 0.05185739 0.14823484 0.03966067 0.051841315 -0.19262882 -0.19579306 -0.062698275 -0.015690323 -0.120832555 0.015488453 0.010359275 -0.028114391 0.028282663 -0.15040468 0.1349327 -0.24286301 -0.021530733 0.34840402 0.3898989 0.045833714 -0.0035907433 0.14417256 -0.019808143 -0.120333396 -0.11674568 -0.2293794 -0.06876219 0.22483025 0.22148296 -0.14575446 0.16435407 0.21441375 -0.12912944 -0.120508984 0.038778625 -0.04276563 0.0662156 0.032757852 0.0453202 0.2747947 -0.05720142 -0.15661952 0.14699338 -0.3702583 -0.1426584 -0.22704014 0.17559323 -0.13850485 0.15446642 0.12713096 -0.26772562 0.027571851 0.27139232 0.19204643 -0.0034624173 -0.5505771 -0.078069314 0.061801437 0.12234606 0.08841306 0.0553378 0.04705607 0.0016326905 0.01814905 0.090635516 -0.0031098407 -0.06439953 0.054395188 -0.18162821 -0.056744333 0.48892024 0.07272577 0.12103989 0.23475385
1146 -0.004780352 0.03456957 -0.01336973 -0.10869881 0.15449543 0.028537512 0.025357062 0.012753393 -0.06260298 -0.052668404 -0.09835753 -0.01250308 0.17796247 0.011842665 -0.050378587 -0.07907215 -0.048403814 0.07068884 -0.13763319 0.027709013 -0.006406679 -0.101317585 -0.020745108 0.13561793 0.1965683 0.0572999 0.2448155 0.177606 -0.054879405 0.06953857 -0.13549781 0.025553767 -0.14319848 -0.21713917 0.043012757 -0.075040765 0.22946426 0.2192831 -0.1617436 -0.19559684 0.04454602 -0.3207872 -0.09318103 0.47493902 0.42983758 0.02401148 -0.24435106 0.25708798 -0.07955123 -0.20079006 -0.119038895 -0.011204869 -0.12741154 0.1829127 0.33212262 0.18512657 0.21682711 0.13523439 0.08542152 -0.24460998 0.1275075 0.06239115 -0.26267675 -0.16922612 0.1139451 0.288527 -0.18300186 0.078138985 0.06496648 -0.3967288 -0.05101249 0.12704583 0.14129534 -0.10472778 -0.11010034 0.23094445 -0.14869876 -0.075910896 0.07057747 0.10804303 -0.17663997 -0.15210421 -0.00923533 -0.08622707 0.3635833 0.031820405 0.045129042 0.08077404 0.08239189 0.10008914 0.18952945 0.13456571 -0.019669376 -0.003992974 -0.07059469 0.02665857 0.44520074 -0.123283006 -0.006811334 0.015990848
2126 -0.0818827 0.21284357 -0.00053027784 -0.4652612 0.044848006 -0.26793733 0.03778376 0.044505548 0.066035084 -0.27616444 -0.21364665 -0.2258621 0.116085336 -0.02959849 -0.007579907 -0.23456553 -0.25502113 -0.27143443 0.47947598 0.5743706 0.0973636 0.09414716 -0.059056036 -0.26363653 0.11017986 -0.0405131 -0.27088714 0.018417262 -0.12879564 -0.040176824 0.101791166 -0.044047177 0.19956975 -0.041511085 -0.020649677 -0.19290261 -0.18041989 -0.01936373 -0.37800157 -0.116122715 -0.0073692915 -0.4796097 -0.051802803 0.25977066 -0.015817441 -0.20330805 -0.22254379 0.117595196 0.019399755 -0.17863879 -0.10327231 -0.31087065 -0.10581187 0.15924187 0.14368057 0.19014129 -0.0008150041 -0.063288376 -0.10153812 0.10084997 0.11512261 -0.100518174 -0.07708592 -0.019013088 0.44337696 0.08645065 -0.055267684 0.13517216 -0.18936773 -0.50491077 -0.021261733 -0.13165204 0.059077308 0.03832734 -0.0170455 -0.24360499 -0.24686067 0.025094887 0.18725114 0.38521725 -0.0828755 -0.40890512 -0.25444993 0.22949184 0.09507613 0.09899015 0.07464522 -0.23338923 0.0028455257 0.028715502 0.2417159 -0.16740544 -0.3165946 -0.0073784995 0.12183792 0.17988326 0.22245394 -0.1158475 0.32128283 -0.03710425
53 0.04811449 -0.062521294 -0.060220316 0.15086941 0.16133074 0.14544526 0.15656225 0.064174496 0.03980303 0.008679029 -0.37513557 -0.09557455 0.12409224 0.013325098 -0.04158597 -0.08248205 0.09520639 0.115478136 0.12672043 0.142227 0.07559498 -0.00012435045 0.15344137 0.1582982 0.2141148 0.07043786 0.11885854 0.0041655316 -0.03899639 0.36983436 -0.16385183 -0.14949721 0.13419197 0.04754513 -0.04446585 0.0063274424 0.04546847 0.009108799 -0.13019837 -0.17186762 -0.10664447 -0.1838465 -0.11464969 0.43627405 0.15629679 -0.13534747 -0.0952764 0.32272604 -0.06353831 -0.12618054 -0.215445 -0.15952417 -0.07735883 0.009264198 0.23812951 0.0126059335 0.23149739 0.20168363 0.027337572 -0.08585613 0.15202102 -0.04939968 -0.1165072 0.0527529 0.08760398 0.11103321 -0.049902365 -0.097166665 -0.41672868 -0.28139126 -0.06389856 -0.11943654 0.13269712 -0.044216257 -0.14653902 0.09076492 -0.30455288 -0.07878002 0.19530147 0.07329584 -0.11020072 -0.17098266 -0.09885916 -0.07545324 0.24959627 0.045943704 0.039540697 0.13255931 -0.022147259 -0.06663065 0.113560654 -0.1447619 0.060689002 -0.047035936 0.0044316975 0.06711452 0.30693233 0.011510118 0.059578784 0.19508974
1151 0.15515144 0.20705426 0.14354827 -0.64194846 0.050451864 -0.16204059 0.23408267 0.3055518 0.048965354 -0.4186558 -0.044519752 -0.08774788 0.16539915 -0.0019286419 -0.010795502 -0.27020383 -0.2711794 -0.25079212 0.52253824 0.5686707 0.26327506 0.10300033 0.14043126 -0.32493412 0.19928974 -0.07135965 -0.30733627 0.062474478 -0.25497338 0.115090586 -0.08970475 -0.043651417 0.05687327 -0.05567955 -0.08339761 -0.20811744 -0.10794592 0.029218402 -0.25082222 -0.17769389 0.102065265 -0.20260365 -0.004822472 -0.019906532 0.13573246 -0.17937255 -0.22861423 0.013665945 -0.031015692 -0.16386484 -0.0026244516 -0.2617124 0.06626894 0.04040765 0.008201679 0.044990286 -0.07854749 0.010901009 0.07426144 0.15669023 0.059040155 -0.09296434 -0.0867822 -0.13865452 0.3693231 0.099997394 0.08693138 0.33497852 -0.22444466 -0.35660437 0.034466755 0.09769743 0.060753208 0.005957589 0.016304871 -0.42872944 -0.42368436 0.00520067 0.27598706 0.22928557 -0.015904319 -0.27939287 -0.2109611 0.24357817 -0.0010110016 -0.08911289 0.095721446 -0.18300354 -0.20073137 -0.0953199 0.5016164 -0.116990805 -0.4924224 0.030262278 0.23814318 0.093714125 0.14124146 -0.0849209 0.447013 -0.16151415
1686 -0.15586275 0.06579271 0.06481596 -0.23334682 -0.06980141 -0.026879746 0.14170785 -0.042944953 0.0712312 -0.060126495 -0.1275324 -0.101429164 -0.08962586 -0.007872403 -0.04757533 0.035420395 0.04089568 -0.20777991 0.18848273 0.20514396 -0.028967278 0.017971369 0.07479138 -0.15186697 -0.0038304066 -0.105172314 0.03892653 -0.047474165 -0.021383276 0.022711404 0.09236081 -0.12103417 0.13764812 -0.025004538 0.12961188 -0.1596697 -0.07484056 0.05050769 -0.23160562 -0.045882374 -0.019923659 -0.40404293 -0.105259866 0.47447056 0.118397884 -0.07732336 -0.17437458 0.19499414 -0.06389015 -0.28972527 -0.14844213 -0.29176003 0.06430271 0.19526814 0.33179146 0.1843412 0.09147512 0.10485593 -0.15241268 0.0029136436 0.15808421 -0.046547137 -0.16327398 -0.024077574 0.19896424 0.18965383 0.036058486 -0.058602072 -0.1784898 -0.32564747 0.0538972 -0.14328688 0.11791848 -0.15363058 -0.021360597 -0.092738524 -0.15483545 -0.04753098 0.14846727 0.31198615 -0.02844802 -0.33886123 -0.32126653 0.111286014 0.123327576 0.059206434 0.09811266 -0.1529085 -0.08343467 -0.088272855 0.21426393 -0.010201165 -0.2531624 0.06633797 0.062471434 0.12600933 0.4727269 -0.13943523 0.37693185 -0.16497312
1734 0.35166353 -0.005515074 0.032177616 -0.085071735 0.08662809 0.023248676 0.12242599 -0.051170938 -0.0776372 -0.05687867 -0.12653686 -0.13932173 0.0587435 0.06029586 0.001929195 -0.0039112982 -0.00045189192 0.17158641 -0.0424342 0.1701656 -0.041679524 -0.14502795 -0.0447707 0.029012386 0.043126218 0.12720557 0.03942803 0.11659339 -0.09134008 -0.17944992 -0.1473067 -0.083350375 -0.1624049 -0.257881 0.17941701 0.10437731 -0.034606136 0.2100536 -0.0365532 0.061803676 0.10254157 -0.19538425 -0.008745867 0.30021006 0.307041 0.13137923 -0.15823099 -0.072625704 0.07577269 -0.03349503 0.030173188 -0.010700817 -0.09270922 0.062106974 0.2896755 0.019793736 0.26276624 -0.08795819 -0.02847712 -0.13522682 0.106689006 0.018742785 -0.1655828 0.08280799 0.034071356 0.23889345 -0.16765812 -0.110982396 0.39782912 -0.23271003 -0.24518332 -0.12656423 0.034035478 0.0074018384 -0.023012161 0.08851178 -0.11940866 -0.10886304 0.045497272 0.23263843 -0.026230302 -0.30889708 0.010990657 0.011477522 0.26827738 -0.078173846 -0.05818051 -0.044292077 -0.03837968 0.11797031 0.13953742 0.06282165 -0.053210136 0.0007002041 -0.014186916 0.07798446 0.7631685 0.08751469 0.30743167 -0.111636944
1155 0.09074661 0.090667404 0.16839965 -0.32386878 -0.03545813 -0.20984496 0.2532777 0.056609757 -0.06563319 -0.14561033 -0.28329414 0.014806427 0.065846585 -0.17836978 -0.12739101 -0.19494087 -0.1321017 -0.014282477 0.26208106 0.47816545 -0.021099579 -0.021764124 -0.028045986 -0.14578748 0.11894811 0.16362716 -0.04422333 0.047498886 -0.1922108 -0.070718646 0.10784445 -0.0435058 0.0070684077 -0.10073715 -0.13008608 -0.00034530903 0.048367187 0.029471211 -0.32319227 -0.29972556 0.009010628 -0.52891594 -0.19419739 0.2665587 0.27690595 -0.16830039 -0.28474158 0.1849201 0.053545296 -0.20724855 -0.08711957 -0.27871096 -0.08218618 0.252239 0.09485645 0.16021366 0.12673646 0.1280663 -0.025722573 0.0026479366 0.2057197 0.09284807 -0.21933696 -0.100343965 0.13551703 0.15200295 0.013931116 0.09922333 -0.18862702 -0.47085276 0.06593805 -0.055574186 -0.003689331 0.049384296 0.070313394 -0.20963754 -0.25619248 -0.06531956 0.16473407 0.2057495 -0.09945984 -0.27346063 -0.36829826 0.15408759 0.09425988 0.058383692 0.122559786 -0.11948467 0.024346197 0.10340318 0.15111597 -0.10233553 -0.09508923 0.058875922 0.117398836 0.13826917 0.328599 -0.073610365 0.3961505 0.00817532
616 -0.07597771 0.31276378 -0.13298145 -0.52277136 0.011063948 -0.20635974 0.090871654 0.080081485 0.12848662 -0.3023639 -0.115960576 -0.10794518 -0.09134649 -0.046864778 0.15487376 -0.16374637 -0.28186002 -0.21306743 0.43137875 0.45407912 0.08833298 0.08384846 0.026614834 -0.18715282 0.1602501 0.06938845 -0.16117534 -0.010720071 -0.1851196 -0.00045471743 0.14820112 0.010306416 0.2290629 0.04783328 0.07252604 -0.123464175 -0.028955018 0.08688176 -0.2914235 -0.1632267 -0.06765914 -0.5324268 -0.13521557 0.33002186 -0.028234417 -0.20267788 -0.24464883 0.1913325 0.10111487 -0.11098157 -0.26083365 -0.382904 -0.10692844 0.17797539 0.0640017 0.1923948 -0.1561868 -0.07403919 -0.012170613 0.20796813 0.19430776 -0.03773476 -0.18515545 -0.084980235 0.3906712 0.14127445 -0.03971498 0.20857358 -0.32788837 -0.47028607 0.106059134 -0.19502361 -0.19838312 0.073451884 -0.12992248 -0.2767315 -0.20354572 -0.098421566 0.21201934 0.5005178 -0.058937296 -0.30198252 -0.21695402 0.28102207 0.059266347 0.11856584 0.1325924 -0.19144222 -0.07278531 0.06357312 0.36183825 -0.23534976 -0.31580758 -0.01825107 0.2999814 0.2934266 0.5143453 -0.10570847 0.4994198 -0.13346738
1690 0.10790021 0.105488814 -0.10191563 -0.09063933 0.1734784 0.13038106 0.041777384 0.11407292 -0.17686224 0.042751066 -0.022853125 -0.07080387 0.1652256 -0.029421099 -0.09701646 -0.10105933 0.052991033 0.14430322 0.078380264 0.038517658 0.1849362 0.0714672 -0.017274825 0.08841877 0.009907334 0.060415305 0.18063088 0.06782023 0.012363139 -0.079532064 -0.05574694 -0.014161147 -0.065898426 -0.047884565 -0.0069504655 -0.12494643 0.028801596 0.21547876 -0.0010991929 0.084950425 0.044823695 -0.14937972 -0.0076857996 0.45390233 0.32955346 0.07922785 -0.052839693 0.25705656 -0.09310524 -0.4278029 -0.028852576 -0.20460321 -0.16723552 0.042170525 0.2565762 -0.014521614 0.20413747 0.105512336 0.12712027 -0.24432668 -0.013895302 -0.045268085 -0.12593673 0.08758912 0.19343989 0.20796387 0.04858453 -0.029539268 0.10302217 -0.3338855 -0.23418519 0.12020749 0.1752921 -0.07837583 -0.14485729 0.17722337 -0.21048056 -0.046544462 0.11644602 0.057539478 -0.031610698 -0.3169654 -0.04346737 -0.00554399 0.28705743 0.21013723 0.04658073 -0.14936587 -0.1316316 -0.0947668 0.3434061 -0.037176695 -0.22607821 -0.053959157 -0.07331792 -0.05093513 0.19515571 -0.020004494 0.19707355 0.20451373
1691 0.04590254 0.09459323 0.040172204 -0.307779 0.07715226 -0.107514895 0.19036418 -0.007128838 -0.04485382 -0.12168487 -0.18622561 -0.0007829621 0.08263174 -0.13740522 -0.016288687 -0.1748725 -0.2310762 -0.028372807 0.23404253 0.37875497 0.041630372 0.065933175 0.07225928 -0.15424027 0.07606116 0.10644775 -0.07722348 0.0958305 -0.11858006 0.110574976 0.001116336 -0.027060859 0.09320758 -0.08222939 -0.114814594 -0.10858603 0.016573627 0.035654925 -0.19620515 -0.16556124 0.06247275 -0.36603987 -0.05501166 0.29352954 0.23473416 -0.025775697 -0.22408636 0.20679052 -0.08812787 -0.24979083 -0.07299381 -0.3123502 -0.030818924 0.17636709 0.15163283 0.06629643 0.12312409 0.010862198 -0.06140153 -0.110762455 0.0077549615 -0.05714959 -0.26862288 -0.004276766 0.24089387 0.19038571 0.059843328 0.15793262 -0.23283108 -0.5346411 -0.098890685 0.052931026 0.14580683 0.021125691 0.065692596 -0.15580097 -0.34958285 -0.017352032 0.19138929 0.27537498 -0.16830757 -0.25188902 -0.3699271 0.060400978 0.00902851 0.09309487 0.05136487 -0.18573184 -0.10952664 0.05800557 0.20579448 -0.04810046 -0.15816735 0.1285152 0.038361352 0.122557625 0.2960264 -0.026822042 0.31696087 0.04451992
1693 -0.048200175 0.04252822 0.10903379 -0.13360085 0.032574445 -0.08324397 -0.069581695 -0.07497856 -0.109731905 -0.080719694 0.09966097 -0.19068961 0.012829047 0.028428221 -0.1369837 -0.005412989 -0.13673402 -0.064226486 -0.038618088 0.016554413 0.052062787 -0.04660399 -0.1221813 -0.105235964 -0.11520313 0.049291953 0.0051867324 0.14190857 0.03121067 -0.15571417 -0.08434892 -0.026093997 -0.16002081 -0.1263106 0.21124841 -0.121176235 -0.10521881 0.25504988 -0.06261317 -0.11116386 0.12726289 -0.4657199 0.019097034 0.40267214 0.47534737 -0.011888704 -0.17374282 0.064294584 -0.0005577944 -0.36709237 -0.023991061 -0.05652353 -0.08696527 0.19857332 0.43008336 0.117233135 0.2810142 -0.073624626 -0.09379414 -0.14744689 0.039488964 0.07679608 -0.22700652 -0.07411548 0.3215 0.2951258 0.06992783 0.03190972 0.15963362 -0.21083221 -0.029687928 0.034741104 0.03860274 -0.12058738 -0.11725192 0.08044733 -0.09430785 -0.06555401 0.12331303 0.24032487 0.032782346 -0.29438356 0.07205608 0.004861005 0.11675368 -0.06689499 0.050194807 -0.09642315 -0.08935745 0.009953294 0.10377185 -0.058542404 -0.28626534 0.029041775 0.087023966 -0.10131525 0.38516435 -0.049035534 0.12916432 -0.07842087
620 0.010591566 -0.06242004 0.16876481 -0.23649703 0.14868775 -0.23571217 0.28969732 0.17319104 0.17154498 -0.37698114 -0.3101852 -0.26906335 0.06568171 0.071068026 -0.2036047 -0.1848448 0.053426795 -0.05453818 0.33050957 0.48780686 0.15523043 -0.11621343 -0.1114636 -0.10563572 0.28421104 -0.07206226 -0.13260101 -0.01748029 -0.07754069 0.13290416 0.017808758 -0.1282182 0.04893377 -0.06942164 0.047472287 -0.090449505 -0.10075695 0.22791083 -0.24043632 -0.04809739 -0.16151197 -0.24216266 -0.04999258 0.23455858 0.31270397 -0.27054 -0.34054747 -0.080607906 0.07448675 -0.13588719 0.01637007 -0.08516707 -0.050688393 0.09873811 0.15107061 0.06737485 0.23084848 0.12186821 -0.022390816 0.14511178 0.11114191 -0.21366538 0.061404638 -0.09693674 0.33756715 0.09655995 -0.067227244 0.16069238 -0.037538357 -0.15738024 0.018700903 -0.07231655 -0.00752401 -0.21881984 -0.06098879 -0.30851218 -0.05949694 -0.27934125 0.20758253 0.20399974 -0.034103326 -0.22703694 -0.21591443 0.22875963 -0.016963694 -0.05781538 -0.07317218 -0.11292063 -0.12539749 -0.004766627 0.3020674 -0.18350205 -0.020719105 -0.035319053 0.29224327 0.16849427 -0.048738994 0.0051286137 0.20335042 -0.1930169
1483 -0.3282878 0.0051530236 0.21886824 -0.4284109 -0.02518543 -0.11060048 0.17247133 0.099271275 0.037833244 -0.20578837 -0.12195871 -0.08837811 0.033347204 -0.108276926 -0.11936687 -0.092862 -0.16082557 -0.042138033 0.13105614 0.2515301 0.12742005 -0.08470664 -0.07348244 -0.09280964 0.12461661 -0.11711138 -0.033933494 0.084026515 -0.024891073 0.16818109 -0.046175405 0.0061903633 -0.0839205 -0.06516909 0.011601667 -0.28282595 0.0800105 0.07919321 -0.24586906 -0.13260561 -0.06080471 -0.28725654 -0.09711561 0.31576562 0.30822623 -0.27229893 -0.28417584 0.14415865 -0.13148682 -0.3420758 -0.043865 -0.1293027 0.19364914 0.17824192 0.21646994 0.2814456 0.2577991 0.054467965 -0.108720645 -0.11824761 -0.08584163 -0.060343083 -0.14924543 -0.007030348 0.3756414 0.16001152 0.15051211 0.20018336 -0.32168916 -0.38168082 0.066355966 -0.049021833 0.027593588 -0.046699166 -0.15009098 -0.084704705 -0.23422159 -0.06690485 0.38279027 0.12217064 -0.15368685 -0.04285944 -0.1921642 0.050506026 0.10338285 -0.11093393 -0.062996194 -0.08545236 -0.007256054 -0.052412387 0.25825855 -0.16522796 -0.23460801 0.09619866 0.08823375 0.0977992 0.12490217 -0.10872634 0.33453137 -0.19640441
622 -0.010184262 0.13480005 0.06399416 -0.015859732 -0.11829911 -0.11039214 0.10162533 -0.033661414 0.029517204 -0.23058122 -0.16033693 -0.16925023 0.18195191 -0.06343928 0.094633885 -0.002208849 -0.10486269 -0.13993305 0.0957955 0.2100989 0.10268689 -0.09228569 0.03120476 -0.12409204 0.26964128 0.05213104 -0.029594578 -0.049366534 -0.024410117 0.2033052 0.07046974 -0.01981438 0.15977381 -0.19335717 0.111661755 -0.08816258 0.15883473 0.2165801 -0.05865825 -0.15708601 -0.08729894 -0.5181663 -0.09547206 0.46600863 0.28674266 -0.13679524 -0.23816417 0.15662335 -0.053224154 -0.19534522 -0.29522163 -0.29499945 -0.16170982 0.110049084 0.30165455 0.17614461 0.13707186 0.09994828 0.004101644 0.0014268465 0.12333446 0.07416387 -0.2066024 -0.12541442 0.23849721 0.0029061788 -0.056935407 0.10648275 -0.16361785 -0.27225748 0.1407909 -0.08424937 0.11741971 -0.015473297 -0.14730716 -0.025913326 -0.16132788 -0.06771345 0.10391466 0.27049446 -0.012871496 -0.12712444 -0.07744454 0.03153772 0.24630377 0.09007559 0.14401278 -0.14236248 0.07928234 0.10345687 0.076776735 -0.15465803 -0.026853908 0.019184398 0.04262768 -0.04895835 0.19387713 -0.15741777 0.315948 0.091602415
1566 -0.09415896 0.14120154 0.0929026 -0.18665555 -0.0454182 0.054125722 0.20850392 0.055107083 0.11782335 -0.25626987 0.13721906 -0.13824604 -0.07864996 0.11781657 0.083806425 0.08855279 -0.024444755 -0.13354504 0.43347546 0.26988643 0.051121254 0.07007219 0.02939404 -0.21200098 0.27820036 0.054912202 -0.04584756 0.01377874 -0.028983975 0.13411094 -0.05087428 0.044271365 0.114446245 -0.15783325 0.2155559 -0.24619594 0.014350699 0.10891415 -0.24664405 -0.006739219 0.15346481 -0.46800658 0.05617866 0.36019048 0.2765117 -0.15001579 -0.29908806 0.13360375 0.012963204 -0.050397802 -0.018866371 -0.17698078 -0.14059903 0.08604876 0.24864523 0.10733529 0.026932104 0.026509104 0.092238374 -0.03800999 0.08796714 -0.14285302 -0.025641408 -0.1420815 0.16961405 0.16644263 -0.12190696 0.057454117 0.05145924 -0.30043638 0.035000317 -0.1628166 -0.093506835 0.05818267 -0.13140988 -0.09434004 -0.14972842 -0.12867925 0.1713452 0.26923198 0.044856116 -0.048888948 -0.0120319845 0.12630492 -0.03631423 -0.026494337 0.04042873 -0.118602715 0.008432063 0.12603442 0.28054705 0.111934856 -0.04952437 -0.12772833 0.19057672 0.084601566 0.31775352 -0.13161649 0.17070659 -0.102392904
625 -0.113358244 0.17284265 -0.16577859 -0.36044595 -0.062016595 -0.10142243 0.12963894 -0.14743139 -0.07487612 -0.14432213 -0.04496198 0.081678 -0.2014355 0.042335596 0.10255147 -0.03297269 -0.26721743 -0.21099688 0.30374753 0.24264356 0.10201045 0.17532267 0.024530623 -0.2196701 -0.16370344 0.043235052 -0.27548978 -0.011013754 -0.15374242 -0.20784836 0.077499546 -0.09168524 0.0071654464 0.11397541 0.24567164 -0.06807799 -0.33204883 0.021913404 -0.29731664 -0.15168653 0.09051785 -0.41848522 -0.16098845 0.34191912 -0.1370196 -0.032576747 -0.14124803 0.08199845 0.113040835 -0.1496225 -0.17725524 -0.4369914 -0.20577063 0.13064967 0.22199813 0.046000402 -0.02653503 -0.13252856 -0.14778239 -0.0019095354 0.30670494 0.036857754 -0.19739929 0.27696708 0.25552225 0.28100666 0.10851117 0.028724167 -0.14815918 -0.40918338 -0.15831433 -0.10750233 0.063710496 -0.06990226 -0.011853233 -0.3070195 -0.36540475 -0.11097964 0.43338117 0.40129453 0.029567108 -0.30955708 -0.010747487 0.15561272 0.13634002 0.07923032 0.083072074 -0.2255958 -0.14862521 0.092590995 0.3436629 -0.27425572 -0.33260992 0.07044513 0.22417961 0.17775422 0.44637653 -0.06685951 0.26131076 -0.002913083
441 -0.15705992 0.21021222 -0.040266033 -0.54004794 0.04972191 -0.16660173 0.14762866 0.2109338 -0.077280864 -0.17465027 0.10158851 -0.0536846 -0.12552835 -0.24716514 0.063777834 -0.19615299 -0.30267936 -0.2000166 0.49259746 0.46588475 0.106555976 0.14033437 -0.011836913 -0.23893827 0.06793894 -0.07363151 -0.24428011 -0.03540617 -0.033905104 -0.032092 0.17365357 0.05692265 0.12250074 0.035644654 -0.06974594 -0.20079741 -0.06349766 0.12363286 -0.3970142 -0.2041945 0.15390758 -0.52571505 -0.110332094 0.25691152 0.19153266 -0.17089984 -0.2243203 0.25935242 -0.11284819 -0.3361466 -0.034691576 -0.38668504 -0.11249334 0.2755594 0.1224795 0.07342094 0.07569625 -0.07537347 0.011952098 -0.0013147788 0.08301356 -0.014453672 -0.1062181 -0.041073542 0.40810412 0.2200546 0.16208974 0.32068405 -0.31788278 -0.55419034 -0.033687595 0.1303332 0.046924137 -0.014916918 -0.086695306 -0.27160776 -0.32016796 -0.08153292 0.34131283 0.35707393 -0.096910566 -0.33596057 -0.3657639 0.32379815 0.1336257 0.055017643 0.0022277748 -0.32514632 -0.08866477 0.06930963 0.31449473 -0.20100765 -0.28755027 0.16845118 0.3190288 0.26766267 0.26676074 -0.19055341 0.43510225 0.046653416
627 -0.28807327 0.1020128 -0.007539225 -0.24562968 0.04322114 -0.15861757 0.34338704 0.061159566 0.104740486 -0.0877011 -0.07584888 0.08394359 -0.18158875 -0.126431 0.058234446 -0.17263415 -0.076356806 -0.079541735 0.15406525 0.36610863 0.074914284 -0.09529212 0.043717235 -0.1316221 0.23960403 -0.059707876 -0.04381585 0.09532024 -0.10602355 0.07377104 0.02762715 0.0677474 0.20258832 0.0035861027 -0.036817774 -0.115787186 -0.059435595 0.056007188 -0.39432654 -0.35638192 0.021030886 -0.5350239 -0.090127625 0.4940238 0.21076 -0.16922098 -0.33562014 0.1372598 0.039525636 -0.12663528 -0.09943772 -0.17444433 -0.13574784 0.19353566 0.16336134 0.09746632 0.12555845 0.078900464 -0.112449616 0.06062361 0.10540769 -0.14135246 -0.21485597 -0.15249792 0.262694 0.21838666 -0.1528949 0.2036503 -0.24125625 -0.48543477 -0.022522718 -0.041919585 0.05960941 -0.08624627 -6.1202096e-05 -0.16750003 -0.22316171 -0.09626139 0.23829001 0.3933783 -0.28553033 -0.309396 -0.4506067 0.2259156 0.10891789 -0.061793007 0.11440675 -0.17929153 -0.041598536 0.112493835 0.23252234 -0.13774267 -0.036012564 -0.019451922 0.1473504 0.29695022 0.5723854 -0.20269907 0.34941947 0.07856311
1730 -0.14195521 0.1551797 -0.00091068266 -0.4169444 -0.03782308 -0.281815 0.1950295 0.08483565 0.16258693 -0.30996746 -0.10882971 0.030581843 -0.07081489 -0.07982869 0.058788884 -0.15150695 -0.23142001 -0.18186693 0.3393015 0.47667226 0.13537452 0.058144875 0.017767882 -0.21070924 0.18123987 -0.028344715 -0.11778377 -0.023720272 -0.15215768 -0.10506397 0.18610471 -0.098756276 0.13152237 -0.0007695717 0.023207653 -0.12157052 -0.1554982 0.0046596997 -0.29876092 -0.19769001 -0.11054192 -0.52780503 -0.15251665 0.3334805 0.075265065 -0.26318344 -0.30947483 0.081777066 0.077309124 -0.2720957 -0.23895296 -0.29832748 -0.06818676 0.15409538 0.0704296 0.07602423 0.06320768 0.023390668 -0.06366084 0.17756514 0.21034998 0.019448297 -0.12781233 -0.047884483 0.47996557 0.19409744 0.13235131 0.24006608 -0.45416805 -0.5106705 0.01875368 -0.09110872 -0.10687838 -0.03236882 -0.0317407 -0.40951952 -0.30336225 -0.12105795 0.35624236 0.51543957 -0.1185173 -0.34889713 -0.36510712 0.19689293 0.06633294 0.09543585 0.06540011 -0.2536835 -0.16445976 0.020143153 0.31394854 -0.24514334 -0.22326483 0.070181936 0.3319883 0.2833041 0.43335822 -0.056687374 0.61524934 -0.09109237
1527 0.07817863 0.13160387 -0.03619873 -0.18567573 0.13018365 0.23340848 0.2141808 0.120581456 -0.122663364 0.1771095 -0.032814067 0.015342833 0.13066489 -0.24022736 -0.035408463 -0.16815926 0.08989216 0.13512963 0.20068707 0.2457195 0.28785262 -0.15045929 0.076291144 0.0036343676 -0.040511016 0.019274602 0.13640204 0.23860191 -0.06293208 0.18967298 -0.2886073 -0.069169216 0.077717684 0.048563164 -0.041342337 -0.085719466 0.1474386 0.14163038 0.12103476 -0.005446797 0.031178504 -0.27938282 0.10385429 0.61682916 0.21175143 0.017418453 -0.03373363 0.26857844 -0.15897729 -0.22510979 -0.30407095 -0.30791536 -0.0044412897 0.18089311 0.24888489 0.0061174813 0.2719081 0.05916972 0.001513511 -0.16064206 0.061654765 -0.06903418 -0.03648423 -0.17300333 -0.0596751 0.41204083 -0.15927465 -0.062169645 -0.11748255 -0.301255 -0.17422105 -0.12119011 0.052846808 -0.023092734 -0.062794775 0.08990762 -0.29577926 0.031148765 -0.0050343773 0.2495937 -0.04016427 -0.12579635 -0.25368738 0.020940552 0.04919272 0.08391117 0.064584754 -0.034695704 -0.05459064 0.037156645 0.20185052 -0.10141386 -0.02813452 0.027092123 -0.014608509 0.009104959 0.4523382 0.07646651 0.110459715 0.10433295
235 0.22910573 0.13331622 0.018862713 -0.07183502 0.084626794 0.07864784 0.025696054 0.09230568 -0.1593353 0.09647326 -0.15687571 -0.020684786 0.23416911 -0.008641588 -0.1543649 -0.13286617 0.11782585 0.05807468 0.4792388 0.34577763 0.077930845 -0.0909436 -0.03957973 -0.23148279 -0.08317686 0.13054891 0.05222512 0.17522746 -0.0061667524 0.068456285 -0.12475574 -0.18789849 -0.02271212 -0.17454764 0.040924016 -0.040781517 -0.012701411 -0.047208972 -0.037844077 -0.02534426 0.038755942 -0.41428375 0.15239047 0.2380233 0.24543148 -0.051423848 -0.06411606 0.19761829 0.11381696 -0.13336512 -0.20958601 -0.24511936 -0.01865731 0.13919601 0.3790707 0.08075683 0.28855926 0.13482662 -0.011410898 -0.09577266 0.11178959 -0.040469006 0.03972634 -0.11647765 0.049773455 0.3643568 -0.09657246 -0.108563185 0.16331674 -0.37651947 -0.09744503 -0.25871882 0.057393137 0.12429192 0.0037783016 0.25200826 -0.20553106 0.09847388 0.11656018 0.20487238 0.123130925 -0.27070194 -0.013562943 0.14459215 -0.023641717 0.015207899 0.11053932 -0.059133783 0.10817172 0.11958039 0.005038725 0.03886958 -0.03750332 -0.09465286 -0.053698484 -0.23410304 0.3962547 0.11312557 0.10480259 0.09089794
475 -0.14926645 0.20981747 0.04646143 -0.57672143 -0.11687964 -0.1507476 0.23108554 0.017046073 0.0048891823 -0.20066161 -0.13458125 -0.09813062 -0.12394758 -0.090817824 0.11422383 -0.008452251 -0.4247245 -0.27382553 0.41372067 0.4312724 -0.09350576 0.08521306 0.037929416 -0.21365109 -0.0062976726 0.07833424 -0.23815787 0.10296007 -0.14376241 -0.13160841 0.1519764 0.033038765 0.09369964 0.007932889 0.029174227 -0.16931903 -0.015975142 0.03872452 -0.39065272 -0.17165424 -0.07472571 -0.56704015 -0.20818765 0.2506527 -0.03364684 -0.16527578 -0.30317545 0.19543529 -0.027029565 -0.40255937 -0.13193223 -0.45481986 -0.15520132 0.26501969 0.22011825 0.32174966 -0.0029214155 -0.050259348 -0.062430955 0.067267984 0.12790287 0.0116539635 -0.29184002 0.05111493 0.30560046 0.06856491 0.18316175 0.1841078 -0.2396052 -0.53342986 0.029553354 -0.0704279 -0.008811128 0.142917 -0.07697561 -0.3107889 -0.2749364 -0.07001628 0.44552523 0.4146608 -0.048660565 -0.32643446 -0.29138657 0.2479773 0.05985705 0.028043572 0.027505446 -0.3482697 -0.1684017 0.015485884 0.34636316 -0.27086005 -0.41682068 0.19713093 0.21556649 0.2594794 0.322931 -0.09508344 0.50581604 -0.19972579
1537 -0.100073464 0.12417662 -0.08665343 -0.3799445 0.09274374 -0.16285777 0.21557753 0.08323297 0.06854091 -0.22913988 -0.0641035 -0.10222868 -0.08861097 -0.093427464 -0.045969505 -0.16453727 -0.17268668 -0.14520705 0.4337918 0.5195163 0.09662607 0.07525442 -0.093162574 -0.15559626 0.08468425 -0.080605574 -0.05961891 0.058679838 -0.099325836 -0.012375712 0.10203261 -0.051610444 0.098892845 -0.040075146 -0.007850196 -0.22354971 -0.117670126 0.15492153 -0.19037434 -0.061230272 0.03537162 -0.52766585 -0.05786817 0.39925697 0.21295854 -0.08609521 -0.1893509 0.15576982 0.04837681 -0.31357756 -0.08704623 -0.23973288 -0.08228657 0.22068849 0.05865723 -0.04963311 0.028008668 -0.108512945 -0.024710951 0.013969715 0.11916513 -0.13463552 -0.088744916 -0.1203845 0.3937368 0.25385955 0.0073213074 0.15929563 -0.13993232 -0.51633584 -0.1462837 0.07372841 0.17555387 -0.25670514 0.04912771 -0.21283953 -0.26085615 -0.018967304 0.11416904 0.3319266 -0.24571852 -0.3325759 -0.45748687 0.25105262 0.14128034 0.15640396 0.05813163 -0.3769651 -0.16244012 -0.08812034 0.31882852 -0.10231682 -0.109836265 0.20418914 0.1507783 0.21399042 0.37513703 -0.118582055 0.27905127 0.03622001
1634 -0.14078435 0.28717932 -0.09745048 -0.40062654 -0.07463287 -0.105799265 0.16057046 0.057160657 0.16437528 -0.27538782 -0.12838154 -0.07328529 -0.090450816 -0.00791728 0.024185546 -0.018552387 -0.10959714 -0.2774554 0.5418128 0.49193406 0.07573158 0.13501835 -0.07985912 -0.35138297 0.2037213 0.095215224 -0.2916658 -0.10206446 -0.12013154 -0.05646235 0.2184611 -0.10202653 0.16421804 0.03716244 0.124089986 -0.12898625 -0.22194402 0.06959026 -0.29149452 -0.023137156 -0.003485909 -0.4457386 -0.112580225 0.1956702 0.03346083 -0.04279868 -0.31538048 0.21227863 0.0773808 -0.2723011 -0.099357136 -0.55583763 -0.26973787 0.23716089 0.21734725 0.1314129 -0.014484151 -0.10810485 -0.03140476 0.14012864 0.24658513 -0.06411211 -0.12698075 0.08994087 0.46928427 -0.019321408 0.09763746 0.15792087 -0.2316708 -0.38227376 0.024121586 -0.027985431 0.029210534 -0.03682801 -0.12614857 -0.49733347 -0.25616482 -0.21556965 0.3040164 0.5033829 0.14438537 -0.36586198 -0.11426051 0.35924822 0.038686246 0.07285363 0.07527612 -0.36126736 -0.223893 0.06849876 0.20957048 -0.26432103 -0.18416029 0.074731976 0.3778044 0.245598 0.29660916 -0.083773196 0.4525019 -0.10451681
1946 -0.13846834 0.16888687 -0.018778764 -0.5292692 0.036381498 -0.24692298 0.12947486 0.017926393 0.056500383 -0.33723912 -0.12657735 -0.15881418 -0.019141667 -0.06005328 0.1398724 -0.15155873 -0.4785545 -0.15955403 0.31431437 0.38472182 0.09890804 0.172171 -0.018373825 -0.13396296 0.15114027 -0.12032285 -0.2450726 -0.10782615 -0.07449111 -0.090880565 0.21213493 -0.069198385 0.036091655 0.029667316 0.010621278 -0.10667112 -0.07716274 0.12852976 -0.29579848 -0.27494153 0.03209069 -0.50905114 -0.21045214 0.20766765 0.13337708 -0.107279316 -0.26398525 0.21993835 0.11299277 -0.36446255 -0.065589234 -0.25694633 -0.03853971 0.09156576 0.017622834 0.11636457 0.00359191 0.094562285 0.07896779 0.083808996 0.1976752 -0.013649247 -0.18570396 -0.045980606 0.34212127 0.16945176 0.08324439 0.15122335 -0.17912409 -0.32424438 -0.027267322 0.08581947 -0.16297501 -0.07436523 0.0131929135 -0.25100195 -0.23072794 -0.19273014 0.30874372 0.26678187 -0.072842725 -0.3601682 -0.18206622 0.1768314 0.19758914 0.08697334 0.08277688 -0.17048109 -0.16531572 0.030101411 0.34893438 -0.20325552 -0.32162464 0.13947703 0.22939985 0.30688384 0.4845404 -0.124588005 0.38984028 -0.08619025
1819 0.0070839413 0.041769747 -0.005330864 -0.15483898 0.10640604 0.006141859 0.125394 0.07331433 -0.015760167 -0.108697586 0.01389295 -0.04137366 0.094194725 -0.016678127 0.038746666 -0.0814009 0.049231783 0.071543686 0.09784386 0.22138262 0.013386224 -0.0686295 0.05443404 0.056146614 0.11330242 -0.041639544 -0.09078132 0.027488085 -0.094154194 0.08348009 -0.049931873 0.046761807 0.03661979 0.006458569 0.069662884 -0.11752618 0.048169203 0.16065194 -0.1905767 0.051419787 0.017410481 -0.18975395 0.036773413 0.3341552 0.22451934 0.021384351 -0.11424505 0.08654897 -0.086166546 -0.24860632 -0.053693756 -0.13127866 -0.10398056 -0.0008141299 0.2911143 0.16898319 0.2925586 -0.027977945 0.19459596 -0.15087697 0.06922957 -0.03459508 -0.16036078 -0.012094963 0.12192855 0.11460309 -0.18768184 0.060223363 0.08595228 -0.27251884 -0.26202136 0.02577118 0.10261568 -0.025303759 -0.08955751 -0.1068025 -0.19264852 -0.039613947 0.1508523 0.1487977 -0.027569525 -0.10454426 -0.084556796 0.06982477 0.17777033 -0.07356654 -0.06634984 -0.122429386 -0.19566157 -0.09004628 0.22362761 -0.09305509 -0.123015955 0.04656594 0.08163771 0.07786526 0.3400228 0.019449864 0.16710253 -0.0005016492
87 0.24889249 0.15606225 0.054023482 0.06891023 0.061336704 0.18467146 0.2239186 0.047300626 -0.058792677 0.1522539 -0.16336463 -0.1441729 0.14923038 0.076897375 -0.108060524 -0.039296515 0.09004521 0.07125478 0.15065481 0.20301247 0.17794502 -0.24108052 0.08554952 0.029129481 0.08441328 0.23625869 0.11205994 0.23645324 0.070938446 0.15029529 -0.40725425 0.13164604 -0.03575749 -0.13151087 -0.009113585 -0.052880324 0.24949186 0.1014725 -0.0009655733 -0.05110724 -0.058825333 -0.3489565 0.041457802 0.49221975 0.23781712 -0.044107847 -0.08627225 0.2673251 -0.17366676 -0.34276772 -0.2987435 -0.29139525 -0.14891906 0.17340279 0.37250578 0.17236905 0.24409886 0.2118004 0.13659574 -0.1604515 0.014900639 0.04252917 -0.10945128 -0.09225962 -0.021127231 0.2132636 -0.09039871 -0.14096092 0.023356875 -0.341562 -0.03392164 -0.20165795 0.06203781 0.18148147 -0.197233 0.10985443 -0.0998651 -0.059921477 0.16967043 0.21216571 0.015101138 -0.07043433 0.041072786 -0.061432365 0.21465872 -0.0004110681 0.062868945 0.13736154 0.1880114 0.0073160226 0.056972235 -0.19956061 0.021228693 0.032553803 0.041686535 -0.024650667 0.15427437 0.09217402 0.014840973 0.0518385
2071 0.0080829095 0.1573728 0.051567838 -0.49479836 -0.050941586 -0.24047709 0.1364678 -0.036474824 -0.007144319 -0.3037712 -0.059444148 -0.0692251 0.0018904689 -0.0493921 0.10929397 -0.06036107 -0.3445856 -0.14807716 0.26427317 0.3924088 -0.006234459 0.048569866 -0.10254858 -0.14018022 0.18702641 -0.014042796 -0.2281154 -0.07174234 -0.12225482 -0.035423875 0.18712819 -0.10420886 0.06501343 -0.08260946 0.056061298 -0.10468959 0.007989925 0.13909344 -0.1748308 -0.09594429 0.03992015 -0.43657273 -0.102472365 0.17009184 0.15025288 -0.038627222 -0.22413057 0.051493295 0.039663024 -0.24155174 -0.02021824 -0.21125114 -0.09253157 0.10464626 0.07272012 0.21747318 0.025152907 -0.008436422 0.12787475 0.071171425 0.17638335 0.006250713 -0.1783385 -0.07060778 0.32257688 0.10645688 0.053923026 0.18171883 -0.042810764 -0.49613437 -0.08102161 0.0883942 -0.0631589 -0.063296705 0.035883877 -0.28035027 -0.24983898 -0.043598883 0.2127824 0.35774252 -0.077128775 -0.31655052 -0.22803424 0.1705301 0.14514966 0.083032794 0.015622422 -0.26637962 -0.14358573 0.034667555 0.35790816 -0.1942928 -0.31288078 0.118836895 0.23888507 0.25673565 0.36596102 -0.10229597 0.35880712 -0.12317715
744 -0.055128936 0.18403742 -0.014546724 -0.58146256 0.0067909914 -0.36274013 0.13056628 0.09099302 0.10572873 -0.40742853 -0.14551857 -0.18528035 0.09631998 -0.071406804 0.14734575 -0.24286743 -0.3875411 -0.24233398 0.42716923 0.5159134 0.027092407 0.19650643 0.036899023 -0.25781044 0.15255411 -0.11877286 -0.23578955 -0.14346601 -0.15608566 0.07078592 0.29068565 0.10993182 0.21165459 0.101107106 -0.090371646 -0.19354284 0.025319282 0.17485629 -0.2548331 -0.15981528 -0.10184377 -0.52943873 -0.12951784 0.19756925 0.12879288 -0.14462724 -0.3382456 0.16706154 0.005885058 -0.42097732 -0.10280938 -0.40252653 -0.038110126 0.12549856 0.0904479 0.2933654 0.0031136354 0.08312416 0.11267409 0.1664294 0.12319629 -0.07917925 -0.118432134 -0.22534665 0.3772969 0.019254006 0.087958455 0.22727731 -0.21655701 -0.38091952 0.011240585 0.10684535 -0.062397517 -0.012494364 -0.03635628 -0.29692605 -0.22067063 -0.1106085 0.3038245 0.29121777 -0.048571337 -0.29464245 -0.16444658 0.18117218 0.12422032 0.07510728 -0.01919693 -0.22283779 -0.17848742 -0.010667869 0.3029323 -0.23838787 -0.3257522 0.20383108 0.2927427 0.21738401 0.4453542 -0.105345614 0.47144553 -0.18805547
1600 -0.18702517 0.08544891 0.02742903 -0.12523398 -0.1487003 -0.08477992 0.19496036 -0.03796886 -0.0024359345 0.027109947 -0.041780084 0.066661224 -0.12500504 -0.14597847 0.07929458 -0.019737476 -0.21668483 -0.037652176 0.21583872 0.22298855 0.0050688195 0.023118516 0.062356066 -0.12180575 -0.01875566 0.0002470125 -0.09187372 0.030072022 -0.04437332 -0.02340591 0.093144104 -0.036472294 0.058748476 -0.03307725 0.032953255 -0.09365003 -0.071101084 0.04596928 -0.19841827 -0.17704742 0.035805225 -0.4960411 -0.089370266 0.38995346 0.14988472 -0.016127283 -0.21848191 0.15032278 -0.030862348 -0.3538094 -0.12607867 -0.3855366 -0.14254454 0.2311119 0.2437071 0.107129656 0.18618564 0.020748477 -0.060878597 0.032697704 0.18404235 -0.01759092 -0.21965526 0.037886884 0.2926324 0.25375125 0.12992282 0.08364023 -0.26551908 -0.5501934 -0.114328876 -0.13771725 -0.036314625 0.038352698 -0.047419652 -0.28142014 -0.31050184 -0.06396486 0.42949715 0.44447556 -0.011052965 -0.32024276 -0.25929365 0.1964273 0.09943955 0.06952891 0.0010444012 -0.26242575 -0.08518342 0.071855195 0.12943354 -0.23146544 -0.16087359 0.13057923 0.1896122 0.12604588 0.4822968 -0.03829257 0.45400757 -0.064403735
1821 -0.033794943 0.18038635 -0.07695183 -0.30764937 0.1256168 -0.14236414 0.10605962 0.23696081 0.07350061 -0.31355572 -0.11645632 -0.27845034 0.01631606 -0.13770851 -0.0114005795 -0.1761799 -0.07904072 -0.055843677 0.34772074 0.35795078 0.11894289 0.12438681 -0.02944051 -0.15514268 0.22301203 -0.09079659 -0.11871097 -0.00854704 0.034865797 0.018614912 0.05714468 0.08120796 0.17587829 -0.051213816 -0.005893841 -0.14544038 -0.04377534 0.18278296 -0.25063857 -0.09340623 0.017096495 -0.39792717 -0.14642867 0.3365948 0.23038577 -0.014667622 -0.3315318 0.23434198 0.053681713 -0.3074967 0.08343432 -0.22576079 -0.085832275 0.13714862 0.05155904 0.11936371 0.117916904 -0.017588265 0.14255922 0.0077634836 0.09962234 -0.15381713 -0.12036133 -0.09436147 0.36366674 0.0869469 -0.12383974 0.09871739 -0.12667398 -0.28144288 -0.1261363 0.04316938 0.030734692 -0.09053545 -0.0057127886 -0.30735788 -0.16419612 -0.24730478 0.18258579 0.27405274 -0.060596533 -0.15709901 -0.28147304 0.2665556 0.08729235 0.023067756 0.01987852 -0.23002887 -0.21355562 -0.04488089 0.24851927 -0.13599512 -0.07989846 0.13566396 0.2931134 0.22935352 0.25897005 0.024917621 0.24909939 -0.10869563
1918 0.03907736 0.08542701 0.07482605 -0.28320912 -0.013233645 -0.07909531 0.08792692 0.08757928 -0.11019313 -0.1976899 -0.06767228 -0.13822699 0.0029786068 -0.13987899 0.07647137 -0.15079334 -0.34419876 -0.01314734 0.26236185 0.2625774 0.030053534 0.052926056 -0.0535661 0.004339982 -0.05714132 0.053443097 -0.054233573 0.1453222 -0.115230314 -0.061784964 0.021069052 -0.07874015 -0.05372664 -0.04767774 0.05659284 -0.23187332 0.07356378 0.2661786 -0.2063732 -0.18517683 0.025487954 -0.513167 -0.1857361 0.3971188 0.24935825 -0.10007031 -0.19867149 0.16279384 0.13405104 -0.30640987 -0.08163529 -0.2511464 0.01577494 0.22710544 0.17745736 0.100033894 -0.032982837 -0.022115348 0.014277944 -0.09502847 0.16901718 -0.040315695 -0.18510105 -0.027820366 0.25938356 0.2532258 -0.081993334 0.10297945 -0.014977937 -0.27542832 -0.017477315 -0.043590967 -0.0006748415 -0.06376996 0.05868516 -0.09528998 -0.20675693 -0.10158711 0.10776036 0.09162559 -0.16986296 -0.14575806 -0.23651582 0.09547359 0.122371726 0.086927444 0.07926559 -0.20087728 -0.03264891 -0.05799291 0.15864432 -0.065948226 -0.2609288 0.078032136 -0.005824783 0.11947455 0.5108656 -0.08738267 0.30840096 -0.11054879
647 -0.0964005 0.23393564 0.0012653174 -0.50409496 0.08962138 -0.23484428 0.042869683 0.09204401 0.039478082 -0.31955317 -0.15939416 -0.14058612 0.014418542 -0.028516617 -0.0651773 -0.22722268 -0.16189215 -0.102144204 0.5266373 0.4495195 0.18620221 0.07952786 -0.036158115 -0.18976367 0.18683325 -0.051730018 -0.23174274 -0.054922942 -0.1686647 -0.046350285 0.10620765 -0.12440532 0.16096365 -0.045519426 0.047569655 -0.2213614 -0.021322206 0.0025261643 -0.37517107 -0.20959203 0.06525051 -0.39569724 -0.19728911 0.34064972 0.10143265 -0.30421558 -0.26622832 0.21687634 0.04294776 -0.11642082 -0.21892282 -0.35429657 -0.038123608 0.14612852 0.11519546 0.1780409 0.044323113 0.022917103 -0.08181482 0.12320233 0.10917983 -0.0121060675 -0.11571559 -0.11194554 0.3591949 0.16647561 0.056026243 0.25647384 -0.3617831 -0.36196095 0.23189525 0.05511041 -0.06472009 0.004582805 -0.0839601 -0.26027405 -0.101079606 0.018562563 0.1455081 0.30515015 -0.052842718 -0.19685796 -0.2051719 0.16313814 -0.044639353 0.1060057 0.13143814 -0.008308843 0.006878296 0.0008027526 0.39527693 -0.15719283 -0.31700045 -0.08477994 0.15902512 0.07081162 0.18090849 -0.21930908 0.35214102 -0.11793951
583 -0.10728887 0.22236076 -0.04975037 -0.6090141 0.0722804 -0.06110858 0.111714885 0.16061069 -0.063690245 -0.13216887 -0.16036713 -0.018064275 -0.06058995 -0.2373129 0.008535612 -0.10551426 -0.30975103 0.0036644246 0.17954955 0.2737551 -0.014928533 0.062323235 0.03391591 0.03454002 0.17166615 0.05920015 -0.04781015 -0.05879663 -0.14707151 0.08926721 0.22893827 0.04692172 0.08663577 0.10314107 -0.120452665 -0.054735206 0.07739342 0.13822244 -0.20988274 -0.16772908 0.09733269 -0.46120444 -0.10461272 0.36508593 0.2890803 -0.030477323 -0.1276786 0.34074008 -0.020855023 -0.37621033 -0.12140557 -0.30806234 -0.09309084 0.16044915 -0.05680467 0.1612749 0.06903215 -0.13309215 0.022057207 -0.046652433 0.12334847 0.10302415 -0.19605504 -0.093634255 0.20556058 0.14297964 0.045212146 0.16580518 -0.34744862 -0.46033457 -0.06676001 0.09937558 0.051060494 -0.09330394 -0.10838208 -0.15094304 -0.30302146 -0.06370452 0.27472398 0.3055687 -0.16678423 -0.24376486 -0.23755282 0.18145978 0.2355775 0.12350117 0.055898007 -0.22411315 -0.07507386 0.0881364 0.1696857 -0.117842324 -0.06507583 0.19320442 0.15917166 0.18774489 0.58313507 -0.16135745 0.31867957 0.035595037
651 -0.08977961 0.106935866 0.16829467 -0.35054228 0.03877414 -0.111772865 0.19467331 0.061139658 -0.03496234 -0.18860477 -0.13621692 0.018362164 -0.037739947 -0.14218313 0.003716226 -0.17001374 -0.24227808 0.045970388 0.21437933 0.2928951 0.07921114 -0.0093082795 0.034116868 0.076451145 0.19721128 0.060660936 -0.007821362 -0.0060055717 -0.04104801 -0.16049533 0.09410331 -0.027667467 0.018399918 0.011055942 -9.801201e-05 -0.11183666 0.0400933 0.055753615 -0.35106394 -0.2929728 -0.0051785223 -0.3948995 -0.17767188 0.46844786 0.24034531 -0.10336194 -0.21511006 0.18146107 -0.046583857 -0.28618658 -0.107430086 -0.13688391 -0.21570368 0.15442953 0.23198323 0.1392589 0.20528883 0.046920937 0.052425478 -0.059216734 0.060546942 -0.035873648 -0.26298386 -0.014452961 0.05907154 0.1543545 -0.05130309 0.22648184 -0.25473404 -0.24237752 0.039065357 0.10535091 -0.04035898 -0.018888444 -0.101705715 0.05554686 -0.1817587 -0.035186984 0.1110906 -0.0074539823 -0.19222681 -0.18443912 -0.23442876 0.06233411 0.28143892 0.042452876 0.124936864 -0.06786726 -0.0064572752 0.02733238 0.16644017 -0.14003658 -0.07042057 0.020003308 0.00025030586 0.18447545 0.45329303 -0.20067006 0.18822864 0.12074236
606 -0.09918076 0.1657776 -0.004681476 -0.49517918 -0.045789655 -0.2627552 0.23926648 0.06407851 0.11607467 -0.28276572 -0.061166566 -0.04875953 0.055802323 -0.08583676 0.069651805 -0.19263825 -0.28051233 -0.15035866 0.4275203 0.48123455 0.09879378 0.09646353 -0.040952865 -0.2143702 0.15874396 -0.14389923 -0.13418935 -0.027355611 -0.057944883 -0.05310462 0.11245974 0.04506862 0.16662702 -0.014627133 0.082784444 -0.1852099 -0.16793093 -0.045401435 -0.3113134 -0.095664896 0.02057365 -0.5016112 -0.035646863 0.26889822 0.18214987 -0.12998256 -0.26228982 0.11171993 0.13464664 -0.2030483 -0.11053188 -0.22654925 0.013874695 0.0402956 0.006933588 0.12815513 0.038201876 -0.026710488 -0.031127317 0.04923913 0.17135817 -0.06422768 -0.09606517 -0.005999533 0.3382418 0.20948288 -0.04581294 0.11159729 -0.1982268 -0.4598589 -0.06388083 -0.24308522 -0.035442006 -0.02380644 0.017436294 -0.25975308 -0.39056006 -0.084583126 0.30425102 0.39012662 -0.0956855 -0.30350837 -0.2788838 0.26624513 0.08961853 0.027140653 0.09977533 -0.32057908 -0.09919127 0.004789373 0.2876103 -0.15601008 -0.23270158 0.14054641 0.23466235 0.28659377 0.3389066 0.0011367934 0.41466105 -0.074259326
1687 -0.088646024 0.18832247 0.033498406 -0.5133095 -0.041984413 -0.24677901 0.11791199 0.12111908 0.02388917 -0.2767784 -0.043932725 -0.071044296 -0.049199656 -0.16881095 0.06981737 -0.17007647 -0.19719326 -0.12723975 0.4006259 0.35803506 0.098094225 0.088981144 0.005750845 -0.24005711 0.090997174 -0.02496373 -0.23375598 -0.08722903 -0.06851109 0.07035237 0.17997488 -0.010542324 0.21132971 0.06575129 0.014067299 -0.18526036 -0.054638702 0.122137696 -0.25896394 -0.10364532 0.008404613 -0.4263311 -0.10905546 0.2776343 0.0509736 -0.123428665 -0.33187482 0.10673008 0.014869627 -0.23718412 -0.08473469 -0.38521948 -0.09981349 0.19229063 0.091069974 0.19638164 0.07266855 -0.1046947 0.015209815 0.11318261 0.15314454 -0.093493156 -0.118991435 -0.066984765 0.37707663 0.2224082 0.08864509 0.30745506 -0.3749099 -0.4655264 -0.016695233 -0.064983904 -0.11216037 0.0241501 -0.15109162 -0.4470793 -0.21864669 -0.17054853 0.39505136 0.45968017 0.07411374 -0.21681938 -0.19045858 0.31310174 -0.065664716 0.05059496 -0.0059729586 -0.2330519 -0.09388813 0.18535283 0.2761955 -0.2557888 -0.26515725 0.00867532 0.33714634 0.22038315 0.517663 -0.08476553 0.51997215 -0.20653176
103 0.38446411 -0.18165791 0.26680553 -0.12789388 -0.0004940071 -0.08641317 -0.019756984 0.037305612 -0.27410287 -0.17631856 -0.34448865 -0.2777005 0.31051257 0.13107619 -0.2173547 -0.13920079 -0.14027265 0.17496048 0.30098826 0.4186514 0.111597605 -0.010874893 -0.09111324 -0.038728673 0.078151494 0.1252641 -0.08732529 0.033367816 0.10750648 -0.025604757 -0.11233212 -0.25397208 -0.23567629 -0.13723502 0.078632325 0.14096686 -0.103860416 -0.11855234 -0.068003096 -0.13335086 0.03604684 -0.121372126 -0.0042746696 0.06003705 0.24475218 0.21092685 -0.032686118 0.068586335 -0.0359376 -0.08900872 0.013478838 -0.11195853 -0.08660717 0.03884203 0.27325144 0.009036415 0.252305 0.059134476 -0.08832127 -0.15568535 0.029336208 0.051432494 -0.10808641 0.10581654 0.05856686 0.29133487 0.040339157 -0.13369274 0.14647438 -0.2393112 -0.09842327 -0.10544721 0.13094223 -0.04860379 -0.13354495 0.27870235 -0.25248078 -0.06773947 0.20480497 -0.009512875 0.12387359 -0.42402765 0.12853633 0.077725954 0.36789474 0.07286814 -0.0018282952 0.107946694 0.09590641 -0.06107289 0.093175665 -0.057660695 -0.19105567 0.19642527 0.0010248605 -0.14436744 0.1450999 0.00676073 -0.08588397 0.09387839
