2191 100
0 0.051322438 -0.23734625 0.06792195 -0.31610417 0.18293399 0.12241174 -0.16875347 -0.19336027 -0.14441645 -0.16236119 -0.020325223 0.14837243 0.052045725 0.019842116 0.20974502 0.36787686 0.0042496123 0.20103317 -0.42735636 -0.25328162 0.12826669 0.20152721 -0.18504378 -0.004224098 0.2038067 -0.43579763 -0.34807265 0.1374785 0.29995504 0.36089724 0.11907011 -0.24636494 -0.20469832 -0.28591713 0.094956085 -0.07371051 -0.10693298 0.11629541 -0.08005855 -0.290062 0.29278585 -0.02229958 0.0909825 -0.100208685 0.023022315 -0.1652306 -0.030991564 -0.13377155 0.19456169 -0.031076495 -0.09414032 0.2787115 0.3081196 0.065485545 -0.031748146 -0.11134421 -0.21191643 0.19982381 -0.35204414 0.04835361 -0.36296532 -0.10811509 0.1973585 -0.17908515 0.12031689 0.3081157 -0.37299776 -0.4010969 0.3638293 0.3271646 -0.14538169 0.013788716 0.23014723 0.1513582 -0.050489116 -0.16140074 0.2580608 -0.068028264 -0.3225389 0.10674148 -0.23366316 -0.038010422 0.2554176 0.12661552 0.027661854 -0.18773572 0.2528591 0.37154368 -0.0065885624 -0.23820864 0.2262845 0.057181273 0.13991421 0.14421353 -0.03480257 -0.11051944 -0.16347854 -0.03667349 0.51660407 0.27543947
553 0.017429814 -0.14411578 -0.14791192 0.022680944 0.13051644 -0.079137586 -0.023257244 -0.291695 -0.035518542 -0.24656254 -0.07782694 0.05936555 -0.058217525 -0.046804655 0.096569635 0.14687118 0.061137255 -0.03276988 -0.10553172 -0.34342048 0.25306478 0.33692515 -0.24031477 0.046366345 0.039921023 -0.37740842 -0.16389076 0.11531861 0.25153542 0.046522316 -0.085242614 0.042221043 -0.39830613 0.0038257493 0.0042284103 0.08171709 -0.06837107 -0.10851612 -0.0056437245 -0.11440582 0.14054886 -0.001525536 0.05648335 0.075406045 -0.1351087 0.10107824 -0.108464226 -0.11624767 0.3037994 -0.016220262 0.069663 0.0914522 0.09314141 -0.20180798 -0.10688816 -0.12038781 0.099678464 -0.049340144 -0.29783374 0.03987131 -0.14342237 -0.10586431 0.19416635 -0.1232413 0.2746521 0.17535852 -0.13572124 0.028049972 0.15566827 0.1825514 0.09483957 -0.02150783 -0.00338595 0.03186427 -0.07238025 -0.30719563 -0.10099657 0.045708306 -0.17599994 -0.19343817 -0.06184892 -0.17448467 -0.07980141 0.13051659 0.24805786 -0.15204379 -0.091462076 0.14455065 -0.108037785 0.15007585 -0.101504594 -0.04732864 0.07942454 -0.28272685 -0.13681565 -0.16030703 -0.042896144 -0.17377181 0.24855325 0.087349996
554 0.16047381 -0.25767422 0.038319495 -0.3652392 0.096126705 0.09567536 0.21831359 -0.43147594 0.102563806 -0.3843996 -0.21518043 -0.008566314 -0.017834647 0.13954037 0.25560895 0.61612654 0.21074626 0.06990608 -0.34827146 -0.35454568 0.18037759 0.22346157 -0.18122892 -0.09863692 0.059971653 -0.48022178 -0.20555465 0.18228748 0.44687867 0.46938375 -0.05066447 -0.4180049 -0.17049478 -0.18109578 -0.060406305 -0.06954575 0.145585 0.08166286 -0.032062493 -0.06729454 0.3716045 -0.061168797 0.029391631 -0.0711911 -0.05042124 -0.29198068 -0.15821712 -0.06628961 0.20115344 0.0022212246 0.09535582 0.36121526 0.47478628 0.17725441 -0.042670462 -0.15676598 -0.14778008 0.041306056 -0.30269533 0.055997208 -0.24602258 -0.2732964 0.112191096 -0.36541083 0.045669787 0.2224251 -0.3984419 -0.27168143 0.5120734 0.29032704 -0.06690667 0.1319933 0.018060623 0.026303405 0.18729354 -0.19422336 0.07946661 0.008009068 -0.19881879 0.17027941 -0.15324572 -0.22827731 0.25831223 0.11812031 -0.04660698 0.0531726 0.28098267 0.1829543 0.06637083 -0.28191385 0.23170653 -0.0056685363 0.033770353 0.045713343 0.036931273 -0.16823152 -0.19242299 -0.11156724 0.4152955 0.20351712
1614 -0.08585531 -0.38015616 0.047512602 -0.23996697 0.093394645 -0.01102053 0.04492627 -0.15120168 -0.041445676 0.12799338 -0.0392027 -0.05461039 0.014823826 -0.06116401 -0.12677601 -0.008708451 0.11867216 -0.11755991 -0.07936261 -0.057719186 0.14855099 0.17188224 0.00066055026 -0.14035535 0.17501457 -0.31244648 -0.2663793 0.024883257 0.39011535 0.06120419 0.112245664 -0.33084908 -0.029971767 -0.10941634 -0.06944292 0.035730198 0.059969828 -0.20463735 0.025959477 0.076390974 0.1721132 -0.22206266 0.11888628 0.04510896 -0.10834127 -0.23837043 0.04607788 -0.13899857 0.34043574 -0.08248093 -0.05055726 0.2424304 0.177577 -0.15750058 -0.0061585587 -0.19301072 -0.2988577 0.18650228 -0.19023767 -0.017928176 -0.21388775 -0.09408065 0.048110947 -0.19647895 -0.26647863 0.15161878 0.0816376 -0.046858948 0.16830225 0.10468612 -0.00935769 -0.045008257 -0.07287894 -0.037766933 -0.12998363 -0.21529658 -0.2288379 0.056106586 -0.48015675 -0.18508992 0.030262284 -0.31449306 -0.20639004 0.19921498 0.3366809 -0.16905695 0.36318758 0.16398676 -0.31940088 -0.009759739 0.18510757 0.028250426 0.39271024 -0.050976474 0.18660083 -0.2684612 -0.0044186586 -0.16975012 0.510554 0.3556996
1615 0.09589322 -0.037824206 -0.1918848 -0.14566123 0.20260687 -0.07967191 0.27251175 -0.17891262 0.026063133 -0.15715119 -0.049195904 0.0006259112 -0.16683604 -0.056697786 0.038811732 0.3311573 0.15779042 -0.1381489 -0.21048602 -0.42244682 0.055939626 0.34896064 -0.21002798 -0.12494919 0.12827224 -0.29836634 -0.10438605 0.26580685 0.2980114 0.15362267 -0.024336964 -0.09746531 -0.24244452 -0.19724153 0.042571314 0.235835 -0.05773186 0.14223637 0.16743287 -0.12139321 0.082043104 0.06222253 -0.02424135 0.017563237 0.041202463 0.04665653 -0.25057033 0.011500194 0.15022908 0.032541417 -0.06661642 0.06790788 0.049288265 -0.03687534 0.1210128 -0.13650393 -0.11311749 0.09468563 -0.063403055 -0.005855085 -0.14644493 0.04354661 -0.038904876 -0.2468108 0.17429255 0.20653372 -0.46692872 -0.1506208 0.18162757 -0.037321568 -0.0028327785 0.06353574 -0.011180721 0.08375624 -0.0065327846 -0.08040104 -0.10737586 -0.06335194 -0.1888167 0.07279415 -0.14500828 -0.13247418 0.030205049 0.00026339872 0.14227134 -0.17205939 0.05792647 -0.09834036 0.015821373 -0.01678305 0.23372029 0.03141665 0.13262247 -0.08717328 -0.023737751 -0.07861956 0.06177546 0.015853574 0.21718782 0.041101087
368 0.14746077 -0.063834995 0.004139578 -0.23076005 0.12282072 0.006633307 0.008350884 -0.17546132 0.01548622 -0.34918076 -0.124115296 -0.058332704 0.032320466 0.09776391 0.29251784 0.367735 0.07783587 0.22959638 -0.25715968 -0.22275992 0.21625051 0.17026629 -0.25850847 -0.11274171 -0.032853194 -0.27609655 -0.21292974 0.19562215 0.18038298 0.25545028 0.19028422 -0.17888372 -0.34727725 -0.24695788 0.081791654 0.09499299 -0.1383338 -0.022624293 0.1416869 -0.2760288 0.18161424 -0.015299485 0.021079356 0.061801348 0.01017468 -0.065030865 -0.13074297 -0.0104925465 0.10948016 -0.012092548 0.062063992 0.102434926 0.13584445 -0.017968921 -0.11596687 -0.059687708 -0.08193146 -0.0538198 -0.33695552 0.10573944 -0.23513485 -0.18349418 0.14433764 -0.2662635 0.072193444 0.10844513 -0.18020424 -0.21390423 0.28711352 0.19086578 -0.025844757 0.05758678 0.0061759395 0.042945415 0.08162444 -0.26323247 -0.1059927 0.15792406 -0.22737816 -0.07148919 -0.23598118 -0.15978648 0.16262202 -0.06056485 0.34505695 -0.07820866 0.095777184 0.16560248 -0.08586153 -0.20517279 0.18828878 -0.09969551 -0.051247932 -0.11179175 0.010109601 -0.22406165 -0.040027525 0.0031584066 0.20130442 0.1074185
1093 0.12239358 -0.052762922 -0.17442994 -0.25229403 0.10752403 0.23339647 0.25111857 -0.27687266 0.13612223 -0.165448 0.10137187 -0.0030759906 0.030914085 -0.06638724 0.25166973 0.42303845 0.19108228 -0.14401874 -0.20502594 -0.5781774 0.0970905 0.010091171 -0.46782044 -0.054810945 -0.15538792 -0.3782279 0.047047112 0.011931886 -0.013886909 0.15528686 0.17071162 -0.061581068 -0.15202242 -0.20672666 0.14284253 -0.047943093 -0.31001812 0.0013767909 0.060496144 -0.20010461 0.2609675 -0.00018521649 0.013308578 -0.023228806 0.015388416 -0.0907099 -0.06639108 0.057369888 0.12024625 -0.006461572 0.058155917 -0.18911958 0.20743534 0.06574178 -0.11363744 -0.12819622 -0.110796206 -0.054710485 -0.2948145 0.08623818 -0.1490362 -0.07729672 -0.18104455 -0.100447215 0.19545783 0.29544702 -0.10791018 0.050623626 0.040072594 -0.037098188 -0.08841305 0.029169306 0.14215241 -0.10297132 -0.18729222 -0.26090667 0.06455392 0.22525 -0.23460707 0.09937362 -0.08971909 -0.13589014 -0.096435994 -0.08089387 0.040500455 -0.20340462 0.07222876 0.048615802 -0.13616842 -0.12040889 0.27470258 -0.107297815 -0.04026084 0.05128004 0.054468405 -0.102914 -0.08940417 -0.02348105 0.48399293 0.1362147
780 0.17570086 -0.26890537 0.061176214 -0.38940984 0.18492188 0.19243793 0.08794255 -0.40017644 -0.07484439 -0.3165986 -0.09840568 0.015062467 0.03326767 0.09432011 0.412038 0.5258413 0.0926189 0.2790193 -0.55488944 -0.19256467 0.21930873 0.29768723 -0.23549087 0.061840434 0.2646219 -0.54634583 -0.14967936 0.20822349 0.3929793 0.441185 0.0992466 -0.25816724 -0.26636717 -0.14743452 0.045759704 0.005204373 0.002986043 0.0741282 0.075687096 -0.3901451 0.28641847 -0.14271274 0.06458526 -0.13665524 -0.09461825 -0.160417 -0.2748716 -0.08644242 0.079103015 -0.12303545 0.08138422 0.3011459 0.32386592 0.11240819 -0.11083252 -0.014983449 -0.119953 0.09874772 -0.3667005 -0.049953897 -0.2425754 -0.18386577 0.17738491 -0.22090688 0.03460625 0.21307595 -0.4080025 -0.39667594 0.50051135 0.27415794 -0.06439948 0.13352422 0.13454168 0.13724652 0.16031799 -0.25768167 0.045434188 0.059524324 -0.34963098 -0.009504138 -0.18313724 -0.15671194 0.27989212 0.19484387 0.15808517 -0.10236283 0.29195756 0.2242057 -0.02916103 -0.22808893 0.20378518 0.013802323 0.018066632 -0.13640054 -0.084987156 -0.256072 -0.153137 0.0418513 0.24199073 0.130589
1622 0.11696232 -0.15856346 0.030911678 -0.17354381 0.15539323 0.1045114 0.2356517 -0.36902562 0.06488457 -0.28020835 -0.012318744 0.04900846 -0.060870487 0.22344744 0.30359036 0.2922061 0.077122286 0.38403857 -0.35517046 0.03302557 0.309773 0.19864182 0.061474293 -0.062511414 0.115828715 -0.2796619 -0.38404027 0.044515073 0.26998106 0.2178334 0.17053294 -0.29431802 -0.20731623 -0.11150374 -0.05494941 -0.013014416 -0.14536947 -0.079694 -0.11263756 -0.05839351 0.014542772 0.036090247 0.07048339 0.15967256 0.024507452 -0.09451839 -0.14002894 -0.20742102 0.23540765 -0.1826111 0.05554459 0.23788194 0.30479026 -0.10741862 0.065634556 -0.18429503 0.18427908 -0.16440894 -0.36543673 -0.0525809 -0.09095629 -0.08079455 0.2144979 -0.22672375 0.12671483 0.31947905 -0.2770629 -0.20057385 0.33236578 0.45211598 0.14390454 0.11886364 -0.08709517 0.115168266 0.090014815 -0.28909814 -0.12208176 0.09398281 -0.12650488 -0.10866372 -0.15976152 -0.17326352 0.23464066 -0.092821166 0.15983818 -0.17312904 0.14777566 0.29383007 -0.074467085 -0.037681986 0.16998543 0.0764197 0.05783079 -0.24176022 -0.27229536 -0.0647847 -0.082871914 -0.16527314 0.31019613 0.12799451
1099 0.084462225 -0.3249044 0.062268693 -0.28752524 0.069455475 0.015976185 0.15258889 -0.24664913 -0.11074744 -0.24572127 -0.22563872 0.071394816 0.020647213 -0.07522833 0.12622197 0.41240105 0.09211634 0.1792737 -0.2879778 -0.25904605 0.17965952 0.20459859 -0.16874756 0.0365699 0.13969576 -0.4447502 -0.030943466 0.24639167 0.30544686 0.33714882 -0.088391736 -0.30313897 -0.17423175 -0.26530066 -0.1149208 -0.03720582 0.09868014 0.089627504 -0.029933978 -0.26384646 0.3941905 -0.048157357 0.08404927 0.039507218 -0.12870246 -0.19551621 -0.034139775 0.030164124 0.08209016 -0.031654067 0.10988089 0.24242572 0.38428563 0.25205147 -0.021659052 -0.087506965 -0.19894557 0.07263816 -0.22309935 0.062249225 -0.118592836 -0.14509384 0.19637965 -0.32561687 0.065539785 0.35533664 -0.5317487 -0.2991376 0.6381979 0.33620104 -0.06921876 0.052541733 0.08123158 0.21960363 0.12594184 -0.26833415 0.06759449 -0.005883991 -0.26694477 0.13643117 -0.20882645 -0.051444232 0.16969468 0.14237443 0.048904438 -0.14875932 0.2557266 0.21990003 0.063480765 -0.24707215 0.29427156 0.05114743 0.11487473 -0.07671603 -0.0878085 -0.203273 -0.23152632 -0.088391215 0.4735605 0.21225983
1626 0.124519914 -0.19087444 0.10941506 -0.252906 0.13705944 0.16765942 0.11597368 -0.3099292 0.024378117 -0.23162621 -0.18430321 0.18228564 -0.124654226 0.052239865 0.20484433 0.36459938 -0.006709786 0.10483583 -0.4488939 -0.11969024 0.08723823 0.1672171 -0.26649842 0.10444561 0.20951867 -0.42643604 -0.135586 0.24538407 0.4406903 0.46848416 -0.055638105 -0.22135945 -0.18231574 -0.15326244 0.0397936 0.021918653 0.13185604 0.082663685 -0.022984847 -0.26279426 0.26670587 0.082946844 -0.07968463 -0.09795983 -0.05419661 -0.26992002 -0.22065416 -0.024874054 0.20759717 -0.04635917 0.08192501 0.34458667 0.547339 0.010927373 0.102819845 -0.123109534 -0.14564574 0.091256656 -0.32201877 0.07176274 -0.3240102 -0.21684903 0.23054399 -0.42804703 0.1286265 0.22245187 -0.46843347 -0.22411883 0.3738991 0.24563871 0.0031488345 0.105788715 0.044341322 0.19971849 0.12369886 -0.11685291 0.068731695 -0.08939189 -0.20799182 0.03512188 -0.24586473 -0.21106583 0.21735135 0.20054962 0.2126318 -0.16032378 0.18652503 0.16456382 0.06683836 -0.24062683 0.22026286 0.030363435 0.14362168 -0.112991236 -0.17763384 0.00814728 -0.19181225 -0.02075896 0.33021474 0.016438957
73 0.07593743 -0.23500024 0.041817527 -0.25186187 0.10490294 -0.03117626 0.06747009 -0.28918004 -0.11850782 -0.21939936 -0.18331651 0.13974166 0.01608318 -0.15933782 0.11245928 0.4267776 0.070016995 0.15339689 -0.34292358 -0.044444516 0.11735528 0.20948173 -0.09336965 0.047390755 0.22910139 -0.4164902 -0.19659023 0.27427822 0.23764491 0.39680454 -0.05111836 -0.19229499 -0.3781247 -0.34642145 0.099535145 0.14003357 0.08530011 0.10066306 -0.0044226693 -0.24857283 0.24394527 0.067691214 0.04043079 -0.08463623 -0.06251507 -0.21772884 -0.2683685 0.075694345 0.23752554 -0.0466965 0.055255394 0.35899413 0.24149345 0.17979684 0.13029923 -0.092842236 -0.21414223 0.15339549 -0.32461745 0.03499197 -0.369329 -0.2174292 0.1402944 -0.47455212 0.22604099 0.2839205 -0.4435626 -0.4421668 0.5684675 0.19550423 -0.13461256 0.07274696 0.08865113 0.14657184 0.13567565 -0.30026823 0.111037076 0.007903691 -0.3131981 0.10191411 -0.047454827 -0.24329643 0.2075282 0.2028431 0.1860553 -0.16527474 0.17308688 0.09710173 0.0097776735 -0.28175086 0.41942316 0.15889479 0.11353714 -0.07545756 0.03615213 -0.17958684 -0.3393589 0.03566664 0.32758301 0.1607091
1353 0.25277072 0.027338268 -0.319824 -0.119963504 -0.0060884794 0.06366972 0.13906719 -0.2970227 -0.010176215 -0.1051668 -0.0739947 -0.11141884 0.07485082 -0.121175855 0.06661072 0.43199828 0.08377376 -0.33728248 -0.19942088 -0.6739395 -0.034673464 0.053939328 -0.48605144 0.046706952 0.0044488786 -0.25595665 0.11485327 -0.008821938 0.103960186 0.1104558 -0.18455976 0.04254635 -0.021961568 -0.13568144 0.058983196 0.013698857 -0.023032038 -0.0058854013 0.28636545 0.051015887 0.25395218 0.105313465 -0.11304542 -0.17416964 0.04619311 -0.029461531 -0.0273856 -0.1152825 0.13698018 0.07887939 -0.10508406 -0.064903714 0.041979775 0.033816688 -0.20599084 -0.15730968 -0.026173703 0.015920304 -0.1801829 0.045296807 -0.17043193 -0.03719555 -0.3303782 -0.1544467 -0.023630828 0.10295346 -0.13925232 0.043874 -0.013359717 -0.2040346 -0.10611212 -0.14676861 0.008502678 -0.07355398 -0.12598248 0.00070565724 0.010055889 -0.1407474 -0.17284861 -0.08346224 -0.0952814 -0.015116424 -0.07876624 0.12870677 0.15337902 -0.43980148 -0.19123277 0.015735343 -0.0796257 0.027486533 0.02053817 0.039914414 0.117756754 -0.07629033 -0.0181151 -0.14093865 -0.08580675 0.07462431 0.37182438 0.15703504
1906 0.13067324 -0.2625433 0.055090606 -0.21533164 0.23451947 0.09709012 -0.103969 -0.22936304 -0.20142984 -0.14084598 -0.12740499 0.06693421 0.038676403 -0.06640618 0.19866502 0.39361903 0.06281177 0.32436424 -0.3668036 -0.11554596 0.15231977 0.16474685 -0.21192345 0.039504923 0.2683483 -0.44239834 -0.3208691 0.13979964 0.25703198 0.38849795 0.100995265 -0.20186025 -0.2874925 -0.3049231 0.11116443 0.02997499 -0.066495925 0.008700095 0.02375836 -0.22178257 0.27211663 -0.0025345671 0.11768497 0.00061867246 -0.025020538 -0.1282555 -0.15017277 -0.05421994 0.17502996 -0.038551588 0.009500895 0.33330435 0.30283794 0.16208519 0.0046895915 -0.10818514 -0.16312261 0.058802087 -0.40759572 0.08086443 -0.29002845 -0.18813367 0.2113889 -0.26726127 0.16626798 0.25173843 -0.36905122 -0.4422881 0.51126677 0.26447704 -0.130734 0.035739288 0.18264289 0.1343057 0.116266355 -0.17564222 0.17002378 0.041847233 -0.27750394 0.13855188 -0.20317708 -0.19573832 0.27694052 0.10297588 0.2138898 -0.1445853 0.2100792 0.27877212 -0.05781816 -0.23851258 0.31306398 0.076314144 0.13176443 -0.12758039 -0.0016372402 -0.21506566 -0.24520111 -0.091720164 0.41009903 0.165038
523 0.13117929 0.15516531 -0.10720855 -0.10672617 0.16388553 0.10027642 0.19938473 -0.23291634 0.17498882 -0.2749863 0.24316639 -0.022118978 -0.05247437 0.11949737 0.07228216 0.23848633 0.029330809 -0.25296786 -0.10607315 -0.46143988 0.033339746 -0.012673539 -0.40683138 -0.0482073 -0.19123624 -0.22071297 -0.037595343 -0.048290193 0.163957 -0.012283736 -0.20841157 -0.017127747 -0.01184153 -0.14205761 0.20358361 0.25403404 0.25693735 0.1930203 0.08260252 0.020318797 -0.01383031 0.1144325 0.08514989 -0.18983199 0.09752375 -0.07172375 -0.10820822 0.18179433 0.18394862 0.16923851 0.048419494 -0.24474066 0.028518993 -0.22871977 -0.13039152 -0.1781473 0.107423775 -0.31885746 -0.13364238 0.118075065 0.06480589 -0.24597688 -0.14120457 0.032406777 0.12001815 0.14965685 -0.13663703 0.16814375 0.03506535 -0.10775115 0.31845027 0.013476535 0.06678801 0.00035706448 0.0055401986 -0.100449316 0.056750443 -0.096047886 0.23353659 -0.33820596 0.070745945 -0.04455804 -0.2281897 -0.07062445 0.20541029 -0.2058534 -0.04302694 0.141499 -0.14507045 0.012480311 0.1506568 -0.0065065697 0.20660429 -0.2944171 0.017098185 -0.15522014 -0.14795488 -0.0076343063 0.5271887 0.045772783
572 0.123069294 -0.07416993 -0.16821265 -0.11589651 0.20177604 0.030024644 0.08837343 -0.24772169 -0.0019847096 -0.08506591 0.040562965 -0.09365571 0.012153867 0.011235498 0.11319251 0.2129883 0.087296784 -0.18693703 -0.38095137 -0.45838988 0.019641595 -0.014219335 -0.37870157 0.10710801 0.120967776 -0.26618052 -0.009785752 0.025352616 0.057596143 0.07557681 0.15093686 -0.10058114 -0.23798709 -0.21526751 0.08722329 0.108708635 0.068978466 0.09714949 0.22271554 -0.2212637 0.1450341 0.08753717 -0.05933933 -0.1270167 0.028983854 -0.015122953 -0.09909895 -0.029401688 0.14990251 0.12214384 -0.016815495 0.07214043 0.21842134 0.03148957 0.029767666 -0.09394187 -0.10418832 -0.038605683 -0.25297093 -0.010264975 -0.17317884 -0.18452486 -0.18490568 -0.23801737 0.10490912 0.21029189 -0.10592349 -0.06961806 0.058279883 0.006501491 -0.124755666 0.07420815 0.12240574 0.0035387776 0.09021598 -0.079849064 0.0013933389 0.033837497 -0.07492218 -0.04608773 0.09950292 0.02153476 -0.07322225 -0.024165785 0.2522009 -0.244623 -0.09205321 0.028161123 -0.08778993 -0.063585415 0.27453297 -0.007036141 0.10804104 -0.056400947 -0.052456573 -0.19740693 -0.17945072 -0.027169533 0.3628354 0.1698336
1107 0.28608373 -0.2898591 -0.027715245 -0.26619786 0.3221971 0.14189725 0.08178703 -0.3125329 0.043259714 -0.280603 -0.24025042 0.09241522 -0.04619691 0.009160316 0.37896454 0.46559304 0.02641309 0.30662793 -0.46794707 -0.16646464 0.24485442 0.14008063 -0.28468594 0.07151063 0.24855001 -0.5332346 -0.2237389 0.19803229 0.36439994 0.37201703 0.13727173 -0.20191741 -0.25011274 -0.28257498 -0.012183871 -0.022994416 0.027041147 -0.00082737766 -0.0750242 -0.43512127 0.13343477 0.05892015 0.01778061 0.07547924 -0.03245714 -0.110400245 -0.19924855 -0.020794509 0.1890527 -0.02793273 0.16241913 0.23451683 0.4104455 0.13530083 0.013242467 -0.11540313 -0.044504374 -0.014191072 -0.41299775 -0.026664348 -0.31680256 -0.14748685 0.2880182 -0.30078977 0.09583742 0.216174 -0.40943015 -0.25360972 0.5339316 0.19215995 -0.048123185 0.113350675 0.20324415 0.19538054 0.25185496 -0.29080075 0.09702541 0.10565235 -0.18891282 0.13209014 -0.18890163 -0.17479095 0.28956383 0.06885312 0.07411831 -0.12564571 0.14761816 0.382434 0.044165406 -0.068378836 0.14386839 0.1158488 0.06425115 -0.19893073 -0.14411497 -0.16394363 -0.13823804 -0.14064285 0.4137823 0.12387352
1638 0.17363477 -0.22882012 -0.09371233 -0.36560872 0.20336369 0.038278244 0.06580982 -0.2515316 -0.048783153 -0.20860445 -0.2664229 0.13153715 0.029319419 0.11100604 0.25595483 0.39631855 0.11564891 0.1508568 -0.33094916 -0.261427 0.20656456 0.1502662 -0.24223755 0.006457657 0.10544641 -0.46988374 -0.21652272 0.22309077 0.27909386 0.2304294 0.09028077 -0.2502772 -0.20018555 -0.17051974 -0.10387338 -0.051971044 -0.011215219 0.043363668 -0.058696605 -0.22665735 0.18848416 0.02123053 -0.00017985785 0.036143642 -0.08039912 -0.113097385 -0.18302104 -0.08821008 0.17617787 0.015893063 0.18391278 0.24487984 0.35936597 0.13279542 -0.050547164 -0.16601326 -0.1315482 0.06209624 -0.35882503 -0.0341553 -0.32810625 -0.18602178 0.27300856 -0.17586105 -0.06963855 0.13550897 -0.29818502 -0.20762737 0.43352455 0.15797691 -0.09314714 0.07089783 0.14241463 0.09307077 0.09455558 -0.29649752 -0.015551686 0.0074523673 -0.15524179 0.069894485 -0.06642949 -0.08233428 0.175754 0.03976819 0.15253545 -0.20041785 0.15350807 0.25794232 -0.023835227 -0.08807144 0.10370906 -0.050605793 0.13320553 -0.09436899 -0.07908874 -0.16306973 -0.18296543 -0.057158664 0.45827484 0.15670681
1639 0.19328457 -0.1984501 0.024224428 -0.2098245 0.008786673 0.03300593 0.05207117 -0.06680521 0.027833618 -0.09088659 -0.11958254 -0.03839528 0.021964742 0.10642059 0.20033973 0.29575303 0.03870803 0.2609151 -0.17988288 -0.1624153 0.11193439 0.17937043 -0.17301658 -0.035100166 0.0023869686 -0.28562668 -0.13114625 0.07249799 0.22490224 0.14451745 0.10129837 -0.21141133 -0.1778075 -0.22006622 0.054462004 0.05233975 -0.18390875 -0.11578232 -0.1282624 -0.3000368 0.24180828 0.032547437 0.06619783 0.15628608 0.009609262 -0.1503421 -0.16274828 -0.095963195 0.27646402 -0.0037919295 0.09375395 0.2162714 0.4543754 0.06593607 -0.0672573 -0.16174024 -0.08273678 -0.07690269 -0.34040037 0.14905846 -0.24448857 -0.11187164 0.24440591 -0.3229633 0.08669795 0.066016965 -0.2800263 -0.0717808 0.27286077 0.14368771 -0.08346574 -0.00571964 0.057955317 0.11350398 0.10522993 -0.21030417 -0.006426326 0.21000904 -0.21042725 0.02661254 -0.17346384 -0.13362125 0.07250603 0.03864726 0.24588428 -0.14305323 0.17751673 0.29248703 -0.11615311 -0.09795946 0.11079779 0.001002512 0.08065939 -0.07371919 -0.13859679 -0.082532465 0.036500018 -0.24764998 0.45869875 0.2411475
1112 0.0012508102 0.0014205022 -0.020381335 -0.14154057 0.1509502 -0.10948763 -0.06606591 -0.04870564 0.07259337 -0.1434319 0.03111014 0.004804862 0.008632244 0.17557015 0.09718524 0.00202375 0.13014063 0.026595864 -0.065209225 -0.22019543 0.2340164 0.20779656 -0.11289479 -0.19819506 -0.04869927 -0.13277653 -0.22725722 0.09737589 0.13252662 -0.11626489 0.23341641 -0.29247186 -0.33525032 -0.15481822 0.063416705 0.36558476 -0.18149632 -0.15862991 0.2669922 -0.13124295 -0.015369509 0.06447198 0.072341844 0.102221794 0.055766314 -0.052679602 -0.14084251 -0.14897655 0.38444066 0.13900344 -0.035015035 0.1298423 0.027643582 -0.21722603 0.019633137 -0.090894535 -0.034911744 -0.08581109 -0.38848743 0.029451566 -0.2590973 -0.00046601996 0.11852533 -0.09033351 0.053142294 0.2352917 -0.12847379 0.17868148 -0.046203293 0.0047471207 0.14059375 0.04972105 -0.05792708 0.07185683 -0.10999776 -0.2913836 -0.18909742 0.103828296 -0.069035016 -0.22256576 -0.066896915 -0.050331585 -0.15011925 -0.25945547 0.36906984 -0.14925143 -0.03514361 0.19531588 -0.2185159 0.165601 0.04280304 -0.07747325 0.17343815 -0.19492464 -0.11009808 -0.21352075 0.03554624 -0.31427985 0.14158401 0.06280341
409 0.18717033 -0.03786061 -0.26051518 -0.092781596 -0.024603475 0.03363707 0.44506067 -0.391181 0.24332756 -0.13853857 0.07840209 -0.030756025 -0.011493045 -0.06127575 0.041837092 0.30095732 0.09734815 -0.32782006 -0.26627132 -0.54423374 -0.0085021 0.029302087 -0.42610362 -0.034756593 -0.12976632 -0.29497007 0.12492701 -0.1306782 0.18709975 -0.009917512 0.09500656 -0.07253079 -0.056079473 -0.18656847 0.07314411 0.098475605 0.053491265 -0.055053204 0.1635615 -0.016842114 0.15111187 0.10602052 -0.04037289 -0.059392318 0.005652518 -0.06288115 -0.15468888 -0.04867477 0.035231926 0.11587923 0.027469484 -0.0863926 0.07242366 -0.1701169 -0.15298863 -0.258009 0.009308963 -0.053501487 -0.1982728 0.14228393 -0.13285679 -0.0737423 -0.08518423 -0.33753207 -0.012491495 0.13050778 -0.04426935 0.04333969 -0.10946845 -0.026355144 -0.09286432 -0.095597126 -0.012696548 0.1154349 -0.089084 0.011838705 -0.02138298 -0.007153617 -0.021316757 -0.053187978 0.058501378 -0.101142205 -0.011763633 0.10485665 0.1938053 -0.27211392 -0.01718947 0.13312571 -0.028682789 -0.05800119 0.16640617 -0.0013385749 0.11666894 0.10821461 -0.09013924 0.06551854 0.04156408 0.008182947 0.26069912 0.1019949
1249 0.120453864 -0.28491402 0.049223136 -0.18729304 0.1622853 0.028442224 0.04817668 -0.4264943 -0.029412488 -0.17036958 -0.272515 0.095351845 -0.00061090733 -0.27794355 0.043339696 0.45611945 0.10754013 -0.08144946 -0.35870117 -0.31616384 0.17519842 0.20241092 -0.06392212 0.09364484 0.25202933 -0.5385681 -0.16142403 0.15159607 0.38913548 0.2851156 -0.13941677 -0.17196262 -0.07483492 -0.28331906 -0.10565764 -0.07638885 0.21361274 0.008746429 0.013470917 -0.03296056 0.34394825 -0.08817974 0.020342376 -0.142845 -0.1779134 -0.26728868 0.012570801 -0.120530665 0.20461841 -0.14319927 0.04135662 0.32845917 0.3799936 0.21418531 -0.27563623 -0.24656823 -0.1479493 0.30944747 -0.14029607 0.023246739 -0.19422941 -0.10127168 0.07749283 -0.3370432 -0.015400307 0.3335374 -0.39102527 -0.3820456 0.6412788 0.39928466 -0.18519509 0.07862055 0.1268506 0.1934304 0.1772052 -0.15384603 0.12680809 -0.07013111 -0.34371796 0.07373865 -0.15127249 -0.15361956 0.25231844 0.26204896 -0.03107483 -0.13964117 0.4219396 0.29358947 0.056856036 -0.37503043 0.17565909 0.11247851 0.15092787 0.09652919 0.08775726 -0.18258429 -0.20168525 0.0022536588 0.35885292 0.161833
1263 0.13852108 -0.31725687 -0.01038645 -0.2964509 0.24360706 9.975865e-05 0.086683474 -0.33267322 -0.18550429 -0.25107998 -0.12753104 0.11089785 0.06989252 -0.020673452 0.18159723 0.48202935 0.24438459 0.22515038 -0.46507543 -0.24532978 0.3310514 0.33413655 -0.26431316 -0.050523832 0.3140448 -0.4998139 -0.17470247 0.36712906 0.33870175 0.30581453 0.14634654 -0.3471916 -0.09409774 -0.13704182 -0.021613285 0.07535816 0.10694144 0.12935497 -0.039204437 -0.2024011 0.31035984 0.055457845 0.17763054 -0.052512366 -0.04463537 -0.15776233 -0.28321904 0.10241025 0.122154176 -0.06916088 0.10465867 0.30241004 0.24289252 0.12593745 0.050993457 0.06793508 -0.20953056 0.0883897 -0.23150708 -0.014605107 -0.23294246 -0.213504 0.2648501 -0.3152112 0.09240653 0.44411334 -0.55026263 -0.35189173 0.4630321 0.2125498 0.04158138 -0.030024348 0.027273525 0.19417167 0.17954962 -0.21789818 -0.03221506 0.0474714 -0.3267208 0.11986138 -0.08753381 -0.14080615 0.31497172 0.20975143 0.22207904 -0.05525699 0.28793666 0.23190422 0.06380512 -0.23878847 0.45890358 0.02328155 0.17401244 -0.17470488 0.006902841 -0.2971215 -0.20805828 0.027250431 0.3295039 0.16399637
177 0.066020854 -0.20096558 0.045191385 -0.29731777 0.17891757 0.036941107 0.06936044 -0.28649452 0.027633624 -0.321805 -0.15519159 0.0112696355 -0.04239937 -0.051052287 0.21951361 0.49687362 0.11770392 0.15834324 -0.3161546 -0.25310633 0.029068792 0.2374506 -0.2627785 0.008203725 0.17848156 -0.33029732 -0.12761804 0.16024153 0.35615233 0.4235891 -0.014760646 -0.3636664 -0.14541635 -0.11356247 0.024017558 0.049310245 0.041699134 0.051469088 0.03402855 -0.26853538 0.33993688 0.0412777 0.016153134 -0.055557206 -0.03205235 -0.1342548 -0.2324976 0.009354027 0.11782481 -0.035372216 0.05591234 0.3093437 0.33993274 0.09256639 -0.015743857 -0.06075962 -0.20106423 0.0971802 -0.23263347 0.026185997 -0.23356017 -0.20852752 0.16410226 -0.26268175 0.07933476 0.31641996 -0.47495162 -0.2528263 0.48633364 0.23528686 -0.053618494 0.008300505 0.07162703 0.13948454 0.11428035 -0.21574286 0.04000325 -0.026285468 -0.2644976 0.083911546 -0.21719114 -0.14625907 0.24955377 0.10714931 0.21231599 -0.005654204 0.24085456 0.17415614 -0.0074732346 -0.25436866 0.19668546 0.061264496 0.10182569 -0.025795622 -0.029498473 -0.18891712 -0.18765977 0.021570478 0.3569889 0.19524164
1052 0.17097774 -0.20565116 0.04586783 -0.20844047 0.091302976 0.0046371347 -0.044880047 -0.24482493 -0.13546324 -0.29258755 -0.2371773 0.058718868 0.031096136 -0.020277513 0.14195213 0.32496536 0.17167716 0.04313528 -0.25950584 -0.25640643 0.17963865 0.28414026 -0.24729413 -0.09956298 0.087724835 -0.46411097 -0.15628824 0.26851425 0.28034812 0.28049654 -0.0730081 -0.20381364 -0.309346 -0.08223814 0.04558838 0.043882966 0.059397202 -0.029690487 0.058040205 -0.2623337 0.30728114 0.014930738 0.010682806 -0.10858538 -0.010101691 -0.21857357 -0.2659186 0.006746308 0.18509685 -0.025995921 0.061011698 0.34471312 0.31460553 0.18164906 -0.024632463 -0.117378294 -0.19576848 0.034578707 -0.32032862 0.0811393 -0.2535774 -0.174124 0.22955881 -0.32249755 0.17574692 0.17047799 -0.45948923 -0.3405795 0.4512626 0.011970038 -0.057219677 0.10860026 0.14947611 0.12249334 0.20732178 -0.3000726 0.13923232 0.075116284 -0.25290525 0.101780705 -0.13403845 -0.18368134 0.1576603 0.1670809 0.23769528 -0.14718476 0.18361646 0.23596002 0.054272592 -0.24781798 0.23232462 -0.005100962 0.07270598 -0.08943325 -0.01624006 -0.2624238 -0.14390844 -0.02983348 0.24224527 0.038984627
587 0.23194471 0.01703863 -0.065703854 0.05310385 -0.010982687 0.01945847 0.111785755 -0.08249479 -0.0885124 0.036311697 -0.02416238 -0.2387169 0.043356184 -0.086271524 0.17027245 0.33570123 0.09567771 -0.023572717 -0.30471906 -0.37934893 0.012988421 0.10595396 -0.32007128 0.047543425 0.2235584 -0.18143238 0.0841108 -0.0044720075 -0.066269755 0.048686724 0.013261026 -0.08697054 -0.10341339 -0.20972782 0.08012042 0.00446903 -0.026411057 -0.011076487 0.0489841 -0.1337405 0.06109569 0.038708333 -0.0027589453 -0.06197556 -0.007910264 -0.113240294 -0.13484281 -0.15961431 0.14224043 0.02351544 0.010794693 0.110450186 0.08038081 -0.00025928993 -0.060660563 0.06926085 0.04362102 -0.011481212 -0.17029226 -0.044604506 -0.06750592 -0.07924995 -0.027080845 -0.31690374 0.19308507 0.23010512 -0.16233554 -0.2698246 0.25456363 0.05582639 0.01034677 -0.07215319 0.06180551 -0.023375802 0.070798725 -0.17926615 0.11107367 0.045919903 -0.14184448 -0.22111659 0.027105758 -0.14018358 0.05263382 -0.09805877 0.109770656 -0.30409998 0.11566759 0.14509524 -0.013896209 -0.1101955 0.44668123 0.16356714 0.13070644 0.021525163 -0.12266865 -0.11230341 -0.26384637 -0.06640088 0.4791575 0.25781658
588 0.017982211 0.07503467 -0.103275545 -0.03590746 0.058064897 0.10211147 0.3291195 -0.23681197 0.101176016 -0.28018904 0.13581195 -0.0719736 0.008087465 0.058081716 0.27195853 0.45616353 0.18166903 -0.11176469 -0.33780038 -0.3829712 0.13419248 0.12036692 -0.41987136 -0.11709178 0.000331147 -0.21382463 -0.07470157 0.10040069 0.16259645 -0.00010907318 0.16666132 -0.11547157 -0.09564119 -0.15357573 0.08949164 0.29029912 -0.08425125 0.10183843 0.12169968 -0.20351939 -0.039994225 -0.0032308993 0.14675976 0.016140118 -0.04523148 -0.048756227 -0.32589084 0.1778468 -0.06586526 0.14062005 0.041550852 -0.0974655 -0.11865239 -0.2500777 0.11444405 0.07045145 -0.014877827 -0.0695039 -0.2506795 -0.007254793 -0.107351884 -0.091291964 -0.17886612 -0.24330917 0.071359634 0.27692994 -0.15740897 -0.019564472 -0.022482442 0.04781849 0.17048298 -0.07341096 -0.16927274 -0.036403332 -0.083595425 -0.23656005 -0.2546552 0.03482681 -0.06248347 -0.15877643 -0.023822326 -0.06307729 0.019498816 -0.10644616 0.25446787 0.00054521736 0.038955733 -0.027974848 -0.18049322 -0.14433064 0.35759556 -0.06610098 0.0676818 -0.06172161 -0.023950132 0.049714096 0.024696788 0.113681346 0.33134243 0.38869095
1124 0.12214051 -0.30272385 -0.061957393 -0.22951068 0.22885989 0.09337083 0.08498423 -0.38249978 -0.21859291 -0.29018143 -0.11252131 0.1793099 0.035415113 0.09064401 0.18071045 0.4334001 0.08670611 0.30785695 -0.42527065 -0.045709632 0.31406534 0.18731357 -0.14470746 0.09353416 0.21368821 -0.54351866 -0.11280681 0.20894936 0.27834916 0.51251 -0.024441656 -0.18657595 -0.27088115 -0.2872832 0.054439932 0.15805426 0.14015496 0.19539306 0.025490139 -0.24991691 0.25755152 0.017645594 0.15219228 -0.18456279 -0.056836233 -0.12446953 -0.33094907 -0.05130653 0.1604159 -0.056645546 0.109409176 0.26432815 0.3133022 0.14342082 -0.058023583 -0.08883307 -0.09719097 -0.061211005 -0.44957715 -0.09393405 -0.1989352 -0.22387497 0.24680983 -0.23980486 0.14573763 0.23824823 -0.491191 -0.39318544 0.49631009 0.21395299 -0.020469291 0.16628803 0.18030326 0.19444112 0.17331399 -0.17743194 0.09285872 -0.05305432 -0.17068456 -0.018302131 -0.12401421 -0.06494585 0.26755458 0.20859388 0.107135676 -0.21788765 0.18580155 0.2816409 0.053582277 -0.22433414 0.3534051 0.08273199 0.20442005 -0.3787788 -0.14220895 -0.26417807 -0.28007537 0.060893547 0.1678038 -0.080891885
590 0.011776603 -0.13005783 0.047113784 -0.3064655 0.13695966 0.10594978 0.059464984 -0.31657952 -0.20590591 -0.2603039 -0.13050117 0.23298787 0.14113285 0.022189181 0.22420733 0.49899936 0.0516685 0.16789298 -0.36470222 -0.275955 0.1911691 0.23192246 -0.12242405 -0.030896991 0.16747865 -0.37654746 -0.2112586 0.15065552 0.30685186 0.3561612 -0.014983862 -0.3101567 -0.14117838 -0.1727754 0.008457512 0.1308789 -0.0892468 0.20180629 -0.010090718 -0.2595298 0.43067127 -0.06555658 0.17869587 -0.13651903 -0.07694815 -0.16549012 -0.24566196 -0.06274104 0.18557759 -0.05873816 0.0056788004 0.30342102 0.22450814 0.15037689 -0.12229953 -0.09079221 -0.25127935 0.1794386 -0.2826698 0.012998998 -0.16747156 -0.17103297 0.1616913 -0.24347651 0.15570053 0.42001173 -0.46791717 -0.432971 0.48843727 0.3915286 0.005237688 0.003504388 0.029394083 0.14533024 0.063098565 -0.20901741 0.097457655 0.00553509 -0.19241357 0.1672758 -0.22624077 -0.07920223 0.3508733 0.1351947 0.08656563 0.030404588 0.40313727 0.17452742 -0.08386189 -0.3169674 0.4040691 -0.051293314 0.038335275 0.017900217 0.08305389 -0.03070355 -0.29218203 0.09073131 0.522111 0.33106458
1654 0.018106092 -0.27173778 -0.0330717 -0.123865075 0.258004 -0.041241277 -0.57453614 0.30634302 -0.1958297 0.3314081 -0.20697081 0.156947 -0.14531241 -0.16340089 0.0023128516 -0.16318245 0.16125904 -0.054713715 -0.2442378 -0.33559382 0.0017578296 -0.01417232 -0.3359575 0.0046180007 0.11934075 -0.35483685 -0.42729607 0.19659647 0.26301235 0.16836195 0.02110805 -0.28678513 -0.030610625 -0.21469948 0.012605266 0.03532405 -0.2474174 -0.20451996 0.023181228 -0.19025859 0.23731448 0.23759632 -0.053008873 0.01529536 0.025706476 0.04487576 -0.007883283 -0.1892746 0.032086924 -0.14862983 -0.10821514 0.32481626 0.26801866 0.26978567 0.20260346 -0.077664524 -0.20373024 0.23566835 -0.29896986 -0.07631039 -0.62191993 0.028432323 0.11364249 -0.21592346 0.06488544 0.38576502 -0.6555077 -0.29764566 0.22838838 -0.0055837785 -0.28415078 -0.2904297 0.27295303 0.4186374 -0.04635038 -0.09367293 0.18491477 -0.25912696 -0.20481125 0.018099254 -0.34517393 0.032279823 0.41678417 0.027141094 0.4846384 -0.59566015 0.09916642 0.64577866 -0.12373373 -0.09128564 0.2286404 0.13681237 0.2771943 0.25629508 -0.13636708 -0.26686597 -0.12046298 -0.30595827 0.27162656 0.017954683
1299 0.028872997 0.14372453 -0.14449404 -0.07035364 0.037304934 0.14471984 0.14319156 -0.031148843 0.013729377 0.09841269 0.07716941 -0.13633016 -0.03252889 -0.03336595 -0.0012880269 0.080490634 0.16324142 -0.43410063 -0.1528973 -0.48252982 0.0072913095 0.04937869 -0.5280143 -0.11404365 -0.016305838 -0.08361202 0.05317809 -0.053249624 0.16910863 -0.075071074 -0.14502162 -0.14458026 -0.032796662 -0.07578344 0.047052175 0.2232307 0.1115365 0.10310976 0.1912645 -0.07981284 0.15061696 0.14466636 -0.16677153 -0.16503476 0.05044342 -0.14607759 -0.26104838 0.010957219 0.13229704 0.24840893 -0.16764528 -0.0363782 -0.0016989157 -0.10470128 0.098536715 -0.19554669 -0.15933007 -0.19019206 -0.23491624 -0.0061042216 -0.21710868 -0.0717954 -0.3845764 -0.25844356 0.08603411 0.16282518 -0.19345178 -0.11390584 -0.07587269 -0.26459822 0.04331405 -0.044906255 -0.070633136 -0.07172563 0.0016721281 -0.1390437 -0.19988863 -0.23874012 -0.15793137 -0.16800301 -0.07780474 0.018374471 -0.08193218 -0.040208787 0.21305695 -0.29671404 -0.07158367 0.076913685 -0.134917 -0.010081079 0.36733922 0.06244377 0.18343809 -0.08103271 0.067735925 -0.08162426 0.0022554973 -0.020940585 0.2125922 0.12319221
594 0.14490229 -0.040954787 -0.24146666 -0.18501706 0.089301884 0.050374683 0.25557727 -0.40337226 0.13149442 -0.11688785 -0.09601223 -0.062401917 0.04996001 -0.20428601 0.263882 0.43198013 0.1561188 -0.114358574 -0.22801222 -0.5122659 0.16120242 0.14999062 -0.26838592 0.045850776 0.036675934 -0.32876593 0.026515882 0.1497341 0.41619423 0.045935787 -0.14017929 -0.18029223 0.029275935 -0.056821357 -0.07914735 -0.02189413 0.16403691 -0.006513115 -0.07521341 -0.05718309 0.32281324 0.08895429 -0.11661355 -0.051339332 -0.26136616 -0.099671036 -0.0044869236 -0.10364258 0.12969705 -0.012270586 0.13870272 0.2577595 0.27901772 0.08897832 0.039791718 -0.13396041 -0.10619498 0.18388082 -0.08449364 -0.06732993 -0.18027185 -0.119520485 0.053827588 -0.27402395 0.081818454 0.3222245 -0.34774208 -0.04594862 0.21605457 0.15502283 -0.072545625 -0.10819932 -0.05055148 0.26729512 0.015161699 -0.06957072 -0.118018545 -0.09517525 -0.1811962 -0.0720827 -0.078784324 0.07296595 0.17733495 0.06040435 0.1804622 -0.15678172 0.19753076 0.16278617 -0.041237485 -0.10786915 0.06092039 0.034464404 0.04908716 -0.017530227 0.01931046 -0.24395804 -0.051962767 -0.01650047 0.029269148 -0.0057699094
1128 0.13838767 -0.051985424 -0.09532042 0.099834375 0.1428158 -0.04751321 0.0015762337 -0.032299273 0.0012325031 -0.058391195 -0.018238371 -0.21992622 -0.07287798 -0.14102723 -0.09042491 0.20203274 0.10163426 -0.28787333 -0.11973458 -0.59722084 0.032765694 0.08276621 -0.45008153 -0.033808887 0.12811504 -0.3573927 0.12908238 -0.040755335 0.17183697 0.013788904 -0.15261614 0.04072015 0.031614605 0.0035394914 0.076842435 0.14445265 0.26591623 -0.093914784 0.31091642 0.028961575 0.18375571 -0.04668819 0.06580577 -0.16613026 0.042438947 0.008001486 -0.20717587 0.029450841 0.031143557 0.026642734 -0.08698522 -0.07930353 -0.053840693 0.037011042 -0.08967833 -0.120512255 -0.054774832 -0.062479604 -0.25005934 0.1498393 -0.10106073 -0.095304474 -0.31324488 -0.24330898 0.007974641 0.15938687 -0.22925553 -0.13769183 0.10494988 0.00850925 -0.014737714 -0.15330422 -0.05737794 -0.0055217305 0.12733148 -0.140817 -0.0016918033 -0.1734584 -0.0607146 -0.21390007 -0.05823994 -0.12426731 -0.031237118 0.16507706 0.22853856 -0.28727037 -0.074207045 0.1286954 -0.04332002 -0.0789279 0.13151824 0.031492878 0.11899137 -0.16534801 0.13931732 -0.19180204 -0.1233251 -0.01912155 0.29723787 0.13721102
1658 0.21858336 -0.14269231 -0.066010356 -0.22688718 0.13505289 0.07147338 0.14436917 -0.2569851 -0.11402145 -0.35743603 -0.12577239 -0.026123526 0.14687635 -0.16595024 0.103010036 0.48578033 0.18020381 0.13471863 -0.44294953 -0.3479206 0.020517731 0.2095471 -0.35334003 -0.11547733 0.053706452 -0.35443342 -0.13829081 0.08688488 0.24826369 0.33358893 0.105083406 -0.31490117 -0.04267179 -0.26106137 0.009515036 -0.095690355 -0.0902052 0.05665661 0.02010077 -0.26917306 0.35259336 0.02379488 0.0853697 -0.006800353 -0.05182688 -0.07927669 -0.1062868 0.009816848 -0.004090207 -0.02260052 -0.011387154 0.10283868 0.1848962 0.1641718 -0.06420429 -0.109723225 -0.26754066 0.0051507642 -0.2697293 0.150698 -0.08714722 -0.21183948 0.12676984 -0.33397645 -0.043611526 0.22359382 -0.35987762 -0.3843551 0.39859208 0.16756576 0.023226783 0.027263349 0.032744117 0.24178109 0.0050346316 -0.22319998 0.030187923 0.11865464 -0.3538257 0.13447529 -0.11968252 -0.018533157 0.18828401 0.039638635 0.21426961 -0.009574024 0.2564312 -0.02592851 0.03814884 -0.24802421 0.35005325 0.08588204 0.09900887 0.0099861715 0.023421695 -0.29990605 -0.049672198 0.12658341 0.41219705 0.19312651
1659 0.2232548 -0.112130694 -0.17238788 0.03850599 0.078996316 0.03245801 0.12637332 -0.37154135 -0.11662564 -0.21266575 -0.0903493 -0.11153117 0.05371619 -0.16191456 0.06291949 0.16412783 0.102207415 0.10373102 -0.21893556 -0.10685093 0.027673304 0.21247342 -0.38506415 0.10393766 0.05865657 -0.19819248 -0.054673348 0.16897444 0.08359358 -0.019100128 -0.007541592 -0.027615624 -0.24889298 -0.1275855 -0.015033314 0.2845158 -0.034589563 -0.06280754 0.015808024 -0.21871866 0.115409024 0.15571643 -0.07189698 -0.011906158 0.02935682 0.11399419 -0.2604137 -0.010434617 0.16699272 0.06979438 -0.08194012 0.1335984 0.098821476 -0.08298858 -0.057883546 -0.23699045 -0.04044425 0.0014683194 -0.07845892 0.0190736 0.010306463 -0.14039 -0.017015468 -0.24591129 0.14230399 0.08307941 -0.057541013 -0.2559012 0.09681368 -0.048746023 0.028108535 0.14052954 0.14370994 0.17897438 0.09564168 -0.20145923 0.06399806 -0.033234976 -0.26022893 -0.1193977 -0.07439269 -0.08502753 -0.001052999 -0.022080423 0.38171923 -0.3195692 -0.0073512592 0.16887927 -0.10385051 -0.061147362 0.17053765 0.08535214 0.23996426 -0.20787305 -0.077287525 -0.18606105 -0.03931023 0.2872991 0.33615294 0.0114694
597 0.10065201 -0.20368837 0.06510333 -0.08898595 0.22229137 0.08353351 -0.09630672 -0.073020935 -0.19758993 -0.1493002 -0.12436834 0.17530723 0.065279506 -0.007813907 0.11245117 0.4395888 0.13393277 0.20463014 -0.39618114 -0.0858233 0.15815389 0.1698765 -0.2402766 0.06872819 0.16858679 -0.37055466 -0.08153917 0.14799258 0.17066893 0.31126732 0.04669955 -0.07893047 -0.24002181 -0.18569048 0.10702519 0.19858511 0.1496655 0.074212454 0.07874222 -0.34887218 0.020216146 0.0055756466 0.17680787 -0.07649892 -0.0130447745 -0.050316244 -0.41387105 -0.062350627 0.077380866 0.03354466 0.058012616 0.2165069 0.2341179 0.16395518 0.029747555 -0.029364716 -0.10650281 0.06327768 -0.38747767 -0.04648252 -0.18608388 -0.15586103 0.22304127 -0.27405477 0.070181414 0.19923243 -0.4673477 -0.33053732 0.42767075 0.12773877 0.09924906 0.073657826 0.16429457 0.22022524 0.27248013 -0.23418991 0.088011086 0.037026286 -0.10612394 -0.05607759 -0.10967271 -0.24268718 0.17361574 0.042243175 0.2320619 -0.22994523 0.09776901 0.29754755 -0.077079676 -0.24330519 0.37269393 0.0033237461 0.17492093 -0.20154971 -0.20126289 -0.114903964 -0.18868758 0.06727658 0.24364322 0.034658197
1662 0.050087787 -0.12741517 0.09987558 -0.032964554 0.09856309 0.04137689 0.032099444 -0.08680797 -0.11023702 0.009066721 -0.08086477 0.09569847 -0.057182226 -0.22588617 0.08071435 0.21402799 0.14476824 -0.1682262 -0.19726644 -0.4296537 0.19242257 0.21501869 -0.30780193 -0.056428477 0.1147443 -0.29110718 -0.023982348 0.07447752 0.32851246 0.20532261 -0.16904734 -0.20626192 -0.12258834 -0.10529495 0.07786796 -0.062449325 0.2619964 0.04664901 0.09288455 -0.20395648 0.26500112 0.061070014 -0.10495636 -0.06822917 -0.18498021 -0.041669086 -0.05053888 -0.076538645 0.13768506 0.042415816 -0.020697143 0.17621711 0.2580421 0.13210884 0.03813833 -0.15811384 -0.13379723 0.024286918 -0.13749096 0.03238009 -0.24157827 -0.14373799 0.17657243 -0.28279674 0.07775112 0.22585952 -0.45247972 -0.16796584 0.3028931 0.14045538 -0.014670877 0.027982917 0.06331969 0.24585792 0.16324401 -0.13065556 -0.022700151 -0.075221375 -0.1846 -0.023330094 -0.048968077 -0.1484877 0.16150825 0.04862224 0.1282496 -0.16688052 0.13325281 0.29271534 -0.022237439 -0.15626757 0.35970527 0.06023628 0.06831688 -0.1651192 -0.057820085 -0.19166094 -0.12322887 -0.2426599 0.19955786 0.07130483
267 0.2708895 -0.027221635 -0.07057796 -0.15653737 0.16595905 0.16442125 0.283083 -0.34828416 -0.0364081 -0.03516465 -0.047340542 -0.015656278 0.032600027 -0.0063450313 0.056391142 0.1718872 0.13992175 0.114030026 -0.25710353 -0.10527285 0.031830505 0.013274129 -0.25101286 -0.01071131 0.13592298 -0.13762812 -0.06767469 -0.07148669 0.19358775 0.14500919 -0.040442217 -0.20017041 -0.00036556818 -0.19291714 -0.053850543 -0.096104644 0.16667405 -0.089238174 0.034530208 -0.057477694 0.1424133 0.2367829 -0.22946768 -0.009330873 0.02990031 -0.10826651 -0.14546993 -0.21767648 0.12069534 0.00065951725 -0.0075143697 0.17332812 0.29624984 0.024143707 0.25207418 -0.3203644 0.017718075 -0.22017354 -0.18463449 0.19571203 -0.06090868 -0.17174333 0.19469464 -0.34220058 0.12749368 0.14459176 -0.37475747 -0.232861 0.4378218 0.09474201 0.060815603 -0.01701957 0.10430402 0.2814561 0.24122526 -0.010879227 0.1512946 -0.09976355 0.029103108 -0.038126744 0.003396774 -0.031417057 0.14823954 -0.050437756 0.29711416 -0.4011925 0.14910871 0.28177258 0.040738557 -0.06785677 0.3011989 0.2581574 0.1805104 -0.04607703 -0.112898596 -0.101060025 -0.23381726 -0.14959797 0.2766021 0.039926197
1666 0.21130852 -0.15702116 -0.07423993 -0.26303497 0.16842078 0.14272954 0.1564686 -0.2922568 0.12399306 -0.2724615 -0.15512367 0.11593337 0.006645626 0.10762115 0.34892276 0.502673 0.23688897 0.21002239 -0.31488934 -0.26894328 0.34341535 0.23743726 -0.16768318 -0.03736769 0.121981524 -0.54255915 -0.13954209 0.24194668 0.26897866 0.24374446 0.023438742 -0.19104916 -0.12204237 -0.19534631 -0.056615353 0.017344402 0.007418506 -0.00228248 -0.0234716 -0.25387985 0.07857879 0.022503598 0.043209773 0.045892287 -0.16063806 -0.13978022 -0.19237119 0.022416918 0.28141835 -0.025949234 0.24147029 0.11517724 0.33298993 0.015354745 -0.050760966 -0.034856644 -0.041208833 0.07418832 -0.16774648 0.05920834 -0.15848765 -0.1403888 0.3087582 -0.19658163 0.13836464 0.11640542 -0.34645882 -0.0808822 0.3983144 0.23821354 0.02264845 0.054763857 0.037381493 0.09933177 0.07126876 -0.3432117 -0.044341404 0.071199924 -0.17574038 0.060589407 -0.015666304 -0.21347277 0.19242653 0.0049778693 0.11076277 -0.08168482 0.22615875 0.1967462 -0.005831117 -0.1577652 0.07875364 -0.05330177 0.048848007 -0.17669494 -0.024596201 -0.13924827 -0.1999201 -0.119332224 0.5834145 0.10964849
1671 0.062634274 0.019397048 -0.19648966 -0.16443925 -0.13488655 0.0035761562 0.22196497 -0.12272538 0.033611305 -0.1102318 0.023627931 -0.022924786 -0.042320132 -0.018461866 0.14678869 0.100274056 0.17075503 -0.21339552 -0.11493321 -0.53156996 0.018042456 0.13013318 -0.48932755 0.03834811 -0.16909207 -0.25670835 0.053145096 0.19018537 0.13944316 0.01888078 -0.1587253 -0.10083071 -0.2682266 -0.17427836 -0.031483576 0.29400665 0.018684985 0.15952696 0.25661093 -0.2109658 0.21805681 0.20893776 -0.0696573 -0.06748237 -0.030581465 -0.12984398 -0.13849889 0.1004116 0.1171126 0.1393399 -0.050398342 -0.10760321 -0.0016915008 -0.067358024 -0.14111623 0.05156432 -0.10737599 -0.067003906 -0.026495153 0.060589835 -0.28222263 -0.15900609 -0.14259823 -0.38623956 0.21665236 0.19091915 -0.22955312 -0.0801562 -0.06774708 -0.04640082 -0.029809125 0.055932336 -0.13094023 -0.0067972974 -0.010507551 -0.21983825 -0.18790494 -0.1765726 -0.10076186 -0.08593414 -0.12937188 -0.07691069 -0.0219827 -0.068249404 0.23355652 -0.3323321 0.03102702 0.07996776 -0.17713617 -0.025878923 0.31740466 0.0068688802 0.04695762 0.08793121 0.07499489 -0.12718864 -0.04263496 0.06426334 0.20310463 -0.16896369
1672 0.035562098 -0.15844491 0.009335137 -0.15590839 0.048206523 0.04177787 0.087746605 -0.17537393 -0.015799036 -0.2993097 -0.14917678 0.14776085 -0.04777023 -0.08251839 0.0976979 0.38894287 0.07140893 -0.060144026 -0.2838646 -0.36653084 0.17458802 0.17953841 -0.36172324 -0.11693204 0.116358966 -0.47034386 -0.22071534 0.14065325 0.40011466 0.3568939 -0.20999622 -0.21898027 -0.12929101 -0.10246555 0.06797599 -0.014582007 0.18810473 -0.0019424001 -0.15897617 -0.10026059 0.18018837 -0.048781864 -0.059112668 -0.09693552 -0.10839626 -0.27392694 -0.13278888 0.1319515 0.09998046 -0.046364505 0.097015694 0.16936459 0.27770358 0.1711172 0.1587219 -0.14833665 -0.15425986 0.14019684 -0.25136688 0.063292995 -0.22543013 -0.104906455 0.1197638 -0.30729502 0.16524066 0.18783106 -0.48410863 -0.18590724 0.44318473 0.11602261 0.060699876 -0.05929634 -0.017020438 0.11538283 0.014301957 -0.3477515 0.07327832 0.018450538 -0.15869154 0.027065203 -0.15599364 -0.12902316 0.0738922 0.09725667 0.22319534 -0.11095265 0.19238965 0.1212865 0.07327243 -0.23842917 0.23177224 0.10024119 0.11829931 -0.06115416 -0.014671048 -0.18128824 -0.2486499 -0.124369 0.4757941 0.09010146
1141 0.09423258 -0.1528198 -0.15974829 -0.09373312 0.16963366 0.0732971 0.21693814 -0.21906756 -0.03953443 -0.20900494 0.06804408 0.18880801 -0.050439868 0.18768488 0.10928998 0.33169916 0.006940942 -0.08370189 -0.17923073 -0.6326387 0.149801 0.16701494 -0.2918319 -0.13749458 -0.048360735 -0.35149515 -0.063620254 -0.080922954 0.22630148 0.2566932 0.009496817 -0.0993234 -0.102725975 -0.21635535 0.18464749 0.084270425 0.02667302 0.15929124 0.09350855 -0.230387 0.2728448 -0.002572068 0.13842289 -0.07038676 0.09376065 -0.09656448 -0.20577045 0.014212111 0.16065012 -0.020489626 0.026422411 0.011298307 0.15702435 -0.0331995 -0.007520574 -0.15782537 -0.03430396 -0.06535164 -0.14324138 0.16180654 -0.045568116 -0.051006675 0.14032894 -0.107729584 0.16215268 0.23851061 -0.36092246 0.019923989 0.18236789 0.14839524 -0.024667107 -0.09252525 0.056162648 -0.036746033 -0.023956237 -0.02413752 0.12804367 0.057971664 -0.06499069 0.15150423 -0.08041271 -0.023499444 0.15889934 0.1118201 0.037491377 -0.06314881 0.06598629 0.07818317 -0.08194737 -0.108539514 0.26979727 -0.057257388 0.020752558 -0.119622715 0.023090873 -0.06396801 -0.20928374 -0.08532382 0.4566717 0.2942572
1143 0.1717399 -0.08571936 0.089950144 -0.10005557 0.11515643 -0.010940287 -0.12445911 -0.08377641 -0.12431062 -0.24628194 -0.0853058 -0.06201637 0.0062541654 -0.12122087 -0.10381604 0.28513098 0.1409155 0.07610411 -0.24626483 -0.0059529752 -0.17218602 0.17308898 -0.20950106 0.018595027 0.12948418 -0.20416042 -0.0547335 0.17487133 -0.038311884 0.23574717 -0.017306207 -0.11977348 -0.27437106 -0.24492015 0.15988968 0.08555208 0.03703694 0.064813666 0.09956717 -0.22692971 0.15900137 0.08670453 0.05995788 -0.060997017 0.12833121 -0.10915606 -0.29222333 0.13336088 0.07563012 0.044693388 -0.055833478 0.1992183 0.08491146 0.13694216 0.020521132 -0.08432718 -0.19977942 -0.020073159 -0.21693365 0.12845016 -0.048361946 -0.22344688 -0.070696756 -0.38782203 0.20363556 0.25343457 -0.3641181 -0.41619092 0.37486786 -0.079154044 0.024772922 0.08682097 0.20192826 0.11292033 0.25410426 -0.26112217 0.10510488 -0.055321608 -0.19605719 -0.12349863 -0.106380574 -0.11144064 -0.032704365 0.15703323 0.3306644 -0.15482613 0.12032619 0.06940228 0.0073027136 -0.23881975 0.45654064 0.18111092 0.2416184 -0.00926716 0.018100312 -0.28458276 -0.23627256 0.13235047 0.5351295 0.31855625
1419 -0.019715771 -0.17614445 -0.038962595 -0.2904914 0.22637294 0.09728878 -0.17881101 -0.1777106 0.012391695 -0.15863334 0.05006831 0.11156382 0.011665246 0.028994288 0.21342856 0.34300655 0.03909529 0.1733792 -0.26999056 -0.14045765 0.15619658 0.08220592 0.027117966 0.09787836 0.177672 -0.3553525 -0.06604202 -0.004062989 0.21767797 0.20100552 0.14906362 -0.113185 -0.22201009 -0.14771807 0.16010135 0.13285741 -0.021431698 0.15938006 0.031622034 -0.24080947 0.22078617 -0.07835891 0.15927403 -0.13121738 -0.03231706 -0.11619325 -0.18684842 -0.011367412 0.16982387 0.00882696 0.19687043 0.18550982 0.16412494 0.046255536 -0.033732526 -0.10453155 -0.108231105 0.10714076 -0.42107102 -0.090511434 -0.19055997 -0.10919361 0.11700869 -0.06245394 0.15648527 0.30564433 -0.47155532 -0.25216794 0.49907565 0.3434198 -0.099271886 -0.086563125 0.27834067 0.036407817 0.13997765 -0.26863188 0.13461676 0.06967174 -0.20573404 -0.10810869 -0.10439469 -0.07588257 0.13948968 0.25779724 0.19815211 -0.15889817 0.1757964 0.33554354 -0.11954122 -0.2084403 0.13449109 -0.03300197 0.07877925 -0.13209909 -0.06142222 -0.14507398 -0.23849499 -0.04644531 0.2235536 0.024915896
1678 0.07249594 -0.26124173 -0.0043174466 -0.17164283 0.0073069446 0.0979089 0.25434068 -0.33921388 0.04947571 -0.27187768 -0.14076063 -0.08028333 0.10666831 -0.09843368 -0.020619297 0.44016486 0.079475686 -0.073269024 -0.31767446 -0.38629362 -0.07594347 0.1710203 -0.31681007 -0.020255534 0.07389744 -0.31409326 -0.031679917 -0.116968825 0.102232434 0.10427252 -0.027935684 -0.21431404 -0.16564699 -0.28844208 -0.06507926 -0.06401612 0.03822656 -0.035379164 0.035342567 -0.12049583 0.26018834 -0.050601404 0.02589385 -0.06144429 -0.057069935 -0.10500713 -0.07861599 -0.04841582 0.1199302 0.023984358 -0.019070657 0.042735413 0.20489655 -0.058227863 -0.19404657 -0.08339895 -0.2139009 -0.03394141 -0.28955606 0.2133622 -0.031601023 -0.12897544 0.010614508 -0.26631576 0.006909372 0.117865875 -0.03768897 -0.24518599 0.32326782 0.20079185 -0.04649989 -0.0537702 0.05231983 0.042501703 0.04436163 -0.1334163 0.09558941 -0.044338785 -0.21477975 0.0818824 0.013088356 -0.11456066 0.057609797 0.18750788 -0.04084958 -0.09882012 0.087713085 0.1848441 -0.008289704 -0.2630328 0.18549891 0.073874354 0.10381331 0.11122473 -0.014750577 0.03499832 -0.14311653 0.09331503 0.47387457 0.41304514
608 0.13746563 0.25271377 -0.15717912 -0.09252731 0.070861936 0.057660054 0.20151682 -0.06991446 -0.030020647 -0.056552682 0.19087967 0.10539028 0.023915702 -0.031689905 -0.0015213684 0.21738519 0.025572017 -0.21810319 -0.2547587 -0.29681247 0.14045559 0.13419424 -0.37764877 -0.13329217 0.032959692 -0.19486497 -0.056110222 -0.043924097 0.18749633 0.12721984 -0.12511663 -0.13662194 -0.07016178 -0.14691581 0.09922 0.12143949 0.17990981 0.18798631 0.22177352 -0.037507035 0.06916986 0.24638703 -0.029541297 -0.19573022 0.024879199 -0.112579025 -0.2274652 0.18086934 0.05631674 0.06985406 -0.03798286 -0.10763248 -0.13292378 -0.034925427 0.16779445 -0.06003482 -0.07707666 -0.18315244 -0.0011324275 -0.052877616 -0.18651067 -0.03190998 -0.1049302 -0.25491887 0.11290616 0.16141766 -0.31421056 -0.09351749 0.03858521 -0.0917931 0.05627369 0.043776 -0.12595469 0.1341049 0.02268359 -0.17819199 -0.17860873 -0.22282441 -0.09275278 -0.18256837 -0.06753291 0.06855382 -0.1323026 0.05881348 0.23624253 -0.3652616 -0.104109906 -0.04446899 -0.05522907 -0.05069105 0.47839352 0.16218892 0.22264348 -0.29796675 -0.047023617 -0.2062088 -0.20541616 -0.109241806 0.34585902 0.033584755
610 0.07070191 -0.012915811 -0.24116555 0.006879118 0.074153855 -0.05539015 0.13170433 -0.15391438 0.1174727 -0.23417693 0.0017117994 -0.024592014 0.03339831 0.004527591 -0.012599958 0.19075288 0.089987196 -0.2026864 -0.27184346 -0.6853595 -0.0531397 0.1730462 -0.39263266 0.03798005 -0.09294909 -0.25021732 -0.07540468 -0.00694722 0.12532645 -0.0038565386 0.00037848254 -0.033414427 -0.13619776 -0.111248955 -0.008353239 0.16645093 -0.066693716 0.017439347 0.042199478 -0.14369184 0.0073728967 -0.022479676 0.059383497 -0.05597435 0.06990063 0.0636242 -0.14146245 -0.07853634 0.0045135673 0.10394358 -0.038515788 -0.077197865 0.018837262 -0.07292332 -0.118714914 -0.020503396 0.067740306 -0.010705181 -0.24441567 -0.047717694 -0.030760938 -0.036119707 -0.16528963 -0.067051046 0.00264521 0.264166 -0.12718317 0.06107528 0.083552204 0.021847108 0.026822548 0.03515811 0.057661492 -0.028195692 -0.06139564 -0.2529865 0.024209935 -0.009947659 -0.07418466 -0.15684119 -0.08652108 0.004208254 -0.22706422 -0.022362588 0.13967338 -0.2997778 -0.090820014 0.06735436 -0.080641806 0.022091027 0.11424113 0.03452076 0.16079292 -0.057226412 -0.22599018 -0.07865222 -0.07672156 0.083137594 0.25585517 0.15390241
1146 0.08836049 0.06324038 -0.25134373 -0.0652663 0.018458646 0.045361534 0.35838506 -0.19991456 0.054627042 -0.15595758 -0.04054468 -0.024628844 -0.027951084 0.078539796 -0.07142932 0.22625466 0.067579865 -0.28858423 -0.14039882 -0.5835213 -0.0041991137 0.06766904 -0.4567038 -0.07877142 -0.050723836 -0.10882 0.0130755305 -0.1112492 0.34918195 0.10853325 -0.18473448 -0.16690178 0.038842082 -0.20767179 -0.05509128 0.17525458 0.21627045 0.24818523 0.092834026 0.013867957 0.23379022 0.16048096 -0.017459737 -0.16102086 0.06479984 -0.20978323 -0.004383672 -0.023312634 0.12440535 0.10635883 -0.15914045 -0.06113173 0.12209571 -0.13088737 -0.035210527 -0.121221125 -0.19394517 -0.14300473 -0.08916498 0.077941366 -0.15113768 -0.109415226 -0.081116654 -0.26729026 -0.0049142856 0.16838394 -0.22691344 0.022095576 0.0119329635 0.054607775 0.09012563 -0.116304085 -0.22522761 0.046956915 -0.06631398 0.09324089 -0.23559347 -0.2377425 -0.08992715 -0.06937978 -0.21774903 0.07723376 0.028503802 -0.0626698 0.164241 -0.2004807 0.0816704 -0.08869008 -0.049194608 -0.055070844 0.3160575 0.13534251 0.21790491 -0.16554908 0.017921684 -0.07765011 -0.012434157 0.086444 0.17422467 0.1404558
2126 0.21018119 -0.1674709 0.036033694 -0.18851839 0.14415038 0.051480018 0.052721787 -0.3910705 -0.048915844 -0.35367855 -0.20215487 0.20272003 0.06289726 0.062491592 0.30095053 0.4174097 0.11219658 0.22289616 -0.36434123 -0.2061165 0.28320226 0.28879416 -0.12621914 -0.09033514 0.10243425 -0.4755183 -0.2655479 0.3116535 0.30934522 0.25794795 -0.03838384 -0.26086116 -0.27682924 -0.13288634 -0.053746358 0.10833698 0.04586514 0.03821198 -0.039430525 -0.28756338 0.19194184 -0.018963601 0.11148656 0.024029167 -0.07981278 -0.14398502 -0.23231037 0.011069412 0.20201448 -2.8221573e-05 0.08976996 0.27500525 0.27097434 0.12043405 -0.06476066 -0.07168864 -0.08305602 0.046916638 -0.25297266 0.00036607694 -0.20006578 -0.1358338 0.27781895 -0.2772791 0.18646461 0.29056492 -0.47117057 -0.21086453 0.34936252 0.20545335 0.07493722 0.1407089 0.03836615 0.21854644 0.16628818 -0.33692175 -0.012600122 0.023669217 -0.09040055 0.010931599 -0.12755856 -0.07616989 0.21650256 0.04630262 0.14626159 0.03828466 0.16908197 0.20875987 -0.0017356757 -0.14466766 0.13010561 -0.0117050065 0.055567924 -0.1557616 -0.06311917 -0.18873659 -0.23828611 -0.06776681 0.4550793 0.18272091
53 -0.12313301 -0.07706257 -0.08876364 -0.098980956 -0.024836035 -0.025138456 0.12957233 -0.075253285 -0.08528234 -0.03262727 0.0066895583 -0.014286842 0.088600844 -0.047837198 -0.1132037 0.06451072 0.08088238 -0.36965498 -0.1993489 -0.58458096 0.016520757 0.22043522 -0.28452218 -0.21011797 0.017563915 -0.1904453 -0.07751441 -0.0434715 0.35980606 -0.032280695 -0.054836392 -0.2574837 -0.18314585 -0.23239943 -0.021413866 0.31515145 -0.02425347 -0.040098406 0.1770022 -0.14072512 0.2565405 -0.13274202 0.038724884 -0.08727068 -0.14164448 -0.13182858 -0.05905204 -0.06422498 0.24248198 0.02161578 -0.13675837 0.04318686 -0.07101248 -0.24387445 -0.072316356 -0.07225437 -0.31658146 0.14366622 -0.15006995 0.06016694 -0.17783777 -0.0042991927 -0.06509257 -0.20752707 -0.23093788 0.15249379 -0.044226862 0.03324996 -0.019607343 -0.012910557 -0.1100513 -0.13365018 -0.14424978 -0.028048214 -0.17900658 -0.16157669 -0.2267663 -0.028036645 -0.3484193 -0.036839597 -0.09161423 -0.028329225 -0.096562915 0.10939832 0.24751532 -0.16781396 0.15484457 -0.055274203 -0.31244543 -0.06726653 0.21239637 -0.01799217 0.1555562 0.0032318844 0.18067424 -0.08223892 -0.024198938 0.03364208 0.12830576 0.31565285
1151 -0.02603991 -0.388035 0.15817523 -0.16503122 0.25681457 0.07282811 0.08099672 -0.24281552 -0.039882004 -0.13057294 -0.07335711 0.20179678 -0.08249208 -0.0580646 0.1307641 0.28088695 0.053981364 0.22364348 -0.33965078 0.10406066 0.15589653 0.15685846 -0.023806535 0.17812125 0.32978082 -0.5692532 -0.111699186 0.20969486 0.28716156 0.33315402 0.074219294 -0.022778967 -0.3215115 -0.17843902 0.009175403 0.1384658 0.2598725 -0.0050144526 0.22651534 -0.2656129 -0.0063951593 -0.08333284 0.095213175 -0.05097933 -0.17083886 -0.07724533 -0.18021445 -0.028967408 0.26775497 -0.040875927 0.14828138 0.18704204 0.32714325 -0.010740378 0.09566079 0.0017765738 -0.0481997 0.12190232 -0.3972737 0.016306954 -0.14237288 -0.112308234 0.3166189 -0.14694296 0.14638853 0.22650978 -0.49481505 -0.13945708 0.6571991 0.4621194 0.050687976 0.07560612 0.106871456 0.2725512 0.15168671 -0.30057946 0.012577235 -0.04295564 -0.1401032 -0.091658935 0.055210523 -0.27737382 0.12829071 0.26831967 0.2071135 -0.15645349 0.15627827 0.3482638 -0.029045895 -0.19045465 0.0461575 -0.0052060634 0.23067002 -0.3761881 -0.21232958 -0.02490187 -0.44040206 -0.14819007 0.4054993 0.10875433
1686 0.10549002 -0.08007206 -0.056706555 -0.19464734 0.0046606916 0.09198681 0.18648325 -0.16009809 -0.13628823 -0.21530885 -0.15361388 -0.08175929 0.004641631 -0.016165167 0.25572926 0.17056933 0.18318255 0.13564812 -0.04413736 -0.26826674 0.057540778 0.079376675 -0.35343254 -0.073547855 0.07233805 -0.2874142 0.02559878 0.21685325 0.15200387 0.16014801 -0.12923695 -0.18151778 -0.10483169 -0.18054232 -0.10561553 0.05778368 -0.062458575 0.0074670697 0.13179484 -0.29516262 0.3500981 0.026135558 -0.045169678 0.015573054 0.015218339 -0.20288782 -0.14111152 -0.046068363 0.2517215 -0.025406985 0.060748238 -0.106252246 0.2458791 0.004575291 -0.073036104 -0.12932235 -0.051238257 0.021004334 -0.16309267 0.06783504 -0.07607809 -0.17182006 0.09956096 -0.2018812 0.15218922 0.19743992 -0.3126357 -0.17653896 0.31328896 0.08340592 0.19100548 0.037779037 0.013151135 0.108685985 -0.026544759 -0.29326552 -0.10066451 0.08559428 -0.21035995 -0.020061698 -0.14054273 -0.11171046 0.03511547 -0.2681759 0.31309095 -0.20658147 0.29611427 0.09567741 -0.0073190634 -0.048122868 0.2344796 0.057685565 0.078031115 -0.05208759 0.043550957 -0.17186925 0.035466015 0.079341225 0.25176045 -0.025305673
1734 0.15347937 0.016473332 -0.19472343 -0.13658789 0.32494152 0.18691549 0.3384903 -0.31846184 0.1325089 -0.13499473 0.3272174 -0.079523005 -0.05848935 0.08762264 -0.09846785 0.13828465 0.018745331 -0.23481862 0.16001736 -0.48260555 0.087294884 0.10422776 -0.34782618 -0.122897975 0.101290494 -0.017421475 0.011462806 -0.20115778 0.23361182 0.08758294 0.06760291 -0.08706184 -0.11571057 -0.1241499 0.18746911 0.22855188 0.21921396 -0.12028069 0.28064328 0.08130827 0.11247151 0.14453416 -0.049676646 0.010614944 0.21666649 -0.16339502 -0.10074135 0.06384542 0.23614626 0.1631833 -0.068433344 -0.21890011 -0.065753244 -0.28616062 0.07918739 -0.103331394 0.09739036 -0.277478 -0.05063137 0.14474724 -0.10049677 -0.006890036 -0.020660767 -0.08270047 0.21702144 0.06766235 -0.20686129 0.1620239 -0.14665572 -0.10172519 0.1979469 -0.03163004 -0.06614428 0.05494558 0.07182737 -0.08970335 -0.15458077 0.00095340534 0.020312563 -0.19500683 -0.11198552 -0.15282941 -0.14341772 -0.16251008 0.3201456 -0.18077096 -0.008439548 0.22118647 -0.099386156 0.24590985 0.17449515 0.2018997 0.17657292 -0.3122745 0.10439972 -0.12582472 -0.03960043 -0.19391978 0.3856078 0.10094195
1155 0.04900673 -0.1849662 0.003939911 -0.1942388 0.14469615 0.06968573 0.1512544 -0.26163775 0.058715865 -0.23723558 -0.20218188 0.031160884 0.0048414576 -0.07424912 0.12599531 0.3181385 0.111709654 -0.07904292 -0.24380483 -0.26104575 0.16267987 0.21376085 -0.3794437 -0.025614707 0.0690117 -0.33754778 -0.14087261 0.20537129 0.31153873 0.14965159 -0.07544483 -0.20036447 -0.16526239 -0.04326709 -0.061267912 0.083593875 0.1261056 -0.06093885 0.069308534 -0.1730502 0.26367632 0.012937913 -0.025290439 -0.025750162 -0.088528804 -0.19712172 -0.20775816 0.012318256 0.12307688 0.02706848 0.039195284 0.22400162 0.25369367 0.07336825 0.023595473 -0.07558003 -0.18769103 0.10235504 -0.22296973 0.014493839 -0.29321906 -0.15585355 0.05963649 -0.30937946 0.052753247 0.2053425 -0.25802326 -0.16114804 0.26556766 0.1305058 -0.009452004 0.061980236 -0.04802713 0.12686074 0.04544874 -0.23988196 -0.07953612 -0.07288396 -0.32451627 -0.0022074056 -0.23201446 -0.16516882 0.08548534 0.22369783 0.2495005 -0.12149377 0.10910047 0.26296818 -0.010469976 -0.1728128 0.19519432 -0.025026942 0.11057237 -0.021049911 0.02693413 -0.10915971 -0.052764058 0.014431252 0.050472043 0.025422882
616 0.10383215 -0.2690513 0.061018348 -0.3776183 0.20789936 0.12640937 0.0379829 -0.36690268 -0.11728044 -0.19142368 -0.10439152 0.12666152 0.030418154 -0.07195268 0.2547553 0.45888215 0.1385846 0.09942758 -0.49844986 -0.2334841 0.20758404 0.22361659 -0.20161077 -0.0034052779 0.37719548 -0.50838476 -0.22589925 0.22038577 0.36845022 0.4476081 0.10295614 -0.43330634 -0.13428585 -0.1852885 -0.0208729 -0.039539397 0.08493381 0.07498644 0.11942677 -0.1897789 0.33571276 -0.057818756 -0.020651069 -0.060910013 -0.07799083 -0.22892879 -0.19083352 -0.07486255 0.08030158 -0.06875548 0.057672586 0.38394713 0.36963218 0.21073687 0.13743423 -0.10816382 -0.13884148 0.2041609 -0.27166477 -0.06751268 -0.31804368 -0.18625835 0.15780076 -0.26791364 -0.0017223755 0.33561492 -0.4366239 -0.3364802 0.50305676 0.2331911 -0.097600125 0.067196034 0.09583116 0.15876688 0.06851511 -0.21285927 0.14953136 -0.021153731 -0.28753608 0.118294485 -0.1265448 -0.09546224 0.22896284 0.17620632 0.15885314 -0.14316012 0.2386779 0.21839803 -0.009747177 -0.27927843 0.3338998 0.05234565 0.12895946 -0.022867117 -0.00074416783 -0.2526725 -0.2511458 -0.050673682 0.44398224 0.13402689
1690 0.19556771 -0.013316559 -0.26059902 -0.18522468 0.24373975 0.02927178 0.28011158 -0.25945103 0.0032177062 -0.13777313 0.11194431 -0.12352018 -0.0010883465 0.13587014 0.033698153 0.22888508 0.17736655 -0.27447984 -0.22637857 -0.6734528 -0.13094513 0.10824749 -0.52410907 0.014046554 -0.027642347 -0.27265912 -0.09676326 -0.15200517 0.1175807 0.03129218 0.109953426 -0.15124853 -0.09401787 -0.079058364 0.044783022 0.09084838 0.11344322 0.111742765 0.2442314 0.012507576 0.06318866 0.1248698 -0.043072887 -0.0768762 0.17629507 -0.019727089 -0.2284819 -0.12740426 0.15294665 0.112231195 -0.05020096 -0.010198305 0.13084234 -0.06271232 -0.07151009 -0.10122344 0.04480056 -0.18905492 -0.08507561 0.082467 0.008032447 -0.13448812 -0.10124165 -0.10878118 0.09029074 0.2083686 -0.16770111 0.04870785 0.17089869 -0.019806666 0.034142543 0.025356364 0.1295118 -0.09407154 0.17576113 -0.04685228 0.11873273 -0.0820934 0.05316722 -0.003769132 -0.04838268 -0.024474014 -0.11684762 -0.0524629 0.09209718 -0.30281028 -0.026744513 0.0748467 -0.061351452 0.057028286 0.24716294 0.05182258 0.1462078 -0.05304774 -0.039531562 -0.04281605 -0.1354279 -0.083905466 0.4134103 -0.017925499
1691 0.13578518 -0.04920503 -0.08169196 -0.25449735 0.04528868 0.016533155 0.11347985 -0.36827415 -0.01973897 -0.35044003 -0.175945 -0.0093787 0.08224743 0.031496666 0.29199377 0.40906417 0.18403941 0.02681075 -0.44661078 -0.49327472 0.09720233 0.19333546 -0.39969236 -0.14110112 0.023501126 -0.2960935 -0.2942425 0.07288375 0.33960652 0.24746332 0.008759934 -0.3129821 -0.17348574 -0.11484795 0.024485538 0.022783613 -0.020312268 -0.048830558 -0.01192726 -0.09763719 0.2816734 -0.0018117416 -0.050872844 -0.0401144 -0.019271323 -0.13321376 -0.2679673 -0.023346463 0.09167142 -0.025530864 0.032046337 0.24819537 0.08033599 -0.044811305 0.076269545 -0.13141929 -0.09485777 0.10100281 -0.28729734 0.052387156 -0.2044882 -0.1809288 0.048285667 -0.2878492 0.09476522 0.2208084 -0.20212567 -0.19740689 0.30976224 0.12999918 -0.021638019 -0.052715987 -0.04104539 -0.063860856 0.050384 -0.30764866 0.09383496 0.08373406 -0.2119183 0.10613814 -0.118064865 -0.10047341 0.22050712 0.04718889 0.28516632 -0.05553224 0.1422416 0.13553534 0.0077775265 -0.24584131 0.21537116 -0.015653258 0.00783974 0.15891784 0.054961424 -0.08523145 -0.13500804 0.038743984 0.21495336 0.2619533
1693 0.13576663 0.028660472 -0.07554045 -0.049278025 0.07987627 0.1612534 0.24211006 -0.1229146 0.07550584 -0.11878217 0.037298918 -0.023883311 -0.13026 0.20200822 0.06162755 0.26745588 0.05304838 -0.07986821 -0.15480167 -0.46027285 -0.03201266 0.13691399 -0.27084148 -0.016783347 0.1370545 -0.19065912 0.10312509 0.0038210894 0.21039905 0.14902955 -0.10737241 -0.09750164 -0.12720019 -0.23456123 0.051060323 0.13731806 0.012042979 0.10126694 0.21005374 -0.19881883 0.0035633938 0.065626636 0.0076830084 -0.0037202083 0.20454599 0.06741816 -0.14841762 -0.13399307 0.15782307 0.053798392 -0.061790597 -0.036152206 0.22213164 -0.14092721 0.069759384 -0.013222787 0.084170155 -0.086312555 -0.23248355 0.05163272 -0.06448266 -0.033054158 -0.08199419 -0.1421624 0.18443322 0.20880921 -0.3737871 0.063129544 0.053898204 0.06798093 0.16494086 -0.048828304 0.006961493 0.047898393 0.097499765 -0.045196462 -0.08189081 -0.14371096 0.060785405 -0.13689993 -0.11619697 -0.12505546 -0.029555934 -0.26100507 0.11336857 -0.23049442 -0.075176574 -0.012800038 -0.09634045 0.15320499 0.17049445 0.1007872 0.08777706 -0.211207 -0.26865467 0.10878431 -0.0188898 -0.2266447 0.29064307 0.204843
620 0.15446089 -0.24875082 0.15287258 -0.3353797 0.009928019 0.05716441 -0.09129774 -0.07623285 0.057220157 -0.24406682 -0.08646313 -0.11464683 -0.011937917 0.048382133 0.27851397 0.24638745 0.15787764 0.09263724 -0.162753 -0.33669147 0.07566937 0.2376722 -0.11776568 -0.027151544 0.06837255 -0.4081802 0.015559207 0.32243958 0.34999594 0.17220546 0.1018124 -0.30595067 -0.2013721 -0.21031298 -0.093185656 0.046642907 -0.16066167 0.007788754 0.17885557 -0.41599634 0.20775725 -0.05036845 0.074828036 0.072690256 -0.14920692 -0.10222543 0.1339205 -0.0046358122 0.32396716 -0.03643751 0.1787132 0.19020374 0.33925417 -0.043796718 -0.26294032 0.11592177 -0.16802533 0.16236722 -0.122637756 0.0062531657 -0.22992484 -0.14614953 0.110432625 -0.13841102 -0.02851106 0.20163381 -0.20958461 0.07391054 0.2261675 0.21359397 -0.02426533 0.07372007 0.019324536 -0.06282478 0.007978746 -0.3280758 -0.14247371 0.010591206 -0.3973878 -0.14144044 -0.13404275 -0.20348841 -0.046894558 0.00026384342 0.15435365 0.027344145 0.30963898 0.17421584 -0.19206037 -0.12491069 0.046448722 -0.09921893 0.055039383 -0.021491544 -0.024405852 -0.27137747 -0.045337502 0.069480404 0.4242868 0.25220966
1483 0.06443029 -0.057239003 0.04534788 -0.13958608 0.1360672 0.043097567 0.07718901 -0.20525748 -0.08043259 -0.15575092 0.023646701 0.115783006 0.066522874 -0.028852252 0.08634235 0.3203175 0.12565619 0.03485017 -0.24116269 -0.074698746 0.2255452 0.24468619 -0.13007638 0.0022995172 0.12885205 -0.251029 -0.04922924 0.15013692 0.22820503 0.072419055 -0.08702044 -0.1635297 -0.15304218 -0.11274418 -0.042546622 0.21640502 0.10569642 0.2145009 0.095272094 -0.31865346 0.17974839 -0.034365356 0.13625795 -0.16088924 -0.1124397 -0.14066882 -0.22264436 -0.085089155 0.22292459 0.019254368 -0.028097827 0.1282989 0.16955775 0.063801825 -0.09644128 -0.070970766 -0.11003147 -0.039001226 -0.1339583 -0.057417333 0.003284731 -0.17178413 0.22196196 -0.1308374 0.1468458 0.32063112 -0.43783033 -0.076234594 0.35640317 0.24093845 0.22296128 0.09959452 -0.00089743856 0.29577824 0.16379972 -0.15997778 -0.18436593 0.0036543657 -0.09430723 -0.117214635 -0.114789784 0.020248383 0.020941732 0.1440887 0.21224222 0.026747655 0.11589508 0.035453927 0.017264193 -0.14363804 0.38721284 -0.057537813 0.05221093 -0.37184012 -0.12419246 -0.26148245 -0.18605131 -0.018095419 0.24394658 -0.01616762
622 0.17339967 0.093243584 -0.1740346 -0.0438753 0.3110027 0.116421424 0.12287318 -0.35006014 0.08424177 -0.15351357 -0.05373807 0.02067247 -0.081401415 -0.13041854 0.2802757 0.5410909 0.008235558 -0.026715184 -0.3489846 -0.40895274 0.1674144 0.034570016 -0.31420487 0.09328758 0.16779628 -0.40688804 -0.083614655 0.15967426 0.19625483 0.16216548 0.122994296 -0.025342187 -0.04044442 -0.28561515 0.08337735 0.12827075 0.060306564 0.2348262 0.23079675 -0.086114354 0.09930559 0.030434588 0.06340891 -0.009675293 0.006983131 -0.0048879455 -0.14975637 0.16754155 0.07472514 0.086774215 0.055101752 -0.029145377 0.093449846 0.06935474 -0.11063595 -0.19586174 0.011985057 0.03919371 -0.10199507 -0.06792269 -0.2332714 -0.074244544 -0.2723534 -0.21366133 0.08599055 0.30845484 -0.3424948 -0.14525229 0.3301347 0.23314485 -0.042634904 0.1347268 0.042344753 0.05448931 0.103417315 -0.09078119 -0.041847933 -0.1193986 -0.08340884 0.0057196557 -0.24506314 -0.06921942 0.14917637 -0.01702774 0.10128441 -0.008753497 0.05859736 -0.027285911 -0.121842444 -0.13042541 0.19364987 0.0044825794 0.09478168 -0.12882023 0.12069663 -0.06783149 -0.057277814 0.016063076 0.36085752 0.07256214
1566 0.065219246 0.0680699 -0.060579404 0.076141775 -0.10233524 -0.03289234 0.13468686 -0.026922923 -0.05712878 -0.14364417 -0.23258057 0.043134116 -0.043184843 0.086775444 0.07228799 0.21653233 0.1062979 -0.1792612 -0.17380288 -0.44261134 0.26861158 0.19314808 -0.14431179 -0.24918516 -0.039864864 -0.30707312 -0.06853336 0.2818355 0.11164507 0.10483659 -0.1457363 -0.16571505 -0.1300136 -0.32401758 -0.067179 -0.039408132 0.0029800301 0.17260957 -0.100046486 -0.108824655 0.12889707 -0.011125872 -0.0144607285 0.09805506 -0.09019231 -0.16351016 -0.14179192 -0.0788385 0.14927447 0.056491017 0.041915327 0.06608167 0.21364194 0.14096875 0.037752353 -0.12197406 -0.027404888 0.06221728 -0.29055873 0.006149463 -0.13310605 -0.08126031 -0.068787076 -0.3416441 0.077698484 0.22650021 -0.31528875 -0.19859129 0.1989357 0.17802799 0.0070423204 0.00043005572 -0.09518354 0.12306853 0.055702247 -0.09475973 -0.14025083 -0.030807476 -0.12837388 -0.11985967 -0.08346406 -0.03414782 -0.008079151 -0.081827834 0.10658951 -0.10395269 0.074332386 0.074571535 0.036686055 -0.15378043 0.48652157 -0.020829508 0.07408819 -0.121200256 -0.15865408 -0.12402428 0.029604193 -0.22924858 0.16482139 0.27085426
625 0.15767945 -0.1701131 0.020793332 -0.20246488 0.13280708 0.102101155 0.055429786 -0.3681954 -0.0040035304 -0.38020858 -0.25447118 0.11280934 0.12804873 0.01721305 0.21651241 0.3199238 0.05266748 0.31689677 -0.2688117 0.072992854 0.014622283 0.061458524 -0.12171434 -0.07096547 -0.046109974 -0.40052783 -0.30495337 0.102543235 0.18193428 0.34657097 0.010290866 -0.18736096 -0.22681974 -0.14074999 -0.021582209 -0.04186566 0.063292556 -0.08154941 -0.10721722 -0.2471311 0.105201304 0.030192388 -0.021284485 0.040779464 0.023944132 -0.17883284 -0.25874957 -0.066785954 0.07843774 -0.09262392 0.10291715 0.2415214 0.33908722 0.22144853 0.011109086 -0.09317127 -0.0667618 -0.10792415 -0.3709557 0.11701165 -0.24597535 -0.14822745 0.21420783 -0.3412668 0.25701347 0.2648645 -0.44602895 -0.2914161 0.5858603 0.14556965 0.04947446 0.07892137 0.12565231 0.25310922 0.30126122 -0.40999424 0.2662064 0.054734882 -0.106315486 -0.12814821 -0.20169581 -0.18944523 0.1725577 0.025382124 0.22803265 -0.18206784 0.34392053 0.49752066 -0.06608939 -0.20781058 0.1322293 0.16928624 0.13604987 -0.013321786 -0.029935885 -0.05267457 -0.22881578 0.03363097 0.30269733 0.14659704
441 0.14526929 -0.3338102 0.046076618 -0.2955387 0.18211262 0.02104175 0.11153322 -0.31572524 -0.06444255 -0.16093227 -0.16883695 0.1373834 -0.005717671 0.042358235 0.0663427 0.29032505 0.14908396 0.06015767 -0.4674663 -0.18747944 0.2514187 0.25569293 -0.1941545 0.10299073 0.2517453 -0.56635 -0.18061653 0.22546211 0.3897671 0.3137859 0.014642094 -0.30069843 -0.15801133 -0.25400165 -0.051387288 0.0782827 0.16226606 0.06724717 0.080360755 -0.26248202 0.2870863 0.013180038 0.15162507 -0.14504574 -0.12230347 -0.25966895 -0.14920701 -0.090945594 0.32348466 -0.13511668 0.08296911 0.29252097 0.3783841 0.08304143 -0.027225792 -0.11685964 -0.20807615 0.13973388 -0.2392872 0.006244297 -0.16442984 -0.2230247 0.32779223 -0.31622308 -0.058932908 0.2251078 -0.32162118 -0.19675833 0.43344155 0.2542171 -0.035169035 0.024689442 0.034235355 0.18111692 0.1171523 -0.1656551 0.039813913 0.01754805 -0.21835586 0.07960911 -0.0017617922 -0.11534598 0.21093358 0.2839297 0.17585094 -0.104113996 0.30337477 0.14159043 0.02731113 -0.18774946 0.25054514 0.00014306846 0.18791391 -0.09745248 0.04536916 -0.22530617 -0.27816263 -0.023899345 0.38097692 0.09769399
627 0.15292169 -0.20551486 -0.07917084 -0.2330699 0.14530005 0.1471279 0.11856589 -0.27971452 -0.11300399 -0.3227002 -0.15207434 0.11179874 0.07276274 -0.0028555114 0.03782457 0.43278307 0.030213766 0.082776405 -0.2912462 -0.319603 0.09603695 0.17142145 -0.28008705 -0.16574006 0.13378097 -0.40293393 -0.20577732 0.05261281 0.34477854 0.48548248 0.076060385 -0.1307602 -0.06298274 -0.2426715 0.10798758 -0.07684874 0.08639312 0.010920563 -0.009809337 -0.0510236 0.31084836 0.036537845 0.10105428 -0.10887788 0.14710331 -0.3327387 -0.216868 0.08778172 0.05825562 -0.006636818 0.009933876 0.113470726 0.26461843 0.026509913 0.042955484 -0.032138832 -0.19138241 -0.008001282 -0.2737268 0.1738311 -0.29775152 -0.1586766 0.2668289 -0.34779897 0.123225525 0.1633136 -0.36723897 -0.2720452 0.32704058 0.071019195 -0.034782734 -0.050967634 0.081362784 0.038541302 0.041877553 -0.12546736 0.1770835 0.053947072 -0.29671782 0.15439768 -0.27245393 -0.23942326 0.08474476 0.09434507 0.16366905 -0.15179761 0.23300554 0.15633442 0.026339645 -0.30564097 0.45124802 0.11723056 0.19369417 -0.012420377 0.039721124 -0.119316846 -0.17387515 0.045548055 0.45862657 0.23381965
1730 0.069864474 -0.29130086 0.07119712 -0.3595357 0.12465818 0.08209013 0.034660578 -0.3675775 -0.29731205 -0.31297052 -0.26188654 0.1259869 0.043114692 -0.010027437 0.27344432 0.500175 0.15129125 0.2321527 -0.6138229 -0.17922105 0.09685328 0.25286058 -0.22501354 0.021549923 0.26452646 -0.5607925 -0.25788024 0.2483145 0.3750929 0.4243496 -0.077076696 -0.39668378 -0.35817027 -0.28949 -0.12524535 0.0343586 -0.058619834 0.15138295 -0.037089538 -0.42763442 0.29412544 0.0024262278 0.056124095 -0.13475725 -0.082216665 -0.11693907 -0.18855247 -0.15337966 0.28379115 -0.10384293 -0.045926586 0.3221623 0.37063417 0.1646631 -0.15240118 -0.100648515 -0.20831384 0.14659247 -0.4094265 -0.096145265 -0.14924169 -0.20188521 0.3011211 -0.24509664 0.07989276 0.23630548 -0.41060713 -0.4653239 0.5951967 0.24714945 0.05664412 0.078592815 0.20196816 0.1483198 0.11611651 -0.29992837 0.15517348 0.07154636 -0.26776782 0.21614978 -0.10466848 -0.17695679 0.28794163 0.07048265 0.05940521 -0.102738574 0.27567607 0.16391203 0.05715874 -0.2609653 0.26660022 0.05167882 0.11604648 -0.071312465 -0.10151968 -0.24035762 -0.21903442 -0.0039300853 0.427687 0.20431928
1527 0.2023981 0.0092346 -0.122768156 -0.06695719 0.13507172 0.08266368 0.32431924 -0.13483232 0.17989261 -0.11856685 0.03463595 -0.13218264 -0.1336215 -0.06166753 -0.081757165 0.2289279 0.11945392 -0.30270112 -0.27779463 -0.45243222 0.07073456 0.07270905 -0.49354053 0.06258283 -0.10485479 -0.16559502 0.18083313 -0.0015359508 0.14567551 0.04799639 -0.08558793 -0.10758565 -0.16436124 -0.27305493 0.015453504 0.1635599 0.13336532 0.11967323 0.29890275 -0.3308701 0.08552563 0.20353882 -0.04289443 -0.08579102 -0.0006190834 -0.005865045 -0.06261539 -0.074271284 0.038639706 0.15455021 -0.12930456 -0.1903199 0.10428304 0.008559578 -0.0014016702 -0.20461409 -0.11912943 -0.12678345 -0.04520257 0.0048187715 -0.06820522 -0.14820768 -0.23392701 -0.39070433 0.011089725 0.09871322 -0.22954866 -0.012422667 -0.088598154 -0.13305919 0.022218239 0.10287374 -0.00029919337 0.121135935 0.09267798 -0.08915108 -0.1340829 -0.08764834 -0.06455645 -0.10601911 0.015509592 0.005855793 -0.04955298 -0.012576792 0.17167562 -0.29471046 -0.17837027 -0.008823355 0.11574477 -0.0069200303 0.3164917 0.10979546 0.10171545 -0.06544956 -0.04303537 -0.14938115 -0.0070012123 -0.02549575 0.30100742 0.0028319536
235 0.32142878 -0.031847037 -0.37080455 -0.03921185 0.22617285 0.0167174 0.23174752 -0.2693751 0.024377052 -0.18830252 -0.056746595 -0.11966266 0.15068626 -0.010452866 0.06744038 0.22769603 0.05396377 0.0014326978 -0.2905657 -0.58700365 -0.08151467 0.12521373 -0.5242101 0.00074120396 0.09846226 -0.2820544 -0.015931142 -0.18366846 0.11258414 0.019917754 0.07258278 -0.1399399 -0.06693771 -0.15080251 0.043609366 0.10474708 -0.027222797 -0.1098376 0.021903863 -0.12178854 0.06930459 0.1527324 0.0073464205 0.0010505139 0.15755342 0.096604906 -0.19777389 -0.04618718 0.19348085 0.058152605 0.042041995 -0.0022735167 0.077441216 -0.067190714 -0.0137111405 -0.1364223 -0.04253432 -0.1981591 -0.2307143 0.11949194 -0.09575458 -0.08068165 0.035421915 -0.31036863 -0.017269239 0.12808457 -0.06308406 0.13381816 0.059710037 -0.14606638 -0.048527505 -0.0017452206 0.053141087 0.014514532 0.07949067 -0.096858844 0.0358685 0.035322603 -0.07402402 0.028661635 -0.14469309 0.12446215 -0.10701243 -0.0056010555 0.2620852 -0.28018272 -0.15721363 0.004122031 0.010595047 0.06667917 0.1464023 0.16452757 0.13467453 -0.14364831 -0.09954346 -0.08637634 -0.08593766 0.068051375 0.36261556 0.16352913
475 0.12653737 -0.19100387 0.100085914 -0.25913543 0.22685687 0.08292969 -0.018634973 -0.41149926 -0.01546534 -0.34558514 -0.11520183 0.22508708 0.0207071 -0.0671436 0.2664471 0.6086727 0.07503508 0.26889837 -0.4355972 -0.076648496 0.23651591 0.3554828 -0.060404323 0.057943378 0.2745447 -0.4803247 -0.1216904 0.2721668 0.33314347 0.4313146 0.11575057 -0.21325608 -0.24950956 -0.21450602 0.1582947 0.05492578 0.16643424 0.16256793 0.01796492 -0.27395937 0.22325023 -0.017515978 0.060751982 -0.08761986 -0.07327356 -0.13900584 -0.34139493 0.037508477 0.1456717 -0.07211338 0.07095796 0.37116897 0.28380173 0.08155275 -0.010270716 -0.16885266 -0.122444786 0.13384423 -0.2970073 0.055961844 -0.28628835 -0.19958271 0.20788042 -0.3556406 0.16728297 0.33165434 -0.5273712 -0.37145495 0.5151913 0.32297558 -0.052270245 0.18716142 0.15903777 0.23765613 0.27380008 -0.23542552 0.09427675 -0.026065556 -0.20525931 0.025415374 -0.19271544 -0.17143741 0.24458086 0.1897567 0.16782442 -0.021472137 0.22022773 0.23612821 0.0501517 -0.28987345 0.34457663 0.07334915 0.071758635 -0.24935576 -0.09456782 -0.23216105 -0.24991754 0.040829517 0.28744185 0.050024923
1537 0.28823924 -0.23888655 -0.0112420935 -0.27230734 0.11575373 0.08139048 0.054989703 -0.29740003 -0.15372583 -0.13745643 -0.29146156 0.13801058 0.014425957 -0.0014631558 0.1015228 0.3915297 0.15656672 -0.02839757 -0.42130753 -0.19238438 0.14359936 0.2241175 -0.19960064 -0.054840215 0.12029312 -0.42719668 -0.15239856 0.25342616 0.3103872 0.4622034 0.029816728 -0.20653151 -0.15700221 -0.18168007 -0.025306895 0.058167454 -0.0054321694 -0.043685887 0.10288701 -0.05185183 0.2831071 0.088520154 0.0068278196 -0.07012372 0.030119376 -0.25215754 -0.14778501 -0.0042185993 0.048736352 -0.07192231 -0.00015083462 0.27920604 0.30113345 0.22269633 -0.0012462313 -0.024634743 -0.14247192 0.06861898 -0.18487853 -0.027189463 -0.3549988 -0.11357923 0.21639559 -0.39359623 0.011710959 0.19363031 -0.4735867 -0.19619492 0.27914605 0.04238908 -0.09200792 0.022144733 0.039625715 0.26029506 0.07446215 -0.10634032 0.03405283 -0.0030644003 -0.29532304 0.041840836 -0.19446798 -0.19279717 0.24083081 0.18106781 0.23577192 -0.14030834 0.118411124 0.19833212 -0.022881884 -0.20989536 0.31163236 0.011117107 0.15187703 -0.024214227 0.015280143 -0.25921562 -0.23701823 -0.07761707 0.4631504 0.124816746
1634 0.17426705 -0.35708082 0.0106646875 -0.4957222 0.21329272 0.17436577 0.13765964 -0.37784407 -0.08880387 -0.21883732 -0.018616203 0.079152375 0.04125516 -0.032193955 0.16843198 0.50537753 0.18658982 0.0002577264 -0.40398645 -0.41981986 0.104920134 0.24934313 -0.32283086 0.013107426 0.35814878 -0.58271736 -0.16954288 0.18213998 0.50284195 0.57055753 0.14140475 -0.25055322 -0.15984723 -0.10691823 0.1261531 0.060609415 0.13221386 0.020623768 0.13313025 -0.09414124 0.38633496 -0.17589095 0.014344588 -0.1481935 -0.0151881995 -0.34466082 -0.21095474 0.047208447 0.17860232 -0.129501 0.11998198 0.3267163 0.32995078 0.103991434 0.16885488 -0.007571541 -0.19333652 0.2174297 -0.2448019 0.083402716 -0.33681783 -0.16388439 0.21351665 -0.3070703 -0.047838658 0.14216965 -0.40866277 -0.12395456 0.50496787 0.17816105 -0.11827507 -0.06283082 0.10573732 -0.02400924 0.058335744 -0.20093745 0.12046063 0.096713066 -0.37600705 0.18296577 -0.16103257 -0.33651108 0.1471659 0.33615175 0.28580958 -0.14593396 0.19735654 0.0702765 -0.08179048 -0.29144004 0.26340052 -0.036387503 0.08697511 -0.08560038 0.08656699 -0.1680454 -0.25005913 0.008932715 0.44938636 0.04449237
1946 0.09479058 -0.22419374 0.07825039 -0.3139318 0.13891335 0.12419583 0.14210683 -0.35146978 0.044549853 -0.29554173 -0.16476999 0.16221087 -0.055628974 -0.061347213 0.30593 0.45216456 0.009499196 0.20407173 -0.42237255 -0.03301115 0.22121544 0.22663814 -0.16157195 -0.012975926 0.12968045 -0.48140487 -0.20492558 0.25454563 0.42533028 0.36505994 -0.03468815 -0.3475581 -0.24148838 -0.26939532 0.03941131 -0.05454443 0.09576276 0.020384591 0.052913148 -0.4264062 0.2232581 0.111974984 -0.02478547 -0.1133784 -0.15232614 -0.22417474 -0.20580721 -0.021698432 0.13137512 -0.10365611 0.025877206 0.26531664 0.3236651 0.00062561064 -0.057017975 -0.08346525 -0.20270011 0.11118544 -0.33051607 0.012240134 -0.35196832 -0.18207859 0.2193042 -0.34549528 0.12992963 0.2225591 -0.45349383 -0.36905026 0.43846154 0.2836107 -0.02578122 0.09588168 0.02440824 0.25165695 0.14157422 -0.35049412 0.07718253 -0.02147878 -0.20264187 0.04454714 -0.14593823 -0.16729978 0.2803805 0.08544983 0.06367895 -0.103423834 0.33997437 0.3533279 0.16745888 -0.20730487 0.23704074 0.14349034 0.060445935 -0.10492024 -0.051581983 -0.15213026 -0.18734758 -0.0900848 0.3026016 0.13479814
1819 0.17928359 0.14632839 -0.19747047 0.052909613 0.050664555 -0.006741907 0.03730847 -0.11762774 0.08587666 -0.20735966 -0.053599928 -0.053510115 0.07757625 -0.019635817 0.1708921 0.27692705 0.011351381 -0.095547035 -0.20224532 -0.41563693 0.035780966 0.078031 -0.2979875 -0.0747283 -0.08365321 -0.13744982 -0.04000226 -0.044990946 0.1276078 -0.031335786 -0.021190474 -0.070290506 -0.03725033 -0.097631544 0.014452904 0.073903464 -0.035187434 0.05680871 0.044909943 -0.182986 0.05356585 0.09288225 0.00446602 -0.034577645 0.04344749 0.039905738 -0.16712137 -0.012390869 0.10757442 0.14720355 -0.023307804 -0.021800144 -0.013158498 -0.059946742 -0.10986459 -0.17548338 -0.012248984 -0.054796502 -0.14916745 0.018864337 -0.12966229 -0.07563139 -0.114054956 -0.21697938 0.040323358 0.22768041 -0.18453623 -0.055241045 0.039882556 0.022830592 0.054176673 0.026889343 -0.05512088 0.038005903 0.084023334 -0.19976464 -0.12493991 -0.096829616 -0.14515156 -0.24020873 -0.19455533 0.11656118 -0.0802156 -0.044984877 0.270645 -0.1707925 0.0075003263 0.07239969 -0.08184036 -0.072439685 0.23924625 0.02189439 0.09827819 -0.08909295 -0.090481095 -0.120584674 0.024423609 0.09035358 0.16512199 0.15844466
87 0.010306581 0.16095316 -0.08190375 -0.0074238977 -0.08316842 -0.009989997 0.1877153 -0.17510763 -0.11120856 -0.28754672 -0.089235395 -0.07727514 0.040179912 -0.13631874 0.2538754 0.39861706 0.038739145 -0.19801188 -0.2845946 -0.3731929 0.1570997 0.059896305 -0.41804427 -0.21071744 -0.13939771 -0.21757331 -0.12297988 0.22773701 0.16732953 -0.021706365 -0.17708638 -0.103860684 -0.14745824 -0.25214553 0.05517553 0.17974105 -0.16383804 -0.015821401 0.07472805 -0.096656375 0.15595427 0.05613342 0.02274844 0.009726798 -0.12159063 -0.09080148 -0.08499453 0.2398874 0.009134883 0.07536433 -0.010344264 -0.096458726 -0.17181155 -0.10756853 -0.0791369 -0.09116724 -0.03786522 0.044854954 -0.33084464 -0.014384881 -0.14359304 -0.08599623 -0.36144686 -0.16081136 0.02564414 0.24573438 -0.20699209 -0.17428064 0.008994585 0.03318382 0.12214604 -0.05536537 -0.21221742 0.019155057 -0.36092147 -0.2502484 -0.1886441 0.0075271497 -0.16916211 -0.14388248 -0.09425985 0.031705763 0.100591 -0.118939996 0.19371915 -0.045241203 0.04754648 -0.034586515 -0.09271128 -0.099517375 0.2882613 -0.009350283 0.16323167 -0.049238235 0.03998886 -0.22332549 0.0024570958 0.038418178 0.3496714 0.4267952
2071 0.22026873 -0.17154248 0.019165162 -0.35198835 0.053542595 0.033425257 0.0068232073 -0.24714641 0.08774606 -0.2387662 -0.18426394 0.186354 0.11686699 -0.13665827 0.28548864 0.51189876 0.06373703 0.075469725 -0.38677076 -0.10624902 0.13743852 0.11685038 -0.066693574 0.06968771 0.027214449 -0.4929159 -0.20391949 0.15200032 0.30270568 0.31895167 0.07225292 -0.18112221 -0.11425726 -0.21951537 -0.043935746 -0.076446116 -0.03865103 0.039383423 -0.04576063 -0.35483474 0.26216546 0.006437522 0.0722386 -0.076491155 -0.17571901 -0.26413167 -0.15037857 -0.08322118 0.20916688 0.013401377 0.22184794 0.27564195 0.31684777 0.18814737 -0.027503496 -0.18656345 -0.12573852 0.13720523 -0.26105964 0.024586003 -0.3476138 -0.037379198 0.32316512 -0.27978742 0.08991527 0.27346054 -0.46420512 -0.2711404 0.69944286 0.31584346 -0.15569268 0.018434646 0.101623535 0.16006643 0.10515381 -0.35207355 0.026398506 0.061234705 -0.31459537 -0.026639521 -0.087859295 -0.028405355 0.17784528 0.32044715 -0.035099022 -0.086612046 0.29185033 0.25677475 0.010468383 -0.32089818 0.19377525 0.010371841 0.12029234 0.056349315 -0.075996704 -0.14649624 -0.20316724 -0.1214259 0.36438113 0.19023132
744 0.050043866 -0.26956144 -0.023731956 -0.16971715 0.15111594 0.026541283 -0.044631183 -0.30925807 -0.0967549 -0.18148072 -0.26688606 0.21465677 -0.0034411133 0.0047095916 0.17835338 0.42922547 0.06393713 0.11393196 -0.38151646 -0.29611868 0.11734795 0.17030378 -0.1108606 0.10696601 0.25959036 -0.5109181 -0.2108135 0.11528974 0.3174769 0.2930167 -0.011158263 -0.27115837 -0.056753375 -0.09636444 -0.11388399 -0.017024746 0.1655469 0.10334327 -0.08138568 -0.08712934 0.27303487 -0.007889968 0.113308184 -0.072196625 -0.033122916 -0.12427995 -0.090840906 -0.069450736 0.124254294 -0.09236934 0.13597357 0.32951477 0.3967074 0.1831299 -0.12627448 -0.06623553 -0.016119128 0.10180635 -0.3269383 -0.0806512 -0.22745216 -0.18126148 0.28041565 -0.19661392 0.008070915 0.39051166 -0.46183378 -0.13270971 0.4812601 0.3479758 -0.0022788506 -0.036021393 0.03800334 0.2824203 0.13395157 -0.18540525 0.06504567 -0.05839611 -0.10882367 0.034078628 -0.16296366 -0.08375254 0.20683199 0.182661 0.18211143 -0.047368832 0.19768324 0.25313357 0.013268233 -0.21885706 0.09113094 0.03135609 0.18230417 -0.15395814 -0.15161371 -0.13690096 -0.27353963 -0.08304362 0.5287545 0.21380271
1600 0.074608915 -0.12682334 0.06854274 -0.32765767 0.16795623 0.052878343 -0.058056902 -0.1940161 -0.0873364 -0.28423724 -0.13937435 0.047902454 -0.010269308 -0.030861767 0.070514545 0.36762226 0.1665757 0.06300567 -0.34759468 -0.20323509 0.11556613 0.15794325 -0.28576007 -0.10568094 0.14329924 -0.36772433 -0.22766188 0.17018275 0.19885357 0.31931397 0.05717127 -0.2949737 -0.2293464 -0.16372311 -0.008713019 0.06071533 -0.031020164 0.016689092 0.096479625 -0.13950829 0.25781724 0.048596844 0.058516927 -0.08669718 0.04995809 -0.15706238 -0.2232164 0.008528586 0.07744719 0.013170216 -0.050674215 0.19890012 0.13631514 0.11769874 0.060158126 -0.11827818 -0.2363055 -0.064162835 -0.36191672 0.036616724 -0.26909205 -0.14076093 0.051054 -0.22753227 0.033650205 0.21237543 -0.33393544 -0.37137967 0.37165502 0.042057578 -0.08400522 0.07735029 0.1382177 0.05070656 0.046639144 -0.3310357 0.028702732 -0.02566991 -0.2166492 0.056815624 -0.20335156 -0.08131925 0.13481544 0.05213036 0.09804455 -0.17755218 0.06578645 0.0778482 0.011134033 -0.23143806 0.2835021 0.105555445 0.16889201 -0.019180495 -0.039089188 -0.27432272 -0.18951713 -0.03010539 0.44166481 0.2117527
1821 0.049925704 -0.108800955 0.03828068 -0.09311379 0.21942814 0.032085277 -0.14627412 -0.20690127 -0.07468711 -0.16475499 -0.07388042 0.046677355 0.0071232184 -0.14630598 0.07974331 0.20824933 0.07815426 0.0076019336 -0.4159241 -0.28771788 0.10536559 0.113909274 -0.23201114 0.08108609 0.25195804 -0.397379 -0.13468343 0.066617735 0.1696946 0.13364132 0.094079286 -0.20114149 -0.12230272 -0.12785572 -0.01863414 0.08439863 0.002347632 0.10755772 0.092764445 -0.24002518 0.25081494 0.053409792 0.16959268 -0.14883244 0.04880917 -0.029441271 -0.20681122 0.007016132 0.044271655 0.0054563317 0.05408033 0.2317667 0.21644038 0.071058154 -0.016528143 -0.08647367 -0.08423477 -0.028416013 -0.33935305 0.060500506 -0.10927485 -0.1636217 0.060252987 -0.20041421 0.06861951 0.46054006 -0.39792866 -0.31277987 0.35025615 0.18935427 -0.037894417 -0.0076897605 0.23374361 0.18679383 0.18133545 -0.16968504 0.07482778 -0.03402116 -0.20496675 0.05038812 -0.17093122 0.019581098 0.15357181 0.16816863 0.19850287 -0.14711492 0.08899079 0.17856756 0.008258362 -0.28457028 0.32501036 0.0006392778 0.18264592 -0.14388114 -0.16998313 -0.22362149 -0.15451217 0.012570279 0.33286938 0.13157149
1918 0.16743131 -0.17322561 -0.10441915 -0.11932096 0.14118752 0.02954281 0.23441644 -0.2808854 0.1252797 -0.22420181 -0.11963355 0.02092597 0.019534074 0.062211446 0.11433736 0.36985978 0.050959278 -0.16583446 -0.31266728 -0.3659315 0.15157366 0.1818089 -0.3024356 -0.013724025 -0.039128814 -0.30560175 -0.03283442 0.10526623 0.2780437 0.21780555 0.06519446 -0.11470037 -0.03315026 -0.16255005 -0.027768372 -0.023619117 0.16525818 0.14828537 -0.05669535 -0.22236638 0.2051418 0.019577082 0.064459875 0.07471057 -0.0019840975 -0.18056141 -0.087607674 0.02739567 0.14702484 0.056242593 0.07915233 0.19157533 0.40276012 0.16640647 0.079681516 -0.16134727 -0.070024356 -0.111829564 -0.17573455 0.051501483 -0.19228444 -0.1944004 0.030677615 -0.4130561 0.090123475 0.32458258 -0.18146685 0.054685242 0.21261896 0.09766935 0.008988283 -0.009042674 -0.09042575 -0.016418634 0.13956991 -0.11477684 -0.010813851 0.08092568 -0.2187788 -0.028437681 -0.108238794 -0.031938996 -0.020097716 0.17274906 0.06815554 -0.006982291 0.10234544 0.07071757 -0.058970906 -0.094841376 0.3010377 -0.013820901 0.103324845 -0.07598925 0.07532099 -0.14171036 -0.030590948 -0.033632506 0.34194934 0.3304535
647 0.15068111 -0.15627481 0.11526026 -0.26029578 0.18078522 0.12863249 0.042238332 -0.09628981 -0.050598484 -0.1518839 0.05413111 0.039319787 -0.10835099 -0.08122708 0.1733815 0.15415666 0.0643719 0.17966683 -0.4216843 0.051194683 0.088474415 0.21715082 -0.18625006 0.04368858 0.30311048 -0.40720513 -0.14598283 0.26527563 0.38092783 0.37218398 -0.019275054 -0.22035232 -0.14499234 -0.1411391 0.037155386 0.11610247 0.024473937 0.09923848 0.05447624 -0.44923526 0.24718972 -0.01863526 0.08057789 -0.09497032 -0.07445741 -0.13259842 -0.12511031 -0.03696206 0.16568057 -0.05089348 0.013221376 0.19226532 0.22509164 -0.0627494 0.19226305 0.007077074 -0.19777341 0.08692246 -0.19220541 0.023640541 -0.19684003 -0.11873759 0.22795837 -0.17067122 0.16706808 0.2040154 -0.53621036 -0.30865908 0.41944024 0.17852405 0.12480581 0.013021787 0.088400014 0.31937873 0.023802975 -0.292631 -0.06738982 -0.02064766 -0.30225188 -0.13777724 -0.1329977 -0.11851421 0.117070735 0.12780702 0.25815544 -0.11929179 0.3293532 0.11231145 -0.025924627 -0.13126682 0.3348754 0.1085186 0.16417962 -0.09733748 -0.063949004 -0.28087932 -0.06723784 -0.067664534 0.36340344 0.17515567
583 0.25323942 -0.15840876 -0.14167933 -0.30281496 0.16592917 0.12484514 0.17038067 -0.40513143 0.0077232956 -0.19990736 -0.17777243 0.18559104 0.023609694 -0.10636806 0.10976472 0.45178035 0.12526052 -0.06160961 -0.38259012 -0.45764023 0.101784356 0.19453517 -0.38915148 0.006919071 0.099201694 -0.43228102 -0.027285619 0.011241955 0.24761054 0.38196793 0.016112937 -0.32127455 -0.022923702 -0.14667611 0.036403403 -0.101680696 0.17399304 0.120876014 0.049771715 -0.12555656 0.33218604 0.1042844 -0.005266014 -0.14569731 0.029343907 -0.18543564 -0.21481927 0.04673437 0.030781994 0.02344742 0.09626147 0.06816405 0.16870737 0.20853917 -0.06508957 -0.19884783 -0.12232866 0.07404466 -0.053501826 0.05107558 -0.21609767 -0.16938703 0.2139603 -0.39962322 0.013518724 0.21546936 -0.41480595 -0.27157453 0.36888623 0.07772109 -0.10213254 0.02550807 0.10264095 0.14016828 0.19893098 -0.18843406 0.102871604 0.03144033 -0.27664873 0.23407012 -0.15142672 -0.16574365 0.16061619 0.26447296 0.19730727 -0.150064 0.055983994 0.19080886 0.12822583 -0.27628055 0.3835823 0.059588064 0.073247366 -0.0041293646 -0.010947799 -0.17400794 -0.17587093 -0.076836064 0.4705076 -0.06895714
651 0.08247327 -0.089978114 -0.0721272 -0.06212303 0.14441727 0.03383741 0.1310266 -0.13266976 -0.11690176 -0.10487728 -0.1776086 0.14259352 -0.034157317 0.033374824 0.15978417 0.42586434 0.06358813 -0.01859086 -0.45157215 -0.41287285 0.2178122 0.1578579 -0.3844432 -0.08440074 0.13520825 -0.3626389 -0.252392 0.081490144 0.39564037 0.27303424 -0.030238444 -0.2278542 0.04339469 -0.19522463 0.024692532 0.0015253456 -0.010010155 0.1790366 -0.06174675 -0.18983153 0.22943304 0.018896896 0.074967444 -0.07076595 -0.054611195 -0.1178317 -0.16178861 -0.11080936 0.29045427 -0.012100112 0.032461237 0.16345417 0.31903905 0.013235037 0.057260454 -0.25285473 -0.08370155 0.10220089 -0.37184006 -0.05885504 -0.20398591 -0.15434806 0.21615408 -0.22670798 -0.01732192 0.13843709 -0.30166844 -0.11399431 0.23635416 0.21412174 0.11711457 -0.09712184 -0.002548402 0.16216926 -0.10490131 0.015879044 -0.00679605 -0.01900408 -0.11561108 0.16189319 -0.11668584 -0.024227958 0.27108088 0.05591877 0.17238873 0.03133689 0.1240276 0.061323684 0.09749179 -0.15568358 0.31836373 -0.03393725 0.19084139 -0.10906963 -0.14151981 -0.116204716 -0.07347495 -0.103572965 0.34858495 0.23918083
606 0.10464359 -0.2702029 -0.0063399444 -0.116045535 0.18020995 0.03450194 0.0699937 -0.25610226 -0.18918678 -0.32778528 -0.14082317 0.10458779 0.09232714 0.0034401543 0.25092152 0.4105546 -0.0006919185 0.20176627 -0.4003476 -0.24983077 0.23147565 0.25993338 -0.185545 -0.0926105 0.18099722 -0.4277935 -0.11456024 0.19078535 0.29041323 0.4436684 0.114806995 -0.2121523 -0.22442062 -0.20943047 0.15029553 0.07624884 0.024830604 0.113158844 0.0005735941 -0.29722375 0.25833732 -0.089517474 0.13378198 0.008963171 -0.009043676 -0.09156255 -0.20983034 0.0867033 0.08978065 -0.070779175 0.11518563 0.21562542 0.22952242 0.133305 -0.058121424 -0.047445167 -0.12788707 0.067386255 -0.34482133 0.008803182 -0.1852437 -0.20973264 0.23522533 -0.33344182 0.1271174 0.28044063 -0.43489003 -0.3557754 0.42272046 0.24776739 0.032660175 0.064379275 0.04210106 0.11307776 0.13377742 -0.28591648 0.084383495 0.15450823 -0.3254702 0.026963372 -0.23950411 -0.21103227 0.20034721 0.10815897 0.24261704 0.0057407552 0.27451175 0.12080079 -0.047549184 -0.25832406 0.37930956 -0.015681682 0.03500785 -0.17597595 -0.046536125 -0.1822519 -0.11366465 0.10456921 0.3494613 0.212694
1687 0.15546918 -0.1970008 0.08933435 -0.37888694 0.07995111 0.11344986 0.013722767 -0.2404918 0.065538876 -0.30889276 -0.18719323 0.08975885 0.06248358 0.075179294 0.2807462 0.44129103 0.017335633 0.21042486 -0.42190257 -0.07309543 0.10014979 0.24090973 -0.1222818 0.03728935 0.11813188 -0.3564286 -0.19851783 0.16589417 0.35722026 0.3270977 0.095363975 -0.32691592 -0.14703453 -0.20699431 0.02213625 0.028428132 0.012044147 0.06967831 -0.034369674 -0.2987391 0.27979326 -0.067540206 0.05031999 -0.11839925 -0.055148 -0.21082371 -0.19081695 -0.005173734 0.17318729 -0.070643805 0.121594936 0.28493127 0.2984728 0.030490465 -0.08015464 -0.06515758 -0.19959125 0.15849605 -0.20370197 0.009446159 -0.32279012 -0.20315312 0.19947596 -0.34028408 -0.03652185 0.17748769 -0.3162684 -0.26422662 0.47670966 0.29794365 -0.06666553 0.082550436 0.037543572 0.10376596 0.16202256 -0.3181336 0.037531033 -0.025044873 -0.34424046 7.122278e-05 -0.22033039 -0.120155245 0.21197316 0.28413767 0.17243257 -0.097960055 0.2916434 0.22507975 -0.05333724 -0.28808627 0.19197801 -0.015601089 0.062905945 0.048645332 0.005313304 -0.11957958 -0.20231307 0.09259553 0.48643494 0.22343421
103 0.29780966 -0.029191248 -0.10512209 -0.06666129 0.103123546 -0.10731164 0.11259625 -0.105273314 0.08953464 -0.034504246 -0.04418144 -0.2560363 -0.008324099 0.050582968 0.0028194052 0.11037152 0.07031495 -0.061347783 -0.046389773 -0.21402702 -0.03805624 0.026830805 -0.26087323 -0.0920303 -0.09563227 -0.12123514 -0.13660172 -0.110976785 0.11141836 -0.16087683 -0.060987048 -0.26637256 -0.0047486145 -0.31895292 0.08662908 -0.001774857 0.014537613 -0.20152245 0.17973834 -0.08437664 -0.053673886 0.18067692 -0.04585083 0.15568323 0.10875302 -0.04295518 0.12753096 -0.2234233 0.31251484 0.07716869 -0.060361814 0.078294724 0.1348533 -0.11443515 -0.05899845 -0.15247172 0.07583394 -0.18545692 -0.07747825 0.10937695 -0.0633118 -0.103914976 0.027240338 -0.21242042 0.1236475 0.20643653 -0.08483819 0.12144361 0.15431742 0.018070094 0.15423702 -0.01898194 0.0042725373 0.15181777 0.10260616 -0.11492678 0.011156869 -0.054544903 -0.09590526 -0.3242072 -0.09234013 -0.020207098 -0.26814246 -0.15741687 0.2521227 -0.19530465 0.08861237 0.20987457 -0.08870714 0.09888131 0.1636708 0.21720052 0.23860331 0.058711942 -0.09672384 -0.17100337 0.09414247 -0.24731502 0.20123999 0.12680864
