2191 100
0 0.15491162 -0.12622611 0.081663795 0.102072075 -0.07420279 0.3156327 -0.07555724 0.10352921 -0.40076548 -0.3687948 -0.010742605 0.45317686 -0.16802415 -0.015039571 -0.07214592 0.12918694 0.10445455 -0.0918966 0.0022668466 -0.13587254 0.15958333 -0.06191694 0.059991635 -0.0882824 -0.10595186 -0.10844748 0.046160646 0.367758 -0.112451285 0.11902484 -0.029088214 0.08658095 -0.10113326 -0.07712303 -0.18966489 -0.0679624 -0.09804486 0.08678759 0.020211868 -0.087761395 0.075519055 -0.35917562 -0.15569018 0.123766065 0.066677734 -0.07527883 -0.10761378 0.008685157 0.3854658 -0.044192676 -0.075152256 -0.09922476 0.09265948 0.08036995 -0.08369392 -0.054504193 0.17065977 0.033230238 -0.087277904 0.39538804 0.11259503 -0.06038704 0.1280335 -0.15634383 0.05770225 -0.10582978 -0.049000084 -0.03957626 0.097662896 0.34731984 -0.102732584 0.06494805 0.07910425 0.03672848 -0.05912052 0.121635385 -0.06607736 0.081005 -0.104531296 -0.08911276 -0.040780716 -0.1260186 -0.09621552 -0.08276184 -0.06300944 0.40843529 0.061521098 -0.07791438 0.026918791 0.020775694 0.1316461 0.0916546 0.013913281 -0.066551894 -0.046836667 -0.3124309 0.47646224 -0.031142555 0.01965896 -0.028178915
553 -0.17393656 0.020511672 0.0154493125 -0.084929645 -0.03662096 0.09261744 -0.115025744 0.04505259 0.11108647 -0.24432603 0.05961951 0.097599305 -0.050875902 0.04285358 0.11505083 -0.11030686 0.009622455 -0.19903892 -0.12846678 0.08836466 0.058358755 -0.053125896 -0.018390337 0.033330165 0.19648744 0.094179705 -0.22184399 -0.050741196 -0.015629467 0.044642463 0.2549363 0.10854633 0.08645585 -0.12655307 -0.27295363 0.24847344 -0.06209717 -0.07903237 0.044079766 -0.13556738 -0.17331953 -0.086805426 -0.15670696 -0.19643888 0.016931351 0.122667894 0.08577237 0.08308797 0.022348091 -0.1266808 0.27436355 -0.2666433 0.015128978 -0.23301499 0.027424145 0.063019425 0.11753614 0.014498591 -0.32197514 -0.046337295 -0.1101877 -0.06980037 0.30124792 0.008251857 0.09582404 -0.18863557 -0.28526866 -0.11559471 0.03662992 -0.021133251 -0.0838867 0.061254576 0.5383995 0.16766566 0.111119375 0.097159274 -0.11150394 -0.00050128624 0.23547617 0.26794142 -0.36749095 -0.088744864 -0.08808486 -0.11866945 -0.105196595 0.02542039 0.07652256 -0.005983159 -0.40764308 0.3078041 0.022176852 -0.20353098 0.35296446 -0.07210455 -0.1981729 0.23770884 0.0045696944 -0.34141022 0.017629236 0.020822227
554 0.12973759 -0.13180903 0.18790446 0.18926589 -0.15601233 0.1759981 -0.12998208 0.112839684 -0.1291002 -0.1688548 -0.17069802 0.16796833 -0.120097764 -0.1668014 -0.09291087 0.10401185 0.10604347 -0.14084893 -0.16047613 -0.18607415 0.086843 -0.11446228 0.13200401 -0.17313811 -0.12148638 -0.121488236 0.096891426 0.5407005 -0.17548321 0.17565379 0.029056937 0.16616991 -0.18151668 -0.16833775 -0.07999938 -0.0946003 -0.12815689 0.12977548 0.19350705 -0.09262589 0.12271557 -0.12471856 -0.119196914 0.093126304 0.14511076 -0.13089833 -0.107297875 -0.2003803 0.18146183 -0.13103394 -0.15635975 -0.1603501 0.08785277 0.151671 -0.12373825 0.2255983 -0.1375787 0.18505834 -0.14891773 0.19019113 0.13356408 -0.102269225 0.13813226 -0.18079805 0.13589033 -0.14201273 -0.20092636 -0.09406134 0.14770016 0.13515513 -0.057510756 0.17541991 0.13432707 -0.21536052 -0.49531087 0.120151386 -0.18479499 0.17022829 -0.1845763 -0.107441515 -0.1438903 -0.14840803 -0.10809187 -0.15345678 -0.17432018 0.19097361 -0.21106927 -0.13218816 -0.14190277 0.15784536 0.16486026 0.11266618 0.17481454 -0.12066504 -0.18299037 -0.19810025 0.11706805 -0.15565126 0.1046862 0.21138011
1614 0.17512572 -0.25811335 -0.042650204 0.08025035 -0.3150632 0.27815464 -0.104503855 0.046649344 -0.17007095 -0.34026456 0.055547606 0.21008174 -0.079623036 -0.20788853 -0.11128859 -0.027001418 0.1533916 0.012285054 -0.6064228 -0.24453545 -0.07679685 -0.39528018 0.1150661 0.082831755 0.2573703 -0.22153172 0.07264675 0.1632891 -0.101174206 0.21210396 0.3310515 0.11387122 -0.054672454 -0.18059625 -0.2436927 -0.33022848 -0.06884614 0.07984114 -0.330159 -0.17911166 -0.18854126 -0.12908055 -0.22158447 -0.17041127 0.029154925 -0.14179277 0.18375912 0.2830678 -0.13381954 -0.117314644 0.22663224 0.015073612 0.20250806 0.35193104 -0.14421532 0.20325197 0.28849298 -0.3324128 -0.1577919 0.13499011 0.08611177 -0.07990933 0.23113295 -0.2919941 -0.18504617 -0.29266572 0.04822988 -0.27774715 0.1297824 0.016387507 0.10421531 0.2695253 -0.14808239 -0.05606585 -0.19682989 0.14730087 -0.09397492 0.15455647 -0.3575226 0.18440974 -0.13761188 -0.21595374 -0.18834749 -0.07470929 -0.18635064 -0.37370372 0.25607184 0.055496566 -0.13274798 0.03334809 0.030982137 0.07573622 -0.39549005 -0.054479703 0.38743445 0.32216334 0.41861784 -0.21195176 0.3177402 0.13246298
1615 -0.057482947 0.40847585 0.09152005 -0.030883541 -0.14422897 -0.22686648 -0.16554727 -0.11608241 -0.025122251 -0.5774703 -0.041299496 0.48841122 -0.07698381 -0.23213765 0.017864669 0.07257123 0.26674968 -0.2752207 -0.18914467 0.11890494 0.08969205 -0.0996234 -0.041513536 -0.0118035 0.16226666 0.02248865 0.00931113 0.26973292 0.18303338 0.28092217 0.22123301 0.18539666 0.09928115 -0.13151103 -0.17846254 -0.043904357 -0.013989657 -0.061967403 -0.012665492 -0.121454805 -0.09299025 -0.20051005 -0.25240973 -0.062061023 0.060054462 0.19595471 0.0091781095 0.0015859231 -0.13362627 -0.0032442883 0.085195884 0.42042089 -0.12997401 -0.12634915 0.092348345 -0.05989976 -0.034115136 0.45949394 0.3269829 -0.3294744 0.028059464 0.0029580668 0.19044283 0.1205899 -0.17004819 -0.09015127 -0.21341647 -0.2048159 0.10959861 0.26493743 0.010590858 0.19960456 0.5884049 -0.17632058 0.14720908 0.007467635 -0.06281597 0.088947125 -0.11865627 -0.13976552 -0.084305786 -0.11233638 -0.34088606 0.0047370717 -0.08397095 0.22774124 -0.20740741 -0.083593845 -0.21237744 0.10107607 -0.05054469 -0.014981983 -0.18202901 -0.1066232 0.04535521 0.19199881 0.11629081 -0.23670363 0.20282742 0.15563959
368 -0.04792693 0.046129722 0.022879452 -0.08334564 -0.004091425 -0.06891598 0.09766056 -0.058465667 -0.23144881 -0.2905047 0.06314755 0.2933264 0.018312637 -0.22807026 0.12905653 -0.07995665 0.29979536 -0.3118598 0.033021726 -0.046738334 0.037992977 0.11830273 0.24022084 0.062053375 -0.0099178245 -0.061801318 0.02254932 -0.0076708123 0.07606074 -0.08308316 -0.10726711 0.008925803 0.10324132 -0.21470535 -0.024474591 0.13638692 0.09291649 -0.035303064 0.13095275 -0.0018382743 -0.13386765 0.08627906 -0.01973889 -0.1290582 -0.029704574 0.07405081 -0.2675113 0.112755865 0.24776773 -0.3210812 0.10264605 0.045538362 -0.120834574 0.09950152 0.07408908 0.04430802 0.1551078 0.21735103 -0.04174409 0.23047817 -0.0020934194 0.090338014 0.09747395 -0.009154148 0.2973125 0.018884262 0.08670191 0.027893886 -0.03472007 0.2881033 -0.14730388 -0.08526441 -0.079243585 -0.25432414 0.09572829 -0.12442319 0.034857016 -0.0028780699 -0.3374174 0.0686566 -0.012369275 -0.26843295 0.014014099 0.05810508 0.051984638 -0.01941359 -0.12508626 -0.37087223 0.08586801 -0.015348293 -0.020208094 -0.06375813 -0.03985364 0.010190301 0.10973372 0.19572523 -0.05663688 -0.08018737 0.1603001 0.2727041
1093 -0.01844458 -0.13285962 -0.12950611 0.041554134 0.025178345 -0.24438797 -0.027338058 -0.007419668 -0.061989535 -0.21888784 0.07686333 0.06201146 -0.07106422 -0.11677465 -0.046923224 -0.058133982 0.16500965 -0.45289552 -0.15072301 0.061315604 0.112979576 -0.08073505 0.0812318 0.0025165863 0.12714507 -0.085793436 -0.05248853 0.10112748 0.021469638 0.3307821 0.08942655 0.10338718 0.04931261 -0.059347916 -0.13788162 -0.033400793 -0.015633896 -0.08094856 0.037026033 -0.0372538 -0.1367038 -0.01805643 -0.12236974 0.06505707 0.095692895 0.066626295 -0.28740355 0.10466985 -0.028433464 -0.06646401 0.030093763 -0.025188088 0.005994804 0.07803719 -0.015462175 -0.2892806 0.03782046 -0.06987235 0.06787841 0.046216697 -0.09639235 -0.08334625 0.13435352 -0.17813279 0.1789532 0.028420927 0.06936064 -0.1016199 -0.020230122 0.14041656 0.0041475 0.12226761 0.1257011 0.115607895 0.026676822 -0.036563456 0.06825173 0.096750066 -0.042818435 -0.014861004 -0.26429877 -0.49018282 -0.37769306 -0.48961058 -0.018670857 0.15348873 -0.2865077 -0.06608792 -0.5734522 0.110344805 -0.07850151 -0.097834185 -0.3173766 -0.11449576 -0.038272083 0.10465415 0.06270584 -0.06656064 0.023679525 -0.2839368
780 0.15797438 -0.11958258 0.15706752 0.16127485 -0.10649733 0.12828878 -0.116506085 0.09942498 -0.13114402 -0.19911078 -0.1653055 0.16099098 -0.15684958 -0.12609884 -0.16071774 0.18882275 0.089430526 -0.19619942 -0.1581938 -0.13408859 0.15683708 -0.1725636 0.121099755 -0.14289941 -0.10843009 -0.11729719 0.14532903 0.51069546 -0.16097267 0.18147126 0.0038129836 0.10247606 -0.15985256 -0.1642761 -0.1265325 -0.14265698 -0.09342474 0.11672133 0.12164993 -0.11725374 0.13763382 -0.18809287 -0.11414102 0.08314289 0.120141566 -0.15573603 -0.18203667 -0.18763909 0.19859459 -0.1363933 -0.17551464 -0.12155326 0.10919696 0.18161026 -0.11796421 0.18416162 -0.09367041 0.13238789 -0.09758431 0.15584831 0.11869975 -0.12089961 0.13521299 -0.08765563 0.15116592 -0.104563326 -0.5281386 -0.11730182 0.13725576 0.13792244 -0.13546942 0.16335711 0.103329115 -0.13331869 -0.4990864 0.088827975 -0.122636065 0.14759491 -0.13572177 -0.17640488 -0.1137641 -0.11458062 -0.12667665 -0.08240098 -0.16869375 0.17271604 -0.20284858 -0.0864225 -0.12370912 0.16767986 0.17453358 0.17579876 0.15274397 -0.17904072 -0.1768221 -0.16708258 0.11744367 -0.1884961 0.18052864 0.13972417
1622 -0.21467844 0.0977203 -0.07265077 -0.0226734 -0.08565906 -0.018525176 -0.1610507 -0.005279649 0.11359534 -0.0026976168 0.08107373 0.0024589747 0.014276555 -0.23683703 0.026190277 -0.16728562 -0.057124995 -0.27279878 -0.077165104 0.15402438 0.055230234 -0.3048945 -0.11186984 0.06389463 0.20606981 -0.037373953 -0.13864529 -0.019329056 0.025094323 0.0497092 -0.052370872 0.19308838 0.021209585 -0.26614064 -0.0022816882 -0.18963963 -0.24761531 -0.074785516 0.13066253 0.013420828 0.22374809 0.009508319 -0.23619203 -0.2009834 -0.14369568 0.013212934 0.07091744 0.0960583 -0.1376639 0.028672986 0.15205027 0.017653676 -0.03904099 -0.058757797 -0.03691525 0.055930734 0.15507586 -0.04064574 -0.050322283 0.11596749 0.011128243 -0.07717228 0.0026637688 -0.06004462 0.009277165 -0.31227067 -0.2594603 -0.14622256 0.013420977 0.35491598 0.14107345 0.20812204 0.40094134 -0.33263156 0.12102638 0.011099394 -0.024543457 -0.065559685 -0.2591502 0.14480004 -0.09721568 0.10733041 -0.08261055 -6.504357e-05 0.04030851 -0.06865373 -0.30618227 0.09413931 0.081542775 0.3285944 -0.067085184 0.21883832 0.3860677 -0.12384617 -0.22620536 0.30131537 0.34998214 -0.11008978 -0.09420692 0.015299775
1099 0.16319817 -0.09745508 0.17801148 0.15155534 -0.096868016 0.15160897 -0.10343832 0.16089281 -0.07177262 -0.082650036 -0.12773669 0.119620204 -0.13112305 -0.14103305 -0.13864669 0.13578604 0.14070642 -0.17113742 -0.46316364 -0.17737974 0.12350036 -0.15486228 0.1436461 -0.107428424 -0.16298334 -0.13874353 0.08473948 0.10761388 -0.13028252 0.09927632 0.29811114 0.09393008 -0.17387876 -0.14051747 -0.06742915 -0.10210025 -0.11386417 0.09296398 0.1439586 -0.106890626 0.1737309 -0.16348436 -0.08936137 0.56129164 0.14558184 -0.10461441 -0.12681945 -0.15525034 0.082041666 -0.103980936 -0.15281682 -0.16564693 0.13511436 0.121230066 -0.17386776 0.13549234 -0.06596341 0.16867672 -0.13647327 0.12352541 0.10313171 -0.10572515 0.062267512 -0.14187762 0.13818206 -0.12054513 -0.16740029 -0.14215288 0.13591859 0.08633285 0.3371498 0.13900772 0.0980135 -0.117311165 -0.053504355 0.103430934 -0.1306215 0.066045135 -0.52239233 -0.11634594 -0.16181189 -0.16545554 -0.13436101 -0.117104396 -0.06874272 0.06360828 -0.119948715 -0.15345505 -0.15025112 0.06730832 0.15257047 0.12185837 0.43108428 -0.077746615 -0.12632108 -0.14456904 0.09168047 -0.14296608 0.091252044 0.15785198
1626 0.13477693 -0.16045702 0.19426666 0.09939691 -0.09824161 0.15046602 -0.16995862 0.114140145 -0.14285418 -0.23319696 -0.21666735 0.13233799 -0.13996112 -0.20705086 -0.12760262 0.10328014 0.15302041 -0.15217969 -0.19123706 -0.14735393 0.157835 -0.20132993 0.15620837 -0.0962411 -0.15585016 -0.07934003 0.15949962 0.59364444 -0.1457028 0.12422235 0.063055284 0.13677928 -0.12656154 -0.09203175 -0.10100906 -0.10565284 -0.11946328 0.15786543 0.15620692 -0.11654124 0.17433958 -0.12817842 -0.093134806 0.16693768 0.120233595 -0.18663608 -0.12593544 -0.1542956 0.13695699 -0.16981345 -0.16457428 -0.13539669 0.11486684 0.113711864 -0.118057355 0.20020606 -0.17205244 0.21017013 -0.14792609 0.1791933 0.1699579 -0.11688016 0.14273058 -0.17824735 0.17297964 -0.12539345 -0.2156862 -0.11279696 0.16272219 0.15557978 -0.09469367 0.14366227 0.14372587 -0.16719736 -0.4460879 0.18191591 -0.1458987 0.094029084 -0.13000026 -0.12971827 -0.1254393 -0.18105657 -0.1390654 -0.16798602 -0.14859138 0.15054116 -0.22177455 -0.14484343 -0.19013253 0.14277613 0.0959511 0.17371416 0.21783799 -0.14331448 -0.22761488 -0.15601149 0.1172957 -0.13667531 0.17164119 0.16933164
73 0.09116059 -0.12665753 0.12954023 0.10252375 -0.11169252 0.1483554 -0.13513367 0.15211062 -0.12076017 -0.19206603 -0.20244601 0.14215071 -0.16136244 -0.17312019 -0.15867032 0.12861112 0.15785131 -0.20376045 -0.21777888 -0.19146875 0.09164738 -0.14633703 0.15195414 -0.1483781 -0.1432852 -0.13017295 0.12001695 0.5438688 -0.15615276 0.19122808 0.08707616 0.15318215 -0.17408222 -0.1270498 -0.081784606 -0.1562462 -0.12662831 0.14559352 0.14293474 -0.07809458 0.15770778 -0.17446692 -0.10908188 0.11853787 0.098383695 -0.16030957 -0.18343678 -0.21528317 0.20276114 -0.17759217 -0.19426736 -0.14588681 0.13445641 0.1317702 -0.088413306 0.17428677 -0.17526352 0.1711114 -0.19852169 0.16584358 0.13813718 -0.08613997 0.106062315 -0.13455915 0.20058787 -0.16566148 -0.1953184 -0.14545722 0.16880257 0.20328334 -0.071351916 0.1737524 0.18429889 -0.1575003 -0.5109883 0.11350422 -0.16613813 0.13187228 -0.18044405 -0.13550034 -0.10909152 -0.12822512 -0.1120774 -0.15457171 -0.1234445 0.14292783 -0.20874605 -0.13743499 -0.14694287 0.09689462 0.16513921 0.1653964 0.15273598 -0.14279999 -0.1660921 -0.15864253 0.13421191 -0.13051678 0.14475691 0.14811842
1353 -0.073185675 -0.13514853 -0.012463726 -0.13650581 0.09319866 -0.10649205 -0.09022018 -0.08865133 -0.08331946 -0.18047145 0.0634116 0.41515115 -0.2803677 0.027216636 -0.058547355 0.069215775 0.16200167 -0.22792861 -0.20805532 0.15190963 -0.0077482164 -0.3962444 0.19463001 0.029075732 0.07774606 -0.09068186 -0.13943517 0.02818434 -0.091238506 0.091163255 0.25828794 0.2747723 0.02658768 0.087425396 -0.25725317 -0.007607639 -0.048764065 -0.10352017 0.0711571 -0.22370824 -0.07137756 -0.17892098 -0.13306525 -0.14110187 -0.014550675 0.06609838 -0.2149351 -0.14789 0.160343 -0.019280072 0.09932001 -0.011949673 0.10429684 0.17517784 -0.07436356 -0.1381528 -0.09988655 -0.046778724 0.14514554 -0.026973657 -0.088745415 -0.045171946 0.5921737 0.21796405 0.1337787 -0.11653003 0.22431645 -0.13740149 -0.19158545 0.24415389 -0.08049889 0.14499316 0.03991708 0.16928159 0.11376906 -0.24104421 0.026661154 0.17821237 -0.3534377 0.077210024 -0.2309645 -0.05400811 -0.07469389 -0.15806639 -0.24791926 0.1723991 -0.25090867 -0.14533216 -0.23038393 0.012184009 -0.13333586 -0.16659598 0.025939258 -0.021519959 -0.058871955 0.026302107 0.10865389 0.11009034 -0.096263714 -0.019452836
1906 0.13960162 -0.14346008 0.109555684 0.17435725 -0.13255155 0.20963052 -0.13403828 0.18343249 -0.20216367 -0.17748496 -0.17566684 0.09536413 -0.12021376 -0.15218806 -0.17492905 0.14347446 0.11298749 -0.17034067 -0.22423112 -0.17334275 0.187526 -0.17797366 0.16643475 -0.17632128 -0.11411157 -0.1754556 0.11336299 0.5507482 -0.14382745 0.15411034 0.105731755 0.13050221 -0.14932036 -0.11393978 -0.09009303 -0.11517455 -0.15839836 0.14839251 0.14245501 -0.10681363 0.1864667 -0.13641629 -0.09854463 0.13438231 0.18359652 -0.13334797 -0.15703535 -0.16972245 0.22789055 -0.094318256 -0.17086332 -0.17733182 0.16666742 0.10796337 -0.12069523 0.21820162 -0.18806507 0.15239888 -0.20148945 0.16800025 0.16614838 -0.093490265 0.08484353 -0.12324557 0.14340034 -0.104695745 -0.2206006 -0.094003245 0.10124781 0.19976237 0.036033817 0.15298814 0.17693126 -0.21382058 -0.46343693 0.15683834 -0.14433205 0.096911944 -0.16934355 -0.108066276 -0.17149527 -0.13537802 -0.1182213 -0.1369789 -0.09536334 0.16907723 -0.24335523 -0.10978303 -0.2077889 0.1062775 0.17615505 0.1446344 0.19353762 -0.1632662 -0.19530651 -0.19190313 0.12603477 -0.16728702 0.13178247 0.23169738
523 -0.12111466 0.10371167 -0.19950643 -0.05354202 0.089722425 -0.18507755 -0.030607656 -0.058600478 -0.063302375 -0.2536199 -0.066158354 0.1676446 -0.07169216 -0.022622868 -0.1270095 -0.019741088 0.0009929836 -0.1903348 -0.17816128 0.18597741 0.06693052 -0.06693241 0.0813417 0.18911983 0.1802262 -0.05066081 -0.056432076 0.013842598 -0.021881193 0.024858393 0.21317422 -0.062031247 0.14768705 0.024991844 -0.48693106 0.032721926 -0.08661219 -0.16012858 0.06294705 -0.46090165 -0.12256807 -0.07348568 0.009025788 -0.061096914 -0.0948261 0.15261562 -0.168024 -0.18401212 0.0579177 -0.080114216 0.110683724 0.0728559 0.19366382 -0.19610924 0.016377706 -0.10639538 -0.053907387 -0.2316318 0.077158995 0.15046442 -0.09517671 -0.015318006 0.5782747 0.21883874 0.06532339 0.14132297 0.1704679 -0.16237177 -0.19178694 0.21982567 -0.053357173 0.47419545 0.5687261 -0.053842 0.11353559 -0.326078 0.03344121 -0.27216092 -0.2254523 0.096541435 -0.022887792 -0.21138269 -0.013714567 -0.13782395 0.0015390664 0.17141412 0.18517123 -0.09425668 -0.6346243 -0.053630456 -0.086812586 -0.17443141 0.13027027 -0.08643309 -0.060655076 0.061516084 0.2271935 0.122860916 -0.06420979 0.07117298
572 -0.004594028 -0.14805822 -0.1796453 -0.016340297 -0.010808858 -0.24830641 0.021484971 -0.105637595 -0.009458296 -0.5212791 0.10929671 0.14239761 -0.05266417 -0.096304774 -0.06719394 -0.07500079 0.5160712 -0.11061024 -0.117377676 0.12473148 0.105246365 -0.034944974 0.00626282 0.055799413 0.032909244 -0.13266954 -0.012826003 0.17943339 -0.021551974 0.3752857 0.24804138 0.15265097 0.06966402 -0.12684621 -0.13182275 -0.034011472 -0.06908978 -0.119741574 -0.0229324 -0.043510903 -0.16879714 -0.0007568449 -0.19194381 -0.11016216 0.043680236 0.097482175 -0.08924801 0.068991184 -0.031227253 -0.102480285 -0.050414108 0.022721648 0.069223255 0.0716999 -0.095438056 -0.35177457 -0.0013483521 0.02332972 -0.034660533 -0.030449253 0.062435865 -0.061135896 0.12099467 0.07827115 0.2010574 -0.046401545 -0.0837425 -0.13365807 -0.011209309 0.14328876 -0.045087285 0.114983864 0.16642743 -0.030993938 0.06882574 0.222912 0.010348126 0.1446444 -0.31881028 0.10665072 -0.30719256 -0.5337651 -0.46653104 -0.13888727 -0.109039746 0.18285291 -0.29646748 -0.1243607 -0.23417275 0.13253632 -0.052024983 -0.085987 -0.15103051 -0.1458384 -0.0028733313 0.14172597 0.074237525 0.27126724 0.08124102 -0.47745183
1107 0.12578844 -0.11862736 0.15712625 0.092743926 -0.094643734 0.32162288 -0.105424345 0.13351317 -0.077537335 -0.013919368 -0.008110449 0.0848791 -0.09198185 -0.0022105873 -0.13863994 0.1464151 0.08565638 -0.38870716 -0.05829636 -0.08866393 0.16441587 -0.075982325 0.12939504 -0.17683107 -0.08563024 -0.09633613 0.10867895 0.3059487 -0.09648657 0.09271328 -0.0869167 0.0137174055 -0.10461469 -0.1405652 -0.092651665 -0.052662827 -0.07376912 0.075928375 0.10621851 -0.10568534 0.114357 -0.06695846 -0.077484295 0.067920014 0.116910696 -0.15036133 -0.10756759 -0.32314578 0.017569609 -0.120073795 -0.07549274 -0.15402108 0.12074159 0.10715456 -0.08120703 0.020929731 -0.27031475 0.096655004 -0.119301274 0.07025637 0.08454357 -0.1472899 0.1036689 -0.11972733 0.025210232 -0.11745421 -0.33536562 -0.13046065 0.40062603 0.0061082393 -0.03430757 0.3631919 0.12792745 -0.056603312 -0.021102004 0.06976126 -0.06780723 0.051368315 -0.032556765 -0.077627406 -0.14759715 -0.093064964 -0.1302589 -0.103704415 -0.041911796 0.05708138 -0.04374948 -0.17388184 -0.3760609 0.45264265 0.15790832 0.11250656 0.066128306 -0.11766696 -0.03344363 0.10265976 0.13543722 -0.15210982 0.35534516 0.09537004
1638 0.060816072 -0.05551691 0.13754705 0.11342275 -0.08506044 0.29764134 -0.040276088 0.13785209 -0.04658945 -0.3285323 0.0536487 0.05131283 -0.095176466 -0.0054237396 -0.06202683 0.072042555 0.045762833 -0.38126233 -0.031163797 -0.08408371 0.5488762 -0.014164612 0.10200439 -0.09831165 -0.12584092 -0.07039967 0.06999743 0.3411355 -0.0859808 0.015867226 -0.10765383 0.05287221 -0.0943684 -0.10928722 -0.07719729 -0.14170814 -0.02423406 0.08171287 0.08081828 -0.05006232 0.108842015 -0.38711566 -0.081369184 0.09135431 0.15723892 -0.08144546 -0.048722893 0.05174636 -0.016443469 -0.082224816 -0.14670679 -0.088115394 0.1105509 0.1408111 -0.07760143 -0.053013492 0.0903901 0.003486216 -0.119552106 0.10844345 0.14821075 -0.10017546 0.095904425 -0.09563239 0.3621745 -0.060492814 0.023724772 -0.050723232 0.38987666 -0.00023014098 0.15697104 0.3254836 0.054846074 -0.04264643 -0.062134188 0.06936884 -0.108643666 0.076229684 -0.4664302 -0.049089134 -0.0693461 -0.108295605 -0.09597927 -0.07695907 -0.10108735 0.04461634 -0.0120817125 -0.10475043 -0.32961148 0.42736858 0.077549405 0.108281806 0.01468391 -0.05572654 -0.099355556 0.23208362 0.12133457 -0.113488175 0.30741608 -0.00443992
1639 -0.08786428 -0.23068821 -0.047013067 -0.031094044 -0.0995952 -0.09139605 -0.06868842 -0.09978903 0.15981701 0.020616472 -0.32828695 -0.11709415 -0.012552977 0.015555792 0.053152442 -0.04622841 0.038905587 -0.27988413 -0.36394238 0.056461852 0.029090751 0.04051387 -0.04815402 0.04539192 0.11821233 -0.103838325 -0.070241414 -0.10803376 0.12898326 0.067973584 -0.10526962 0.009725094 0.10806814 -0.39357036 -0.030937634 -0.2451432 -0.32537216 -0.09951998 0.123999804 0.020272937 -0.13197723 -0.1712531 -0.11677832 0.2505822 -0.030268017 0.09388403 0.119937435 0.13598645 0.22403316 -0.115293495 0.03186231 0.023620531 -0.11843935 0.0057899207 -0.10738161 -0.060060382 -0.3099751 0.005630046 -0.09283273 -0.07463773 0.08804994 -0.06204295 0.17196412 0.049276568 -0.042722903 -0.09462541 -0.20021574 -0.1275333 -0.11647335 -0.005493954 -0.4270603 -0.059846103 0.033091947 -0.33579144 0.105694786 0.20733199 0.069760755 -0.007998489 0.0014528558 0.09370407 0.12455475 0.13146736 -0.08980461 -0.041354664 -0.4225205 -0.08697635 -0.22809719 -0.02030494 -0.33630896 -0.013154227 -0.08268757 -0.069770455 0.17701125 0.07327154 -0.17907193 -0.38310096 0.3810588 -0.05062552 -0.114244536 0.27668357
1112 -0.35680157 -0.16162905 -0.051362313 0.077474535 0.19650802 0.14840087 -0.1213531 0.10920793 -0.07090846 -0.15933928 -0.010879926 0.08699736 -0.10726344 0.1274279 -0.13554856 -0.04699467 0.017571766 -0.027538411 -0.60929143 0.6128678 0.1405412 0.120514855 -0.16666105 0.0028065816 0.44133234 0.027732667 -0.100250304 0.17661557 -0.1729011 -0.10553385 0.5596547 -0.05073621 -0.066108406 0.00476072 -0.07994143 0.03943315 -0.16253455 0.11545423 -0.39993504 -0.06913701 -0.25545204 -0.10749088 -0.13529633 -0.11518537 -0.4853153 -0.15547518 -0.19277966 0.09725229 0.20266305 -0.0026751217 0.0900478 -0.21525949 0.13103314 -0.57796824 -0.14095135 0.11699509 0.032154582 -0.25006023 0.013480127 0.41427943 0.13292268 -0.028456897 0.20799923 -0.06767647 0.21077573 0.059052326 -0.051932234 -0.057284288 0.077811494 0.029896453 0.17167613 0.6490407 -0.04938644 0.077518344 -0.12944356 0.12476872 -0.0888648 0.13832335 0.09934947 0.21554536 0.013807487 -0.029749997 -0.16601574 -0.044230007 0.041258596 0.010085259 0.003969915 -0.31102005 -0.037999198 0.018841065 0.03717173 -0.06382446 0.13950163 -0.037162352 0.3079151 -0.040555954 0.003836004 -0.043886628 0.1460615 0.13694394
409 -0.082611546 -0.13612986 -0.04804746 -0.20008081 0.21802169 -0.18496618 -0.053388633 -0.14906718 -0.06960389 -0.12382117 -0.073955044 0.46178663 0.07144523 -0.27086514 0.0071275383 0.24806485 0.03780979 -0.07703112 -0.26328838 -0.15725231 -0.07472599 -0.16330087 0.18381263 -0.11554976 0.1914906 -0.44066587 -0.23650463 -0.23411041 -0.18921818 -0.069638014 0.20279059 0.06837928 0.11358571 -0.084757425 -0.13480589 -0.39191693 -0.12318413 -0.11441511 -0.05916419 0.04053376 -0.06739181 -0.08420828 0.007721558 -0.09240501 -0.120937005 0.16150479 0.005949579 0.013776822 0.14366604 -0.13090247 0.10632722 0.2930911 0.21131995 0.17341094 -0.12894706 -0.106087804 -0.038656298 0.20567238 0.17022099 -0.32858032 -0.05974444 -0.24447522 0.5618303 0.232195 0.16047958 -0.09179101 0.44269565 -0.2552706 0.22139433 0.19689517 -0.21283951 0.1526622 0.19215961 -0.094103105 0.05687833 -0.47386762 0.046238422 -0.031276606 -0.019862063 0.20918427 -0.07386265 0.13000132 0.081628636 -0.21265297 -0.28554845 0.16210143 -0.006964147 -0.27478603 -0.565003 0.0692233 -0.1101359 -0.2148383 -0.14115138 -0.04194556 -0.14573441 -0.036304366 0.39524665 0.08198218 -0.07620664 -0.0871161
1249 0.17434628 -0.12622431 0.18724933 0.1398947 -0.10122353 0.17427753 -0.17452438 0.18766464 -0.158836 -0.18998107 -0.12158594 0.15311578 -0.074207634 -0.10712166 -0.11886363 0.14598206 0.17195338 -0.14900422 -0.1297228 -0.14233974 0.11005918 -0.18728206 0.18743375 -0.101849616 -0.104200654 -0.094703175 0.10633135 0.517443 -0.116766736 0.17654324 -0.21149595 0.14991246 -0.13875856 -0.14923796 -0.08204254 -0.10258711 -0.08544119 0.1910715 0.116208315 -0.18779866 0.11860268 -0.20869303 -0.13876812 0.16509761 0.12056248 -0.12206664 -0.18043181 -0.20008415 0.15034205 -0.07932679 -0.117402345 -0.15407394 0.12010738 0.17768109 -0.15728822 0.15086715 -0.44642106 0.12285986 -0.12518676 0.15051393 0.15892316 -0.14466718 0.16572008 -0.109003834 0.16642858 -0.11477437 -0.5932732 -0.090166986 0.11066193 0.22262222 -0.25956637 0.18724404 0.12272929 -0.19671977 -0.49671033 0.14512798 -0.14147842 0.13122246 -0.18963183 -0.14750841 -0.13019158 -0.12604891 -0.1642183 -0.074242055 -0.17704609 0.13776278 -0.19520952 -0.117691666 -0.16796422 0.09634555 0.123753786 0.15790442 0.16925049 -0.13620855 -0.15622686 -0.10554591 0.10156265 -0.16729046 0.17895135 0.18015222
1263 0.17879237 -0.1737225 0.19722678 0.13289216 -0.12132436 0.18103434 -0.12108273 0.09291995 -0.15402845 -0.1767889 -0.20299079 0.093526326 -0.12605527 -0.19435845 -0.1257694 0.188027 0.15105598 -0.17303075 -0.23588914 -0.2001869 0.08301079 -0.1530914 0.1433698 -0.18472485 -0.18532181 -0.13131303 0.18468705 0.53980106 -0.11201543 0.12197615 -0.1678232 0.0836913 -0.11012438 -0.09379243 -0.15357883 -0.08428732 -0.16508582 0.14338346 0.104539745 -0.14212555 0.109563395 -0.22177851 -0.15963782 0.16826881 0.12340263 -0.10775499 -0.11093648 -0.14243773 0.20696405 -0.17448828 -0.1431644 -0.17983532 0.14823206 0.15592077 -0.1264558 0.16571707 -0.13825783 0.16197374 -0.11263877 0.18076648 0.13324203 -0.1498099 0.13818991 -0.124779746 0.14518385 -0.091028616 -0.5193533 -0.1709774 0.11066775 0.16181245 -0.07735451 0.17474347 0.09886123 -0.15446143 -0.4713624 0.13458571 -0.14786258 0.13286136 -0.15272155 -0.14140826 -0.11705336 -0.13893819 -0.16421825 -0.120157816 -0.108220436 0.22203031 -0.23490216 -0.10656546 -0.15431923 0.10352214 0.11799226 0.11168672 0.16321191 -0.13224299 -0.2159171 -0.13073145 0.09022181 -0.21234088 0.10706299 0.2343505
177 0.14737225 -0.13555828 0.18400715 0.14011158 -0.14144702 0.1843647 -0.12784377 0.18455835 -0.1549679 -0.17973256 -0.21126732 0.11075574 -0.13311955 -0.18348274 -0.15202367 0.13269916 0.14016038 -0.17076163 -0.13941935 -0.16329344 0.08606011 -0.1783658 0.19388208 -0.18127213 -0.18575771 -0.112616934 0.18451396 0.5347189 -0.17296834 0.15338539 0.10731943 0.14210077 -0.10107752 -0.15228146 -0.15927818 -0.16216394 -0.11070715 0.1810241 0.11074561 -0.12041257 0.16034612 -0.187039 -0.11586718 0.13829175 0.15460357 -0.16183108 -0.19062869 -0.21801586 0.16408527 -0.14827462 -0.10359135 -0.18304273 0.094323575 0.09518552 -0.14279814 0.17417929 -0.1294539 0.22079709 -0.12731855 0.18740417 0.094109334 -0.103981055 0.11230791 -0.09893152 0.2052818 -0.1881359 -0.21394107 -0.086393885 0.15589228 0.17618515 -0.09938489 0.17655438 0.09161759 -0.18292567 -0.43111968 0.10992631 -0.112278804 0.085370615 -0.13475925 -0.13699727 -0.12615304 -0.17041054 -0.1714828 -0.13580012 -0.10371652 0.14536014 -0.15763699 -0.09858542 -0.18225536 0.16889542 0.14928693 0.17851678 0.15404493 -0.13152899 -0.13495924 -0.20445603 0.117720835 -0.10780504 0.16552083 0.20365308
1052 0.08649502 -0.14540415 0.07321545 0.10273515 -0.15710482 0.07975241 -0.14243405 0.1207722 -0.07394618 -0.12914053 -0.40544856 0.08621076 -0.07460919 -0.4471826 -0.08967695 0.11636427 0.15082613 -0.07227046 -0.13883114 -0.10546563 0.105601534 -0.11492207 0.16179334 -0.11685197 -0.1135653 -0.120700546 0.18143599 0.103750534 -0.12364496 0.110272326 0.30192137 0.08160545 -0.14278714 -0.16135915 -0.063010514 -0.056861687 -0.46909645 0.12533037 0.09626822 -0.1661274 0.14696942 -0.17236117 -0.09826819 0.046969093 0.06528871 -0.11973388 -0.075057425 -0.106335185 0.13120854 -0.17797236 -0.10592139 -0.15279159 0.115271814 0.15247223 -0.15395823 0.13330418 -0.2772331 0.1418216 -0.15758325 0.09305845 0.12619722 -0.15389164 0.131418 -0.10539625 0.123668164 -0.16972561 -0.1440263 -0.079153955 0.5264081 0.46129566 0.018799089 0.04901935 0.13508904 -0.16430074 -0.1216826 0.12861787 -0.084054165 0.08596574 -0.050799306 -0.10674408 -0.16086215 -0.13798107 -0.11054955 -0.16084316 -0.07263581 0.14652976 -0.08826107 -0.12283744 -0.08071869 0.09467057 0.11079275 0.16333768 0.099067286 -0.19691885 -0.13048278 0.08718865 0.09535874 -0.080176204 0.10211292 0.096325815
587 -0.089719534 -0.24336387 -0.1449736 -0.11569832 -0.0743903 -0.16888323 -0.050771963 -0.07323082 0.014466524 -0.49788347 -0.030389793 0.11748518 -0.045040198 -0.020036928 -0.10577 0.12318843 0.50860536 -0.11943648 -0.52855074 0.15018454 0.071726196 -0.10990539 0.14520115 -0.056456633 0.09102063 -0.1751246 -0.15704246 0.056672588 0.044182748 0.43276682 0.21847272 0.22716843 0.089628205 -0.15975298 -0.14169562 -0.39108935 -0.11397433 -0.054746516 0.0070543364 -0.1117032 -0.13176298 0.08087903 -0.022236366 0.050407935 -0.020419177 0.1207322 -0.12735102 0.08704561 0.07768929 -0.05358142 0.066581964 0.16885887 0.035233334 -0.009575233 -0.025080722 -0.30394778 -0.061430782 0.2261461 -0.16472155 0.21514702 -0.018347815 -0.09345482 0.19390023 -0.27961916 0.09469431 -0.14464377 -0.16250318 -0.535445 0.00986319 0.1074244 -0.19856858 0.15023014 0.09143244 -0.052584507 0.114945926 -0.044109754 0.018670343 0.072136246 -0.07144523 -0.027382353 0.3034915 -0.03632567 -0.35896677 -0.09731232 -0.1298654 0.14261761 0.09432572 -0.19957474 -0.15859728 0.038772523 -0.0016431361 -0.17174813 0.040252194 -0.021298768 0.21177173 0.047481522 0.16055946 0.49755412 0.0053494647 -0.21560454
588 -0.19285557 0.06383979 -0.23502621 -0.208071 -0.2284882 0.0035385638 -0.103490666 -0.16974393 -0.024735684 -0.27858955 0.19567548 -0.009508017 0.04302283 -0.40856412 0.088186935 -0.47820887 0.12985551 -0.17802477 -0.21315987 0.18558717 -0.24425763 0.052910045 -0.17288744 0.21629384 0.20586798 -0.22841719 0.22935979 -0.038536195 0.15463588 0.13872284 0.076733544 0.49728367 0.24377625 0.013396347 0.0662444 0.22957122 0.111037806 -0.20161752 -0.29240116 0.12576252 -0.2590958 -0.20725432 -0.14996517 0.09019449 -0.13913207 0.18898962 -0.064023025 -0.16876094 0.16044252 -0.20933193 -0.18978126 -0.040612407 -0.088367745 -0.04299417 -0.17316535 0.17873162 -0.030558117 0.26896995 0.23849814 0.18412921 -0.15387052 0.13500275 0.18480004 0.23484048 0.20877138 0.19543214 -0.22010228 0.06343311 0.25343904 0.3585013 -0.20285836 -0.10328226 0.08966499 -0.21372394 0.19900198 0.07386391 0.14301655 0.17610717 0.2304953 0.27417853 0.08468774 -0.14183123 -0.14789516 -0.28412628 -0.047938205 0.20361298 -0.06537107 -0.05957496 -0.262229 -0.12172479 -0.18200722 -0.20501146 -0.23705196 -0.02103974 0.016826987 -0.03988023 0.1623062 -0.015294701 -0.089046836 0.15147085
1124 0.03667503 -0.11984223 0.1610042 0.13181892 -0.16365924 0.3431606 -0.119168326 0.11099994 -0.049397245 -0.07371497 -0.21866304 0.14500178 -0.11677136 -0.36819947 -0.10302332 0.06431325 0.18372764 -0.065583766 -0.050458163 -0.06473465 0.08877221 -0.3544651 0.113153584 -0.078307346 -0.10306641 -0.1369135 0.15415004 0.087887414 -0.16301818 0.1345326 0.07642683 0.44586343 -0.05736707 -0.06645106 -0.12820308 -0.11064503 -0.10349783 0.07628446 0.011591688 -0.14007454 0.062274814 -0.112739794 -0.12645848 0.13276649 0.09349246 -0.13894504 -0.07918003 -0.29374075 0.06704259 -0.11363287 -0.0617574 -0.16138364 0.112141035 0.12877934 -0.08583868 0.089904696 0.017588727 0.1256312 -0.15718442 0.13197297 0.10553594 -0.10564836 0.13866633 -0.08635158 0.13760921 -0.120478496 -0.42686224 -0.13535702 0.07682611 0.091921516 -0.07667184 0.03847053 0.12909251 -0.10289725 -0.038993422 0.1674272 -0.07295714 0.1057054 -0.061508857 -0.12457409 -0.09623785 -0.091735125 -0.14265162 -0.12845269 -0.17265414 0.07649608 -0.05083511 -0.08349825 -0.13196403 0.08312806 0.15348418 0.12615806 0.077769466 -0.11706242 -0.10561171 0.088684544 0.16978393 -0.14629292 0.37262037 0.36852464
590 0.12045256 -0.16493715 0.13151476 0.13463636 -0.090732954 0.106790625 -0.11521926 0.14211258 -0.17520125 -0.17425197 -0.22027567 0.16737464 -0.10062313 -0.11762674 -0.07531231 0.12800968 0.12929286 -0.115273714 -0.19407266 -0.16388737 0.1003355 -0.18333448 0.11599004 -0.114975706 -0.13170375 -0.13390121 0.14517225 0.14107215 -0.147252 0.12173775 0.36478162 0.14565007 -0.11389056 -0.18942972 -0.12887345 -0.10202841 -0.16405304 0.16340789 0.14735402 -0.079423636 0.13625711 -0.16305105 -0.10398148 0.11693466 0.16186918 -0.09716204 -0.10570534 -0.17972295 0.15696958 -0.12969436 -0.12999088 -0.21868429 0.1509376 0.16566984 -0.17442533 0.18053387 -0.14921455 0.1453945 -0.107867785 0.17059678 0.1859094 -0.13516149 0.08943264 -0.108127266 0.21076243 -0.15003133 -0.14229973 -0.094935864 0.48954076 0.17235467 -0.033155017 0.50516933 0.15189338 -0.21462724 -0.14802921 0.17552735 -0.1237685 0.11261799 -0.1321332 -0.10286348 -0.08772177 -0.14155702 -0.17808335 -0.17105114 -0.118675776 0.15915133 -0.16869946 -0.090451285 -0.191324 0.1477456 0.18029937 0.11120421 0.11227099 -0.13183956 -0.17295466 -0.09763213 0.1699818 -0.15751186 0.15534496 0.18017924
1654 0.12873873 -0.07344672 0.05989048 0.0364419 -0.08886674 -0.027655937 -0.06045851 0.0926239 -0.044762805 -0.05249589 0.102072254 0.033942137 -0.05270075 -0.04304362 -0.12853011 0.17767222 0.14232603 -0.047988877 0.0030033365 -0.49495235 0.091282375 -0.067564316 0.034584843 -0.123197146 -0.15006012 -0.20889533 0.08949329 0.33517724 -0.0429193 0.084085554 -0.068409584 0.09579955 -0.12053362 -0.0766404 -0.09205852 -0.10624766 -0.062898844 0.08279877 0.09290677 -0.109791964 0.024491163 -0.40870106 -0.1426838 0.025684372 0.12022535 -0.15443963 -0.1276973 0.004640147 0.36545712 -0.13317615 -0.07842391 -0.51870894 0.10378821 0.017338315 -0.073566556 -0.0057927147 -0.3880301 0.08279277 -0.051132362 0.14443554 0.0803147 -0.1160793 0.09527092 -0.06404841 0.073034585 -0.08005956 -0.40757078 -0.119177766 0.101833954 0.4218094 -0.3270212 0.3916828 0.0990656 -0.004598081 -3.3907592e-05 0.079064995 -0.11192378 0.1036266 -0.010040455 -0.09587782 -0.1092618 -0.10849428 -0.08759163 -0.08961163 -0.10996831 0.39434612 -0.033165358 -0.16487816 -0.07377001 0.08305647 0.12792479 0.025561074 0.38748357 -0.028234527 -0.017541744 0.055078074 0.13895722 -0.06402853 0.34903353 0.009951033
1299 -0.07887936 -0.040145624 0.119025856 -0.044109035 0.01291661 -0.07251002 0.011513637 -0.018921223 -0.11121899 -0.20483467 -0.0076420233 0.19597957 -0.2065208 -0.028080177 -0.12271727 -0.090174645 0.029773915 -0.17399955 -0.0936739 0.16431949 0.0007673241 -0.032136634 -0.0009312928 0.17200148 0.0451233 -0.18535388 -0.0071438146 0.31034756 0.038070515 0.063508816 0.296887 0.2036464 0.08426152 -0.08643498 -0.4758969 -0.47641113 -0.06753473 -0.061407357 -0.03375358 -0.26237392 -0.14438456 -0.07935269 -0.08966735 0.28783602 -0.016609903 0.02697741 -0.094646364 0.10401058 0.103941604 -0.105947316 -0.02054013 0.121182606 0.28334767 -0.32448643 -0.18515083 -0.23958828 0.024365818 -0.012349229 -0.06798912 0.13106786 0.060535047 -0.05558689 0.1265157 -0.26734397 0.0077726506 0.034030676 0.06540437 -0.15504956 0.013602894 0.5006776 0.02252844 0.59233725 -0.26885435 -0.045125738 0.06376535 0.079556584 0.0564185 0.057874557 0.1303231 0.25291413 0.06375561 -0.28696784 -0.086944126 -0.10314573 -0.09240651 0.103708945 0.02991373 -0.13456938 -0.22161016 -0.022412892 0.032294992 -0.09468844 0.037467424 -0.0068815947 0.4373475 0.02654244 0.06779331 0.39313552 0.11023332 -0.2309004
594 0.1823776 -0.09185305 0.032461766 0.080701604 -0.21106577 -0.3688742 -0.29803216 0.07164895 0.04680688 -0.34921294 0.33758152 0.10553242 -0.07171321 -0.106891684 -0.032222867 0.27812147 0.13011986 -0.24787252 -0.28078997 -0.030921482 0.05963859 0.0007233247 -0.17015998 0.079020366 -0.1771656 -0.14705206 -0.021227494 0.15727025 -0.2722114 -0.08054414 0.52677125 0.11998917 -0.028320737 -0.0757462 -0.16399698 -0.059089206 -0.05790226 0.059086017 -0.10253748 -0.1271132 -0.011521583 -0.32530263 -0.045109786 0.0009082444 0.074536495 -0.009654434 0.050871342 0.093266755 -0.12102805 -0.10438628 -0.045518823 0.10760785 0.24884714 0.10938063 0.028120784 -0.41124305 0.17451796 -0.09174379 0.005064301 0.27880755 0.092530675 -0.087306336 0.09679337 -0.02475198 -0.18937919 -0.008427335 0.011940524 -0.09707354 0.050470807 0.095275335 -0.0076424507 0.35469237 0.096517265 -0.2906264 0.019955618 0.29713362 0.047120433 0.10062141 -0.06201382 -0.03726062 -0.112708464 -0.16557574 -0.18094891 -0.036192458 -0.14683983 -0.0747364 -0.28085464 -0.113476574 -0.05900222 0.07849788 -0.017887037 -0.059147302 -0.08667723 -0.0056611747 -0.016346246 0.11812003 0.08553819 -0.021096013 0.0956748 -0.4408007
1128 0.28853047 0.116195515 -0.26026198 -0.062542096 0.07087615 -0.14467388 0.022283077 -0.035450317 -0.11779839 -0.25614098 -0.024143543 0.17647438 -0.37215582 -0.17179075 -0.12972097 -0.108592205 0.020662468 -0.55478096 -0.16529968 0.02040996 -0.04759015 -0.1624411 0.05796072 0.10925677 0.1646475 -0.14567225 -0.104147375 0.10654165 0.041203283 0.10804091 0.2649071 0.26203194 0.14182043 0.028487388 -0.262349 -0.119164474 -0.06561362 -0.025029419 0.046269074 -0.5036388 -0.12718178 -0.10479446 0.009836996 -0.15059866 -0.051123198 0.061860237 -0.10356206 -0.15993127 0.10772456 -0.13536552 0.0960236 0.022827478 0.1920398 -0.1403116 0.01794707 -0.14339061 -0.07246129 -0.2753166 0.10555884 -0.14745694 -0.067656085 -0.0011646897 0.25929126 -0.1057408 0.13305116 0.16110022 0.2942855 -0.16619489 -0.06870946 0.20985742 -0.11474775 0.07375669 -0.2985672 0.026453076 0.15400676 0.051161677 0.03303162 0.14476149 -0.15300466 0.21895435 -0.09724826 -0.02965162 -0.10665556 -0.16521966 -0.3751866 0.16667637 -0.22143419 -0.19250998 -0.28366363 0.010388322 -0.07429384 -0.15613309 -0.0105585605 -0.11670864 0.006737875 0.11350098 0.20320313 0.09628682 0.09068476 0.16762155
1658 0.13205227 -0.013455275 0.027740955 0.13730879 -0.07835617 0.11524242 -0.04501266 0.13620691 -0.0010398999 -0.31778714 0.097590886 0.11035463 -0.102874346 -0.0024862587 -0.075406685 0.101306595 0.10726682 -0.13117889 -0.07254288 -0.11045809 0.20072113 -0.08405591 0.1418018 -0.16350342 -0.033888735 -0.15550844 0.08238697 0.0055991933 -0.022897601 0.47324407 -0.0776457 0.10562487 -0.14798443 -0.11292419 -0.23368989 -0.109291784 -0.10585126 0.04812086 0.020267196 -0.12690115 0.04245727 0.00036746264 -0.049030315 0.084758244 0.118251756 -0.07038687 -0.38029796 -0.23151661 -0.030332603 -0.09593746 -0.06884085 0.0055208355 0.078233585 0.03045704 -0.02285691 0.21996137 0.20980185 -0.0393283 -0.033817712 0.06304811 0.104895346 -0.1011834 0.23227301 -0.07021938 0.31228042 -0.088432625 -0.2811039 -0.12647164 -0.0028020516 -0.009010784 -0.011227388 0.021965876 0.16506222 0.019375108 -0.037944753 0.1056885 -0.053836823 0.13519529 -0.08691372 -0.46933094 -0.075124204 -0.12662843 -0.059244122 -0.12249332 -0.1221481 0.061129928 0.0052334443 -0.110641755 -0.37386036 0.15590337 0.083543316 0.08227922 0.3564785 -0.098771244 0.00486546 0.33718264 0.094785035 -0.09575955 0.37146053 0.35669264
1659 -0.061114475 -0.1255196 -0.15179189 -0.0651764 -0.24327081 -0.36070988 -0.036831032 -0.10081705 0.02816838 -0.34882602 0.18532622 0.04813026 -0.040800545 -0.41214222 -0.089336485 0.06433148 0.069155715 -0.31572396 -0.108869016 0.088141784 0.083451465 -0.07329312 0.091207944 -0.056103818 0.06456119 -0.08495203 -0.066872634 0.0037472844 -0.040652443 0.25478053 0.1920915 0.12563282 0.14396086 -0.08473596 -0.16759641 -0.08965728 -0.021545775 -0.05111546 -0.05735635 -0.058114823 -0.07312732 0.06831319 -0.17860071 -0.065108486 -0.004744306 0.13367909 0.048479713 0.2075803 0.2437924 -0.1752199 0.0176806 0.14445683 -0.024701154 0.05736197 -0.12770143 -0.13810292 -0.40780616 -0.031970784 -0.26880074 0.112138346 0.044635933 -0.13756257 0.18477446 -0.072222576 0.24819337 -0.11808626 0.43609738 -0.12656313 -0.05701623 0.105509885 -0.09369724 0.08611844 0.07297027 -0.16635285 -0.0046706274 -0.15099753 0.03807636 0.068854496 -0.011054456 0.12963703 0.2104455 0.024439804 -0.03061009 -0.46861604 -0.46886313 0.2770154 -0.23963942 -0.16336307 -0.09499533 0.063050866 -0.03802833 -0.08332744 0.028548628 -0.05356969 -0.09103535 0.12072502 0.15085436 0.026757643 -0.034495547 -0.03600259
597 0.026422163 -0.038790006 0.1325306 0.070600756 -0.16503368 -0.09936267 -0.0659563 0.10900959 -0.28407946 0.017801128 -0.18120676 0.114767455 -0.13718799 -0.23243718 -0.055348836 0.035879027 0.13216093 -0.03242036 0.07683166 -0.07960401 0.079371065 -0.29284465 0.043067224 -0.07034061 -0.11589227 -0.14692129 0.047776524 0.0083489865 -0.01676352 0.10057994 0.03719616 0.106074736 -0.1250471 -0.058449004 -0.1627261 -0.10926861 -0.0010963008 0.0939322 0.3040359 -0.1407812 0.10346973 -0.27809113 -0.17808051 0.05730168 0.04211028 -0.10949988 0.033580925 -0.11005546 -0.04939171 -0.10680815 -0.06821878 -0.014713351 0.008802645 0.13371703 -0.06799877 0.16175278 0.1417863 -0.009630874 -0.049094457 0.062033027 0.14162512 -0.07726997 0.09349685 -0.10263164 0.032767713 -0.06263965 0.073284745 -0.04439819 0.030568928 0.30122674 -0.16396442 0.04410334 0.03311831 -0.3379414 -0.0035327002 0.03417052 -0.111412264 0.072242565 -0.3222191 -0.017124861 -0.074677065 -0.03309989 -0.09330504 -0.14493215 -0.15145077 0.3143072 -0.21107619 -0.02901375 -0.34101433 0.07561956 0.085891835 0.10385864 -0.03003557 -0.06553966 0.031533312 0.17933968 0.09282664 -0.08517055 0.24173117 0.28753376
1662 0.12979904 -0.22530635 0.07787912 0.11795014 -0.077138394 -0.4665811 -0.2638372 0.034251127 0.0053431913 -0.3778584 0.32282245 0.10156359 -0.13603507 -0.10415121 -0.07933519 0.34672993 0.044173792 -0.2623859 -0.3213075 -0.017187923 0.10766457 -0.03523974 -0.06902469 0.010759463 -0.1217498 -0.078511916 0.076586165 0.1408552 -0.34130725 -0.074826434 0.25118005 0.21696551 -0.029475681 -0.078422084 -0.1613223 -0.10944201 -0.059139274 0.07552831 0.0114039 -0.14200118 0.035013556 -0.02168575 -0.08402747 0.13076986 0.13784948 -0.065801546 0.0017705634 0.11437098 -0.049086094 -0.048381194 -0.05997266 0.068869114 0.35444155 0.088886425 -0.1143523 -0.1909457 0.53728336 0.22235645 -0.06761288 0.02867397 0.06459912 -0.20893715 0.088874534 -0.059608817 -0.09322679 -0.04573611 -0.06659381 -0.12725659 0.071758054 0.032878503 0.10115387 0.40561917 0.058350686 0.002135083 -0.036774576 0.0014559627 -0.055285025 0.051833514 -0.02472186 -0.22838297 -0.1305815 -0.20064658 -0.11065815 -0.056229666 -0.21656628 -0.05846764 -0.26850694 -0.13260402 -0.11511446 0.15134442 0.07457634 0.0023775722 -0.074126676 -0.014940828 -0.27366078 0.26912203 0.101542845 -0.035056427 0.024138555 -0.39981496
267 0.0120683 -0.15714931 -0.025871988 -0.07728161 -0.032398734 -0.025799915 -0.047564514 0.112536654 0.17121826 -0.13026513 -0.41691142 0.00024836138 0.011000838 -0.0020238385 -0.03823995 0.36130267 0.3835557 -0.23738596 -0.3228755 0.09041911 0.15759127 0.040024318 0.15468201 0.014437765 0.08314535 -0.06966065 -0.07833271 -0.15193835 -0.3487467 0.05213577 0.041075908 0.17863923 0.037717793 -0.046623472 -0.3017076 0.06689486 -0.01385811 -0.15972933 0.007207595 -0.24259065 0.19087207 0.13414294 -0.047306776 0.46512616 0.12785843 0.05079864 0.08627609 0.0047395006 -0.10359135 -0.07218987 0.14275785 0.07549696 0.39055276 -0.19329676 0.070146516 -0.012852967 0.03739085 0.27091813 -0.39050108 0.22294351 -0.022598967 -0.19233358 0.35595292 -0.05021152 -0.04452639 -0.025740877 -0.11778547 -0.06722755 -0.020314746 -0.01584559 -0.82024693 0.10076997 0.09205591 -0.30154422 0.17868239 0.09133203 -0.12978603 0.02887356 -0.3145767 -0.17118493 0.108982325 0.063751884 -0.02656098 -0.07324151 -0.11478726 0.35767502 0.052539986 -0.21941963 -0.13290784 0.051565442 0.06358273 -0.16694377 0.28613085 -0.03155658 -0.3347325 0.11159692 0.056515545 -0.33832896 -0.04689204 -0.093534455
1666 0.06379965 -0.09063396 0.14795806 0.16059935 -0.1506315 0.2806924 -0.13246465 0.1009671 -0.10946326 -0.017042011 0.042194437 0.07139981 -0.08992748 -0.062858954 -0.1035763 0.14994457 0.13663791 -0.44247195 -0.078470156 -0.08324468 0.1089622 -0.070213266 0.16661973 -0.089130074 -0.17235033 -0.115045406 0.08815306 0.37968406 -0.11266414 0.13017233 -0.075436205 0.039397385 -0.083967455 -0.09883543 -0.05596398 -0.10503738 -0.089148425 0.1742773 0.04934244 -0.06001635 0.1497114 -0.37509385 -0.122316286 0.09993151 0.16216448 -0.09288172 -0.04606115 -0.35145625 0.07199021 -0.09191641 -0.10112125 -0.16693778 0.14586085 0.11662446 -0.06942913 0.062238947 0.14811052 0.04077079 -0.09678951 0.13855591 0.13470094 -0.13686782 0.073832154 -0.13058238 0.061776638 -0.14165954 -0.038061433 -0.13102317 0.468503 0.019258551 -0.03739494 0.35865444 0.13219929 -0.0789965 -0.1028916 0.12775627 -0.082168944 0.13885638 -0.049727485 -0.117364235 -0.10245457 -0.11825888 -0.07452481 -0.054882236 -0.14410776 0.096398845 -0.019399852 -0.17552528 -0.4003657 0.12682843 0.1286171 0.10752025 0.06332231 -0.09831127 -0.09299877 0.4632277 0.120059006 -0.07361537 0.3515677 0.085203305
1671 -0.215238 -0.07215218 -0.1889466 0.012418523 0.095864005 -0.05099216 -0.24923053 -0.06978494 -0.06606273 0.112618774 0.10768841 0.13007018 -0.17675388 -0.021052659 -0.12009608 0.042939097 0.1775377 -0.17580828 -0.23520662 0.19841182 0.099511236 0.06024317 -0.002125837 0.15732287 0.16333565 -0.01002121 0.028221972 0.061868455 -0.021216936 -0.2092112 -0.008065078 0.13630155 0.15421936 -0.09009105 -0.18056285 -0.03737566 0.107442275 -0.12902795 0.15359055 0.06248772 -0.21761262 -0.1207209 -0.0948883 -0.17035082 0.039984852 0.13371582 -0.16458304 -0.13936204 0.18103516 -0.05984554 -0.11175718 0.32208133 0.13985562 -0.21578458 0.010273851 0.42742595 -0.058023676 -0.09016733 0.009877617 0.23478326 0.2119934 0.14976881 0.47460097 0.14030086 0.19582078 -0.18719015 0.076093554 0.029658835 0.21313816 0.6280461 -0.020528875 0.6241209 0.3609124 -0.21505715 0.10258223 0.0423385 0.04571498 0.11500819 0.12907782 0.21316625 -0.10098261 -0.027747385 -0.23021771 -0.28508162 0.19586939 0.1900956 0.09781681 -0.11727655 -0.6146891 -0.028489292 -0.13705935 -0.13997397 0.19299945 0.008267142 0.06485255 -0.029642424 0.25715017 -0.030942876 -0.0132472245 -0.06930158
1672 0.08928822 -0.12945902 0.10734247 0.15832275 -0.16540797 0.0298642 -0.06639217 0.12840663 -0.4226233 -0.3393277 -0.0046338737 0.45391342 -0.12700656 -0.036399 -0.090788886 0.10428484 0.13671938 -0.06945073 -0.3673871 -0.1510623 0.0704556 -0.034486175 0.14060381 -0.12178877 -0.078316145 -0.14659356 0.07105619 0.025369532 -0.06794213 0.13389279 0.28537536 0.13399327 -0.11684878 -0.052710637 -0.13080597 -0.14823917 -0.03117305 0.12605205 0.10847567 -0.100989565 0.15173553 -0.034517832 -0.13506886 0.14033578 0.14470612 -0.1142292 -0.13128981 -0.34754175 0.080615565 -0.06660174 -0.11798397 -0.08712147 0.06715732 0.11532013 -0.1582952 -0.03610957 0.06815967 0.07263476 -0.15758054 0.09248088 0.089762114 -0.118012376 0.15348709 -0.16079079 0.08047322 -0.08416793 -0.10091027 -0.12996416 0.07353074 0.33087334 -0.007997945 0.06401204 0.12456995 -0.068938516 -0.08858761 0.16491885 -0.10218072 0.12341888 -0.06793108 -0.06861547 -0.12420644 -0.095071934 -0.124662675 -0.1327887 -0.10954033 0.42090815 0.0058129504 -0.1017696 -0.39737013 0.09840602 0.15854244 0.10986812 0.0064136162 -0.14443785 -0.10395898 0.011477441 0.057100896 -0.106641605 0.02893909 0.02124814
1141 -0.019793823 -0.2359724 -0.074851274 0.041783907 0.0039492343 -0.46555957 -0.044617344 -0.031794935 0.00454922 -0.27044863 0.2158349 0.069885954 -0.14361109 -0.01937037 -0.057676036 0.019097436 -0.005618388 -0.14258987 -0.051251017 0.08782726 0.14255747 -0.37280554 0.09277994 -0.003244318 0.013991177 -0.081355594 0.056996346 0.058517084 0.03324859 0.24168262 0.09728538 0.122722015 0.03962765 -0.09509617 -0.18429926 -0.01896659 -0.060033344 -0.03423793 0.020181626 -0.19828191 -0.05833292 0.026376627 -0.16126981 -0.029712565 0.048503302 -0.0001652129 0.04374691 0.3246394 -0.036452025 -0.14088368 0.0043765344 -0.14532451 0.05193199 0.058412187 -0.010666102 -0.08712782 -0.0270468 -0.02740401 -0.18943986 0.32240838 0.08275819 -0.12861073 0.1735901 -0.3557228 0.3645501 -0.03638333 0.004894763 -0.112233624 0.057791978 0.07825358 0.043586157 0.15246773 0.07998023 -0.2569049 -0.005848445 0.099077225 -0.053308655 0.13043489 -0.2677318 -0.054926053 -0.1549069 -0.13226981 -0.46242604 -0.13132016 -0.12542617 0.1032607 -0.107699126 -0.15246485 -0.49490836 0.05555842 0.04646215 -0.027776785 -0.39200038 -0.14399989 -0.122034185 0.12656811 0.06159881 -0.04015484 0.01402206 -0.06317158
1143 0.14214517 0.019420367 0.16681413 0.005924629 -0.1412978 0.006685354 -0.10649659 -0.026829734 -0.21720976 0.023008302 0.13770315 0.036864117 -0.045655224 -0.016922094 0.0015268587 0.08728987 0.016879883 -0.3734245 -0.27583545 -0.030275505 0.11084818 -0.30757833 -0.017485477 -0.07873871 -0.12843895 -0.103825375 -0.01370614 -0.0146356 0.040530987 0.004536655 -0.10149387 0.07191796 0.0033909995 0.035728067 -0.110136785 -0.42447576 0.031835422 0.07136868 0.36348623 -0.010610107 0.0013083704 0.042435385 -0.37800354 -0.027972057 -0.009154342 -0.14929453 0.050669424 -0.27972323 -0.12605046 -0.11171929 0.01849522 -0.008676313 0.030973326 0.056655083 -0.11045995 -0.06535856 0.3109504 0.0025924072 -0.07288568 0.09141715 0.033285 0.0044523273 0.3866527 -0.098907635 0.41263372 -0.06400372 -0.3096896 -0.14194599 -0.008328259 0.2605101 -0.10764697 -0.040671 0.027678143 0.05099595 0.06181161 0.030811902 -0.036425315 0.1012003 -0.35905427 -0.08865712 0.0051937923 -0.08054277 -0.033159222 -0.46243137 -0.08345239 0.3427703 -0.23896064 -0.06259304 0.042510837 0.031605124 0.073016524 0.025805961 0.35849574 0.0044797547 0.009633228 -0.042067725 0.012366518 -0.07880403 -0.06782815 0.28791073
1419 -0.0132350065 0.0438734 0.048034534 0.058314476 -0.049136803 -0.17112556 -0.0095997825 0.024231197 0.18695049 -0.26626801 -0.26925182 0.05410671 -0.09547013 -0.23487762 -0.07308397 0.009060014 0.08790418 0.0009723902 0.053617522 -0.014044066 0.0249382 -0.18383941 -0.005721936 -0.019567281 -0.1150868 -0.06069427 0.06438988 -0.012021646 -0.018679965 0.08871033 -0.006694272 0.012899585 -0.061510198 0.015975047 -0.09240089 -0.021355983 -0.36015704 0.04048027 0.25412047 -0.13978897 0.009361876 -0.32859123 -0.12786034 0.010095321 0.04305413 -0.03516325 -0.26182374 0.25179574 -0.10181645 -0.04394319 0.011478481 -0.022199348 0.013649248 0.47285524 -0.02537289 0.13471061 0.1393704 -0.08091583 -0.08503376 -0.027109388 0.05168938 -0.030007612 0.1754214 -0.023979872 -0.029657885 -0.11696096 0.040729225 -0.090567484 0.012273885 0.3399225 -0.20020819 -0.048303783 0.02227338 -0.31106675 -0.02115899 0.019687861 -0.04081577 0.12662914 -0.30272365 0.028904844 -0.062138554 -0.049623534 -0.11047515 -0.014538255 -0.12933955 -0.01979535 -0.20298482 -0.10704945 -0.31882218 0.0895482 0.107311174 0.10144123 0.26542413 -0.047784902 0.010078646 0.21064323 0.12955493 -0.04369983 0.23287147 0.22218286
1678 0.06669981 0.01609341 0.0337184 0.12511347 -0.0873812 -0.07670384 -0.07227275 0.08745711 0.03336143 -0.30074793 -0.277573 0.06596491 -0.09889077 -0.020727903 -0.050854154 0.0051709823 0.08186354 0.019339427 -0.3350402 -0.11999468 0.09101366 -0.029892221 0.10404104 -0.064755924 -0.046734568 -0.074355215 0.13967748 0.309038 -0.027493622 0.3547337 0.31973034 0.032007683 -0.12795302 -0.10965626 -0.11784087 -0.09876786 -0.01798898 0.15135446 0.09550314 -0.07688138 0.057146728 0.06338397 -0.44207564 0.10108726 0.13719818 -0.115309834 -0.34972292 0.07141793 0.29244435 -0.10707742 -0.047407456 0.0465986 0.3863061 0.10660477 -0.50042987 -0.0915439 0.27965277 -0.047008604 -0.0010149963 0.35536775 0.1133164 -0.0697073 0.1530315 -0.109198496 0.29364428 -0.038218476 -0.39773667 -0.09593654 -0.0030525848 -0.033529118 0.040964186 0.38725713 0.03079272 0.09960511 -0.02514796 0.09697257 -0.085174486 0.1041372 -0.04530166 -0.034185104 -0.03128677 -0.099148475 -0.018305738 -0.070793346 -0.07932572 0.30667225 0.06854783 -0.02844536 0.042003326 0.079301596 0.07065973 0.05522662 -0.029342428 -0.07189431 0.044452682 0.13287777 0.07314531 0.02137312 -0.05209641 0.25456494
608 0.0716908 0.057693705 -0.14901957 -0.117286325 0.111891516 -0.19574791 0.20849408 -0.09149191 -0.12702407 -0.2650501 0.07842514 0.10767826 -0.15316516 -0.035185575 -0.13106641 0.06683623 0.113288 -0.6399102 -0.54012275 0.25328547 0.023220554 -0.14979723 0.06226755 0.018268451 0.050142277 -0.1991905 -0.1358967 0.38598078 -0.14136197 -0.031344883 0.23743594 0.62081283 0.07279357 0.022495631 -0.38166285 -0.08807811 -0.08365109 -0.010624111 0.085193306 -0.12368726 -0.12314452 0.08770108 -0.13761576 -0.11781296 -0.12430164 0.056915674 -0.2865191 -0.15256676 -0.11103525 -0.033182673 0.04630907 0.035263974 0.040045246 0.11177992 -0.10377661 -0.2512366 -0.11176253 -0.3028261 0.05885823 -0.13443187 -0.045918066 -0.008425698 0.5730268 0.05303517 0.11381094 0.10912257 0.2824089 -0.1742148 -0.15398517 0.15390229 -0.12660922 0.008316465 0.016202211 -0.014875941 0.09611036 0.025386214 0.028529203 0.16501456 -0.21495056 -0.11236013 -0.037892625 -0.14874849 -0.0988389 -0.1340392 -0.1299805 0.08961097 -0.11782208 -0.16753 -0.14673421 -0.09608586 -0.15569726 -0.073709115 0.08114824 -0.10201387 0.0023568477 0.08464274 0.10698517 0.17460112 -0.11258776 0.06982309
610 -0.13118787 -0.036018334 -0.092355676 -0.105937846 -0.007318832 -0.014610365 -0.23043373 -0.14544371 -0.023664633 -0.27046221 -0.060641613 0.43005407 0.08756186 -0.120570496 0.006827377 -0.13950986 0.07889706 -0.18574673 0.1425514 0.21260695 0.11028734 -0.18448651 0.068065524 0.06897494 0.15719219 -0.45260316 -0.06507487 0.010567859 -0.116098575 0.1966482 0.22376624 -0.08385752 0.032788027 0.0056550056 -0.21312125 -0.21145721 0.00182724 -0.076900125 0.15261981 -0.24490024 -0.13625975 -0.27912942 -0.18176764 -0.17152588 0.006507609 0.039263014 -0.08733833 0.007643927 0.1089515 -0.07349425 0.20124626 0.18299669 0.19573994 -0.60915583 -0.048064385 0.032037914 -0.09861172 -0.14999683 -0.14049816 -0.11995381 0.047546417 -0.02005089 0.5522344 -0.18047372 0.09248992 -0.11773687 0.32114345 -0.16137742 -0.09474619 0.62031054 -0.12838049 0.1802352 0.009001724 -0.008036597 0.12791072 -0.002373511 0.033365734 -0.024751917 0.27646542 0.21491843 -0.34909576 -0.15044859 -0.18066998 -0.11284801 0.010240138 0.16450547 -0.19434789 -0.061362058 -0.22656426 -0.23453812 -0.08511248 -0.108492 0.11695479 -0.011243824 0.13395189 0.07987731 0.23020342 0.054071963 0.0131847 0.24229588
1146 -0.100388825 -0.03478177 -0.2623856 -0.011442065 0.062304523 -0.36114997 0.036469817 0.04363864 -0.035553366 -0.24861968 -0.030749943 0.21042088 0.08067149 -0.1394945 -0.062368058 -0.037338078 -0.04355883 -0.25446087 0.01549934 0.21897939 0.1254983 -0.069985345 -0.2409493 -0.11305471 0.10255225 -0.27682245 -0.0033187252 0.50898135 0.24830642 -0.012518918 0.28211388 0.14731245 -0.0006271433 -0.012632534 -0.19081727 -0.16419432 -0.11380792 0.007588582 0.13568908 -0.12991196 -0.0927063 -0.048292972 0.061462402 -0.05398769 0.26328075 0.040132925 -0.07792124 -0.0016684197 0.12561116 -0.06120231 -0.03139159 0.15299891 0.31312662 -0.5583399 -0.10443947 -0.1632895 0.07658772 -0.012145697 0.123943865 -0.11572756 -0.01980763 -0.05106806 0.61980295 -0.095452994 0.10986549 0.04979515 -0.23377842 -0.11644659 0.025740426 0.23195232 0.02147993 0.19958314 -0.15774718 -0.056763142 -0.0522497 0.123108596 0.015127573 -0.02386057 0.061423477 0.23052323 0.0029518679 -0.52697164 0.005581585 -0.10647241 -0.08251152 0.07652925 -0.013162932 -0.1762749 -0.25528282 0.023364507 0.0056009376 -0.058917984 0.071776405 0.51449853 0.2929939 0.07751111 -0.006601829 0.06430769 0.059333168 0.11348918
2126 0.1470821 -0.113986336 0.09541617 0.07848126 -0.14338394 0.07516223 -0.09386787 0.11046342 -0.046292838 -0.08033729 -0.426152 0.071882516 -0.15292647 -0.46246645 -0.12276697 0.14917932 0.102715485 -0.12608847 -0.11458712 -0.113760635 0.130655 -0.4274485 0.10424119 -0.13979934 -0.1131405 -0.14055775 0.15238571 0.42287475 -0.09072288 0.14613786 0.011905275 0.0702105 -0.16065526 -0.120276526 -0.121700175 -0.058442853 -0.47942555 0.07585709 0.078568906 -0.09300843 0.06794406 -0.105372444 -0.17121078 0.021419942 0.1379339 -0.122140475 -0.09149575 -0.01613155 0.046318695 -0.092516795 -0.13551272 -0.15328352 0.07774486 0.090482906 -0.15290184 0.10516955 -0.27346253 0.0875217 -0.10429839 0.11321257 0.12761408 -0.117614456 0.14476588 -0.11516661 0.124344625 -0.1574835 -0.069631286 -0.13507831 0.4955622 0.44947168 -0.0701121 0.1020172 0.097713426 -0.14122622 -0.09992721 0.12048738 -0.16991189 0.11714189 -0.057557173 -0.118154936 -0.13508892 -0.08628109 -0.13553618 -0.107395515 -0.088594764 0.14300977 -0.13545339 -0.15155883 -0.04786264 0.11045853 0.09622987 0.16997811 0.1361359 -0.14263153 -0.08144782 0.066445276 0.086528376 -0.07949526 0.09638027 0.14407587
53 -0.07350209 -0.094135806 -0.25917935 -0.080608755 0.12710384 0.24388543 -0.36486822 0.025283244 -0.028150782 0.054149818 0.31735668 -0.020265043 0.042992014 -0.20376396 0.01882752 0.10771762 0.25404415 0.028033242 -0.0591297 0.52301383 0.039142355 -0.04863289 0.070147246 0.15221901 0.33507377 -0.43437102 0.5428532 0.42398602 -0.0508844 -0.19810826 -0.2693542 -0.19364133 0.13386235 -0.17911196 -0.0041784197 0.107546106 -0.03932838 0.27327433 -0.036578923 -0.074204676 -0.58175874 -0.32926306 0.32189685 -0.39621228 -0.09127002 -0.03877902 -0.260158 -0.15389836 0.44465506 -0.04121232 -0.20759496 0.18321812 0.20729664 -0.0106294975 -0.5608628 0.11574122 0.11733493 0.019831158 0.44077244 -0.084529646 0.055971935 -0.11116796 0.17100598 0.6275531 0.20781764 0.099330045 0.27392498 -0.26603568 0.07195793 0.054527536 -0.22702587 0.19168238 0.34761894 -0.16944157 0.29030284 0.040502936 -0.09007169 0.016893588 0.4734975 0.23625906 0.25227305 -0.1671328 -0.24232872 0.070948645 -0.06520237 0.38737297 0.15396184 -0.062299438 -0.07759999 0.15612222 -0.08967031 -0.35863432 -0.16050836 -0.040629655 0.023282286 -0.015473716 0.06312795 0.12781541 0.1305849 -0.049419038
1151 0.047413696 -0.15058042 0.13816863 0.07600156 -0.10363078 0.32642537 -0.1697808 0.1373189 -0.042464495 -0.043590926 -0.23304449 0.0823496 -0.08942927 -0.37343952 -0.16836816 0.054849967 0.15963478 -0.026390865 -0.02873867 -0.09001697 0.09680851 -0.29809195 0.10229798 -0.112650864 -0.09240238 -0.093446404 0.1274758 0.04042068 -0.15971355 0.10978404 0.030911744 0.4528358 -0.13554524 -0.057262734 -0.12492649 -0.14408323 -0.059375383 0.06407811 -0.0034874491 -0.07406909 0.06748786 -0.11325829 -0.17123076 0.11425055 0.14446157 -0.123594806 -0.07602087 -0.25693926 0.00770019 -0.16461316 -0.10671402 -0.11179419 0.13206933 0.18651582 -0.12246135 0.11474981 0.03282576 0.13531712 -0.17189552 0.09402206 0.08124197 -0.08182808 0.12183027 -0.06315163 0.1339337 -0.09141318 -0.38207978 -0.067049555 0.023986928 0.37245953 -0.06936586 0.099013016 0.1679631 -0.12785897 -0.06907739 0.46222124 -0.12302876 0.13593112 -0.07273592 -0.048101634 -0.11927178 -0.06018465 -0.16440168 -0.15089805 -0.14547655 0.056360304 -0.12533337 -0.10982153 -0.10377363 0.055666722 0.088604756 0.12749672 0.09276457 -0.1012914 -0.122124925 0.16469158 0.07317037 -0.09312842 0.38799807 0.07401214
1686 0.07883425 -0.32413852 0.01112316 0.07634047 -0.056769487 0.21268965 -0.08223818 0.056706734 -0.015319668 -0.27321655 -0.30010158 0.45605898 -0.060501777 -0.06506966 -0.11118144 0.09864151 0.04420151 -0.037913993 -0.33662605 0.038988005 0.054335885 0.0037166253 0.029078458 -0.0661062 0.028027065 -0.10184285 0.1379687 -0.003994286 0.021629728 0.3278053 -0.07856312 0.07286817 0.011527818 -0.10457654 -0.07700276 -0.06546265 0.030114174 0.028223185 -0.013043141 -0.0671017 0.03242722 -0.2923507 -0.053875793 0.0021891668 0.07460129 -0.08087784 0.055406563 0.03401947 0.2921084 -0.050087642 -0.107762635 0.072742894 -0.030037852 0.07171668 -0.0904502 0.22077341 0.2716367 -0.052573353 0.048161738 0.25588205 0.09962217 -0.027018601 0.12843357 -0.06950516 0.33631402 -0.06508562 0.055406682 -0.041375287 -0.044801615 -0.0030560344 -0.05290275 0.40860534 0.09763749 0.0953075 -0.03362502 0.11345193 -0.0380846 0.04663652 0.057806093 -0.41275117 0.034255512 -0.0699442 -0.058938213 -0.46149975 -0.0120074265 -0.08882653 0.087243974 -0.121476926 -0.38710874 0.1452118 0.03970401 0.027730996 0.29382485 -0.030743958 0.13248381 0.381014 0.07583475 -0.32382923 -0.09990162 -0.09193965
1734 0.026977792 -0.10642737 -0.59315014 -0.1120179 -0.0342969 -0.060529575 0.123408064 -0.11146047 0.084615715 -0.29587057 -0.2582816 0.1261319 -0.023693724 -0.052294917 0.013515248 -0.1626613 0.080403104 -0.20526233 -0.26178262 0.21171322 -0.099495634 -0.035327442 0.034679145 0.5732337 -0.10998815 0.024202302 -0.12187377 0.18649839 -0.10784173 0.09906916 0.37890348 -0.059136987 0.14830562 -0.17043713 -0.20902513 -0.4025375 -0.007423945 -0.08018965 -0.1300286 0.11963778 -0.18247354 -0.056678943 0.039841548 -0.07546383 -0.24022144 0.08744159 0.16019638 -0.101273224 0.12542203 -0.080924675 0.11779416 0.037317004 0.23724112 -0.28752747 0.038320053 0.048055008 0.044406902 0.12771815 0.19747618 -0.3140561 0.26195323 -0.32138827 0.5787327 -0.09166852 0.24050415 -0.016910203 0.06391899 -0.18232146 -0.013737883 0.21330157 -0.15401585 0.28939193 -0.12560362 0.054788217 0.1392097 0.39419252 0.010779137 0.00028945133 -0.14779255 0.060733948 -0.042577777 0.048899576 -0.19348219 -0.12214324 -0.088505864 0.16928871 0.0687915 0.02881676 -0.20793831 -0.050354086 -0.033792756 -0.18791527 0.012038477 -0.25553513 -0.21208386 0.114284486 -0.37344518 -0.0052834973 -0.12012588 -0.047537073
1155 0.07674072 -0.0016579218 -0.010807853 0.06802516 -0.1620672 0.33326846 -0.088868715 0.06256836 0.058768775 0.08968364 0.063763894 0.3985625 -0.066100895 -0.023881204 -0.111019425 0.038750064 0.083625026 -0.33097842 -0.26363868 -0.04318694 0.097347945 -0.036730684 0.071763515 -0.13915244 0.016123436 -0.07181871 0.046862446 -0.02861707 0.014360908 0.077267274 0.32343376 0.098075785 -0.09253336 -0.010067653 -0.13634063 -0.05441456 0.035024114 0.11594837 -0.045196228 -0.41971168 0.09165224 0.019937195 -0.11661138 0.046502054 0.07064206 -0.12181446 -0.019204766 0.06841788 0.32346553 -0.055345662 -0.09765824 -0.052853454 0.42929783 0.05527311 -0.075596415 -0.13211158 0.21576603 0.38244292 -0.119208105 0.02969908 0.06809832 -0.041637726 0.09310999 -0.09554526 -0.06836518 -0.12431329 -0.04086797 -0.16771099 0.048050947 0.30908576 -0.058715127 -0.0095170885 0.020928252 0.023278676 -0.03186895 0.114396885 -0.037054196 0.092495985 -0.01530768 -0.04325773 -0.02420707 -0.041524347 -0.07855372 0.018037822 -0.07784818 0.37802842 -0.35111192 0.025231987 -0.35716888 0.03024321 0.030786324 0.09288004 -0.040884875 -0.018092692 0.07383009 0.24788699 0.46372303 -0.02498096 0.047140613 0.30122676
616 0.17746532 -0.18485421 0.14292885 0.15935563 -0.1703538 0.14761858 -0.1877076 0.11348489 -0.15402398 -0.14770506 -0.20407537 0.12714037 -0.0941686 -0.17176512 -0.13804075 0.16168165 0.1386655 -0.1860398 -0.12539251 -0.17449105 0.11889306 -0.10576022 0.15920228 -0.12830852 -0.100350656 -0.11581468 0.16544089 0.537702 -0.18562734 0.19029869 -0.053506065 0.12071514 -0.18949221 -0.1577502 -0.080754496 -0.10375764 -0.14259608 0.18768455 0.19632216 -0.15166159 0.09897464 -0.12177044 -0.104422286 0.1385724 0.08562029 -0.1526979 -0.0867357 -0.13978972 0.18905443 -0.11563211 -0.1511281 -0.18654963 0.15036206 0.097912766 -0.1387974 0.1433712 -0.14163423 0.15853018 -0.138145 0.09391661 0.1195249 -0.08704771 0.14925419 -0.1451984 0.19221447 -0.10381069 -0.13199565 -0.16354196 0.09130423 0.15701912 -0.04971428 0.10405351 0.086560994 -0.16244236 -0.4450669 0.1033392 -0.13576259 0.09327548 -0.16357477 -0.14026226 -0.1012111 -0.17371917 -0.1498878 -0.16153266 -0.09237443 0.13519378 -0.19853899 -0.08176129 -0.18958473 0.08649738 0.17689803 0.142237 0.48631293 -0.12737317 -0.2035583 -0.1935282 0.1482443 -0.16470478 0.09966801 0.19745246
1690 -0.13016379 -0.012376569 -0.2643176 -0.16141996 0.034728646 -0.17547038 0.027183097 -0.080864824 -0.0914789 -0.22745986 -0.044455513 0.47613895 0.031317987 -0.09380019 -0.14039716 0.0063084546 0.09857016 -0.23071052 0.108161956 0.23294787 0.073161155 -0.12795201 0.3544838 0.15201193 0.19983158 -0.19090289 -0.1332291 0.17794298 -0.04779541 0.1736278 0.3018298 0.17920229 0.13739298 -0.076476485 -0.19667083 -0.08318089 -0.086232215 -0.06477295 0.021564836 -0.5241578 -0.11279438 -0.13107128 -0.1113989 -0.09319037 -0.029874345 0.07730888 0.06779069 -0.07545798 0.20060131 -0.05353195 0.11847756 0.103104495 0.26509708 -0.14016323 -0.034266412 -0.5336532 -0.0407416 -0.034791667 0.05340648 0.20715515 -0.045810416 -0.06622966 0.23273423 -0.15108147 0.060682587 -0.21214333 0.04802931 -0.2089621 -0.033146046 0.24725713 -0.1704469 0.21393982 0.23193584 -0.025320945 0.11525124 0.105156414 0.085756816 0.16439377 -0.21371889 0.21948859 0.037733376 -0.17422405 -0.05933517 -0.13956085 -0.069179915 0.15608141 0.13216847 -0.12327259 -0.24093905 -0.148013 -0.08620673 -0.07406036 0.15070276 -0.08636293 0.0762822 0.085479274 0.6635316 0.15590908 0.039292812 0.06143082
1691 0.112807885 -0.10114892 0.113524295 0.061069958 -0.14762549 0.2408049 -0.09546885 0.13071659 -0.040435635 -0.30346796 -0.2553908 0.071664855 -0.16277525 -0.0238702 -0.13227525 0.045729533 0.14402184 0.014694139 -0.2977228 -0.12714462 0.1497049 -0.033957846 0.081706494 -0.087670065 -0.0900352 -0.10165025 0.13316457 0.05113235 -0.08004293 0.031377994 0.28855255 0.1230437 -0.112942904 -0.094283976 -0.18085498 -0.124991775 -0.060565498 0.13092884 0.10606752 -0.110134065 0.11179663 0.032006472 -0.10406697 0.076429635 0.08506207 -0.16419522 -0.43327615 0.03231194 0.31320283 -0.08979347 -0.10273549 0.024997741 0.097313434 0.11862674 -0.08562646 0.16530374 0.5003627 0.34906158 -0.080494896 0.009803906 0.11384846 -0.1614002 0.14882848 -0.106060684 0.32707876 -0.10043416 0.04683966 -0.09520297 0.04584669 0.3052474 0.0022004843 0.022785462 0.07942583 0.091986075 -0.05326829 0.07798065 -0.071678795 0.11580535 -0.048086025 -0.0860747 -0.09602219 -0.05106555 -0.08471985 -0.07970441 -0.12808822 -0.061012562 -0.24245717 -0.08021772 -0.33972478 0.037901666 0.100509666 0.05545045 0.33649176 -0.075869076 0.07858728 0.18163243 0.14430973 -0.04433562 -0.056488186 0.221585
1693 -0.19892287 0.17088503 -0.49261913 -0.11190736 0.05752559 -0.18503678 -0.098279566 -0.027814142 -0.00479386 -0.21914622 -0.06237854 0.16671088 -0.05883564 -0.14093384 -0.034386545 -0.15279531 -0.03438943 -0.1850033 -0.31076255 0.20162567 0.06076435 -0.40642518 0.047025844 0.2937331 0.18049552 -0.045783818 -0.055894397 0.1160748 -0.049050536 0.14164719 0.27857414 -0.11716004 0.188704 -0.10323494 -0.16690354 0.13213076 -0.15435944 -0.14794707 0.20221627 -0.16380827 -0.14283524 -0.2247274 -0.014266841 0.14848581 -0.13222282 0.030090608 -0.15506375 -0.0080242045 -0.042129084 -0.09227527 0.17694856 -0.01433925 0.23100042 -0.2680865 0.027980614 -0.0023495257 -0.025268067 -0.15262015 0.038757984 0.2264352 0.0316692 -0.122001246 0.649153 0.17450172 0.07424034 0.055670403 0.21306701 -0.17765898 0.010551676 0.62097377 -0.14218542 0.15167233 0.18102986 0.004226757 0.16237088 -0.45239228 -0.041994553 -0.12571087 0.18912351 0.22501513 0.034246907 0.21363328 0.034933932 -0.1358721 -0.4531619 0.10620727 0.15859027 -0.18325578 -0.26382557 -0.11121325 -0.0059948005 -0.1723781 0.21131453 -0.17141803 0.052795887 0.09305596 0.22268604 0.062147032 -0.035476446 -0.063289136
620 -0.06481407 0.016154677 -0.15134045 0.021650601 -0.16466916 -0.05549775 -0.06413587 -0.04395049 0.052627817 0.054559354 -0.31515968 0.07868007 -0.06375012 -0.013083443 -0.048955306 0.091370136 0.0421972 -0.3138361 -0.181586 -0.29754406 0.40680355 -0.33562648 0.006476801 0.0031910837 0.035400264 -0.15298843 0.06423283 -0.03201011 -0.07136254 0.15721472 -0.063060336 0.020186245 -0.054095924 -0.20680498 -0.508801 -0.37649536 0.058519527 -0.03550882 -0.08749184 -0.018081985 -0.07656826 -0.009198874 -0.19654149 -0.1694987 -0.006511337 -0.06338842 -0.06413972 -0.12533982 -0.034731552 -0.10759457 0.087941274 -0.038557388 0.15340564 0.067124724 -0.20373562 0.45237756 0.003979452 0.020445548 -0.11609301 0.08221756 0.01988492 0.070295826 0.024630178 -0.47208932 -0.0005603507 -0.0967471 0.06601637 -0.21507938 -0.032852594 0.015780196 0.11937809 -0.12796678 0.06767614 -0.43454218 0.024314128 0.03298687 -0.04092932 0.09786439 -0.3278575 0.035239585 -0.014089696 -0.2134357 -0.12547392 -0.083235964 -0.0017890856 0.37273216 -0.0037413463 -0.048628442 -0.324692 0.50185615 -0.03399189 0.09491548 -0.0039050058 -0.15268251 0.017444998 0.13184196 0.11838023 -0.08420543 0.45679206 -0.041865144
1483 0.18105471 0.15644962 0.02887725 -0.008302573 -0.04987461 -0.46077788 -0.27976072 0.033984877 0.06616991 -0.32254034 0.23899542 0.019544195 -0.41252694 -0.039800413 0.048093744 0.35139292 0.0496343 0.02740752 0.12513977 0.009568743 0.012313671 0.011474207 -0.14832127 0.0902615 -0.10076796 -0.05432794 0.021687917 0.10254687 -0.28289735 -0.018914886 0.5389207 0.2185174 0.046094336 -0.06363075 -0.030834634 0.008567229 -0.08789332 0.050543934 -0.055133358 -0.14748727 -0.021704026 -0.3250515 -0.13053837 0.38909736 0.04826117 0.005353557 0.011110678 0.11415872 0.3461985 -0.016514648 -0.021431249 0.026387587 0.24422827 0.062223516 0.008704491 -0.01140517 0.068279855 0.2851785 -0.038625613 -0.015282333 -0.04233894 -0.15567324 0.15518406 0.010314543 0.25072128 -0.41150978 -0.04632263 -0.14098626 0.023771852 0.010714486 -0.037401836 -0.01852917 0.014918607 -0.2337206 -0.029061563 0.23837645 -0.0585666 0.06445444 -0.017660938 -0.1298221 -0.20798925 -0.17561567 -0.06255099 -0.4031995 -0.18637265 -0.012110472 0.07707204 -0.09383336 -0.012757525 0.084585935 0.015097031 -0.09143861 -0.09159379 -0.052343797 -0.35313863 0.18113084 0.035338327 0.03996682 0.32083657 -0.44879463
622 0.029030813 0.117387116 -0.03774131 0.055258706 -0.14635147 -0.4413011 -0.00015075132 0.03187237 0.04948974 -0.32456246 0.32441163 0.13155764 -0.16817346 -0.065994024 -0.0069094393 0.01129327 0.5016781 -0.23887071 -0.33515257 0.040533587 0.11502072 -0.0041428134 0.2178424 0.03197214 -0.11402118 -0.06479007 -0.01986238 0.09529707 -0.045442607 -0.005029805 0.13309032 0.14069656 0.003089549 -0.035243053 -0.06682174 0.03078456 0.016771287 0.010148525 -0.056368757 -0.118692085 -0.089926854 -0.2672319 -0.18039629 -0.0604393 0.0715138 0.028890261 -0.033694033 0.09764466 0.31890586 -0.09664364 -0.059441 -0.23018815 -0.033560313 0.10923994 0.013575625 0.003280744 0.10262925 0.23292708 -0.028771553 0.0636885 0.07085298 -0.07195075 0.098890424 -0.04099418 -0.015828371 -0.04425469 -0.0882573 -0.13794765 0.029927246 0.35888523 -0.03536938 0.28761464 0.1093128 -0.107556134 0.060114313 0.020030133 0.0058361106 0.12104425 0.031674225 -0.08796077 0.057662416 -0.47689992 -0.18246944 -0.10652159 -0.07655037 0.036279954 -0.122864366 -0.11077453 -0.07595467 0.09257001 -0.024060495 -0.022254782 -0.017971233 -0.052297037 -0.1815206 0.16055635 0.056324054 -0.11840888 -0.045166858 -0.22560331
1566 0.10117297 0.28767818 0.0027001258 0.024948597 -0.029106587 -0.09674933 0.021830522 0.15747318 0.035461202 -0.058622085 0.036334246 -0.048884556 -0.08735468 0.015874676 -0.040887482 0.028779842 0.011143602 -0.07024228 0.016702436 0.007817209 0.13176683 0.023291968 0.0667702 -0.050959572 -0.06214461 0.019309971 -0.03763837 0.21421944 0.045671456 0.2745997 -0.030769229 0.12507464 -0.050762873 0.009963039 -0.20746008 -0.013110355 -0.041222006 0.007844593 -0.023161262 -0.17438579 -0.1282392 -0.20265561 -0.026713595 0.080030605 0.17837241 0.067378275 -0.2129259 0.06364577 -0.10994632 -0.14184019 0.059815083 -0.34909976 -0.043356985 -0.12351895 -0.016752442 0.31765378 0.45227295 0.2730356 0.01936325 0.17959557 -0.061373215 -0.07301651 0.23384134 -0.006554004 0.24213961 -0.002341684 -0.009249151 -0.07883882 0.26319906 -0.079752535 -0.12562203 -0.044433355 0.46975636 -0.2585888 0.037598845 0.109914914 -0.12945223 0.05663353 -0.18267892 -0.13187541 0.15403083 -0.37281582 -0.08329062 -0.12663259 -0.14016743 0.30927253 -0.20403571 -0.14397025 -0.41796505 0.12574399 0.032181017 -0.079383306 -0.11673115 -0.06823972 -0.24012367 0.34930867 0.096267454 0.016409576 -0.09080235 0.24687387
625 0.0143496245 -0.51610464 0.055470802 -0.023587363 -0.21671714 0.022023909 -0.053437278 0.11537776 0.050812535 0.06639132 -0.50656146 0.03575301 -0.033190563 -0.068208225 -0.12596121 0.0060768872 0.025374822 -0.071623296 -0.4365487 0.026088435 0.052799117 0.039836407 0.19566411 -0.09140271 -0.024204958 -0.17932145 -0.020872626 0.2781135 0.020174496 0.18058649 -0.09202007 0.09010546 -0.017964318 -0.04674864 -0.14520302 -0.46083087 -0.095432326 -0.08314046 -0.0131093 -0.043260727 0.34850383 0.0677271 -0.015798692 0.027696602 -0.020349354 -0.031763397 -0.059466656 -0.061731935 0.1015549 -0.015945174 0.018896107 -0.025360659 0.03293007 -0.032993227 -0.01522309 0.33193666 -0.008566834 0.048438504 -0.108842716 0.04870871 0.4636702 -0.13917008 0.19966611 -0.12200618 0.38855454 -0.12520778 -0.11022214 -0.48094478 0.07399661 0.059759423 -0.3754551 -0.018694833 0.14754774 -0.047744945 0.10035457 -0.051687203 -0.029192977 0.025035776 -0.062056825 -0.1196047 -0.038761057 0.034945883 -0.041691314 -0.09941133 -0.035419565 0.3759756 0.034987412 -0.5948616 -0.06065692 0.008115426 0.09281774 0.028398372 0.095896475 -0.083283424 -0.38195896 -0.31786838 0.2132284 -0.09166144 -0.007582687 -0.040785383
441 0.08630575 -0.21210133 0.11417714 0.10147506 -0.0938883 0.17028502 -0.18551122 0.16889341 -0.14893389 -0.22887224 -0.21330129 0.12793174 -0.13617074 -0.19120234 -0.12927009 0.18014538 0.16175875 -0.16005671 -0.12244895 -0.12836175 0.12190489 -0.1505201 0.15009664 -0.11574097 -0.1298962 -0.16295813 0.10211325 0.4868344 -0.10224876 0.15194121 0.011577681 0.124683514 -0.17884126 -0.137186 -0.1266694 -0.11253471 -0.16958772 0.1880079 0.14625333 -0.112644 0.17788528 -0.14286003 -0.09166531 0.10180354 0.12029774 -0.17695777 -0.17465344 -0.13028449 0.15871738 -0.112146184 -0.1133575 -0.14816247 0.17691906 0.1265902 -0.17181298 0.1524589 -0.16275717 0.13687907 -0.17019992 0.10491491 0.18455346 -0.10180847 0.07840388 -0.11030574 0.19507393 -0.109471224 -0.17603205 -0.13134627 0.1449389 0.12795408 -0.08248937 0.11251958 0.13984233 -0.1328077 -0.47657743 0.12223228 -0.17751114 0.13877012 -0.18438074 -0.16516262 -0.15986304 -0.09190667 -0.17412248 -0.1477827 -0.10942244 0.18477125 -0.14100315 -0.08915723 -0.14586277 0.17982338 0.13905752 0.12130429 0.50475144 -0.18237694 -0.18557853 -0.14302741 0.10190618 -0.16116375 0.1770833 0.19983101
627 0.13018441 -0.045955274 0.09370477 0.1581974 -0.12066817 -0.025602072 -0.0895794 0.09463071 -0.047048368 -0.28888392 -0.0028681234 0.4493003 -0.14139679 -0.027454898 -0.07663865 0.04572589 0.10177547 -0.08925809 -0.02870635 -0.10963263 0.09886703 -0.08485804 0.09850424 -0.08269713 -0.08681863 -0.11260427 0.08009135 0.35090035 -0.05852034 0.089571394 -0.07516422 0.11646492 -0.12896399 -0.11861756 -0.11292046 -0.17061372 -0.04326814 0.13650054 0.09600642 -0.059188843 0.05448457 -0.01850117 -0.09419648 0.12058239 0.039093755 -0.09031656 -0.030142106 0.036565863 0.36186197 -0.06681699 -0.07415216 -0.05180742 0.118860655 0.08815239 -0.117335394 0.28187254 0.41614163 0.007806815 -0.063562706 0.07695913 0.16935144 -0.05817356 0.5032137 -0.122393176 -0.0065658838 -0.14780377 -0.04456772 -0.11119947 0.05257232 0.04728075 0.04179748 0.121828094 0.048339684 0.0045560524 -0.023205541 0.14485909 -0.10814725 0.13450998 -0.0051170513 -0.075603284 -0.42264906 -0.11842059 -0.11149711 -0.13617066 -0.07403706 0.32589075 -0.330334 -0.075121894 -0.37135255 0.1368636 0.063355826 0.04458581 0.3168936 -0.052141342 -0.0010204241 0.07862607 0.064002216 -0.0833236 -0.017581604 0.2800692
1730 0.08225313 -0.19719094 0.14129467 0.18229046 -0.0921084 0.16873315 -0.11206838 0.08861831 -0.18586178 -0.15649995 -0.21383908 0.11929504 -0.11829353 -0.1278673 -0.12119379 0.15013193 0.09661742 -0.11665502 -0.20894688 -0.106311575 0.1488467 -0.15876654 0.11256291 -0.104035206 -0.17731817 -0.07919709 0.19228674 0.15214132 -0.10520755 0.14655487 0.17167597 0.09167295 -0.09576843 -0.14866945 -0.11472856 -0.11722378 -0.1260161 0.109602235 0.18523346 -0.09493163 0.16045092 -0.14957061 -0.1276081 0.12863265 0.099924006 -0.11136437 -0.116234675 -0.14044976 0.18953052 -0.081835 -0.16944239 -0.17886664 0.18186371 0.08988556 -0.1774855 0.21182865 -0.13059975 0.14577381 -0.16955848 0.124219924 0.11941292 -0.116428286 0.089379326 -0.13267119 0.20850667 -0.10883168 -0.1993973 -0.15439525 0.47330162 0.19120015 0.08280935 0.5187956 0.14787813 -0.2034724 -0.1605968 0.15015692 -0.10024786 0.14948083 -0.16526282 -0.13768627 -0.17199302 -0.16108699 -0.10283787 -0.12846027 -0.17275667 0.1825574 -0.22462651 -0.16418503 -0.14843097 0.18084866 0.18147407 0.17279513 0.18581383 -0.10232779 -0.14755714 -0.06256829 0.16798158 -0.17684846 0.17533684 0.15336147
1527 -0.026879016 -0.13359016 -0.08056054 -0.19536895 0.26949355 -0.19026756 -0.052321434 -0.12442444 -0.0510278 -0.18845871 0.1406335 0.3543931 -0.28627348 -0.33320266 -0.09684908 0.21187915 0.0024969094 -0.05330755 -0.24568062 -0.14465395 -0.036341846 -0.41439345 0.16007985 0.03353061 0.17851527 -0.15628919 -0.17274107 -0.086315244 -0.11716026 0.019444272 0.1997769 0.032900125 0.118717 0.03496997 -0.12246766 -0.25211605 -0.063697405 -0.093470775 0.022736274 -0.014524184 -0.122362725 -0.18851696 -0.1503177 0.14530466 -0.10155937 0.16736087 -0.1721358 -0.18890303 0.11404833 -0.11786349 0.09461821 0.038005814 0.119727254 0.24326435 0.042625215 -0.3365612 -0.1363943 0.22466622 0.16847815 -0.29585475 -0.15565585 0.055882405 0.51867324 0.3718694 0.16727242 0.1578266 0.46041286 -0.17786217 0.17678523 0.23208831 -0.17599107 0.15618432 0.2289807 0.22504576 0.14650735 0.21701448 0.056285784 0.13561445 -0.14996384 0.25558573 -0.06799288 -0.030445285 -0.06298575 -0.20080312 0.04089367 0.10784964 -0.4973206 -0.21513462 -0.19571255 -0.070379734 -0.15614514 -0.15893164 -0.015247181 -0.12799199 -0.12896557 0.025297575 0.06876289 0.38977098 -0.13644405 0.010180984
235 -0.070897095 0.019906145 -0.111981824 -0.06463997 0.11191267 -0.3754204 -0.22113977 -0.024426356 -0.11922786 -0.27410293 0.0075526424 0.088682085 -0.044495426 0.08305785 -0.07178564 -0.23986226 -0.34633216 -0.08453671 -0.3002614 0.25204054 0.09411614 -0.03751766 0.22360495 0.09051545 0.21038513 -0.5125694 -0.18002675 -0.011890415 -0.056540877 0.088502556 0.19183554 -0.119563766 0.101953074 -0.2568442 -0.10767443 -0.06964636 -0.10249008 -0.13251849 0.0630468 -0.09976156 -0.17814785 -0.23542786 -0.027752057 0.17280738 -0.115743876 0.0010271147 -0.1912079 -0.0009535812 0.03012605 -0.124090165 0.25327092 0.08097553 0.10206163 -0.21238765 -0.05825603 0.020363778 0.0029979795 -0.15760328 0.1102778 0.1589396 -0.005080769 -0.060447894 0.5409184 -0.07982388 0.17626426 0.15285584 0.25910056 -0.19753127 -0.01212411 0.40593743 -0.049251154 0.0907343 0.16360909 -0.0125870295 0.1255228 -0.11103406 -0.0073219053 -0.0018272027 0.2426815 0.15881868 -0.3917487 0.42540973 -0.11593778 -0.14939961 -0.35326776 0.0766366 -0.070609145 -0.1381555 -0.6091109 -0.056533214 -0.04592874 -0.1156684 -0.122898296 -0.17027281 0.16054237 0.009619653 0.13335311 -0.011855196 0.027915575 0.17063951
475 0.10107274 -0.19503364 0.14765719 0.16027233 -0.12646149 0.19757941 -0.103083394 0.09989661 -0.11134376 -0.12555645 -0.10349812 0.09605743 -0.17950222 -0.16304913 -0.08784779 0.18002807 0.16980256 -0.14388752 -0.19698374 -0.13568823 0.089121744 -0.11131929 0.17849 -0.16130798 -0.1415935 -0.16010047 0.10144894 0.44080484 -0.10425387 0.18917504 0.0014509857 0.08450927 -0.12953252 -0.112230256 -0.14732207 -0.16533646 -0.12103714 0.16708346 0.13550524 -0.13081415 0.16279283 -0.15554723 -0.16638075 0.12739506 0.088337585 -0.17059419 -0.18440688 -0.12665024 0.14606485 -0.16242296 -0.12456797 -0.12954535 0.08935714 0.10458496 -0.120825954 0.18097897 -0.08738719 0.18590316 -0.09868693 0.15967715 0.16063839 -0.12101629 0.12602787 -0.096944824 0.112406485 -0.15487146 -0.5073576 -0.13541336 0.13820884 0.12297414 -0.07698485 0.12931336 0.107916266 -0.20552668 -0.47129646 0.12440747 -0.14908344 0.16427107 -0.14017677 -0.18428582 -0.19140166 -0.14284433 -0.09576285 -0.093898 -0.10522164 0.16909884 -0.12808701 -0.08012471 -0.18861318 0.14443016 0.09292398 0.15763652 0.4556465 -0.126794 -0.12742837 -0.15422478 0.09038916 -0.18958026 0.097638294 0.15890883
1537 0.12706633 -0.15684651 0.064696014 0.11818164 -0.1385746 0.06737787 -0.10017142 0.08558958 -0.45826203 -0.41386536 -0.039684206 0.5135431 -0.14637606 -0.059319004 -0.12509975 0.14347741 0.11701854 -0.07816003 -0.02973283 -0.14606969 0.11602632 -0.07504575 0.07956455 -0.11687835 -0.068323 -0.08024551 0.10889365 0.066362776 -0.13560975 0.057964347 0.27582952 0.11700483 -0.16809477 -0.09272536 -0.13015878 -0.090936646 -0.035072304 0.15620245 0.14440116 -0.13420074 0.12352709 -0.059186883 -0.07594159 0.14244169 0.07489526 -0.09078322 -0.10973208 -0.35696998 0.026243098 -0.119965315 -0.104623444 -0.13397506 0.45827746 0.13589935 -0.14427535 0.02497001 -0.07497138 0.07295634 -0.13276388 0.08427021 0.11690258 -0.055678997 0.12933384 -0.14890906 0.02841086 -0.15877666 -0.08675956 -0.05795704 0.07602117 0.05209578 -0.10304409 0.12434209 0.09638293 -0.019533798 -0.099612765 0.078797035 -0.11436977 0.06790319 -0.09022476 -0.12588614 -0.07240457 -0.09561257 -0.1605721 -0.12390669 -0.086195305 0.048506796 -0.05636636 -0.09420575 -0.42312837 0.087630235 0.12628292 0.10070096 0.4040666 -0.10020489 -0.4640984 -0.16028486 0.06315809 -0.088879466 0.07279009 0.08384946
1634 0.13131064 -0.14055362 0.15118995 0.1716842 -0.13665141 0.19629677 -0.18426163 0.16876057 -0.17226958 -0.18517451 -0.12472117 0.14438742 -0.18359354 -0.17460269 -0.13877316 0.100278474 0.18707852 -0.19985865 -0.1504863 -0.18147625 0.18213753 -0.17784783 0.14017272 -0.13351445 -0.09656126 -0.14601344 0.118264735 0.5001613 -0.104986 0.12086651 0.037295997 0.14073297 -0.13440192 -0.10030384 -0.09157269 -0.10447583 -0.14893936 0.13541728 0.14019282 -0.14599344 0.12435559 -0.13513008 -0.11424615 0.13767993 0.15113372 -0.13662608 -0.1702317 -0.14225903 0.11895059 -0.14759482 -0.13037296 -0.16312422 0.13081856 0.15956956 -0.08976211 0.14181387 -0.10444372 0.14009432 -0.19585986 0.17862505 0.089269824 -0.09928825 0.07218412 -0.13065717 0.14798845 -0.14175548 -0.524294 -0.13555078 0.087237045 0.19752242 -0.11872225 0.1550084 0.0916264 -0.12910163 -0.5076707 0.11953431 -0.13896908 0.10860788 -0.1396455 -0.18660757 -0.1072657 -0.16139178 -0.11658503 -0.123662144 -0.09014551 0.13259605 -0.21684772 -0.13691032 -0.19415659 0.14124395 0.13572913 0.10711525 0.16965428 -0.13226824 -0.17369738 -0.14982896 0.13277508 -0.14559107 0.17503388 0.2173309
1946 0.09865105 -0.21673903 0.1622986 0.19574875 -0.15884678 0.13019262 -0.1703803 0.13739242 -0.16050428 -0.23959139 -0.24344584 0.082632944 -0.13065782 -0.15593287 -0.13388644 0.14562993 0.17578112 -0.13671106 -0.19571882 -0.123741694 0.1307425 -0.1175933 0.12571715 -0.10941318 -0.083563045 -0.15081827 0.1761677 0.19239515 -0.114456326 0.15200678 0.20187892 0.10649794 -0.14888127 -0.14713842 -0.10911927 -0.18963365 -0.13172835 0.17938447 0.18062446 -0.17306486 0.09549834 -0.19270486 -0.14836468 0.17369843 0.103062436 -0.15002465 -0.1903922 -0.19284372 0.13351628 -0.12763876 -0.10784906 -0.2325933 0.09493185 0.17014089 -0.18687159 0.23039609 -0.1449804 0.13749288 -0.19844551 0.112280644 0.107589014 -0.14015836 0.16101415 -0.15417272 0.22221327 -0.132655 -0.20146555 -0.13677713 0.17444608 0.20827903 0.11700299 0.5394549 0.10645268 -0.16492331 -0.14571099 0.16637117 -0.109886765 0.14158279 -0.14264843 -0.14222434 -0.12043501 -0.098974735 -0.14446272 -0.096298724 -0.12569855 0.19355659 -0.24893646 -0.10184035 -0.18381457 0.122023225 0.17724021 0.09526893 0.13271564 -0.09760453 -0.14684896 -0.12349245 0.16114499 -0.1453198 0.18990508 0.1500153
1819 -0.19941303 -0.10882936 -0.29227185 -0.20082608 -0.28997582 0.11382129 0.019143611 -0.17009234 0.039970454 -0.053057197 -0.10089632 0.24010098 0.20265146 0.10876661 0.07250836 0.27897814 0.29929063 0.05184844 -0.29123443 0.28382754 -0.28106073 0.1844647 0.14574009 0.6961218 -0.15089607 -0.36353493 -0.19806835 -0.062360406 0.0020546205 0.087953255 0.45305476 0.010740161 0.19223437 -0.28228596 -0.11050743 -0.27458182 -0.21540064 -0.21370411 -0.20087677 0.0010658391 0.21108058 -0.09862791 0.30182254 -0.17920235 0.23968261 0.22444855 -0.45519376 -0.25356707 0.1065819 0.070468806 0.2837131 0.22138791 -0.15804774 -0.28264946 0.2264165 0.27394497 0.062653765 -0.12596536 -0.48264065 0.17188807 0.2668801 0.14956737 -0.17735884 -0.029169098 0.34085408 0.3945253 -0.432171 0.06719738 0.12760174 0.10137309 -0.24561352 0.38796484 0.3908741 -0.5534089 -0.15991059 0.2598033 0.16135146 0.25312263 -0.69725347 -0.06118222 0.0046654567 -0.008096173 -0.10490419 -0.010871917 0.12994239 0.14861904 -0.47314873 -0.23841484 0.054554418 0.42208725 -0.31730404 -0.1978527 0.09658273 0.38463464 0.15666993 -0.10191972 -0.012842242 -0.07654022 0.27089006 0.06552372
87 -0.09918699 -0.06018306 -0.106012076 -0.04274468 -0.33950138 -0.00496424 0.0386825 -0.085655555 0.2091562 -0.14714268 -0.23198193 0.36932752 0.2540749 -0.12403354 0.23850927 -0.09364265 0.0033968985 -0.4295629 -0.15849142 0.08772683 -0.27150753 0.14900684 -0.007840924 0.15056649 -0.29953593 -0.039228104 -0.058328643 0.121541575 0.10588146 -0.08925883 0.070170775 0.13495252 0.0642284 0.09157893 -0.15076032 -0.14746921 0.19005549 -0.080212064 -0.53134924 -0.2707691 -0.19768257 -0.05874695 0.029519945 -0.08371175 -0.048697934 0.14031221 0.11636548 0.18346259 0.108976096 0.020255893 0.15024021 0.013136342 -0.07767809 0.06308039 0.04552812 0.024912596 0.0064074695 0.23322074 0.04139088 0.059717827 0.03441548 0.23670225 0.13152081 -0.15079452 0.17198473 -0.058162242 -0.16189021 0.08360447 0.05711285 0.56508356 -0.10698175 0.15693367 0.007913329 -0.1730935 0.047741875 -0.21139279 0.43368724 -0.01269152 0.020420551 0.206089 -0.035823025 -0.21839514 0.07383628 -0.45590585 -0.36051938 0.069806956 -0.01213032 0.09954725 -0.17669348 0.030605216 -0.016731516 -0.044178396 -0.4046528 0.02080284 0.12537177 0.22952513 0.04982239 0.13060382 -0.08322203 -0.09018221
2071 0.08449547 -0.12090061 0.11803639 0.09006273 -0.1007569 0.36755604 -0.15442397 0.13720046 -0.13627023 -0.03438974 -0.037748113 0.1518085 -0.111648604 -0.11885176 -0.16643943 0.07236243 0.16760413 -0.4407489 -0.085179485 -0.08273111 0.13514166 -0.06653236 0.110447615 -0.16121925 -0.16927165 -0.07865378 0.13909476 0.4001592 -0.07080924 0.16562332 -0.04064343 0.033387106 -0.13012303 -0.18623094 -0.05547396 -0.13469557 -0.06478743 0.10054346 0.06120244 -0.14303982 0.11989653 -0.07082053 -0.10405633 0.07155773 0.12231041 -0.10029483 -0.11061461 -0.31044585 0.079791054 -0.08081893 -0.17719984 -0.09702697 0.09696032 0.10836991 -0.16445288 0.087873146 0.06575414 0.43096307 -0.12223163 0.08521895 0.123486325 -0.15559582 0.07625105 -0.12647124 0.122155644 -0.13640353 -0.0770613 -0.11720825 0.41393942 0.08279886 -0.043631688 0.36258513 0.09247666 -0.108439386 -0.08546586 0.12990932 -0.14632307 0.10612597 -0.093679145 -0.15304984 -0.1604222 -0.09921356 -0.09794293 -0.047690786 -0.13708818 0.043161906 -0.13139533 -0.16406986 -0.11063831 0.09235762 0.16146432 0.11721145 0.11714737 -0.11273936 -0.0626102 0.4346128 0.105643824 -0.08459165 0.37406245 0.10817507
744 0.12340563 -0.1796708 0.14231685 0.18577217 -0.12900959 0.18725868 -0.17594889 0.16178526 -0.11823653 -0.12233701 -0.13582808 0.17224862 -0.14236584 -0.13667725 -0.10606705 0.14302097 0.1335111 -0.12257254 -0.12922466 -0.16453433 0.08992668 -0.100324005 0.1246404 -0.14306056 -0.08690011 -0.1461573 0.11904258 0.4582662 -0.16276303 0.17736726 -0.04466871 0.07676796 -0.18589452 -0.108023554 -0.119209304 -0.11919704 -0.13923433 0.1553469 0.16841109 -0.15608081 0.1636243 -0.12918204 -0.15925197 0.14457993 0.15983792 -0.18110093 -0.13532232 -0.11633183 0.18348762 -0.10528786 -0.1736866 -0.17220855 0.152494 0.11758565 -0.08056526 0.20888513 -0.12271664 0.1820211 -0.10532011 0.17788011 0.14657493 -0.12640885 0.13256352 -0.10970133 0.15040757 -0.098649666 -0.5005599 -0.17201492 0.12018433 0.11399422 -0.11228504 0.101121604 0.16684338 -0.20050177 -0.40190852 0.08861312 -0.17771637 0.098147064 -0.16493726 -0.15698422 -0.1532786 -0.07826085 -0.080809005 -0.11231771 -0.08575279 0.10634856 -0.12542509 -0.08043839 -0.13596237 0.08518933 0.107650526 0.14036468 0.4506034 -0.118617386 -0.14772122 -0.13605012 0.15311533 -0.14216192 0.14318487 0.12167881
1600 0.1354572 -0.14539191 0.11021772 0.08330581 -0.10254841 0.015595764 -0.06133534 0.09244177 -0.4028016 -0.07381507 -0.035951383 0.083158925 -0.10134511 -0.09587558 -0.14386722 0.06935285 0.09240608 -0.1435384 -0.3683565 -0.11318588 0.09864052 -0.088822275 0.0872065 -0.094862506 -0.09334248 -0.08475945 0.11593946 0.0041738674 -0.09508997 0.104472384 0.31613892 0.07976164 -0.08555282 -0.07237013 -0.1723376 -0.10246577 -0.11901532 0.13747992 0.12291359 -0.5036303 0.08349691 -0.08210114 -0.11097856 0.07545536 0.13541225 -0.12595803 -0.12900908 -0.3419796 0.05102127 -0.058630023 -0.1283591 -0.049523447 0.113582775 0.13510156 -0.05866283 0.006269872 0.028739616 0.033679746 -0.13913949 0.15237746 0.15653665 -0.12215761 0.18714531 -0.18544973 0.057305038 -0.11506298 -0.11221865 -0.054642078 0.1013096 0.37632692 -0.0023781806 0.07237834 0.10103607 -0.0552058 -0.13445237 0.13673528 -0.14967345 0.16475692 -0.048716635 -0.11558156 -0.47180602 -0.10082732 -0.11363282 -0.08115633 -0.13627112 0.3965226 -0.3601923 -0.043095585 -0.087320045 0.05405087 0.13832982 0.1320263 0.10169908 -0.11735408 -0.093548656 -0.010952465 0.11208352 -0.15644059 0.071042486 0.062362365
1821 0.047306553 -0.09417623 0.06540749 0.103616975 -0.079802826 -0.075631134 -0.092061475 0.12028757 -0.28975195 -0.28284758 0.1339567 0.12190912 -0.07493763 -0.29050756 -0.076861404 0.021834921 0.12076491 -0.0020365939 0.049831547 -0.10894424 0.10779871 -0.28582835 0.052804325 -0.07680097 -0.12993339 -0.11500984 0.12730798 -0.020959787 -0.06301353 0.08714842 0.064311616 0.1144827 -0.13471621 0.003797382 -0.14838988 -0.05823721 -0.0768054 0.065213725 0.30651823 -0.065502144 0.10563787 -0.2996386 -0.065073535 0.077040695 0.03967746 -0.09553449 -0.33084506 -0.073575154 -0.056227047 -0.11112137 -0.0898398 0.00036689267 0.012208939 0.10010615 -0.056804515 0.11890492 0.1034028 -0.049502164 -0.07427274 -0.0056469515 0.0807201 -0.05190626 0.16742244 -0.12720823 0.35937205 -0.12244386 -0.32570106 -0.09946971 0.07179364 0.282557 -0.09986347 0.008915678 0.05395316 -0.26112276 -0.049072728 0.075628564 -0.108965464 0.12866741 0.0076512843 -0.0027293805 -0.043745257 -0.076740526 -0.10353765 -0.09678601 -0.14385128 -0.021871753 0.08424815 -0.08730359 -0.35785753 0.06961081 0.13484158 0.07200628 -0.021948524 -0.10133338 0.0028196126 0.19851406 0.12358934 -0.10233772 -0.06605436 0.23298301
1918 0.13366412 -0.06407474 0.017664632 0.0016546999 0.06267736 -0.018737257 -0.00046674907 0.16825008 0.012345165 -0.12928078 0.102537446 0.037677508 -0.10336385 -0.04753364 -0.022564732 0.07064282 0.08944141 -0.14134476 -0.38006213 0.018008353 0.13266431 -0.06854406 0.0772648 -0.1242057 -0.10667293 -0.01280373 0.037864048 0.2583741 -0.3865299 -0.06726067 0.41938716 0.19990143 -0.09220905 -0.078047425 -0.23281689 -0.057462506 -0.079912566 0.03852222 0.05558434 -0.1831774 -0.018184517 -0.32440275 -0.029114135 0.0696501 0.18111631 -0.08202417 0.12806407 0.077739924 0.2420715 -0.12398012 -0.03861061 -0.22801512 0.044958565 -0.07566668 -0.0013150554 -0.11268251 0.2563884 0.26284227 -0.38668665 0.20142506 0.014064673 -0.16907911 0.24656929 -0.079273544 0.3277115 -0.037165962 -0.051617287 -0.093704976 0.013861209 0.045645684 -0.073847115 0.071662165 0.013367403 -0.22833155 -0.038835112 0.13288337 -0.1782631 0.44459358 0.066374905 0.14726952 0.094076216 -0.052288428 -0.43856594 -0.10104176 -0.17333424 0.0032480508 0.06349009 -0.108722776 -0.11354274 0.107825555 0.07474222 0.032561675 0.019901216 -0.01562567 0.017169923 0.34271348 -0.019293893 -0.24834001 -0.0052540824 -0.078935556
647 0.086222015 -0.17924944 0.2000399 0.114905 -0.08435018 0.35923758 -0.12658687 0.07983271 -0.38510674 -0.14960004 -0.27443212 0.08990604 -0.087331936 -0.30990395 -0.16379829 0.1202733 0.12850013 -0.089961916 -0.03748917 -0.14068976 0.11460233 -0.38199112 0.054628737 -0.06538805 -0.18547322 -0.097231716 0.13142504 0.026268043 -0.17146444 0.1805409 0.07984417 0.43172038 -0.059970915 -0.045348328 -0.16285741 -0.09760222 -0.08660075 0.06586911 0.033277605 -0.10295628 0.1496785 -0.117628925 -0.112905264 0.14324102 0.07672222 -0.15880635 -0.059919983 -0.30472404 0.1065033 -0.08400382 -0.10309108 -0.15200466 0.060992662 0.12443575 -0.16969156 0.15513244 -0.008582391 0.08987498 -0.08490799 0.12023274 0.14921874 -0.14968833 0.08270653 -0.10238931 0.18474525 -0.1837572 -0.3604912 -0.08665552 0.103071734 0.07888879 -0.08077048 0.101352364 0.11370881 -0.1322824 -0.020197034 0.15393135 -0.12175746 0.123503275 -0.11507861 -0.055156082 -0.087135166 -0.13425776 -0.12412782 -0.12780252 -0.12988836 0.13365385 -0.063732125 -0.117460355 -0.1162875 0.09462647 0.14139375 0.0863506 0.021110244 -0.066390894 -0.06353309 0.06777988 0.09049765 -0.10700985 0.38033676 0.01837454
583 0.10966021 -0.03008841 0.13639644 0.08002608 -0.080797546 -0.0051639974 -0.106906906 0.043460853 -0.28674772 -0.27118394 0.05289877 -0.012997545 -0.1445338 -0.036368825 -0.08868423 0.079212055 0.034966093 0.0033411905 -0.34616706 -0.12988563 0.051062785 -0.044797927 0.0768407 -0.06444051 -0.12092544 -0.07238067 0.045931123 0.33691427 -0.0070133097 -0.004826598 -0.0013906807 0.06327903 -0.11918987 -0.083770536 -0.11131191 -0.08142415 -0.012594894 0.113714844 0.020679772 -0.06842348 0.07617737 -0.3545222 -0.50662005 0.06801106 0.1187215 -0.03845304 -0.3553933 0.057261236 -0.07602158 -0.108332045 -0.061134085 0.009682827 0.38091356 0.06787392 -0.06648339 -0.09402058 0.11701657 -0.0823663 -0.09507495 0.35884988 0.10632232 -0.039240845 0.13280419 -0.06360916 0.31840083 -0.08276048 0.026674934 -0.059343386 0.03463176 -0.0012482777 0.033027686 0.03249657 0.030566696 0.07531963 -0.05099629 0.09869761 -0.06973568 0.047015578 -0.3672744 -0.116217986 -0.020858482 -0.0831141 -0.11562823 -0.076208025 -0.051679276 0.30373573 -0.27992487 -0.019999642 -0.30144817 0.03534891 0.1127171 0.06698904 0.38830003 -0.016507795 0.03193544 0.25714162 0.109413296 -0.07086247 -0.012033485 0.001849018
651 0.11568958 -0.17036313 0.079044685 0.026314255 -0.0037329122 0.0031228587 -0.048439704 0.17363875 0.05130539 -0.17393622 0.046247065 0.060948536 -0.08055679 -0.117542796 -0.038882427 0.083875924 0.08539174 -0.23622367 0.026778407 -0.33929378 0.09973418 -0.12979752 0.1093139 -0.044782728 -0.091338046 -0.070160024 0.029633341 0.27378613 -0.43820393 0.43014935 0.31078732 0.20960309 0.0011405293 -0.14216822 -0.27066603 -0.07324024 -0.030703235 0.04285722 0.12514351 -0.13909993 -0.01906153 -0.310051 -0.10367375 0.07475592 0.2146141 -0.061319344 0.10224393 0.0010183379 0.30302292 -0.18220776 0.025575504 -0.3928992 0.043240376 -0.12490932 0.01070093 0.012709439 0.20766628 0.00723546 -0.41215864 -0.08662527 0.016439293 -0.15469061 0.2441477 -0.008327823 -0.047252815 -0.016477797 -0.044781998 -0.0856295 0.07528029 0.08799373 -0.20429592 0.064388946 0.09629246 0.06560086 0.09848708 0.11820355 -0.13890734 0.08712624 -0.041815855 0.09651318 -0.33120584 -0.12963067 -0.071703225 -0.09272012 -0.20700756 0.39629424 0.0412426 -0.16841915 -0.12662955 0.14256482 0.1053044 -0.014187567 0.28736454 -0.07854359 -0.36341003 0.34786305 0.06948555 -0.29833525 -0.006375283 -0.001017578
606 0.12801568 -0.051436253 0.09575583 0.07116104 -0.06970462 0.32894716 -0.143889 0.07335064 -0.030320376 -0.04688544 0.07025394 0.12740305 -0.0892537 -0.029027812 -0.079007 0.13961734 0.10388141 -0.3904391 -0.042999245 -0.14034265 0.082975455 -0.38741365 0.14802857 -0.10509476 -0.13255593 -0.14322971 0.1309651 0.39692372 -0.09394737 0.062866405 -0.060289055 -0.019965157 -0.14653237 -0.090975605 -0.07864466 -0.04803794 -0.4280878 0.15975872 0.061132282 -0.1420965 0.05901208 0.0044226646 -0.07112693 0.10682034 0.12348575 -0.13542537 -0.03156835 -0.29202592 0.07022679 -0.085308455 -0.15605354 -0.120579906 0.13095832 0.08628067 -0.14445595 0.025778197 0.024426691 0.079445384 -0.09892215 0.13566744 0.15026848 -0.058600534 0.055522636 -0.48481408 0.00036874413 -0.111107826 -0.048106715 -0.059337802 0.031721786 0.0113039315 0.15412275 0.3151876 0.100672156 -0.37880167 -0.058222584 0.05586205 -0.0852439 0.13487397 -0.0316504 -0.12596086 -0.1494234 -0.074163646 -0.122153044 -0.071827374 -0.094496585 0.025112957 -0.065090045 -0.10186471 -0.41774583 0.1536166 0.11224986 0.12528774 0.04631938 -0.11365236 -0.022833366 0.431386 0.12147213 -0.15465581 0.3032925 0.011092387
1687 0.134948 -0.13138537 0.13859734 0.17007598 -0.09811432 0.09402582 -0.094390474 0.154429 -0.090872206 -0.09141469 -0.050136395 0.15213373 -0.14282475 -0.110100344 -0.0735326 0.14679047 0.1151363 -0.0902535 -0.13106608 -0.08495517 0.14399704 -0.06012335 0.09083789 -0.14350444 -0.111771554 -0.057581697 0.1213431 0.44920093 -0.09363789 0.12785442 0.28091517 0.058423966 -0.15121722 -0.053232573 -0.12391393 -0.09245042 -0.12350051 0.15386933 0.15033488 -0.10508252 0.13747546 -0.04953395 -0.074817136 0.536423 0.10914906 -0.07871713 -0.06152483 -0.105284914 0.11520042 -0.06653151 -0.1077849 -0.11047661 0.08226085 0.16710487 -0.14284237 0.14390737 -0.29099667 0.15494591 -0.06456717 0.067892216 0.15147494 -0.072857656 0.09731905 -0.112540945 0.42803168 -0.13989215 -0.09582612 -0.09597389 0.45226094 0.10661745 0.27232847 0.056637384 0.07887606 -0.12701087 -0.09525983 0.081368625 -0.100305475 0.09920074 -0.51329476 -0.11321774 -0.13403077 -0.0900217 -0.10284541 -0.146914 -0.08775802 0.096715905 -0.05535961 -0.09201458 -0.12740183 0.0983962 0.15289871 0.485666 0.1207325 -0.15293795 -0.15919323 -0.08456835 0.117111996 -0.122936815 0.0612012 0.10889635
103 -0.41328108 0.022551842 -0.60891145 -0.073875315 -0.048266996 -0.042059876 -0.32079744 0.068006136 -0.03843838 -0.26413998 -0.1191146 0.13406855 -0.18565157 -0.016658194 -0.09534407 -0.08961734 -0.026384626 -0.14335261 -0.19020794 0.5986931 0.13797635 0.20012665 -0.5457101 0.28239363 0.25881368 0.048518293 -0.05607045 0.14764914 0.07681416 0.075994395 0.22177237 0.042449567 0.0406924 -0.2427901 -0.25322178 -0.2747113 -0.097551696 -0.11550724 -0.175071 -0.22546285 -0.10974833 -0.15815333 0.023524895 0.2638909 -0.059589468 0.043660797 0.40157893 0.1318515 0.064398736 -0.14056155 0.17498319 0.19272174 0.17538139 -0.25784788 -0.016738478 0.11314152 0.037298784 -0.010995846 0.051277764 0.43013737 0.09887662 -0.17925741 0.28051943 -0.0714697 0.012293301 0.027404696 -0.074211806 -0.16596201 0.0937633 0.25257084 0.032431766 0.21737145 0.11948422 0.071706966 0.095386274 0.03961652 0.014989415 -0.15319552 0.11929704 0.22706562 0.06688106 -0.21389896 0.03999916 -0.15743503 -0.13682921 0.0013308926 0.12394548 -0.2872511 -0.040927418 -0.21961059 0.06425002 -0.056439526 0.11242737 -0.17846522 0.024806278 0.07758206 0.06836513 0.14067486 0.037719674 0.10235189
