2191 100
0 0.14403698 -0.017064914 -0.35474423 0.21532899 0.18973526 -0.20475414 0.22597809 0.1983332 0.3814611 -0.32325768 0.23432249 0.10482546 -0.656084 -0.31255254 -0.028505143 0.36039028 -0.22434701 0.91766226 0.1379531 0.25914222 -0.29538068 -0.21307296 0.15342563 0.33076748 -0.27263394 0.020134745 -0.3614041 0.14226726 0.15299295 0.057788976 -0.06420264 -0.14402665 -0.24844842 -0.17671192 -0.16288736 -0.056864034 0.34422055 -0.14991702 -0.8688863 0.13067842 -0.7941828 -0.13100496 -0.4762901 -0.07326508 -0.24069968 -0.08648931 -0.056624733 0.376648 -0.13087478 -0.08575626 0.30813977 -0.28371018 0.29179868 -0.3370619 0.8859773 0.23877008 0.1818031 0.03068666 -0.10200457 0.110484764 0.096898176 0.071627915 0.1759268 -0.0689115 0.12469636 -0.51477903 0.23209408 -0.66939163 -0.023985364 -0.20918863 -0.23357731 0.28417906 -0.44976553 -0.25733727 -0.17237511 0.2300571 -0.15740155 -0.115174405 -0.16860224 0.03371301 -0.0110565405 -0.0818442 -0.12582931 -0.1426486 -0.16582304 0.12894037 0.09742523 -0.011689897 -0.19958101 -0.21026215 0.18911037 -0.27022973 0.061760653 -0.2522088 -0.1178044 -0.1939696 -0.79700166 -0.07654088 0.18630512 -0.11040663
553 0.029064072 -0.20065823 -0.27654833 0.04334521 0.21178833 -0.17302877 0.22651991 0.17701192 0.014199633 -0.27943286 0.15075482 0.13695036 0.13964927 -0.46979988 0.053782884 -0.13363296 -0.20514627 -0.03452875 0.017848708 0.23206727 -0.28886628 -0.17199068 0.10897767 -0.0013103273 -0.034471117 0.15208025 -0.23452121 0.0726255 0.00851496 0.0015322868 0.088614054 -0.13138556 -0.26344338 -0.13074192 -0.12743111 -0.22221205 0.31696606 -0.0035801611 -0.16381814 0.5129557 0.22038114 -0.14234112 0.1448817 0.15014838 -0.11075204 -0.07737629 -0.16287917 0.17698517 -0.03282906 -0.061649323 -0.21872011 -0.2260203 0.35120633 -0.85123146 0.4516652 0.057751063 0.13135594 -0.44019237 -0.038264956 0.11362746 0.10817022 0.03735359 0.18759693 -0.32093647 0.23959345 0.019211397 0.1399524 -0.043479923 0.45679498 -0.24152702 -0.19404341 0.19645625 -0.24688943 -0.08469072 0.15072802 0.03372214 0.073857464 -0.005575196 0.011182211 -0.1523473 0.25208753 -0.05286516 -0.079298414 0.097448416 -0.14447175 0.0905645 0.13182078 -0.1392195 -0.20148069 0.034415845 0.30756828 -0.032746196 0.08866883 -0.7531747 -0.2810642 -0.09471622 -0.06827615 -0.21196596 0.14782639 0.12855479
554 0.19288641 -0.47366527 -0.33825505 0.21072686 0.19090375 -0.3250178 0.22874656 0.218112 0.32809943 -0.6486384 0.22202197 0.0815156 -0.8943827 -0.18425567 0.09323825 0.57658666 -0.35295433 0.53684765 0.2940327 0.34422457 -0.26072663 -0.21451706 0.50948995 0.6203438 -0.41635597 0.13095999 -0.2969213 0.3352996 0.13288268 1.1618829 -0.040756863 -0.22119284 -0.39705592 -0.18465279 -0.231523 -0.009854298 0.27091792 -0.23869954 -0.72009414 0.601951 -0.73563737 -0.23394196 -0.2870342 -0.10076636 -0.35851446 -0.15695706 -0.2608407 0.3450925 -0.24897537 -0.07333044 0.57832193 -0.47411346 0.22555584 -0.32927927 0.4450854 0.22261949 0.2891687 -0.11754741 -0.2803694 0.1429083 0.11088869 -0.11123576 0.38987124 -0.33414978 0.37334764 -1.0839909 0.22362936 -0.2619371 0.18353207 -0.5622635 -0.29735604 0.2903504 -0.9101771 -0.2858591 -0.6380149 0.21064419 -0.05808178 -0.28084973 -0.36512706 0.065527745 0.012270199 -0.14677994 -0.20791568 -0.051367592 -0.25648496 0.07873129 0.047243584 -0.15722454 -0.21571042 -0.52807164 0.25930074 -0.13709919 0.22623907 -0.33409077 -0.19788575 -0.2874956 -0.42793727 -0.098044954 0.45624766 0.11737364
1614 0.11431765 -0.19303462 -0.15227646 0.04054214 0.2621636 -0.22800589 0.13515097 -0.006506606 -0.03975539 -0.33280024 0.16760959 0.13982494 0.06322522 -0.19082734 0.14772156 0.22137536 -0.19931468 0.44000962 0.13806863 0.14573431 -0.1962919 -0.16805665 0.09409732 -0.12335216 -0.22352344 -0.007924196 -0.26274368 0.14398044 0.013948714 0.4033401 0.0037846274 -0.03697089 -0.25631514 -0.14419204 0.068526484 0.32327965 0.053635724 -0.11659114 -0.025589082 0.38266245 -0.5919194 -0.06758265 -0.52591944 0.060582858 -0.037547093 -0.08720907 -0.08820693 0.0438032 -0.16535772 -0.010479833 0.008458299 -0.3013479 -0.057591446 -0.081306115 0.65635693 0.13420025 0.29167104 -0.016337734 -0.14477998 0.013486603 0.019339863 -0.048442844 -0.116823584 0.3920658 0.11033913 -0.16431701 0.15671994 -1.0852273 0.26766965 0.0050559966 -0.121901095 0.17688505 -0.57948697 -0.04635745 -0.10579356 0.23323838 -0.06263125 -0.03424992 -0.052290965 -0.5621571 0.20588118 -0.033698138 0.10973118 -0.46521974 -0.048948236 -0.09418854 0.12391781 0.022945482 -0.1026761 -0.055870034 0.07216291 -0.02660953 0.08223424 0.14420687 -0.13454632 -0.0052348813 0.33315027 -0.07755615 0.27804497 0.1799511
1615 0.0936282 -0.08889272 -0.13788122 0.04993612 0.17083502 -0.22337946 0.30762988 0.20420307 -0.0671556 -0.021550054 0.12403294 0.1157813 -0.06495959 -0.1917516 0.20384893 -0.070854485 -0.1953195 -0.14344583 0.10566335 0.21092984 0.0888465 -0.27049208 0.12929173 0.0066457945 -0.113130026 0.054297294 -0.16306028 -0.19158958 0.12851259 -0.31596202 -0.033873655 -0.17028037 -0.055490576 -0.15738949 -0.16664883 0.03949278 0.17939575 -0.09133814 0.22098167 0.4264514 -0.2054678 -0.18470716 0.055746738 -0.08235549 -0.17150344 -0.050068107 -0.35721034 0.18756613 -0.24492769 -0.047616765 -0.03467185 -0.3145197 0.036408838 -0.008948906 0.16318844 0.015972845 0.026852269 -0.51122457 -0.25334808 0.19461383 0.19864354 0.08895544 0.13616234 -0.053685244 -0.013439049 -0.37993023 0.26470688 0.19187206 0.51493484 -0.2210045 -0.11347878 0.31830272 0.11110721 -0.22989869 -0.049622606 0.10160434 -0.14687885 -0.0999075 -0.12945302 -0.018512176 0.23516679 -0.26644552 -0.28136322 0.1181386 -0.2700629 0.10472553 -0.05573014 -0.27637577 -0.30093798 -0.024540534 0.23009281 -0.26975012 0.3234808 -0.04324337 -0.26508814 -0.21202166 -0.24560452 -0.07410934 0.107555754 -0.004975614
368 -0.09102334 -0.2970972 -0.006124218 0.0945871 0.15469287 -0.13091508 0.2615013 0.051183585 0.2841038 -0.23986414 0.13071413 0.2115333 -0.20455503 -0.07841609 0.1030249 0.053755406 -0.21209332 -0.1762329 0.013824919 0.15949601 -0.15527219 -0.15178433 0.30157295 -0.068518266 -0.14266066 0.043682598 -0.2298155 0.109189086 0.095316924 0.13710728 0.023511892 -0.18021506 -0.09768442 -0.25823554 -0.051401574 -0.058249928 0.37262842 -0.10033273 -0.44643787 0.10638988 -1.0210165 -0.14771685 -0.52424634 -0.064210296 -0.072645165 -0.10644832 -0.1637763 0.19178763 -0.08806318 -0.19786151 0.18527734 -0.16507933 0.26894742 -0.21843928 0.5234128 0.16124073 0.067705885 -0.29083958 0.02312933 0.19706206 0.10967372 0.13808884 0.19100733 -0.1594335 0.25245672 -0.41467282 -0.0729676 -0.2251578 0.44960114 -0.33634782 -0.29410303 0.18647578 -0.28973177 -0.18711887 -0.10641561 0.0415333 -0.039004836 -0.05925554 -0.24546555 0.25827545 -0.04096835 -0.11778087 0.32642657 -0.028483998 -0.16264874 -0.023316422 0.08018884 -0.26137292 -0.16574521 0.021209193 0.20353709 -0.16218412 0.17131743 -0.7950306 -0.17889892 -0.08964786 -0.09782428 0.00962634 0.07739179 -0.071098246
1093 0.084094346 -0.06724306 -0.12078601 -0.015050582 0.25409868 -0.18403734 0.24557884 0.2506492 0.2289119 -0.22252297 0.20876668 0.2964465 -0.36901534 -0.19785348 0.1363221 0.18327029 -0.24171153 -0.14220506 0.09442269 0.16508025 -0.22621389 -0.322723 0.11423234 0.22433214 -0.108312614 0.13675764 -0.14702871 0.13394192 0.10905863 -0.28587607 -0.09291802 -0.34666115 -0.1521571 -0.18518181 -0.14729919 -0.07689234 0.393053 -0.2464868 0.07615957 -0.2214084 0.053518392 -0.3037944 -0.095860094 -0.11681377 -0.19782446 -0.22657341 -0.25202218 0.340373 -0.23922615 -0.18306462 0.0659814 -0.27119192 0.14538234 -0.0038348527 -0.044780537 0.1129635 -0.021553297 -0.2613604 -0.059683736 0.19407928 0.18939368 0.05327939 0.13901454 0.2138992 0.15347637 -0.026334342 0.10682924 0.13246685 0.1203473 -0.14051746 -0.23704126 0.35021868 0.2905808 -0.24150443 -0.00937015 0.47936606 0.10276718 -0.03917605 -0.12601778 0.17235713 -0.18992239 -0.23238459 0.097581215 -0.14385864 -0.19070742 0.08822795 -0.023972193 -0.05371562 -0.23268609 -0.23635627 0.23538306 -0.10847411 0.09169306 -0.020953383 -0.21196221 -0.3540539 -0.33339086 -0.023739219 0.015724761 -0.116112754
780 0.16659863 -0.47714895 -0.3380725 0.18392318 0.23187494 -0.31284493 0.21408157 0.25854644 0.31313708 -0.74968934 0.27551672 0.14985271 -0.9575581 -0.36905122 0.031070992 0.5842169 -0.33257362 0.5472922 0.26389253 0.3153404 -0.26323697 -0.22653829 0.49434543 0.7153698 -0.39463463 0.19041747 -0.23999472 0.40525785 0.13117687 1.1027642 -0.06453275 -0.22051771 -0.37722412 -0.17149371 -0.20831446 -0.07506275 0.3610045 -0.29522666 -0.72397685 0.5930039 -0.6090008 -0.27542394 -0.22676606 -0.13159786 -0.41469166 -0.12475383 -0.2257994 0.35413784 -0.31346878 -0.118169345 0.5702571 -0.48231477 0.23654798 -0.314577 0.45093393 0.23265141 0.23757622 -0.0828555 -0.16716062 0.2135907 0.12837613 -0.16063093 0.35303062 -0.33677894 0.3813089 -0.9541167 0.24110743 -0.15576601 0.1991327 -0.53870606 -0.24125683 0.32563558 -0.85449106 -0.34170374 -0.76407564 0.31046507 -0.10316159 -0.23607656 -0.30033615 0.10405774 -0.045616876 -0.14928502 -0.1405089 0.020326564 -0.27758396 0.106743485 0.06574557 -0.09948125 -0.21240495 -0.58270144 0.2706937 -0.17536926 0.23081972 -0.36595643 -0.18301602 -0.32526702 -0.39956695 -0.08421177 0.46214682 0.07345427
1622 0.0394049 -0.30854365 -0.30224672 0.19712847 0.2430007 -0.26459575 0.25024423 0.0959176 0.024828458 -0.48746833 0.21597505 0.16747087 0.05003012 -0.4139549 -0.15969343 -0.035786096 -0.38409066 -0.21218956 0.07886591 0.1715241 -0.38496616 -0.13964704 0.32235876 0.016300566 -0.24020274 -0.013137107 -0.37560853 -0.009739693 -0.030327266 1.153859 0.021556925 -0.13133457 -0.37553656 -0.12110587 -0.11366949 0.06389769 0.3858295 0.0023609377 0.089280866 -0.029824918 0.07722114 -0.20599297 -0.0018574388 0.042226903 -0.19676782 -0.07605544 -0.21305689 0.21472314 -0.045446355 -0.0703841 0.074190184 -0.31681192 0.31845018 -0.5371519 0.84942853 0.10560203 0.21355294 -0.42183685 -0.06984852 0.093805686 0.08940992 -0.15580188 0.23834601 -0.49044174 0.2696607 -0.024697462 0.30085164 0.31318808 0.4166325 -0.23078775 -0.32601142 0.21310028 -0.8208609 -0.24319918 0.0964978 0.12693489 -0.05329716 -0.2071383 -0.021635484 -0.17488463 0.16480337 -0.01635957 0.25686792 0.17117058 -0.19194514 0.018097578 0.27796784 -0.0039322977 -0.12064755 -0.34278995 0.38505912 -0.038355496 0.16201395 -0.649687 -0.31726092 -0.117684424 0.19874983 -0.17617734 0.15490001 0.33773375
1099 0.1002658 -0.45645824 -0.25630507 0.17149816 0.1645729 -0.29235497 0.2020659 0.21022628 0.34037417 -0.7469761 0.18801963 0.09961208 -0.96080446 -0.20365375 0.03822362 0.5466512 -0.3485917 0.4958734 0.20331766 0.35727558 -0.21730657 -0.27655414 0.38213864 0.8268838 -0.35029352 0.21804646 -0.16145007 0.3538628 0.08111666 1.2066355 -0.054601073 -0.19028553 -0.3321043 -0.19959673 -0.22931619 -0.061754137 0.24864618 -0.26557583 -0.8172757 0.6401397 -0.75906813 -0.33903655 -0.17481276 -0.12390551 -0.32829648 -0.06216365 -0.25479582 0.35173333 -0.29878283 -0.03821967 0.6453018 -0.49972603 0.21920176 -0.24292961 0.37931693 0.27535805 0.25996193 -0.09739979 -0.18064038 0.17571051 0.12683064 -0.17342307 0.31410313 -0.33013937 0.3735828 -1.015319 0.21178323 -0.21339738 0.19432288 -0.57873285 -0.28629228 0.26387593 -0.9082263 -0.29126996 -0.7651001 0.2892512 -0.0825193 -0.21130374 -0.29260162 0.21813335 -0.010709963 -0.15055324 -0.2953348 0.020414447 -0.2773205 0.11758499 0.08343902 -0.19065064 -0.1583096 -0.5996777 0.31029174 -0.11215209 0.20992993 -0.3263463 -0.26540875 -0.26880693 -0.4467383 0.032896653 0.4977903 0.07604908
1626 0.16097283 -0.48595995 -0.39351526 0.1900165 0.16181383 -0.32283995 0.20112902 0.22202659 0.30400196 -0.7117817 0.25899675 0.11427306 -0.8755218 -0.24828072 0.046570547 0.65534204 -0.3873773 0.48483697 0.28107035 0.230124 -0.27317932 -0.23915963 0.46200547 0.6929531 -0.40808067 0.22158222 -0.25436193 0.34724265 0.11475629 1.1666571 0.0014587 -0.2292382 -0.35040167 -0.15900168 -0.31186455 -0.09299443 0.32728755 -0.16527648 -0.63395244 0.5481673 -0.71109885 -0.28474927 -0.16654404 -0.14887898 -0.42259502 -0.1781385 -0.27822256 0.30529058 -0.23775262 -0.045902032 0.6019674 -0.5169047 0.26994237 -0.38653532 0.3820532 0.23139712 0.23627461 -0.039876804 -0.27449468 0.13007094 0.09204709 -0.15484273 0.34196714 -0.33753094 0.39713585 -1.0566547 0.21871477 -0.16720164 0.06948186 -0.51839995 -0.30484256 0.21561693 -0.843948 -0.32157522 -0.6421216 0.3268568 -0.072691806 -0.25148073 -0.30489045 0.17751421 0.0067307227 -0.13547589 -0.15128225 0.016442023 -0.22821376 0.11111057 0.05166298 -0.16697466 -0.20364995 -0.58393824 0.29274043 -0.12508568 0.20586154 -0.23895612 -0.19109397 -0.32437673 -0.41801038 -0.07000072 0.39545473 0.063975275
73 0.1579687 -0.46320856 -0.34681937 0.23356745 0.22882141 -0.35842347 0.25394055 0.23910126 0.2904798 -0.7115131 0.17833641 0.13862666 -1.0162183 -0.19165677 0.092707716 0.5834845 -0.37644592 0.54655725 0.25501847 0.2833139 -0.25216424 -0.24134582 0.61092865 0.6780562 -0.4108101 0.15470268 -0.3168695 0.3973742 0.072859235 1.1480749 -0.037425898 -0.1998745 -0.41499525 -0.13160728 -0.31090552 -0.026595615 0.33910793 -0.20694104 -0.7050083 0.54276454 -0.6686734 -0.26113167 -0.18524365 -0.15783462 -0.42366195 -0.12981021 -0.20452258 0.41687173 -0.27873483 -0.0735471 0.5698997 -0.5310681 0.24564366 -0.31220955 0.35895738 0.29313806 0.3480979 -0.09967887 -0.2334351 0.17867842 0.06205436 -0.11674198 0.3561408 -0.33124968 0.35973918 -1.0514677 0.2791635 -0.21856767 0.15334804 -0.62560576 -0.21380666 0.2587878 -0.88871235 -0.35847336 -0.689511 0.3522526 -0.078042395 -0.28287506 -0.31443188 0.12614079 -0.0064707017 -0.18983293 -0.25686443 0.017644739 -0.30022997 0.0943499 0.045494873 -0.11840446 -0.17049815 -0.57908726 0.27287275 -0.11294705 0.28459653 -0.37771982 -0.15177698 -0.3615007 -0.39397562 -0.036384173 0.46175203 0.015159867
1353 0.26872224 -0.1048617 -0.30330515 0.09614293 0.1239056 -0.14863293 0.1159646 0.40787467 0.30546522 -0.26342446 0.39109373 0.32329407 -0.33893242 -0.37545985 -0.0019452698 0.1554092 -0.1893423 0.16685227 0.027720075 0.13181044 -0.27265355 -0.2732426 0.18125087 0.42977518 -0.28865868 0.0031314022 -0.17554013 0.4963073 0.062204134 -0.33251157 0.26622194 -0.21791299 -0.025505291 -0.37019044 -0.092070825 -0.5211064 0.23013034 -0.09772964 0.05177622 0.015030694 0.27814245 -0.27864382 -0.08082475 0.007594362 -0.2700006 0.2863425 -0.028121855 0.31568035 -0.40830895 -0.26864523 -0.12972662 -0.10662045 0.3117727 -0.16384842 -0.11404241 -0.12838607 -0.021990495 -0.24388582 -0.15363021 0.11903478 0.295205 -0.55637854 0.1252027 0.5306179 0.39715707 0.050731763 -0.07044698 0.3094718 0.045204353 0.07844919 -0.1855045 0.34905964 0.49327743 -0.1908426 -0.076948315 0.5812616 -1.2256823 -0.11189534 -0.051454514 0.16365 -0.3694858 -0.19842842 -0.2145335 -0.33808473 -0.061712105 0.1735567 0.54410505 0.04581502 -0.20981441 -0.25223988 0.22999288 -0.13514324 0.027071368 0.014839555 -0.14416565 -0.30409002 -0.4644718 0.18247047 0.13504255 -0.5952025
1906 0.14707704 -0.4063655 -0.27373773 0.17651616 0.15033501 -0.37455475 0.22016975 0.24172592 0.26505256 -0.749784 0.17386462 0.14701498 -1.0598582 -0.19140567 0.09168242 0.56790656 -0.35766527 0.57629985 0.23867446 0.30304852 -0.21126927 -0.27812442 0.43087956 0.72868085 -0.3544627 0.16690022 -0.19398125 0.3564638 0.08105358 1.1648002 -0.061032217 -0.25458425 -0.37859598 -0.14832665 -0.24890262 -0.102988884 0.27420452 -0.23521192 -0.83489114 0.4557833 -0.7122816 -0.2645072 -0.19385289 -0.083608076 -0.31655958 -0.10009444 -0.18154116 0.35488242 -0.33328342 -0.05998207 0.53336245 -0.47454035 0.21094102 -0.2767723 0.27439404 0.2632545 0.33463696 -0.046916157 -0.22544308 0.15810438 0.12896994 -0.13806815 0.28580177 -0.38678715 0.3295577 -1.0870798 0.2994022 -0.22769792 0.13520451 -0.54794586 -0.20290974 0.24460559 -0.90775293 -0.29711524 -0.7599414 0.20438509 -0.1355555 -0.28408748 -0.30178475 0.14305258 -0.030944342 -0.17168395 -0.22389488 0.05911524 -0.28690892 0.11178636 0.061203342 -0.12536909 -0.2101276 -0.607118 0.19896452 -0.11952352 0.18000129 -0.3234024 -0.22138329 -0.25512257 -0.5366935 -0.0017432668 0.4580406 0.080374226
523 0.22449547 0.14000918 -0.2820684 0.18311718 0.19335045 -0.20108241 0.27888325 0.35463896 0.21646403 -0.17541045 0.19691251 0.22835733 -0.09807556 -0.14419404 0.05976148 0.16543418 -0.13561167 -0.0978473 -0.016859306 0.2516444 -0.24153571 -0.27277714 0.18017605 0.2117634 -0.14376554 -0.06906672 -0.22840996 0.43695164 0.17847568 -0.2771387 0.09703426 -0.23340915 -0.12814344 -0.3069026 -0.35335442 -0.31739944 0.108512506 0.0019432347 0.33437505 -0.08384293 0.40022033 -0.35258108 0.1100686 -0.057393797 -0.2991405 0.19070104 -0.2941584 0.35600904 -0.13275467 -0.18895367 0.11801696 -0.22818534 -0.080180325 0.034784395 -0.021171711 -0.23385534 -0.09976734 -0.05225973 -0.24289523 0.25959685 0.1974301 -0.053966578 0.039427757 0.41136184 0.21046461 -0.026438456 -0.13859686 0.45471948 0.12386147 -0.28565377 -0.12059602 0.2634466 0.30261123 -0.19587052 -0.18902707 0.20285921 -0.44025776 -0.18432651 -0.066273406 0.25604814 -0.11299834 -0.21333487 -0.30291176 -0.041127287 -0.19250359 0.0785408 0.2587941 0.23609494 -0.27251682 -0.26884636 0.31976196 0.26092187 0.15453875 -0.09373229 -0.31869704 -0.33684972 -0.370874 0.40787208 -0.10988418 -0.32799143
572 -0.020514911 -0.14301302 -0.17414565 0.08508867 0.20953955 -0.23020686 0.23941264 0.26330316 0.097669765 -0.07159893 0.19062419 0.13092694 -0.14015546 -0.16856267 0.14062905 0.06877328 -0.27054837 -0.17488924 0.1767818 0.15609863 -0.24599336 -0.26943624 0.19988343 0.12866895 -0.23578227 0.09114327 -0.09109623 0.051632058 0.09292914 -0.20723213 -0.12436425 -0.26558307 -0.15515544 -0.23887001 -0.21751499 -0.06496633 0.2316325 -0.10034202 0.2641173 -0.19969602 -0.07870735 -0.24168296 -0.13234475 -0.03461524 -0.31801775 -0.18162444 -0.1691589 0.20572552 -0.31919813 -0.33890706 -0.08898194 -0.19789037 0.15871564 -0.110164955 -0.09497083 0.07057533 0.019338567 -0.2976545 -0.13823676 0.21003342 0.22654192 0.011310932 0.13315168 0.11239795 0.17227149 -0.02116195 0.1388672 0.08442252 0.11963328 -0.19736218 -0.15834375 0.31902516 0.35529947 -0.29919448 -0.14134815 0.08375842 -0.10956703 -0.05093635 -0.002368258 0.039954 -0.08998689 -0.19954962 0.010110976 0.047202278 -0.18839453 0.04126299 -0.034649864 -0.10264494 -0.19284011 -0.24842596 0.2461444 -0.21522473 0.19042711 0.04353299 -0.2706716 -0.28925174 0.0067893174 -0.23368809 0.10357228 -0.10389333
1107 0.1475787 -0.51665664 -0.1647172 0.25865656 0.17574073 -0.22907482 0.22770578 0.20577003 0.19382988 -0.5896816 0.110205844 0.2529957 -0.7378141 -0.3825971 0.024543379 0.27125466 -0.33719236 -0.019796196 0.27490664 0.29322416 -0.19730024 -0.22686365 0.3136228 0.29689986 -0.2473513 0.11747806 -0.19093546 0.3340345 0.119007066 0.5268135 -0.051576335 -0.2747047 -0.32595703 -0.2282455 -0.18583319 0.03405487 0.070785314 -0.37857223 -0.6554065 0.6964245 -0.95108086 -0.4188403 -0.100219846 -0.23607749 -0.23720999 -0.121619835 -0.27839974 0.4255074 -0.28084615 -0.08989438 0.5408905 -0.47855583 0.15170802 -0.15386914 0.33333322 0.1709292 -0.045121215 -0.3161503 -0.22577278 0.2775072 0.10769697 -0.23635831 0.340261 -0.34555236 0.28805688 -1.1962026 0.2928913 0.13892132 0.17992026 -0.4357193 -0.3692291 0.23332874 -0.79471064 -0.33169186 -0.56212115 0.36057815 -0.073606804 -0.088512465 -0.4472114 0.22558244 -0.03608752 -0.17384404 -0.10817142 -0.030420734 -0.30883896 0.007658673 0.058460485 -0.31542033 -0.24929245 -0.46184766 0.20919755 -0.043506946 0.3063226 -0.47152328 -0.30375925 -0.26443973 -0.40555516 0.023714298 0.3825796 0.15801266
1638 0.13176876 -0.5638532 -0.22112188 0.19140902 0.13580763 -0.23865141 0.24052806 0.25822303 0.25310847 -0.5739315 0.18963969 0.22862951 -0.76231843 -0.3146129 0.10123526 0.29804337 -0.28692108 -0.07712935 0.28458476 0.25785986 -0.0634287 -0.22300069 0.33192393 0.46865997 -0.27219948 0.18616314 -0.2652799 0.33711553 0.15233983 0.5378653 0.0017350039 -0.21208557 -0.36092618 -0.17797656 -0.15223691 0.032244015 0.045040235 -0.2957382 -0.71752894 0.7712104 -0.9585035 -0.31251457 -0.037244987 -0.2156231 -0.29193732 -0.097038694 -0.18752484 0.3471302 -0.3085977 -0.13931075 0.602801 -0.46385548 0.2101374 -0.15837884 0.39697528 0.1608512 -0.058838718 -0.25533125 -0.20922302 0.28023437 0.16422957 -0.16919804 0.3304509 -0.4302096 0.279637 -1.2446058 0.32212827 0.23026511 0.19071802 -0.43544647 -0.29347897 0.21906383 -0.7573019 -0.43667182 -0.4839487 0.3068373 -0.16365297 -0.1786318 -0.44760033 0.23682337 -0.074317925 -0.15981714 -0.20497118 0.0018508362 -0.21839292 -0.07088337 0.08396635 -0.24660163 -0.26172805 -0.5984536 0.20259747 -0.055263642 0.22905083 -0.35339394 -0.22473982 -0.2462171 -0.30763975 0.013405697 0.443706 0.26855287
1639 0.16502874 -0.13033941 -0.17144713 0.18135473 0.14837168 -0.15738922 0.255989 0.029431475 0.019432541 -0.510264 0.123041704 0.14276174 -0.2727156 -0.17880432 -0.1593142 -0.08294939 -0.19901259 0.19243857 0.12848274 0.17457975 -0.5074733 -0.08168339 0.12405088 0.09119303 -0.26445648 -0.03552141 -0.15991466 0.33471176 0.14735538 0.72226036 0.13846517 -0.22427742 -0.34813425 -0.060204312 -0.16840218 0.111985914 0.6208624 0.10399618 -0.27673954 0.07675119 -0.033331208 -0.07398676 0.01308717 -0.021950096 -0.187444 -0.048224818 -0.041310735 0.017064784 -0.024816953 -0.14628598 0.118556045 -0.15509443 0.191854 -0.60308355 0.721632 0.19756454 0.54876834 -0.24404232 -0.10306486 0.13681142 0.10063888 -0.10025656 -0.009524593 0.009461236 0.09738244 0.06369888 0.28750384 0.05106567 0.53614277 -0.3208375 -0.3206905 0.109584466 -0.69881934 -0.19902983 -0.3992529 0.1389116 0.020695217 -0.02476179 -0.30374053 -0.46631673 0.24589574 -0.011401992 0.16606234 0.09025912 -0.02809303 0.03371258 0.13554488 0.14535119 -0.07668715 -0.13309707 0.17527188 0.016455136 0.082396284 -0.5005874 -0.20861469 -0.09004364 0.070621006 -0.12272117 -0.12093766 0.22520342
1112 0.009708704 0.017804747 -0.35296348 0.3464092 0.23668566 -0.15067698 0.20609125 0.13158198 -0.21350256 -0.02302454 0.04017247 0.028820332 0.24011862 -0.25496146 0.03170268 0.23191243 -0.1906339 -0.030580726 -0.08639547 0.17611642 -0.42573273 -0.15095669 0.0041980925 0.08207331 -0.0043749157 -0.62302506 -0.22552696 -0.23156877 0.27425683 0.044649627 -0.11020496 -0.2486906 -0.36064267 -0.27116144 -0.33341226 -0.046995148 0.3262981 -0.07962957 0.080268465 -0.0704033 -0.21655871 -0.104524836 0.06673887 0.32019237 -0.23930043 0.17435898 -0.009243454 0.13976474 -0.013317187 -0.1735434 -0.3588514 -0.112367146 0.1865919 -0.42704 0.60269886 -0.74214166 0.09152678 0.22034973 -0.056964844 0.17375036 0.29146856 -0.05565613 -0.23293509 -0.03637492 0.07677779 0.033319883 0.203541 0.31319383 -0.102310635 -0.09432483 0.037036106 0.21416958 0.21876419 -0.1636657 -0.058661617 0.015390555 0.027232664 -0.20853448 -0.06458767 -0.2357996 -0.07019538 -0.120892316 0.28393528 0.03325748 -0.24540305 -0.029312443 0.35466352 0.1799519 -0.16636033 -0.10418927 0.20570867 -0.38144675 0.031453155 0.06334609 -0.2600233 -0.21393189 0.29393008 -0.21828982 0.2611395 -0.024843687
409 0.33419913 -0.20170218 -0.118991844 0.08713406 0.294177 -0.17903307 0.14433078 0.27721012 0.3213318 -0.49695247 0.32824466 0.30371687 -0.43507826 -0.03023922 -0.05753836 0.22540641 -0.07138654 0.20806974 0.100049004 0.2556894 -0.31551898 -0.23315911 0.14066182 0.020957267 -0.19601074 -0.053012386 -0.0079322355 0.6184493 0.18028441 -0.34504572 0.47210395 -0.22782685 -0.12302073 -0.31092927 -0.06458371 -0.3150591 0.11618689 -0.022129664 0.12490513 -0.13506253 0.22384271 -0.01609422 -0.0573217 0.062138706 -0.2418773 0.17275494 0.028013114 0.106720544 -0.36601284 -0.24556297 0.01051045 -0.21890093 0.086894 -0.11709138 -0.2016145 -0.102867305 0.14882281 -0.2686243 -0.12666674 0.08467328 0.058012757 -0.56188405 0.0011367339 0.61044014 0.2853407 0.2944338 0.06751872 0.3875438 0.30875105 -0.05268695 -0.22651576 0.20738274 0.34386516 -0.3364301 -0.27077764 0.5631202 -0.7765639 -0.06041797 -0.060868014 0.087268464 -0.20980194 -0.10524203 -0.29127 -0.3209191 -0.04231498 0.12234001 0.5770023 0.26626253 -0.2328495 -0.20714174 0.21334752 -0.18192223 -0.03256978 0.20072505 -0.20304422 -0.3292029 -0.066173725 -0.0937523 -0.042708363 -0.28658432
1249 0.21013753 -0.59429806 -0.17830306 0.10919378 0.13636035 -0.13623345 0.18396185 0.19644983 0.24234693 -0.57277775 0.25402355 0.118965514 -0.9381684 -0.15860619 0.018262899 0.48970157 -0.34613496 0.70074826 0.1268304 0.1908698 -0.20933965 -0.25618517 0.5497896 0.72960633 -0.43813372 0.11900495 -0.2186276 0.40256885 0.051021215 1.1144975 -0.060110442 -0.2144341 -0.04518157 -0.112379886 -0.22340134 -0.22064342 0.32526112 -0.17470925 -0.6878211 0.8645385 -0.6901141 -0.26786658 -0.1621266 -0.12880558 -0.403621 -0.1700014 -0.22758752 0.05804057 -0.31151348 -0.053798098 0.4808482 -0.42167377 0.28063238 -0.4788315 -0.20792517 0.2838444 0.043677043 -0.33863768 -0.24418281 0.07176382 0.14974995 -0.30925328 0.37656796 -0.2127945 0.4223148 -0.7956974 0.24698094 -0.3447401 0.075480625 -0.26275253 -0.1711117 0.24334657 -0.61190504 -0.274827 -0.86809134 0.42818928 -0.04370846 -0.2657196 -0.13530092 -0.10148798 0.11742474 -0.1557252 -0.032559842 -0.13181835 -0.15220402 0.0953625 0.08199935 -0.31595334 -0.10611383 -0.40872285 0.22140838 -0.05260127 0.3328014 -0.47642973 -0.15904672 -0.19437487 -0.5862026 -0.037577942 0.35172743 0.025755275
1263 0.17318586 -0.42847347 -0.2893897 0.118884146 0.11484426 -0.17299722 0.22278851 0.15690875 0.2620103 -0.6785574 0.18301599 0.07012697 -0.9527708 -0.16929384 0.05162872 0.58896655 -0.27043775 0.5783734 0.27253067 0.22778018 -0.27789268 -0.22936456 0.50663364 0.6166455 -0.39986452 0.19022183 -0.19974251 0.2584817 0.13600704 1.249403 -0.00057507394 -0.21077406 -0.27922764 -0.10683424 -0.2079924 -0.039492622 0.34960884 -0.2007921 -0.76712227 0.26623282 -0.8219727 -0.28636393 -0.28848216 -0.045046125 -0.31846675 -0.09658177 -0.1178495 0.22362666 -0.24343531 -0.079294845 0.56233627 -0.4286029 0.19925398 -0.26226124 0.21158358 0.19125153 0.27297747 -0.15996063 -0.16077793 0.15674156 0.08688843 -0.20302747 0.38970965 -0.17010859 0.29484072 -0.6696776 0.17898212 -0.37763035 0.21699123 -0.6047885 -0.15095891 0.2030144 -0.8476553 -0.22311531 -0.85835505 0.21733128 -0.14288223 -0.2122349 -0.3441978 0.040171012 0.03894318 -0.18155903 -0.09709939 0.07867651 -0.27453843 0.07681998 0.014257094 -0.19522272 -0.12737468 -0.3949996 0.19066758 -0.17507547 0.16708826 -0.044184875 -0.16397731 -0.30583712 -0.16574058 -0.0023889083 0.37828305 0.14041919
177 0.098392956 -0.4609979 -0.33730078 0.23295902 0.18371841 -0.33984956 0.23531964 0.1848922 0.37390405 -0.7204757 0.1998261 0.11872861 -1.0150256 -0.22686246 0.08552494 0.5672656 -0.3226507 0.5628578 0.22882526 0.37678185 -0.22702475 -0.27584144 0.55992335 0.65455437 -0.41225785 0.17357445 -0.23970482 0.4002005 0.052709907 1.2013881 -0.028853232 -0.2172828 -0.3659656 -0.13921776 -0.2679567 -0.07905957 0.3331583 -0.28806365 -0.7119997 0.5885536 -0.7255705 -0.26423958 -0.25457537 -0.09764264 -0.443625 -0.15027416 -0.2517721 0.36908597 -0.31748176 -0.087566674 0.6179104 -0.5109046 0.1898463 -0.40904537 0.28965205 0.24077606 0.26713708 -0.12441082 -0.23882358 0.20832156 0.08667021 -0.1016505 0.27439156 -0.38634908 0.29321122 -1.0576564 0.24044241 -0.23212427 0.14076178 -0.58794874 -0.25143826 0.25522718 -0.94342875 -0.37185675 -0.70494485 0.33505163 -0.059702467 -0.29876617 -0.36841604 0.10506394 0.05469514 -0.118596934 -0.17227297 -0.03551441 -0.32295907 0.08016362 0.0045752237 -0.1414838 -0.26305872 -0.6019488 0.27988943 -0.072164886 0.16522604 -0.37101272 -0.21997668 -0.31942958 -0.4818764 -0.026345454 0.43049085 0.107204564
1052 -0.0017863977 -0.5945607 -0.2991919 0.20492235 0.18474753 -0.32311946 0.2813934 0.27231902 0.12795705 -0.36505926 0.16832708 0.12642935 -0.49620625 -0.20264429 0.04663422 0.3940009 -0.37648937 -0.020220047 0.09749 0.24186026 -0.193422 -0.22784933 0.60634273 0.53705585 -0.36573693 0.1299361 -0.22683959 -0.050401617 0.10158463 1.140479 -0.025024747 -0.16645698 -0.2872743 -0.24354178 -0.19682717 -0.05220338 0.20395797 -0.23872784 -0.6501177 0.5116117 -0.7325691 -0.22942011 -0.07423511 0.006778855 -0.3676419 -0.12608336 -0.30157763 0.27348006 -0.25545526 -0.07640888 0.48081365 -0.44184828 0.25057504 -0.3625847 0.3517752 0.17631944 0.2597188 -0.056900326 -0.2574295 0.22614099 0.10037752 0.07280342 0.37169135 -0.442427 0.50937337 -0.802047 0.24859832 0.26555055 0.12548691 -0.5481836 -0.12780625 0.30857226 -0.815326 -0.25631505 -0.29833272 0.062086698 -0.22580434 -0.3695518 -0.11171047 0.20480168 -0.012521551 -0.24599116 0.009609926 0.21878618 -0.4042942 0.08366629 0.050888848 -0.17719845 -0.21512508 -0.41887704 0.3456935 -0.15937239 0.17548448 -0.44218236 -0.26458505 -0.31482667 0.0007516334 -0.118733 0.27291802 0.048943993
587 0.09355585 0.09923056 -0.24515682 0.25774467 0.17019624 -0.2725488 0.2685894 0.2447195 0.121485785 -0.23212193 0.14540516 0.18399729 -0.38432264 -0.06087486 0.03001738 0.12953034 -0.245098 0.31685472 0.17510112 0.30701435 -0.31188503 -0.19866985 0.1507754 0.36578435 -0.0627623 0.047625825 -0.104664445 0.20076121 0.19375695 -0.30346748 -0.08807776 -0.3356213 -0.06470137 -0.24337137 -0.16219915 0.017096581 0.29810306 -0.00812145 0.08176263 -0.2073194 0.27632502 -0.14957021 -0.046627294 -0.0032743744 -0.3110337 -0.15425378 -0.267835 0.24211259 -0.13306682 -0.15535975 0.1695229 -0.27979663 -0.02693516 -0.10175784 -0.13586755 0.18386002 0.12109271 0.23496613 -0.19142184 0.078230016 0.066441126 0.1121793 0.14926073 0.5490975 0.26491347 0.058729757 0.16530563 0.0738317 0.071044385 -0.21218106 -0.08642724 0.24933523 0.25006616 -0.25607145 -0.4057077 0.17714588 -0.2797819 -0.25057453 -0.15065537 -0.10256292 0.098091714 -0.1821489 0.08954816 0.078841254 -0.15888025 0.044716313 0.066992305 0.09598869 -0.17030853 -0.26597938 0.1271069 -0.015086949 0.17039557 -0.043741964 -0.32140478 -0.38628122 -0.2830674 -0.19726568 -0.20714508 0.22993878
588 0.057246517 -0.09244573 -0.25187704 0.247364 0.14690855 -0.24061404 0.2975214 0.25442028 -0.009503277 0.076042496 -0.043763287 -0.09134612 -0.20510954 0.05205412 0.1860295 0.29873928 -0.0784788 -0.15555951 -0.10401077 0.10863616 -0.28793177 -0.030460645 0.10483843 0.16009106 -0.13206269 -0.42009214 -0.12779498 0.024049873 0.2876935 0.12002317 0.12365285 -0.3009771 -0.18549566 -0.39360586 -0.33590612 -0.11539139 0.5756417 0.0064363224 -0.052485805 -0.266626 -0.41059422 -0.11060278 -0.16145371 0.25634438 -0.15676306 -0.16740188 -0.07990638 0.38371256 -0.03593518 -0.46054462 -0.33723643 0.008256129 0.19328113 -0.17163582 0.33710212 -0.1217701 0.30782518 -0.016125211 0.011556627 0.24531442 0.201649 0.013353764 -0.20168576 0.22132057 0.41490507 -0.13295306 -0.5950977 0.1861323 -0.024589552 -0.28446853 0.1603497 0.11175807 0.3485959 -0.040393762 -0.20561658 -0.1646927 -0.22777061 -0.1654124 -0.3009682 0.21100135 -0.38683632 -0.0650341 0.6888705 -0.12642132 -0.2411534 0.11232252 0.14629067 -0.0040672496 -0.12474169 0.084793866 0.111640275 -0.47556907 0.20780157 0.046044618 -0.24919909 -0.16957203 0.28668016 -0.37252784 0.09984678 -0.8592054
1124 0.16347104 -0.6880433 -0.21681756 0.24697532 0.15792467 -0.2867564 0.3025279 0.18403238 0.30315617 -0.13453086 0.18400998 0.10801415 0.13706806 -0.2285135 -0.052600104 0.4799148 -0.2611368 0.00027756195 0.1375238 0.432695 -0.18612482 -0.18490337 0.31230015 0.3362902 -0.13928752 0.02347887 -0.12985393 0.32453728 0.15565939 1.133878 -0.0018964949 -0.19220433 -0.583674 -0.2267562 -0.22953263 -0.0731449 -0.086238556 -0.17654316 -0.7992031 0.41409758 0.33439475 -0.16593845 -0.48015657 -0.15815803 -0.233785 -0.10444015 -0.1282187 0.1661583 -0.3902177 -0.21073599 0.5213362 -0.36518115 0.2846125 0.18509029 0.13751335 0.16210893 0.30733976 -0.033718314 -0.2539663 0.14247009 0.21599364 -0.18832667 0.16104369 -0.6106073 0.31121865 -0.63317543 0.059922986 -0.64760876 -0.104509845 -0.5634969 -0.16035432 0.29843292 -0.933999 -0.0796574 -0.36697626 0.081543006 0.03271975 -0.26680243 -0.18720654 0.15423386 0.21610422 -0.082315296 -0.2127423 -0.07552429 -0.20842649 -0.0045476053 0.011769418 -0.014056566 -0.20346726 -0.3601859 0.22945316 0.17590836 0.21551704 -0.28427914 -0.3036481 -0.1822858 0.21132487 0.028237987 0.42972538 0.36239633
590 0.214294 -0.4904039 -0.3289641 0.18322136 0.18274528 -0.27815878 0.2028574 0.2477244 0.31006235 -0.48908734 0.18150647 0.11530622 -0.9427465 -0.34114966 -0.001475446 0.6249196 -0.34588102 0.32971054 0.2569521 0.3246097 -0.16783622 -0.24162062 0.35743797 0.49023828 -0.28136307 0.15013538 -0.14771654 0.38850456 0.11419332 0.9152288 0.009564171 -0.29375815 -0.46276018 -0.14719519 -0.23018602 0.040257137 0.08174671 -0.27675617 -0.6743598 0.73313516 -0.7244464 -0.26682112 -0.274706 -0.22996177 -0.3019496 -0.18096505 -0.27111125 0.26413956 -0.3293748 -0.096261196 0.6001601 -0.48813748 0.22429712 -0.054670062 0.53979087 0.22975658 0.3156136 -0.15164006 -0.21925245 0.14212188 0.12702887 -0.17323565 0.25881582 -0.40151283 0.36434639 -1.2122781 0.25380278 -0.23160352 0.14967234 -0.55568564 -0.25144994 0.21279149 -0.8327097 -0.31546667 -0.8224481 0.22970454 -0.102473475 -0.22104734 -0.3652569 0.12381131 0.06709368 -0.13680682 -0.14998764 -0.13643256 -0.31999865 0.0038947733 0.045178417 -0.20308018 -0.25150213 -0.5305107 0.21366717 -0.0016772252 0.34118068 -0.29611802 -0.1546356 -0.30612165 -0.46672034 -0.048146002 0.4189859 0.27301642
1654 0.12043917 -0.10589488 -0.16605003 0.046015017 0.12282342 -0.113818154 0.13087007 0.21916147 0.07647201 -0.11886408 0.08299682 0.101280406 -0.32439405 -0.05845544 0.12825094 0.29103538 -0.2587038 1.1470989 0.10448126 0.13415717 -0.1891149 -0.1304953 0.026079932 0.4239516 -0.3108363 0.16932647 0.101671875 0.22546193 -0.046154276 0.52760893 -0.020237818 -0.1835408 0.17167245 -0.15697093 -0.20771351 -0.018956212 0.09267267 -0.05514662 -0.91620487 0.2705747 -0.4727201 0.04353488 -0.2799157 -0.010025619 -0.37722227 -0.10742881 -0.1498004 -0.050651412 -0.3708727 -0.012934177 0.27986348 -0.14525636 0.31322998 -0.15944275 -0.18944208 0.27220207 0.32909516 -0.10372732 -0.100339495 0.13941616 0.112915345 0.01754205 0.2186329 0.19671199 0.39088815 -0.27529013 0.12160819 -0.7421016 -0.17975014 -0.03043943 -0.0946274 0.14766613 -0.05724459 -0.17817228 -0.26910788 0.23000832 -0.16686277 -0.09673289 -0.25112018 -0.29271042 0.06817098 -0.21763967 0.09576594 -0.24838312 -0.14014015 -0.032611366 0.061816663 -0.25310358 -0.07956231 -0.15841308 0.049602386 -0.38968962 0.14309146 -0.15923768 -0.16455111 -0.19099307 -0.7856009 -0.12243591 0.30769506 -0.2048932
1299 0.19862232 0.04678423 -0.33333397 0.38304797 0.10962652 -0.15657824 0.1892856 0.28522068 0.19980967 -0.050939173 0.037429173 0.083535485 -0.27695903 0.026963027 0.09373326 0.3742366 -0.18309708 0.6130646 0.1378895 0.23564921 -0.30386627 -0.14729032 0.029700061 0.1665332 -0.16848855 -0.35515568 -0.15820576 0.017983174 0.22297594 -0.2114294 -0.104056545 -0.36636427 -0.1601655 -0.3961374 -0.21265116 -0.17579988 0.1876727 -0.042172633 0.35189787 -0.07598485 -0.69944286 -0.22666766 -0.13959642 0.07362937 -0.18670239 -0.03331029 -0.22802755 0.13403895 -0.1584958 -0.2883377 -0.21141464 -0.14330204 0.13349393 -0.07140711 0.23743308 -0.46143523 0.04790421 -0.002991645 -0.14394654 0.10984985 0.1945494 -0.32469937 -0.5811458 0.13385285 0.13792984 -0.110485956 0.06150085 0.16919728 -0.19180824 -0.005550107 0.087857194 0.2519516 0.42546493 -0.21342403 -0.26327547 0.08096535 -0.51807463 -0.18402988 -0.13401063 -0.017240375 -0.05276782 -0.11673724 -0.31080425 -0.021550495 -0.17462748 -0.03842416 0.33702767 0.14155723 -0.1818514 -0.34284788 0.15649784 -0.19074577 0.10319722 0.2318638 -0.23518145 -0.29090548 -0.103364415 0.05537254 0.14185679 -0.6389738
594 0.049753502 -0.009298827 -0.2516451 0.004908358 0.20869638 -0.13279507 0.19421166 0.17883943 0.13997966 -0.18083759 0.19789045 0.005191771 -0.10341164 -0.15968992 0.13296536 0.15656944 -0.11587423 0.3027116 0.1228196 0.17141259 -0.32654145 -0.18322396 0.21355355 -0.017807819 -0.35717776 0.034838337 -0.22272718 0.4651409 -0.018605001 -0.30355784 -0.052158985 -0.23973282 -0.23093052 -0.13595572 -0.22290738 0.032101665 0.3469774 0.07218984 0.3065137 -0.028130569 -0.77650225 -0.076677755 -0.22160108 -0.00892588 -0.19710495 -0.073162064 -0.17970477 -0.007993294 -0.15866409 -0.19306837 0.002485648 -0.29930726 0.34311196 -0.19379815 -0.05716171 0.18815917 0.08894389 -0.3422072 -0.14148487 0.21454167 0.120568946 -0.03188723 0.028555034 -0.026436653 0.07642437 -0.42133313 0.18026388 -0.23645557 0.21214992 -0.17209136 -0.13193128 0.22705887 0.101075135 -0.2527135 -0.17950009 0.14386402 0.06506369 0.009854561 -0.14762254 -0.163182 0.13704853 -0.11502201 -0.2321369 -0.041396912 -0.057463527 0.16133069 0.015753163 -0.17312019 -0.29351383 -0.3364199 0.22225508 -0.09379113 0.16500463 -0.13589771 -0.25960287 -0.17683007 -0.34608188 -0.08943576 0.23948465 -0.01379056
1128 0.13328308 -0.07910275 -0.13984 0.018271506 0.15443817 -0.2032989 0.21979582 0.17407933 0.08425292 -0.22071281 0.22960445 0.30432 0.031048553 -0.22571844 -0.16052385 0.1664565 -0.14679982 0.07965113 -0.008967366 0.16875356 -0.19125667 -0.29148462 -0.026364535 0.2555424 -0.34970242 0.0049363305 -0.06743473 0.32089525 0.04834564 -0.005480772 0.087720625 -0.14499156 0.066422924 -0.16223252 -0.18954036 -0.3208162 -0.03698719 -0.27629536 -0.0147284195 -0.069486625 0.21440858 -0.09971621 -0.15578514 0.026366837 -0.07284392 0.33606672 -0.27335417 0.22252558 -0.1363301 -0.06977292 -0.13081701 -0.22104973 0.029689908 0.1018978 -0.057701875 -0.32238662 0.07673804 -0.4082188 -0.18479967 0.029705018 0.12921111 -0.44077718 -0.23163456 0.5190536 0.041904185 0.17889221 -0.21408907 0.15453486 0.058556736 -0.028829778 -0.0155545855 0.26523852 0.43652508 -0.14669047 -0.022490822 0.3970389 -0.4852793 -0.11504067 0.08131497 0.14359473 0.028225569 -0.13941303 -0.2774167 -0.080885835 -0.2533325 0.14165635 0.3715545 0.012397615 -0.2220734 -0.072515935 0.2102462 -0.19806513 -0.018869102 0.19114558 -0.25157627 -0.19141185 -0.32783598 0.44737795 0.24821274 -0.060599584
1658 0.1517957 0.034532286 -0.17190999 -0.059179816 0.15570992 -0.12656128 0.21605511 0.18185838 0.30802506 -0.09061475 0.16557856 0.17721148 -0.5399698 -0.16541235 0.26466098 0.39634657 -0.22895242 -0.1905884 0.19995733 0.2734737 -0.061150476 -0.24810062 0.29976892 0.47121498 -0.100336686 0.11376114 -0.19295114 0.19114499 0.14181463 -0.33202088 -0.08881454 -0.3256107 -0.21009633 -0.1386206 -0.12627822 -0.054495137 0.21911907 -0.5266657 -0.9200698 0.3138118 -0.33127987 -0.15642156 -0.33027482 -0.15296175 -0.15439685 -0.103354774 -0.13584864 0.27897686 -0.11856066 -0.10435417 0.40490985 -0.38421303 0.09903934 -0.17180087 0.26057413 0.18880081 -0.009944816 -0.24643601 -0.23137595 0.20840919 0.12977879 -0.046352923 0.07090581 -0.31759202 -0.059681702 -0.1813509 0.15103975 0.22553326 0.5026233 -0.09453543 -0.19493577 0.3318237 -0.27432567 -0.19970387 -0.07468036 0.4548537 0.15439218 -0.07057958 -0.31050882 0.23227197 -0.05613162 -0.22613445 0.061312724 -0.36024606 -0.36594492 0.16571054 -0.03225814 -0.13461672 -0.3471318 -0.43272156 0.2733965 -0.10772648 0.096947305 -0.6871925 -0.15974459 -0.19952182 -0.5930799 0.10836568 0.21660644 -0.061152294
1659 0.1419309 -0.12265329 -0.22532043 0.13568726 0.19620895 -0.21244512 0.2576261 0.1398649 0.15110086 -0.36844772 0.1958971 0.18994713 -0.31765747 -0.15244377 -0.04451526 -0.099463955 -0.23213549 -0.0029069602 0.24275775 0.24166271 -0.41212392 -0.17325267 0.11785233 0.20088324 -0.21926896 0.11483799 -0.15082555 0.37606603 0.11355929 -0.23839766 0.11178639 -0.25415966 -0.10701446 -0.21743755 -0.12870798 -0.08743849 0.47660542 0.017096678 0.10790391 -0.114755586 0.34635404 -0.13945505 -0.10476242 -0.014630004 -0.21443057 -0.094221406 -0.011192681 0.039319128 -0.1503945 -0.23602608 -0.11882977 -0.17422673 0.26537845 -0.13239382 -0.10422247 0.20554046 0.27136207 -0.15812299 -0.12609118 0.15353099 0.14004396 -0.09691987 0.07257873 0.38949457 0.22155036 -0.03327749 0.13293867 0.03412424 0.32113925 -0.14544708 -0.19694594 0.25012672 0.13408823 -0.21725547 -0.3028456 0.12839471 -0.09991192 -0.07492462 -0.196339 -0.10862275 0.0061350437 -0.036380507 0.28058907 -0.0274603 -0.035062384 0.1008514 0.14293922 -0.0037160956 -0.16575222 -0.19263412 0.1371091 -0.045563273 0.11835278 -0.0899044 -0.26473358 -0.22101066 -0.08422137 -0.093984455 -0.1445963 0.3316393
597 0.058519077 -0.31616068 -0.28677583 0.19979386 0.1371621 -0.22919868 0.30225235 0.20871904 0.39275983 0.013705235 0.21606655 0.13777806 0.25074106 -0.25920495 -0.02864869 0.212561 -0.12801847 -0.019811532 -0.0173205 0.4054069 -0.15167116 -0.1771171 0.2821614 0.16609298 -0.12951724 -0.06997335 -0.25170043 0.08690084 0.14107475 0.048908126 0.05035304 -0.17816256 -0.4677952 -0.20485358 -0.18325774 -0.06543316 -0.08719871 -0.12434212 -1.0781718 0.6599266 0.020674128 -0.1212202 -0.64012414 -0.0416259 -0.15651266 -0.13746054 -0.15979339 0.16312681 -0.28215665 -0.2833293 0.28761297 -0.22386649 0.4458696 0.0798319 0.5304713 0.10798522 0.295898 -0.08160697 -0.33622497 0.19561164 0.11270068 0.10234988 0.1953359 -0.6353232 0.13587184 -0.7151475 -0.02722257 -0.5258668 -0.05964651 -0.379741 -0.037871704 0.3248892 -0.8245359 -0.027336331 -0.023068132 -0.12645474 -0.011528274 -0.14196938 0.0743453 0.21842381 0.23839541 -0.087416604 -0.14350927 -0.072545104 -0.16815977 0.06246203 0.009927288 -0.008134136 -0.16450268 -0.20884202 0.20626661 0.050407548 0.11834747 -0.53798795 -0.29140714 -0.14727414 -0.20572111 0.015319489 0.18683903 0.18375161
1662 0.07889546 -0.10869569 -0.18836555 0.035147548 0.2013714 -0.15910296 0.18442059 0.1618742 0.26182878 -0.0647413 0.22665924 0.044591963 -0.614298 -0.073437534 0.15437227 0.3208152 -0.11677474 0.80478925 0.10490792 0.20470491 -0.15090246 -0.18164442 0.1877213 0.06672344 -0.3051812 -0.03191612 -0.30382165 0.31580532 0.10948272 -0.22740924 -0.019734383 -0.1822893 -0.33457413 -0.12899043 -0.21108945 0.12803797 -0.0052827974 0.0125764385 0.236709 0.20085628 -0.7223512 -0.20889087 -0.1317358 -0.07988534 -0.014519561 -0.16161613 -0.28518897 0.13612677 -0.15456028 -0.30460662 0.06649807 -0.30380693 0.3391362 0.0749435 0.15292136 0.13137156 0.15262665 -0.4372292 -0.19909921 0.06619953 0.09420715 0.0065317242 0.13153471 -0.35309818 0.20055729 -0.7469795 0.19013084 -0.20583516 0.20282736 -0.11640615 -0.12475012 0.2040299 0.15915339 -0.2799939 -0.30373803 0.110748924 -0.13869362 -0.08333625 -0.09608207 0.0763141 0.43791395 -0.057341125 -0.3631544 -0.019553328 -0.16298941 0.020639697 -0.00048293566 -0.2774827 -0.22633615 -0.23037642 0.12917076 -0.015187495 0.18981153 -0.23696877 -0.22002481 -0.19671579 -1.040501 0.012083906 0.21963304 0.04778168
267 0.1153997 -0.0016658127 -0.1509016 0.08589114 0.2578284 -0.31782576 0.28641582 0.21545592 0.042741213 -0.43450007 0.12707879 0.121059425 -0.5787906 -0.109297104 0.18040246 0.122799374 -0.22774938 0.6860412 0.112492405 0.22048049 -0.34301776 -0.24707212 0.1449519 0.12299208 -0.17587408 0.12421152 -0.37316224 0.43909422 0.078858815 0.108898655 -0.113090344 -0.22282441 -0.10832057 -0.16921349 -0.2955003 -0.012210791 0.08059863 -0.10573758 -0.07232622 0.57730824 0.5597096 -0.32255736 0.30990165 0.013004841 -0.29395214 -0.20298477 -0.3950825 0.30299798 0.03788411 0.029627876 0.19607632 -0.38253134 -0.18990707 -0.5794752 0.061694015 0.19866817 -0.018614039 -0.06447608 -0.20259555 0.11939708 -0.0022012703 0.14857031 0.282922 0.26506773 0.22009857 -0.09615351 0.13535698 -0.0077125197 0.25340322 -0.5515025 -0.06814746 0.11291742 -0.18842085 -0.32644317 -0.4069966 0.10614926 0.021795256 -0.1879915 -0.049529273 0.18839236 0.3503835 -0.20605992 -0.3671218 0.16806138 -0.19653188 -0.036081474 0.06897616 -0.070212625 -0.115090586 0.011967915 0.39146453 0.073931396 0.338535 -0.71091723 -0.24525633 -0.20914115 -0.76080185 0.031857926 -0.16499011 0.17769454
1666 0.10915396 -0.48441035 -0.296221 0.21263911 0.1531319 -0.29403034 0.21945675 0.19122083 0.29940015 -0.63472193 0.1263315 0.2314656 -0.7770233 -0.37530074 0.03820365 0.3002248 -0.32373193 -0.043256026 0.2876113 0.25983006 -0.13180324 -0.25376123 0.36573222 0.3505386 -0.28149903 0.09872219 -0.24999826 0.2851307 0.14143145 0.5445464 -0.008640252 -0.22138943 -0.37073717 -0.24572772 -0.19968499 -0.032335237 0.04324275 -0.25223193 -0.60604733 0.625501 -1.0031797 -0.37752804 -0.03704067 -0.1982745 -0.30168182 -0.1717399 -0.19847979 0.4596578 -0.28175735 -0.18211891 0.5764951 -0.4470709 0.20840396 -0.0984214 0.36248747 0.15954216 -0.057249628 -0.24001369 -0.3066093 0.24368651 0.10348837 -0.14924689 0.36095306 -0.39892006 0.3189975 -1.2561791 0.35150108 0.18177593 0.19510546 -0.4692977 -0.27902028 0.28742266 -0.83423954 -0.30444157 -0.56352216 0.29723272 -0.21461631 -0.17138352 -0.36679754 0.209279 -0.073221385 -0.19512498 -0.13155425 -0.015828444 -0.303762 0.009682673 0.08148337 -0.27797732 -0.26042184 -0.4786769 0.21816619 -0.090148255 0.2782165 -0.46024075 -0.19968936 -0.31795013 -0.36993912 -0.035482686 0.40241155 0.13156365
1671 0.12575227 0.02868091 -0.27515307 0.33388737 0.035196286 -0.16542248 0.18617973 0.29008004 0.27420968 -0.10826145 -0.03786575 0.051974703 0.0719354 -0.35201222 0.052663896 0.24679923 -0.17345497 0.070646055 0.071791336 0.19664441 -0.19280602 -0.107659124 -0.021748114 0.2623479 -0.017972613 -0.19974303 0.04342516 0.043328762 0.26448584 -0.33032325 0.019407803 -0.2746115 -0.27108872 -0.3836476 -0.3224973 -0.19243254 0.5407155 0.010396317 0.31155434 -0.11715652 -0.62686664 -0.35328206 -0.1417524 -0.21221575 -0.37790477 0.14538263 -0.06505634 0.23602995 -0.31586593 -0.25498217 0.18200728 -0.10246626 0.05621525 -0.18581086 0.5224928 -0.35677335 -0.1058343 0.044306166 -0.23049353 0.2436704 0.26508614 -0.33035722 -0.1509157 0.16264887 0.06555636 0.106474526 -0.12154092 0.21330507 -0.0638078 -0.16358152 -0.118672214 0.30668852 0.3259521 -0.27546993 -0.07801708 0.22953391 -0.589701 -0.13733502 -0.082779855 0.025335854 -0.17700757 -0.14758803 -0.25773448 -0.27954122 -0.27891248 0.023116482 0.18686147 0.23216654 -0.23133923 -0.27499312 0.21658088 -0.2545717 0.018114576 0.3051201 -0.15256079 -0.38487464 0.044952843 0.021123942 0.1677361 -0.73962986
1672 0.12076174 -0.09814267 -0.39074153 0.09370484 0.18826078 -0.19835828 0.16055605 0.23973662 0.44153196 -0.45816934 0.21311784 0.19061132 -0.7585042 -0.33890292 0.15838446 0.22963785 -0.21817987 0.88399154 0.11267225 0.27144796 -0.29705054 -0.24509475 0.27290994 0.49791113 -0.2813356 0.10352421 -0.31656352 0.3159709 0.0617602 0.07424978 -0.0061914125 -0.18177173 -0.16256984 -0.17674956 -0.12294319 -0.17544533 0.31139213 -0.23568086 -0.88600594 0.4341876 -0.7484255 -0.14948143 -0.51057386 -0.013267539 -0.28345686 -0.10215867 -0.17871353 0.2552805 -0.2289775 -0.08408728 0.39755464 -0.32707644 0.26563117 -0.25952592 0.74196255 0.2721695 0.08573959 -0.02475412 -0.23028553 0.11454453 0.08479443 0.016109437 0.2724688 -0.17469195 0.23899473 -0.84387743 0.10529451 -0.87454087 0.20105335 -0.20394622 -0.16007945 0.3221185 -0.65951496 -0.21562634 -0.18030736 0.2737348 -0.1702807 -0.15032156 -0.15186937 0.08671619 0.15748414 -0.12432557 -0.18285432 -0.20507777 -0.15865889 0.11889172 0.051335532 0.018284656 -0.23425928 -0.2215687 0.1646054 -0.123156115 0.05834208 -0.5916107 -0.15372823 -0.17885773 -0.89158195 -0.029717937 0.22965701 -0.09016441
1141 0.046360128 -0.089943014 -0.29933974 0.035231296 0.15040064 -0.18892741 0.21769553 0.31463218 0.12813546 -0.26400965 0.21197309 0.16625823 -0.31745958 -0.32256246 0.041244462 0.09762521 -0.24196677 -0.1451931 0.18304154 0.16996041 -0.11078463 -0.2235335 0.074638866 0.32155627 -0.19119687 0.11419616 -0.15331827 0.2011982 0.090399876 -0.3878274 0.028618375 -0.25168672 -0.1931336 -0.23835845 -0.2153921 -0.07173937 0.2699278 -0.10848387 0.07694524 -0.09714676 0.11540989 -0.3206265 -0.104368545 -0.09737907 -0.23462546 -0.13942403 -0.25384396 0.24557674 -0.33301646 -0.2987031 0.0009533539 -0.15683514 0.2502457 -0.10321774 -0.032574397 0.05589277 0.06100562 -0.24344212 -0.23367631 0.17621604 0.12398516 0.03799679 0.29352057 0.16891667 0.29018953 -0.039820485 0.14580922 0.30600002 0.24151643 -0.16093986 -0.18783541 0.31847057 0.2804144 -0.28657648 -0.039107874 0.17533848 -0.32895508 -0.1175718 0.044907674 0.19101919 -0.13886459 -0.1375589 -0.044945765 -0.046133835 -0.1366968 0.021254815 0.04001076 -0.11568947 -0.25868145 -0.3206436 0.23985036 -0.049708605 0.14363089 0.15559164 -0.27066967 -0.38814005 -0.34991366 -0.27009866 0.056403253 0.109181345
1143 0.13861987 -0.28139272 -0.24714743 0.15935265 0.17185941 -0.27837488 0.16304569 0.06680067 0.28925538 0.01643182 0.057110846 0.09229641 -0.25282687 -0.08920116 0.52893114 -0.032243043 -0.25042847 0.6761899 0.23528996 0.12894733 -0.085217275 -0.10152591 0.30071288 0.4511899 -0.17376547 0.13923982 0.2821363 0.3898084 -0.06919749 0.44021586 0.119083144 -0.24855736 -0.07650642 -0.21589135 -0.12994255 0.009639088 0.10243997 -0.08717167 -1.0183009 0.014993211 0.2455257 0.08257167 -0.22321633 0.13484475 -0.28821573 -0.05435699 -0.06433989 -0.09221767 -0.27817914 0.012523361 0.39972663 -0.17922105 0.5468951 0.20449087 -0.094282694 0.25908846 0.23174843 0.28846246 -0.19282024 0.050869904 0.12632844 0.030270454 0.27075985 0.10798862 0.42068 -0.5425324 0.024486326 -1.2161762 0.4147598 -0.14464755 -0.117222995 0.06538172 -0.604504 0.015911736 0.05780611 0.022548981 -0.42931214 -0.20703259 -0.23892017 0.2959529 0.31186092 -0.13480352 0.18080758 0.0126832705 -0.42013466 -0.051458865 0.18986647 0.0022043176 -0.24050821 -0.17220816 0.23715901 -0.4242038 -0.04104628 -0.592448 -0.2418775 -0.07674585 -0.55460346 -0.09534038 0.27017635 0.0035144705
1419 0.05707927 -0.22657697 -0.15210736 0.23329155 0.077453084 -0.24232207 0.22981395 0.1508199 0.26787412 -0.0067840377 0.12143531 0.18321358 0.185093 -0.23106341 -0.042707507 0.12665115 -0.12613612 -0.089028955 0.08233372 0.30581546 -0.16432181 -0.1780207 0.2481609 0.1094355 -0.1059684 0.0065127946 -0.33145815 0.057178102 0.122890085 0.0066329795 0.043539055 -0.16466273 -0.37386525 -0.22536363 -0.1926053 0.005423886 -0.024096753 -0.17498004 -1.0751565 0.34633178 -0.19705604 -0.11023691 -0.54482454 -0.1209938 -0.13406481 -0.0043122214 -0.20011869 0.13372909 -0.29186565 -0.31861392 0.27669042 -0.2623571 0.24917783 0.16031013 0.36761302 0.10596833 0.15222487 -0.15520927 -0.36424312 0.19409144 0.19667846 -0.061680466 0.18424842 -0.4888797 0.06839283 -0.5836978 -0.0013042749 -0.37277007 0.055479426 -0.3687841 -0.04848542 0.2942182 -0.7265903 -0.12374776 -0.061044153 -0.09241477 -0.09558239 -0.14597441 -0.0011161006 0.2570008 0.17296745 -0.10550095 -0.11732482 -0.14739878 -0.066626094 -0.05730063 -0.038457897 -0.108905345 -0.25541985 -0.07923758 0.22493958 -0.06642596 0.122141965 -0.49365678 -0.21858168 -0.17924316 -0.06458104 0.04783065 0.21815954 0.1505291
1678 0.14019266 -0.009946028 -0.2923182 0.17079143 0.11550012 -0.19098893 0.22488819 0.21812487 0.30647552 -0.18818891 0.22040693 0.13050134 -0.39654458 -0.29724878 0.081373535 0.24750322 -0.22775476 0.6726765 0.1902085 0.27082184 -0.29392686 -0.24595702 0.08405597 0.3638241 -0.21510312 0.11243657 -0.3144473 0.16532642 0.08634047 -0.09025145 -0.093867846 -0.16743836 -0.14801389 -0.23370498 -0.1546032 -0.082014516 0.31450635 -0.12316028 -0.656674 0.028254969 -0.6672733 -0.15828842 -0.36739218 -0.08058511 -0.35000575 -0.19034588 -0.1714281 0.34548503 -0.16269402 -0.079330154 0.24795575 -0.26568198 0.20428403 -0.19441934 0.42102236 0.14534587 0.07983218 -0.026149414 -0.17194776 0.15095483 0.047168836 0.08851325 0.1854772 0.03827206 0.18458934 -0.2664628 0.17912129 -0.48404953 0.03028882 -0.15155554 -0.14692159 0.31386358 -0.22444923 -0.2686299 -0.18947816 0.27448744 -0.14949133 -0.11420208 -0.16617657 0.067442365 0.0062759467 -0.08099342 -0.19587055 -0.22110851 -0.17346662 0.043505803 0.07014126 0.048098415 -0.21154681 -0.16193846 0.26635346 -0.24786505 0.08168125 -0.03568018 -0.18412526 -0.2742192 -0.70303905 -0.17335817 0.09704312 -0.09926896
608 0.19346012 -0.12031275 -0.30372304 0.146599 0.17934476 -0.1727102 0.2071364 0.3033392 0.3888415 -0.19831981 0.35751492 0.22809903 -0.45528683 -0.27296364 -0.08776201 0.11899958 -0.14871286 0.11247818 0.033056237 0.2759211 -0.31364536 -0.20673136 0.21288988 0.34140173 -0.1843516 0.025311148 -0.22713906 0.47147277 0.16440798 -0.3790225 0.24870592 -0.27359554 -0.111350685 -0.22089136 -0.17057532 -0.39205515 0.063497715 0.0024791844 0.27855027 -0.14620647 0.2565594 -0.24159925 -0.19742937 0.06423103 -0.13646545 0.26535022 -0.08042126 0.1656848 -0.19407842 -0.39616862 -0.12615374 -0.13612531 0.34110567 0.06677168 -0.1248322 -0.11506929 0.06497578 -0.1918579 -0.11171324 0.089371204 0.27541354 -0.49897352 -0.06687297 0.3307857 0.29706934 -0.12518848 -0.046681114 0.22258832 0.03947341 -0.07583318 -0.06332598 0.30452633 0.4574048 -0.17407474 -0.20207201 0.3581521 -1.1869493 -0.10158668 -0.08339343 0.20667411 -0.2662675 -0.07445839 -0.108156875 -0.12327936 -0.06975048 0.21001554 0.40065986 0.089424126 -0.32435194 -0.33471772 0.20272398 -0.16634893 0.046464186 0.16938092 -0.27505627 -0.3332871 -0.5377513 0.31893268 0.1579032 -0.27203166
610 0.25402948 -0.15613575 -0.39112112 0.27949187 0.17182128 -0.26565206 0.2756652 0.22309592 0.18113731 -0.13984667 0.19018906 0.18535428 0.14466125 -0.36521405 -0.16162673 0.015043508 -0.1955067 -0.14076981 0.021320298 0.15191981 -0.30714232 -0.17690337 0.120758615 0.05921436 -0.26535362 -0.12482154 -0.25210017 -0.063305706 0.26851586 -0.25793612 0.35575512 -0.12918007 -0.07312911 -0.3225574 -0.050498143 -0.3283829 0.26562274 0.04605542 0.15390617 -0.068176925 0.27438635 -0.19906826 -0.12912384 0.14507498 -0.13006972 0.31399962 -0.054260384 0.3798669 -0.17789552 -0.15844898 -0.3810445 -0.2044511 0.17595069 0.029534047 0.2667755 -0.37316436 -0.08678508 -0.2580894 -0.13238315 0.15180856 0.24959932 -0.09135396 -0.028696382 0.23848037 0.17366925 0.0071040536 0.13131034 0.40550065 0.15976815 -0.009455665 -0.05559268 0.23089536 0.1655772 -0.23778391 0.11700467 0.07199999 -0.7093878 -0.13544217 -0.239643 0.0365519 -0.071611695 -0.08659443 -0.016662493 -0.22670488 -0.1279386 0.16018744 0.3952907 0.13522111 -0.27726683 -0.11268581 0.24713244 -0.079472594 0.09484574 0.02008195 -0.31204057 -0.08041619 0.1997197 -0.13436955 0.026755117 -0.12752765
1146 0.25163624 0.0068653882 -0.083499335 0.0705295 0.08156164 -0.122434534 0.16027752 0.19666035 0.061849084 -0.0070576477 0.2265051 0.045908064 -0.3162421 -0.14024247 0.28778753 0.2151347 -0.11535964 0.49955595 0.0082928 0.2193079 -0.18366766 -0.29583383 0.13062386 0.21362683 -0.11982037 -0.07501123 -0.08780075 0.10210411 0.20040229 -0.08558051 -0.24645153 -0.19256082 -0.14177397 -0.28848347 -0.197313 -0.30750492 0.10603058 -0.17133187 0.24981537 0.11527627 -0.017374147 -0.21825232 -0.004001363 -0.0036861522 -0.24056979 0.25138444 -0.08400673 0.19228987 -0.07312848 -0.11354066 -0.19327566 -0.15383989 0.008887139 -0.28131926 0.055266812 -0.3803649 0.053460516 -0.21346617 -0.00030168582 0.11499697 0.2606327 -0.39500982 -0.6191367 0.27072367 0.02247378 0.0676988 -0.048912305 0.23930505 0.048424046 -0.10463044 -0.014369335 0.1839555 0.45144752 -0.28393543 -0.22878094 0.2790097 -0.10205134 -0.14502989 -0.094515085 0.043300927 -0.02148711 -0.1692743 -0.33373863 0.046989013 -0.22323515 0.15159832 0.11298886 -0.035051156 -0.1531336 -0.2167555 0.26019028 -0.3329288 0.015465795 0.15707411 -0.24731126 -0.23810096 -0.20271829 0.14691837 0.29889157 -0.7291335
2126 0.0011462916 -0.48849565 -0.28399682 0.16604616 0.22087613 -0.33579385 0.18431409 0.25135782 0.11850458 -0.3181458 0.2477255 0.09836361 -0.4459566 -0.18087858 0.030294752 0.3514117 -0.4127097 -0.03289455 0.11199925 0.30997327 -0.15632361 -0.25457937 0.48318255 0.440679 -0.27146396 0.078502506 -0.25769252 -0.060232878 -0.026509013 1.0495459 -0.070594475 -0.19035114 -0.25546944 -0.27449307 -0.1742858 0.007263684 0.19050938 -0.19889517 -0.6093583 0.5156859 -0.8046836 -0.22020343 -0.118909486 0.0060075764 -0.37604472 -0.14783016 -0.3084827 0.25255385 -0.20080194 -0.07054526 0.44845426 -0.41267407 0.25633156 -0.3827005 0.36970502 0.15885058 0.36468557 -0.06361438 -0.25563052 0.1982032 0.1740414 0.079032384 0.38786173 -0.5712729 0.5141197 -0.8037782 0.17258704 0.20097587 0.11901315 -0.50270164 -0.14005423 0.2950197 -0.8453725 -0.30020833 -0.3658593 0.08368913 -0.20875143 -0.3472151 -0.016664302 0.19525586 0.011285302 -0.1787025 -0.07554838 0.2620301 -0.37003618 0.080634244 0.106522605 -0.12250537 -0.22439812 -0.45712173 0.3580412 -0.11851778 0.15395819 -0.4565564 -0.2656206 -0.19566904 0.018812122 -0.15042445 0.17797463 0.14143614
53 0.13437934 -0.027055621 -0.21944702 0.46008477 -0.02598594 -0.07934694 0.16519687 0.3122034 -0.08344598 0.0973024 -0.015625332 -0.016075024 -0.24497736 -0.10544513 -0.08715054 0.46012175 -0.11467866 0.46199095 -0.18712299 0.09711932 -0.2864242 -0.18926817 0.021845901 0.36772284 -0.19014616 -0.24712913 -0.08914365 -0.13895832 0.3330888 0.005384469 -0.2210656 -0.25061145 -0.015317978 -0.655496 -0.2222349 -0.2765868 0.6442366 -0.08961891 0.0667846 -0.07603185 -0.6777493 -0.30313942 -0.07970182 -0.111664996 -0.51793975 0.08898075 0.048127297 0.35413504 -0.24450187 -0.042490296 -0.060788155 -0.022322875 0.014074218 -0.66728336 -0.03162104 -0.23978826 0.019157283 -0.07094983 0.01071135 0.117057994 0.32760003 -0.6719362 -0.26333636 0.42480803 0.2223077 0.10534544 0.2001867 0.16067663 -0.24758033 0.08251043 0.032300897 0.21253945 0.61035293 -0.35267428 -0.38082734 0.3601168 -0.70192975 -0.21951856 -0.22063868 -0.46769413 -0.34772277 -0.20535567 -0.03000926 -0.49610448 -0.2923777 -0.052356943 0.37559938 0.0673163 -0.09149711 -0.15698591 0.092862345 -0.7973537 0.047911476 0.24284609 -0.09060796 -0.3151752 0.061999876 -0.16133952 0.3812177 -0.9069102
1151 0.17263217 -0.6600932 -0.2737887 0.3352159 0.19213167 -0.23312418 0.26256773 0.18377782 0.2818038 -0.06567437 0.18931586 0.1757145 0.10021269 -0.21038818 -0.023379184 0.44444922 -0.2515316 -0.0052345293 0.15141739 0.4517335 -0.19212936 -0.2090846 0.2643866 0.2441622 -0.24461666 0.059702747 -0.091113925 0.25878108 0.15768784 1.0911309 0.064962685 -0.18947887 -0.6159758 -0.13949893 -0.26109338 0.037677333 -0.065564685 -0.2069063 -0.7947462 0.4561866 0.3387972 -0.115094155 -0.3376154 -0.100924246 -0.19080684 -0.08584237 -0.17216428 0.17379974 -0.31443238 -0.23227115 0.5147824 -0.35853508 0.33514795 0.12012318 0.12648347 0.1462057 0.32610583 -0.025322845 -0.27089068 0.10833967 0.15331583 -0.22395524 0.115121506 -0.57947755 0.2860331 -0.7096304 0.08948846 -0.7066363 -0.06277774 -0.6219985 -0.20844471 0.22163375 -1.0379606 -0.10073289 -0.33460462 -0.049961764 0.12950699 -0.2520639 -0.1871941 0.10712188 0.1383489 -0.08957662 -0.14410146 -0.033774402 -0.15818375 0.049795266 0.0034217387 -0.082419835 -0.18743847 -0.41147095 0.17086138 0.1113891 0.27177188 -0.34908 -0.23219138 -0.13756739 0.14022624 0.11222422 0.43897635 0.3110493
1686 0.0575255 0.07358597 -0.25138494 -0.009649019 0.1705089 -0.1595563 0.20734146 0.14440034 0.24799871 -0.09006104 0.03845613 0.099893376 0.06564718 -0.26197484 0.13891281 0.31180853 -0.27043578 0.052762754 0.17834598 0.3336639 -0.12594527 -0.19743465 0.034017734 0.26103407 -0.113571964 0.15133151 0.045436878 0.2871306 0.19467126 -0.33769622 -0.05178533 -0.3618328 -0.28847417 -0.16017386 -0.3696798 -0.016828176 0.5140374 -0.12840557 -0.06666635 0.1732984 -0.7643006 -0.13669665 -0.23427485 -0.23077103 -0.32914683 -0.18271975 -0.21193549 0.12540925 -0.272038 -0.14155024 0.35294634 -0.27320543 0.1017973 -0.28414991 0.49300894 0.21515736 0.12961988 -0.1514454 -0.24745063 0.19834843 0.11861681 -0.037290473 0.1121812 -0.14573304 -0.0130064385 -0.09691417 0.10412982 0.2224098 0.27133644 -0.3536226 -0.26018584 0.29239678 -0.044641342 -0.2335469 -0.2627409 0.29981813 0.13179332 -0.16123672 -0.2302135 0.013638412 0.09994331 -0.22649212 -0.15936033 -0.251337 -0.20805001 0.10143129 -0.04316473 -0.02718225 -0.28804702 -0.43323347 0.13528569 -0.075409226 0.13557488 0.09106152 -0.116394535 -0.30195034 -0.5441172 -0.026155505 0.15967004 -0.08079778
1734 0.07047416 0.04857361 -0.056524273 0.0682783 0.18620968 -0.13149571 0.31692165 0.1055345 -0.11992627 -0.34744218 0.115071066 0.29428613 0.027226066 -0.3777266 -0.37609458 0.012458261 -0.095529325 0.46451026 0.00021963449 0.2114824 -0.29710948 -0.13191077 -0.20111936 0.18346182 -0.04000698 0.06883085 -0.011246372 0.08088347 0.30475378 0.06929179 0.06544944 -0.10092281 -0.19416128 -0.13320182 -0.33069518 -0.037814494 0.303091 -0.21716896 -0.5157836 -0.14075153 -0.04973794 -0.21714795 0.068715475 0.17525099 -0.040012665 0.067650855 -0.22168306 0.31930712 0.06570381 -0.07042011 -0.082997434 -0.2110652 -0.08889588 -0.10989505 0.20594245 -0.88498664 0.17762041 -0.07630827 -0.12631077 0.083292805 0.08559092 -0.119218685 -0.40979275 0.43625724 -0.092869155 0.27473933 -0.23209757 0.017738106 -0.014807251 -0.15800403 -0.16971065 0.1392259 0.35116464 -0.30166298 -0.2797497 0.35771102 -0.268327 -0.030876348 -0.12525603 -0.23020346 0.4138447 -0.13729309 -0.5876364 0.07074779 -0.21076994 -0.03129765 0.21097668 0.051039387 -0.1995772 0.062170308 0.16305299 -0.483115 0.11286406 0.20219873 -0.2866444 -0.3226563 -0.36247984 0.20078951 0.084204726 0.059743658
1155 0.27647802 -0.087663725 -0.3811787 0.22973065 0.13749506 -0.31616643 0.21034533 0.08128555 0.14603448 -0.34117237 0.15446027 0.03751908 -0.37087688 -0.29665667 -0.043903235 -0.07584684 -0.3180211 0.5025128 0.17149283 0.16456252 -0.029257672 -0.24686763 0.100817524 0.20729637 -0.38292068 -0.028942583 -0.6319213 -0.2522783 0.06365952 0.17276175 0.0015955464 -0.06927103 0.11692087 -0.0016639733 0.01645526 0.091329284 0.51034397 -0.012577146 -0.44968984 0.24228872 -0.27083126 -0.13549401 -0.27416617 0.061498083 -0.06609255 -0.07875767 -0.31022534 0.4112124 -0.19057024 0.023977032 0.08493743 -0.35166407 -0.00024670194 0.20010556 1.0777377 0.12459705 0.046498295 -0.21004602 -0.20115279 0.14227878 0.1932222 0.07736686 0.22930433 0.2100813 -0.06359327 -0.67151016 0.21405324 -0.4105909 0.19992432 -0.040351316 -0.06675249 0.22088927 -0.5420976 -0.1857732 0.10568167 0.28545418 -0.18843278 -0.12317618 -0.33307686 -0.27391562 0.1695779 -0.079190865 -0.12055623 -0.12929863 -0.052797597 0.090541616 0.051431723 -0.019481346 -0.34447497 0.022565592 0.14131771 -0.3596377 0.22974588 -0.056139756 -0.12790664 -0.04343361 -0.32847095 -0.1486795 -0.011688225 -0.07029165
616 0.17347865 -0.48363653 -0.31222662 0.20541383 0.21141973 -0.26537406 0.22367056 0.17418937 0.25041604 -0.6951459 0.21794198 0.13102815 -0.9810756 -0.22850357 0.03259691 0.60044277 -0.345305 0.5680529 0.23117116 0.33376357 -0.2705611 -0.18586303 0.45745 0.6686054 -0.414693 0.12479431 -0.21027662 0.39033476 0.15295476 1.0830704 -0.026582813 -0.23483469 -0.4081202 -0.13867225 -0.24080117 -0.055819776 0.3219827 -0.19338393 -0.76959693 0.53838944 -0.6574321 -0.2504677 -0.25095135 -0.11408704 -0.38748175 -0.13094707 -0.25027794 0.37243724 -0.27464536 -0.03746341 0.57378405 -0.4923862 0.2699563 -0.32610583 0.3631044 0.29117566 0.3030478 -0.10585326 -0.2446435 0.14291984 0.049029455 -0.094008654 0.39035973 -0.4033597 0.38011733 -1.0011623 0.22994483 -0.24713716 0.23092659 -0.58903366 -0.2521062 0.23348792 -0.900679 -0.31530493 -0.60423493 0.21554816 -0.01299537 -0.19710068 -0.33394125 0.11944405 0.02070905 -0.15935192 -0.14929037 0.028480697 -0.28271878 0.14127643 0.070026204 -0.1821432 -0.22867389 -0.58829415 0.2649465 -0.112534225 0.22163323 -0.38092402 -0.22773068 -0.30856192 -0.5645329 -0.04848675 0.45107526 0.07981913
1690 0.33705536 0.034128558 -0.38499117 0.3981216 0.16551368 -0.33691263 0.29810515 0.38407347 0.13792664 -0.14367205 0.19602591 0.16206247 -0.22909282 -0.05415664 -0.017640505 0.17709647 -0.25969723 0.2160914 0.08779944 0.24433689 -0.14358054 -0.2447282 0.16505681 0.2717627 -0.30140415 -0.16602713 -0.40583178 0.034799106 0.18955052 -0.271585 0.09441364 -0.24054398 0.074964166 -0.23494852 -0.17846842 -0.1513705 0.14216578 0.042930927 0.29377198 -0.072798 0.28303197 -0.25053987 0.019281361 0.16726337 -0.23501776 0.2217073 -0.3795165 0.4212084 -0.15144281 -0.21965198 -0.13426383 -0.3130142 -0.12087328 0.17024769 0.09115031 -0.22359604 -0.09064924 0.08051083 -0.25016895 0.1878355 0.24726973 0.006039172 -0.033745307 0.4927892 0.14933886 -0.07591318 0.09387744 0.39610568 0.018133646 -0.16011815 0.09458067 0.27000484 0.28979385 -0.27742326 -0.10092203 0.14918339 -0.9299223 -0.25813732 -0.17849433 0.09878298 0.041354265 -0.23664092 -0.31899238 -0.052699238 -0.14127585 0.07642526 0.36817864 0.13053338 -0.3022229 -0.12920131 0.22381519 0.11090708 0.21642266 -0.019703707 -0.26908085 -0.27720433 -0.15429482 0.055845346 -0.21917227 -0.30915242
1691 0.1329728 -0.05268798 -0.26743713 0.19509149 0.13020027 -0.2546652 0.22703992 0.18518518 0.29599288 -0.19060566 0.18265392 0.11403789 -0.24492148 -0.18437164 0.09364785 0.34360904 -0.20459744 0.5852465 0.07419323 0.28810278 -0.2671599 -0.11469149 0.24579573 0.31110367 -0.19855846 0.13747436 -0.2340607 0.19146106 0.16143772 -0.11132681 -0.07062221 -0.21179034 -0.2906249 -0.18481395 -0.093890406 -0.005751254 0.3265069 -0.14498043 -0.736965 0.37641433 -0.7536372 -0.118295394 -0.56456864 -0.050356984 -0.27649263 -0.10435564 -0.2551128 0.37499914 -0.18603764 -0.032632533 0.39029732 -0.26648852 0.26253116 -0.29285535 0.8006669 0.14890975 0.16557637 0.101346485 -0.24459565 0.16719313 0.097274885 0.14713523 0.20834763 -0.14302544 0.19819213 -0.4883121 0.14800362 -0.42618817 0.08840337 -0.27980226 -0.13546304 0.25988403 -0.552725 -0.20044777 -0.21119763 0.18487012 -0.0435378 -0.13777298 -0.19925545 0.028789729 0.009343812 -0.14682135 -0.18838415 -0.20238914 -0.16088428 0.03307596 2.352331e-05 0.06414091 -0.23767388 -0.21866898 0.18946159 -0.23405565 0.019183526 -0.3597366 -0.17760888 -0.27101552 -0.720867 0.009495884 0.1636624 -0.06751138
1693 0.15305503 -0.012766591 -0.30549937 0.17171177 0.23964012 -0.23670776 0.27013707 0.286746 0.069196895 -0.14002025 0.22947711 0.1727102 0.05830433 -0.17794809 0.026651131 0.07923903 -0.1774573 -0.19153666 0.059809018 0.24201632 -0.36227956 -0.22098885 0.21804126 0.009357834 -0.11675483 -0.1320474 -0.3178043 0.17745154 0.068503864 -0.13925415 0.18251383 -0.25033006 -0.11351649 -0.303426 -0.20580018 -0.34021616 -0.0049214032 0.15322357 0.13177828 -0.050446108 0.47096276 -0.13640638 0.111411795 0.3396334 -0.25106522 0.23471385 -0.22567971 0.37731844 -0.027815808 -0.16090845 -0.26541775 -0.29429954 0.045141026 -0.07983276 0.027304968 -0.39937848 -0.026622077 -0.13023047 -0.11152445 0.18868013 0.14386168 0.14266582 0.08559861 0.21549188 0.2705963 -0.0017465338 -0.05274207 0.38339195 0.18873586 -0.3074086 -0.12100285 0.21437654 0.060492598 -0.17815098 -0.046503697 -0.011713781 -0.4023511 -0.16539907 0.032286596 0.267467 -0.016893443 -0.12089036 -0.03634974 0.16065717 -0.17679474 0.10277541 0.4703155 0.07781525 -0.22535263 -0.15515094 0.35960665 0.26411605 0.16834627 -0.2815463 -0.40309364 -0.12623335 -0.034826268 0.08023732 -0.11417853 0.04825618
620 0.06925997 -0.12217949 -0.18828323 0.026809491 0.2602679 -0.22145398 0.08423497 0.14160642 -0.16930753 -0.280014 0.16348217 0.22715564 0.26148525 -0.19858865 0.3931129 0.34227967 -0.2622705 -0.024802886 0.20913461 0.1481047 -0.13003565 -0.17787154 0.15910907 0.10975403 -0.22561097 0.1533011 -0.30774385 -0.18548712 -0.06839611 0.5665027 -0.18670683 -0.21370094 -0.23216887 -0.06382909 0.0031972155 0.2374045 -0.07099051 -0.46972844 0.08251906 0.55103725 -0.50765556 -0.089133196 0.009393881 -0.03873682 -0.27109987 0.025701359 -0.24840112 0.08644454 -0.232591 -0.051633827 0.07778439 -0.3209258 -0.0095893415 -0.13103063 0.33687687 0.09871416 0.22709115 0.23375577 -0.27372146 0.21530484 0.15987462 -0.031255145 0.038367674 0.060713273 0.018171834 0.002697158 0.1445202 0.099230655 0.21389955 0.01293629 -0.080598444 0.2749653 -0.554288 -0.24021655 0.017803054 0.1147259 0.13715266 -0.11027304 -0.046775293 -0.111800104 -0.08521452 -0.23037826 0.13562097 -0.3237887 -0.11112926 0.06303311 0.0770136 -0.03213307 -0.1450035 -0.26033288 0.20866752 -0.28992122 0.056144785 -0.04091621 -0.23529287 -0.08786241 0.5207282 -0.17118444 0.37644166 0.16208597
1483 0.036251556 -0.40953386 -0.099075094 0.12635301 0.0926269 -0.16962864 0.29072836 0.30274466 0.29995397 0.30549675 0.2749404 0.027419461 -0.32618073 -0.015641024 0.0016098068 0.114275806 -0.13903356 0.33406568 -0.012079445 0.19519253 0.00984213 -0.16762295 0.29404023 0.06993721 -0.14651445 -0.13008432 -0.17648232 0.1627074 0.16207157 -0.34058502 -0.11245822 -0.14347498 -0.15821004 -0.22053924 -0.072815 0.07068978 -0.051356073 0.039244447 0.15727626 0.4320803 -0.31792235 -0.11711103 -0.18863973 -0.14623971 -0.077704504 -0.048715178 -0.26792908 0.197477 -0.1131147 -0.10638212 0.28442922 -0.17533989 0.42346272 0.14633895 0.0682464 0.09832743 0.084878765 -0.26511225 -0.17592968 0.07916342 0.17841 0.0031648886 -0.11148857 -0.51364785 0.21710804 -0.96191156 0.22958611 -0.24719568 -0.13243121 -0.09431146 -0.009215365 0.29948837 -0.061625194 -0.2422044 -0.4131746 -0.085916944 -0.09240343 -0.16856016 -0.0820474 0.08471459 0.40428522 -0.115995 -0.4023681 -0.08751061 -0.15065382 0.022886852 -0.03755806 -0.17672433 -0.17842937 -0.12667735 0.16315942 -0.020403821 0.22700697 -0.16973862 -0.29884183 -0.21286331 -0.42824987 0.13172902 0.18072371 0.37043262
622 -0.04470131 -0.0521531 -0.11551932 0.08036702 0.21141538 -0.17667453 0.27870786 0.21105677 0.10834798 -0.025741711 0.13706747 0.026101096 -0.08864304 -0.10962843 0.16491723 0.21946429 -0.21726865 -0.16176455 0.10169808 0.2545102 -0.15715106 -0.20210873 0.16926709 0.056791753 -0.2176183 0.02059959 -0.043433048 0.10448533 0.066202424 -0.18616971 -0.12597714 -0.26448753 -0.091771595 -0.20371903 -0.23001516 -0.110485874 0.39560398 -0.0072972467 0.21893157 -0.05277024 -0.7937707 -0.110004164 -0.16105355 -0.10342181 -0.23017536 -0.104883954 -0.23537566 0.077750176 -0.22621623 -0.37743145 -0.052209493 -0.17708461 0.2526114 -0.10176625 -0.018539056 0.10866226 0.004991564 -0.37155533 -0.09689843 0.2019539 0.15544653 0.0571913 0.034154687 -0.113364175 0.15498848 -0.27207533 0.040185556 0.09767785 0.28082654 -0.34165797 -0.23649468 0.25229523 0.19177824 -0.20420101 -0.1510309 0.0009206559 -0.0042026513 -0.097664274 -0.029072147 0.24351177 0.12760942 -0.17402835 0.004940864 -0.007546554 -0.19066864 0.1315299 0.025637701 -0.20110422 -0.17007667 -0.16265765 0.2159673 -0.16704082 0.16965064 -0.114191584 -0.29642662 -0.27831194 -0.17040743 -0.117429614 0.078848675 -0.09477043
1566 -0.023524672 -0.25150684 -0.003695755 -0.055869617 0.24228364 -0.14357312 0.29434302 0.11502143 0.08510674 -0.12773459 0.08942559 0.18380938 -0.4881661 -0.1663289 0.19965306 -0.03935311 -0.12505586 -0.15509184 0.029927202 0.19546872 -0.106202975 -0.1869732 0.09305683 -0.019258602 0.008624938 0.100266814 -0.11165314 0.082710356 0.20575336 0.0565144 -0.07042929 -0.2373576 -0.09905616 -0.19971836 -0.20648205 -0.035952136 0.31081104 -0.29430816 -0.2311423 0.34471112 -0.17473271 -0.19006589 0.092880696 -0.060262583 0.034050945 -0.19248027 -0.1776989 0.20917232 -0.037056122 -0.08969845 -0.0594163 -0.14777151 0.01174807 -0.32655838 0.19601603 0.21824667 0.15849474 -0.44770405 0.08056035 0.06883327 0.07670893 0.06749568 0.04508789 -0.06503606 0.07657815 -0.14731087 -0.07958828 0.0073629827 0.3388223 -0.4509392 -0.26380616 0.15817241 0.06670896 -0.17162004 -0.21873587 0.14634894 0.30063078 -0.00045800293 -0.100873046 0.21174024 0.034527827 -0.07035358 -0.04510933 0.05803461 -0.17111786 0.015664814 0.028601043 -0.5832291 -0.20363835 0.025224593 0.14784858 -0.24423316 0.3247607 -0.43756548 -0.2467897 -0.226976 -0.21913595 -0.03227742 0.14323612 -0.011631595
625 0.14943275 0.16403157 -0.28484413 0.16335292 0.25686112 -0.32906044 0.2696824 0.15791179 0.15157941 -0.44315958 0.061923295 0.06422875 -0.42620102 0.078092985 0.21965276 0.5080977 -0.36348712 0.41053906 0.14496772 0.31714454 -0.24526368 -0.27379194 0.409942 0.52383924 -0.2553362 0.020374967 -0.13717088 0.46720335 0.13805538 0.5989924 -0.07235565 -0.25259244 -0.08368092 -0.16356497 -0.31086308 0.12694357 -0.10100662 0.0033430841 -0.22447345 0.1637344 0.34849283 -0.22230728 0.18888241 -0.022232063 -0.4929593 -0.19583948 -0.42564383 0.3765475 -0.12315892 0.102531515 0.7434623 -0.48590788 -0.19603717 -0.2145834 0.057475943 0.17147473 -0.017287735 0.16887145 -0.36584002 0.07455946 0.012336102 0.12751825 0.3882154 0.17619602 0.4146702 -0.268988 0.13025633 -0.00833616 0.085482806 -0.736784 -0.039784037 0.053377528 -0.91182727 -0.2854639 -0.4329993 -0.01268107 -0.20216021 -0.40345705 -0.12431031 0.077425405 0.26352602 -0.23318909 -0.29453835 0.14782348 -0.34277537 -0.064760946 0.14011243 0.09244149 -0.18593115 -0.33658445 0.29757532 0.21348076 0.14432007 -0.90650207 -0.23388484 -0.28724122 -0.6654487 0.07498755 -0.21144952 0.2817372
441 0.16138035 -0.44011375 -0.41011548 0.20387785 0.19020832 -0.32997364 0.20249067 0.24300863 0.38323337 -0.80994326 0.19462314 0.1245168 -0.99033475 -0.16827817 0.012984806 0.6679247 -0.3276457 0.52314925 0.21158062 0.36393154 -0.3129445 -0.22821589 0.60923976 0.7223357 -0.4123888 0.18635808 -0.25511768 0.40531778 0.037840173 1.1002653 -0.045401756 -0.26339644 -0.34231144 -0.14065804 -0.22466661 -0.15806767 0.36659244 -0.18744141 -0.70831215 0.50687397 -0.72441196 -0.2553728 -0.27997753 -0.1426819 -0.44931754 -0.05714932 -0.23102888 0.2985369 -0.2976856 -0.09418445 0.5836787 -0.45950404 0.29813537 -0.3402307 0.41000575 0.25386629 0.22662102 -0.09892538 -0.20791031 0.20516437 0.117922306 -0.15817851 0.40758517 -0.33983606 0.352858 -0.9320459 0.253103 -0.20077154 0.16753918 -0.60753036 -0.2406517 0.2653438 -0.90429085 -0.2902888 -0.65650403 0.329399 -0.040563952 -0.23610261 -0.27835503 0.09299134 0.02198802 -0.18594563 -0.1606527 0.01974739 -0.29700726 0.14315209 0.07937258 -0.22882645 -0.2858247 -0.61267513 0.25141624 -0.11112976 0.19372652 -0.31202713 -0.17994095 -0.3092051 -0.37929308 -0.039488126 0.39792854 0.07949293
627 0.10506261 -0.035066415 -0.32362092 0.20558569 0.14317183 -0.17770015 0.22774313 0.15637802 0.3739936 -0.35084757 0.2393484 0.097207844 -0.34225038 -0.26453272 0.07167713 0.32459882 -0.2915486 0.773175 0.10442915 0.17206289 -0.236015 -0.22829312 0.15151133 0.3812579 -0.28066117 0.09351399 -0.19558817 0.29873067 0.070886396 -0.10597266 0.012762957 -0.23088256 -0.29711077 -0.10043085 -0.2105739 -0.101388305 0.34054747 -0.1955358 -0.81160265 0.3650758 -0.86211276 -0.14995834 -0.51657706 -0.04881099 -0.2557466 -0.034767184 -0.10162778 0.24331121 -0.21503648 -0.08061618 0.3157377 -0.2949635 0.24385716 -0.4065051 0.8095668 0.18151924 0.23537484 -0.14295225 -0.22769009 0.17306751 0.13511492 -0.05138646 0.29031086 -0.15914355 0.11422683 -0.3257696 0.14312157 -0.43027118 0.19140744 -0.32324886 -0.19002216 0.24659178 -0.46924722 -0.24028213 -0.19345295 0.23332417 -0.07189832 -0.075504944 -0.19015944 0.1144989 0.08315155 -0.118315876 -0.20143695 -0.24345313 -0.15320209 0.13652822 0.015625402 -0.07975109 -0.2353959 -0.27868226 0.18774256 -0.15976463 0.090742506 -0.4309638 -0.19574454 -0.29291537 -0.9307953 -0.055516753 0.19640046 -0.09211871
1730 0.12863912 -0.46297985 -0.2998339 0.15066624 0.14784327 -0.34704033 0.23989338 0.21374236 0.29640967 -0.49547124 0.1123167 0.11591616 -1.0105025 -0.26795575 0.0074206702 0.5939425 -0.36533386 0.26692423 0.30201182 0.35226703 -0.17180894 -0.24465503 0.36355537 0.52113795 -0.3060273 0.13367656 -0.117489256 0.35448262 0.15083142 0.94997054 0.03461067 -0.2934008 -0.43170702 -0.16357614 -0.22528242 -0.01894655 0.08944112 -0.38197955 -0.749798 0.7218601 -0.7358915 -0.32070708 -0.2020417 -0.23983338 -0.31062037 -0.16799012 -0.25217354 0.25948766 -0.34680158 -0.08532384 0.6366774 -0.46712404 0.20497546 -0.11166507 0.49064377 0.17829347 0.27508605 -0.10122217 -0.253946 0.13583696 0.11570938 -0.20491724 0.2507681 -0.34794167 0.39565477 -1.2766404 0.29707244 -0.24189843 0.15911135 -0.4744628 -0.22841854 0.22160521 -0.9204422 -0.28867513 -0.8572538 0.24748033 -0.1793097 -0.22283801 -0.3122764 0.032932032 0.015583928 -0.12796251 -0.22389454 -0.02939814 -0.30480254 0.032435812 0.046633337 -0.1897539 -0.21676506 -0.6384504 0.23223925 -0.005391599 0.2832501 -0.25654435 -0.21344528 -0.35327712 -0.34814197 0.013221622 0.406629 0.2562318
1527 0.26943085 -0.04684495 -0.36780187 0.22626984 0.14002599 -0.20702276 0.12180639 0.41769052 0.3549873 -0.3725431 0.34720147 0.34139732 -0.43215847 -0.35067794 -0.114270866 0.19698994 -0.11377786 0.09275911 0.065615214 0.10199471 -0.37760577 -0.25491422 0.17483482 0.38867462 -0.25612676 0.07288521 -0.2964525 0.51388174 0.11156373 -0.3038401 0.33196104 -0.20353502 -0.12884022 -0.304608 -0.11427185 -0.42825276 0.2628473 -0.16039257 0.20397362 -0.1034268 0.31370375 -0.33801323 -0.15289098 0.019244405 -0.23759755 0.31632137 -0.06166977 0.39923477 -0.2656306 -0.38245535 -0.065471634 -0.17056371 0.2987572 -0.04632946 -0.10879753 -0.13649915 0.008758372 -0.24460237 -0.15458949 0.16057253 0.25720504 -0.57591534 0.14354016 0.4988175 0.21824588 0.11336306 -0.14295986 0.43423972 0.15563087 -0.03805344 -0.07831589 0.32515046 0.51639944 -0.23831777 -0.070174016 0.51163125 -1.2282455 -0.059423715 -0.15477157 0.3072353 -0.33415112 -0.18786293 -0.24818966 -0.27135974 -0.06370077 0.12803113 0.47932956 0.06713058 -0.29707006 -0.25634044 0.24374282 -0.20016892 0.081326306 0.13797547 -0.26004022 -0.38337126 -0.29917225 0.15155505 0.11326071 -0.46616274
235 0.105409905 0.06483695 -0.30285022 0.1396118 0.25739163 -0.20018148 0.21437821 0.24084817 0.1199637 -0.13838044 0.2633464 0.19204219 0.09036617 -0.21032463 -0.003403885 0.13729101 -0.20339406 -0.21856348 0.03360865 0.21440224 -0.3447493 -0.24674757 0.1318432 0.17176071 -0.19070162 -0.19626531 -0.36922416 0.10590811 0.06567974 -0.19468898 0.22083394 -0.19374736 -0.1485832 -0.30231518 -0.13342656 -0.32779348 0.10870522 -0.009999579 0.03998349 -0.057999313 0.51757246 -0.21264441 -0.008761142 0.30165762 -0.30452085 0.2568729 -0.14112681 0.21912727 -0.10244038 -0.13452508 -0.3015609 -0.22715262 0.07469842 -0.04249233 0.11242053 -0.27650478 -0.05355671 -0.09555543 -0.18410206 0.12739554 0.19315888 0.09445831 0.16594687 0.21671502 0.28410128 0.009235518 -0.039687954 0.5277339 0.20059142 -0.19552131 -0.011961328 0.2404292 0.032346237 -0.249109 0.02403379 0.019329425 -0.5091568 -0.16081922 -0.0024897228 0.26159298 -0.058868177 -0.11162362 0.09351502 -0.08891725 -0.19697401 0.13379432 0.4993405 0.23187025 -0.2492408 -0.21984014 0.28806058 0.20014045 0.05098386 -0.41093776 -0.29694274 -0.10759285 0.075458735 0.067487486 -0.16039959 0.11367355
475 0.14264773 -0.45019886 -0.3400246 0.2407293 0.21378615 -0.29284054 0.26938373 0.22465476 0.39369345 -0.73074967 0.22633581 0.11674786 -0.85039693 -0.23104401 0.12477095 0.60795987 -0.38716397 0.5827626 0.2011291 0.2601192 -0.21823378 -0.27779263 0.48160085 0.6092313 -0.37963614 0.11833151 -0.19843219 0.3753006 0.09792178 1.159351 -0.026907818 -0.29058522 -0.39127788 -0.2215518 -0.29622087 -0.09343003 0.24420924 -0.28084454 -0.73144907 0.5374078 -0.6690187 -0.24344982 -0.23354192 -0.06937727 -0.43146312 -0.041953456 -0.2025908 0.37558433 -0.34335864 -0.0700206 0.65486354 -0.5223338 0.23176713 -0.31773862 0.40339717 0.24794053 0.27587602 -0.032086074 -0.22484447 0.20030916 0.14490809 -0.06394308 0.34868044 -0.26061675 0.36491677 -1.0006306 0.26950097 -0.28453487 0.115213476 -0.5930222 -0.28783396 0.3317526 -0.8800366 -0.35708106 -0.69981575 0.29905877 -0.07422083 -0.24046797 -0.34777755 0.10487503 0.03644578 -0.15292427 -0.16231973 0.02011644 -0.30428952 0.027346695 0.087320134 -0.22871764 -0.21759747 -0.5759056 0.2759011 -0.1448998 0.20989904 -0.35139796 -0.1867521 -0.3447074 -0.41535684 -0.047989745 0.4458878 0.10769518
1537 0.11490793 -0.20216796 -0.33963242 0.15438147 0.09101821 -0.23579839 0.22835962 0.1591441 0.4761364 -0.40865436 0.20363522 0.17092246 -0.9881928 -0.31727123 0.12850067 0.26359865 -0.24149883 0.8852026 0.1613503 0.26761216 -0.30794242 -0.25543013 0.29946122 0.5310611 -0.27351758 0.10030318 -0.28893763 0.39027795 0.10445443 0.20087826 0.032420494 -0.20107327 -0.26166555 -0.1623855 -0.12139726 -0.09749457 0.31351086 -0.21113588 -1.010457 0.44354796 -0.64292717 -0.23964708 -0.46663457 -0.06969139 -0.2311682 -0.103944264 -0.1818328 0.3441494 -0.18028644 -0.06871737 0.4537182 -0.44769314 0.32676557 -0.2572352 0.66233385 0.20875685 0.11719949 -0.091001175 -0.21519949 0.17144108 0.15022156 -0.008893059 0.27183133 -0.21136063 0.22936103 -0.9698852 0.19180088 -0.76573795 0.21768759 -0.28395012 -0.21059269 0.2759189 -0.753718 -0.2507286 -0.24625784 0.3961069 -0.19221815 -0.13534725 -0.23043193 0.21967342 0.17167781 -0.14448944 -0.14931606 -0.063542575 -0.22007214 0.12673102 0.04280718 -0.008986845 -0.18088634 -0.3629919 0.2323036 -0.19445418 0.08260444 -0.62491816 -0.18886352 -0.24072944 -0.82077456 -0.018378086 0.1668687 -0.021918213
1634 0.13548659 -0.45409378 -0.34382808 0.21187942 0.17281777 -0.29955536 0.2655482 0.23836818 0.3590222 -0.65760756 0.19877496 0.117235765 -1.0373476 -0.16288428 0.042996384 0.55713 -0.39964646 0.58661705 0.22820677 0.32566682 -0.28604543 -0.15870273 0.4513125 0.7654877 -0.3444943 0.201179 -0.25439724 0.36003122 0.097594745 1.1528133 -0.11604794 -0.19662783 -0.410693 -0.16765587 -0.2583148 -0.08936588 0.3084296 -0.24274969 -0.7562876 0.6198478 -0.70884347 -0.24830584 -0.18683907 -0.11032411 -0.4438853 -0.07494574 -0.2463414 0.4085678 -0.27933568 -0.082233965 0.56557477 -0.47164536 0.2502798 -0.3551575 0.3068144 0.19209206 0.2586773 -0.12361695 -0.27198458 0.1602365 0.15416184 -0.1289389 0.3356201 -0.3443833 0.37406644 -1.0048392 0.25538117 -0.25790262 0.11605688 -0.5830801 -0.2609562 0.25023192 -0.88508904 -0.36423445 -0.7318244 0.3068375 -0.08718393 -0.23423612 -0.3777107 0.1308062 0.10663826 -0.15729985 -0.19544505 0.066173494 -0.2750333 0.063577734 0.033262763 -0.15308665 -0.23677419 -0.61669534 0.2548368 -0.08575486 0.18080845 -0.3196181 -0.16372848 -0.33006045 -0.5082253 -0.05244477 0.39296842 0.025853105
1946 0.16293553 -0.45278513 -0.3334258 0.22915328 0.21651253 -0.32109398 0.22294489 0.23951796 0.32893258 -0.45856577 0.20167361 0.15848875 -0.98609865 -0.27653664 0.02616974 0.5782485 -0.31492177 0.33764717 0.3004743 0.3308375 -0.18048117 -0.23098055 0.3082874 0.5173169 -0.29600227 0.18069828 -0.06779018 0.38859916 0.114476256 1.0182 0.030416537 -0.21724133 -0.45905605 -0.18741456 -0.22402097 0.06861662 0.06920082 -0.31544352 -0.7148873 0.78936476 -0.77874035 -0.35459477 -0.2769639 -0.18880035 -0.305525 -0.116900876 -0.20628427 0.310229 -0.36491215 -0.13451138 0.58198196 -0.51703894 0.24216041 -0.048551448 0.5885849 0.22402856 0.31234628 -0.16746889 -0.31354597 0.15046665 0.13204844 -0.1422454 0.33327985 -0.36252397 0.4343109 -1.2888389 0.24685405 -0.2485646 0.14565551 -0.49301413 -0.3619361 0.2026001 -0.83994865 -0.32610026 -0.8191195 0.26836136 -0.20957917 -0.20133018 -0.33867058 0.14857696 0.048625406 -0.1029381 -0.16820566 -0.1412641 -0.2739258 -0.033749465 0.08376083 -0.16764209 -0.22038822 -0.59707296 0.18401583 0.034618817 0.32022667 -0.26434976 -0.18627736 -0.33263174 -0.41444904 0.03848655 0.37165767 0.18024418
1819 0.114934914 0.28403503 -0.36088648 -0.004067113 0.12965824 -0.027665108 0.22033419 0.20665267 -0.12007892 -0.34278142 0.10118839 0.13102284 0.028956788 -0.459254 -0.03679542 0.3329604 -0.052148335 0.31382304 -0.068270504 0.14962101 -0.34083375 -0.13617745 0.0371319 0.10967318 0.031891987 -0.111838244 -0.50346357 0.18532853 0.12740438 -0.08367894 0.06832739 -0.005643282 -0.28694758 -0.07107645 -0.39625317 -0.17352054 0.11402036 -0.029454418 -0.113094725 0.060544252 -0.68102694 -0.015242924 -0.14784226 0.18005368 -0.48023286 0.21811193 0.053689647 0.019924942 -0.2123316 -0.14602987 -0.2510372 -0.2613429 -0.08945176 -0.827534 0.5956195 -0.17366904 -0.030119024 0.052253295 -0.074704826 0.24117966 0.19515793 0.024554966 -0.12508038 0.15226424 -0.14037779 -0.1610299 -0.010756961 -0.074983485 -0.2196668 -0.35300866 -0.023967475 0.31060162 -0.09878627 -0.17903443 -0.090784095 0.1764248 -0.1012347 -0.03366834 -0.32517785 -0.3959925 -0.13124613 0.030598575 0.10682648 -0.34686896 -0.10876878 0.2867412 0.032630693 -0.0719836 -0.21355838 -0.43978387 0.07933707 -0.124993525 -0.042712893 -0.26510045 -0.015654037 -0.2386004 -0.3432967 -0.09363988 0.18733753 -0.29162735
87 -0.0097732525 -0.05380569 -0.29311687 0.2577335 0.2725188 -0.12210935 0.17467129 0.42300728 0.11734725 0.02206047 0.10875461 -0.003691096 -0.17860141 0.018356193 0.38080952 0.3673672 -0.19576788 0.14188369 -0.068029985 0.09490335 -0.17947564 -0.16864018 0.018942624 0.09706818 -0.06733853 -0.43274447 -0.1708975 -0.05174652 0.15826601 0.03693314 0.122463495 -0.2614261 -0.2180112 -0.3603766 -0.21238427 -0.117908575 0.21876097 -0.2162513 -0.3010144 -0.22021803 -0.31421167 -0.05186477 -0.07694252 0.47137213 -0.122275025 -0.13863799 -0.10807867 0.3861964 -0.10671853 -0.3827168 -0.5029052 -0.059315976 0.20560433 -0.043937195 0.29145357 -0.4058342 0.18521687 -0.020896906 -0.15538813 0.24358182 0.1941889 0.089237474 0.07770459 -0.17101093 0.38187003 -0.037646435 -0.6452555 -0.14980285 -0.10848436 -0.14494649 -0.039287318 0.1439478 0.4096096 -0.055841777 -0.104703195 -0.09495129 -0.5080638 -0.061020397 -0.1695483 0.4547676 -0.24751934 -0.12375263 0.4181098 -0.115167834 -0.1492144 0.16662495 0.2392758 -0.1532676 -0.14921866 0.07520923 0.16379824 -0.5648146 0.1599184 -0.24978817 -0.17080626 -0.19123617 -0.027352124 -0.33356732 0.15939695 -0.81249136
2071 0.15018293 -0.5080938 -0.21301563 0.21140687 0.1262282 -0.25405255 0.26609296 0.23450175 0.23363176 -0.56078607 0.06757924 0.21984123 -0.801579 -0.32177663 0.014790051 0.290492 -0.35034248 -0.07406643 0.23395163 0.2956136 -0.15836133 -0.22815414 0.39180782 0.32592824 -0.31275594 0.07871565 -0.2989483 0.3536135 0.07100499 0.5910214 -0.026035694 -0.2342852 -0.34686333 -0.15895857 -0.13489252 0.04610158 0.03190484 -0.33440092 -0.6673019 0.68521935 -0.96150035 -0.421421 -0.06491702 -0.22562018 -0.29099673 -0.14296299 -0.21655928 0.41827875 -0.27685586 -0.11467509 0.62980837 -0.442092 0.17479476 -0.11116039 0.40331557 0.17945983 -0.05975616 -0.27661645 -0.29884106 0.24867283 0.16016231 -0.213187 0.3539611 -0.38476935 0.32192916 -1.2332329 0.37048534 0.14595602 0.08126239 -0.35106552 -0.34511083 0.22718799 -0.73913175 -0.37755054 -0.4953653 0.30410138 -0.14201255 -0.1728568 -0.4235214 0.24064893 -0.07233818 -0.1472254 -0.13652886 0.020127485 -0.2577293 -0.021256357 0.014365705 -0.28684044 -0.28600734 -0.53056645 0.22630273 -0.040718272 0.3113146 -0.44064882 -0.25011605 -0.286926 -0.30050513 -0.038128786 0.42464784 0.19408223
744 0.19825003 -0.4457185 -0.32326445 0.15857905 0.2083391 -0.32564995 0.24650118 0.2677509 0.32450196 -0.7047392 0.20977603 0.14602695 -0.9469788 -0.15551406 0.100942075 0.60463333 -0.4054655 0.62117714 0.29715818 0.33377197 -0.31992316 -0.2079965 0.4901231 0.7352309 -0.37529597 0.17820424 -0.2145477 0.39012685 0.027288053 1.0971934 -0.034015197 -0.21446775 -0.4368255 -0.11377779 -0.23805127 -0.055685632 0.30640045 -0.24933007 -0.7375755 0.52734417 -0.69597685 -0.2369109 -0.19771786 -0.12079444 -0.4539478 -0.121598996 -0.247366 0.38298774 -0.26619112 -0.057002984 0.5988285 -0.48734117 0.28224263 -0.41274974 0.45804116 0.26934704 0.27903777 -0.099963084 -0.24313614 0.23083337 0.101485975 -0.054688584 0.3662574 -0.33969662 0.29700765 -1.1190664 0.24155977 -0.23162337 0.15807973 -0.6588747 -0.23417562 0.26690057 -0.8686273 -0.3227834 -0.73435396 0.3145818 -0.09601506 -0.2709039 -0.3756139 0.09906532 0.010088217 -0.1348362 -0.21533217 0.041070774 -0.26523584 0.10382309 0.09287989 -0.13238096 -0.19491206 -0.6071126 0.20502043 -0.14329426 0.22263059 -0.35116273 -0.19653223 -0.33903033 -0.534555 -0.038435638 0.4279021 0.19944642
1600 0.16169943 -0.11462797 -0.32140946 0.11395559 0.17025983 -0.22936931 0.17808034 0.2960189 0.44538635 -0.476601 0.22323842 0.15059325 -0.8484201 -0.369866 0.10446139 0.21245766 -0.28470767 0.8436589 0.17588061 0.26967221 -0.23930398 -0.2131648 0.26818922 0.6164895 -0.2894558 0.05881343 -0.33350816 0.36476195 0.10597233 0.106038466 0.014382148 -0.09472906 -0.26534075 -0.17375124 -0.1265639 -0.094895445 0.31636328 -0.19297025 -0.97696865 0.36848494 -0.714742 -0.16021504 -0.5212874 -0.117423564 -0.26441178 -0.09438468 -0.19702111 0.35497788 -0.24473792 -0.06659246 0.41676468 -0.33514926 0.33264232 -0.18581954 0.6737552 0.18164332 0.04616947 -0.071897686 -0.21450922 0.12801035 0.11905637 -0.03800262 0.32343784 -0.2512856 0.21585187 -0.9422183 0.16294268 -0.83542675 0.20590746 -0.19586655 -0.16775164 0.22763285 -0.66963965 -0.21520509 -0.20712778 0.29324082 -0.16763723 -0.13002951 -0.1498774 0.17710094 0.11096691 -0.06892622 -0.10889385 -0.05452725 -0.26996496 0.14964725 0.037555575 -0.040944923 -0.23964252 -0.2372006 0.22612852 -0.14672312 0.09408724 -0.50346863 -0.17388399 -0.15894537 -0.927374 -0.040781748 0.255601 -0.07121238
1821 0.13099612 -0.24096121 -0.28676805 0.22507171 0.16373174 -0.21140985 0.27736625 0.2009597 0.42405778 -0.023432434 0.26894963 0.12090765 0.30004993 -0.25065014 0.049963787 0.30370286 -0.10305882 0.1156569 0.10453657 0.47242302 -0.20543888 -0.1723515 0.23798852 0.15784259 -0.14870106 -0.073115714 -0.25425515 0.29761043 0.13006018 0.061184064 0.10349007 -0.21268533 -0.53742033 -0.22877362 -0.16469295 -0.040916983 0.045296993 -0.1431127 -0.9834514 0.55437285 0.16783787 -0.11704755 -0.75803334 -0.09997775 -0.111567914 -0.09026024 -0.14989255 0.20360906 -0.2413124 -0.2712529 0.2860793 -0.25812584 0.39790323 0.13448939 0.51582575 0.07680882 0.21249455 0.0001879824 -0.30598643 0.19176757 0.14054279 -0.03213321 0.14471059 -0.5145963 0.0656327 -0.5554969 0.07605748 -0.815902 -0.0064335023 -0.36952108 -0.12764417 0.2541647 -0.73999983 -0.030957857 -0.08581199 -0.028057469 0.13967817 -0.14400977 -0.1003796 0.13185087 0.22379643 -0.041655757 -0.16788648 -0.3032538 -0.15916266 0.12529348 -0.020878876 0.055828348 -0.22955003 -0.20992504 0.19844475 0.09156077 0.04626884 -0.61443675 -0.20901309 -0.11919624 -0.2448992 0.14289273 0.27357388 0.14585757
1918 0.12078878 -0.096872926 -0.22051707 0.057543926 0.21593913 -0.18115686 0.24448334 0.20281735 0.12319657 -0.3037007 0.13445258 0.10547592 -0.75029135 -0.43158865 0.06589861 0.026736986 -0.13342924 0.9679806 0.102504335 0.22086366 -0.29964504 -0.19878373 -0.06834324 0.108636886 -0.17114933 0.14382145 -0.28829852 0.2477761 0.07165992 -0.101289056 -0.01335473 -0.14408995 -0.2421911 -0.18247904 -0.14766872 -0.012115158 0.24253438 -0.10356003 -0.23631988 0.6253525 0.12610412 -0.22255181 0.18177441 -0.015285207 -0.19447728 -0.17824456 -0.14947437 0.29930025 -0.049460556 -0.1143833 -0.08774337 -0.28934678 0.13409233 -0.59591615 0.43550426 0.19002797 0.13298702 -0.3162922 -0.020066569 0.0690008 0.102035955 0.12170103 0.24698435 0.059746694 0.077419095 -0.11423109 0.11860041 -0.39751717 0.16768333 -0.36030173 -0.20582345 0.19514377 0.07484981 -0.2660397 -0.1876532 0.2792201 0.057065073 -0.079874314 -0.14621572 -0.049830317 0.08732572 -0.110784486 -0.3126208 0.103170246 -0.21330234 0.066395774 0.0081783775 -0.18530948 -0.23465554 -0.009386169 0.19525775 -0.25230178 0.20602837 -0.08342868 -0.21593973 -0.22380675 -0.9993444 -0.14498672 0.17910488 -0.10885297
647 0.09694673 -0.6552469 -0.1921346 0.23636332 0.19480637 -0.26905465 0.2724912 0.19124614 0.3592276 -0.1002181 0.21362063 0.12726994 0.05780343 -0.21170838 -0.014630771 0.42566586 -0.23697649 0.07000146 0.1296321 0.44752002 -0.2041856 -0.22077282 0.27208504 0.3366225 -0.19139667 0.036976017 -0.093809746 0.27729514 0.18265173 1.1290039 0.03080658 -0.2226537 -0.60885733 -0.1735222 -0.2863897 -0.05519669 -0.068753235 -0.22610468 -0.81720936 0.46294892 0.29037073 -0.18386042 -0.36625776 -0.16794439 -0.22627574 -0.09766426 -0.2040622 0.13919719 -0.35882208 -0.18896475 0.47946236 -0.3451531 0.31512797 0.096677445 0.12534733 0.168793 0.315767 -0.0022389898 -0.2286722 0.124852695 0.18555227 -0.20578629 0.14683056 -0.5615272 0.2412016 -0.72082514 0.14738634 -0.57817733 -0.07904707 -0.6217541 -0.15549618 0.25102907 -0.99964404 -0.047201414 -0.34922245 -0.0623821 0.08623474 -0.27010462 -0.14400527 0.102833115 0.14313567 -0.07909457 -0.09610794 -0.066354826 -0.20602423 0.09495752 0.041162383 -0.085664965 -0.19660884 -0.42087573 0.2248918 0.10614037 0.25877178 -0.3531197 -0.19182946 -0.14260203 0.1130868 0.10829601 0.44917798 0.29270375
583 0.21061245 -0.05330598 -0.38971075 0.14905259 0.13403392 -0.16623512 0.21452673 0.24019456 0.4586421 -0.38228264 0.21083239 0.18432002 -0.63059705 -0.31364697 0.0921444 0.20409851 -0.25240427 0.84836924 0.17742284 0.34490228 -0.2178245 -0.23305273 0.21723749 0.5466519 -0.27792543 0.055504844 -0.28987312 0.32389212 0.114711456 0.0074267983 -0.010181675 -0.25428346 -0.28242418 -0.15367234 -0.15546526 -0.11879817 0.31324056 -0.17443833 -0.9855377 0.42684484 -0.75683975 -0.17201887 -0.44641656 -0.08789727 -0.31458795 -0.042594012 -0.14945087 0.32858264 -0.15413857 -0.13050067 0.4072341 -0.32456842 0.24651687 -0.33043563 0.80310935 0.18954329 0.20130359 -0.056583017 -0.19318287 0.17546122 0.05817158 0.072112754 0.29967117 -0.11604762 0.18465614 -0.6254811 0.1692531 -0.6609422 0.13092467 -0.22943693 -0.18145971 0.2584677 -0.59169084 -0.24968372 -0.11366026 0.28364933 -0.18676233 -0.15368246 -0.199454 0.103771225 0.13415755 -0.15084162 -0.23154333 -0.15292896 -0.13839522 0.06517678 0.070926316 0.05065036 -0.2639361 -0.17756425 0.22188525 -0.063564554 0.054730434 -0.3087903 -0.14621386 -0.29236227 -0.8711188 0.033226363 0.11360338 -0.15199384
651 0.09764701 -0.21218634 -0.15265435 -0.021543358 0.21737558 -0.15438303 0.20055427 0.22554494 0.18636793 -0.33007917 0.2014594 0.14403 -0.6486429 -0.3074809 0.12559426 -0.047383815 -0.18043154 1.0647118 -0.016757565 0.1314771 -0.14265382 -0.2642612 0.011942184 0.17078322 -0.105048396 0.17150094 -0.2388523 0.38602555 -0.034361426 0.058842115 -0.09204463 -0.16210301 -0.1749825 -0.1661916 -0.095769964 -0.08982297 0.16038318 -0.12080136 -0.39174855 1.0466714 0.23346186 -0.24574836 0.109032415 -0.008109066 -0.18771975 -0.15704387 -0.16057579 0.10531228 -0.2053813 0.036865063 0.028254053 -0.21707574 0.10687627 -0.66245 0.12434565 0.22416547 0.04469385 -0.41524234 -0.050056733 0.10750516 0.09175442 -0.0954181 0.27199554 0.06747232 0.20703998 -0.10956077 0.172092 -0.42798388 0.13503732 -0.14876363 -0.2517589 0.1459172 0.017688937 -0.24796103 -0.1647305 0.35318992 0.037733376 -0.05147068 -0.03278169 -0.022928182 0.10425675 -0.1448632 -0.32280788 0.02947281 -0.16909653 0.0686671 0.10382323 -0.35552892 -0.11429757 -0.060920235 0.18125838 -0.19190836 0.1361598 -0.3425094 -0.1399457 -0.1877712 -1.062317 -0.11820208 0.28140298 -0.13644531
606 0.121024534 -0.455933 -0.19780506 0.24270953 0.20838602 -0.26828295 0.30751994 0.17873313 0.31449115 -0.5454663 0.14775911 0.26451257 -0.70246595 -0.31146795 -0.013882941 0.263667 -0.30625254 -0.024616411 0.33700114 0.29494673 -0.1251629 -0.20661584 0.39959523 0.2617085 -0.33801785 0.1724793 -0.30000752 0.26308984 0.08261884 0.5431931 -0.07605939 -0.25660363 -0.2764623 -0.2141876 -0.17944986 0.050787434 0.018400898 -0.29521024 -0.6326979 0.7566518 -1.0039133 -0.3885959 -0.04810294 -0.23756728 -0.32147688 -0.09727061 -0.27110067 0.4334105 -0.32398045 -0.11410423 0.56423867 -0.4734217 0.16825843 -0.084494755 0.3542108 0.106235966 -0.00039163756 -0.29248148 -0.28780437 0.22406252 0.20967239 -0.20155202 0.3551886 -0.40591267 0.27886957 -1.1699318 0.30613968 0.19884378 0.2313831 -0.43899542 -0.3069779 0.3252769 -0.70072156 -0.39318824 -0.43677676 0.27582493 -0.19186668 -0.15623634 -0.34170806 0.25708103 -0.007280191 -0.17201467 -0.09095476 -0.039407145 -0.22484203 0.008261266 -0.028528627 -0.24914004 -0.24512038 -0.46341297 0.20012692 -0.03635101 0.2908967 -0.44492027 -0.3040589 -0.32249698 -0.3679219 0.0073352046 0.30075946 0.18902783
1687 0.090711884 -0.5325146 -0.40358204 0.16362861 0.15281175 -0.34031454 0.21069646 0.21049416 0.40431616 -0.7362667 0.18512844 0.0998079 -0.96176493 -0.22019605 0.10922549 0.64599246 -0.32705292 0.46810988 0.24276309 0.32138476 -0.31272924 -0.22019957 0.5052209 0.8237471 -0.42137653 0.1221545 -0.2809004 0.36106238 0.046766635 1.1314867 0.018335681 -0.2878119 -0.40124452 -0.12927915 -0.21968149 -0.09757428 0.308322 -0.29428375 -0.74077517 0.62808454 -0.6955508 -0.24579208 -0.17310002 -0.091964185 -0.3923578 -0.094006345 -0.24478641 0.30467 -0.33027926 -0.0892057 0.5741362 -0.5466174 0.22648388 -0.3297694 0.42627484 0.19463173 0.35749927 -0.17894806 -0.26800933 0.150736 0.10568866 -0.117615275 0.2968397 -0.35216835 0.40193537 -1.0565958 0.22254512 -0.07297602 0.15616553 -0.6209694 -0.19107592 0.25545374 -0.9195011 -0.28903916 -0.6896396 0.2856621 -0.11187858 -0.30572549 -0.3710651 0.11388688 -0.0037983593 -0.101235375 -0.15796894 0.009675469 -0.2966687 0.11671285 0.04229053 -0.14173064 -0.21415015 -0.5924561 0.30190942 -0.1495242 0.16463985 -0.36830732 -0.1930611 -0.34568998 -0.49996173 0.0025675078 0.50983244 0.046291575
103 0.05321471 0.10134496 -0.21470964 0.24915873 0.21617849 -0.21403421 0.26787755 0.25423142 -0.18312071 -0.094708025 0.079399504 0.055736285 0.21645334 -0.1810155 0.2606115 0.1429462 -0.1838755 0.13550101 -0.0042138966 0.17686138 -0.3688905 -0.2260301 0.103431866 0.0032997325 0.117368065 -0.29954264 -0.31917432 -0.061947044 0.111326665 -0.095926866 -0.17872426 -0.1817511 -0.22043751 -0.32255477 -0.26735806 -0.17937595 0.050009463 0.012920356 0.11919159 0.0045181746 0.073429234 -0.17673942 0.14118719 0.54039526 -0.26040888 0.07296482 -0.2130512 0.23376381 -0.006489766 -0.104972415 -0.32038197 -0.24603927 -0.07186415 -0.24835958 0.27725902 -0.95750564 -0.08783855 0.16749938 -0.09493038 0.16028412 0.18120794 0.11517238 -0.26803955 0.057310518 0.13259757 -0.002696818 0.011876179 0.20436332 0.01405525 -0.2220087 -0.061659954 0.15682322 0.1169606 -0.23328125 -0.117398225 0.0059153605 -0.009629091 -0.15643682 0.020171292 0.060003392 0.20821649 -0.18384358 -0.17099367 0.27622586 -0.18230529 -0.02305726 0.28138384 0.08021327 -0.08866818 -0.099639624 0.28164336 0.042814158 0.1696254 -0.08942773 -0.36102086 -0.12238842 0.22998378 -0.045828987 -0.04236748 0.039982915
1197 0.14777844 -0.45765442 -0.35833204 0.22018929 0.17092985 -0.26431927 0.19017902 0.27069485 0.33575282 -0.72249544 0.3166967 0.13954228 -0.92937183 -0.27287507 0.07548198 0.55674213 -0.3543222 0.5411232 0.1269351 0.36906758 -0.31387752 -0.25932235 0.5358678 0.68917197 -0.31246597 0.17310037 -0.2770433 0.38250253 0.10167966 1.1557665 -0.033043202 -0.215524 -0.37449893 -0.21084106 -0.22729748 -0.1547759 0.2401349 -0.23984313 -0.6577621 0.5178042 -0.5942392 -0.2369011 -0.24277148 -0.20999946 -0.39156103 -0.12489598 -0.14248337 0.3785555 -0.31639144 -0.026213408 0.6212285 -0.4974913 0.20146897 -0.26469147 0.4010981 0.19147167 0.23714045 -0.12101454 -0.2096569 0.1486781 0.16384113 -0.216241 0.31026027 -0.27899244 0.34118438 -1.0003759 0.2546123 -0.15726402 0.11416087 -0.5922716 -0.29449302 0.24958092 -0.86319476 -0.2990555 -0.6901247 0.31965017 -0.07002603 -0.30439508 -0.29844952 0.18521015 0.0012625628 -0.17797433 -0.20454383 0.07397384 -0.26755983 0.10401736 0.1296313 -0.17044345 -0.21110518 -0.5569915 0.24957964 -0.15333147 0.19651572 -0.28596884 -0.14394142 -0.2967897 -0.45761964 -0.041944455 0.443665 0.067305245
