15 100
1 0.0029651027 0.0041667446 -0.00060505816 -0.0048126886 -0.0022775894 0.00441083 0.0015136262 -0.0026722704 -0.003745924 -0.0034127473 -0.0030554465 -0.0036568479 -0.004096739 0.0023656802 0.0036694368 0.00399329 -0.0019634431 0.0011247952 -0.0019787448 -0.0027572385 -0.0018289186 -0.003697215 0.0018689202 0.0034528938 0.0048043253 -0.0042452076 0.0040247533 -0.0047191125 0.001120195 0.0014596132 -0.0029852707 0.0003177011 0.0014522867 -0.0045589735 -0.003462721 0.004888587 -0.0006505331 -0.005079049 0.0017899193 0.002921381 -0.00024133391 0.0035239707 -0.0036319124 -0.0006067541 0.003253098 -0.0009599487 0.0017067355 -0.0028759737 0.00043486402 -0.0022327863 -0.00081111136 0.004367901 -0.0009872912 -0.0028931948 0.0004132078 -0.0022839739 0.0030024315 -0.00039569085 -0.0043143667 0.00070547895 0.0045254147 -0.0041415007 -0.00092402013 0.0034784647 0.002745078 -0.0023743869 0.0017651756 -0.00065847806 -0.0012141151 -0.001604262 -0.0030346855 0.0003167568 0.0008193725 -0.0025157293 -0.0030685347 -0.0027051729 -0.0033089977 -0.0019943211 0.0035788035 0.0031710146 0.0005791424 0.003195981 -0.0016593597 -0.0003976749 0.0013330907 6.470094e-05 0.0013028526 0.004326695 0.0013640636 0.0035309826 -0.0007109561 0.0013408416 0.0042771143 -0.0031466822 -0.0016718368 -0.0028093755 -0.00074093975 -0.0012412925 -0.0043296977 -0.00014139566
2 -0.0035051517 -0.0020499283 0.00079692353 0.0012194109 -0.0011462059 0.004102685 -0.0007752229 -0.00066171854 -0.0027691463 -0.0011241861 -0.004079784 0.0014675352 -0.0007173376 0.0026549683 0.004107735 0.004372597 -0.00474276 -0.0018212306 0.0013979563 -0.0023202386 0.0014580779 0.0044688247 -0.004847799 -0.0008420764 -0.00067775836 0.0007659016 -0.0013275717 0.003398517 0.0026933013 0.004272175 0.002220033 -0.0023293 0.0016534511 0.0030190337 -0.00032854563 0.0017507402 0.003127149 -0.0036140634 -0.0047544865 0.00094031985 0.003431606 0.003679289 0.00079027715 0.003913096 -0.0044001834 -0.003170807 -0.0015616909 -0.00070216 -0.0033759493 0.0025879494 0.0034115624 0.0034432118 0.0049359053 -0.0019684718 -0.0036162045 -0.00290448 -0.0008573311 -0.0011718026 -0.0007890668 -0.004000384 0.0010327484 -0.00041202072 0.003150889 -0.0020881037 -0.000565272 -0.0045691747 -0.0046222745 0.0035555866 -0.0020153327 -0.003932702 0.0014818263 -0.0037327008 -0.0006807508 -4.4893844e-05 -8.325542e-05 0.0034386793 0.0031644693 0.004265764 -0.004622045 -0.0027330462 0.001408984 -0.00092370086 0.0012029667 -0.0049092085 0.0038977913 -0.0024789423 0.0011145158 -0.00041647555 -8.1539016e-05 -0.0013525015 0.004878821 -0.0031735774 0.004264467 -0.0015643692 -0.0009812809 0.0032467248 0.00032528985 0.004010044 -0.0016641145 -0.0008604969
3 0.0049945074 0.003200946 -0.0038821187 -0.0029547731 0.0007132656 0.0014380262 -0.00037472302 -0.00018850822 -0.0042696726 0.002520614 0.0007329294 0.0026023705 0.0019161338 0.0019501746 -0.0038329263 -0.0043768073 -0.0020005428 0.0020992465 -0.00033362908 -0.0017398947 -0.003023775 -0.0035135827 -0.00039262808 0.0036358326 -0.0011309629 0.0040505896 0.00049753464 -0.0008898586 0.0011833956 -0.0030434185 -0.004650521 0.0009560999 0.0049534477 0.004401487 -0.0012391404 0.001458061 0.0041774083 -0.0038682267 0.0048314105 -0.002258831 -0.0028965678 -0.0001595958 0.003402786 0.0012288926 -0.002884309 0.0020885114 -0.0020914583 -0.0035304427 0.00056350545 0.0029948037 -0.004086206 0.0022752718 -0.0042958567 0.002021938 0.0044993917 0.00039538846 0.0034130993 0.0042318944 0.0033436671 -0.0025226218 -0.0005720606 -0.0035488086 0.0012075717 0.0039459975 -0.0046868618 -0.0034088483 0.0041344883 0.0033009707 0.0037777224 -0.002903684 -0.002929368 0.0018056661 -0.003966727 -0.0011356546 0.0021208192 -0.001250017 0.002866016 0.0032288851 -4.816121e-05 0.004606984 0.0024786345 6.607812e-05 -0.0036716338 0.0034899514 -0.0009786526 -0.0039132745 -0.0022507233 0.0047812434 1.19413435e-05 0.0035646374 0.0010298671 0.00023060797 0.0010060215 -0.0016272694 0.00030350217 -0.00031596754 0.004724027 -0.0026638443 -0.002908493 1.1516504e-05
4 -0.0010215675 0.00086929556 0.00311391 -0.0012447857 0.00058942084 0.0045896526 0.00403755 -0.0026826495 -0.0019575087 -0.0042670425 0.0030846668 -0.004367436 -0.0044476343 0.0024943645 -0.0038011882 0.002651139 0.0033657346 -0.004559504 0.004530078 -0.00095577096 -0.0019518847 0.0043922463 0.0016129205 0.0021658603 -0.0012753219 -0.0003677434 0.0036880139 -0.00082431117 -0.002190752 0.0045215436 -0.0049672355 0.0032725674 -0.004958046 -0.0013176185 -0.00030456623 0.0005512675 -0.0008250489 -0.0015521161 -0.0039736456 -0.0019535501 0.0047556013 -0.0027195902 0.0030136008 -0.0009498903 -9.131013e-05 0.0047736103 0.0012018038 -0.003979775 0.0012250049 -0.00019299453 0.0011017941 -0.0023457978 -0.0031417082 -0.0018244714 -3.4238205e-05 0.0045448537 0.0011238767 -0.0040320056 0.0039020486 -0.0019565027 -0.0018518552 0.003207418 0.0013578199 -0.003581714 -0.0033327225 0.0015810811 -0.0022187554 0.001875482 0.0025370482 0.00012498167 5.950551e-05 0.0023442998 0.0048084767 0.0016215105 0.0019179076 0.0020377156 -0.00083265937 -0.0006471872 0.0045809667 0.0012307761 -0.0020594364 0.00045849197 -0.00020786846 0.0032836313 -0.0016275063 0.0046157106 0.0024623391 0.0041494295 -0.0029835817 0.0023884256 -0.0028984512 -0.0019363023 -0.0011185025 0.0028174683 0.0011152297 -0.00084114075 0.002796378 0.0044832127 -0.005008711 -0.002203115
5 -0.0005055944 -0.0022107388 -0.0034481206 0.0021503812 0.0030089905 -0.0021427046 -0.0032378924 0.00070838624 0.0030939004 -0.002586194 0.003189617 0.0008869021 0.00436876 0.0049473178 -0.0045213876 0.002124816 -0.00044113953 -0.0020999508 -0.0019689878 -0.002735169 -0.0049647633 0.003977073 0.0026003388 0.0021021431 -0.0040866667 -0.0022475377 -0.0024167541 0.00035837412 0.002105758 -0.0020759208 -0.0029477628 -0.00016081402 0.0036176206 0.001922838 -0.00015049061 -0.0028554515 0.0021290297 -0.003607394 -0.00085936784 -0.00241807 0.00064315594 -0.003966698 0.0020606301 -0.002203464 0.0013381642 -0.00026141634 -0.0020862315 -0.0019005041 0.0042060846 -0.00446624 0.003956338 -0.0023168884 0.0009903351 -0.0019768102 -0.0045243697 -0.0025906905 0.005013815 0.0041511045 -0.001008599 0.0021182431 -0.0004606202 0.00015154002 0.0015951762 0.0026502444 0.0019552961 0.0031679315 0.0044291313 -0.0008301391 -0.0013103184 -0.004869675 0.0011424497 0.0018484652 -0.003930125 0.0037427384 -0.0009730868 -0.002122858 -0.0009159233 0.004268477 -0.0031224277 -0.0009943094 -0.0036170909 0.0030827934 -0.0011997847 0.0044005704 -0.0016862169 -0.000688951 0.004434325 -0.0012959243 0.00031896128 -0.0042952187 -0.00029637365 -0.0007920318 -0.001937599 0.0026033917 -0.003639118 0.00075596356 -0.002883332 -0.0012315663 -0.0036312237 0.0011601305
6 0.004234919 0.0013471509 0.0021140797 -0.0030457124 -0.0011205508 0.0028221023 -0.00447414 0.004132751 -0.00068492355 0.004158844 0.0033458662 0.0033515668 0.00048042266 -0.0006507916 0.0040787715 0.0030882554 -0.0043138117 0.0033352005 -0.0018086556 -0.002453615 -0.00045016196 8.569306e-05 0.0036529447 0.004194855 -0.004492101 -0.0009494559 -0.00073359 0.0042557805 -0.003066569 9.138898e-05 -0.0033059805 0.004796299 0.004340389 0.0017135323 0.0027064949 0.004486625 0.0014816012 -0.0016537015 0.00040734623 -0.0028423623 -0.004428787 -0.00076179014 -0.0035678018 -0.0042290664 -0.0025725388 -0.0038773734 0.0048894556 -0.003374962 -0.0044248644 -0.0033332284 -0.004841983 -0.0046591894 -0.0034357542 -0.0022431775 -0.004749005 8.697244e-05 0.0025573198 -0.003401712 -0.004982626 -0.0049111843 -0.0040361797 0.0022168534 -0.002470206 -0.0034880366 -0.004599288 0.0008323636 0.0044632065 -0.0031192068 0.004143841 -0.0032026835 -0.0039873314 -0.0039988887 -0.0033569133 -0.004937097 0.0036907273 0.0023208293 -0.000596115 0.0030846777 -0.0014467806 -4.8419504e-05 -0.0008811437 0.0026088771 0.0007728202 0.0043438845 0.0008631573 0.004183294 0.0047112387 -0.00061446737 0.004744408 -0.0011426307 0.0011491512 -0.0046370802 -0.0036862076 0.00046184094 -0.0018621882 0.003443424 0.0016043258 0.001718985 -0.00030442188 0.0008517489
7 0.00022969532 -0.002180195 0.00027828646 -0.0001442387 -0.002533155 -0.0016540732 0.0017259951 0.0014278565 0.0016410112 0.0024451418 -0.0039971517 0.0034039458 -0.004012515 0.002004383 0.00084375654 0.0048330184 -0.00078525214 1.51543945e-05 0.0029330598 -0.0023611402 -0.004542878 -0.001352697 -0.00087709684 0.0006266829 -0.0038750777 0.0013206883 0.002408369 -0.003327459 0.00200203 -0.0039780196 -0.0037900107 -0.0029917432 -0.0008390027 0.0025070347 -0.0038084597 0.0038783622 0.0016052632 -0.0046002823 0.0021184739 -0.0047031413 0.0015623751 -0.0022498954 0.00492306 -0.0038146232 -0.0007545044 0.0026687407 0.0005674058 0.0032619012 0.0022719316 -0.00020943706 0.00027550315 0.00010012479 0.004679142 -0.0049540354 -1.616269e-05 0.0035835484 -0.0025064794 -0.0005726903 0.0029254311 -0.0005795433 -0.0014660844 -0.00050578814 -0.0021736731 -0.0036032011 -0.0016920343 -0.0039624595 -0.003558949 -0.0039813076 0.0043709185 -0.0016753054 -0.003987983 0.0020366882 0.0024567936 0.0043280665 -0.0024981685 -0.0018176114 0.0012015569 -0.0027730414 0.0039541773 0.0042300536 -0.0040606447 -0.0018448975 0.0019328123 -0.0021858867 0.0010716798 0.0042233793 -0.0003813763 -0.0018251204 -0.0009869921 0.0014310548 0.0005733332 -0.00077387947 7.795925e-05 -0.0049849185 -0.0048955427 0.0005373719 0.0024743543 -0.004492593 0.0040880153 0.0024626267
8 0.0036126194 -0.0032914185 0.0039171367 0.0017593186 -0.00086916 0.0024026937 -0.00040942302 0.0045717484 -0.0016780181 0.0036427944 0.0004947125 0.0007576023 0.0012727962 -0.0014926492 -0.00065728626 0.002349931 -0.003566524 0.0031379433 -0.0019361445 -0.0020880073 0.0032616127 -0.0034125876 0.004505932 0.0007427207 -0.003230172 0.0017603452 -0.0018172656 0.00036836957 0.0049608224 -0.0023759308 0.0034356688 -0.0023977836 0.0019217782 0.0024975056 0.0019297304 -0.0014148522 -0.0029372917 -1.2662205e-05 0.000359962 0.004612668 0.0025391395 -0.0028949552 0.0031788112 0.0003998985 -0.0006051302 0.0010187001 0.003180827 -0.002037882 -0.0047411267 0.004287099 0.005001971 0.00261636 -0.0018688219 0.0046456885 0.003965881 -0.002800086 -0.001842884 -0.0022820674 0.00082960917 -0.0037130902 -0.0014394079 0.003978465 -0.00037348486 0.0039353133 -0.0009805294 0.0013278839 -0.004620479 0.0017969816 0.0011402712 0.0012219977 0.002911268 -0.002114582 0.0023080837 0.0020633736 0.0034871597 0.0006498333 -0.0036096002 0.0016408211 -0.003441438 -0.0029851084 0.0040350235 -0.0040676813 0.004242856 9.204678e-05 0.0036663515 0.0041052243 0.0019306613 -0.00048098998 -0.00019184512 0.003719629 -0.0013677274 -0.0030494514 0.003030511 -0.0047406973 0.0018652932 -0.004512041 0.0047402484 0.0009714785 -0.0009642158 0.0011446723
9 -0.003999594 0.00069293566 -0.0028288295 0.0014264092 0.0043001855 0.0036269887 0.004972735 -0.0022683549 -0.004895201 0.004728177 -0.0013234204 0.0032525223 0.0024405888 0.0017809918 0.0024033063 0.0042854003 0.0042598653 0.0030778165 0.00069038844 -0.0042692856 0.0047946707 -0.0024204587 0.0043760813 -0.0035132263 6.12789e-05 0.0047042733 0.0043238746 0.002860296 0.0028805318 0.0025161852 -0.0042645363 -0.0022942468 0.0011584357 0.0036193028 9.53913e-06 -0.00088346936 0.0013809904 0.0017062777 0.0007480735 0.0028952323 -0.0044466113 -0.0017825955 0.0028952383 0.0026365113 0.0007993089 -0.00026744851 0.0012928997 -0.004348765 0.0006968202 -0.004607476 0.0008327095 0.0027195953 -0.0045098457 0.003018674 0.0041462695 0.0023824864 0.002944251 -0.0036174818 -0.0037153354 0.0038463334 0.0029488294 0.0034949288 -0.0021138599 -0.0026712508 0.0014428977 -0.002431631 0.0042350544 -0.003829448 0.0043270793 -9.0862144e-05 0.0044173244 0.0015469131 0.0003892942 -0.003167414 0.0027352308 -0.004983356 -0.0023102113 -0.004901933 0.0022654426 -0.004004213 -0.0006393903 0.0006151956 0.004051467 0.0023919633 -0.0038109547 0.0037281578 -0.0036223955 0.0029695851 -0.00093174365 0.0017633674 -0.0039846236 -0.0044649197 -0.0014509906 0.0012581055 0.004270748 -0.001144124 -0.0012377909 -0.004048276 0.002274543 -0.003305029
10 -0.00095396885 -0.002126702 -0.0003850529 0.0036515554 0.0013395043 0.0024206105 -0.0040960885 0.0003032259 0.0044009043 0.0024895307 0.00087285356 -0.0042290757 0.0047622323 0.0044641662 0.0023853856 0.0043087886 0.00497405 0.004509625 -0.0027941412 -0.0022224747 0.00032190862 -0.0003688566 -0.0048689805 -0.004075667 -0.0032661112 -0.0031011985 0.0017721707 -0.003980156 0.0029455964 0.0034294263 0.00216254 -0.0033918116 0.0037095265 0.0019364184 0.0015875786 0.000700748 -0.0027271407 -0.0017554489 -0.0007641514 0.00011352194 -0.0039072586 -0.0024861959 -0.0048303767 0.003307769 -0.004679428 0.0031695766 0.0022120872 -0.0029940086 0.004843682 -0.0033573206 0.0015356232 -0.003081606 0.0043323766 -0.0027286313 0.004866007 -0.00400474 -0.00017234198 0.00344621 -0.0049834484 -0.0037361889 0.00065421243 0.0013918472 -0.0002616778 -0.0034822763 -0.0047469246 0.003172478 0.0042851414 0.0046505947 -0.003572171 -0.0003137489 -0.003118903 -0.0037237478 -0.0036017825 -0.0021638873 0.003792527 0.004077932 0.0049191643 0.0035222366 0.001950064 -0.0028889258 -0.00056734984 -0.00156905 0.0043112547 -0.004046515 0.0035779392 0.0025025995 0.0028847773 -0.00229295 -0.004212943 -8.987344e-05 -0.00011194767 0.0029164802 0.0009316424 -0.0022883175 -0.00060973404 0.0034812912 -0.0017268 0.0019799792 0.0047660046 0.0043096966
11 -0.0044058315 0.0008137715 0.0012349668 0.0047096307 -0.0032153332 -0.00333074 -0.0008906492 -0.0037891269 4.851602e-05 -0.0003523961 0.0002621618 0.00071624486 -0.0021575706 0.00034731973 0.0038803958 0.0013380311 0.0033947167 0.00091816805 -0.0030897378 0.0021635892 0.0027517423 -0.0012869504 0.0033476704 -0.0021129951 0.0033225976 0.0030775298 0.0009589616 0.0041908603 0.004212334 -0.00057485345 0.003746208 0.0012529246 0.003639351 -0.0038362946 -0.00034702293 0.0021633715 -0.0035313633 -0.0026384285 -0.0027702455 0.0019883357 -0.0027717466 0.0018955668 -0.0032109665 8.8491404e-05 -0.002810772 0.0029076142 -0.0023677724 0.002367126 -0.0021341504 -0.0010070876 -0.0011222207 -0.0025771677 0.0004070959 0.0015253461 0.0009332915 0.0031032178 -8.789899e-05 -3.059402e-05 0.0049325973 -3.1192899e-06 0.00016381821 5.1169794e-05 0.004584828 0.0046997555 -0.004270917 -0.0049484083 0.0035784792 0.00039076537 -0.0015814559 -0.0004732509 0.004212659 0.0008949865 0.0042940388 0.004118494 -0.00023683136 0.0028126228 -0.0019162797 0.0020875558 0.0014284981 -0.0037668138 -0.00293718 0.0047080377 0.0028836734 -0.004569001 -0.0018701849 -0.0023567018 -0.0017780452 0.002625896 0.0001403444 0.0023472207 -0.00033466198 0.002786656 -0.0024356665 -0.0042311377 -0.0028352826 0.004443097 -0.0005831915 0.0026424872 -0.0035882264 0.0039001566
12 -0.004711729 -0.0008558618 0.0018527826 0.0030228558 0.0031507185 0.0032188203 -0.0013849332 -0.003880636 -0.004683425 0.0023182852 -0.0044344254 -0.004353768 -0.00055738783 -0.0021468448 0.004471485 -0.0011565894 -0.0022636876 0.004681701 0.0009164901 -0.0005683906 0.003768996 -0.00036153937 -0.0010004643 -0.00031548765 -0.0014891555 -0.003824108 -0.0048230225 0.003332552 -0.0007950426 0.0035502394 -0.00024223093 0.0015582747 -0.0016911725 0.0047817547 -0.0019099584 -0.0023601942 0.004454218 -0.0036241177 0.0028547905 0.0048145186 0.0007030944 0.0014296613 -0.0046725855 0.004638964 0.004227506 0.001742258 -0.002444623 -0.0030198146 -0.0049236924 0.002254145 0.003094241 -0.0025162965 0.00044484154 0.0026478767 0.004234379 -0.0027437287 -0.0042721913 -0.0021402421 -0.0023988436 -0.0037434474 -0.0032045513 0.0014453464 0.001986086 -0.0020816743 -0.0015734684 -0.0029699847 0.0012592431 0.0005497966 0.00024675878 -0.0037325048 -0.003180509 -0.0009960019 -0.003270654 -0.002985799 0.0017456501 -0.003688631 -0.0034462141 -0.0001868834 -3.3931592e-05 0.00034069872 -0.00425197 -0.004164225 0.0034959246 0.0036665786 0.003982047 0.0010578721 -0.004402868 0.0015264514 0.003579144 0.0046549947 -0.000912873 -0.0017387776 -0.004099243 -0.001170877 -0.0033873082 -0.003513448 -0.0025952712 0.00094185834 0.0027565681 0.0028869212
13 0.002229276 0.0034851027 0.0011106544 -0.0029812146 0.00096073584 0.004983325 -2.982525e-06 0.003470871 0.004856225 0.0022469244 0.0032287273 0.0015976701 0.0034602964 -0.0001455028 -0.00060717226 0.0032900139 0.0009948203 0.0012512825 -0.0023659149 0.0042016967 0.0037733628 0.004114084 -0.00060133106 0.0047231545 -0.0013886106 0.004289665 -6.0103896e-05 0.0021327827 -0.0008201702 -5.0572668e-05 0.0030929504 -0.0017044162 -0.0043145036 0.00010057239 -0.001341143 -0.0022603897 -0.0032139192 -0.0008085486 0.0016226858 -0.0026393214 -0.0023640972 -0.00035763063 -0.0022490325 -0.0047532558 0.004078316 -0.0031974604 -0.0015805754 -0.0036949306 -0.00012645137 0.0030028636 -0.0011637417 0.003920675 0.0029839633 0.0006828147 -0.00222508 -0.0004835034 0.0021119367 0.0034374387 -5.822786e-05 -0.0035263887 0.0031314385 0.000573927 -0.0018958666 9.801816e-05 -0.00068813935 -0.003176458 -0.0023882885 -0.002384244 0.003178748 -0.0038295162 -0.004888876 -0.0009990501 0.0043745367 0.0024795646 -0.0040279906 0.003788067 -0.0043595564 0.0026297478 0.0030845338 -0.0015768767 -0.0008967653 -0.0037151524 0.0013707292 -0.0031440603 0.0032883042 0.004988888 0.0009847526 0.004944159 0.0038594017 0.0032064174 -0.0029685732 0.004783089 -0.0018806836 -0.00039276778 0.0036636575 0.00248773 -0.0021955746 0.0026040259 0.0008419022 0.004647778
14 -0.0027365931 0.00385684 0.003755588 0.0024110463 -0.0039865277 0.00086540525 -0.0035409185 9.818373e-05 -0.0011441765 -0.0050024446 -0.0016895754 -0.0013933568 0.0022620277 -0.0014580694 -0.003546679 0.0027212494 -0.0011703492 -0.003916878 -0.001618705 -0.0047194073 -0.0039328025 -0.0017781716 -0.0043927715 0.0031456966 0.00224827 -0.0014487054 0.004472611 -0.0047756243 0.0037490658 0.0037387807 0.0038185713 -0.0008862917 -0.0042266757 0.0033276074 -0.0003687464 -0.0041934573 0.0038981216 0.0002693964 -0.0003764263 0.002180819 -0.0004282357 -0.0027347456 0.00441534 -0.00010096586 0.0016973302 -0.0019642978 -0.0009830426 0.0048501086 0.0028924656 0.0017646942 -0.00091318594 0.000760745 -0.0020647321 0.0049727033 0.004713673 -0.0033057067 0.0012617207 2.5170955e-05 -0.004195521 0.0045361617 0.004175391 -0.0045169787 -0.004521887 0.0040772515 0.0047648167 -0.0033505182 -0.004422518 0.0035546115 0.00026278233 -0.002357218 -0.0012022393 -0.0033607644 0.0026022755 -0.0012829271 0.002095686 0.0036262507 6.349188e-05 0.0018523865 -0.0017443267 0.0018993005 -0.0046093888 -0.0019242109 -0.004516137 -0.00044182956 -0.0033200455 0.0015753441 5.97263e-06 2.5454387e-05 0.001893321 0.002266423 0.0010471148 -0.00032656448 0.0022272202 -0.0043382556 0.00052707054 -0.0013834448 0.0020047496 -0.0022891425 0.004340388 -0.0024332518
17 -0.004301917 -0.0037943912 0.0020802424 -0.003863729 0.00428224 -0.00091901596 -0.003489559 0.001215359 0.00283962 0.00033321735 -0.0047501232 -0.002114599 -0.0040991837 0.0042738696 -0.00044735553 -0.0022313152 -0.0047600847 -0.0029138539 -0.0027066625 0.0012659013 -0.0001761837 0.0042341556 0.0031236794 0.0044764774 0.00395397 -0.0034823127 -0.0026175599 0.0041449587 -0.0045788833 -0.0038698574 -0.00366043 0.0015863596 -0.0011019964 -0.004056013 0.0022620808 -0.00064638053 -0.00042208657 -0.004457572 0.0042861393 -1.4221474e-05 -0.0032209083 0.00076342473 0.003188464 0.0030162532 0.0012787208 0.0016570629 0.0022614263 0.002227469 -0.0039560036 0.0010578859 0.0017995537 0.0017570272 -0.004125768 -0.0036314174 0.003363576 -0.0005674855 -0.00056650693 0.00065257837 -0.001188686 0.00097572553 -0.0020259034 -1.4333307e-05 0.0006585919 -0.0047767702 0.0044376496 -0.002704509 -0.001519306 -0.0045320475 -0.001870707 -0.0014926516 -0.003991763 -0.0015807684 0.0024451131 -0.0012471485 0.000936371 -0.0036936947 -0.002560081 -0.0010556099 -0.0015979602 -0.0037228134 -0.0026543995 0.0015030318 -0.0036935185 0.004487164 -0.0007654588 0.003280894 0.0039268415 0.0031149122 -0.003254589 0.0029321767 -0.0049624504 0.0016167253 -0.003372329 0.003421154 0.0006889794 0.0043614893 -0.002197282 0.0048811613 -0.0026049963 0.00041466238
