2191 100
0 0.207865 -0.03620266 -0.20816016 -0.21694967 -0.09116307 -0.4986659 0.159496 -0.32944903 0.3251453 0.38324156 -0.133323 0.24555483 0.04974168 0.49990818 -0.07309987 -0.1789936 -0.23191978 0.15341902 0.0008916976 0.30187505 -0.20664304 -0.062331922 -0.21250334 0.22508138 0.09447726 0.2280272 0.07484722 -0.016858175 -0.0076006833 -0.09602973 0.002937018 0.059601117 0.22337069 0.07691586 -0.07256608 0.018434782 -0.29573673 -0.22750454 -0.0950459 0.21422106 0.13460359 -0.2004471 -0.0015387869 0.0088127265 -0.111673824 0.051049262 0.12808935 -0.092975564 0.23890501 0.06646457 0.23301642 0.13737838 -0.18731572 0.12650727 0.0667627 0.24208544 -0.18682116 0.19499603 0.24862349 -0.061085563 0.21353704 -0.14867812 -0.049077455 0.056338698 0.028349362 -0.14062962 -0.07292367 -0.15128185 0.0060079233 0.16417 -0.3542255 -0.009463505 -0.10979761 0.14344019 0.11518505 -0.19000022 -0.17432982 -0.09924146 -0.32575545 0.33677045 0.07351142 -0.10192541 0.19633037 -0.13284619 0.18707828 -0.13431849 -0.15035924 0.0582088 -0.30956617 -0.22745594 0.047158465 0.16389208 -0.020225894 0.058375474 -0.024878299 0.019476274 -0.4681036 0.26708674 0.0055127717 -0.03240312
1611 0.24662893 -0.066237755 -0.19600622 -0.34029892 -0.049267977 -0.56694967 0.31989568 -0.56474453 0.28756765 0.37990293 -0.17948104 0.34006763 0.10235631 0.5049887 -0.13193735 -0.11246917 -0.12304482 0.13552904 -0.046610035 0.42091325 -0.38191774 0.02257817 -0.24626604 0.2074696 0.084157854 0.222224 -0.04938361 -0.10203055 -0.011269647 -0.13601634 0.20482865 -0.027460907 0.1706298 0.035634596 -0.12447261 0.07285005 -0.34230444 -0.21781643 -0.20025168 0.15901358 0.25025335 -0.12898065 -0.08258147 -0.07213482 -0.29756194 0.09006095 0.074942656 -0.13631816 0.1655671 0.03534573 0.26494282 0.086375654 -0.15333036 0.07211036 0.0006271282 0.11918393 -0.12109483 0.18172097 0.36576575 -0.08151275 0.20475802 -0.15571353 -0.042006567 0.11243515 -0.056079175 -0.10791558 -0.1410941 -0.032000717 0.05899801 0.052651554 -0.41277164 -0.13732648 -0.2237344 0.16166592 -0.008304914 -0.21275756 -0.202483 -0.18508002 -0.35831207 0.18758424 -0.13062353 -0.14881568 0.32611442 -0.20014063 0.12044571 0.010222311 -0.23253943 0.1884954 -0.5272355 -0.13736637 -0.048578147 0.31617463 -0.23212342 0.24245116 -0.10641904 -0.053690035 -0.38015035 0.043796428 -0.042524014 -0.16947518
553 0.16371362 -0.0666012 -0.12155119 -0.124810405 -0.09407976 -0.285583 0.12546447 -0.15775612 0.18836625 0.12932803 -0.09986799 0.06666482 0.14267808 0.2547096 0.06619695 -0.17238899 -0.014499702 -0.10889319 -0.127242 0.23637635 -0.2799524 0.3279066 -0.09991022 0.21403186 -0.03837323 0.04955942 0.021192648 -0.1762241 0.070559464 -0.1275741 0.2330684 0.21736234 0.111962266 0.0454318 -0.1624168 0.10473277 -0.18559068 -0.14160293 -0.082940005 0.097193 0.11710648 -0.2285493 -0.052225497 -0.17853287 -0.06459174 0.051055398 0.19273712 -0.1509639 0.05539902 0.075163245 0.2909119 0.061819173 -0.078246415 0.053858895 0.026607348 0.17223567 -0.05020862 0.10910456 0.22094835 -0.07343168 0.15726858 0.06573579 0.091366366 0.059569146 0.13422598 -0.11964026 -0.017080728 0.025735555 0.006897674 -0.0017646715 -0.3717125 0.117676124 -0.13429298 -0.004727315 -0.16396724 0.0052325684 -0.029924555 -0.1850639 -0.2157096 0.12539355 -0.007679961 0.008970271 -0.010508405 -0.2252413 0.08591949 0.018462433 -0.114483856 0.08440535 -0.3150226 -0.17945427 -0.059313785 0.13623145 -0.11025211 -0.049013022 -0.20657702 0.05496218 -0.2820336 -0.07674714 0.06766109 0.08488912
554 0.015136376 -0.30527046 0.080040336 -0.029244458 0.02407972 -0.5937503 0.18219204 -0.32151034 0.31062588 0.29966408 -0.25519663 0.2659306 0.086996116 0.45809326 -0.15762083 0.015864715 -0.13693184 0.048010264 -0.08732521 0.29685095 -0.38106853 0.16547985 -0.21537003 0.2214967 -0.03980033 0.2587826 -0.010501263 0.036801152 -0.03897921 -0.09861113 0.23893534 0.1021237 0.20818932 0.14766338 -0.16622074 0.123447075 -0.27405092 -0.21721093 -0.36502174 0.38512716 0.23004192 -0.12775336 -0.07163384 -0.14960632 -0.23572588 -0.065644495 0.13217162 -0.18968879 0.17861634 -0.118784845 0.41401055 0.054220203 -0.24763556 0.07714764 0.000808888 0.28666586 -0.32577726 0.34092942 0.44509915 -0.028123617 0.42803437 -0.25293997 -0.059260778 0.17947763 0.0062384857 0.058082007 -0.16023816 0.04450643 0.058098156 0.0010788551 -0.26910046 -0.18940185 -0.20008445 0.118644826 -0.01655698 -0.13643157 -0.21847534 -0.30341882 -0.30376992 0.14584115 0.044562776 -0.29302105 0.33357233 -0.13281974 0.12665515 0.03292561 -0.10347923 0.16911058 -0.5151251 -0.17195797 -0.0042067682 0.12770702 -0.20661736 0.32079375 -0.22779408 -0.07309243 -0.59856445 0.18405274 0.07317587 -0.2158287
1614 0.1353571 0.04208142 -0.17948338 -0.024738677 -0.043925926 -0.13691528 0.2642496 -0.32869738 0.30114692 0.19097629 -0.1394743 0.14727937 0.14121695 0.3584193 -0.025371403 0.019608777 -0.21264261 0.05108994 0.026049165 0.30550092 -0.11085064 -0.037447292 -0.05034839 0.14806934 -0.011729385 0.21325307 -0.059970975 0.21007691 -0.051836774 -0.0708334 0.1767351 0.08801248 0.38245955 0.010884025 -0.042869084 0.041442297 -0.37198204 -0.22564116 -0.13816534 -0.07583419 0.10788513 -0.08522787 0.11225381 0.03963686 -0.12527125 0.024458356 -0.017507339 -0.15240608 0.029834522 -0.0491016 0.3390618 0.008062547 -0.17717007 0.16012846 0.12577644 0.15556097 -0.30819723 0.05110645 0.20768358 -0.21613911 0.28276023 -0.21788 0.07759398 0.3303712 -0.16900183 -0.05471952 -0.10673176 -0.1466268 -0.07544783 0.24437748 -0.22373457 -0.10253679 -0.03104362 0.2518682 -0.056704853 0.1903016 -0.12114583 -0.18893446 -0.13639064 0.24594462 -0.01448056 0.062392145 0.22781232 -0.16819339 0.14677739 -0.10394101 -0.20449142 0.08071565 -0.26189172 -0.24832802 -0.05223671 -0.055837654 -0.0317331 0.009260599 0.009824092 -0.037670724 -0.4115224 0.13579045 0.13649541 0.033279207
1615 0.26037642 0.07096985 -0.08091441 -0.27124238 -0.14278908 -0.2767841 0.13006248 -0.3074249 0.3134201 0.14806119 -0.21399027 0.26130268 0.12005441 0.34403098 -0.02586404 -0.21410966 -0.12349538 0.023694728 -0.2166842 0.07590709 -0.34537426 0.03082148 -0.099695995 -0.03569528 -0.17147744 0.022469983 0.11421726 -0.09565707 -0.12159272 -0.18001257 0.34769 0.26355228 0.17385362 0.034946203 -0.07900254 0.25337282 -0.0022581005 0.039805766 -0.13695249 0.23663627 -0.05122916 -0.15284954 0.10173415 -0.006695678 -0.042231247 0.0088811265 0.019780025 -0.08353433 -0.06292744 -0.0141758835 -0.08724545 0.038297072 -0.15856214 -0.12287224 0.106479086 0.18463251 0.027157357 0.09329304 0.22228676 0.07023248 0.14824882 0.049699184 0.16440564 0.040113278 0.20111096 0.16927713 -0.11882672 -0.054047357 0.06871114 0.14459749 -0.3167268 0.04402433 -0.15130864 -0.071576014 -0.06244611 -0.017241191 -0.020507213 -0.25852352 -0.25813836 0.35965794 -0.080047905 0.07044717 0.030795118 -0.17237455 -0.0066550476 -0.05884031 -0.1608909 -0.0039258576 -0.2600853 -0.021655167 0.13376653 0.072947785 -0.016266061 0.16374941 0.04956499 0.044518385 -0.07705106 0.005198715 0.075302705 -0.20526052
368 0.13227925 0.04100099 -0.13186413 -0.25937694 -0.086197324 -0.27171916 0.2204191 -0.330192 0.1457676 0.25806633 -0.17756094 0.19090717 0.20796336 0.29082406 0.1077681 -0.21692097 -0.23043191 -0.04846812 -0.119030595 0.17927691 -0.23074389 0.11080354 -0.27622235 0.3268336 0.05106892 0.22675581 0.0733896 -0.01884626 -0.10084424 -0.06222489 0.10484345 0.057886567 0.2080222 -0.10222198 -0.11354856 0.1337901 -0.18128327 -0.13294934 -0.064207986 0.06490312 -0.008458424 -0.23139736 0.027852604 -0.109888814 -0.24001983 0.12710792 0.18407604 -0.19509102 0.056902654 0.03430387 0.27427328 -0.061418626 -0.17075375 0.12169359 0.11890929 0.09717393 -0.15206891 0.040784948 0.21562363 -0.16680135 0.135933 0.006261891 0.08985187 0.3656469 0.0018536117 -0.109903716 -0.054269075 0.038417112 0.07323127 0.011486057 -0.301787 -0.07868415 -0.22976655 0.09941918 -0.006462003 0.08139747 -0.11301369 -0.13988742 -0.22425683 0.111711025 0.027869903 -0.22420351 0.2351869 -0.17986259 0.1402312 0.01589314 -0.10344295 0.15491784 -0.30352843 -0.16331911 0.072659835 0.043131985 0.07524046 -0.005406599 -0.21421793 0.006680354 -0.55689514 0.0026162737 -0.011436806 -0.19474727
1093 0.22174287 0.03262527 -0.0040706624 -0.12897414 -0.1417051 -0.23881342 -0.11948943 -0.1804106 0.12147059 0.18860884 -0.16559106 0.073059 0.22364138 0.25301704 -0.04746432 0.046270274 0.1751105 0.040821165 -0.035448033 0.1734281 -0.24708815 0.038517084 0.047495905 0.20992084 -0.20848708 0.056344368 0.18722676 0.0046285014 -0.10651446 -0.24070014 0.018600557 0.03229211 0.28252336 -0.0074177734 -0.11071458 0.060252655 -0.030996494 0.055768583 -0.110030465 0.27791008 0.12097458 -0.25394416 0.15581056 0.014376109 -0.08806219 -0.002417591 0.24433917 -0.019436069 0.08264751 0.043423228 0.14923452 0.020171106 -0.0071017733 0.029823396 0.11858173 0.20413262 -0.17310232 0.23340762 0.2619618 0.08289061 0.100350514 0.089651175 0.17011744 0.041807327 0.075286105 -0.051817995 -0.24818397 -0.051338263 -0.022588218 0.1147697 -0.24392922 0.19620372 -0.15820678 0.1383006 -0.0158684 -0.11374295 0.10676854 0.060432084 -0.27430984 0.17853223 -0.14846624 -0.078295134 0.074335866 -0.123010844 0.07499373 0.09642936 -0.23233911 -0.026447082 -0.27462804 -0.09900614 0.10308028 0.08480563 -0.14431302 0.11893465 0.0043366584 -0.07324873 -0.49747658 0.1963068 -0.08384706 0.041071806
780 0.13759667 -0.029093135 -0.120175935 -0.4483787 -0.010411972 -0.41973588 0.3139634 -0.52352303 0.4551402 0.2511763 -0.022002235 0.16863605 0.17899655 0.49396336 -0.034121495 -0.16260406 -0.04093042 0.1698808 0.06441274 0.4768315 -0.33617732 -0.030482132 -0.25656742 0.29990646 -0.0059343567 0.26746842 0.0670308 -0.12184503 -0.034989353 -0.03355403 0.16620407 0.20380089 0.19000284 -0.046163145 -0.19338763 0.08891332 -0.39254338 -0.36124516 -0.05573795 0.067706265 0.27848577 -0.23319349 -0.015550268 -0.008719384 -0.25538945 -0.04619468 0.06488023 -0.1893065 0.27183238 0.044820998 0.27394143 0.054111235 -0.09616576 0.07022713 0.16172123 0.18209387 -0.17595513 0.058974955 0.19570085 -0.15621972 0.2951871 -0.2828193 0.06011336 0.11308983 -0.050810006 -0.2167641 -0.042493567 -0.0005861218 -0.04630921 0.16276728 -0.28573215 -0.062227547 -0.09996048 0.1737657 -0.04470299 -0.0944386 -0.26531488 -0.20353982 -0.47534916 0.17419642 0.09227771 -0.24134336 0.23749119 -0.2576088 0.06559602 -0.12105454 -0.26181003 0.21232527 -0.50648874 -0.29711166 -0.016324934 0.18276878 -0.13246486 0.07939845 -0.1569533 -0.27071598 -0.33724323 0.05793591 -0.007906603 -0.037769053
1622 -0.013856937 -0.16754676 0.10962286 -0.005103709 0.22353892 -0.26425233 0.34000078 -0.1365082 -0.012999598 0.16621007 -0.007413001 -0.103142954 0.029189253 0.10587014 0.14425199 -0.1602125 -0.10917087 -0.060225744 0.034773435 0.30566677 -0.3396088 0.13410264 -0.248459 0.21142918 -0.06540311 0.13204597 0.14839968 -0.14846197 -0.07435681 -0.07846247 0.28098115 0.24799812 0.28158903 -0.060637277 -0.17342658 0.22588295 -0.2846209 -0.17668124 -0.09562111 0.068040356 0.13045837 -0.35915256 0.064333476 -0.19335353 -0.10031224 -0.01369094 0.2293575 -0.23352733 0.18056661 0.054021623 0.38241094 -0.016687088 0.025315609 0.1547409 -0.004641344 0.23036936 -0.19217482 -0.06848979 0.20361474 -0.0788345 0.26437882 -0.028582174 0.07284489 0.20237903 0.069854304 -0.037664223 -0.05071728 -0.015687348 0.12926726 0.0765255 -0.42946678 0.05576109 -0.15426572 0.0019010974 -0.20962486 0.08021825 -0.25457427 -0.41915822 -0.34398398 0.13709617 0.19197492 -0.071655616 0.30096555 -0.21183652 -0.034307756 0.0007282513 -0.14611605 -0.07281746 -0.4939656 -0.24309686 -0.044832442 0.15184721 0.0061975443 -0.18120776 -0.27386895 -0.07560079 -0.355973 -0.1499341 0.023958646 -0.10580095
1099 0.18385464 -0.20093413 -0.101748206 -0.27982908 -0.057315942 -0.53712 0.32711557 -0.46831667 0.25190812 0.36022973 -0.25545973 0.29235297 0.20967478 0.53992105 -0.16737872 -0.073649526 -0.10776935 0.17856811 0.07557336 0.3292354 -0.22958083 0.015091709 -0.18702187 0.28162625 -0.12510136 0.23094445 0.1561289 0.023647 0.013066118 -0.1187456 0.08556562 0.11660954 0.32092768 0.062372413 -0.08941717 -0.04891403 -0.28501126 -0.24817687 -0.17651078 0.20730065 0.29459962 -0.124360174 0.017400326 -0.03826061 -0.3554591 -0.0037240428 0.10637912 -0.008877947 0.33845288 -0.014684219 0.34136546 0.026636232 -0.155169 0.17156835 0.1862733 0.128659 -0.39744377 0.30326012 0.36301848 -0.12960072 0.33656174 -0.30259147 -0.06349844 0.10138289 -0.19679445 -0.0780689 -0.083803914 -0.19173482 0.037879705 0.1580837 -0.2619798 -0.21227995 -0.19063386 0.23965266 -0.027780281 -0.26396838 -0.18507577 -0.08163005 -0.14524046 0.07989338 -0.024424812 -0.39660618 0.40321407 -0.06687633 0.21418242 -0.10141056 -0.24364117 0.12815985 -0.5900843 -0.19015157 0.003993352 0.10755058 -0.21632233 0.33688653 -0.19099574 -0.03301396 -0.5160959 0.1783772 -0.104338326 -0.052053925
1626 0.1782833 -0.10898452 -0.07740028 -0.31670478 -0.17860372 -0.6232445 0.30784148 -0.33973974 0.16821007 0.47402415 -0.16544822 0.26710546 0.21363392 0.47150722 -0.13706088 0.08778635 -0.19120869 -0.08222624 -0.0073571038 0.3513346 -0.350524 0.022031808 -0.3272421 0.24449882 0.04833277 0.18573304 -0.025453355 0.09801473 0.0012208432 -0.056095548 0.1965167 0.058560133 0.44575462 -0.07453653 -0.12440903 0.09025953 -0.32752803 -0.28669345 -0.04827586 0.15246426 0.15179601 -0.23312141 -0.054624572 -0.14420466 -0.32043839 0.0109663345 0.24622007 -0.23158956 0.23342203 0.037940063 0.5418386 0.076408245 -0.20972307 0.2365749 0.1106598 0.23166202 -0.26149166 0.20198163 0.4793524 -0.11530323 0.3821822 -0.15109496 0.07529349 0.17532167 -0.18015344 -0.25356308 -0.14268045 -0.0246179 0.08769566 -0.0724724 -0.38375908 -0.29640916 -0.33447686 0.26445976 -0.028726831 -0.1968541 -0.21893594 -0.18245663 -0.2908348 0.14920512 0.0121270325 -0.3276475 0.3259821 -0.2953539 0.053782813 0.095910214 -0.20885716 0.20941016 -0.56825167 -0.23012827 0.04554018 0.03542548 -0.13364942 0.2853506 -0.09993985 -0.29181954 -0.31765088 -0.016333506 -0.061671406 -0.17039977
73 0.10333624 -0.38508758 0.032437313 -0.12188249 0.07851088 -0.6301312 0.36910933 -0.39670673 0.31109047 0.28714618 -0.25159532 0.3049885 0.16536587 0.44464532 0.0900823 0.071273394 -0.054352343 0.049727425 -0.027992895 0.35442302 -0.46145344 0.14757949 -0.20154919 0.29702324 -0.13740538 0.15818028 -0.04288294 0.040407334 0.061156254 -0.11260887 0.23046812 0.11411871 0.24114616 0.05787886 -0.04297977 0.057424333 -0.23056065 -0.22276244 -0.18097205 0.2031863 0.27907965 -0.17199056 -0.050555702 -0.07922046 -0.25233737 -0.08134456 0.07910822 -0.060315967 0.1838653 -0.098396376 0.368019 0.11650182 -0.055963915 0.1932785 0.17247546 0.19280165 -0.32003462 0.3515827 0.50453866 -0.036892302 0.4045471 -0.24073376 -0.07009313 0.011088542 -0.12086948 -0.023673927 -0.16836713 0.004894133 0.07690779 0.06640989 -0.36380243 -0.11522067 -0.26893535 0.16850954 -0.042321496 -0.3356304 -0.17077118 -0.21102297 -0.22595537 0.11989708 0.112046644 -0.41001743 0.22753885 -0.11422054 0.08969227 0.07059254 -0.21028553 0.12441431 -0.68419373 -0.29912895 -0.047586653 0.07765211 -0.33175313 0.29520983 -0.2927728 -0.25162268 -0.5815056 0.20899329 -0.03489839 -0.1261048
1353 0.15469697 0.019507954 -0.035956874 -0.085811585 -0.3995627 -0.1831264 -0.26311678 -0.09324355 0.20805968 0.21455474 -0.20481555 0.15712595 0.12507854 0.22959344 -0.1337393 0.022944326 -0.020453276 0.08351948 -0.26888618 0.20478627 0.07118227 -0.035304815 -0.108262904 0.111417025 0.17491488 0.12176682 -0.071982324 0.017067013 -0.18216 -0.031746887 -0.017800162 0.09970729 0.26021355 0.19937892 -0.13428412 0.16446613 -0.021219324 0.31977236 -0.2679898 0.29710627 0.0041466597 -0.2096933 0.17488863 -0.23942111 0.17424689 0.19684294 0.2633688 -0.19998156 0.22067468 0.014661406 0.24653782 0.01576919 -0.2631321 0.06951323 -0.052022256 0.38615292 -0.13186093 0.32601783 0.17507437 -0.06056392 -0.10337166 0.20733319 0.1602168 0.17278515 0.27333298 -0.224988 -0.22207066 0.0071368553 0.05548646 -0.073262475 -0.18827954 0.22561166 -0.24218255 -0.01766465 0.12086742 -0.08007679 0.0925828 0.02661369 -0.1172078 0.09774932 -0.18510342 0.10665207 0.25757456 0.025339285 0.027898507 0.1901905 -0.22481261 0.07663607 -0.24869198 -0.01910681 0.18529014 0.24929959 -0.066234395 0.0924252 0.21868412 0.021609826 -0.03335592 -0.06094485 -0.09765396 -0.053265348
1906 0.14597876 -0.117773175 -0.099765815 -0.25578415 0.0058181547 -0.5844775 0.2778653 -0.3933665 0.29760036 0.37392473 -0.20103142 0.2141338 0.07750847 0.5713843 -0.20528491 -0.08836525 -0.077084586 0.045741197 -0.038682673 0.47044927 -0.45290375 -0.06902281 -0.2166025 0.22870946 0.046818297 0.24198085 0.020371877 0.009548172 -0.05045599 -0.17108925 0.18165302 -0.026267787 0.21319678 0.010743066 -0.116972946 0.09624333 -0.4438626 -0.31831303 -0.26019734 0.20941421 0.23188505 -0.26100087 -0.055735353 -0.12522238 -0.22159438 -0.1453017 0.021798216 -0.16497752 0.26669133 -0.01140993 0.36712447 0.111786224 -0.18152906 0.023673689 0.01845941 0.22560038 -0.2364211 0.032881137 0.43571454 -0.10319204 0.29640245 -0.20223282 -0.05784633 0.08350104 -0.09362622 -0.22718123 -0.10837761 -0.035895392 -0.024543688 0.15624006 -0.49092555 -0.046027206 -0.21323365 0.16631842 -0.16347076 -0.1020652 -0.23087972 -0.2894634 -0.5573982 0.19278711 -0.013387618 -0.16660939 0.33517542 -0.23891194 0.055758536 0.024031615 -0.16770317 0.18739307 -0.65229756 -0.21259251 -0.01946932 0.26404926 -0.14041424 0.084276326 -0.17262131 -0.078990094 -0.26049262 -0.05043823 -0.122125335 -0.03356406
523 0.22412339 -0.16636221 -0.21281938 -0.16775173 -0.20277283 -0.115733884 -0.17109464 -0.03312346 0.21395785 0.06488059 -0.21842904 0.23393375 0.2588392 0.14716238 -0.010515109 -0.04125194 0.086858645 -0.07693666 -0.17629509 0.19281323 0.18525442 0.24363083 0.025194442 -0.0041600955 -0.14568217 0.031519163 0.1197743 -0.23527384 -0.07509797 -0.14158311 0.1468855 0.24424957 0.42732054 0.15906812 -0.35557455 0.29708254 -0.015997214 0.17664781 -0.17163977 0.46024108 0.22654258 -0.16284057 0.16446637 -0.14087622 0.16607906 0.079702675 0.25544122 -0.2697534 0.16125537 0.07918355 0.21637893 0.11241661 -0.045894787 0.010678717 -0.034576453 0.21159463 0.0764078 0.18342818 0.14846645 0.036896635 -0.054426335 0.07923355 0.09629368 -0.012702993 0.22502589 -0.06226381 -0.24041122 -0.08148127 0.08098701 -0.08330765 -0.082553014 0.17597575 -0.17568791 0.051424205 0.10563605 0.003891377 0.14759639 0.03259006 -0.20162548 0.30139944 -0.016227962 0.116929784 0.033974722 -0.13298595 0.076168135 0.02180984 -0.10583912 0.16002156 -0.118505575 -0.013522861 0.18523672 0.19963565 -0.015373394 -0.042350028 0.054736223 0.13045017 -0.2574128 0.16547914 -0.08289358 0.0056785587
572 0.055497393 0.08050297 0.053778574 -0.09324657 -0.16101062 -0.18187542 -0.06698141 -0.096434064 0.26452512 0.23277082 -0.21127522 0.19120654 0.07018735 0.14982155 0.026195085 -0.05961225 -0.20288548 -0.024037782 -0.10830388 0.08849476 -0.0210332 0.091169655 -0.1988477 0.13772324 0.009392396 0.013043431 -0.029719988 -0.043072682 -0.07312787 -0.102869846 0.0017350676 0.04961335 0.114570744 0.10418051 -0.09775549 0.09325022 -0.04004391 0.09169395 -0.09442985 0.24955224 -0.079728015 -0.27190164 0.108923815 -0.07042977 -0.06113417 0.16970028 0.3126748 -0.24679798 0.015280772 -0.06507057 0.29894543 -0.09921537 -0.2420543 0.11924488 0.011975108 0.26767075 -0.22194783 0.12680689 0.25560623 -0.09070481 -0.013705557 0.17944072 0.15137291 0.15445784 0.12639883 -0.056084834 -0.24682947 -0.053309996 0.14879507 0.04796503 -0.22436988 0.11157744 -0.11123135 -0.021186313 0.11953209 -0.061338164 -0.10961496 -0.043187637 -0.3011762 0.2532541 0.13637707 -0.06705621 0.2150327 -0.094378665 0.04252636 -0.109905526 -0.1477828 0.14664985 -0.21883497 -0.20420201 0.06500393 0.14254583 0.15039551 0.08230945 -0.02058521 0.030888991 -0.23275477 -0.012628977 0.045655813 -0.14366065
1107 0.04486787 -0.16344334 -0.10439894 -0.3258765 -0.06523508 -0.42275372 0.13689779 -0.26805457 0.23587298 0.245957 -0.22522649 0.31456268 0.17140885 0.3902079 -0.10228042 -0.051628724 -0.25825423 -0.023501178 -0.08729832 0.14404975 -0.32749757 0.17111741 -0.3392461 0.26849195 0.10111511 0.16309041 0.08968556 0.054509465 -0.12836498 -0.23371023 0.14023547 -0.010502571 0.4224697 0.048155293 -0.05720012 0.21789768 -0.18201663 -0.020092424 -0.11303022 0.2535981 0.22622514 -0.28391355 -0.008590598 -0.12831385 -0.22182527 0.058332738 0.2642423 -0.19604115 0.12370827 -0.00802022 0.4090303 -0.07147952 -0.16987613 0.032383803 0.09497598 0.23448724 -0.2847404 0.14705084 0.30344218 -0.13168845 0.124991976 -0.15523237 0.016477404 0.24210256 0.04492984 -0.11140704 -0.035717763 -0.006791857 0.16061763 0.11142111 -0.32567486 -0.10952913 -0.18765447 0.14011255 0.039752614 -0.0968316 -0.2411355 -0.12848482 -0.23120105 0.0986367 0.022158977 -0.31546628 0.18374921 -0.09565682 0.17907713 0.045402016 -0.0381274 0.22566822 -0.35038483 -0.028991904 0.0140614575 0.09167776 -0.025021967 0.18604894 -0.073479526 0.04375012 -0.6200427 0.18440406 -0.008154517 -0.18069305
1638 0.09246987 -0.0836571 -0.06821136 -0.34184694 0.026568789 -0.5599062 0.15215103 -0.2648859 0.23616934 0.44863868 -0.25036317 0.35698777 0.026520934 0.53874135 -0.11951278 -0.20701759 -0.1617714 0.15183704 -0.0678461 0.230098 -0.39798915 0.107015215 -0.21294501 0.2433908 -0.17204612 0.1808725 0.13408612 -0.048320554 -0.22369051 -0.18365027 0.21267088 0.19234765 0.16839501 0.08816396 -0.15993847 0.30323842 -0.25332284 -0.1553668 -0.1875167 0.28632492 0.13007483 -0.14447697 0.021584159 0.02774593 -0.2477344 -0.036962453 0.1171458 -0.1185644 0.114494115 -0.051766817 0.16288696 -0.036934998 -0.2743392 0.05108253 -0.004788317 0.11811749 -0.2593062 0.1580811 0.3909647 0.06929637 0.35661584 -0.038778212 -0.009999547 0.034568414 0.116581656 -0.047535866 -0.067333944 -0.00022299348 0.15928549 0.016572796 -0.29359287 -0.16406745 -0.27513197 0.14081985 -0.057765353 -0.1439387 -0.22120585 -0.2508732 -0.44648808 0.2051038 -0.15651564 -0.1805692 0.2576883 -0.26957804 0.062020276 0.02403041 -0.12131528 0.1537523 -0.48858002 -0.1183443 0.022578409 0.15812048 -0.124520645 0.32239175 -0.09625948 -0.13158748 -0.28374112 -0.0050691515 -0.077926315 -0.24001668
1639 0.27501056 -0.28478485 -0.15030973 -0.094410546 -0.018984217 -0.42521536 0.23597904 -0.22129135 0.10299908 0.32865688 -0.23048261 0.069893494 0.0709576 0.33348927 0.07350885 -0.103312284 -0.27737686 -0.096616566 -0.18211128 0.3230538 -0.12161448 0.09079736 -0.19234495 0.21409269 -0.11402215 0.082907766 0.05306838 0.065262735 -0.13137928 -0.10016489 0.10865851 0.07566548 0.42086878 -0.074594244 -0.23881975 0.30943686 -0.30203068 -0.056633808 -0.17909993 -0.04738265 0.13511765 -0.27626595 0.010174143 -0.07177171 -0.08656697 -0.013639511 0.11954437 -0.11426859 0.071548805 0.15897824 0.39631963 0.015863413 -0.08157243 0.13547455 0.12600759 0.11319367 -0.18715633 0.027516149 0.21165825 -0.1730888 0.10598633 -0.100216314 -0.008161797 0.07800032 -0.051088497 -0.13242374 -0.114462085 -0.11074599 0.15172698 0.13803084 -0.23191495 -0.086855285 -0.07187363 0.064128 -0.1230063 -0.026982974 -0.14221203 -0.24011545 -0.21641545 0.020965489 0.10840165 -0.07245054 0.24190815 -0.050297257 0.024024116 -0.028905923 0.025999539 -0.021653552 -0.32656258 -0.0645908 -0.047914207 -0.007584883 -0.0631479 -0.08178634 -0.14171769 0.009778527 -0.13972831 0.031279735 0.03573208 0.018350476
1112 0.1617673 -0.03935555 -0.017411176 -0.20705158 -0.012734243 -0.040140875 0.010637947 0.013822842 0.12205212 0.1268846 -0.056158837 0.27942845 0.0056704725 0.035727054 0.12533021 -0.22818996 -0.037028797 -0.07287022 -0.15349624 0.1112178 -0.015501731 0.18356559 0.1316012 -0.025156654 -0.050510496 -0.06318809 -0.070558384 -0.06049926 -0.12472495 0.04312817 0.055973962 0.069900915 0.20014597 0.07279465 -0.18284553 0.25013858 -0.28769678 0.04115956 -0.04368147 -0.05057969 -0.030325033 -0.2620907 0.059731755 -0.10883266 -0.033309776 0.14638692 0.056405813 -0.3641273 -0.08916899 0.1464047 0.16771537 0.003380354 -0.17054792 -0.11359174 -0.13924272 0.15360913 -0.12618949 0.11178668 0.06277591 -0.18941942 0.04431203 0.32360968 0.36672106 0.217306 0.12397109 -0.09335516 -0.024067352 0.022925483 0.0028809097 0.10814679 -0.28757003 0.10275228 -0.0750748 0.005250022 -0.035849247 0.16884816 0.051890716 -0.094426125 -0.239949 0.62976104 -0.012246099 0.35715422 0.086793 -0.27697703 -0.07730257 0.03380543 -0.07201802 -0.035428923 -0.28895155 -0.21478747 -0.16787651 0.17360649 0.06409416 -0.241391 -0.028141707 0.12532869 0.116447665 0.018367533 0.13505411 -0.091475725
409 0.09647892 0.08115106 -0.18096265 -0.089733854 -0.20107825 -0.050358497 -0.12015651 -0.05301006 0.15967034 0.19125551 -0.22982405 0.21985598 0.14072403 0.23803106 0.048621397 -0.04974742 -0.08209455 -0.0633232 -0.16823293 0.13645616 0.047465287 -0.08375739 -0.09169657 0.006136702 -0.061182324 0.06865777 -0.034940362 -0.023116114 -0.24101482 0.055821907 0.13183695 0.1846521 0.3698605 0.08071955 -0.1358106 0.24130256 -0.010802222 0.11922969 -0.10865359 0.17624807 0.05919369 -0.26188692 0.14039078 -0.043060195 0.13438277 0.11924448 0.18729119 -0.16707006 0.12006116 -0.012868324 0.15342455 0.06998498 -0.11794526 -0.027634906 0.0063739032 0.23880139 -0.24660172 0.0778501 0.15475602 -0.114186816 -0.022354757 0.15219946 0.1828463 0.04034846 0.21219105 -0.085160725 -0.24830878 0.03523595 0.2108986 0.062482007 -0.2396863 0.09401027 -0.23571764 0.041347995 0.016711334 0.040348645 -0.03416288 -0.113450736 -0.1474741 0.38926485 -0.14824575 -0.10176945 0.29327163 0.0055705174 -0.0675116 0.08197816 -0.17936896 0.2230342 -0.337065 0.021900157 0.30352944 0.092488624 0.02167552 -0.025587913 0.08844292 0.08130721 0.2416032 -0.1625654 -0.041894376 0.035099827
1249 0.13697954 -0.20079532 -0.04324073 -0.39344344 0.013608298 -0.48366 0.3914188 -0.2780041 0.2309726 0.3527981 -0.17953923 0.29965627 0.19665916 0.42912823 -0.05493242 -0.06264138 -0.21040876 0.13882826 -0.09263017 0.33140948 -0.3880754 0.1757142 -0.27654165 0.27969036 0.088194184 0.29315677 0.027182039 0.012665161 -0.008206962 -0.13206495 0.20950052 0.13799624 0.2464914 0.02680391 -0.12112369 0.057867624 -0.33061075 -0.16537161 -0.08499548 0.10379389 0.28173545 -0.13191715 -0.11751593 0.0109126065 -0.24589443 0.047270507 0.16146721 -0.115176134 0.19995196 -0.03311683 0.26711354 -0.06191036 -0.14292958 0.016469687 -0.06695988 0.109625295 -0.31083825 0.11015239 0.25897416 -0.08485803 0.2598753 -0.2063091 -0.009540676 0.009355489 -0.09131701 -0.08958671 0.031156914 0.037399545 0.043341838 0.1266546 -0.27042702 -0.13694386 -0.27273482 0.16836613 0.01750222 -0.2047476 -0.18243982 -0.20017241 -0.30266085 0.31017208 0.056197714 -0.37265775 0.35047117 -0.11767011 0.14643699 0.0051834937 -0.13204007 0.21456587 -0.4539861 -0.19254963 -0.053372014 0.12617335 -0.08800749 0.16803423 -0.14032543 -0.067661814 -0.46279013 0.22505529 0.06997467 -0.18828644
1263 0.3367649 -0.15332268 -0.15336573 -0.1520092 -0.122041464 -0.6325508 0.35053945 -0.5542005 0.40524912 0.38615927 -0.27536473 0.31814802 0.206716 0.6148723 -0.1288637 -0.04273423 -0.15346742 0.116777584 -0.07981524 0.4005349 -0.40955296 -0.023044402 -0.21866292 0.38143912 0.14847179 0.2940189 0.026686016 0.025736077 -0.15446164 -0.09566873 0.22474833 0.01593558 0.3118142 -0.06885825 -0.0313296 0.007045143 -0.22870152 -0.19756693 -0.15315783 0.043665726 0.21184842 -0.15159 0.01288728 -0.053364124 -0.27661878 0.0043940055 0.003962354 -0.042963486 0.1880483 -0.052698094 0.26310128 0.037976656 -0.13116117 0.09560576 0.1072211 0.10969488 -0.220242 0.1922021 0.39109886 -0.15401022 0.25892478 -0.20799388 -0.015840573 0.071654975 -0.088898666 -0.043442853 -0.14698115 -0.120140284 0.10248584 0.13692252 -0.3236025 -0.2740159 -0.14565589 0.22560824 -0.034594953 -0.11971042 -0.26126292 -0.31455386 -0.22068441 0.1564561 -0.024166085 -0.26731315 0.37042788 -0.05812051 0.12304782 -0.025745384 -0.1951587 0.198942 -0.5392249 -0.12675434 -0.044266663 0.052482888 -0.16198224 0.37828028 -0.0891985 -0.107761115 -0.50300455 0.12109291 -0.0845508 -0.26787263
177 0.19948684 -0.16545828 -0.16083254 -0.3239065 -0.07529858 -0.48442528 0.38165554 -0.5259357 0.2902496 0.2742726 -0.15693572 0.23990726 0.25661534 0.5075908 -0.088559344 -0.085410096 -0.11811852 0.048081454 -0.0077483375 0.35034192 -0.42687088 0.0030766404 -0.25746793 0.25024965 -0.061495088 0.23896907 0.10342463 -0.064945936 0.08047386 -0.14075613 0.22683445 0.081606105 0.3631645 -0.12180468 -0.11392648 0.019863784 -0.33758432 -0.2818378 -0.08777501 0.11000269 0.2456268 -0.14450744 -0.058241136 -0.051413994 -0.34876615 -0.06164702 0.019952103 -0.05043608 0.24808687 0.028349819 0.22756483 0.021447424 -0.019033035 0.1300418 0.09866919 0.041269653 -0.2598546 0.1464709 0.26580974 -0.18680555 0.2799976 -0.29578853 0.057846628 0.17802559 -0.23485063 -0.10126372 -0.044758406 -0.06694942 -0.08035587 0.16492014 -0.3984421 -0.14880331 -0.12666462 0.21217185 -0.120846756 -0.14370295 -0.14103717 -0.20279396 -0.2130692 0.13369687 0.048391517 -0.3204024 0.2646622 -0.18076046 0.17891195 -0.045886766 -0.11627895 0.12039726 -0.50923926 -0.19612499 -0.07609452 0.12609711 -0.20243801 0.112979755 -0.21959928 0.007150072 -0.51054937 0.16662437 -0.054682404 -0.052115083
1052 0.043105144 -0.08796422 0.019591408 -0.28409803 0.0472664 -0.48941782 0.3759276 -0.38482717 0.33121324 0.31003627 -0.10431349 0.21956614 0.22670576 0.44349223 -0.03493593 -0.13559091 -0.034968883 0.0001827596 0.023797913 0.37929228 -0.4209266 0.19960727 -0.10951475 0.26812047 -0.21661223 0.11650691 0.07495665 -0.07895694 -0.004417923 -0.14113167 0.29211622 0.18192925 0.144109 -0.005728842 -0.08666678 0.07319768 -0.28657764 -0.45360735 -0.096246615 0.1531414 0.2139038 -0.25576162 -0.12691088 -0.12674038 -0.4508537 -0.12651825 0.086094014 -0.17355043 0.31251296 -0.05990291 0.34682438 0.08987043 -0.14747931 0.19063029 0.13441105 0.2769387 -0.2729629 0.2181487 0.48939085 -0.08574219 0.3997268 -0.23933116 -0.021304708 0.17579027 -0.14460294 -0.018067922 -0.07703475 -0.009963187 0.10420945 0.10256569 -0.3838599 -0.22615826 -0.244772 0.12290345 -0.13755307 -0.13703795 -0.39292255 -0.23476747 -0.29677245 0.17052244 0.06277818 -0.25290582 0.2636349 -0.27057925 0.12954828 -0.105032325 -0.0784772 0.11981708 -0.4809513 -0.2873779 -0.01567274 0.227366 -0.16501704 0.25014347 -0.3365445 -0.19881923 -0.3780406 0.042819366 -0.057631556 -0.205588
587 0.116375215 -0.2780941 -0.08843858 -0.27058935 -0.20527133 -0.2428058 -0.112886906 -0.20466708 0.14042026 0.07605378 -0.2698614 0.09436378 0.098110035 0.21878156 -0.120412774 0.10983999 -0.08741078 -0.05187876 0.024090167 0.061729312 -0.06719323 -0.030115783 -0.08783992 0.09567857 -0.11160775 0.14474297 0.1655838 -0.08007458 -0.1348914 -0.058677286 0.16210146 0.12646243 0.5407074 0.00616393 -0.16210938 0.3354435 -0.034188386 0.2710117 -0.058471117 0.19164579 0.16005503 -0.2170893 0.14061758 -0.15077043 -0.042263746 0.16766393 0.1584138 -0.16446501 0.16686048 0.0643837 0.2089488 0.011162534 -0.08926565 0.038051486 -0.033799343 0.32377502 -0.19422746 0.03266673 0.10978378 -0.25568923 0.13500541 -0.072141126 0.0805942 0.07210859 0.16256845 -0.20200111 -0.2199851 -0.101926915 0.036922358 0.09944403 -0.20149246 -0.0061436165 -0.084166735 0.2009277 0.009688987 0.037567593 0.035732154 -0.011794491 -0.134609 0.23330972 -0.15961567 -0.07421224 0.060458962 -0.074204884 0.029948918 0.034898624 -0.2611116 0.030695291 -0.28820422 0.030277561 0.13485113 0.05590395 -0.15655284 0.052202802 0.01879973 0.097337045 -0.2309349 0.054793514 -0.08661319 0.1429066
588 0.009111784 0.14310236 0.081799716 -0.14713152 -0.03573467 -0.04985687 -0.08586156 -0.06414339 0.13104603 0.04871305 -0.13094808 0.17433508 0.22164729 0.091655284 0.15037686 -0.20271026 -0.08243023 -0.07243804 -0.12780356 0.12675297 -0.07582626 -5.4038268e-05 -0.107178986 0.16219418 -0.22096305 0.030505914 0.11720803 -0.12297833 -0.09310692 -0.08369454 -0.044711426 0.07560425 0.12601455 -0.030666618 -0.049964957 0.13687146 -0.06444799 0.1856844 0.044368755 0.06311019 -0.10358834 -0.27994362 0.20527045 -0.12895672 -0.021333361 0.16703254 0.21357782 -0.17566903 0.022019671 -0.025204347 0.07991889 -0.041364744 -0.08656637 0.23035885 0.043266665 0.20183365 -0.14350928 0.026121555 0.1671092 -0.13441515 0.007369263 0.33927438 0.22671977 0.3192396 0.07800153 -0.17069033 -0.2114598 -0.042916827 0.061334107 -0.11199186 -0.36449632 0.17019846 -0.22329745 0.011531855 0.09078344 0.12855199 0.073207 0.03848131 -0.09840488 0.29756662 -0.076970145 0.034458864 0.18389727 -0.060598552 0.1718036 0.12068949 -0.14956404 -0.059962384 -0.20250398 -0.20963536 0.13262936 0.13704957 0.12554404 -0.14670885 -0.19438444 0.054747712 -0.2550988 0.076424465 -0.04113137 -0.002981751
1124 0.34682065 -0.25444856 -0.031057788 -0.30075058 -0.24205577 -0.5911671 0.3301154 -0.31429243 0.17401122 0.11520731 -0.085320786 0.07400425 0.24167931 0.46763077 -0.19992816 -0.07212217 -0.06485857 0.007750814 -0.11992518 0.1756183 -0.46229395 0.165132 -0.1564351 0.20045128 -0.043756463 0.103805736 0.2269829 0.0031493874 0.0029663108 -0.21987204 0.12867503 0.17460117 0.44307205 -0.196772 -0.24835223 0.07020404 -0.12996642 -0.17891471 -0.19314359 0.009460872 0.23589455 -0.23848556 0.072278254 -0.032037504 -0.23126602 -0.17273833 0.14792435 0.019417949 0.26437107 0.088368386 0.16513355 0.005981648 -0.050639573 0.14975055 0.23950006 0.119116016 -0.20678231 0.22141837 0.21867707 -0.038008574 0.23191287 -0.15471858 0.14748397 0.023213187 -0.1603879 -0.041122932 0.08447879 0.092054404 0.057820186 0.16767605 -0.18837316 -0.07840222 -0.10377005 0.15025783 -0.10743726 -0.24212435 -0.18344873 -0.3155861 -0.24776377 0.10306811 0.12664346 -0.3045108 0.17692858 -0.12036022 0.10380138 -0.034560755 -0.12285127 0.0027303156 -0.5083261 -0.14196765 -0.13476667 -0.014131917 -0.11079781 0.2294117 -0.12601708 -0.07716398 -0.4268794 0.06589322 -0.05649412 -0.20377585
590 0.09879258 -0.13982975 -0.11272382 -0.20951426 -0.03434944 -0.4876378 0.2639681 -0.42725354 0.27320638 0.3786129 -0.11500838 0.24864377 0.15047325 0.4675934 -0.16910371 -0.10289804 -0.19461471 0.1033179 0.03824885 0.3549915 -0.3253795 -0.08708648 -0.1569965 0.23711276 0.013905731 0.18804649 -0.008967671 0.019260144 -0.101602815 -0.11348285 0.18083721 0.025424764 0.23308414 0.08468259 -0.072785944 0.12503591 -0.2078423 -0.07438691 -0.14335895 0.14872366 0.20214538 -0.22489747 0.0012272642 -0.008576243 -0.15702026 -0.023127623 0.07723401 -0.1041004 0.25176877 -0.07063188 0.22421469 0.07985367 -0.19615862 0.120613515 0.11572277 0.28098938 -0.26428926 0.3006979 0.2946507 -0.06706228 0.2171821 -0.18256204 -0.0064469217 0.10345318 0.024948906 -0.02354369 -0.11347136 -0.06624124 0.021331962 0.11487964 -0.2581557 -0.10851973 -0.21969238 0.1374112 -0.03656347 -0.23718283 -0.27109167 -0.1531072 -0.2928965 0.19615935 0.012264077 -0.19316077 0.29858497 -0.1412018 0.12991202 -0.080886446 -0.15595116 0.17801555 -0.48241898 -0.19107744 -0.0018468447 0.2319315 -0.14122148 0.32566953 -0.10382973 -0.06699174 -0.29771668 0.15495683 -0.02869543 -0.16424584
1654 0.114800915 -0.125786 0.10785868 -0.07434249 -0.017114652 -0.43931526 0.20052744 -0.38986945 0.507083 0.17231938 -0.090762705 0.0917761 0.14312798 0.3604912 -0.25668487 -0.075868525 -0.23505014 0.23219731 0.09044401 0.37593594 -0.34020177 -0.022750678 -0.35452113 0.49592724 0.1695352 0.46845728 -0.057144668 0.09717757 -0.15807977 -0.0010673542 0.117527224 0.28271472 0.21728243 0.006706502 -0.08254889 -0.046044197 -0.03669507 -0.15242843 -0.41984323 0.053029053 0.30413955 -0.15491918 0.040557064 -0.22114025 -0.11654384 0.036735207 0.23068377 0.030256735 0.27930143 -0.017046237 0.36450252 -0.17741175 -0.2056291 0.09076027 0.039402403 0.23693044 -0.3662465 0.57610875 -0.02401229 -0.18523367 0.22020659 -0.14337724 0.17015605 0.15040845 0.037934855 0.21861309 -0.10353116 0.11797087 -0.04566585 0.14385454 0.08576942 -0.23136744 0.16785337 0.017483095 0.19459295 0.013318108 -0.2153665 -0.08494182 -0.10583689 -0.060813293 0.16803315 -0.4355866 0.40919435 0.22047433 0.25024268 -0.111175515 -0.28514138 0.2283261 -0.39461586 -0.101751775 -0.06835003 0.078601494 -0.16123097 0.48896545 -0.09596538 0.122439414 -0.12548302 0.24529788 0.0015685335 -0.15334713
1299 0.12140122 0.21764395 0.01391161 -0.19857816 -0.13604662 0.039556492 -0.14986545 -0.026396561 0.22578318 -0.03810409 -0.15196888 0.14411868 0.13699871 0.048968416 0.0055639227 0.10705341 0.099143825 0.13885692 -0.07467506 0.10511075 0.022134729 0.010769879 -0.07529064 0.048292723 -0.15961488 0.11596623 -0.007921067 -0.15714903 0.08796457 -0.04058163 0.07476529 0.10912247 0.15169834 0.17090428 -0.074668 0.14398037 -0.008031541 0.21260734 -0.009011171 0.17216143 0.07954066 -0.24641293 0.15872343 -0.24900125 0.25187233 0.19608559 0.12837712 -0.21031238 -0.018884279 0.022453533 0.11279821 0.047880773 -0.020849386 -0.061613336 -0.07498546 0.27803305 -0.026196787 0.07807507 -0.014387504 -0.14974785 9.935673e-05 0.115376346 0.41927406 0.053355172 0.27835646 -0.05073967 -0.34006417 -0.028964376 -0.024792802 0.063593894 -0.25664786 0.48382106 -0.14185663 0.0124391 0.22286618 -0.037830982 0.12735882 0.0162151 -0.23823488 0.4170552 -0.049277864 0.12184451 0.021636685 -0.05217688 0.086165674 0.058057807 -0.29061195 0.063144565 -0.31367892 -0.1753006 0.17372179 0.21755162 -0.0657645 -0.1121477 0.040625233 -0.024501063 0.04230878 0.0854557 0.039491538 0.1486158
594 0.119011275 0.120691724 0.02715183 -0.14244598 -0.25046137 -0.38845852 0.0126391575 -0.21022992 0.38422555 0.07054366 -0.07897412 0.2169239 0.08473321 0.3422375 -0.067331046 -0.1357938 -0.18282335 0.1813029 -0.025064297 -0.035093717 -0.073850565 -0.11651161 -0.27119225 0.11690257 0.1307579 0.19765379 -0.09235323 0.00069898384 -0.11968484 0.049286846 0.037108187 0.0015018464 0.2201812 0.09655295 -0.08745035 0.16291289 -0.0274402 -0.015815055 -0.20409578 0.19892451 0.10138348 -0.06658751 0.03783252 -0.019486904 0.059996992 -0.03497257 0.119476795 -0.068876766 0.04893057 -0.061579354 -0.010175986 -0.09118322 -0.15820253 0.09875111 0.15196913 0.3345184 -0.12695199 0.1072027 0.10234015 -0.08204817 0.16389245 0.0012380119 0.3495325 0.24667874 0.12674032 -0.07089275 -0.2873872 0.065196216 0.19525598 0.100862876 -0.23582569 0.276388 -0.07688968 0.00748809 0.122220755 0.06031739 -0.16131562 -0.35500175 -0.44229907 0.411858 0.067776754 -0.016689457 0.23056409 0.08888284 -0.03823073 -0.056751892 -0.27059266 0.061999302 -0.17326091 0.037373845 0.007900385 -0.0146294795 0.05974573 0.045497313 0.0852441 -0.062910885 -0.3495857 -0.024052804 0.030268013 -0.07922031
1128 0.26021814 0.10494888 -0.17495674 -0.2164868 -0.44677946 -0.037858605 -0.20736064 -0.27194634 0.3351683 0.13223056 -0.20089053 0.19027507 0.34522742 0.20069708 -0.040949114 0.032092363 0.051362175 -0.037782326 -0.28885037 -0.026526423 0.22720182 0.09369296 -0.0625512 0.1462564 0.024797427 -0.01804366 -0.04153758 -0.067882404 -0.056559905 -0.066527046 -0.08887982 0.038490187 0.26699248 0.08344918 -0.058410313 0.083423086 0.17460409 0.2677513 -0.20743428 0.32633054 0.08336562 -0.09182051 0.054118995 -0.08798855 0.060488548 0.18670398 0.31463155 -0.18739127 0.03709542 0.07580911 0.21356565 -0.015061381 -0.18426485 0.065107614 0.06262986 0.4483757 -0.07942841 0.15125248 0.21320817 -0.09189769 -0.12757403 0.166498 0.2914521 0.35788003 0.034478884 -0.10547804 -0.28641456 -0.11285765 0.015419649 -0.0014909304 -0.072026156 0.11165499 -0.19115493 0.015448041 0.14281687 -0.1159138 0.046158925 0.04651509 -0.23635939 0.20829767 -0.16440448 0.07719475 0.17349368 0.034194447 0.20655102 0.13105874 -0.1583789 0.25574055 -0.038215365 0.011402218 0.20690939 0.16942331 0.019564705 0.14504042 0.12721856 0.038018826 -0.14433555 0.018321432 0.10022824 -0.08073148
1658 0.025101287 0.005757623 -0.19448924 -0.29514802 -0.15313761 -0.35235 0.19194047 -0.27166942 0.23008075 0.27390665 -0.22393419 0.3001097 0.14016171 0.4418448 -0.2000337 -0.24854337 -0.17243887 0.062477563 -0.00509147 0.27092367 -0.30018815 -0.091722734 -0.01623218 0.26745948 0.022419974 0.25228128 0.12554531 -0.056780037 -0.17681338 -0.06350035 0.115290545 0.16265903 0.1906002 0.17593859 0.029767968 0.1000489 -0.121112056 -0.10431321 -0.09170781 0.23197845 0.050358318 -0.13991807 -0.11401982 -0.04940296 -0.05019845 0.039870244 0.026496 -0.15115893 0.1741348 -0.12925518 0.09103103 0.14283508 -0.19912738 -0.10288813 0.0018407612 0.2962519 -0.17120536 0.016590616 0.30602 -0.044972956 0.118783824 0.010241899 -0.009179731 0.11520683 0.21201482 -0.13089421 -0.06893213 -0.036048543 0.02744486 -0.0020407632 -0.31691456 0.02019766 -0.19655906 0.13805854 0.03222163 -0.07545246 -0.090616465 -0.14950456 -0.34141812 0.44435433 -0.044975463 0.00023345041 0.26390362 -0.15485027 -0.025299912 -0.03850862 -0.23209205 0.18230343 -0.4325702 -0.12894844 0.19391242 0.2570887 0.046192072 0.10159276 -0.0065461653 -0.054718714 -0.32289794 0.06797427 0.09120395 -0.13528234
1659 0.13090166 -0.035103478 -0.11234571 -0.29528213 -0.3045055 -0.3169418 -0.04108488 -0.13219558 0.1514706 0.16548657 -0.19650058 0.09837175 0.21853021 0.38523132 -0.043653913 -0.06060713 -0.021037593 -0.018105684 -0.03323745 0.21299775 -0.024437202 -0.056154862 -0.17515603 0.13345568 0.009755778 0.03215761 0.087789424 -0.07670793 -0.14169908 -0.0116251 0.1448614 0.032293323 0.3108977 -0.03254334 -0.15740392 0.0781267 -0.16419876 0.025846044 -0.16161138 0.22889602 0.10251189 -0.26674908 0.04949688 -0.08552775 -0.105632484 0.18202569 0.27134854 -0.2099376 0.22341903 0.092276715 0.3460074 0.0682008 -0.0793461 -0.005051365 0.026924454 0.20824671 -0.29195625 0.26340064 0.30847704 -0.066619605 0.19707131 -0.040880363 0.25179836 0.093262926 -0.027419943 -0.10498711 -0.14618598 -0.10182244 0.08836063 -0.05887336 -0.14810331 -0.03947697 -0.017950438 0.07186018 -0.024182003 -0.07069236 -0.094616726 -0.010960643 -0.102415435 0.1318834 -0.15909258 -0.09316541 0.10976519 -0.04125044 0.01991366 -0.05988638 -0.12209546 0.2844686 -0.34857142 -0.07186913 0.06534445 0.056924548 -0.1191862 0.13534972 -0.02971734 0.09220676 -0.25371706 0.009488844 -0.03659715 -0.020144831
597 0.17499128 -0.12720451 -0.09929571 -0.19977485 -0.014301321 -0.3609819 0.17799485 -0.26679745 0.25356153 0.19750108 -0.050405197 0.17271744 0.28597048 0.32237908 -0.015758172 -0.12651007 -0.14272006 -0.0689712 -0.16455233 0.30137265 -0.24251609 0.065099075 -0.16000168 0.15675123 -0.03548774 0.10575348 0.10209466 -0.026720492 -0.050013896 -0.26842135 0.081346296 0.13886446 0.40936884 -0.13723174 -0.20240441 0.08658262 -0.18845552 -0.07548297 -0.100136176 0.07731124 0.22551362 -0.2960005 0.14485049 -0.071869135 -0.1667563 -0.051672135 0.14485215 -0.10963776 0.1791895 0.12312349 0.32140195 -0.02288372 -0.10629648 0.18711638 0.14340104 0.057343062 -0.2037637 0.08337905 0.30093363 -0.02081393 0.13143921 0.0068518287 0.05480137 0.080943674 -0.12975994 -0.10244495 -0.033940762 0.026998214 0.030829735 0.21493651 -0.2777164 -0.046891082 -0.112058885 0.19188483 -0.06124614 -0.036148597 -0.07246853 -0.12691952 -0.31661826 0.08458569 0.11753083 -0.19909534 0.20311531 -0.19222724 0.12991238 -0.005935754 -0.0773107 0.13934013 -0.41713417 -0.08049477 -0.00945664 0.0885802 0.04080562 0.10412585 -0.068761736 0.0052823294 -0.16778666 0.12671632 -0.08885721 -0.07620118
1662 0.20680702 -0.17608747 -0.05572764 -0.27274284 -0.0047568968 -0.41001397 0.2512078 -0.27274877 0.41116732 0.22336698 -0.2117113 0.37082085 0.08970974 0.37909716 -0.012893591 -0.23579514 -0.033389352 0.108901724 -0.19354887 0.22094478 -0.1271436 0.21598287 -0.042333264 0.12676495 0.052320655 0.09342748 -0.057100262 -0.19673213 -0.061652098 -0.07048462 0.2024631 0.09334308 0.13388436 0.1486998 -0.15295987 0.2225995 -0.1353807 -0.006878808 -0.25500053 0.29023898 0.26640108 -0.08660486 -0.17071435 -0.08066252 -0.14628631 0.0048959632 -0.017464148 -0.13149382 0.08486033 0.046426963 0.005326854 0.10147552 -0.063144706 -0.007001532 -0.06400849 0.25521412 -0.032109465 0.20428425 0.267456 -0.0127393715 0.15173885 -0.09589391 0.064082615 0.0369903 -0.00021092757 0.028213903 -0.04172686 -0.06662269 0.032226685 0.064310126 -0.29260957 0.023398452 -0.124428704 -0.027190018 -0.030775236 -0.23662265 -0.17711306 -0.16235533 -0.21570629 0.36387277 -0.01540228 0.040025372 0.21853127 -0.10293945 0.019735884 -0.09083384 -0.15473662 0.2137487 -0.33264452 -0.04684997 -0.10462588 0.33614743 -0.10294637 0.21019015 -0.12901756 0.015167076 -0.2651206 0.11286623 0.020488502 -0.21625128
267 0.22700167 -0.29096 -0.04892967 -0.3339456 -0.13957255 -0.36039138 0.015980244 -0.26406333 0.24691859 0.24249652 -0.12647128 0.24413809 0.26727855 0.2091409 0.03433171 -0.09264319 0.1046056 -0.03524232 -0.055716388 0.15415113 -0.17714718 0.22244665 0.053093202 0.11723481 -0.14917363 -0.05122643 0.26498613 -0.2950697 0.016472157 0.019969579 0.13172545 0.25209063 0.30173054 -0.119466454 -0.14204103 0.20890787 -0.029187348 -0.015052658 -0.0637088 0.24624197 0.22203113 -0.22318852 -0.070722684 -0.07928949 -0.19200028 0.02417188 0.23064868 -0.14937797 0.2534818 0.18365617 0.065571815 0.20637299 0.092526 0.08364208 0.061306268 0.35435086 -0.06204326 0.107319556 0.27235293 -0.028806487 0.16152932 0.005103436 0.13278596 -0.05811398 -0.007976889 -0.08658283 -0.106795326 -0.10271747 0.03727297 0.106979474 -0.15549347 -0.024058545 -0.2185825 0.10680823 -0.100270085 -0.264426 -0.15089421 -0.07593375 -0.17257312 0.38080865 -0.002543473 -0.14116646 0.11900411 -0.18652543 -0.001358755 0.021326927 -0.12413363 0.11700482 -0.24738063 -0.0038996758 0.010196458 0.23559877 -0.20691517 0.08994544 -0.034169428 -0.05118613 -0.20116417 0.15890732 0.017057987 0.00088826485
1666 0.12320125 -0.0018534082 -0.09244219 -0.20711339 -0.00835612 -0.5718584 0.23476748 -0.21209322 0.31110606 0.31065613 -0.24306023 0.3469534 0.17071137 0.58216447 -0.3423631 -0.13734762 -0.208165 0.13119571 -0.082912 0.34674355 -0.5166997 0.00072403834 -0.2627822 0.27373704 0.07545483 0.29074904 -0.05177096 -0.0072400267 -0.18450196 -0.31590128 0.24236524 -0.018980827 0.29960674 0.07105666 0.03306768 0.074507274 -0.1621177 -0.2014669 -0.2004896 0.24200079 0.190606 -0.16861793 -0.019696904 -0.016365478 -0.10297447 -0.06398024 0.13943885 -0.026254645 0.16551141 -0.12812182 0.202262 -0.06480527 -0.2551353 -0.012980114 -0.018544475 0.0058544013 -0.275139 0.3302195 0.2966127 -0.05414202 0.23797794 -0.027870988 0.06743268 0.043755215 0.10550654 0.08611173 -0.13150613 0.07386112 0.08310281 0.030705107 -0.26807716 -0.08886394 -0.24644768 0.25606853 0.10226488 -0.1720147 -0.22052407 -0.24804981 -0.40487495 0.25958312 -0.0067585455 -0.3582904 0.26490003 -0.12986943 0.15733437 -0.06980488 -0.1490954 0.32942536 -0.58506304 -0.1923781 -0.021884665 0.1924535 -0.041686095 0.37649634 -0.077871 0.032611024 -0.58854145 0.11853857 -0.075311735 -0.31067783
1671 0.006341337 0.17385748 -0.1582892 -0.21777274 -0.18890223 -0.16618301 -0.093949355 -0.049973406 0.08537607 0.20302168 -0.2201589 0.2073841 0.042750373 0.30834046 -0.11396341 -0.08053868 -0.22089173 0.15120152 -0.070149004 0.024880912 -0.05674412 -0.1219256 -0.17620584 0.11219067 -0.010737791 0.18285435 0.10025926 0.02354365 -0.17107041 -0.028883703 0.070663966 0.09358313 0.20974106 0.14431769 -0.060730867 0.13049605 -0.04593285 0.23815951 -0.029249022 0.2620972 -0.04426116 -0.22922783 0.053391002 -0.053976364 0.06713531 0.15679625 0.23976153 -0.20159076 0.017204301 -0.04424973 0.11728907 0.07644995 -0.25998792 -0.12410853 -0.0951803 0.23755318 -0.2521139 0.09893167 0.18963549 -0.074152105 0.10043185 0.06977576 0.28474557 0.16569158 0.32317394 -0.06575639 -0.14467098 0.0006177529 0.019436175 -0.08157211 -0.13811181 0.24785596 -0.23996478 0.040489484 0.21033226 0.0025705385 0.14086106 -0.016586794 -0.28192663 0.44995895 -0.18574177 0.07542456 0.15275101 -0.059430186 0.06223326 0.08052684 -0.15497218 0.13834867 -0.29880786 -0.08240023 0.32000774 0.14258483 0.08878107 -0.11456039 0.12738533 0.20887117 -0.11995105 0.12956795 0.099212624 -0.05778158
1672 0.17850563 -0.10629905 -0.19646248 -0.08500764 -0.11519702 -0.453971 0.17729762 -0.29890227 0.23887974 0.33044553 -0.28439 0.22229025 0.105840206 0.53422254 -0.16642717 -0.028252127 -0.18854684 0.09990311 0.05346293 0.33446997 -0.29024372 -0.048580613 -0.1608635 0.40069556 0.05459548 0.21318102 0.071489476 0.021130022 -0.20410377 -0.08589473 0.2046141 0.077909864 0.31444094 0.07584122 0.051072847 0.04472698 -0.19477513 -0.19479665 -0.06512515 0.18383284 0.10429371 -0.12042156 0.05727298 -0.06590441 -0.12249886 -0.009946097 0.079716116 -0.1588166 0.12290605 -0.025488468 0.29173535 0.063231535 -0.1922078 0.07671662 0.023555817 0.15383421 -0.22011471 0.19745326 0.3784013 -0.12967683 0.21709384 -0.11351708 -0.07220979 0.0960394 0.13208131 -0.19344614 -0.13718316 -0.22202662 0.010410869 0.03856307 -0.38948804 -0.15668549 -0.18258089 0.19997483 0.03003058 -0.028500346 -0.17976354 -0.20330279 -0.2531658 0.2814112 -0.06951036 -0.09328361 0.25148526 -0.2511809 0.086703576 -0.063548364 -0.2177881 0.17001891 -0.43738964 -0.14718448 0.036191676 0.081674576 -0.10007047 0.15461959 -0.02521742 0.021237984 -0.5952895 0.07343048 0.00093438104 -0.08101734
1141 0.018571714 0.068750635 -0.03426733 -0.14427152 -0.13951126 -0.29438835 -0.06936357 0.05205698 0.014898952 0.24116775 -0.23704976 -0.04575024 0.05480118 0.26076326 -0.051499374 -0.17842257 0.026968084 0.13364494 -0.18991089 0.21232602 -0.16217414 0.059455477 -0.10561144 0.055012 0.030948382 -0.021612754 0.13086706 -0.074701265 -0.124111 -0.11936357 0.09626353 0.22279005 0.21124832 0.103773735 -0.14791512 0.06958413 0.07727377 0.008255829 -0.18307646 0.25445476 -0.036477324 -0.23012437 0.20915644 -0.069952704 0.16684754 0.21953298 0.1122664 -0.11623701 0.1270366 -0.05563383 0.16205682 0.06311257 -0.28048664 0.05372372 0.0023020066 0.24249473 -0.09603771 0.15608938 0.29017165 0.09074888 0.21925013 0.11999659 0.19991079 0.08634972 0.24071442 -0.013621732 -0.07810389 -0.0043464988 0.08950968 -0.13606416 -0.19100708 0.14336008 -0.278152 0.0055111693 0.088768795 -0.044172674 0.034155298 -0.09391977 -0.33749077 0.16984701 -0.21408352 0.084034875 0.09797355 -0.047576766 0.018571941 -0.079218894 -0.12700988 0.16055538 -0.36263 -0.25743952 0.25921747 0.12477105 0.15789084 0.024082724 -0.034568142 0.058114488 -0.3703016 -0.06330505 0.03129665 -0.22666134
1143 0.13658485 -0.24091884 -0.030018577 -0.20815174 -0.19354601 -0.31733596 0.12663344 -0.42561394 0.4552634 0.20123494 -0.03891529 0.2566785 0.26326492 0.32420987 -0.059241682 0.08315979 -0.026249308 -0.078716666 -0.039766226 0.17027424 -0.17132142 -0.032067526 -0.2473249 0.06851405 -0.07664481 0.236405 0.048920795 -0.17042862 0.005905026 -0.08612109 0.14908496 0.131936 0.4505071 -0.1906452 -0.086981826 0.0013955947 -0.0764133 0.13497916 0.012867918 0.3178716 0.09198087 -0.17244163 0.06837842 -0.1582293 -0.1444934 0.046643373 0.14001656 -0.2253167 0.21672563 0.012606994 0.24530366 0.04018889 -0.08162381 0.3736911 0.040158432 0.29674104 -0.19989614 0.17007194 0.25682026 -0.09145789 0.26207814 -0.1250082 0.18026388 0.15353364 -0.18097179 -0.13805546 -0.12056713 -0.11749266 -0.07065318 0.12785003 -0.26598042 -0.16602542 -0.2942994 0.24020971 0.04724961 -0.21601738 -0.0960247 0.057056542 -0.22874808 0.18897171 0.056068804 -0.3946766 0.25887516 -0.22819765 0.07396008 0.08216703 -0.20501748 0.1494675 -0.48712865 -0.15971053 -0.0010823094 -0.024520604 -0.10502058 0.27117118 -0.088887475 -0.18235682 -0.2309768 0.11369809 -0.25541177 -0.05521831
1419 0.07996987 0.000432715 0.034538805 -0.26685324 -0.079799145 -0.3118611 0.18094143 -0.21231702 0.10616846 0.16830786 -0.10188696 0.13488378 0.3300716 0.33156505 -0.18077378 0.071767256 -0.049703438 0.09138466 -0.05453039 0.11153623 -0.31031278 -0.018289814 -0.116923384 0.16995984 -0.05839975 0.20496546 0.19151391 0.09213957 -0.022081561 -0.09827719 0.019390065 0.08312049 0.38387063 -0.115427315 -0.07766183 0.10405011 -0.1468581 -0.084439225 -0.049150974 -0.053920567 0.17727272 -0.29978636 0.10484543 -0.0122750215 -0.18021624 -0.050712723 0.2832043 -0.045513816 0.25185257 0.005752148 0.18330324 0.082862385 -0.060375497 0.05989589 0.17696449 0.28282323 -0.27660757 0.02631777 0.26545396 -0.059988063 0.19842753 -0.0414215 0.25817716 0.1149376 -0.06690057 -0.08149048 -0.2038627 0.066888444 0.0771801 0.062111855 -0.1511567 0.048671294 -0.16672741 0.14629018 0.011114935 -0.090531506 -0.157283 -0.23649018 -0.1922512 0.25762752 0.020475173 -0.23952645 0.28792623 -0.070773326 0.06370111 -0.015614236 -0.16781779 0.056902263 -0.3845334 -0.05717269 0.13444959 0.1175708 -0.023460304 0.13988052 0.02632888 -0.15335827 -0.30100983 0.13809335 -0.04115711 -0.12674023
1678 -0.04600275 -0.1410642 -0.067179136 -0.04491684 -0.18623175 -0.3043915 -0.025805872 -0.34823644 0.2800055 0.2906439 -0.1530326 0.35467127 0.031478465 0.2816429 -0.20330127 -0.07688842 -0.15055166 0.11836463 -0.017262097 0.15524854 -0.1647002 0.07472434 -0.13365039 0.11210949 0.05766791 0.2636112 -0.039880414 -0.032503646 -0.07849463 -0.09023058 0.08664183 0.12058978 0.17021962 0.121709764 -0.13210948 0.02979927 -0.15166168 -0.0814271 -0.1240389 0.35777262 0.06304775 -0.030289473 0.08477254 -0.14622378 -0.12060075 0.08980065 0.015704954 -0.19150129 0.121115476 -0.03962872 0.24824257 0.07156665 -0.3803261 0.17513287 0.030196521 0.23179737 -0.1947279 0.32553554 0.28758767 -0.07821943 0.31934944 -0.011562163 0.03109466 0.2923693 0.16908646 -0.12218724 -0.05361461 -0.07522036 -0.08007616 0.03745536 -0.3751325 -0.08937208 -0.26836848 0.15265456 0.079108104 -0.15661101 -0.047909733 -0.1495419 -0.30302596 0.19547376 -0.03797191 0.061610878 0.2837594 -0.286832 0.06186518 -0.0023295602 -0.29528183 0.10542366 -0.4727154 -0.17377378 -0.05115833 0.09839922 -0.18570828 0.31130403 0.018847065 -0.074291326 -0.28973058 -0.016046107 -0.07079024 -0.11233949
608 0.28409746 0.21819027 -0.10933429 -0.20554176 -0.22668931 -0.20917429 -0.06926445 -0.36996856 0.23427482 0.061670106 -0.19745322 0.12187545 0.24561667 0.15307876 -0.019601163 0.0073884344 0.029383488 0.08597243 -0.16113375 0.12522043 0.054270513 -0.09403791 -0.048772562 0.01588754 0.0011799086 0.08738907 0.13205507 -0.15882362 0.011198761 -0.10558157 -0.021669548 0.12903923 0.2022482 -0.00703056 -0.07476353 0.04563852 0.11823485 0.20081247 -0.1747089 0.34983373 0.0036051301 -0.30307958 0.18669586 -0.20479804 0.14262496 0.085395105 0.21016316 -0.21043047 0.09137502 0.15404275 0.12154016 0.19943005 -0.19075896 -0.036256287 0.006088269 0.4339992 0.086341895 0.13277659 0.24206138 -0.052527342 -0.07592884 0.1227626 0.2683581 0.06766487 0.23748247 -0.099517085 -0.20862098 -0.16415277 0.10689657 0.04213078 -0.18069428 0.33112133 -0.20466197 -0.06753974 0.11175819 -0.10804205 0.054176822 -0.027160443 -0.32091773 0.34887964 -0.06779147 0.14555497 0.08570218 -0.05603818 0.059502978 0.0054110317 -0.14219181 0.09009604 -0.19272093 0.13179506 0.3556486 0.20089991 0.13425578 -0.015049247 0.09200309 0.02455174 -0.13145329 0.03281595 0.047259096 -0.06658259
610 0.076622866 0.16357823 0.070670485 -0.0273222 -0.08433553 -0.13132493 -0.19469376 -0.050539818 0.010618797 0.31616232 -0.28403327 0.06629404 0.01606489 0.19725274 -0.07267642 -0.019142978 -0.20854568 0.17301138 -0.16304652 0.07611171 0.14039923 0.21300565 -0.21900852 0.23680839 -0.27158797 0.19920398 0.17451903 -0.21364649 -0.18540098 0.018914888 0.20298465 0.39437914 0.15202525 0.20136586 -0.14743362 0.21827784 -0.06757249 0.15706997 -0.14222577 0.4170456 -0.07030037 -0.111674 0.06923884 -0.095548876 -0.04112767 0.35494438 0.4106721 -0.23788817 0.014535396 0.061519794 0.1238957 -0.13449922 -0.114501074 0.043900035 -0.19596021 0.22555254 -0.041976746 0.19178635 -0.04005328 0.008676957 0.015594052 0.21108513 0.12642354 0.22915721 0.39134246 -0.04738721 -0.179452 0.017741645 0.11721795 -0.2144872 -0.18556467 0.1726338 -0.27350536 0.020385688 0.08701075 0.0014698646 0.04941004 -0.09812768 -0.13744542 0.20947619 -0.15873511 0.12727357 0.22971183 -0.063670196 0.093808 0.13572116 -0.05008306 0.07535771 -0.106029615 0.0063407915 0.30467692 0.15877044 0.027726315 -0.094300784 0.08726634 0.10711355 -0.10195895 -0.046249747 0.030101305 -0.08498753
1146 0.16281699 -0.008983311 -0.08369706 -0.42553616 -0.53539187 -0.1815171 -0.07206757 -0.19500433 0.35249865 0.027421014 -0.09499825 0.24448502 0.1584562 0.191542 -0.05760776 -0.06738476 0.08362063 0.16911781 -0.015690941 0.0037058743 0.043904684 0.22484215 0.115611136 -0.05231159 0.004026185 0.03276404 0.19456087 -0.28962016 -0.027878247 -0.08971244 0.09842099 0.29896584 -0.11612692 0.15774652 -0.20098072 0.04171524 0.006334668 0.011015065 -0.13422433 0.22478102 0.20105444 -0.128065 0.095216 -0.058923602 0.06573085 -0.09556004 0.12809366 -0.20593493 0.18290803 0.026735526 -0.06649889 0.18380415 -0.12947063 -0.14267167 -0.0042901156 0.3307624 -0.080958754 0.15359543 -0.0061324383 0.00257948 -0.08095827 0.06299067 0.26121742 -0.08886685 0.29468012 -0.047789298 -0.116579995 -0.053682618 0.043776803 0.25801265 -0.08157603 0.4582258 -0.0837878 -0.107170895 0.07316516 -0.13465472 -0.06890534 -0.043827325 -0.27933693 0.578792 -0.12607661 0.2844576 0.020701729 -0.119070135 -0.06272397 -0.11219982 -0.22135726 0.1201823 -0.20846264 -0.008829476 0.05371195 0.22687916 -0.14675045 -0.12501688 0.27130148 -0.022345461 -0.21214107 0.1754886 0.2604225 -0.056090318
2126 0.015158161 -0.076710835 -0.17536457 -0.3111484 0.08351413 -0.5312982 0.4278706 -0.30535114 0.2427595 0.36093682 -0.07542275 0.23928523 0.20209602 0.44478187 0.055909276 -0.30937582 -0.18818088 0.0138752265 -0.19604343 0.3039782 -0.33036667 0.17987794 -0.24297367 0.27391443 -0.013421713 0.22002284 0.034873337 0.053064216 -0.023831243 -0.091175385 0.14893329 0.10997877 0.16102329 0.05325516 -0.20313439 0.13803266 -0.27778357 -0.25224495 -0.10215618 0.0047115814 0.15774453 -0.23333402 -0.065568164 -0.06129855 -0.24099651 -0.06542196 0.034725755 -0.12580366 0.18054193 -0.066131845 0.3100358 0.0856288 -0.24319184 0.020318016 0.036589317 0.0976934 -0.3103839 0.14368016 0.34219798 -0.04756065 0.28737733 -0.18773462 -0.04934081 0.21754836 -0.011854737 -0.057047572 0.023803594 0.18548197 0.08646137 0.016904695 -0.32634032 -0.110283956 -0.15549839 -0.011397749 -0.01367096 -0.034631487 -0.08684311 -0.24191454 -0.31911108 0.112465665 0.13654569 -0.16434328 0.31927192 -0.14347567 0.13382967 -0.0074549657 -0.02140534 0.11142259 -0.44632137 -0.31084317 0.005476872 0.20105414 0.081349395 0.16707645 -0.27275634 -0.06617475 -0.41488734 0.19246274 -0.06358728 -0.24128734
53 0.028309055 0.05505915 0.077053525 -0.037367694 -0.06349435 -0.008000889 -0.05793789 -0.17981292 0.30616504 -0.04437687 -0.054229073 0.19054472 0.16731009 0.07374266 0.27351114 -0.08883421 -0.060249195 0.12363221 -0.13209336 0.12991637 0.12143758 0.07491834 0.014563143 0.0837092 -0.20852497 0.17360593 -0.21208298 -0.07563265 0.11282832 0.109853506 0.12003616 0.13912407 0.22660147 0.18785802 -0.1688976 0.2660556 -0.15879913 0.16684945 -0.00787285 -0.04404153 0.023468284 -0.14409977 0.15688919 -0.19822179 0.18586032 0.35486808 -0.029325312 -0.2686296 0.12482975 0.0057628183 0.15541418 0.09968353 -0.14157201 0.106327705 -0.014759663 0.31109366 -0.11824145 0.27987114 -0.051081914 -0.26384684 0.16901076 0.17391479 0.31398255 0.37186524 0.20598793 -0.073012546 -0.27984506 0.04047398 -0.061256874 -0.11253533 -0.21295258 0.315431 -0.11254673 -0.05823107 0.18626353 0.06989767 0.17784283 0.06559084 0.011650329 0.2848638 0.14507137 0.15414588 0.03785879 0.03867541 0.048477948 0.054953214 -0.19243482 -0.16647151 -0.14067037 -0.29141775 0.10136936 0.1379744 -0.05470788 -0.17533661 -0.16847698 0.077720776 0.08592977 0.089727156 -0.032962665 0.12419316
1151 0.20034021 -0.2173613 -0.0048208265 -0.35315633 -0.19825399 -0.5407536 0.2937824 -0.484345 0.22583912 0.2618615 -0.20392081 0.19270888 0.17981689 0.3845392 -0.0061443164 0.02087413 0.0999426 0.15095504 -0.095711224 0.33769116 -0.40042508 0.0807221 -0.09486256 0.088894606 -0.0837426 0.1321986 0.17034017 -0.10206587 0.027112085 -0.13239442 0.08903912 0.12439506 0.25040227 -0.11604311 -0.18584943 -0.07560128 -0.21487918 -0.18770558 -0.11951187 -0.0020799444 0.28798875 -0.23671766 0.014199592 -0.08398658 -0.33157927 -0.091071665 0.037909638 -0.06257714 0.3067709 -0.02138931 0.22686282 0.11961558 -0.050246086 0.28306538 0.25818032 0.3134026 -0.20810756 0.08362584 0.45116767 -0.05715005 0.351216 -0.19045964 0.03340519 0.043905176 -0.2838522 -0.18238474 -0.0041198316 -0.0044143912 0.033027556 0.13121374 -0.40156147 -0.040367104 -0.33775035 0.08478789 -0.1373515 -0.42489398 -0.19164722 -0.18699613 -0.30551025 0.09646012 0.03775718 -0.2954446 0.23318301 -0.11001023 0.090588845 0.037748206 -0.1663976 0.1398047 -0.672929 -0.21245478 -0.0026294484 0.27464354 -0.21053064 0.21229811 -0.25298277 -0.22779661 -0.16150938 0.0047129444 -0.05512622 -0.15741879
1686 0.1388829 0.030596375 -0.30230537 -0.33279744 -0.24958909 -0.36296076 -0.021278495 -0.24295974 0.17500663 0.45024326 -0.2623092 0.28350177 0.15635088 0.43740815 -0.2061709 -0.1328507 -0.24102752 0.055120397 -0.07850658 0.071927376 -0.15649684 -0.052651655 -0.03593942 0.3007712 0.032386925 0.118831374 0.15110101 0.09218624 -0.2336028 0.08022511 -0.09262237 0.076454595 0.16684157 0.1213094 -0.10650096 0.2303498 -0.017255295 -0.13671015 -0.112796746 0.16515107 -0.058505807 -0.18891433 -0.028587675 -0.04828741 -0.1851062 -0.004220429 0.11159218 -0.11938312 0.113251604 -0.02815946 0.1777759 0.1871299 -0.28150544 -0.031174917 0.07313772 0.25229773 -0.24031758 0.17268373 0.34338382 -0.09889575 0.028133446 0.04063907 0.061013337 0.15495159 0.24654187 -0.20065594 -0.14328168 0.0152171515 0.20815654 -0.09798178 -0.26304767 -0.15263408 -0.2294039 0.099607766 0.037921205 -0.0006130191 -0.048962485 -0.12813622 -0.22827849 0.32608706 -0.1959034 -0.008712593 0.27086496 -0.21324426 0.060058266 0.03292411 -0.14005797 0.19441603 -0.40754622 -0.116034314 0.21661806 0.20958944 0.0030830184 0.14975093 -0.018064851 -0.034787346 -0.33705103 0.012935068 0.06358433 -0.21432033
1734 0.2091856 -0.000246887 -0.18058719 -0.23261058 -0.17349114 -0.011502725 0.006054525 -0.27024084 0.27764362 0.026586866 -0.12091202 0.10519169 0.1765977 0.15370296 -0.122209445 0.06331582 0.19230506 0.1840874 -0.12384281 0.060333997 0.29924202 0.22723441 0.16344431 0.08937069 -0.028844062 0.066168904 0.20513599 -0.18615903 -0.027681787 0.068119474 0.11692408 0.26970556 0.23709916 0.07629793 0.07432991 -0.047835253 0.1562704 0.19192758 0.023294872 0.18475334 0.1791152 0.02900657 -0.046777774 -0.17535633 0.050350808 0.2211808 0.08229628 -0.13886188 0.13238983 0.11524165 0.07759911 0.17276698 -0.022107441 0.060328726 -0.30621096 0.39890823 0.12744054 0.20342828 0.19266029 -0.07661773 0.055810545 -0.009014065 0.2910031 0.08892801 0.122007474 -0.14431888 -0.21325512 -0.18421581 0.03205063 0.052204587 -0.037428632 0.11497205 -0.35137802 0.11312574 -0.0028761744 0.06489936 0.25059932 -0.118267044 -0.2412607 0.5424972 -0.18640687 0.30801252 0.13939956 -0.015362338 0.15679473 0.034184698 -0.15219912 0.07316817 -0.08353211 -0.13022305 0.21836984 0.027264224 0.017217498 0.041365847 0.3103886 0.047119167 -0.27538568 0.30462408 0.055394854 0.072126925
1155 0.10683786 -0.15428965 -0.006290304 -0.31377882 -0.21844223 -0.47524709 0.11926694 -0.36940792 0.31219932 0.16659954 -0.2205063 0.12294771 0.14555514 0.40056583 0.027170273 -0.090498604 -0.15885018 0.14502148 -0.09659326 0.12654977 -0.17197977 0.084036544 -0.30081418 0.22032818 0.13929644 0.17581335 0.1835802 0.011220589 -0.040693294 -0.02350338 0.040493187 0.0836711 0.3080286 0.011309756 -0.19411142 0.21885481 -0.17773183 -0.07682601 -0.27350238 0.18680175 0.13401924 -0.100442745 0.07442073 -0.03457701 -0.066852435 0.14578752 0.19010432 -0.18906179 0.17404512 -0.026995273 0.28049767 0.034435082 -0.12111231 0.097101994 0.021855433 0.27680376 -0.24377614 0.10526302 0.20317386 -0.10691992 0.24191216 -0.17592344 0.04724491 0.26663068 0.051150035 -0.10390104 -0.18506823 0.02949218 0.120095044 -0.008298676 -0.18000463 0.08199991 -0.09927325 0.15218702 0.12383158 -0.047976814 -0.07951532 -0.12425157 -0.17340803 0.0127778435 0.15370393 -0.2515253 0.18277094 0.055081606 0.10935298 0.021920856 -0.08475465 0.08394374 -0.2398352 -0.13327308 0.18244001 0.014743189 -0.028495561 0.02735352 -0.09492645 -0.10356765 -0.49454805 0.07256965 0.053913075 -0.067999735
616 0.12147939 -0.28988045 -0.13712698 -0.41699144 -0.062049564 -0.60885334 0.29414862 -0.514973 0.37115738 0.34610242 -0.08255284 0.25667444 0.18574393 0.52909666 -0.1572693 -0.15999731 -0.11526322 0.094835855 -0.02792132 0.4514254 -0.39970502 0.085550405 -0.2748305 0.2141781 0.20736282 0.25386503 -0.02515969 0.012767257 0.034692414 -0.059148703 0.14939678 0.09668113 0.3182485 -0.05059096 -0.3191937 0.16023433 -0.3522641 -0.29333344 -0.19237706 0.21861228 0.33712143 -0.13601558 -0.049959958 -0.041108098 -0.27369478 -0.052414615 0.08893036 -0.18355997 0.29147726 -0.01243029 0.34976965 0.058731154 -0.19349062 0.13964456 0.08013846 0.18940459 -0.1830148 0.19766735 0.34047955 -0.0868743 0.4067085 -0.346536 0.01815498 0.13943748 -0.06428013 -0.13527113 -0.08406698 0.103621006 0.0067917653 0.10057206 -0.29553616 -0.20932768 -0.30963132 0.2515734 -0.0047691897 -0.18289883 -0.14757536 -0.24375533 -0.5159966 0.16432764 0.111530975 -0.27147213 0.31579655 -0.19562167 0.06859647 -0.027068984 -0.20350197 0.21714179 -0.5347666 -0.25341132 -0.044459548 0.15990269 -0.14317974 0.23200469 -0.19380686 -0.1402561 -0.6077257 0.16710815 -0.057495937 -0.18452515
1690 0.2328673 -0.15712954 -0.046385385 -0.27541068 -0.27342102 -0.15583047 -0.062517256 -0.14358255 0.30662605 -0.0069319 -0.2058524 0.22956029 0.27788422 0.19879813 -0.12810454 -0.28090948 0.07482856 0.10487244 -0.3687642 0.12537399 0.102843195 0.190723 0.04938618 0.20805791 -0.1637552 0.053333204 0.18503274 -0.32319143 -0.22109698 -0.00631834 0.15715384 0.3746599 0.4720204 -0.059006926 -0.048012584 0.19482404 0.2546949 0.22691944 -0.08816093 0.2012944 -0.06109503 0.1579303 -0.019022617 -0.06433935 0.115408465 0.15331948 0.13004498 -0.14449488 0.15622284 0.1228539 -0.065859795 0.016447857 0.04849944 0.058445677 -0.1673883 0.2921027 0.17384917 0.20250453 0.123111136 0.017619794 0.07043141 0.26712686 0.27045947 0.08948682 0.160552 -0.023874126 -0.06648481 -0.012787657 0.024503391 -0.16540693 -0.041420218 0.06687354 -0.2804527 0.08146404 0.1374339 -0.13404183 0.24651802 0.019653723 -0.16302255 0.3862576 -0.106310256 0.17221574 0.17178626 -0.090388425 0.08948896 0.05387883 -0.18457602 0.11104063 -0.14488395 -0.055944618 0.1064783 0.3069235 0.09937513 0.14637496 0.045940656 0.15797906 -0.013308083 -0.042968262 -0.088535435 -0.15156768
1691 0.097558364 -0.116782516 -0.093770266 -0.17637768 -0.07030251 -0.51224613 0.15340024 -0.35056782 0.3035025 0.31288546 -0.28297836 0.32243583 0.13777135 0.5303112 -0.12677677 -0.06823024 -0.12691611 0.04134435 -0.05278875 0.21892747 -0.25972533 0.040652234 -0.21626094 0.18564053 0.06711204 0.20761281 0.040402275 -0.00051887456 -0.08172722 -0.15374042 0.12651007 -0.026104936 0.26013374 0.105441816 -0.04093202 0.1846938 -0.19535477 -0.08565352 -0.19374274 0.3024494 0.1903025 -0.23430246 0.074254945 -0.14333642 -0.1367367 -0.011495096 0.036812972 -0.19006981 0.22112693 -0.049824357 0.3160096 0.11961793 -0.22651504 0.10469085 0.0048040585 0.24249871 -0.1759457 0.3142415 0.33143467 -0.12076617 0.25618288 -0.18442541 -0.032169744 0.11114626 0.10434189 0.0039436966 -0.23160042 -0.06257517 0.121423885 0.065781295 -0.34861627 -0.07553178 -0.15158035 0.11752631 0.064391375 -0.14282061 -0.15934512 -0.16819759 -0.18542357 0.103558354 0.03139805 -0.1340099 0.14824381 -0.068129465 0.08294032 -0.065001406 -0.11563047 0.11846415 -0.33353382 -0.17117058 0.0743865 0.11750005 -0.18183428 0.3037118 -0.13039696 -0.011790353 -0.56479836 0.13941446 -0.14795332 -0.20189548
1693 0.15488839 0.040587768 -0.1323864 -0.046032835 -0.19618253 -0.10730784 -0.052983876 -0.041519586 -0.062195543 0.14137533 -0.050167292 -0.006235398 0.06787272 -0.084061265 0.11487333 -0.25601444 -0.087932214 0.011860941 -0.2607647 0.16778041 -0.075590625 0.21236631 -0.08685562 0.11503721 -0.13468201 0.050588496 0.093293734 -0.11438014 -0.043435436 -0.24570484 0.19292815 0.35986397 0.26730376 0.009030311 -0.27135432 0.24669412 -0.04084307 0.100377455 -0.124031246 0.056325965 -0.019355873 -0.2638864 0.3048812 -0.17800945 0.060905524 0.3035845 0.1342509 -0.1392933 0.004526982 0.058702264 0.15960619 -0.011059746 -0.2678775 0.06913991 0.15618347 0.22892748 -0.024904544 0.014009902 0.25254878 0.092471704 0.06921953 0.18395746 0.15541193 0.11443994 0.19763178 0.009580219 -0.04611115 -0.08553155 0.044152625 0.11555765 -0.26671407 0.16549692 -0.19036888 -0.10493393 -0.04454372 -0.042308245 -0.045639336 -0.07135238 -0.3038008 0.14031401 -0.11139215 0.24963222 -0.015164414 -0.16941392 -0.060882483 0.0020398188 -0.1670614 -0.10612714 -0.24356422 -0.11448947 0.043165736 0.20913081 0.013477498 -0.1018235 -0.05125526 0.01578627 -0.085797116 -0.081081636 -0.11455224 -0.14576595
620 0.09110693 -0.005099391 -0.03454323 -0.037999976 0.057735544 -0.26784232 0.3501101 -0.096591085 0.26925084 0.16172776 -0.20091355 0.12229436 0.08037335 0.2759965 0.15762459 -0.03295994 -0.25508025 -0.028308524 0.012385954 0.41282788 -0.25577432 0.22431433 -0.12256902 0.16686715 -0.3399407 0.19079366 -0.12180741 0.015551908 -0.0059334496 -0.19053343 0.3235345 0.22027434 0.10965009 0.2232657 -0.0734985 0.09786173 -0.36622107 -0.06423435 -0.051981602 -0.062003154 -0.031808015 -0.22590078 0.15924118 -0.10071188 0.045387678 0.12442894 0.07186338 -0.16963783 -0.051424302 -0.22944377 0.27451596 0.0032450757 -0.26621702 -0.028326789 -0.08317393 -0.06438416 -0.32642758 -0.0006935602 0.09999675 -0.16031903 0.08567081 -0.14410447 0.0923354 0.086292505 0.07801386 -0.050012432 -0.16279554 0.15487313 0.1255359 -0.0007083195 -0.14343514 0.06290935 -0.037783414 0.098150745 0.0648956 0.1433822 -0.07991285 -0.018561821 -0.19387564 0.19672664 0.11911143 -0.16156732 0.07605156 -0.17536129 -0.043877512 0.073599 0.024440289 -0.040264633 -0.3233406 -0.43318194 -0.018206375 0.02559116 -0.072643735 -0.26961294 -0.302239 -0.107594505 -0.33421075 0.01657767 0.040670365 -0.0791605
1483 0.2579763 -0.02060216 -0.24455683 -0.442265 -0.19672006 -0.3430817 0.083101645 -0.44149908 0.3324731 0.26297405 -0.07120624 0.19391713 0.268038 0.3062486 -0.28962606 -0.16309527 -0.002198058 0.0375325 -0.14820033 0.074821115 -0.35595483 0.0958641 -0.1353174 0.26235044 0.05582859 0.07293265 0.17543304 -0.15962379 -0.016622117 -0.17315166 -0.11648257 0.14178824 0.31959885 -0.1379067 -0.08971 0.08846979 0.011023808 -0.022644406 -0.071702704 0.16287157 0.17195123 -0.21469255 -0.055446543 -0.15485927 -0.107006304 0.12827104 0.16886754 -0.024273155 -0.02580589 0.19057761 0.14696905 0.009726591 -0.06413726 0.04448366 0.13879818 0.18654858 -0.06440024 -0.0042790407 0.17418872 -0.051638942 0.009194389 -0.066490054 0.26508746 0.06676757 -0.010249924 -0.2260659 -0.029404923 0.030420724 0.038816776 0.1969435 -0.18307313 0.038924385 -0.068058506 0.27858967 0.00888192 -0.121266544 -0.10567738 -0.04696357 -0.39949936 0.17828408 -0.02515713 -0.12752338 0.21977152 -0.15941867 0.17751095 -0.0045245676 -0.15223083 0.18678619 -0.39907104 -0.039981276 -0.022296472 0.13461034 -0.018521478 0.2000587 0.04782079 -0.13305724 -0.21488838 0.034590103 -0.0655496 -0.04151978
622 0.13410546 0.1621825 -0.25404567 -0.24745099 -0.16462335 -0.36870903 -0.008011193 -0.1552457 0.13395692 0.27927446 -0.14718324 0.23323643 -0.0012599796 0.3020503 -0.056585964 -0.12388436 0.009516926 0.022095945 -0.17040548 -0.00057196 -0.20689386 0.21807007 -0.14818795 0.18444885 0.04439206 0.14153965 0.1758134 -0.13426153 -0.02624233 -0.1189264 -0.036988545 0.088608585 0.03381771 0.20215867 -0.03116809 0.08093949 -0.08781043 -0.16793464 -0.14690912 -0.001516395 0.089998245 -0.2435749 -0.071582705 -0.19453399 -0.10786615 0.20471463 0.18864325 -0.08709898 -0.08462302 0.026571317 0.18892384 0.1271774 -0.1329698 -0.023554387 -0.12238573 0.097314715 -0.13885204 0.11511725 0.22892144 -0.15389673 0.019490073 0.14345156 0.1373621 0.16920772 0.20928055 -0.14638883 -0.14327876 0.19859089 0.20014949 -0.038488153 -0.3597745 0.116369024 0.024333563 0.062435735 0.016917523 0.041192573 0.02558773 -0.10540047 -0.14340305 0.23115519 -0.1458594 0.035711158 0.100836255 -0.06354284 0.1270366 0.10456195 -0.15959525 0.051775318 -0.33064258 -0.08727116 0.03713909 0.103916466 -0.1042555 0.024361474 0.07496904 0.023703936 -0.38222256 0.022279412 -0.05089017 -0.017687755
1566 0.21321146 0.18511093 -0.27151304 -0.34159565 -0.044086628 -0.36096442 0.17132251 -0.0021479696 0.22584136 0.22277133 -0.17549403 0.18284757 0.03995934 0.44155592 0.005656233 -0.41899675 -0.1857333 -0.006095737 -0.14289021 0.19866349 -0.30639517 0.116818495 -0.12759326 0.22980356 0.016012486 0.13086277 0.09115547 -0.15916137 -0.13521753 -0.10466322 0.21130513 0.14981452 0.15036301 0.09542501 -0.17293333 0.20756093 -0.036318105 -0.11929709 -0.028208287 0.077224106 0.007790876 -0.23126233 -0.099148944 -0.11071465 0.026800606 0.07459006 -0.037301067 -0.14077918 -0.02744972 0.07541972 -0.00842927 0.09283438 -0.102432005 -0.04826737 -0.1189425 -0.017819675 0.040953707 0.022231083 0.16668646 0.010528414 0.20904332 0.068245426 0.21308227 -0.00018927554 0.1742625 -0.052026924 -0.05097878 0.020851107 0.15112622 -0.04607588 -0.2325663 0.08171833 -0.2372339 0.055095095 -0.034382932 0.079835474 0.0029890183 -0.20430955 -0.35933375 0.4205677 -0.13584308 0.03683034 0.0015533693 -0.15527144 0.044385973 -0.085140795 -0.16151318 0.21178693 -0.36212605 -0.15579167 0.13466962 0.17438899 0.13109331 0.036499046 -0.088286825 0.18347873 -0.44716233 0.019728618 -0.007401605 -0.2934871
625 0.16968688 -0.17503732 -0.179054 -0.20846756 -0.05274179 -0.47891098 0.17035663 -0.42025578 0.29025474 0.2626752 -0.2556849 0.23218024 0.20207302 0.45111573 -0.050850645 -0.044265203 -0.037291225 0.03187773 -0.03784623 0.317589 -0.37328735 -0.0446986 -0.16013257 0.28867003 0.023648167 0.14968447 0.07226465 0.18372136 -0.10072098 -0.06029701 0.102668054 0.09273303 0.30133906 0.067914546 0.040857468 0.038787674 -0.24409388 -0.13938992 -0.107788734 0.16478509 0.11372869 -0.25205952 0.027423784 -0.044501297 -0.120726876 0.015824096 0.16222952 -0.114217095 0.22056834 -0.09288301 0.43736368 0.09957426 -0.17064613 0.010040697 0.112278655 0.27346817 -0.43554848 0.09244063 0.5194063 -0.12651381 0.23199052 -0.1295009 -0.075731054 0.03516084 0.035983603 -0.18226308 -0.12094149 -0.029537639 0.0591655 0.12691562 -0.32006007 -0.124059565 -0.1775022 0.16633831 0.030372508 -0.042189837 -0.13565107 -0.15676008 -0.16118611 0.21229762 -0.066931844 -0.3271831 0.23946203 -0.110709876 0.035245307 0.04388489 -0.19918428 0.096390925 -0.4830507 -0.24937537 0.153468 0.14588423 -0.1339712 0.14714284 -0.12158589 -0.08255492 -0.2855721 0.056058154 -0.04870289 0.06256794
441 0.0705868 -0.056529272 -0.09660645 -0.40268412 -0.0336439 -0.5941809 0.34993726 -0.34711334 0.22630735 0.49546313 -0.18523973 0.31818792 0.18303041 0.5591068 -0.16905883 -0.26722836 -0.19354106 0.07998413 -0.13265665 0.31506684 -0.44345725 0.12948024 -0.27958477 0.23208913 0.089335725 0.17732011 0.063495934 0.041236445 -0.102810584 -0.21162501 0.10734919 -0.016897047 0.24318568 0.0008722159 -0.27614084 0.18373595 -0.34607196 -0.23630068 -0.27680784 0.1274386 0.25863788 -0.28545308 -0.05897586 -0.050474767 -0.4088652 0.036218252 0.17759685 -0.12657855 0.15611957 -0.012122099 0.35974017 -0.0050530904 -0.27432716 0.11901061 0.069218054 0.16522925 -0.34889784 0.12417437 0.3746642 -0.06681225 0.34137148 -0.19396436 0.022726204 0.21727818 -0.19461712 -0.068283394 0.045710966 0.20425035 0.027114075 0.11340812 -0.2926288 -0.20900773 -0.18140826 0.15095703 -0.045071296 -0.18753703 -0.25782415 -0.21640123 -0.34973082 0.09639562 -0.020143976 -0.25962815 0.42120975 -0.08183488 0.16316983 -0.028287593 -0.05163457 0.26964214 -0.41417432 -0.17208928 -0.06632142 0.1798687 -0.029974129 0.27541435 -0.2401712 -0.09592084 -0.4259319 0.055210847 -0.11942481 -0.26505125
627 0.088902 -0.18236871 -0.123563506 -0.08041704 -0.0542653 -0.41816577 -0.028208325 -0.38385645 0.086520225 0.2143207 -0.14179029 0.25815806 0.106919564 0.26362744 -0.1450606 -0.0325585 -0.008219704 0.012441358 -0.014029787 0.14422663 -0.3000849 -0.08356179 -0.17422935 0.2571517 0.07851653 0.23433046 0.06984625 0.075113826 -0.058394365 -0.1237253 -0.006359183 0.04572115 0.25364226 0.16364782 -0.12571958 0.05349691 -0.13566563 -0.040842105 -0.2523255 0.36789003 0.14925465 -0.202855 0.11743823 -0.16630152 -0.11713107 -0.009287295 0.17684853 -0.072477646 0.19967985 -0.0076185195 0.3776533 0.022654083 -0.22138868 0.049267154 0.13544638 0.2726249 -0.28172913 0.30438069 0.45357826 -0.09345969 0.120702155 0.081984386 0.014161898 0.19984785 0.11588289 -0.1656902 -0.06651905 -0.07136471 0.0889757 0.05420511 -0.3313712 -0.026093394 -0.19992244 0.10719273 -0.045511782 -0.037582193 -0.034797054 -0.08452496 -0.31627023 0.093614146 -0.14052987 -0.24250005 0.3107586 -0.082179524 0.14424509 0.07098324 -0.38004217 0.0631997 -0.56588554 -0.062920436 0.025498413 0.18784973 -0.14595805 0.31539154 -0.02057578 0.0043735104 -0.35169268 0.042346474 -0.12851812 -0.03934284
1730 0.22955114 -0.089216925 -0.1817966 -0.33864567 0.05802085 -0.5056993 0.3243977 -0.45277035 0.31328312 0.20886229 -0.0011561903 0.10531708 0.2620131 0.39712524 -0.09428885 -0.20270365 -0.057668466 -0.07430358 -0.00889765 0.31219828 -0.53027916 0.1753502 -0.2221708 0.33676013 0.0009087643 0.13192636 0.0636447 -0.004725148 0.017622432 -0.16038951 0.18452407 0.19356643 0.25385043 -0.014174661 -0.21118183 0.0970375 -0.22266178 -0.20288609 -0.07651311 0.102685794 0.25388303 -0.2848833 0.0051835277 -0.12096032 -0.2211629 0.03320011 0.14611976 -0.12081386 0.18206044 -0.04811691 0.37243897 0.0018273733 -0.099233486 0.14468163 0.088099115 0.22068162 -0.22535497 0.13722219 0.39555022 -0.12083621 0.34187457 -0.14328256 0.12169722 0.15380593 -0.09362151 -0.07678211 -0.049722474 0.09272856 0.038876887 0.03818661 -0.21889502 -0.19807495 -0.15036601 0.2429824 -0.04613384 -0.058201835 -0.22787529 -0.19998619 -0.3199283 0.0035086863 0.07160745 -0.3624288 0.16933322 -0.12279596 0.15229395 -0.02145064 -0.17564991 0.09893575 -0.4415692 -0.2757623 -0.0748791 0.047008626 -0.10998036 0.31525007 -0.21165991 -0.20579866 -0.25224707 0.048996426 -0.17382374 -0.11567328
1527 0.2599122 0.07835945 -0.17006105 -0.17775728 -0.3284809 -0.28894696 -0.20348743 -0.18500015 0.0877763 0.35487455 -0.20501572 0.17301168 0.19705929 0.25426123 -0.26125637 -0.11668587 -0.11226136 -0.033125132 -0.21681853 0.018126322 0.03318468 -0.054649755 -0.023099765 0.20043789 -0.2091515 0.13649593 0.22539227 -0.13335489 -0.29839027 -0.16809376 0.014289104 0.23240575 0.33017603 0.040198684 -0.03331942 0.28038192 0.16594571 0.30134898 -0.174177 0.39057228 -0.083477214 -0.17928573 0.06331855 -0.18782653 0.1293272 0.19573835 0.39871004 -0.109120145 0.07805516 0.16180561 0.1249823 0.07271733 -0.2268226 0.086210415 0.007040323 0.41225016 -0.0929397 0.14650129 0.25409544 0.036243197 -0.114251174 0.30427566 0.1951308 0.099715516 0.23698433 -0.08661229 -0.22833101 -0.11506008 0.12186981 -0.088257976 -0.05941357 -0.037014958 -0.23987265 0.123387754 0.039931666 -0.10065822 0.025655609 0.021129552 -0.1692785 0.14300784 -0.2667013 0.09606178 0.15031488 -0.09443068 0.09977338 0.20444083 -0.047077093 0.060952786 -0.13035713 0.1456981 0.2857845 0.20241615 0.011220203 0.22690481 0.17649159 -0.045913413 -0.03547893 -0.03787128 -0.05401269 -0.1838928
235 0.12894103 -0.1441754 -0.10734648 -0.026550896 0.04040807 -0.021577107 -0.21324994 0.09132371 0.010455807 0.161084 -0.07222244 -0.025517121 0.07391632 0.0065221754 -0.10981014 -0.2360198 -0.059449572 -0.29426578 -0.15108658 0.10829478 0.06463363 0.19119193 -0.012493896 0.05876668 -0.33258483 -0.031044804 0.2271704 -0.1960907 -0.28612658 -0.11852341 0.20809242 0.26949787 0.4240613 -0.07628798 -0.16729203 0.4739401 0.14095883 0.22298853 -0.1606988 0.28524706 0.0532922 -0.26425764 0.08945239 -0.1506819 0.17327085 0.16782914 0.41365734 -0.25543553 -0.12834665 0.18185724 0.28590444 0.028645692 -0.07653651 0.09063114 -0.0048826956 0.31310716 -0.01748745 -0.05614258 0.109886445 -0.015910404 0.009776079 0.35142627 0.21672125 0.15453339 0.19472587 0.02446432 -0.25345874 -0.11841821 0.10296319 0.06559731 -0.08932131 0.040883984 -0.0899164 0.10479392 -0.075704694 0.16844274 0.0188353 -0.08698345 -0.4161968 0.32420015 -0.14030097 0.25606865 0.07554907 -0.18917887 0.06105871 0.117127985 -0.17896344 0.019739637 -0.2569953 0.0077129994 0.07623093 0.10817306 0.0019944923 -0.01759642 0.17693819 0.07537248 0.08854649 -0.08604143 0.0034197322 0.07071897
475 0.16814417 -0.045622118 -0.16612776 -0.122898296 0.009206138 -0.6743483 0.32631698 -0.29329026 0.28657392 0.44675374 -0.36297834 0.33902732 -0.011538692 0.6495247 -0.2125008 -0.03307376 -0.289602 0.28865796 0.027475843 0.32605106 -0.4751149 -0.084828325 -0.22644423 0.3008084 0.11850905 0.26526156 0.045048617 0.076479994 -0.22434066 -0.13626981 0.19491953 -0.020455105 0.3237739 0.013170368 -0.032247994 0.038141116 -0.2747778 -0.19365346 -0.16691676 0.1283314 0.17125922 -0.23530474 0.008371437 -0.073325306 -0.29600352 -0.023877915 0.01777533 -0.02072649 0.11906184 -0.12434598 0.15586351 0.04762156 -0.25700316 0.17495477 0.015783055 0.18482153 -0.258397 0.19659059 0.5030915 -0.038416978 0.45096263 -0.23166636 0.0033717544 0.06238806 -0.04736199 -0.09462961 -0.08844259 -0.08895116 0.017307265 0.054707337 -0.43041262 -0.17661026 -0.35743698 0.17539357 -0.0031049342 -0.17998052 -0.21645667 -0.3193958 -0.36539012 0.35127762 -0.13822587 -0.23400931 0.39984992 -0.16818397 0.071778156 0.022172477 -0.15808372 0.19242139 -0.54352707 -0.061103858 0.00926415 0.109866366 -0.08412055 0.26701343 -0.07316708 -0.029739646 -0.32158038 0.04268738 -0.11062387 -0.20061761
1537 0.003263752 -0.10445281 -0.17891358 -0.36331668 0.016274178 -0.3905748 0.07956211 -0.32350793 0.3221305 0.35250244 -0.114945464 0.33121482 0.19668227 0.4248207 0.03078437 -0.041881524 -0.18381949 0.0951319 -0.060764827 0.35853332 -0.29081818 0.03359651 -0.31671384 0.22624947 0.02965184 0.3024131 -0.023921872 -0.11116313 -0.06088893 -0.13629504 0.2796195 0.092351794 0.2567587 0.047055736 -0.3323097 0.277599 -0.29720455 -0.21637279 -0.022798598 0.32050475 0.2994876 -0.28014112 0.0036981294 -0.10945575 -0.15436812 0.012042163 0.06461182 -0.36170357 0.25058806 0.06315414 0.45092395 0.12606275 -0.23551153 0.06402247 0.038204335 0.14942195 -0.053267907 0.14404197 0.40245622 -0.10793554 0.30646083 -0.08661671 0.029574905 0.15319298 0.07292989 -0.08716348 -0.064193845 -0.022807999 -0.026835242 -0.066103116 -0.2828437 -0.13613175 -0.1884411 0.085311376 0.06975712 -0.007084185 -0.1631814 -0.12831832 -0.49678645 0.21533237 -0.03718127 -0.1560016 0.16718286 -0.18561062 0.084747784 -0.12919225 -0.22881429 0.2859807 -0.41677728 -0.07394408 0.048020367 0.15303496 -0.051828507 0.25083476 0.036172114 -0.1104822 -0.2537323 0.19738865 -0.07455324 -0.13009249
1634 0.20403372 -0.26136446 -0.09823671 -0.252134 -0.08778757 -0.6933732 0.28734913 -0.4253627 0.33352032 0.352392 -0.24300511 0.28078872 0.08309378 0.6202275 -0.10963133 -0.10292687 -0.16126913 0.18381636 0.015983747 0.404661 -0.32482868 -0.00041080365 -0.22587776 0.38713503 -0.032144662 0.21764538 0.05742957 0.032309365 -0.17445646 -0.094546966 0.20604905 0.17648904 0.29704735 0.07100846 -0.09105889 0.11676932 -0.24028504 -0.22283795 -0.14266293 0.2772356 0.22221988 -0.12774183 0.030518726 -0.033015244 -0.23463793 -0.09837983 0.13976584 -0.17040366 0.29819012 -0.080369875 0.2972016 0.060556073 -0.16514193 0.09955737 0.051679194 0.22579809 -0.30291897 0.32784447 0.3773262 -0.019264571 0.37749392 -0.2439016 -0.061979912 0.05322856 0.043285932 -0.10744633 -0.09737389 -0.048795287 0.053808816 0.034473754 -0.24602695 -0.18388094 -0.24254307 0.16264322 0.019431228 -0.21535817 -0.20073569 -0.21774943 -0.29724565 0.15260087 0.010179129 -0.24337198 0.26976302 -0.15051298 -0.0076564704 -0.028688839 -0.1813952 0.11442262 -0.4949181 -0.17214139 0.059503086 0.12968896 -0.19020112 0.2627299 -0.19646429 -0.12014323 -0.5268991 0.13656929 -0.06826202 -0.19052628
1946 0.13537775 -0.04242095 -0.10081466 -0.20821156 -0.16345386 -0.51913434 0.18204731 -0.37234828 0.3453194 0.27752522 -0.085131094 0.16356096 0.17809765 0.5102883 -0.21159212 -0.18006296 -0.23867899 0.06853757 -0.16871542 0.26899165 -0.4687442 0.07696232 -0.26694393 0.3512922 0.13442722 0.28268826 0.045219578 0.037093792 -0.022403756 -0.14079776 0.053685132 0.1168725 0.3231965 -0.024061069 -0.1344815 0.034891617 -0.22055136 -0.38464043 -0.20074749 0.12173898 0.14063716 -0.19802196 -0.123973496 -0.11290305 -0.21975644 -0.028707778 0.16403928 -0.0495632 0.22574928 0.04510625 0.33808947 0.0400401 -0.17520672 0.16834846 0.1910189 0.21590796 -0.22205876 0.12134618 0.29717958 -0.118265904 0.24659584 -0.11620093 0.0286686 0.24478187 -0.047805034 -0.09735403 -0.046937343 0.13244964 0.06603647 0.107464045 -0.36645466 -0.16349989 -0.1817506 0.14989102 -0.026780585 -0.07576782 -0.15769956 -0.2814692 -0.36733258 0.09042664 0.13552228 -0.21403618 0.3224508 -0.097903445 0.1710579 -0.06044447 -0.13881336 0.08291493 -0.50263035 -0.18088958 0.004869608 0.10075083 0.016757635 0.14265732 -0.12317055 -0.019036414 -0.52821064 0.03435278 0.02126365 -0.20988803
1819 0.11778404 0.0699605 -0.15626538 -0.029866936 -0.17685187 -0.1357672 -0.14850438 -0.15210605 0.14038657 0.14151376 -0.099526666 0.17085887 0.11382212 0.108756565 -0.03232049 -0.2007064 0.011908003 -0.07893134 -0.16343181 0.0075045223 0.0017408375 0.0851588 -0.015890298 0.0111146765 -0.16551742 0.050946556 0.12605931 -0.13711083 -0.0077903024 -0.10072871 0.108480066 0.13595375 0.20649843 0.10141586 -0.11674443 0.12755245 -0.023214422 0.06470104 -0.14765246 0.2369759 0.006907861 -0.22266714 0.09423653 -0.16101901 0.0043115714 0.26628324 0.17586584 -0.21974148 0.03431888 0.08011894 0.2367495 0.090389974 -0.1699292 0.040615335 -0.0050971634 0.22950257 -0.09230354 0.16428024 0.18278709 -0.03481103 0.10390618 0.18102212 0.26814455 0.29021904 0.08641448 0.032840297 -0.15164001 -0.06318017 -0.00024668063 -0.0024872003 -0.21424729 0.080177784 -0.07028026 0.05249195 0.0057747904 0.029136095 0.10062973 -0.018466879 -0.16641037 0.21208295 -0.11691186 0.2024297 0.00045764272 -0.13502441 0.115429014 0.03667002 -0.11586418 0.004194106 -0.27144286 -0.14669637 0.07605533 0.08167209 -0.027582105 0.023146331 0.03215477 0.078635894 -0.13367248 0.03285351 0.0044088922 -0.049819656
87 0.051837325 0.13165085 -0.10132973 -0.0012187427 -0.18995106 -0.14708522 -0.13191657 -0.19687042 0.117989555 -0.028210402 -0.099767506 0.11283988 0.109442584 0.14356066 0.11617878 -0.14230953 -0.022402281 -0.010856863 -0.16730534 0.13147596 -0.06633964 -0.096741214 -0.09585805 0.12582089 -0.096633956 0.22468738 0.23549564 -0.16217051 -0.08486136 -0.14251183 0.07049249 0.16735029 0.25241858 0.012623973 -0.07437474 -0.012105252 0.10894564 0.259023 -0.08782815 0.18976928 -0.14710319 -0.18753794 0.25084955 -0.2291615 0.25058675 0.32806188 0.22580422 -0.1539953 -0.08669962 0.09899386 0.10991847 0.1394144 -0.091846615 0.1130759 -0.097135976 0.06297575 -0.15013145 0.05548398 0.20276597 -0.04418821 0.028094454 0.3942919 0.31662703 0.25527585 0.18191491 -0.06652026 -0.15138479 0.004430624 0.017005578 -0.113974795 -0.20333825 0.21542107 -0.11752889 0.05064267 0.1226416 0.07261764 0.308049 0.094372496 -0.11705583 0.23215218 -0.18301032 0.13778645 0.060950696 -0.10562264 0.069811344 0.14274117 -0.27576625 -0.02068269 -0.3188979 -0.06933411 0.21930926 -0.0049182638 0.077921644 -0.08580879 0.15560624 0.047357403 -0.40029466 0.04958528 0.010574919 -0.037351545
2071 0.07871105 -0.15736699 0.051803883 -0.06562093 -0.0006714563 -0.49959484 0.24056952 -0.4220549 0.320848 0.3901514 -0.2207079 0.3083156 0.18578549 0.40999854 -0.24323162 -0.25000933 -0.21402766 0.06623112 -0.18228547 0.32396862 -0.3789816 0.09216387 -0.1806189 0.33776116 0.12413788 0.26108283 0.112605885 0.059687164 -0.17042866 -0.18922032 0.12392512 0.17129946 0.2944324 0.027395507 -0.056035288 0.04526974 -0.19510487 -0.25324985 -0.30310518 0.22183143 0.10728815 -0.13791376 -0.014342682 -0.115752526 -0.29341647 -0.05778524 0.08814725 -0.122511886 0.21729161 -0.08218122 0.38140997 -0.050879367 -0.30368435 0.14410041 0.12244574 0.36756054 -0.2141818 0.24713871 0.36878195 0.012117583 0.29521275 -0.09466849 -0.14382169 0.30508065 -0.019735653 -0.055445228 0.06892397 0.053930324 -0.011692492 0.1367818 -0.3458468 -0.28094473 -0.15752131 0.11535908 -0.051958505 -0.045406938 -0.31812102 -0.3351898 -0.29643247 0.09320842 0.084563136 -0.13752258 0.45320496 -0.12620527 0.11287987 -0.033775043 -0.15298146 0.1583974 -0.4766848 -0.1554538 -0.07977599 0.18789104 0.042072356 0.33067837 -0.23694088 0.00389055 -0.47304344 0.05287267 -0.0055862656 -0.28870988
744 -0.013238163 -0.2561179 -0.06975706 -0.31414124 -0.051621437 -0.6373213 0.28171408 -0.40962878 0.28441942 0.42631316 -0.22207467 0.27803922 0.1563589 0.5041876 -0.08833845 -0.09363767 -0.26030502 0.07004096 -0.09902332 0.30837053 -0.45168293 0.12782043 -0.25096038 0.35367098 -0.028955502 0.21927954 0.07580668 0.032048993 -0.037275318 -0.14397264 0.22295204 0.16726786 0.34401453 0.061550107 -0.13161434 0.22077255 -0.40575534 -0.39343774 -0.0633264 0.22535552 0.2542017 -0.17826045 -0.09041477 -0.14919083 -0.3325257 -0.04570063 0.13323216 -0.2759333 0.25508404 -0.029540164 0.51501274 0.040947992 -0.1474005 0.1473189 0.06930261 0.24670441 -0.25627488 0.08147589 0.40124658 -0.09328219 0.43734002 -0.3000429 -0.14368246 0.26630732 -0.015681112 -0.16540366 -0.049432985 0.08298112 -0.005076153 0.035659257 -0.38900384 -0.2945975 -0.2218139 0.19646525 -0.042903192 -0.07029411 -0.23769946 -0.28065714 -0.3189894 0.090581454 0.13739961 -0.22531354 0.39766338 -0.1350088 0.04099231 -0.047280554 -0.12883241 0.117417194 -0.49191815 -0.2137423 -0.030949088 0.08790958 -0.11430307 0.16269822 -0.21120554 -0.1412607 -0.44821373 0.06865745 -0.03811137 -0.25125208
1600 0.06427894 -0.36003545 -0.034397844 -0.1710856 -0.13880058 -0.35520732 -0.08289514 -0.3510972 0.31678158 0.29491535 -0.2784475 0.30792296 0.16826592 0.40953928 -0.14171302 0.06413831 -0.032981813 0.09130264 -0.088859215 0.26455605 -0.19326471 0.0674207 -0.11378219 0.21033244 0.021726485 0.1567818 -0.029747413 0.07032203 -0.08384308 -0.14147547 0.03445139 0.059879273 0.3244382 0.19332123 -0.21501058 0.17041795 -0.27060178 -0.078940585 -0.21640408 0.33144617 0.18840782 -0.11710644 0.12066456 -0.055658776 -0.14461628 0.005745263 0.14918374 -0.17242175 0.24092627 -0.03237329 0.37680605 -0.012838072 -0.19439965 0.16570504 0.122682616 0.25432408 -0.36796498 0.25764567 0.31106794 -0.09779762 0.09991494 -0.12882516 -0.07584203 0.10296253 0.008486053 -0.17870519 -0.1688198 -0.098617844 0.00024298459 0.120421246 -0.30755103 -0.10721774 -0.21890049 0.19415632 -0.021050869 -0.11149572 -0.0731163 -0.009837528 -0.19774494 0.051649876 -0.071697205 -0.20349625 0.30751774 -0.15527292 0.07710675 0.056260303 -0.19792199 0.20541342 -0.4699056 -0.20898798 -0.049181215 0.221774 -0.20697185 0.19271114 -0.13252433 -0.100524016 -0.38575992 0.07661729 -0.03431684 -0.020680325
1821 0.106796056 -0.290103 -0.047719087 -0.1977653 -0.015213278 -0.42259103 0.10324921 -0.36976236 0.16607979 0.17402256 -0.14753588 0.22985622 0.23641679 0.24519105 -0.03392397 -0.10221912 -0.009736297 0.010586684 -0.06845622 0.14940293 -0.27993208 0.055057853 -0.17430004 0.15403952 0.07107173 0.09606344 0.090855025 0.02154557 0.038385414 -0.031357475 0.12042239 0.08318619 0.4794846 -0.19469312 -0.13412671 0.115948014 -0.21749151 -0.005337404 -0.08589429 0.18884106 0.19527845 -0.30308202 0.06650456 -0.21983823 -0.24312316 0.09379768 0.14744693 -0.19553448 0.2526764 0.085317545 0.37115985 0.12528239 -0.1385186 0.10814154 0.24375866 0.392346 -0.14081927 0.18315093 0.51735246 -0.101864584 0.34413433 -0.12174784 0.11228859 0.21015237 -0.08807087 -0.16782363 0.033800725 0.009362328 0.05309264 0.026607502 -0.3105304 -0.07254993 -0.24754925 0.055689275 0.04375387 -0.2283196 -0.095197074 -0.07998002 -0.30325925 0.120022714 0.0253324 -0.2064654 0.21966283 -0.121242985 0.042642854 0.07678982 -0.15917212 0.0812025 -0.51752144 -0.071116865 -0.009455977 0.22168243 -0.053546906 0.19141714 -0.20641218 -0.036799546 -0.27747807 0.048082057 -0.19540682 -0.14918832
1918 0.06948645 -0.013129577 -0.048554923 -0.45883712 -0.13210261 -0.1559029 0.1213813 -0.2889832 0.23022902 0.20410086 -0.08229709 0.3461882 0.24009535 0.2624616 -0.08902975 -0.042997383 -0.08633269 0.03063999 -0.04769468 0.09428768 0.012695519 0.1299896 -0.12760308 0.112990834 -0.08476074 0.20440471 0.028855747 -0.2004715 -0.0065359874 -0.011935693 0.1389836 0.23411402 0.33150426 0.033471707 -0.17514817 0.31715012 -0.096322484 -0.08203703 -0.001807965 0.33156458 0.23141636 -0.12581073 -0.1107274 -0.057665914 -0.12392891 0.08841449 0.20015337 -0.4165277 0.26217106 0.08991974 0.22136588 0.055051908 -0.14472015 0.09222083 -0.0066022524 0.34414974 0.032816824 0.14243479 0.12982155 -0.11464171 0.15000623 -0.08005806 0.29698712 0.27377164 0.014959519 0.027728686 -0.093907125 0.05577798 0.04334067 0.02260752 -0.02598964 -0.053117745 -0.30228212 0.12630792 0.092150524 -0.0974194 -0.08012531 -0.0741376 -0.33091676 0.37511754 0.048695993 -0.1196627 0.14573845 -0.13549568 -0.021271842 -0.08562313 -0.183932 0.2469948 -0.08811263 -0.019490978 0.16006877 0.14534372 0.0153785 0.17299508 0.08846949 -0.14840862 -0.31410664 0.1819022 0.06591877 -0.1963385
647 0.15070441 -0.20700149 -0.11374257 -0.39191777 -0.06802957 -0.4619389 0.34707308 -0.5072228 0.2748524 0.1697093 -0.08040108 0.15913014 0.22876829 0.4773482 -0.1480298 -0.17642288 -0.02053793 0.07056251 -0.049015578 0.28956637 -0.3674482 -0.049859904 -0.28509042 0.09115726 0.0006467341 0.1952736 0.18959275 -0.081225425 0.113759816 -0.124899276 0.09189015 0.12798479 0.44280267 -0.29135683 -0.10585746 0.011772594 -0.2618701 -0.100151576 -0.10688894 0.18496698 0.26538214 -0.29730693 0.03420766 -0.055341527 -0.2746879 -0.004822512 0.062014543 -0.1064187 0.28719568 0.10857515 0.25335115 0.10568135 -0.13417456 0.1430842 0.14474311 0.21956708 -0.22610351 0.14278589 0.33934888 -0.059826534 0.46076554 -0.30397275 0.1714267 0.14737652 -0.21528247 -0.021044385 0.10614447 -0.02842439 -0.08294042 0.20117676 -0.28783163 -0.13804138 -0.20630719 0.21437305 -0.048221495 -0.2904949 -0.16066238 -0.16361876 -0.38743484 0.11646958 0.09146954 -0.23321569 0.23340465 -0.15572377 0.11309137 -0.10684942 -0.12730147 0.20483564 -0.66642743 -0.14402443 -0.008065146 0.13153252 -0.082797185 0.29504266 -0.16935009 -0.07746076 -0.31466573 0.15466467 -0.15728863 -0.13792416
583 0.21018605 -0.07738995 -0.2270653 -0.25228304 -0.13393602 -0.33017352 0.16851465 -0.18610048 0.118807025 0.3428064 -0.26183468 0.24652778 0.114037946 0.477105 -0.18968914 0.17643669 -0.18383709 0.01853601 0.03230147 0.30656478 -0.18228906 0.020923248 -0.19610223 0.1310833 -0.07094673 0.22168127 0.11031978 -0.009125118 -0.17158726 -0.13084188 0.12531231 0.1483761 0.28926995 0.0614246 -0.10148656 0.016857198 -0.25993577 -0.08922717 -0.0037191208 0.17295519 0.26238215 -0.20315824 0.16263607 0.021215003 -0.12814695 -0.08940244 0.13190679 -0.15750958 0.045658316 -0.07208444 0.34724656 0.057916768 -0.15713279 0.10194914 -0.01804635 0.124815404 -0.1950295 0.05474649 0.3253098 -0.082175925 0.1462997 -0.15573776 0.11974229 -0.10625894 0.01618934 -0.14346361 -0.1920767 -0.16112432 0.120462425 0.053905305 -0.3053422 -0.101306446 -0.17619433 0.3093336 0.04367185 -0.121372625 -0.1040686 -0.123918995 -0.3445762 0.22668175 -0.13205172 -0.17477517 0.23922266 -0.14684707 0.009025964 0.011583286 -0.23193434 0.23799129 -0.49726146 -0.08022516 0.052517973 0.008842339 -0.16366515 0.20629497 0.12530869 -0.17245945 -0.29604396 0.14903113 -0.035244875 -0.11416423
651 0.34475783 0.029190198 -0.13571757 -0.2668516 -0.2522914 -0.43558648 0.16366501 -0.22002365 0.24870563 0.076371096 -0.27910203 0.15738134 0.21714859 0.35964122 0.11605679 0.0979245 0.16015908 0.16467601 -0.14971322 0.30996856 -0.22269185 0.27736497 -0.05849101 0.21507578 -0.043246683 0.13487698 0.13127583 -0.121099524 0.03007914 -0.1803597 0.29011795 0.09575835 0.043821245 0.12298905 -0.23691441 0.06358436 -0.20064041 -0.11877672 -0.029305613 0.18421172 0.28622803 -0.105624385 0.12788936 -0.14199392 -0.06644833 -0.13970658 0.15587501 -0.17945057 0.09858055 -0.06002611 0.18422292 0.0033292137 0.0010818047 0.060681943 -0.033486612 0.04146613 0.036683522 0.12540153 0.118976586 -0.041262515 0.047279947 -0.16699728 0.025137613 -0.073852316 0.091742694 -0.06426002 -0.09091115 -0.100031905 -0.006459484 0.013274376 -0.21581614 0.23884034 -0.26300925 0.011353065 0.043350816 -0.12297641 -0.0029927753 -0.05764195 -0.22653902 0.3151625 -0.021895483 -0.22638121 0.11285029 -0.07039312 0.163006 0.0809617 -0.22050638 0.11247044 -0.2326351 -0.13986191 -0.01619283 0.1418329 -0.18453598 0.043943524 -0.0016919362 -0.041392572 -0.5408469 0.17557983 -0.026960516 -0.17673218
606 0.11753367 -0.3073456 -0.07381553 -0.13167875 0.007833935 -0.5774616 0.27521098 -0.3093892 0.27858037 0.4338368 -0.31065488 0.3847283 0.07317222 0.55217046 -0.1445172 -0.07642007 -0.33296242 0.12531188 -0.10486083 0.21268757 -0.29966074 0.038717285 -0.13741726 0.19546601 -0.042141434 0.2145841 0.0054495116 0.030783728 -0.15404949 -0.17918338 0.24305269 0.03936644 0.41848323 0.09462278 -0.023289353 0.14117959 -0.3336836 -0.11571394 -0.19016623 0.15309483 0.25726986 -0.124907695 -0.089002386 0.07216802 -0.24149841 -0.07760579 -0.05372513 -0.09619264 0.11655761 -0.0442045 0.21911827 0.009849459 -0.13288869 0.04587752 0.09561652 0.15230027 -0.2861023 0.22841471 0.27132824 -0.080905676 0.37334174 -0.21350497 -0.09814664 0.102770954 -0.049111523 0.0011005759 -0.007890524 -0.036741555 -0.026139861 0.1646979 -0.37862703 -0.11578685 -0.14840327 0.13125402 -0.08895667 -0.16171399 -0.19670826 -0.27604204 -0.2863849 0.27866268 0.09290679 -0.09947144 0.33528596 -0.083839975 0.03427683 -0.097913206 -0.08359917 0.1951467 -0.5531209 -0.03957807 -0.13093072 0.12134884 -0.08516133 0.15262705 -0.09698987 0.114474714 -0.33777058 0.22679175 0.040364493 -0.13040851
1687 0.17929839 -0.13846561 -0.10635447 -0.3017726 -0.16054843 -0.6240188 0.28198758 -0.4905535 0.33169776 0.34974718 -0.114227444 0.21077542 0.15821071 0.5133159 -0.15240732 -0.12537868 -0.116221465 0.07533002 -0.057520725 0.3713527 -0.43040138 0.0754086 -0.27648026 0.36432147 0.0851309 0.3052361 0.08704494 -0.025590543 -0.015527789 -0.071266435 0.18622233 0.2208264 0.29175514 0.060189977 -0.11795624 0.007898029 -0.26629466 -0.34906307 -0.12521191 0.13447072 0.22135323 -0.19851306 -0.12345011 -0.11180971 -0.21290776 0.04249353 0.14275339 -0.17782974 0.29506373 -0.01743304 0.3820189 0.094275214 -0.13066725 0.0822498 0.09325034 0.2359158 -0.19938076 0.13518701 0.42835835 -0.05232272 0.36240798 -0.17189053 -0.056762844 0.11179312 -0.06476863 -0.20918506 -0.08402913 0.051076762 0.058927752 -0.041147795 -0.32070416 -0.20924076 -0.21475054 0.18249969 -0.020116983 -0.16394743 -0.14658242 -0.24559014 -0.38442335 0.057596453 0.07524145 -0.27671257 0.17890099 -0.16258197 0.05908237 -0.036764834 -0.21346343 0.13977793 -0.5552614 -0.26828825 0.113046184 0.13976902 -0.10744916 0.27069852 -0.11942811 -0.21691364 -0.41049683 0.046974733 -0.059232503 -0.1584642
