2191 100
0 -0.09309125 0.16365597 0.06768896 0.2712501 0.07348759 -0.19796373 7.4467316e-05 0.28250685 -0.28693187 -0.20718673 -0.100808986 0.2313835 -0.11799077 0.43848187 0.1911027 -0.19719136 0.3268082 -0.08736788 -0.27770355 0.08741071 0.2327637 0.12617561 -0.06798461 0.18693349 -0.11597847 0.08436202 0.0338243 -0.18300368 0.08316191 -0.16435961 -0.36066234 0.038750842 0.035332713 0.24165428 -0.20664763 0.080924466 -0.10104957 -0.67480135 -0.16472419 -0.08171766 0.21853818 0.3917183 0.07700999 0.20866692 0.0096164355 0.004318725 -0.030395832 0.08479831 -0.33311847 -0.02426903 0.14918192 -0.014082916 -0.078313254 0.1567022 -0.15365213 0.23130013 0.09145181 -0.18107957 -0.2679472 0.07590204 -0.0931961 -0.08782899 0.17625095 -0.009621345 -0.15186009 0.3890933 0.4305604 0.13820672 0.066933304 0.106000476 -0.00042325084 0.17083882 0.018006142 -0.12846272 0.07345198 0.0807008 0.25497875 0.0161162 -0.081567355 -0.23144153 0.08365973 0.2759185 -0.16249876 0.08882589 0.10096393 0.06996046 -0.13576362 0.033161744 -0.32157335 0.127893 0.10530391 0.0717238 0.04059698 -0.081847504 0.004863144 -0.0067042345 -0.14718767 0.10319198 0.12765203 0.42409095
1614 0.003124129 0.24090533 0.2310419 0.1354352 0.031380203 -0.26794782 -0.116190016 0.07565359 -0.14135905 -0.16174437 0.18456814 0.014298544 0.20013535 0.202862 0.039005697 -0.088660136 0.21670856 -0.13510929 0.002448179 -0.047615595 0.13055734 0.019635856 0.07027693 -0.06773991 0.12088248 0.22746037 -0.043833297 -0.013251919 0.12608191 -0.2731247 -0.3163876 -0.114020936 -0.16321102 0.037878126 -0.23850977 -0.058414742 -0.20303707 -0.3557102 -0.13594115 -0.084975086 0.25567648 0.06520421 -0.1341 0.14589964 0.122652754 -0.0919081 0.100016125 0.13582157 -0.24879393 -0.11541895 -0.04150765 -0.027113685 -0.23038766 -0.010939341 -0.019631634 0.08126729 0.053792026 -0.073812984 -0.16274408 0.122354545 0.021491023 0.017417468 -0.0162773 0.042436585 -0.0519535 0.39316276 0.29743248 0.053670228 -0.011078328 -0.030058386 0.06351777 0.25468516 0.124384575 -0.21632935 -3.9885126e-06 0.04040319 0.12382261 -0.06709762 -0.060821597 0.07130448 0.025964681 0.1371888 0.054770973 0.007841712 0.036785528 0.12677053 -0.2640871 0.091152854 -0.29354092 0.17463465 0.18708865 -0.015596484 -0.13539188 -0.2370287 -0.049534317 0.11183401 -0.29528573 0.047403026 0.030281888 0.34493306
1615 -0.048564464 0.14703925 0.12431662 0.19526252 0.073856525 -0.24363782 -0.04892032 0.17535217 -0.18843482 -0.12857498 -0.07756966 0.114768416 -0.03718237 0.3465098 0.16856067 -0.09748102 0.26933903 -0.05382592 -0.14872488 0.018787215 0.16537051 0.1051928 -0.02783731 0.12190376 -0.04360053 0.12357408 0.037367553 -0.112884924 0.0752293 -0.11875232 -0.26455548 -0.011475662 -0.007952493 0.19586998 -0.22405699 0.04542417 -0.14848326 -0.46812144 -0.14019099 -0.08602931 0.23424508 0.23278272 0.05278382 0.1439936 0.027450804 -0.017224599 -0.031185102 0.107998826 -0.2749389 -0.08740714 0.07163302 -0.0033518488 -0.0978552 0.11210619 -0.06906424 0.17852308 0.0843809 -0.063406214 -0.18256429 0.11443266 -0.016821226 -0.04811309 0.08060223 -0.0022524456 -0.09460042 0.3372046 0.38002816 0.07188158 0.0032897792 0.08535772 -0.054618336 0.18841681 0.055944197 -0.11365004 0.033313744 0.015097739 0.21445172 -0.014356837 -0.10625146 -0.15288666 0.040004008 0.15659314 -0.07148803 0.032413896 0.06279694 0.06787723 -0.111681275 0.045074284 -0.2677787 0.11664076 0.14451489 0.040382292 -0.0129995085 -0.06849931 -0.03090215 0.059876125 -0.13372475 0.072139844 0.080793 0.35456082
368 -0.066357784 0.16887821 0.07744153 0.23024996 0.09551915 -0.22240302 -0.022848126 0.22436383 -0.23548009 -0.1855508 -0.105877385 0.18260737 -0.09926403 0.38002574 0.18179335 -0.13770133 0.30138227 -0.06806731 -0.20925106 0.034676038 0.21452844 0.11014359 -0.061825566 0.13412632 -0.099884026 0.09692492 0.037420303 -0.12820968 0.06137565 -0.16623259 -0.29618114 0.012094173 0.032413594 0.20545423 -0.21161038 0.067004144 -0.12412145 -0.5622321 -0.16777626 -0.096378 0.21234255 0.3140723 0.08044464 0.16050634 0.006989997 0.017072536 -0.04279254 0.08511519 -0.28436834 -0.05030559 0.11111307 -0.0059353416 -0.08575426 0.12298965 -0.115744546 0.20717 0.09865696 -0.12836348 -0.22265705 0.0785929 -0.054794636 -0.06779219 0.11001145 -0.0036261077 -0.15171205 0.38352412 0.40138516 0.10604797 0.02026128 0.107595116 -0.046501152 0.16584304 0.02546939 -0.116344646 0.06928612 0.058128115 0.23583151 -0.021035476 -0.09839999 -0.19538482 0.043460764 0.2004765 -0.12474886 0.023280436 0.0908055 0.046783723 -0.13637301 0.0390312 -0.30547318 0.118983835 0.13104473 0.03850896 0.036312215 -0.055443186 0.006718661 0.028671147 -0.13010791 0.093385875 0.0915076 0.37092468
1099 -0.09826685 0.1789947 0.06954763 0.26848152 0.04905596 -0.19441141 -0.01226489 0.27929032 -0.2876444 -0.22205168 -0.07053464 0.22933419 -0.07931185 0.4348719 0.1814051 -0.20097609 0.3371321 -0.10814736 -0.2594738 0.09567344 0.23091808 0.12173027 -0.04277683 0.17952754 -0.08376839 0.09145398 0.028825676 -0.1949169 0.10769426 -0.18528168 -0.39078802 0.046014387 0.010246633 0.23744738 -0.19583577 0.055889525 -0.0992841 -0.66875005 -0.16757095 -0.07346261 0.2018876 0.3694176 0.040454347 0.20678315 0.025410881 -0.0072189183 -0.013825703 0.09712937 -0.3551412 -0.026517943 0.14976366 -0.0210455 -0.10116222 0.12892658 -0.15312786 0.20999378 0.06777244 -0.19582382 -0.27243033 0.0614239 -0.095923804 -0.092569284 0.14943074 0.0108391205 -0.13923691 0.3689074 0.425243 0.14489499 0.09575713 0.07854126 0.031208904 0.17111176 0.016500585 -0.13337888 0.05645377 0.066357054 0.22847734 0.030668266 -0.053638816 -0.19373356 0.09801409 0.28245342 -0.14171964 0.095852286 0.08780338 0.08779956 -0.15763383 0.061863445 -0.32960376 0.14082144 0.09840203 0.098957255 0.021011885 -0.10414677 -0.014462935 -0.0020269323 -0.1618995 0.104751 0.14745443 0.4387938
1626 -0.111058846 0.16994539 0.056478433 0.3055441 0.054283183 -0.18654537 -0.0020794603 0.32729185 -0.33011797 -0.24359493 -0.11605642 0.30968034 -0.15719531 0.4875766 0.23503518 -0.231649 0.36208764 -0.10664847 -0.3622155 0.13666852 0.26316595 0.13214348 -0.08057062 0.21770383 -0.13048138 0.07877175 0.021870002 -0.23857386 0.09240238 -0.16526239 -0.45055798 0.06820578 0.04395256 0.2860859 -0.20880118 0.08729855 -0.066670254 -0.7936982 -0.18399847 -0.059974946 0.20862782 0.46617684 0.05954628 0.23451872 0.0012287183 0.0145249395 -0.046189565 0.08521246 -0.37149164 -0.010432824 0.18176393 -0.016462857 -0.080613755 0.16591881 -0.19171205 0.26545084 0.089326516 -0.21726486 -0.31981367 0.07581122 -0.11467445 -0.1307505 0.21913938 0.0016202404 -0.14825639 0.41981608 0.46581408 0.18186814 0.1275354 0.110218965 0.028573822 0.16851681 -0.0007562102 -0.13919416 0.09915366 0.09832426 0.2863729 0.05048614 -0.06758075 -0.2807261 0.11955516 0.32539612 -0.19507967 0.13967176 0.105355285 0.08424633 -0.15800174 0.045261104 -0.36762086 0.13873236 0.10673715 0.097482644 0.06197395 -0.10166016 -0.005496928 -0.022237012 -0.1697569 0.108224586 0.16860455 0.47369698
73 -0.111925475 0.1766016 0.059172723 0.282689 0.06567336 -0.19862738 -0.0028990642 0.29841462 -0.31989947 -0.23556629 -0.10433827 0.26306704 -0.12842518 0.47588995 0.20904943 -0.21172857 0.35727802 -0.10448144 -0.30495292 0.110594615 0.25340325 0.14217326 -0.06595622 0.20639694 -0.13307758 0.08544268 0.040199704 -0.21330352 0.08978919 -0.18577357 -0.40851912 0.061472673 0.037478693 0.26163796 -0.20448051 0.08227423 -0.08575515 -0.74116176 -0.18401088 -0.064969376 0.22008151 0.4254105 0.06451174 0.21663511 0.003579663 0.0051903143 -0.03961176 0.085931174 -0.35512444 -0.010200128 0.16411613 -0.017907681 -0.07669934 0.15037924 -0.17546324 0.25277394 0.08062438 -0.21137632 -0.28973475 0.05935181 -0.110954076 -0.10406744 0.17730291 0.003031735 -0.15281926 0.39293596 0.4592631 0.1657742 0.11100812 0.11316606 0.018844914 0.1820463 0.017501213 -0.13024773 0.083726995 0.09206192 0.25561184 0.031999182 -0.068530135 -0.2455633 0.10188367 0.2858354 -0.181258 0.11554796 0.10348724 0.08059789 -0.15197359 0.05315581 -0.3435476 0.13500205 0.09504508 0.09896522 0.04852028 -0.08714686 -0.0014114429 -0.022792483 -0.1565442 0.10922987 0.15902343 0.46164542
1353 -0.093248874 0.10827874 0.02759755 0.12483085 0.21405742 -0.2838965 -0.042915568 0.09647731 -0.15682729 -0.055152286 -0.1894813 0.041179966 -0.12648758 0.36167848 0.15135226 0.0015603545 0.2859288 0.014293862 -0.015198546 -0.13127215 0.25020227 0.19095805 -0.04363682 0.25886282 -0.17465469 0.124435976 0.09890874 -0.07746679 0.09326395 -0.06367442 0.024443535 0.084615044 0.04468655 0.18816414 -0.2682655 0.092250705 -0.18975076 -0.2908388 -0.10001944 -0.16245152 0.29285473 0.19100909 0.26755393 0.016973913 0.00019226922 0.03494096 -0.12181578 0.11939023 -0.27203456 -0.092135616 0.09845861 0.03404632 0.011429499 0.17231998 -0.048352633 0.14512102 0.039073654 0.0020447061 -0.038494505 0.12596537 -0.009490696 -0.0053797085 -0.04765606 -0.029722648 -0.13106024 0.20987643 0.44576135 -0.05087383 -0.09120527 0.23504414 -0.19365187 0.26057267 -0.009601802 0.0072271777 0.034468077 -0.048529193 0.15140606 -0.020852506 -0.18531224 -0.14972183 -0.071436845 0.06183895 -0.0110413395 -0.06983076 0.040449157 -0.051802866 0.070587605 0.030994205 -0.19969563 0.070114836 0.10374287 0.081656344 0.016598595 0.12968314 -0.053842213 0.0620295 0.13422565 0.046894707 0.14617755 0.2816994
1906 -0.08878356 0.18901421 0.0665458 0.28596115 0.0492643 -0.188704 0.0038254708 0.3024436 -0.30856448 -0.23748952 -0.09704304 0.26016638 -0.10432487 0.45236298 0.19342133 -0.21571654 0.35066962 -0.11458565 -0.30127233 0.12037143 0.25063726 0.11510172 -0.060409103 0.17603071 -0.112075895 0.09546689 0.036709517 -0.21236575 0.07709949 -0.19142345 -0.43122938 0.040364597 0.023545343 0.23588543 -0.1952515 0.06834015 -0.07938946 -0.7379895 -0.17878005 -0.069583036 0.19757609 0.40923697 0.034488298 0.22726923 0.0067777997 -0.0025621168 -0.02144372 0.080084994 -0.34380376 -0.020122575 0.15522008 -0.022145797 -0.097432174 0.13410085 -0.1763855 0.22696596 0.08297321 -0.22241317 -0.2878783 0.056223083 -0.10241544 -0.106383964 0.17810687 0.0027214808 -0.1460456 0.40479165 0.4227288 0.16126443 0.10205397 0.08748297 0.030696847 0.16848466 0.016078223 -0.1406554 0.07929239 0.09988183 0.24307424 0.017477868 -0.05705299 -0.2278921 0.11313706 0.2954683 -0.17351043 0.097548276 0.10386438 0.0986266 -0.17254123 0.050631125 -0.3519896 0.13903627 0.10327662 0.07822091 0.045914337 -0.10725659 0.00565511 -0.021245778 -0.18283299 0.10370407 0.15011169 0.4443146
523 -0.10825059 0.08759794 0.048671603 0.12229489 0.16120051 -0.2791811 -0.06078225 0.098138876 -0.13450995 -0.021654908 -0.14481989 0.042933386 -0.13014993 0.34717858 0.19562446 -0.018621184 0.26116255 0.042281576 -0.044377945 -0.10996264 0.19754674 0.18733647 -0.05473621 0.24791558 -0.12878403 0.089804605 0.057959847 -0.1198145 0.12246859 -0.025310853 -0.008499078 0.05811162 0.028753895 0.22900201 -0.26121578 0.0607356 -0.18472144 -0.28550988 -0.102299355 -0.14243887 0.3083176 0.16919355 0.19426294 0.027390625 0.01420478 0.05164738 -0.07794401 0.13425535 -0.2802611 -0.11502809 0.07511607 0.026518611 0.005583267 0.17282422 -0.03225732 0.15828872 0.06037393 0.07186987 -0.036228452 0.13875702 0.018391695 -0.018329572 -0.044717174 -0.025842447 -0.09345258 0.23120467 0.46683604 -0.008599736 -0.062373813 0.18189862 -0.17529881 0.24987869 0.011641082 -0.012300217 0.03285392 -0.08255877 0.18383498 0.008201083 -0.1548632 -0.16986741 -0.032896284 0.08731191 0.0041458034 -0.020109577 0.028538022 -0.04971042 0.086812876 0.035499338 -0.20887384 0.09059207 0.122713655 0.08825336 0.0010356507 0.0924043 -0.087343924 0.06926988 0.10507247 0.0443179 0.13242008 0.28402382
572 -0.056990907 0.12908597 0.084345065 0.14718308 0.11640617 -0.23339821 -0.047273584 0.124027565 -0.16861968 -0.09955396 -0.07917182 0.106417425 -0.07080502 0.34125838 0.14509583 -0.08285783 0.26265767 -0.03191929 -0.08820104 -0.045005888 0.17784777 0.12661538 -0.04268644 0.16510682 -0.0806881 0.11029884 0.05657406 -0.095203444 0.11123279 -0.12256328 -0.14184552 0.032880384 0.01554027 0.1816365 -0.22178791 0.049407553 -0.14402014 -0.38179684 -0.12027107 -0.11157136 0.26174462 0.2120052 0.12089514 0.105157115 0.034367587 0.013938403 -0.063152924 0.11264347 -0.26262772 -0.079472244 0.07537037 0.007463743 -0.07118537 0.13743582 -0.067500815 0.14298701 0.048394904 -0.02783572 -0.11245783 0.12341511 -0.020908562 -0.024969108 0.014808642 -0.014518204 -0.11921343 0.28206426 0.4092868 0.01896258 -0.033978917 0.13104789 -0.090017594 0.21302931 0.020853315 -0.07802824 0.039832007 -0.009981727 0.17761312 -0.009238907 -0.10153346 -0.12774548 -0.01720895 0.13882299 -0.042061068 -0.0057550734 0.06905772 -0.0008087557 -0.045262475 0.03178835 -0.25185135 0.114981316 0.12100403 0.04430208 -0.008257435 -0.0010993535 -0.053183097 0.0540509 -0.024663629 0.049943734 0.12638412 0.31781936
1639 -0.055303104 0.19308455 0.0918681 0.19614482 0.09081719 -0.23935333 -0.01927619 0.20563431 -0.24779458 -0.17932577 -0.06772456 0.15231119 -0.03225788 0.36382294 0.14361419 -0.122778185 0.2755299 -0.09154641 -0.15555646 0.021770727 0.2079326 0.097312346 -0.021433402 0.11196217 -0.084360875 0.1304947 0.023772337 -0.10439849 0.07398693 -0.22295365 -0.29916924 0.00406013 0.002891585 0.15954521 -0.18835138 0.04617769 -0.1432373 -0.53467447 -0.16692698 -0.0961143 0.21384189 0.26329976 0.050315913 0.15934551 0.013506066 -0.018450927 -0.024412159 0.09420454 -0.29620135 -0.05083516 0.096903995 0.0017539226 -0.10298156 0.1012235 -0.09749832 0.15378505 0.08690617 -0.1542879 -0.21545246 0.06293097 -0.06482031 -0.04412575 0.082825296 0.008941698 -0.12961653 0.34970003 0.3567059 0.08227232 0.0082667805 0.101944484 -0.010403956 0.17894612 0.042246677 -0.11149953 0.04748982 0.075491115 0.1814608 -0.039326806 -0.082581855 -0.13287278 0.027003098 0.16056465 -0.08431137 0.0043741637 0.061951373 0.071440004 -0.14749235 0.044289406 -0.30079678 0.1209582 0.12942664 0.021382034 0.027094627 -0.08771233 0.011158403 0.04023519 -0.16177091 0.08136727 0.07885183 0.36841533
1249 -0.121957496 0.1720995 0.028910056 0.30131227 0.08572869 -0.20078641 0.025153456 0.33655658 -0.36143473 -0.25019836 -0.18066326 0.2988029 -0.17480129 0.5254814 0.233766 -0.21365845 0.39387807 -0.111582726 -0.3395908 0.13628055 0.29230466 0.16931175 -0.07227087 0.26855233 -0.18006228 0.06857346 0.06134539 -0.24073693 0.088477 -0.18098797 -0.41783625 0.10897694 0.070147365 0.2750606 -0.21314575 0.10120132 -0.078348726 -0.79600084 -0.19239967 -0.076631226 0.20627545 0.47802368 0.123675674 0.22404028 -0.017495763 0.02648186 -0.06668547 0.08393435 -0.39052725 -0.0029122338 0.19712915 -0.01064918 -0.050013717 0.17641121 -0.19076236 0.2505989 0.080572024 -0.26883927 -0.31515893 0.053001493 -0.1379864 -0.123173475 0.1944598 -0.005950419 -0.17487699 0.38377714 0.4826658 0.16063628 0.12815188 0.14477243 0.015708772 0.18007682 -0.005730761 -0.1100877 0.08597807 0.09969331 0.25843138 0.040933225 -0.08644406 -0.29402378 0.099230096 0.31148943 -0.20327023 0.1030478 0.11633463 0.07145505 -0.12211255 0.043345887 -0.33968702 0.13607311 0.086415626 0.1050317 0.09814396 -0.059663832 0.009611197 -0.046132307 -0.117382586 0.10570297 0.1911712 0.4755548
177 -0.09810217 0.18256688 0.05269781 0.29362887 0.076468006 -0.19716914 0.008348705 0.3104246 -0.31059596 -0.24406196 -0.11709468 0.27473402 -0.13286199 0.48074546 0.21216345 -0.20720613 0.35653946 -0.120947726 -0.30374467 0.12795101 0.26381567 0.1340503 -0.077210985 0.21065456 -0.14462131 0.09292498 0.052058093 -0.20061605 0.071114674 -0.19507766 -0.40875968 0.052585002 0.037246775 0.240898 -0.20523201 0.092697114 -0.08240956 -0.7526335 -0.1851105 -0.08020223 0.19222516 0.4263214 0.07203759 0.21702008 -0.0062519484 0.014860209 -0.04642871 0.070924364 -0.35292354 -0.01375166 0.16900109 -0.009243303 -0.07758897 0.14767377 -0.17631 0.24162774 0.097014904 -0.2312065 -0.30398825 0.05666923 -0.119940296 -0.105082475 0.18460986 -0.0055338903 -0.16720635 0.39932808 0.4375528 0.16535802 0.10086784 0.12041853 0.01965625 0.16929595 0.0061493553 -0.13829373 0.086385615 0.11091174 0.25575554 0.01520478 -0.07841581 -0.25185493 0.09326561 0.28056642 -0.18759997 0.07968822 0.105379015 0.08620933 -0.1551506 0.050279237 -0.3425992 0.13637972 0.09325055 0.07896961 0.07362581 -0.07811225 0.022326812 -0.010215821 -0.16258731 0.11776458 0.1432082 0.4537577
1052 -0.08348159 0.19296329 0.06778991 0.28251857 0.061483465 -0.19993286 -0.008368884 0.30449346 -0.30671394 -0.24634229 -0.090441294 0.26284015 -0.09183845 0.44996175 0.19672273 -0.20503333 0.3635792 -0.13617112 -0.2856271 0.10386413 0.24413341 0.12509748 -0.05758062 0.16892917 -0.10294784 0.0969524 0.04260568 -0.1937396 0.07262693 -0.21855916 -0.42657205 0.04374409 0.015852498 0.21613707 -0.19980717 0.06958822 -0.09117816 -0.7300244 -0.1905071 -0.07485876 0.19556369 0.38538292 0.049735308 0.2178481 0.014945391 -0.007079532 -0.018342363 0.08546912 -0.35065082 -0.026708404 0.14539604 -0.02005018 -0.105796956 0.13296592 -0.15545534 0.21945603 0.083040915 -0.23511155 -0.30695638 0.06036478 -0.10628921 -0.10224858 0.18060316 0.021416161 -0.16160916 0.40302294 0.42466897 0.156996 0.11084758 0.09557661 0.048086144 0.16964763 0.024474258 -0.14949924 0.067750685 0.10134862 0.24729985 0.010909268 -0.061177228 -0.21692449 0.10661779 0.2830247 -0.16138183 0.08402589 0.09933098 0.10547145 -0.18827492 0.046888497 -0.35259297 0.14462562 0.11269138 0.06935348 0.05634155 -0.105670564 0.0023125873 -0.012892069 -0.19701545 0.105330914 0.13120085 0.4516646
587 -0.11403325 0.12295354 0.09310433 0.1553245 0.099385 -0.24282937 -0.05661819 0.14686178 -0.17964645 -0.07297814 -0.07141489 0.090116814 -0.06802255 0.3519701 0.17919911 -0.09528619 0.24928673 -0.0075428947 -0.12043267 -0.041372713 0.1593411 0.13048293 -0.033699796 0.17972559 -0.062493354 0.08401505 0.005295046 -0.13171789 0.13691245 -0.0544802 -0.18200684 0.036039136 0.020472629 0.23547992 -0.22117884 0.06248922 -0.14692459 -0.38949573 -0.12042141 -0.10557265 0.26458043 0.240502 0.07783537 0.09548222 0.031519324 0.0066537494 -0.052172292 0.13152659 -0.30817065 -0.07328074 0.08494099 -0.016432058 -0.052306984 0.16187054 -0.04991649 0.15896887 0.06302754 -0.007090209 -0.108949 0.12513578 -0.020138545 -0.055688877 0.015170309 -0.023065021 -0.09015286 0.2649422 0.41289628 0.03696086 -0.024046173 0.11493989 -0.08290888 0.22027355 0.023406707 -0.07688168 0.04088468 -0.023256151 0.19129829 0.034922525 -0.10468123 -0.14133202 0.005941906 0.18360929 -0.031981587 0.042398546 0.042650897 -0.0069842474 -0.013496318 0.044744726 -0.2553187 0.11531592 0.1034992 0.089622006 -0.024871048 -0.023902446 -0.07706929 0.056289416 -0.0033899655 0.065091625 0.12662792 0.31843618
588 -0.047816865 0.16350791 0.14690249 0.15216494 0.124967694 -0.26703122 -0.081934206 0.10826182 -0.1289139 -0.09426396 -0.00470246 0.039418846 0.000574163 0.2787782 0.13826133 -0.061772216 0.2570603 -0.048242208 -0.038564533 -0.07644491 0.14761733 0.11797465 -0.014677519 0.064910956 -0.022583986 0.15287438 0.022489356 -0.04190068 0.0925089 -0.14208241 -0.17228319 -0.045875438 -0.045810822 0.12986197 -0.23358709 0.00935207 -0.1931511 -0.31855002 -0.13177136 -0.12545232 0.2549512 0.12955138 0.05798122 0.09797566 0.051244475 -0.0066980356 -0.0020862455 0.13341385 -0.23753512 -0.1283568 0.014171743 -0.021777255 -0.1005461 0.08223907 -0.026514072 0.12916954 0.07564184 -0.0054976833 -0.1415118 0.12933649 0.014410104 -0.0078047574 0.018509893 -2.744051e-06 -0.112628825 0.32910582 0.3669318 0.03081331 -0.06916964 0.07103747 -0.08836057 0.20715351 0.07598774 -0.10474077 0.023498472 -0.0071564447 0.17525917 -0.053988338 -0.09546237 -0.07779786 2.6060548e-05 0.098567285 0.002324599 -0.052688833 0.047200896 0.044155806 -0.084889494 0.033229604 -0.25418943 0.11993599 0.1688729 0.0045588114 -0.03029629 -0.05328308 -0.03241408 0.09811962 -0.11389834 0.07110611 0.04263113 0.29833144
1124 -0.08817298 0.19706666 0.092032716 0.27696925 0.037909962 -0.20013486 -0.013669873 0.29302356 -0.29229236 -0.23074692 -0.038764838 0.234773 -0.07399402 0.42629674 0.18216258 -0.22323842 0.3279444 -0.12588203 -0.28569862 0.116155766 0.2287053 0.10519459 -0.04561241 0.13858128 -0.07339257 0.099719875 0.00012674803 -0.19074076 0.08666385 -0.21879083 -0.44940138 0.017764889 0.0042306636 0.22030726 -0.1843091 0.04288523 -0.09553473 -0.7257583 -0.18535958 -0.058170125 0.2055922 0.37561944 -0.007821647 0.24578837 0.025126863 -0.012360737 0.012323791 0.09919846 -0.35159203 -0.029488204 0.12539901 -0.018565718 -0.117005534 0.12476145 -0.1595913 0.230864 0.08347208 -0.2056938 -0.29322985 0.058275264 -0.09127272 -0.09195107 0.16710025 0.031064074 -0.12429272 0.4149196 0.41769922 0.16272698 0.10437314 0.06263094 0.06683299 0.17452191 0.0375542 -0.15251587 0.068138406 0.09639772 0.24412496 0.0062601236 -0.049205534 -0.20887078 0.12343194 0.30289203 -0.1522138 0.102628335 0.09451442 0.12034502 -0.21392825 0.052318327 -0.36156598 0.15349375 0.11650377 0.07089591 0.02084637 -0.16026653 -0.0042501963 0.0031784305 -0.22276461 0.109822996 0.12535557 0.46649835
590 -0.09299449 0.17284821 0.065641895 0.2983818 0.043437514 -0.18463951 -0.012234858 0.31053326 -0.31164908 -0.24213998 -0.08924564 0.280142 -0.11718259 0.47091982 0.19654712 -0.22364949 0.36258796 -0.12048136 -0.3292707 0.14904925 0.25211036 0.12687817 -0.0630826 0.18981533 -0.120131426 0.08803831 0.03753028 -0.21729311 0.0907222 -0.18166135 -0.43506095 0.060558986 0.025309525 0.24576367 -0.19811957 0.08164277 -0.064016424 -0.7763244 -0.1722489 -0.054847594 0.2096497 0.43792593 0.04226144 0.23087597 0.011015631 0.008911208 -0.028256996 0.07486136 -0.34869254 -0.0045209546 0.15303977 -0.01617067 -0.07948624 0.15863965 -0.17973778 0.25052756 0.08267121 -0.21878451 -0.3052962 0.056483075 -0.125901 -0.13056816 0.20702405 -0.0013713774 -0.14381212 0.4040589 0.44297057 0.17909937 0.118953615 0.10305605 0.042991742 0.17632024 0.0078129545 -0.1492133 0.08883945 0.1010661 0.2726229 0.028890153 -0.0623981 -0.2425548 0.123175256 0.3079653 -0.1933538 0.13134952 0.10168898 0.10159623 -0.17639866 0.057297558 -0.3497816 0.13834961 0.09868189 0.09804717 0.05548483 -0.11028984 -0.008303291 -0.01605701 -0.17772403 0.1100224 0.16308203 0.4672978
1299 -0.04175445 0.10807209 0.103130065 0.12798269 0.15601005 -0.2771074 -0.08948155 0.06797771 -0.08580811 -0.040438224 -0.07631186 0.020802207 -0.05468383 0.30538216 0.13898809 -0.0083528645 0.26843283 0.022608506 -0.000792786 -0.123214 0.18844637 0.14238967 -0.025846198 0.14392647 -0.0876649 0.12545392 0.06105874 -0.041251775 0.120778926 -0.06211684 -0.0195803 0.03848672 -0.007790502 0.17097569 -0.27569497 0.05184367 -0.19776785 -0.26638192 -0.097144656 -0.12765096 0.32801104 0.15078956 0.17406331 0.024914812 0.03650861 0.039110195 -0.05394591 0.10408323 -0.2379323 -0.10464603 0.03609889 0.023825971 -0.028685564 0.13461518 -0.020171953 0.13125092 0.049443476 0.05777354 -0.042477444 0.15812643 0.011680918 -0.0043996484 0.0018293515 -0.03140898 -0.11285356 0.27773842 0.43949136 -0.006801464 -0.10313754 0.17031713 -0.18004264 0.27107483 0.024435617 -0.046295207 0.072313145 -0.044714313 0.19211729 -0.0091408985 -0.15731773 -0.09410818 -0.059100457 0.08070329 -0.000704132 -0.039098565 0.041902356 -0.041673303 0.015359133 0.038975827 -0.20085762 0.106799014 0.1459366 0.049055833 -0.032648347 0.060149204 -0.075364366 0.10796957 0.058088295 0.021326171 0.11922977 0.2848055
594 -0.06813677 0.13918576 0.106561124 0.21200722 0.082252756 -0.2241051 -0.046465177 0.1850652 -0.20449239 -0.12798105 -0.06862098 0.15127563 -0.08855864 0.37821594 0.17901598 -0.14062218 0.28892478 -0.041497376 -0.19320855 0.02052161 0.19136219 0.10329236 -0.051835764 0.15636833 -0.08191936 0.096533224 0.027196504 -0.15353496 0.11350141 -0.11390332 -0.24707122 0.03594292 0.024337929 0.21629478 -0.21384463 0.04918103 -0.12756787 -0.5197011 -0.12946841 -0.082963414 0.25303656 0.3023136 0.07321475 0.14860775 0.0277908 0.012445411 -0.029195841 0.08799432 -0.29670528 -0.057531178 0.08341533 -0.0032555207 -0.05848706 0.1415849 -0.09470334 0.17619252 0.07441917 -0.06927441 -0.16547695 0.10341957 -0.045421116 -0.06779397 0.07989287 -0.0111775985 -0.114454366 0.3348537 0.4095941 0.107161604 0.025056476 0.11328664 -0.05767714 0.20065656 0.027184555 -0.10733989 0.06826088 0.028233292 0.21943489 0.0057847532 -0.08664298 -0.176217 0.04437712 0.20700464 -0.086326964 0.066507846 0.08712377 0.038394667 -0.10099497 0.04573701 -0.28870273 0.12950253 0.1215049 0.06949611 -0.00934645 -0.047521662 -0.04449933 0.053751875 -0.09325143 0.053091884 0.122915834 0.3686989
1128 -0.030812837 0.112068295 0.09864339 0.099905275 0.16809106 -0.29622796 -0.10296021 0.04276884 -0.055965755 -0.021071093 -0.08139093 -0.0072330157 -0.0633704 0.2733318 0.11867872 0.0005872408 0.26577806 0.038992587 0.034416534 -0.15681976 0.16629528 0.16080137 -0.024166994 0.1269708 -0.080814414 0.12780298 0.06972391 -0.028778592 0.1196043 -0.06853109 0.018882196 0.014241917 -0.015984178 0.15122865 -0.2909435 0.04316456 -0.20732789 -0.20740367 -0.09287848 -0.16462104 0.32545647 0.11436133 0.18329954 0.01590377 0.05738355 0.016966606 -0.06353156 0.11298238 -0.23406242 -0.14390348 0.0045474772 0.026013467 -0.026891546 0.13570741 0.01052006 0.1306922 0.05283151 0.09211503 -0.017403457 0.15229 0.041941732 -0.005003992 -0.036068436 -0.028585088 -0.109157436 0.294099 0.43230516 -0.02620672 -0.13378926 0.1731831 -0.20824662 0.25819892 0.035287783 -0.045218643 0.049215652 -0.08597425 0.17983957 -0.035677377 -0.178787 -0.08951307 -0.05035336 0.073221244 0.020852886 -0.053306013 0.035609823 -0.06454577 0.032642122 0.0224514 -0.19374497 0.09207106 0.16140088 0.03358488 -0.030179562 0.076964825 -0.07044943 0.14041197 0.072472654 0.011377627 0.08551751 0.24756409
1658 -0.111204535 0.14741255 0.055619404 0.262795 0.07775454 -0.20718426 -0.010675703 0.2685404 -0.2810874 -0.20514226 -0.14126737 0.23537008 -0.14189768 0.43355528 0.20962559 -0.1707387 0.33283362 -0.065297544 -0.27993396 0.08633143 0.25119716 0.13880758 -0.07304883 0.21519558 -0.13264021 0.0859439 0.043091413 -0.20543374 0.077012956 -0.1305127 -0.33992514 0.06854729 0.044092443 0.26687625 -0.21475567 0.07883607 -0.09421379 -0.66648513 -0.16905123 -0.07184651 0.21983632 0.40062883 0.09318877 0.18466878 -0.0054941527 0.012851444 -0.05230935 0.09262426 -0.33836943 -0.026398003 0.14524874 -0.00486674 -0.05969703 0.16725391 -0.15297703 0.23733068 0.07827754 -0.16488065 -0.2479417 0.080729984 -0.088123314 -0.08990537 0.16722909 -0.018777272 -0.15052447 0.3695041 0.45812666 0.13764535 0.07173328 0.1320826 -0.03035301 0.18194032 0.005414434 -0.10147856 0.089213334 0.042876925 0.26388815 0.023840792 -0.09640682 -0.25211605 0.07314842 0.26231652 -0.15473314 0.08927563 0.10004712 0.05760947 -0.09963106 0.035509225 -0.31233773 0.12547764 0.103753634 0.0801109 0.040183295 -0.03999846 -0.01604212 -0.00067980314 -0.108853586 0.08775917 0.14513853 0.40737486
1659 -0.06889711 0.14143282 0.12494066 0.19020909 0.11298525 -0.26990995 -0.05763787 0.16530736 -0.1478368 -0.111818105 -0.090517156 0.11110686 -0.08542757 0.31134263 0.1704409 -0.086743295 0.23652874 -0.012353249 -0.15737388 -0.036232833 0.17535003 0.11135451 -0.0654869 0.11398247 -0.0760927 0.11925749 0.024384798 -0.06700697 0.061379716 -0.080478385 -0.18052243 -0.018482605 0.02225257 0.20188038 -0.2173792 0.059978716 -0.15568835 -0.3977063 -0.13947979 -0.12574032 0.2722926 0.24743496 0.11247983 0.09428616 0.010215565 0.030335257 -0.056477454 0.12724951 -0.2566243 -0.08430713 0.069102645 0.00922357 -0.061636724 0.13478106 -0.0952871 0.19059522 0.10081151 0.013787868 -0.13766988 0.123999596 -0.023840232 -0.0437413 0.0809507 -0.028680071 -0.10462796 0.35220405 0.39798594 0.08951749 -0.08710061 0.14579289 -0.1144785 0.195654 0.014337848 -0.10720183 0.06955829 0.0038024324 0.25201052 -0.016878424 -0.124521814 -0.17899378 0.0013071484 0.13194017 -0.06761347 0.0016960416 0.067723595 -0.0043053944 -0.06559467 0.017795239 -0.2645802 0.109395005 0.1607716 0.018559553 0.013587312 -0.01095703 -0.018931031 0.08357152 -0.1015426 0.080075584 0.07795865 0.3329365
597 -0.074933715 0.17846349 0.09800221 0.23651041 0.050781727 -0.20780355 -0.042305324 0.24528043 -0.2431309 -0.18056026 -0.024725948 0.19075294 -0.07916518 0.3700752 0.17068309 -0.17792706 0.285909 -0.09602947 -0.24588284 0.08285627 0.1736711 0.10338543 -0.03677876 0.119613774 -0.047310404 0.08456704 0.00081027945 -0.1688393 0.10218766 -0.15942015 -0.3740407 -0.005768067 -0.0035883128 0.2275839 -0.18671799 0.041931156 -0.113542706 -0.597778 -0.16157486 -0.084111124 0.21653263 0.31650728 -0.010643873 0.1994765 0.03106875 -0.0040041544 0.0033968384 0.121258005 -0.30392823 -0.039869476 0.100226834 -0.03246373 -0.118856475 0.1278531 -0.13781145 0.23373495 0.08549988 -0.11264611 -0.24331994 0.09515747 -0.06490601 -0.07095952 0.14721012 0.026265334 -0.09937146 0.38612542 0.4073422 0.14029804 0.061388265 0.057900447 0.018778907 0.1836562 0.033602513 -0.15585193 0.06615982 0.065073654 0.2409294 -0.0019705477 -0.05752603 -0.18214306 0.09895786 0.24241571 -0.12047924 0.10182024 0.07049071 0.08817385 -0.1510526 0.06442499 -0.33388296 0.13186765 0.13501316 0.06965095 0.0045251534 -0.13187997 -0.022525508 0.025104925 -0.18919446 0.10009715 0.11151676 0.40623716
1672 -0.09355545 0.17342366 0.0720452 0.264179 0.066173285 -0.20899642 -0.017354926 0.25711772 -0.2625983 -0.20326446 -0.092921294 0.22347341 -0.109153174 0.42410505 0.18722834 -0.18018267 0.3368575 -0.083598584 -0.25729024 0.07554517 0.24029665 0.13007264 -0.062032558 0.1866166 -0.10527021 0.08712199 0.03931367 -0.18441261 0.09295686 -0.166122 -0.34547916 0.053779487 0.02267899 0.23509178 -0.2095445 0.06442627 -0.09769466 -0.6621559 -0.16870227 -0.0829462 0.21913922 0.366495 0.07418341 0.18966043 0.014079959 0.011653684 -0.034492888 0.08841468 -0.34015644 -0.024375752 0.13283728 -0.014741516 -0.06620203 0.1510469 -0.13484739 0.22265704 0.090457715 -0.15519248 -0.2467658 0.08150158 -0.08807903 -0.10017933 0.14950773 -0.011648295 -0.13577643 0.37419686 0.4278939 0.134526 0.069627054 0.11663141 -0.0037431445 0.18500777 0.01970564 -0.12766051 0.07521563 0.057053942 0.2384617 0.00986443 -0.089743406 -0.20972662 0.07370158 0.2561132 -0.1363763 0.08556534 0.0864815 0.079671316 -0.12965289 0.05493492 -0.3155902 0.13872011 0.10306089 0.07989968 0.038611315 -0.070877 -0.017204897 0.010483887 -0.13185957 0.08426002 0.13636927 0.42198637
1143 -0.08171999 0.18009837 0.12068375 0.21039808 0.053564705 -0.20309411 -0.061026998 0.18942925 -0.21556172 -0.1466419 0.004979314 0.13216698 -0.03379144 0.33720037 0.14874257 -0.1597584 0.2959473 -0.082229905 -0.17372313 0.037560683 0.16001895 0.11691739 -0.02454213 0.12577735 -0.03976968 0.10257043 -0.009610225 -0.14480641 0.12138681 -0.14574315 -0.32461685 -0.0018555248 -0.031102818 0.19899403 -0.2109729 0.034220185 -0.11439901 -0.5209924 -0.12820199 -0.075572066 0.22715272 0.26216847 -0.0030153692 0.16097412 0.055878896 -0.018752038 0.020883065 0.13050653 -0.29064685 -0.06289305 0.08075418 -0.02544739 -0.11118927 0.10939499 -0.08490291 0.17395623 0.06149814 -0.09257204 -0.1962633 0.11637821 -0.05489815 -0.061370358 0.09302302 0.005797597 -0.09054795 0.3332991 0.39175767 0.09415135 0.05890786 0.05335955 0.020324945 0.18815409 0.03969957 -0.13672641 0.04607189 0.023889374 0.19316177 0.014353793 -0.05695463 -0.1268633 0.0838362 0.22511554 -0.060252238 0.09325915 0.0562806 0.07176286 -0.121435285 0.06000013 -0.2972777 0.14062877 0.114691846 0.084685765 -0.019898834 -0.12996452 -0.04586023 0.03525114 -0.14094777 0.0761568 0.11466436 0.3683432
1419 -0.055759184 0.1946509 0.10213055 0.23928356 0.0389374 -0.20013653 -0.033512138 0.2536816 -0.23970623 -0.20408905 -0.008691248 0.20408934 -0.061921135 0.37069955 0.164748 -0.20789914 0.29828537 -0.12801431 -0.24420562 0.091326855 0.17484464 0.091463394 -0.027244419 0.10756317 -0.043450225 0.100264594 0.0057348744 -0.16846837 0.097820565 -0.19714306 -0.404865 -0.038830932 -0.022167875 0.20577954 -0.18928741 0.03733234 -0.10485407 -0.6263296 -0.15690714 -0.07916849 0.19342524 0.30744871 -0.040110767 0.22263208 0.043398168 -0.016324537 0.018020023 0.108931676 -0.3108862 -0.051135868 0.10741303 -0.04491495 -0.12848492 0.1023842 -0.12804057 0.21016581 0.09004862 -0.13449444 -0.26496026 0.076461285 -0.05380126 -0.05833616 0.14275306 0.038920384 -0.11773248 0.40722424 0.39257002 0.14048147 0.073244594 0.037625704 0.045404274 0.17350307 0.041125465 -0.16441682 0.060440846 0.07694902 0.23337415 -0.009173981 -0.046396367 -0.17426123 0.10979552 0.27041447 -0.11739771 0.10086685 0.076035626 0.09612467 -0.19451603 0.069581695 -0.33935797 0.14093266 0.13054276 0.05254977 0.003943825 -0.15978119 -0.01863955 0.022157995 -0.23048703 0.11136208 0.09536223 0.40329143
608 -0.067296125 0.12074356 0.07549565 0.14022207 0.1617993 -0.28692022 -0.05814734 0.10200731 -0.1224881 -0.048698075 -0.13741502 0.04112034 -0.092539474 0.32088 0.16016498 -0.018352475 0.2504042 0.027720736 -0.051983513 -0.103460915 0.21171342 0.15216513 -0.052767 0.18664046 -0.123946756 0.1248336 0.06660297 -0.06839476 0.08335725 -0.06519805 -0.016742926 0.034988925 0.027243994 0.18858072 -0.258895 0.08168903 -0.19210383 -0.29200745 -0.1059428 -0.14436191 0.30057046 0.16798137 0.20292985 0.04730145 0.0067689857 0.019741733 -0.074368395 0.118786745 -0.25561956 -0.11412264 0.051659774 0.03046528 -0.02004244 0.16368924 -0.048748143 0.15549436 0.06274718 0.04754949 -0.06719841 0.12775232 0.0013381925 -0.006954451 -0.015291185 -0.01592874 -0.09969952 0.2567601 0.4266381 -0.012454113 -0.105360374 0.18940368 -0.19419862 0.24116077 0.010867646 -0.031384785 0.04819572 -0.05553471 0.20440397 -0.02211278 -0.16339783 -0.1385152 -0.038504433 0.070781626 -0.02585708 -0.038313184 0.055047296 -0.052722983 0.021305831 0.026255934 -0.2171813 0.0957939 0.13114177 0.05715856 0.012029367 0.06389803 -0.056602262 0.08783057 0.0408091 0.042037945 0.10992932 0.2818255
1146 -0.058117982 0.090750776 0.09744082 0.13377841 0.1852938 -0.28982738 -0.074752845 0.09075973 -0.111618966 -0.033870347 -0.1427136 0.03581778 -0.117162004 0.32330683 0.17852187 -0.0015019632 0.25165367 0.056209512 -0.039290268 -0.12025987 0.19754761 0.15313675 -0.054922674 0.18939464 -0.12595013 0.117138304 0.07313105 -0.053619143 0.086473405 -0.01866786 -0.0030064094 0.0345535 0.049470637 0.2128506 -0.2780158 0.07296751 -0.18893337 -0.25835085 -0.11010573 -0.15515913 0.32650197 0.18031773 0.226332 0.023664754 0.01928421 0.047583483 -0.09808277 0.12033016 -0.2388417 -0.11084758 0.040775802 0.031287383 -0.014713716 0.1738391 -0.026368216 0.14694235 0.070495605 0.10433482 -0.03957912 0.15632749 0.023218824 -0.020316238 -0.022181716 -0.03414706 -0.11694499 0.27716237 0.43966842 -0.011654974 -0.14046417 0.19498031 -0.23228528 0.24800538 0.014041623 -0.02724285 0.086258925 -0.06650193 0.20679311 -0.016019503 -0.19082047 -0.15791959 -0.059964374 0.063821346 -0.030900279 -0.056397088 0.06424598 -0.059811424 0.049396057 0.011859594 -0.19336252 0.09213238 0.14420865 0.04832806 -0.0007039197 0.094812326 -0.049207877 0.09228255 0.08777306 0.028823387 0.09370424 0.25803292
2126 -0.07390201 0.17879924 0.08568997 0.2628943 0.059989076 -0.20413898 -0.015742645 0.27747816 -0.27388728 -0.20678176 -0.08950811 0.23056853 -0.104547225 0.42767596 0.19268551 -0.18240002 0.3428695 -0.087530926 -0.27096215 0.09564882 0.24502653 0.12268993 -0.061283708 0.15960336 -0.10713971 0.11183407 0.03729368 -0.17655736 0.09060171 -0.17385598 -0.37701547 0.024018774 0.014654173 0.22147788 -0.20199299 0.074063785 -0.10812657 -0.6759613 -0.17616804 -0.072852865 0.21959166 0.37644008 0.06202739 0.19772387 0.016650056 0.012443184 -0.032929678 0.08506975 -0.32759607 -0.028116524 0.11772155 -0.01823024 -0.092394985 0.13424669 -0.16003805 0.22888316 0.10392009 -0.18151705 -0.2741101 0.073780015 -0.090331376 -0.09400743 0.16560045 0.0012182022 -0.14314981 0.41798204 0.43416503 0.1434818 0.07325849 0.12084843 0.0066630426 0.18752521 0.02025255 -0.138221 0.075686686 0.09246367 0.25967002 0.005756384 -0.08276231 -0.21502592 0.09181517 0.25863472 -0.16146477 0.07646582 0.093395434 0.08207332 -0.16085885 0.05346601 -0.33267418 0.14087775 0.11182899 0.057210438 0.04789506 -0.09133998 -0.006792925 0.019309452 -0.16498537 0.09239823 0.12485686 0.42412573
1151 -0.08085904 0.2082651 0.086537264 0.2654099 0.050505433 -0.20497939 -0.017175434 0.27717578 -0.27347857 -0.20885156 -0.037084688 0.22992769 -0.06704623 0.40431374 0.17126325 -0.2127319 0.32655245 -0.1395011 -0.27215752 0.10819843 0.21124187 0.11141506 -0.054500178 0.14415857 -0.08402222 0.090601616 0.023794763 -0.17443448 0.093225054 -0.21123977 -0.41887507 -0.000926628 -0.0061799525 0.20149274 -0.19645326 0.054365635 -0.112656176 -0.6829348 -0.17025904 -0.079413384 0.18868877 0.33831233 0.0026360885 0.24577585 0.030844951 -0.006249038 -0.0057365927 0.1037939 -0.3275379 -0.032113876 0.12002138 -0.03797739 -0.12139549 0.10922897 -0.15548001 0.22862703 0.090676285 -0.1958011 -0.28368145 0.05981803 -0.07870544 -0.08092891 0.16522583 0.023645693 -0.1338863 0.4216289 0.39816436 0.14246537 0.09049714 0.054077797 0.0531293 0.16701464 0.040646594 -0.16719039 0.052899186 0.100695185 0.24033459 -0.021611897 -0.045904446 -0.1894397 0.10425629 0.26019582 -0.13767003 0.07382903 0.07183257 0.10658841 -0.197483 0.069875196 -0.34855524 0.14333552 0.12448963 0.048279036 0.030424269 -0.1413897 -0.0035825954 -0.004169129 -0.22783934 0.108975925 0.11617276 0.4315829
1686 -0.08367118 0.15439703 0.06503047 0.22956547 0.09581276 -0.22071631 -0.014368215 0.23339838 -0.25119087 -0.16965742 -0.10484033 0.19334066 -0.118265465 0.40391594 0.17551966 -0.13399398 0.3142871 -0.07194135 -0.22397801 0.045322273 0.22730716 0.13764025 -0.057477403 0.17421906 -0.1016335 0.10137568 0.039803416 -0.16420318 0.07782101 -0.15027985 -0.30466813 0.036121566 0.025712451 0.2182452 -0.2121576 0.07534498 -0.10862866 -0.5911272 -0.15854289 -0.09767621 0.21923351 0.3203552 0.07872599 0.17209524 -0.0014520313 0.008553306 -0.040638994 0.10798096 -0.3049508 -0.052014776 0.12838432 -0.0013669622 -0.07056976 0.13241306 -0.12923385 0.20850511 0.08832319 -0.12553251 -0.22084185 0.07423519 -0.06397552 -0.07532051 0.10891255 0.0037446069 -0.13644671 0.34240654 0.4104672 0.10777041 0.041690413 0.12046697 -0.026928598 0.17171979 0.0057928357 -0.106721826 0.05538036 0.048645087 0.23125981 0.007293729 -0.091334686 -0.20270304 0.051550303 0.22232313 -0.12278254 0.037328236 0.081954606 0.058406036 -0.103509404 0.03425957 -0.29580984 0.124770954 0.114778005 0.07390669 0.030611342 -0.052569922 -0.008788319 0.016171502 -0.112835184 0.10213357 0.12463115 0.38241464
1734 -0.044922326 0.11573099 0.14203562 0.08993122 0.17084506 -0.30661136 -0.107457645 0.02216179 -0.069230534 0.010430662 -0.08453856 -0.03414139 -0.040346347 0.2770286 0.14437251 0.026382934 0.24182296 0.06027516 0.042795077 -0.172791 0.14599115 0.1518023 -0.018074619 0.14011954 -0.062057503 0.13037102 0.038696274 -0.040055897 0.1268997 -0.036317855 0.034520555 0.023858564 -0.01515375 0.17535324 -0.29304603 0.036150374 -0.23729229 -0.19506001 -0.10351372 -0.13699868 0.3522731 0.090471916 0.17854886 5.476481e-05 0.048703194 0.031025559 -0.06352034 0.12260129 -0.22708553 -0.1557838 0.012390275 0.029332979 -0.026520394 0.1473237 0.02672931 0.10632234 0.05258951 0.11773573 0.007921617 0.1780435 0.0589723 0.006548324 -0.06587085 -0.022694368 -0.085984364 0.25225118 0.42631936 -0.046404034 -0.13685544 0.16872919 -0.2226385 0.27080992 0.067823574 -0.035485636 0.047332957 -0.09003192 0.16380802 -0.018394457 -0.17390987 -0.07719007 -0.080851585 0.05392906 0.039715987 -0.05463202 0.04677886 -0.031611435 0.03900097 0.02550914 -0.19946198 0.099620484 0.15960084 0.055294506 -0.049184706 0.05518407 -0.08674499 0.14691421 0.077048816 0.0059680264 0.07145352 0.25429314
1155 -0.08887498 0.16287239 0.09026725 0.22520486 0.06051679 -0.20180587 -0.034299307 0.22413594 -0.25050104 -0.17692634 -0.06343816 0.17573947 -0.06505519 0.38709038 0.16784094 -0.14699334 0.31882912 -0.071694665 -0.18864031 0.045341328 0.20737924 0.121511795 -0.026392432 0.15777032 -0.07937475 0.10226602 0.02721253 -0.169935 0.09778796 -0.16245148 -0.32360741 0.043353498 0.0020563998 0.20239258 -0.19893357 0.05809861 -0.10807581 -0.5814119 -0.1638581 -0.08710613 0.2295676 0.31186628 0.046050843 0.17182593 0.026524767 0.0012859808 -0.03273477 0.093451485 -0.31374216 -0.044395994 0.10563035 -0.014101152 -0.08171408 0.12732615 -0.10538002 0.18081167 0.059240215 -0.14973757 -0.22718674 0.08966917 -0.06807895 -0.07762154 0.10552736 -0.0038573032 -0.12680861 0.3446923 0.40602833 0.10010122 0.061343405 0.08322303 0.0035750617 0.19032456 0.03600478 -0.12102452 0.060974415 0.04517689 0.20820226 0.013228084 -0.063798115 -0.15873308 0.06375804 0.22424462 -0.09951052 0.06473073 0.07752263 0.065040566 -0.1282929 0.04195711 -0.30158716 0.12931849 0.10796142 0.08597667 0.007795206 -0.089550346 -0.021060506 0.020310609 -0.13021581 0.08648738 0.12053149 0.39121732
1690 -0.081738144 0.06864793 0.11152487 0.14040428 0.15119989 -0.27185145 -0.094600804 0.072297 -0.07883256 -0.02739465 -0.13958725 0.045011338 -0.13377258 0.29837614 0.20579986 -0.00754694 0.22334778 0.10937085 -0.06777876 -0.10414301 0.14658217 0.14221922 -0.08458607 0.17335366 -0.06785279 0.099366374 0.033777967 -0.08406345 0.09388199 0.057866536 -0.034562808 0.008741266 0.04371378 0.2757106 -0.2696106 0.04086023 -0.19424279 -0.2446991 -0.113037 -0.16042966 0.34759277 0.20085715 0.18075554 0.026338557 0.012664234 0.055137325 -0.08594622 0.14473552 -0.24710636 -0.13795243 0.004013201 0.0035767285 0.0037515652 0.20053346 -0.0021274802 0.17850906 0.09791712 0.17272386 -0.024301108 0.20261826 0.028745903 -0.038367126 -0.008413772 -0.052189592 -0.05987984 0.27803737 0.46583942 0.030573063 -0.1446814 0.17742512 -0.23237282 0.22287153 0.024405535 -0.020135341 0.09133828 -0.1183157 0.25659424 0.035918802 -0.18635705 -0.17577961 -0.03825856 0.10244535 -0.04593035 0.016384553 0.055967852 -0.07673906 0.061074525 0.012673357 -0.22586794 0.0950059 0.15161845 0.05708655 -0.02243967 0.061745327 -0.07169745 0.13737534 0.07181946 0.02613468 0.11521208 0.26955086
1691 -0.0978773 0.14967845 0.060786307 0.26109987 0.08412109 -0.20311782 -0.009146168 0.28234643 -0.26460665 -0.19661191 -0.14153267 0.259734 -0.14049032 0.44804442 0.21554852 -0.17583887 0.34482542 -0.075609334 -0.29452044 0.08983035 0.25334603 0.14041947 -0.08761995 0.20833735 -0.13781999 0.08668266 0.042255737 -0.19114935 0.060462717 -0.13431126 -0.3508906 0.06254873 0.055397987 0.26748282 -0.20597623 0.081192866 -0.082614355 -0.6809442 -0.17077924 -0.0759503 0.22937265 0.40729845 0.09327946 0.18513809 -0.0056813564 0.020361312 -0.059164543 0.07642647 -0.33148646 -0.020033082 0.14997292 -0.0039293747 -0.053321898 0.17076433 -0.15680403 0.23663111 0.084856026 -0.16312832 -0.25788435 0.08765872 -0.10054448 -0.10042275 0.17992817 -0.016496545 -0.15628834 0.3912803 0.44789395 0.14910993 0.06401303 0.13039196 -0.026008993 0.1779215 0.005954485 -0.10763918 0.089126185 0.06337624 0.2632443 0.030450018 -0.08768813 -0.25827703 0.08170853 0.26125053 -0.18318349 0.08888436 0.105717845 0.052129783 -0.115621 0.038698945 -0.31205726 0.12904441 0.10567309 0.07645531 0.050118495 -0.048751775 -0.006628461 -0.004467885 -0.11668521 0.09296463 0.15642813 0.42434862
620 0.012959939 0.24549769 0.21763633 0.15514053 0.030312946 -0.24326019 -0.119867854 0.11839691 -0.14936921 -0.16613978 0.16005759 0.062130667 0.17346936 0.21577923 0.05184662 -0.12159764 0.22466381 -0.122860394 -0.044015598 -0.013473558 0.11272841 0.024735892 0.03640394 -0.08852073 0.09788582 0.2234754 -0.040379085 -0.020473186 0.11529462 -0.27612704 -0.3544454 -0.12235797 -0.121572524 0.046827976 -0.21533251 -0.05330952 -0.19833344 -0.3972401 -0.13786338 -0.06943839 0.22981545 0.11918395 -0.13473175 0.18470529 0.11254298 -0.09464504 0.09186761 0.12983632 -0.25346464 -0.09426679 -0.035656147 -0.030528916 -0.21518505 0.0038331929 -0.03490082 0.10149921 0.08041498 -0.09115403 -0.19963108 0.10128098 0.008292278 -0.0070737833 0.041918788 0.030079728 -0.07971945 0.4412604 0.3011572 0.0690463 -0.015615338 -0.03532187 0.05559291 0.22729188 0.13284595 -0.23068883 0.027823593 0.06173315 0.14152391 -0.070966445 -0.040454704 0.0353443 0.022560934 0.15768968 0.012008707 0.0087069655 0.06151829 0.13637842 -0.2832635 0.072239295 -0.3078519 0.18061627 0.18030062 -0.036978435 -0.114895135 -0.21866216 -0.033954244 0.12051299 -0.31371045 0.06859793 0.0045435973 0.36043897
1483 -0.08930204 0.12521501 0.056626715 0.20239799 0.10226131 -0.21842185 -0.02992203 0.20390376 -0.24360128 -0.1474351 -0.13182002 0.16013719 -0.11864632 0.3913368 0.19330887 -0.120580904 0.31282255 -0.03650689 -0.19486235 0.03145704 0.21423517 0.14902067 -0.053142495 0.22507231 -0.11699355 0.087151945 0.05942799 -0.17941189 0.1061542 -0.10745605 -0.23805301 0.07147052 0.03335812 0.2358206 -0.21100202 0.07970032 -0.115286015 -0.53494126 -0.14617755 -0.09240915 0.24319884 0.30780697 0.11238785 0.13987793 0.017135177 0.016994957 -0.05706461 0.10180777 -0.31626981 -0.047477216 0.120431095 0.0032188033 -0.03883887 0.15131676 -0.09443555 0.19152562 0.04786863 -0.1115778 -0.17765608 0.10231422 -0.068848796 -0.06266057 0.08082683 -0.0004943452 -0.119689256 0.28540698 0.423631 0.08838269 0.047898535 0.14323583 -0.04733615 0.20473696 0.026029311 -0.061066817 0.053738758 0.008774983 0.21360737 0.03244712 -0.10241787 -0.19627374 0.036181465 0.20828885 -0.09386242 0.059263323 0.06337817 0.031034501 -0.048159115 0.04418975 -0.27690253 0.110725455 0.09715117 0.106842875 0.018759703 -0.01697634 -0.045342013 0.00083608506 -0.050777923 0.06926326 0.1574447 0.38061488
622 -0.10059705 0.12814224 0.046539 0.19014597 0.12825565 -0.2258084 -0.0029733572 0.19401583 -0.24328282 -0.12494938 -0.14373809 0.15440153 -0.13819896 0.4038018 0.19821295 -0.106362574 0.32184616 -0.031463526 -0.16581225 0.0014054785 0.22489086 0.16068822 -0.045744732 0.2496447 -0.14111742 0.09766056 0.07063854 -0.16062114 0.10962617 -0.105913624 -0.18012312 0.08555192 0.028311117 0.24358453 -0.22243278 0.068470575 -0.122755215 -0.49471304 -0.1226791 -0.1116318 0.24809325 0.2973232 0.14334987 0.10729609 0.00040486024 0.019957194 -0.08295985 0.11252708 -0.31879643 -0.048453193 0.1363974 0.019188236 -0.023117995 0.14888445 -0.110489145 0.173873 0.055628605 -0.10455401 -0.15590826 0.108219415 -0.056154866 -0.053393625 0.040190946 -0.018378604 -0.1358391 0.2810294 0.43051344 0.07307325 0.03213654 0.14578092 -0.07439755 0.20791776 0.0029881864 -0.038074434 0.068589106 -0.0031941154 0.1941269 0.031495407 -0.12036786 -0.20729505 0.030122226 0.1932971 -0.0725721 0.04407902 0.057002377 0.020447755 -0.034462675 0.04776351 -0.25357792 0.106002726 0.09131632 0.10410303 0.02342531 0.015303356 -0.040730655 0.0131142475 -0.0026233387 0.06933579 0.16600409 0.34451276
625 -0.10173723 0.17746736 0.10540887 0.265851 0.020937707 -0.19131733 -0.042018313 0.25870657 -0.27757436 -0.19062382 -0.02528817 0.21571058 -0.080688715 0.40651459 0.1948309 -0.20413607 0.32021603 -0.09518238 -0.27799007 0.10204502 0.18502863 0.12135059 -0.04154849 0.15443718 -0.046269197 0.06683408 -0.016047759 -0.22674938 0.12897979 -0.154618 -0.43050995 0.024222564 -0.01186982 0.24706326 -0.18997535 0.026205203 -0.09638161 -0.6680815 -0.15841344 -0.050532263 0.2170498 0.35337514 -0.02723936 0.21116196 0.030343514 -0.018220663 0.004582769 0.11733337 -0.35433006 -0.037541617 0.120814584 -0.04051065 -0.110512294 0.13450691 -0.12723088 0.21717387 0.062382285 -0.13479258 -0.2561051 0.09677345 -0.07359161 -0.10963864 0.14049405 0.020251779 -0.090825506 0.35818717 0.43060398 0.14424422 0.12680359 0.04819253 0.05853912 0.18080534 0.037206303 -0.15299256 0.06515544 0.04739297 0.24319051 0.04739216 -0.043549858 -0.19269772 0.12636746 0.29716533 -0.12050393 0.1634019 0.07667509 0.10344018 -0.14746536 0.06400911 -0.34451592 0.15220013 0.10685407 0.11530624 -0.015124738 -0.14455245 -0.043808524 0.012354018 -0.17018843 0.105173826 0.14005543 0.4344577
441 -0.12452103 0.17831102 0.052917898 0.3222487 0.06863773 -0.19385873 0.009775022 0.34414306 -0.3389268 -0.26354823 -0.13967913 0.31775817 -0.16916867 0.5194768 0.23633288 -0.23874113 0.39553836 -0.10223288 -0.36809817 0.14840034 0.2775211 0.1515628 -0.09054437 0.23289646 -0.15596175 0.08145259 0.0489929 -0.24339065 0.09163827 -0.17614831 -0.46904907 0.08274059 0.062526494 0.30054563 -0.21002944 0.09294628 -0.067072846 -0.8435185 -0.20124917 -0.06820622 0.21600394 0.49093133 0.081707425 0.25029555 -0.001233543 0.020308815 -0.04863127 0.090055145 -0.3911485 -0.0063131056 0.19298638 -0.024142995 -0.07844253 0.1793244 -0.20938353 0.27722624 0.09252808 -0.24934828 -0.33124113 0.07240502 -0.13947684 -0.1430756 0.22103126 0.0011904747 -0.16775186 0.42341343 0.48867196 0.1894779 0.13999729 0.1227425 0.028876211 0.17109929 0.0040877606 -0.13540179 0.104407206 0.11307721 0.30746603 0.03600747 -0.073214404 -0.3006699 0.13586546 0.3432789 -0.22303706 0.13261749 0.109044656 0.08795074 -0.16349849 0.045784216 -0.3743333 0.14619716 0.09665813 0.10137538 0.08357388 -0.08934158 0.007449308 -0.03155768 -0.16402225 0.10585129 0.1829295 0.48550263
627 -0.08562685 0.15493554 0.087809615 0.25443918 0.08441199 -0.20128009 -0.018753923 0.24304365 -0.23647447 -0.18583007 -0.11288929 0.1995562 -0.11826356 0.41435844 0.1842851 -0.16060661 0.32507515 -0.059971888 -0.25278425 0.054300968 0.22058873 0.124527015 -0.068035625 0.16437797 -0.11215381 0.088886574 0.04394931 -0.16411558 0.08392632 -0.13767289 -0.32495683 0.035369597 0.036020175 0.2371223 -0.21489097 0.07158698 -0.10129533 -0.6101706 -0.15257677 -0.09154588 0.23552789 0.36344627 0.08052586 0.16005628 0.015430815 0.0228248 -0.04146897 0.08129982 -0.3170624 -0.028181855 0.111324586 -0.010179835 -0.05042542 0.14733015 -0.14862436 0.23043917 0.089637235 -0.1322409 -0.22583756 0.09308974 -0.075728506 -0.08542211 0.15992205 -0.014214598 -0.14382003 0.38880637 0.4375908 0.13779181 0.03739444 0.12667853 -0.036333162 0.18602528 0.007423319 -0.10325084 0.08660357 0.048565652 0.24909176 0.014280119 -0.101807795 -0.23354977 0.06430789 0.23951142 -0.14165969 0.082258195 0.09409641 0.037762377 -0.109432176 0.048624486 -0.31313142 0.1274907 0.12130975 0.06490231 0.038143456 -0.056765076 -0.0013566166 0.020820877 -0.11238594 0.09119916 0.13293305 0.40077245
1527 -0.1069239 0.089310706 0.09875736 0.1014792 0.14998914 -0.26939338 -0.09338506 0.046670496 -0.08992752 0.029003803 -0.10965981 0.00455788 -0.089572385 0.30011788 0.19343095 -0.016699415 0.24680506 0.09268586 -0.02560509 -0.11423802 0.13448429 0.17341204 -0.0377418 0.22232527 -0.05751472 0.08604158 0.017594062 -0.14213611 0.16616082 0.057147026 -0.013756381 0.0678656 0.010732493 0.27228406 -0.26220727 0.03467555 -0.18407229 -0.2286122 -0.0675459 -0.1400843 0.3524392 0.16097774 0.1544118 0.000111833186 0.03832983 0.044928737 -0.07678328 0.17632988 -0.29559502 -0.13216832 0.026985705 -0.010824624 -0.015075216 0.17641966 0.005743182 0.1584365 0.025554072 0.15826666 0.01632772 0.19257805 0.048163354 -0.029417513 -0.06044752 -0.030210583 -0.067281604 0.19581197 0.4708464 -0.026562756 -0.049988396 0.13751608 -0.1987563 0.26849878 0.024909101 -0.013778901 0.037607696 -0.16523285 0.18522406 0.0656871 -0.15406924 -0.13335568 -0.0060057524 0.10218201 0.032346264 0.06619594 0.033807524 -0.05120195 0.12787066 0.061042584 -0.19449498 0.09514521 0.11345948 0.13715789 -0.057459228 0.038290855 -0.1482271 0.10171809 0.14334215 0.03644634 0.16763389 0.28193015
235 -0.045386624 0.15390539 0.12844688 0.12540923 0.14516243 -0.31161505 -0.054293286 0.11539312 -0.14056449 -0.07619836 -0.07739221 0.047351614 -0.05577094 0.29918882 0.16918573 -0.027705442 0.23241471 -0.009419819 -0.053618543 -0.08790554 0.14281729 0.11184621 -0.044787005 0.10199927 -0.06513982 0.13119128 0.026803894 -0.03542565 0.07842875 -0.12496941 -0.14565618 -0.04424381 -0.012983095 0.16209672 -0.223912 0.03256554 -0.20459992 -0.30849418 -0.14063169 -0.1789039 0.26726145 0.1574732 0.08517861 0.08868804 0.010051254 -0.0021142152 -0.040126532 0.1430614 -0.2465371 -0.11419503 0.024092311 -0.010724833 -0.09703995 0.10220356 -0.04192808 0.15082458 0.09379363 0.035592083 -0.10743112 0.123110764 0.024953432 -0.00015967303 -0.011143099 0.0035066854 -0.10831523 0.3315499 0.36251944 0.014509647 -0.119262435 0.09976355 -0.14548776 0.18974577 0.04260411 -0.08434564 0.024026856 -0.02130274 0.1943094 -0.069788165 -0.12828682 -0.14435808 -0.031816572 0.07066933 -0.024681259 -0.05917207 0.039545722 -0.00091468147 -0.07273483 0.021665927 -0.24281566 0.08759704 0.16401286 0.003098058 -0.0051747127 -0.016151497 -0.010727906 0.11011801 -0.079318956 0.0748043 0.035787117 0.2905834
1537 -0.105180256 0.15317078 0.05486198 0.25880814 0.079608634 -0.1979126 0.00044093127 0.26947266 -0.281258 -0.19070613 -0.12755549 0.2370411 -0.14976785 0.449396 0.20319189 -0.17505482 0.35418054 -0.066601336 -0.27089137 0.0872586 0.25290012 0.15578496 -0.07144749 0.2377221 -0.13886344 0.0722487 0.044260938 -0.21552694 0.0928877 -0.12033367 -0.34012312 0.085211545 0.041186627 0.27544567 -0.20714211 0.080571905 -0.09571475 -0.6743892 -0.15770632 -0.073696926 0.24282633 0.40135515 0.102601424 0.17123999 0.004458043 0.019946357 -0.051427368 0.08506207 -0.35858142 -0.02195128 0.15117098 -0.008991947 -0.049235366 0.18360813 -0.15165736 0.23196848 0.068716444 -0.15882547 -0.23719448 0.083977535 -0.09422246 -0.098082066 0.14799006 -0.013152275 -0.13642925 0.35758173 0.46172872 0.12852333 0.08716532 0.13717344 -0.013554575 0.18892735 -0.00089864276 -0.0959027 0.09226256 0.044238646 0.2584483 0.05559468 -0.084438965 -0.24011068 0.07815463 0.2822558 -0.16092263 0.10839652 0.09904976 0.04898498 -0.082068786 0.05008985 -0.30973417 0.13418704 0.08845355 0.11588884 0.0439036 -0.05138197 -0.024755962 -0.004560231 -0.087736696 0.09057394 0.1728196 0.4194102
1634 -0.11403614 0.17206787 0.12226237 0.24163964 -0.004120047 -0.17074956 -0.05685457 0.23058107 -0.25588962 -0.16998678 0.018436432 0.18729462 -0.0427757 0.3772726 0.18441789 -0.20905459 0.30835393 -0.070594974 -0.25767854 0.111258015 0.1402463 0.1147722 -0.015557508 0.15725432 0.014925671 0.050757736 -0.05142422 -0.26274282 0.16139543 -0.108112395 -0.44966775 0.03212952 -0.052893877 0.2873026 -0.19020681 0.0027954553 -0.08736263 -0.6264701 -0.14462595 -0.03941543 0.23014241 0.3402831 -0.07423167 0.19188379 0.064931124 -0.03560679 0.03470337 0.15482603 -0.37141111 -0.03918621 0.08390251 -0.042510092 -0.11864811 0.12912138 -0.10945582 0.2126104 0.027216563 -0.08736768 -0.22590134 0.12672627 -0.049935177 -0.10350666 0.115764566 0.022381673 -0.053433497 0.3183875 0.44084615 0.13316213 0.16655295 -0.0075665535 0.0796966 0.18222329 0.0424016 -0.15057077 0.042164825 -0.022273235 0.22503138 0.088503525 -0.015444608 -0.15502787 0.14447905 0.33044013 -0.07996511 0.23945323 0.062251806 0.102011494 -0.13070111 0.090435445 -0.33164465 0.15917635 0.09741951 0.17689757 -0.06918336 -0.19606796 -0.09218174 0.013443701 -0.14755651 0.08583256 0.16043447 0.43097672
1946 -0.095978834 0.18917368 0.07702469 0.31410587 0.033267982 -0.18570442 0.0003584557 0.32181942 -0.31359538 -0.24358423 -0.099334426 0.28595057 -0.12499869 0.46843976 0.21223158 -0.23874567 0.34959507 -0.11565815 -0.3520842 0.1474326 0.25457022 0.1313103 -0.07459867 0.17740251 -0.11012049 0.08797835 0.022676358 -0.21769628 0.09130873 -0.17547353 -0.4693736 0.037672598 0.028307084 0.25903046 -0.20676062 0.08488579 -0.079881206 -0.7811085 -0.1924063 -0.06902749 0.21052213 0.44780698 0.025057899 0.23720652 0.0071982625 -0.0006169532 -0.021503834 0.08150779 -0.36035556 -0.0050916406 0.15305482 -0.02701182 -0.09334092 0.16219032 -0.18500607 0.25550312 0.09953407 -0.21476747 -0.3100295 0.065526254 -0.11480718 -0.12406377 0.21140547 0.0017405024 -0.14615475 0.4339835 0.455926 0.18932456 0.12449641 0.09491737 0.041955628 0.16936806 0.01664869 -0.16195986 0.08865181 0.102621615 0.27668348 0.0258533 -0.05920448 -0.26347196 0.12290033 0.31957543 -0.19498158 0.12559201 0.12350762 0.092582144 -0.17921896 0.058431663 -0.36591494 0.14388756 0.10844349 0.09253437 0.057942893 -0.12018486 0.006055552 -0.013184061 -0.20467275 0.11483937 0.1612791 0.47119614
1819 -0.046867758 0.16509855 0.12227066 0.12314046 0.13922498 -0.30024788 -0.08462351 0.07096414 -0.13409716 -0.057677142 -0.024273597 0.0064395634 -0.0033042466 0.28962427 0.123996444 -0.028942943 0.25574395 -0.03380282 0.018024374 -0.12445521 0.16760357 0.1282027 4.3159725e-05 0.11761968 -0.03573739 0.15329912 0.034300335 -0.053752888 0.12728916 -0.1465802 -0.093727246 -0.021389479 -0.05568175 0.13957354 -0.2609187 0.01685368 -0.22249794 -0.27806827 -0.11286373 -0.15348364 0.28763014 0.099344335 0.08259922 0.07253752 0.052471638 -0.019252675 -0.024864726 0.1428536 -0.25524074 -0.13115947 0.02598863 0.010831853 -0.09502116 0.10066695 -0.0046480596 0.10689241 0.05439814 0.030792378 -0.076207414 0.13664415 0.028235476 0.017322032 -0.05568831 0.0067928876 -0.096578054 0.28317457 0.4105479 -0.025440708 -0.067432895 0.10059495 -0.107787244 0.24861507 0.05807531 -0.08201696 0.013567993 -0.0465365 0.14796114 -0.038690906 -0.12797618 -0.060325135 -0.036737733 0.083894596 0.036749735 -0.04174694 0.033901237 0.018181901 -0.050177306 0.051571023 -0.24446246 0.1255289 0.16222784 0.0399697 -0.050000586 -0.023238583 -0.059149627 0.10291816 -0.03861014 0.053202722 0.074221574 0.30499953
2071 -0.09053224 0.18507843 0.0667809 0.2811231 0.05498663 -0.19582196 -0.0072174435 0.30221453 -0.30133614 -0.2366406 -0.09337021 0.2683438 -0.10765169 0.45045975 0.19969597 -0.21151893 0.35935625 -0.11967075 -0.30167946 0.122843765 0.26189902 0.13085116 -0.06074555 0.1973385 -0.12356233 0.10249274 0.03295059 -0.19765663 0.09274383 -0.19950354 -0.41764805 0.051979467 0.03797967 0.23688786 -0.2000873 0.07319297 -0.08601459 -0.7354467 -0.18130583 -0.06565708 0.20812942 0.41082886 0.055725843 0.220315 0.017582903 -0.0036394675 -0.028769238 0.08250561 -0.34285024 -0.011448673 0.16105466 -0.014647905 -0.09369203 0.15081176 -0.17124514 0.22976391 0.07910423 -0.22036168 -0.28982988 0.056637026 -0.11093806 -0.10193686 0.18382224 -0.004757453 -0.1500696 0.39924413 0.44523737 0.15308754 0.11577502 0.11660506 0.031686045 0.17753786 0.012053532 -0.13914053 0.08333927 0.099309765 0.24919216 0.013489547 -0.0682499 -0.22909115 0.109719634 0.2824473 -0.17449747 0.0974603 0.110917725 0.08524517 -0.16597043 0.05395733 -0.33432898 0.15127273 0.09434143 0.09016568 0.049075197 -0.10075827 0.0019452062 -0.003078105 -0.17179652 0.10473861 0.15113129 0.4576153
744 -0.09413164 0.15477005 0.066959076 0.25680044 0.06411417 -0.19897924 -0.007014493 0.25598913 -0.277735 -0.1867155 -0.08713831 0.22787447 -0.09999665 0.42192122 0.18299305 -0.18771228 0.3275955 -0.08555558 -0.25933605 0.0806365 0.2308609 0.1387526 -0.05699723 0.1942229 -0.10767519 0.074644186 0.027186349 -0.2009445 0.09416222 -0.13990237 -0.347196 0.05474295 0.02168075 0.24005312 -0.20256767 0.061808918 -0.08566794 -0.65432876 -0.15767244 -0.06283347 0.2161189 0.36838943 0.0677734 0.1955248 0.0086178295 -0.0026158635 -0.033740632 0.096934505 -0.33352506 -0.024877349 0.14242911 -0.016243521 -0.07172086 0.14652286 -0.1333318 0.21665473 0.0670136 -0.16258301 -0.23693457 0.073563375 -0.08635271 -0.09808518 0.14315924 -0.007547867 -0.13594659 0.35623235 0.42476618 0.13309953 0.080443695 0.106037654 0.012107246 0.18071812 0.0062915077 -0.1205618 0.06576442 0.06554812 0.23645326 0.025901744 -0.06760452 -0.2133516 0.084691755 0.26628044 -0.13837573 0.10408589 0.090789765 0.06662994 -0.1252509 0.057119444 -0.3165212 0.12733711 0.090816066 0.10088466 0.030642016 -0.08563678 -0.016763438 -0.0048179487 -0.12541756 0.09208884 0.15474498 0.40958083
1600 -0.11815045 0.16954553 0.061789513 0.29018956 0.054884017 -0.19157411 -0.0020076649 0.30171838 -0.29504675 -0.21199553 -0.11106468 0.27312377 -0.14475264 0.46730962 0.21296833 -0.21730001 0.35795966 -0.08576152 -0.32601303 0.12082952 0.24362688 0.14836876 -0.07570871 0.2188454 -0.11978805 0.06528602 0.0255561 -0.24056965 0.101237684 -0.13450068 -0.409672 0.07582419 0.03896869 0.2923292 -0.20122136 0.07768606 -0.082949474 -0.75006473 -0.18157393 -0.051658355 0.22821607 0.4445237 0.05873277 0.21751669 0.0009130505 0.01803468 -0.033355135 0.09759804 -0.36550444 -0.010475801 0.16207835 -0.013561022 -0.06592816 0.16567256 -0.17606007 0.2662536 0.082281075 -0.18951099 -0.2846064 0.07971586 -0.10495722 -0.11671535 0.19497755 -0.00701527 -0.13285476 0.37859505 0.47247142 0.16858181 0.12593497 0.110897586 0.022030909 0.18790665 0.0048845746 -0.12289274 0.09213364 0.06497712 0.28399456 0.051520243 -0.07275697 -0.25854337 0.121681124 0.31140113 -0.17361106 0.14998622 0.10809187 0.069988675 -0.13842198 0.057829484 -0.3414784 0.13949825 0.09147846 0.10976682 0.049449112 -0.08711799 -0.022331713 -0.020598164 -0.14012687 0.1005167 0.18071556 0.4539728
1821 -0.07565192 0.19457024 0.0671405 0.25006157 0.06760087 -0.21043767 -0.016200714 0.283692 -0.2691047 -0.20658407 -0.06801194 0.21950021 -0.09692308 0.4084422 0.17002672 -0.18242571 0.30752575 -0.12036205 -0.25552925 0.094591476 0.23490702 0.10625396 -0.054054562 0.14998157 -0.101003334 0.096457385 0.03003223 -0.17563593 0.08055746 -0.19577488 -0.38074213 0.00534781 -0.005000942 0.20520508 -0.19788712 0.05811296 -0.10698669 -0.65071017 -0.16692816 -0.077925704 0.21208219 0.35692808 0.028748322 0.21076848 0.008996795 0.004370219 -0.013702911 0.10620635 -0.31290278 -0.028248355 0.138616 -0.033422977 -0.10340976 0.12685885 -0.14519282 0.22906673 0.09355305 -0.16917795 -0.2664314 0.06092626 -0.08479548 -0.06653874 0.14334364 0.020764723 -0.12759207 0.38942856 0.40303302 0.13998869 0.06651953 0.08696849 0.025585983 0.17549266 0.018593512 -0.12868378 0.0647536 0.09563354 0.24147785 -0.005016953 -0.07776159 -0.21373993 0.085745804 0.25241578 -0.13072947 0.07194998 0.088065155 0.07808379 -0.17174171 0.049826358 -0.34037143 0.12235473 0.12257341 0.057152525 0.03587066 -0.1141221 -0.008354939 -0.007282946 -0.1947734 0.109645724 0.11754211 0.42352164
1918 -0.11937367 0.13402735 0.046073314 0.21722718 0.093120724 -0.21370924 -0.017082125 0.23715056 -0.260896 -0.14882433 -0.14794737 0.18215072 -0.14406256 0.43896696 0.203906 -0.1483081 0.34310466 -0.027493872 -0.19960691 0.03468091 0.2402736 0.16675422 -0.05817171 0.2607769 -0.13903704 0.056120645 0.058094777 -0.20492464 0.11098422 -0.07325878 -0.25543314 0.11313783 0.0548208 0.27444616 -0.20132104 0.07660976 -0.09955961 -0.58647096 -0.15057398 -0.07484747 0.25198844 0.35781175 0.1384667 0.13274603 0.010979506 0.02394419 -0.06213062 0.10418054 -0.3451473 -0.03968628 0.13153933 -0.0060123093 -0.032333348 0.17177808 -0.117875785 0.20723107 0.04845231 -0.100980096 -0.1766246 0.10956827 -0.06806537 -0.079742186 0.11128848 -0.013645978 -0.13735197 0.2811256 0.4552638 0.078053445 0.06746221 0.14068322 -0.057093903 0.19778186 -0.0020458875 -0.05302535 0.06908347 -0.003906276 0.2251273 0.0517022 -0.11494961 -0.21787037 0.06802374 0.22699721 -0.12698133 0.10273855 0.08362567 0.03243412 -0.025295243 0.053714707 -0.26043403 0.11026544 0.08726679 0.13828896 0.02964559 -0.01450544 -0.05365368 -0.005681851 -0.011066665 0.06690273 0.18910006 0.38464364
583 -0.107238926 0.13036442 0.05278211 0.22464253 0.109958105 -0.21540233 -0.004843927 0.22758006 -0.24838494 -0.16260193 -0.15526842 0.18071885 -0.14949664 0.43154615 0.20682415 -0.13054 0.33066773 -0.03953967 -0.20748904 0.037266187 0.25540197 0.15392001 -0.06263593 0.23998596 -0.14682153 0.07885571 0.06531139 -0.18459834 0.09052916 -0.10468659 -0.25112998 0.094512664 0.05220946 0.2560573 -0.21449062 0.07665886 -0.11065129 -0.56949884 -0.15040249 -0.08539293 0.2486927 0.3456825 0.14811762 0.12845986 0.005214822 0.02099501 -0.06854399 0.08715394 -0.32951194 -0.048796806 0.121358864 0.006389351 -0.033327583 0.17102538 -0.11674107 0.2166791 0.06268946 -0.12065186 -0.1899184 0.10029191 -0.06962649 -0.067479864 0.10496816 -0.025172137 -0.13467237 0.3014316 0.44716132 0.0862171 0.034337923 0.15774862 -0.07278972 0.19980027 0.008321611 -0.06128332 0.07088721 0.01197743 0.23261404 0.032553736 -0.12072618 -0.2258381 0.0450494 0.22103044 -0.118087165 0.06391731 0.084596574 0.012420226 -0.050369486 0.031120464 -0.2775342 0.11866609 0.095107675 0.098196335 0.037355773 0.0055425223 -0.033819456 0.007221022 -0.025369257 0.074001536 0.16865876 0.39120254
651 -0.100746825 0.12791541 -0.0047872523 0.18205412 0.16385038 -0.25229454 0.01902645 0.20899688 -0.25874686 -0.15711924 -0.23225372 0.16164768 -0.16308203 0.45060924 0.19717458 -0.08276229 0.34672052 -0.0335407 -0.14527562 -0.0040241163 0.27285984 0.19695193 -0.060843762 0.28670898 -0.20871574 0.07245693 0.095856614 -0.15911844 0.06733675 -0.12254925 -0.13746454 0.13625179 0.087695435 0.218618 -0.22500029 0.09393849 -0.13361382 -0.5243466 -0.1504294 -0.12056743 0.24832304 0.32226557 0.24160156 0.1076416 -0.045832198 0.03741802 -0.10857659 0.0845728 -0.31261745 -0.0713686 0.1496499 0.031309377 -0.011902583 0.16498849 -0.11089167 0.191657 0.05544504 -0.14950928 -0.16416655 0.059147805 -0.08046131 -0.061279994 0.046568647 -0.015406355 -0.16951513 0.2320276 0.4341568 0.027910128 0.012159826 0.2102358 -0.11772165 0.2087583 -0.005784926 0.0026695936 0.058503736 0.00013405175 0.18170154 0.0118848495 -0.1447036 -0.2301435 0.0020507642 0.15703885 -0.110042006 -0.014830657 0.07518832 -0.00228667 0.00841615 0.0068375645 -0.25612098 0.08068653 0.08709417 0.09754587 0.08983227 0.07648952 0.00086139503 -0.007721094 0.053047653 0.06424827 0.16558203 0.3566925
606 -0.11473826 0.17161736 0.07853198 0.32327652 0.013320574 -0.16403566 -0.009045756 0.3216116 -0.3439343 -0.2557512 -0.07634868 0.30619955 -0.110016026 0.48299822 0.22827387 -0.24957061 0.38226232 -0.119748145 -0.365784 0.16673936 0.25424555 0.13527496 -0.055897474 0.21189052 -0.091902055 0.0640477 0.008173718 -0.26962703 0.119292736 -0.17922449 -0.5184689 0.055105645 0.023249498 0.29816782 -0.2016291 0.071839996 -0.06456896 -0.8287752 -0.18100797 -0.039723713 0.19855474 0.463925 0.0046434286 0.25461277 0.021534847 -0.004233065 -0.0074648946 0.09286282 -0.40743527 -0.0019715498 0.1685153 -0.036659993 -0.09449457 0.15858272 -0.17892084 0.27336746 0.08255235 -0.23876694 -0.3290382 0.07995551 -0.11924982 -0.1384819 0.20637667 0.005967104 -0.1292856 0.40837303 0.4785616 0.19151556 0.18326369 0.07552503 0.07947914 0.16795501 0.021100657 -0.17074884 0.07896474 0.0769761 0.26592875 0.070286214 -0.033336215 -0.2506405 0.13987353 0.35403994 -0.18506016 0.1882219 0.10671571 0.112277746 -0.18238892 0.071582615 -0.37612832 0.15949295 0.09452156 0.1311856 0.02066299 -0.14561687 -0.02349137 -0.028446956 -0.1927049 0.10914658 0.17873204 0.48714378
103 -0.02556361 0.17481282 0.15552989 0.06534508 0.20096883 -0.33828694 -0.0909044 0.029394101 -0.113905706 -0.048668303 -0.0643637 -0.056238875 0.01947573 0.2669747 0.13489535 0.020830913 0.21487993 -0.027323537 0.09960427 -0.19340537 0.162677 0.112437986 0.0029539538 0.10028501 -0.04274728 0.17601833 0.056317367 0.0039703534 0.09014657 -0.17237197 0.01655374 -0.025731735 -0.033000525 0.096982725 -0.26838562 0.012093313 -0.28093857 -0.17154782 -0.11607599 -0.18705897 0.28720942 0.02960914 0.13289413 0.0348556 0.04488986 -0.010637764 -0.03962439 0.14700162 -0.23630026 -0.16795154 -0.00795774 0.02007356 -0.09854904 0.07549152 0.031173782 0.068506084 0.051772576 0.05293152 -0.032312162 0.1457125 0.06660193 0.04188558 -0.12531023 -0.003901123 -0.10952259 0.26693535 0.3574212 -0.059153475 -0.15314993 0.13164109 -0.16982992 0.25986424 0.07518346 -0.044412613 -0.0066936794 -0.05501476 0.106834285 -0.07943339 -0.16493097 -0.0472641 -0.11648325 -0.0061554704 0.068676986 -0.156347 0.018874481 -0.0066923453 -0.020491578 0.031423617 -0.22885878 0.09416137 0.18589336 -0.020313738 -0.035182316 0.025865175 -0.037061308 0.1374631 -0.010346833 0.048406158 0.03588685 0.27183026
1707 -0.129354 0.14217857 0.09156915 0.26494363 0.026522115 -0.16301937 -0.037371654 0.24286707 -0.25804782 -0.16171874 -0.03862849 0.2088614 -0.10248195 0.42546535 0.20724042 -0.20457923 0.34617725 -0.06277427 -0.28635573 0.10857733 0.19101353 0.14063357 -0.048175476 0.22144996 -0.049651228 0.04479129 -0.016710456 -0.277025 0.15914433 -0.07964464 -0.41285524 0.07545413 0.0014990293 0.30633777 -0.19613774 0.040742368 -0.07689708 -0.6643494 -0.14581242 -0.040291466 0.24606639 0.3883192 -7.889015e-06 0.17986676 0.039323483 -0.0029391688 0.002593797 0.13515061 -0.38692138 -0.0063116364 0.122483775 -0.028522914 -0.061375253 0.17009838 -0.13067576 0.22977638 0.036994673 -0.10868548 -0.2238919 0.11388537 -0.064373754 -0.12607953 0.13369943 0.011497389 -0.08241508 0.31355354 0.4807024 0.13948385 0.15259148 0.06262262 0.045232218 0.19708516 0.014916825 -0.12786102 0.063046396 -0.010100204 0.24384789 0.10112002 -0.039997086 -0.20649168 0.1344749 0.33076343 -0.12088049 0.22388062 0.083849356 0.07660734 -0.08851901 0.0922729 -0.31523705 0.15848693 0.08700053 0.17444709 -0.0200007 -0.12438143 -0.082477145 -0.0011656674 -0.091057636 0.08871108 0.19451295 0.44067392
666 -0.084472746 0.12887691 0.0852476 0.16485874 0.10922519 -0.2588372 -0.024881443 0.17576124 -0.20166804 -0.12447647 -0.1187973 0.101647176 -0.07425134 0.36816886 0.16426913 -0.079109326 0.2774832 -0.033260748 -0.10269049 -0.00685818 0.20990488 0.1438553 -0.030692259 0.18247408 -0.11263726 0.12412532 0.055609614 -0.11257393 0.08138673 -0.119360425 -0.1801483 0.056637444 0.019644111 0.17743497 -0.2140997 0.06332408 -0.13975093 -0.42851236 -0.143933 -0.10494382 0.25431702 0.22865795 0.14476602 0.09530024 0.01385379 -0.0064937216 -0.057627432 0.11791256 -0.29366595 -0.064018026 0.08432003 -0.00054103154 -0.054338142 0.14415723 -0.071143955 0.13959694 0.056656852 -0.100168094 -0.14324762 0.098119594 -0.03163979 -0.028469414 0.039424922 -0.010390679 -0.13198532 0.27681774 0.40089723 0.03312443 0.0017958184 0.12925719 -0.086826004 0.19661285 0.028609568 -0.05377633 0.032101035 -0.01059312 0.16486645 0.00018935904 -0.124017194 -0.15014012 0.014686155 0.119844876 -0.06396302 -0.004606602 0.07967547 0.033735383 -0.03379484 0.024613589 -0.24528342 0.09844329 0.11592359 0.07114904 0.013022038 -0.011950253 -0.029819505 0.030275006 -0.03499961 0.07232795 0.10517013 0.32850888
1205 -0.07779096 0.1686766 0.05965506 0.24967705 0.07261819 -0.20974347 -0.01650496 0.25766018 -0.2695224 -0.17579788 -0.11222685 0.19823965 -0.11633416 0.4213377 0.20012613 -0.15935226 0.3064163 -0.07175541 -0.2431819 0.056921676 0.23810299 0.119968474 -0.052338343 0.18830247 -0.12362073 0.08805752 0.028090438 -0.16445978 0.076967746 -0.15016775 -0.31548807 0.040042005 0.02829324 0.22717865 -0.2062379 0.07688948 -0.10431354 -0.61646426 -0.16249995 -0.065684386 0.22551921 0.3398519 0.09724643 0.17428242 0.009869197 0.025795314 -0.032145087 0.07889617 -0.30192873 -0.04972679 0.12924644 -0.002597214 -0.067967564 0.1476648 -0.13083532 0.21528868 0.081267595 -0.14956848 -0.23033622 0.076574035 -0.08532881 -0.0879245 0.13064644 0.019245986 -0.12160173 0.34350145 0.4139612 0.12033922 0.049007084 0.12988272 -0.033490174 0.17186663 0.016299339 -0.09951468 0.06255714 0.039948143 0.23975112 0.014487354 -0.09189459 -0.21136191 0.0679727 0.23023145 -0.13705291 0.05493252 0.089022435 0.061085466 -0.11402923 0.025195036 -0.31060958 0.11953609 0.11576165 0.06996544 0.060422696 -0.06887092 -0.004621366 0.00048812534 -0.11428592 0.068754606 0.1367166 0.39529967
750 -0.10774482 0.18443932 0.088117324 0.31234938 0.02045063 -0.17739066 -0.018031841 0.3118055 -0.32178947 -0.24511848 -0.05681831 0.28060138 -0.10556185 0.47534993 0.20420857 -0.2479972 0.3661019 -0.124836735 -0.35007542 0.15528074 0.23591705 0.12793593 -0.05407684 0.18267791 -0.08486177 0.082043834 0.012104016 -0.24121147 0.11353133 -0.18780173 -0.49313977 0.050488107 0.010246272 0.2687362 -0.19946215 0.065614305 -0.06818715 -0.79708695 -0.17885153 -0.04919221 0.21234 0.4445194 -0.0032281615 0.24712633 0.020978045 0.00088846893 -0.0065889377 0.101379625 -0.3781979 -0.0018847554 0.15628226 -0.027879667 -0.10536213 0.15129751 -0.18082602 0.2630739 0.07822493 -0.20976666 -0.31850082 0.074691765 -0.10957974 -0.12294822 0.21346922 0.002313776 -0.1306352 0.42510146 0.46604505 0.19230574 0.15116194 0.07473864 0.0705727 0.17782955 0.026287837 -0.17449068 0.086138 0.090507835 0.27264637 0.039627273 -0.035053924 -0.23007607 0.13465951 0.3450194 -0.17735846 0.17269515 0.11687191 0.11487704 -0.18558651 0.06250978 -0.3709432 0.15408562 0.108145975 0.1218344 0.028823115 -0.15236141 -0.017544152 -0.009368364 -0.20192769 0.108676426 0.16654491 0.47946855
122 -0.0829413 0.17770147 0.045907956 0.27489227 0.09542913 -0.21688807 0.013640513 0.29452905 -0.3003228 -0.21763484 -0.13678303 0.26516408 -0.13720085 0.4490816 0.2068171 -0.18542178 0.34030506 -0.10794597 -0.29265437 0.10057721 0.26613474 0.13984725 -0.086616755 0.18385527 -0.15121728 0.10430876 0.051767748 -0.18611042 0.055514604 -0.19628048 -0.3636094 0.03877799 0.062422946 0.22425115 -0.19674808 0.08940604 -0.09259349 -0.681976 -0.18606666 -0.083050385 0.20088841 0.39298555 0.101553865 0.21185201 -0.012796703 0.017414207 -0.06120318 0.0685854 -0.3332594 -0.02406254 0.14195241 -0.0015563236 -0.06440178 0.14982033 -0.15516639 0.22704317 0.09784729 -0.21108976 -0.27330947 0.05851322 -0.10852524 -0.0975069 0.1694214 -0.011816531 -0.14624776 0.3943199 0.42998597 0.14293373 0.05471243 0.1250903 -0.02471856 0.1628139 0.009892798 -0.111512065 0.07241946 0.10932776 0.25538144 9.2924034e-05 -0.09424088 -0.25555253 0.084949434 0.24128112 -0.16903192 0.043677103 0.10206401 0.06711273 -0.14621319 0.021545216 -0.3414186 0.118682265 0.10689442 0.054454878 0.08267048 -0.05374657 0.027065862 -0.0069281394 -0.15624726 0.099033296 0.1402919 0.43357694
1214 -0.046445314 0.09680642 0.07399237 0.13602611 0.18066812 -0.29388347 -0.061259713 0.117936105 -0.10120251 -0.02967279 -0.15480855 0.070164315 -0.1558365 0.32595706 0.16440913 -0.010149725 0.237632 0.03344432 -0.07107413 -0.109722696 0.2036881 0.17375696 -0.072157644 0.16111355 -0.15060203 0.12506011 0.0708981 -0.03899821 0.058952164 -0.022436308 -0.019035792 0.018053282 0.058378663 0.21972528 -0.27579936 0.09374665 -0.1756841 -0.28531632 -0.13373277 -0.15287086 0.31116077 0.22221953 0.2061021 0.04020577 0.0103101935 0.065326706 -0.11571723 0.105702065 -0.23409331 -0.09416343 0.064857595 0.025114221 0.00015863514 0.19137177 -0.059003763 0.17751125 0.104711115 0.08253565 -0.055592194 0.14140852 0.0073707723 -0.013382744 0.046962388 -0.045891706 -0.123866 0.32613754 0.44653323 0.015574072 -0.15518439 0.21876119 -0.22466005 0.23145209 0.014378508 -0.033853937 0.08653386 -0.041955154 0.2378969 -0.037195988 -0.18099318 -0.18126582 -0.038420368 0.07014881 -0.056866582 -0.0692476 0.07264868 -0.08174031 0.04018552 0.0032474766 -0.20105056 0.07433043 0.15772974 0.027642343 0.012623687 0.106249444 -0.035547692 0.102496415 0.04637846 0.044268865 0.10588454 0.2907921
125 -0.100222506 0.18759046 0.05316143 0.27471927 0.060903408 -0.18886077 0.006597628 0.30178627 -0.3217272 -0.24818014 -0.09649821 0.26049256 -0.099984914 0.47695187 0.19306485 -0.20265803 0.36626583 -0.11607444 -0.28642428 0.11279488 0.26506403 0.12955646 -0.042740952 0.21464168 -0.13851154 0.08097931 0.05359101 -0.20996732 0.093079485 -0.20532607 -0.40930194 0.075902484 0.017813977 0.2218386 -0.18630075 0.07196526 -0.075807236 -0.74008995 -0.1879445 -0.07110311 0.18889226 0.40676442 0.0741296 0.22216661 0.007592339 -0.0040679593 -0.03502678 0.079762936 -0.35848415 -0.01433897 0.16714197 -0.01053777 -0.08491316 0.14429957 -0.16816135 0.22415756 0.07011157 -0.25672832 -0.29265898 0.053847015 -0.12379001 -0.10266838 0.16439953 0.009242051 -0.16248156 0.37192404 0.43397143 0.14294876 0.11678288 0.11527995 0.05552466 0.17144567 0.0092587685 -0.1361446 0.07020111 0.10255582 0.23892047 0.014894671 -0.05551143 -0.22369954 0.092242576 0.28305647 -0.1628739 0.08982343 0.09610055 0.10375245 -0.15094945 0.046328586 -0.33671308 0.14273252 0.09083488 0.09241947 0.0545939 -0.08926752 0.0016776638 -0.02372709 -0.15889177 0.109025925 0.1612258 0.45532224
1216 -0.043982714 0.1063758 0.12182909 0.15775523 0.1260567 -0.27149653 -0.0561837 0.14363214 -0.13463792 -0.07871499 -0.1152439 0.10235905 -0.08843976 0.3127831 0.17854622 -0.06101725 0.23689808 0.018460676 -0.09915507 -0.03665095 0.15959708 0.1289329 -0.07595261 0.13186136 -0.090138115 0.13628782 0.024081439 -0.07316021 0.07275494 -0.06495483 -0.1402671 0.0019182794 0.020192638 0.22003947 -0.24664152 0.048889022 -0.17512545 -0.35096863 -0.13417812 -0.12731858 0.28893748 0.21586186 0.14864613 0.08077947 0.026825754 0.045296676 -0.060667343 0.0975426 -0.2562588 -0.10096316 0.029812835 0.004338985 -0.037843868 0.14781725 -0.039649375 0.16632476 0.10076545 0.040297538 -0.13703816 0.14395522 0.0037187056 -0.035685554 0.051054765 -0.032089982 -0.0993379 0.3323164 0.3965237 0.056255963 -0.09693682 0.14356479 -0.17590912 0.20627555 0.041626614 -0.06250786 0.07356849 -0.033277348 0.24354331 -0.005931057 -0.14601824 -0.1596926 -0.001249934 0.09141269 -0.07955929 -0.017211273 0.0954016 -0.0191798 -0.028709479 -0.0012135626 -0.2347481 0.10672295 0.16417573 0.008096975 -0.011197559 0.016153095 -0.034509297 0.0988849 -0.03357238 0.03710319 0.08977019 0.2910939
1824 -0.0800801 0.15137663 0.07959745 0.13819511 0.1398903 -0.2617207 -0.036564745 0.11717286 -0.21003108 -0.089775115 -0.093108766 0.058160976 -0.049477786 0.34460497 0.14016424 -0.05611068 0.26716596 -0.04613104 -0.036538817 -0.091921225 0.208495 0.14415585 -0.005750009 0.169833 -0.11921377 0.12398346 0.050957706 -0.07878247 0.13133727 -0.1432456 -0.094974376 0.04718762 0.00620671 0.1363686 -0.22307487 0.043889597 -0.1781718 -0.37140054 -0.13494767 -0.1361489 0.23327227 0.15930927 0.12548162 0.074561715 0.017091837 -0.0036400384 -0.051435404 0.11699013 -0.25035498 -0.090297475 0.09465614 0.028236588 -0.06750915 0.10677811 -0.03949335 0.13311538 0.048644237 -0.05782944 -0.095029175 0.10570138 -0.03350964 -0.010287941 -0.022056874 -0.009701957 -0.115986794 0.24091563 0.39294562 -0.0029263336 -0.041942604 0.13390182 -0.08293816 0.22795878 0.02015263 -0.053935856 0.019289207 -0.011908794 0.14006494 -0.02770261 -0.1132114 -0.112456754 -0.034824837 0.088072024 0.00290356 -0.046186123 0.030240476 0.024675129 -0.027867092 0.041606005 -0.2306408 0.095690496 0.11106369 0.05245514 -0.006781471 0.009206739 -0.036912512 0.04492183 -0.0034331258 0.07286253 0.1150429 0.31249872
2021 -0.095857166 0.19797428 0.08148051 0.30954856 0.023636108 -0.1832036 -0.001359182 0.33211285 -0.35441062 -0.26547024 -0.065883934 0.2813139 -0.078055836 0.4808884 0.19461009 -0.25266534 0.37469736 -0.15336046 -0.33687526 0.14693828 0.25802988 0.12426369 -0.037685767 0.18495019 -0.091296986 0.09581856 0.018970815 -0.22318725 0.10519769 -0.22683473 -0.49400124 0.0462155 0.009768959 0.23434635 -0.19015743 0.07319159 -0.06902881 -0.8063593 -0.19554646 -0.05019119 0.18874604 0.43748873 0.0045935307 0.2647268 0.017468955 -0.024216427 -0.00061155687 0.0863047 -0.386823 -0.0042990004 0.16074723 -0.027123388 -0.122241706 0.13565767 -0.18273297 0.22699837 0.077567495 -0.27519134 -0.33036014 0.04554495 -0.121953115 -0.12197444 0.18993935 0.014844458 -0.14333262 0.416806 0.44008127 0.1798814 0.15217856 0.08105336 0.099079445 0.17608178 0.025702741 -0.17855753 0.06598064 0.12775986 0.23753439 0.02893268 -0.037483886 -0.22894686 0.1267305 0.3328145 -0.1759494 0.13384739 0.10210787 0.12598506 -0.20419161 0.06265193 -0.37701443 0.16752394 0.0911451 0.1011979 0.035162967 -0.15662211 -0.006079131 -0.022769395 -0.22235718 0.11476066 0.16392486 0.4883727
1758 -0.062097877 0.091488615 0.084255494 0.13179596 0.17079808 -0.29405758 -0.08039626 0.10299199 -0.095829874 -0.025679734 -0.12241897 0.023150561 -0.11765414 0.32474634 0.16865912 -0.0006635253 0.2604011 0.028495697 -0.03744621 -0.12609303 0.19952868 0.15818147 -0.05254286 0.17236863 -0.11262016 0.12133466 0.065356664 -0.042829268 0.10419931 -0.034871098 0.003004924 0.03113534 0.021800607 0.1904379 -0.27324817 0.07647191 -0.19083841 -0.27678797 -0.096326835 -0.14324448 0.3103222 0.16973072 0.19398938 0.047520697 0.0087640975 0.044042177 -0.08361714 0.11679653 -0.23232523 -0.117040396 0.05157983 0.019664774 0.00039731056 0.16141269 -0.030546319 0.15144062 0.08161647 0.06118857 -0.048245367 0.13837302 0.017630612 -0.009809407 -0.0049279667 -0.036409073 -0.110485464 0.27636182 0.43300244 0.0050208326 -0.10709129 0.1869941 -0.20239967 0.25583613 0.01447285 -0.037747774 0.061449684 -0.056882966 0.20047392 -0.018307857 -0.17609505 -0.15429883 -0.042869534 0.065837815 -0.029414283 -0.03784364 0.041821346 -0.055001568 0.02907957 0.02618784 -0.2132205 0.09096728 0.13260064 0.050080616 0.0034437003 0.08363825 -0.0452903 0.096465684 0.06656075 0.052326817 0.10547179 0.2809764
1881 -0.038458124 0.10658975 0.12525389 0.12675005 0.13294105 -0.28513172 -0.095310986 0.06341504 -0.09565978 -0.04518449 -0.065035075 0.0021660705 -0.048021264 0.2824257 0.12969431 -0.0068420703 0.2558525 0.037431736 -0.012208841 -0.12180233 0.15827924 0.14505239 -0.028401248 0.11817225 -0.06506423 0.13673198 0.04996791 -0.047159605 0.124740936 -0.06059026 -0.045378916 0.0068209986 -0.001569541 0.16151206 -0.2731719 0.03748013 -0.20521168 -0.25334534 -0.08940909 -0.122516535 0.32730204 0.14336051 0.1586788 0.025246264 0.05522173 0.0316415 -0.059486784 0.11368642 -0.23093852 -0.13304599 0.006728538 0.010448116 -0.03112733 0.14180893 0.0040095965 0.12645438 0.062470775 0.06350452 -0.05429593 0.15308881 0.020947415 -0.01655232 -0.010846778 -0.036733516 -0.097813725 0.2961424 0.41807035 -0.007743073 -0.11646037 0.16745785 -0.17843768 0.26230517 0.044595044 -0.058236513 0.06445365 -0.06660265 0.17719221 -0.018287316 -0.15825213 -0.09670759 -0.042475305 0.093555465 -0.002332563 -0.025289558 0.059155073 -0.036711313 0.004390005 0.023128131 -0.201397 0.10305379 0.14300625 0.05861838 -0.05126001 0.037164792 -0.071061514 0.12717612 0.035757508 0.021431819 0.09189766 0.27538827
1970 -0.075711705 0.114818044 0.059887256 0.123233214 0.1796596 -0.30259073 -0.039044134 0.09387008 -0.15731134 -0.05473111 -0.16684516 0.049430728 -0.1080276 0.34949306 0.17706831 -0.0043407734 0.2638395 0.032585144 -0.02692783 -0.11393493 0.206829 0.178002 -0.06742324 0.21562998 -0.13703683 0.1098003 0.07250079 -0.06984508 0.07509586 -0.05220113 -0.0104243895 0.050321728 0.04770756 0.20964326 -0.2554481 0.066335514 -0.19531274 -0.27514097 -0.11251232 -0.14994797 0.30384058 0.20045541 0.23377682 0.03364711 -0.0039349464 0.046896785 -0.10546892 0.11779922 -0.26333338 -0.09739884 0.073283404 0.03476203 -0.018255569 0.15990423 -0.019674702 0.14330432 0.05360681 0.03252501 -0.056622032 0.1321247 0.008594034 -0.025557462 -0.020299574 -0.02213201 -0.13151358 0.2502263 0.42492864 -0.02293565 -0.10622086 0.20944028 -0.20869926 0.23450437 0.008888004 -0.008463061 0.05534129 -0.06305305 0.18954323 -0.010765147 -0.18143307 -0.15990475 -0.047287874 0.06455949 -0.024780294 -0.06129256 0.059010904 -0.060183566 0.047599766 0.00763197 -0.19933203 0.08456791 0.13190117 0.045537233 0.016427439 0.091017485 -0.049671292 0.07058051 0.083330244 0.04272733 0.11483302 0.264733
1227 -0.14057837 0.14594845 0.080350466 0.25863776 0.026358025 -0.17354544 -0.031093433 0.25401512 -0.27734572 -0.16905823 -0.06115927 0.21982242 -0.105707265 0.42862433 0.2192386 -0.20029092 0.33919644 -0.051398814 -0.2928963 0.11611305 0.20176023 0.15633126 -0.042564142 0.22424698 -0.064803444 0.041546665 -0.022874024 -0.28161985 0.14731333 -0.071566336 -0.41377488 0.07629922 -0.00037392913 0.31169695 -0.20374173 0.040683035 -0.07718454 -0.67438704 -0.14746238 -0.039274648 0.23938605 0.3918628 0.0034155403 0.1812614 0.033489242 0.0012546881 -0.006038351 0.13158086 -0.38737783 -0.031075325 0.12862794 -0.03860408 -0.066559486 0.16370064 -0.13630904 0.23639792 0.03468281 -0.116469234 -0.2254786 0.11858708 -0.067171864 -0.11770218 0.13655795 0.0114207575 -0.0881724 0.3143145 0.4794096 0.13813499 0.15844256 0.060491987 0.036449045 0.19178188 0.011213757 -0.11357643 0.073349155 -0.017147196 0.24473765 0.1053907 -0.050608978 -0.21545468 0.1341869 0.33055925 -0.12316326 0.21880408 0.07429664 0.07846961 -0.0795502 0.08060994 -0.31394714 0.15356529 0.07789365 0.18623246 -0.013060257 -0.122834414 -0.07873727 -0.008842618 -0.08322334 0.09458699 0.18958576 0.4324009
831 -0.06875796 0.14740127 0.07669571 0.20485568 0.09289122 -0.214334 -0.026880467 0.1982834 -0.2304031 -0.15080126 -0.09099865 0.16052479 -0.070813864 0.37240642 0.14955132 -0.112263456 0.28984088 -0.055764657 -0.16602647 0.017733643 0.2284729 0.12580758 -0.037014816 0.17459284 -0.11408668 0.13326606 0.047981966 -0.1349366 0.084746435 -0.1441402 -0.2546696 0.05089507 0.024245635 0.18441328 -0.21969871 0.06407539 -0.11965086 -0.52206683 -0.15388492 -0.085839085 0.2152509 0.2937042 0.105511986 0.15049233 0.01029115 -0.0044114343 -0.050714716 0.07814835 -0.29020548 -0.05550915 0.11645141 0.0017347098 -0.06925168 0.12497419 -0.10542725 0.16605988 0.06730868 -0.14818844 -0.1865848 0.08506778 -0.06425457 -0.065615624 0.080054656 -0.0120908 -0.121677734 0.32633135 0.40802598 0.07569206 0.031684533 0.13273132 -0.033113286 0.19369964 0.02762285 -0.10436899 0.055751167 0.048104867 0.18952347 0.009025546 -0.108867675 -0.16733283 0.010261516 0.19222353 -0.093000546 0.019932972 0.064131185 0.04788498 -0.08461276 0.02860521 -0.2647206 0.114144005 0.11018438 0.06558734 0.013405815 -0.029491503 -0.024638392 0.027267518 -0.07077929 0.07868521 0.10847783 0.35724604
1767 -0.08579183 0.18471347 0.07420672 0.28046742 0.044369925 -0.18711734 -0.006006026 0.31200895 -0.31276506 -0.24078816 -0.070367165 0.26410332 -0.091034465 0.4535335 0.19199686 -0.22203004 0.3492998 -0.11910183 -0.30649632 0.13215593 0.23856957 0.11247495 -0.066371456 0.18120742 -0.10057063 0.093281165 0.026866134 -0.20525219 0.0881736 -0.1998231 -0.4348524 0.045982808 0.023505097 0.22302863 -0.19258517 0.0667898 -0.07666529 -0.73069966 -0.17865713 -0.064822815 0.19108073 0.40095106 0.024497764 0.22986168 0.02082144 0.0028266036 -0.017348368 0.07133459 -0.3469479 -0.01708228 0.15826413 -0.018985735 -0.096226126 0.1393986 -0.16896954 0.21893206 0.08738802 -0.21853723 -0.30195653 0.052601308 -0.11343378 -0.10121844 0.17655039 0.005449231 -0.1451839 0.404189 0.4229983 0.15092538 0.12482038 0.07878199 0.049173083 0.15665154 0.019136332 -0.15419129 0.06956786 0.10328743 0.24127862 0.0154941445 -0.04340572 -0.21357226 0.1089174 0.3042788 -0.16386865 0.100964114 0.09729786 0.09888294 -0.18340576 0.056024477 -0.34921178 0.14243087 0.1064642 0.0822602 0.035049915 -0.10899883 0.0049539534 -0.013831 -0.19106469 0.11333678 0.14202923 0.45391038
1237 -0.07884981 0.17018676 0.06253151 0.25729948 0.07134972 -0.20459309 -0.011355341 0.2641206 -0.27815208 -0.21973066 -0.09674252 0.2386267 -0.118712544 0.42547724 0.19177869 -0.17956685 0.33029076 -0.08337351 -0.26934206 0.09448937 0.24515268 0.11860001 -0.06115307 0.1866342 -0.11187704 0.10317867 0.03374777 -0.181308 0.08176406 -0.1483803 -0.36453766 0.045966685 0.03602139 0.24245365 -0.19861558 0.075971544 -0.09516807 -0.6665061 -0.16172981 -0.08093615 0.22576086 0.39419925 0.07103344 0.17689875 0.010013264 0.010556941 -0.04378582 0.07907232 -0.32417566 -0.031560738 0.1336631 -0.014015858 -0.074361786 0.15272766 -0.16822094 0.2230979 0.08514056 -0.17467818 -0.25639752 0.074722625 -0.09945891 -0.10503284 0.171988 -0.01163029 -0.13891993 0.3871764 0.427989 0.142584 0.06398205 0.13163276 -0.01630815 0.18411356 0.012115765 -0.12876168 0.08502657 0.0801334 0.25040898 0.012659154 -0.07928782 -0.22068018 0.08337864 0.26576114 -0.16763029 0.083086304 0.09200937 0.05808219 -0.13985984 0.05077048 -0.3234708 0.13510342 0.11512656 0.07216678 0.044080835 -0.071226925 0.0047388263 0.016677186 -0.14437619 0.096502975 0.14156209 0.4156755
222 -0.0852586 0.1715703 0.059869427 0.20823376 0.120190464 -0.24710508 -0.00037408236 0.21120073 -0.24907303 -0.17224078 -0.1245307 0.18764032 -0.0805733 0.3837359 0.17295648 -0.1171117 0.3085425 -0.07988436 -0.18264848 0.023090111 0.2342333 0.13216613 -0.06519207 0.1770576 -0.13203624 0.11310881 0.06312632 -0.11632386 0.05954901 -0.18177676 -0.2627102 0.02586245 0.029546477 0.1800464 -0.207812 0.068955414 -0.13965365 -0.5489831 -0.16822654 -0.11081229 0.21430266 0.2886784 0.12476238 0.15779094 -0.010247877 0.0044690566 -0.051410615 0.09270287 -0.28734386 -0.05914832 0.10536785 0.007947491 -0.07776644 0.11052424 -0.118159115 0.17698026 0.08732162 -0.15448712 -0.21802707 0.06404995 -0.07083468 -0.054861944 0.081992425 0.005052951 -0.1693392 0.34235087 0.3691969 0.09047278 0.017461909 0.1270817 -0.05509917 0.17653133 0.011211972 -0.08744504 0.053066097 0.07620048 0.20769922 -0.012919718 -0.112633 -0.18253197 0.023338245 0.16711167 -0.109890155 -0.010918414 0.0755804 0.048421487 -0.11916364 0.01454388 -0.28645837 0.11112542 0.121487044 0.023239728 0.0555984 -0.031195998 0.011529735 0.009625958 -0.12080665 0.08372057 0.097455285 0.36616623
929 -0.075122155 0.15731487 0.09732707 0.20850128 0.07976798 -0.21456446 -0.045188688 0.20605999 -0.21509276 -0.14623755 -0.07715543 0.15544248 -0.07276821 0.3460693 0.19056574 -0.12561555 0.29547265 -0.056156684 -0.18422648 0.021872338 0.17507479 0.11340239 -0.04251246 0.14623 -0.05972961 0.105964914 0.0035806007 -0.16142921 0.10108065 -0.13345598 -0.30231982 0.012856355 0.006106992 0.20900379 -0.20208736 0.040688377 -0.12654555 -0.5119292 -0.14276236 -0.08169768 0.23267148 0.27219 0.042673312 0.1532851 0.034325816 0.016319053 -0.026197517 0.10475468 -0.3079424 -0.0683062 0.078309864 -0.011691399 -0.09230576 0.12775485 -0.08200411 0.17663111 0.08354644 -0.08199301 -0.1967308 0.09755356 -0.037462376 -0.058292355 0.08945711 -0.004804496 -0.10732493 0.3332518 0.40191478 0.09207381 0.043995645 0.08921308 -0.039034735 0.17430714 0.04689454 -0.10262726 0.04005723 0.002844082 0.2174001 0.014404097 -0.07406007 -0.16034211 0.055664357 0.18667658 -0.09231308 0.054353226 0.08763932 0.05898684 -0.101983726 0.02381045 -0.2856073 0.13486297 0.12701456 0.0703673 -0.0098874075 -0.074433446 -0.029832903 0.0406552 -0.11282165 0.06337487 0.10451896 0.3774645
1254 -0.09560401 0.1492535 0.047287837 0.24846375 0.10294203 -0.21812864 0.007952931 0.25112554 -0.26816022 -0.17495573 -0.1675574 0.23834857 -0.17596878 0.4507611 0.20341557 -0.14628194 0.3353819 -0.062404957 -0.2605445 0.06545564 0.2543823 0.1477382 -0.08064166 0.23183595 -0.16433643 0.08614705 0.07640034 -0.17800674 0.07752962 -0.12132903 -0.2867759 0.07995634 0.060411435 0.25643805 -0.21319865 0.09231766 -0.09032758 -0.62893647 -0.16864161 -0.10056301 0.23545542 0.38561895 0.14983651 0.1491067 -0.0053602643 0.036109686 -0.08005869 0.08266519 -0.31173262 -0.021317314 0.14334065 0.0036222218 -0.036435403 0.18135004 -0.1544196 0.22392358 0.08013674 -0.14935061 -0.21557987 0.08056591 -0.08639067 -0.09897125 0.13825303 -0.022402646 -0.15052964 0.35205415 0.4467416 0.123914644 0.0433907 0.15894145 -0.06314477 0.17703776 -0.010483303 -0.08307917 0.090876184 0.059491765 0.25187874 0.025001233 -0.11542922 -0.25086054 0.06274617 0.2335184 -0.16040833 0.07022459 0.10140592 0.017795624 -0.06789012 0.03500022 -0.28852803 0.112774104 0.099101745 0.078803204 0.0613272 0.00030017344 -0.010755932 0.0070080482 -0.06752106 0.08639833 0.16302384 0.39025036
166 -0.094890654 0.20603894 0.09738608 0.29066074 0.032024525 -0.19810195 -0.0068488284 0.30702412 -0.31633553 -0.24636911 -0.03144314 0.24941754 -0.07434935 0.43752748 0.17685646 -0.23547852 0.3303669 -0.13872802 -0.30529353 0.13640364 0.20999955 0.10188179 -0.043445155 0.15160105 -0.05361542 0.094997145 0.0023571632 -0.22478703 0.11133885 -0.22993481 -0.4773537 0.003083313 -0.015278607 0.22217834 -0.18597567 0.03132734 -0.09230716 -0.7382778 -0.17214134 -0.06728269 0.19113187 0.38783088 -0.03368936 0.24777015 0.04048524 -0.022533743 0.009964273 0.107366756 -0.36356947 -0.016321452 0.13916272 -0.044799432 -0.13426661 0.11441086 -0.16908877 0.230836 0.077768356 -0.2054695 -0.30307063 0.061071508 -0.09791345 -0.09289027 0.17472507 0.0336921 -0.11798076 0.4132276 0.42015016 0.17002358 0.1396624 0.03021126 0.08447465 0.1744061 0.03684652 -0.17619385 0.06687192 0.08973778 0.25102887 0.014267425 -0.031605683 -0.20862223 0.14109737 0.3196261 -0.14071463 0.12541035 0.08524358 0.12495589 -0.22123607 0.07948268 -0.3867102 0.15395582 0.11995204 0.07484913 0.019882882 -0.18072392 -0.0035817141 -0.013998989 -0.24718009 0.11508791 0.12932128 0.46954882
1342 -0.087168604 0.17852469 0.06654419 0.29919285 0.06064295 -0.20211695 -0.0068658288 0.3044029 -0.30245495 -0.24353722 -0.10826698 0.27159342 -0.14159381 0.46254176 0.21175544 -0.21937695 0.35059962 -0.101333454 -0.3260666 0.12008599 0.25403827 0.12651114 -0.07064369 0.17855734 -0.121724434 0.10054755 0.044633053 -0.1950707 0.086756885 -0.18694791 -0.41849786 0.035110816 0.035768736 0.24791639 -0.20842117 0.08591445 -0.08174279 -0.75276846 -0.18916623 -0.0749778 0.22223292 0.4368464 0.061201815 0.22920583 0.0009232936 0.01251235 -0.03051274 0.085662305 -0.34320104 -0.021905346 0.1573407 -0.01574287 -0.0779521 0.15530238 -0.18768324 0.26465118 0.099153325 -0.20141453 -0.29502684 0.06490751 -0.10792731 -0.106523775 0.2036877 0.00537147 -0.16091347 0.4420344 0.44639844 0.18150628 0.090188324 0.12293039 0.010597031 0.17587474 0.020175822 -0.14053342 0.09919283 0.108112596 0.29118538 0.020465445 -0.08397927 -0.26388288 0.10727283 0.29287708 -0.19792302 0.09292356 0.12017396 0.07498781 -0.17574759 0.048584774 -0.35540646 0.1362338 0.11513122 0.06859463 0.05854377 -0.090987034 0.010384356 -0.007280217 -0.1818669 0.10343858 0.14988743 0.45662445
1147 -0.060871813 0.14929436 0.10574025 0.1720558 0.12565961 -0.2355341 -0.053402055 0.15730113 -0.16289371 -0.12547822 -0.090945534 0.10111567 -0.07514024 0.3287215 0.1508926 -0.08701278 0.25228676 -0.017816285 -0.12411871 -0.03137794 0.20411745 0.112039715 -0.04915188 0.10854224 -0.095066525 0.13822676 0.049770497 -0.05353127 0.074194096 -0.115275644 -0.15120347 -0.008447257 0.03003315 0.17544462 -0.22271591 0.07490368 -0.16782494 -0.42869323 -0.12910019 -0.10732671 0.27166748 0.23587665 0.12678792 0.08579242 0.0053256284 0.018496672 -0.060079247 0.08267849 -0.2511492 -0.06686664 0.06501685 0.014902224 -0.04179942 0.12044189 -0.09552016 0.18597743 0.10338344 -0.056988418 -0.14569291 0.10040465 -0.029763605 -0.032720003 0.07784609 -0.03610472 -0.13895543 0.3460042 0.3928834 0.07245145 -0.0774044 0.16600028 -0.12218375 0.21335018 0.038819492 -0.09530759 0.07756951 0.024298813 0.22951645 -0.031010898 -0.13529244 -0.15110183 0.0033217939 0.15505573 -0.0875547 -0.0401932 0.07881913 0.012549988 -0.07998961 0.022041855 -0.24291961 0.11224721 0.13151906 0.0036184283 0.019859402 -0.008495502 -0.0038889875 0.08260396 -0.062037654 0.076668754 0.096352875 0.3304027
717 -0.08988159 0.16517013 0.092331156 0.23901375 0.05049398 -0.20541656 -0.03029551 0.24553746 -0.2296592 -0.18495835 -0.041834015 0.19094038 -0.09105559 0.39447412 0.16865893 -0.18818718 0.32325128 -0.07951919 -0.24430382 0.06507022 0.19257337 0.114690214 -0.049979754 0.14018905 -0.060010977 0.09738781 0.012627248 -0.18596554 0.11132717 -0.1460815 -0.36856 0.025135873 -0.0020201127 0.23380946 -0.20550953 0.05172626 -0.084578626 -0.6079008 -0.14881712 -0.06791441 0.22585051 0.33953774 0.028112467 0.19428669 0.04480598 -0.005359114 -0.018998658 0.10210246 -0.32970914 -0.03841357 0.1055905 -0.035227258 -0.08215686 0.1401291 -0.13348092 0.21852495 0.078660935 -0.120444395 -0.23726693 0.10358627 -0.07617752 -0.08739156 0.14618762 -0.009659811 -0.11762848 0.38746944 0.41738224 0.12453534 0.070144475 0.08549416 0.009033088 0.18153356 0.027403371 -0.14048025 0.07669818 0.043047577 0.25092557 0.011026277 -0.064966284 -0.18435858 0.102132045 0.2604414 -0.12017674 0.11686844 0.09024367 0.06386465 -0.13933723 0.04947994 -0.31882623 0.14307052 0.10346819 0.098718084 -0.0071344855 -0.10074056 -0.04384096 0.027656712 -0.16319488 0.09566155 0.13024303 0.41416085
1931 -0.10067235 0.18233986 0.06868111 0.2869837 0.056654926 -0.19754793 -0.01131591 0.30058363 -0.30877498 -0.23668396 -0.102502674 0.27412137 -0.117563926 0.47861204 0.20823266 -0.21496485 0.3617775 -0.102462284 -0.30407363 0.12119048 0.25535852 0.12764506 -0.0707797 0.19885711 -0.12343958 0.091759615 0.033724833 -0.21013069 0.080249056 -0.19205871 -0.41809446 0.06256063 0.043084018 0.24735951 -0.19950193 0.08187055 -0.08604309 -0.7600699 -0.18498549 -0.069235355 0.21706448 0.42816502 0.06602822 0.22256003 0.006569197 0.013312718 -0.035209823 0.079899 -0.35525796 -0.018637974 0.15153946 -0.02313745 -0.07926398 0.15884574 -0.16940618 0.23648718 0.0942309 -0.22864197 -0.30547398 0.06412932 -0.11202301 -0.12336108 0.18842828 0.005871639 -0.15853643 0.41042507 0.44433227 0.16540343 0.09299375 0.114930004 0.026888547 0.17885149 0.0012670835 -0.14297222 0.09087171 0.10193342 0.26094532 0.019669354 -0.07693866 -0.23888743 0.102690175 0.2969599 -0.1789022 0.10376856 0.11162913 0.08433447 -0.1628828 0.05035399 -0.35330915 0.1396098 0.10274816 0.08506747 0.053909633 -0.097990066 0.007625807 -0.010889281 -0.1769093 0.09492952 0.15291433 0.4593547
1021 -0.10226783 0.1573559 0.038104802 0.2707447 0.07599123 -0.18784657 -0.0010385754 0.27839568 -0.2920983 -0.21026534 -0.11723494 0.23794499 -0.1356536 0.4536061 0.19136919 -0.1784902 0.36028224 -0.09266186 -0.27012888 0.08360228 0.26751694 0.14456502 -0.051689107 0.22778897 -0.14054975 0.07183924 0.048466723 -0.20610948 0.096425794 -0.16517831 -0.35025162 0.06670512 0.025608148 0.22852409 -0.19785745 0.08245425 -0.08700683 -0.6897306 -0.16056532 -0.06729705 0.21906939 0.3939718 0.08071169 0.18880992 -0.0007000596 0.004596044 -0.042804673 0.08109398 -0.35896355 -0.013313857 0.16582876 -0.008629454 -0.056378644 0.1635196 -0.1604731 0.22362816 0.062308494 -0.19971758 -0.26409927 0.06263078 -0.096518226 -0.09204681 0.15277325 -0.00035669256 -0.14843343 0.34496817 0.449951 0.13751759 0.10686693 0.1330805 0.008232487 0.19353597 -0.006869838 -0.107473485 0.07939883 0.07136351 0.23290046 0.025314197 -0.07617035 -0.22974402 0.081843615 0.2700199 -0.15750636 0.09845354 0.09411736 0.06716599 -0.11110036 0.057089802 -0.3133408 0.13859223 0.070492886 0.10116717 0.04925634 -0.063819386 -0.011921474 -0.018147657 -0.1053992 0.11151847 0.18350017 0.43893528
174 -0.099438585 0.18195234 0.09105345 0.29698446 0.036097556 -0.19168572 -0.019512359 0.29467112 -0.3034371 -0.23009318 -0.07082386 0.26311454 -0.10189782 0.44351232 0.20952526 -0.2281616 0.3506742 -0.10342664 -0.32592034 0.13364781 0.23893178 0.11293884 -0.058057033 0.16658688 -0.084334485 0.08780257 0.010994579 -0.22087777 0.10270412 -0.16277447 -0.45874324 0.04254174 0.020584961 0.2717453 -0.19410695 0.07475564 -0.07745344 -0.7459045 -0.18781388 -0.054348193 0.22076869 0.43061578 0.013403677 0.22934413 0.015120518 -0.0011149882 -0.011346606 0.093288645 -0.36654255 -0.020810565 0.13502702 -0.026279267 -0.10009043 0.1533152 -0.16430752 0.24779502 0.092892446 -0.19362961 -0.29679352 0.080713086 -0.09618184 -0.11695908 0.18857719 0.00137125 -0.13327795 0.41887912 0.45697975 0.17545705 0.12121462 0.08497472 0.039769407 0.17096151 0.018594187 -0.160223 0.08508862 0.08121883 0.27421436 0.03987876 -0.054621406 -0.23475099 0.124272235 0.316437 -0.17561036 0.14400524 0.11234222 0.09927574 -0.18493651 0.052617442 -0.35323083 0.15363064 0.09961472 0.10306626 0.02737101 -0.14033547 -0.014419735 -0.0019458971 -0.19434322 0.102536395 0.1523615 0.46715578
