2191 100
0 0.009951655 0.07847944 -0.042847518 -0.2701664 0.22743018 0.054951236 0.2901727 0.22575961 -0.026478458 -0.0069141174 0.16035402 0.014585473 0.13207561 -0.1837896 -0.037252393 0.28901178 0.050727893 0.087918326 -0.07974829 -0.0393214 -0.19047989 0.099200875 -0.041512713 -0.21925013 -0.23382333 -0.033991024 0.13679913 -0.20868538 0.06574667 0.27585715 0.13585879 0.02744874 -0.16031988 -0.098822445 0.25098476 -0.09725187 -0.2704143 -0.24906479 -0.039344963 0.050865423 -0.14173865 -0.28596833 0.059675395 -0.21972112 0.15825632 0.026786763 -0.037346832 -0.04529706 0.0041080303 0.022073636 -0.16530648 0.34844807 0.18191084 0.21792331 -0.15482476 0.1491627 0.11279747 -0.0031071543 0.2187766 -0.24677141 -0.21072346 -0.0031905116 -0.11261043 -0.007136532 0.2127229 0.1931058 0.0074095493 0.093767755 0.218119 -0.08790607 -0.07044516 0.21041429 -0.023579858 -0.21823494 -0.19547905 0.123877734 -0.029988432 0.060399976 0.34603006 -0.0015701805 0.36306992 0.2866796 -0.09612929 -0.038024224 0.09262648 0.053903297 0.14025378 0.16897473 -0.1618529 0.36652505 -0.07963868 0.21080539 -0.19257848 -0.3267274 0.029126348 -0.40626705 -0.4068302 0.085470684 -0.24865678 0.18014699
1611 0.028397953 0.095683075 0.0018123133 -0.3043857 0.26641947 0.07869506 0.377955 0.2791993 -0.011733239 0.0042214147 0.15855409 0.02664738 0.15485065 -0.19019517 -0.052968632 0.33624873 0.06484268 0.095486164 -0.061619926 -0.020382276 -0.23604293 0.10609214 -0.03470749 -0.24903086 -0.25332776 -0.016212061 0.17616698 -0.24767824 0.07473834 0.31757474 0.16939357 0.030198589 -0.18678075 -0.13482158 0.33708453 -0.12857978 -0.34075987 -0.27943194 -0.051955253 0.07497411 -0.16504893 -0.299343 0.03762435 -0.26082456 0.17534289 0.05971283 -0.028718492 -0.0699266 -0.053687245 0.06587539 -0.21548192 0.38386312 0.20785533 0.25489184 -0.21483433 0.15992293 0.16662316 0.007049571 0.23889314 -0.2941586 -0.24095002 -0.0097966 -0.10968032 -0.010016689 0.24453211 0.21196964 0.025264142 0.14050093 0.24058561 -0.11184317 -0.07483304 0.23199713 0.0029346312 -0.22789685 -0.2362565 0.14294133 -0.048822984 0.07646449 0.3656061 -0.0064752013 0.38334286 0.33479542 -0.12523197 -0.06902698 0.08550979 0.037831426 0.12885779 0.21169768 -0.16536699 0.4045016 -0.080385126 0.24924658 -0.23300418 -0.36777884 -0.013194099 -0.48916343 -0.47006434 0.1061331 -0.2642212 0.19643745
553 -0.088743865 0.10657784 -0.13116968 -0.27661887 0.22002476 0.056344353 0.17636181 0.18866825 -0.12254935 -0.005076585 0.06308671 0.045278396 0.014343439 -0.14862174 -0.018985406 0.18258324 0.06874277 0.13450341 -0.06995323 0.0467571 -0.11897721 0.021514237 -0.06529995 -0.2234538 -0.32627696 -0.06965772 0.045526445 -0.16981404 0.032469343 0.16947751 0.087467 -0.026069602 -0.16415884 -0.08360637 0.16407117 -0.0717265 -0.08054775 -0.15662347 -0.037902698 0.019993026 -0.10144753 -0.24884196 0.011860944 -0.2079152 0.1314424 0.034028616 -0.03465432 -0.027363712 0.06874465 0.010163079 0.003278675 0.30745026 0.10133133 0.15981138 -0.079987526 0.10441873 0.05377703 -0.012126135 0.120173775 -0.26844117 -0.2128701 0.057003304 -0.13438576 -0.03659914 0.17007354 0.16153792 0.036785435 0.0048998357 0.24167712 -0.06765538 -0.021670528 0.16348277 -0.095334575 -0.19125444 -0.11986955 0.18303935 -0.10145755 0.07653488 0.34116623 -0.039677683 0.30841982 0.29034212 -0.029307364 -0.0029856586 0.0609606 0.09228055 0.06848749 0.08723781 -0.17111605 0.33837017 -0.03835147 0.2324826 -0.15143703 -0.21734825 0.023620361 -0.25584257 -0.25548863 0.030965371 -0.15938571 0.24793705
554 0.03168239 0.07685132 -0.009159845 -0.32273978 0.24766535 0.08452842 0.3773467 0.30517837 0.013572877 0.033466138 0.16353554 -0.0014643406 0.18135671 -0.21846631 -0.067000866 0.3249356 0.08183566 0.09155533 -0.09915948 -0.04786307 -0.25776404 0.10478047 -0.038236286 -0.25604758 -0.2585685 -0.0053544957 0.16247112 -0.29082713 0.050782934 0.3400171 0.17431308 0.025235662 -0.16215065 -0.12642613 0.3312016 -0.14780065 -0.36731735 -0.27787757 -0.039915834 0.054493837 -0.18750949 -0.30259553 0.06614864 -0.27197847 0.19342227 0.041100133 -0.013905915 -0.11436386 -0.06105305 0.036435954 -0.2587564 0.38547814 0.21385822 0.2977359 -0.23600392 0.18276373 0.2079071 0.00083140243 0.24951708 -0.3048764 -0.2746317 0.008308039 -0.09368198 -0.02047154 0.26622102 0.21195705 0.021074062 0.12607819 0.24948731 -0.1401129 -0.086995475 0.28189102 0.00077305845 -0.26988143 -0.28111377 0.12190816 -0.07290968 0.08423368 0.3998379 0.0020251528 0.38942686 0.36540395 -0.15490443 -0.06919341 0.09027231 0.018323377 0.15988635 0.21820354 -0.18131584 0.42708766 -0.06826586 0.26058078 -0.28382006 -0.37281322 -0.010391031 -0.500827 -0.50261 0.102012 -0.27485663 0.21707977
1614 -0.030727392 -0.064791046 -0.14393015 -0.18893297 0.14894187 0.03952294 0.11989899 0.18158974 -0.039907113 -0.034493092 0.19033526 0.026502833 0.033812914 -0.13185298 -0.08638697 0.12920652 -0.02708716 0.06040423 -0.1073996 -0.09430797 -0.11374815 0.016027167 -0.029848129 -0.16351803 -0.1400594 -0.13199107 0.030143695 -0.10424339 0.07623187 0.24949445 0.13426208 0.0024663091 -0.10388841 -0.038616136 -0.0036135574 0.00056387443 -0.12051913 -0.12005683 0.000882949 -0.018584924 -0.07962007 -0.23412102 0.1632731 -0.17175996 0.0409204 -0.033536114 -0.08857302 -0.050122455 0.13864017 -0.16915289 -0.095198534 0.2879674 0.19900453 0.1611988 -0.060037717 0.10191777 0.0031458475 -0.07863025 0.20660122 -0.0723953 -0.1552872 0.08591846 -0.2118458 -0.020091021 0.1974652 0.15443076 -0.033517096 0.0393626 0.15398751 -0.027211374 -0.09314044 0.25769538 -0.06143264 -0.23617816 -0.1120608 0.1084379 0.07838938 -0.034427483 0.3156529 0.0582379 0.33741355 0.28816345 -0.090388164 0.06330601 0.14196575 0.11321794 0.24901418 0.11340026 -0.12565462 0.34214404 -0.09606018 0.08637663 -0.15197976 -0.31450954 0.07189337 -0.3126181 -0.36572176 0.07069188 -0.22535242 0.14739947
1615 -0.024669407 0.16459614 -0.06666228 -0.23244534 0.23727185 0.028056035 0.21965404 0.11223086 -0.10878749 -0.005280772 0.14656724 0.03909545 0.11380798 -0.21055731 0.014505416 0.34079507 0.043467365 0.11265295 -0.06773419 0.046535414 -0.12727833 0.16553456 -0.041658778 -0.2142884 -0.23621212 -0.055828534 0.17327367 -0.1276968 0.041731518 0.18602392 0.044536646 0.039841987 -0.18669875 -0.11141044 0.26402986 -0.05722087 -0.22828518 -0.28343076 -0.087008856 0.115243025 -0.1040874 -0.3045971 -0.002696313 -0.12722799 0.20386198 0.038409702 -0.0473515 0.054506544 0.025637062 0.08728078 -0.047497876 0.33631116 0.11340688 0.12339352 -0.10722444 0.09484772 0.035754327 0.043936774 0.1520856 -0.24384268 -0.12053614 -0.07134354 -0.03350811 -0.021665564 0.12820135 0.17385596 -0.014762061 0.03016507 0.27765682 -0.062296245 -0.030107267 0.076284744 -0.08189245 -0.15904172 -0.10459231 0.11912295 -0.057750847 0.10796937 0.31899357 -0.056133177 0.31603637 0.15820661 0.013400872 -0.04975379 0.05427621 0.087936506 0.05520008 0.08614326 -0.21172607 0.28441548 -0.06905907 0.23596464 -0.118053906 -0.2637263 0.08413689 -0.27680376 -0.24145411 0.071533136 -0.19149767 0.15539835
368 -0.02837273 0.07533275 -0.06119594 -0.23682705 0.23180373 0.0678291 0.26413304 0.18844955 -0.056548357 -0.042992957 0.15398993 0.05500461 0.091751635 -0.15272792 -0.030612474 0.25182533 0.022447005 0.09530464 -0.04405225 -0.01801543 -0.15618643 0.06932555 -0.03389302 -0.20382878 -0.2284775 -0.06097992 0.11703839 -0.16416556 0.069717176 0.25904587 0.13937685 0.007941238 -0.15154614 -0.0880353 0.19604547 -0.0847162 -0.20343399 -0.20691255 -0.053101998 0.058598027 -0.11955014 -0.25287294 0.03130495 -0.21174835 0.12633863 0.038647007 -0.0633471 -0.030233037 0.04545502 0.0054351273 -0.116844766 0.33568305 0.1986569 0.17203724 -0.121155545 0.108409636 0.058804106 -0.030376995 0.20028652 -0.21368057 -0.1892554 0.014725688 -0.13809541 -0.02618936 0.19354282 0.1905561 0.0040423777 0.0892564 0.20561226 -0.046806093 -0.07765993 0.18571079 -0.04266192 -0.18477775 -0.15512629 0.13735095 0.018453699 0.049219307 0.32663527 -0.005282682 0.34727266 0.3076112 -0.06983564 -0.018222025 0.08150051 0.09271975 0.11683398 0.16494058 -0.13426806 0.3447256 -0.07978241 0.2012577 -0.1522315 -0.3141401 0.027094178 -0.37560362 -0.35548693 0.08326778 -0.23798737 0.17803276
1093 -0.025205668 0.13596268 -0.069099255 -0.23548542 0.22792634 0.022900406 0.23224115 0.10947454 -0.08756556 -0.026817525 0.14582783 0.047511812 0.109029144 -0.16863933 0.010567475 0.319943 0.029517034 0.10945972 -0.043191586 0.02711332 -0.12885225 0.13395648 -0.04457609 -0.21504568 -0.2210211 -0.057989866 0.1723632 -0.12451044 0.05247116 0.18565711 0.07349114 0.026891079 -0.188862 -0.10791273 0.2335617 -0.062928274 -0.21351987 -0.2747203 -0.102186725 0.11628011 -0.09132051 -0.28452247 -0.01682218 -0.15688007 0.17665158 0.035151802 -0.06272954 0.03697868 0.048996475 0.07879053 -0.07657151 0.34032053 0.14884228 0.12785187 -0.11089961 0.10521099 0.045477793 0.02198192 0.1699979 -0.24118161 -0.13840258 -0.046909336 -0.053993158 -0.026722597 0.12949893 0.20070691 -0.008357043 0.051385466 0.24350378 -0.062132556 -0.030836975 0.08178907 -0.07929307 -0.14740716 -0.10697193 0.107719615 -0.025109753 0.06984944 0.30194765 -0.039780006 0.3132826 0.17769255 0.012097546 -0.025524959 0.058589242 0.081312716 0.08064605 0.11117351 -0.18399704 0.29524165 -0.07410335 0.21990177 -0.12987345 -0.27228 0.06530664 -0.2986035 -0.26422152 0.066341825 -0.19290787 0.18925479
780 0.046427187 0.06697611 0.028837712 -0.30897996 0.25236243 0.08934282 0.40527043 0.28663555 0.0332083 0.0013298142 0.19204532 -0.0035101816 0.19507988 -0.20578755 -0.060106564 0.36209774 0.05202648 0.08106416 -0.081556365 -0.06290523 -0.26043513 0.13203837 -0.03601903 -0.24299131 -0.2369029 0.0012550495 0.18624073 -0.26449788 0.07546305 0.35978228 0.18197256 0.033136386 -0.15964983 -0.13918763 0.34534565 -0.14103633 -0.39749333 -0.30933526 -0.053217694 0.08167189 -0.19078183 -0.3044741 0.06285531 -0.27222237 0.19022466 0.04879954 -0.034399062 -0.10116441 -0.068043225 0.059964743 -0.27336478 0.3902884 0.24437684 0.29366162 -0.2415602 0.18225718 0.18361893 0.010229007 0.2797639 -0.28549284 -0.25914788 -0.016047657 -0.098646685 -0.016571073 0.26613212 0.23030773 0.005335324 0.15097572 0.23693064 -0.1137263 -0.0948787 0.26216322 0.019497054 -0.24778494 -0.26900405 0.11970307 -0.026531525 0.07679298 0.38226792 0.013844326 0.41223246 0.35150796 -0.14166483 -0.07897891 0.09724351 0.02303898 0.17731778 0.23874311 -0.17266816 0.42147905 -0.08761076 0.25264704 -0.27114788 -0.39713252 -0.008323964 -0.5380621 -0.53406197 0.12118867 -0.3040292 0.19845827
1622 -0.039500527 -0.006352592 -0.10138385 -0.25212485 0.18872802 0.05794155 0.19268335 0.21652412 -0.022749161 -0.009429093 0.14231463 0.019231014 0.05326983 -0.13380276 -0.100972734 0.15204003 0.015732566 0.0915679 -0.106344245 -0.09994286 -0.16283879 -0.0030177883 -0.042602144 -0.20440067 -0.20342368 -0.0952206 0.029984847 -0.16860937 0.052435253 0.27128205 0.1593725 -0.014784148 -0.11915976 -0.07934535 0.09310314 -0.07415555 -0.136337 -0.15441217 -0.013427843 0.009369217 -0.12712179 -0.21757591 0.11491098 -0.25285152 0.07976571 -0.005427107 -0.06419561 -0.09471669 0.07095767 -0.118116364 -0.13600737 0.29744062 0.21054055 0.20628563 -0.11571313 0.14936203 0.086377494 -0.0680561 0.19797786 -0.15395437 -0.22218552 0.09451744 -0.19852942 -0.017096303 0.23010173 0.17055935 0.02161249 0.06404146 0.17011404 -0.07044743 -0.06806197 0.3109911 -0.0442407 -0.23148695 -0.17427188 0.1268207 0.007613752 0.018558597 0.34445727 0.0381953 0.34677342 0.3642851 -0.11911696 0.023460174 0.10666643 0.091370925 0.20497327 0.15503484 -0.12644884 0.38089347 -0.08729123 0.1591183 -0.20586917 -0.31240574 -0.00991753 -0.36591867 -0.40947008 0.060030475 -0.23310132 0.22564012
1099 0.018145414 0.07205305 -0.004500894 -0.29957634 0.24721895 0.07663988 0.34353858 0.27668282 0.0021735895 0.013163058 0.1607236 0.011762848 0.14731902 -0.18788852 -0.06906332 0.30384314 0.06376073 0.09201972 -0.08368264 -0.05315721 -0.22771515 0.10058053 -0.036733035 -0.23311175 -0.24261695 -0.01941519 0.15327854 -0.25524053 0.06010858 0.3248707 0.17010844 0.023411887 -0.16117841 -0.120906904 0.29411647 -0.12432343 -0.31622127 -0.2547154 -0.030549238 0.05024719 -0.16790678 -0.29379934 0.060092118 -0.2607289 0.17087755 0.045302894 -0.02861711 -0.09097308 -0.040968463 0.023446891 -0.21828699 0.3650155 0.20788898 0.26834095 -0.21017936 0.16411401 0.17244163 -0.00811646 0.2443294 -0.27485153 -0.2615606 0.015148073 -0.12245984 -0.0098482985 0.24890879 0.21302873 0.020862117 0.12459056 0.23120318 -0.112008184 -0.08009197 0.26096153 -0.006268133 -0.24168964 -0.24386857 0.13620502 -0.0440679 0.07105814 0.38017473 0.004657821 0.38562816 0.3603532 -0.13941917 -0.054721788 0.09709515 0.027720336 0.15296036 0.20864356 -0.16420902 0.41134396 -0.08999287 0.23120086 -0.24511641 -0.35828424 -0.007412769 -0.48732862 -0.47723222 0.099877395 -0.26370558 0.2075992
1626 0.046376027 0.06448411 0.009399555 -0.3032733 0.24692456 0.08809228 0.39521596 0.2910964 0.020540193 0.001696398 0.16900207 -0.002977927 0.18278846 -0.20513025 -0.064164266 0.33891103 0.060285825 0.08197755 -0.08779838 -0.059230708 -0.251284 0.12020424 -0.046787214 -0.24986847 -0.24172126 -0.0010949334 0.17444788 -0.2681917 0.064269535 0.34706217 0.17396161 0.03245187 -0.1684642 -0.140223 0.342798 -0.14426726 -0.37548244 -0.2981477 -0.04941258 0.06800544 -0.18360262 -0.30044708 0.050314907 -0.28331593 0.18702352 0.055904552 -0.03407025 -0.10137344 -0.057537727 0.044554684 -0.26124856 0.3784128 0.23774183 0.28513777 -0.22908136 0.17930543 0.18662143 -0.00034001144 0.2692266 -0.29077834 -0.2685404 -0.009676473 -0.10882315 -0.0085957 0.26137912 0.22371075 0.013552418 0.13435209 0.23614693 -0.12257789 -0.08740019 0.26168132 0.018940719 -0.24528162 -0.2730357 0.12414585 -0.03984186 0.083273284 0.37284577 0.011305673 0.3917172 0.35804766 -0.14410783 -0.07595745 0.09147433 0.011991663 0.1738397 0.23158959 -0.1754788 0.40846586 -0.07965277 0.2513683 -0.26595592 -0.38621798 -0.017543612 -0.52063 -0.5229699 0.11062658 -0.28778872 0.19337806
73 0.047260743 0.042977214 -0.008197282 -0.28678358 0.23760173 0.07963021 0.37667006 0.28012076 0.03166636 -0.005832806 0.19149408 -0.0020871572 0.16765317 -0.19506843 -0.08124348 0.30630952 0.03916864 0.07429788 -0.08075207 -0.07214383 -0.23375338 0.095531695 -0.04211295 -0.22971904 -0.2129369 -0.012203375 0.16808197 -0.2437277 0.07483228 0.3575611 0.18649137 0.038748685 -0.15148866 -0.12600002 0.2850004 -0.12692708 -0.36075842 -0.26021343 -0.044950336 0.056144636 -0.16842782 -0.27416083 0.085355 -0.27225125 0.16524331 0.039749462 -0.04085225 -0.11179764 -0.033119272 0.007950912 -0.26549155 0.3660592 0.24993144 0.27399954 -0.21826208 0.17872153 0.17082886 -0.006824196 0.25956208 -0.2330046 -0.25008973 0.0028694223 -0.13239889 -0.0062519126 0.25986412 0.21877949 0.013595746 0.1559325 0.19758464 -0.09056791 -0.09198457 0.28129092 0.010829895 -0.24142896 -0.2516202 0.11572137 0.0072893403 0.04368066 0.37000692 0.02876306 0.39174712 0.36486894 -0.15396251 -0.05907512 0.09989968 0.030351475 0.195901 0.23420551 -0.14085202 0.40904793 -0.090058535 0.2119558 -0.25521877 -0.39456654 -0.008750739 -0.51540357 -0.52129424 0.12569366 -0.30342698 0.18083885
1353 -0.065732755 0.20269614 -0.12966879 -0.22358423 0.24104984 0.022460261 0.17920792 0.055639386 -0.21270022 -0.03394729 0.11613841 0.11110514 0.047317497 -0.15480307 0.08525745 0.32582936 0.017548122 0.1190648 -0.007893939 0.15557976 -0.06276671 0.12183101 -0.06670871 -0.23933095 -0.29526895 -0.06488812 0.17505954 -0.05775576 0.054561283 0.0935652 0.010731755 0.02892147 -0.2111206 -0.07793149 0.22628954 -0.0020986188 -0.1130366 -0.24496007 -0.124375015 0.114006996 -0.048669226 -0.31254634 -0.06678675 -0.08753954 0.17659195 0.056858502 -0.06128683 0.12527028 0.097620435 0.12406449 0.08764749 0.34611568 0.04254813 0.0069385283 -0.029849602 0.02793151 -0.06556546 0.024953095 0.10223188 -0.2737998 -0.06488224 -0.06777994 -0.063996255 -0.027125694 0.063678175 0.203527 -0.028256744 0.021383598 0.29429382 -0.022205668 -0.015693648 -0.033972804 -0.11098562 -0.10059401 -0.01889369 0.17336698 -0.029005434 0.07717853 0.26656193 -0.10555662 0.33553717 0.12868342 0.0856715 -0.027719632 0.040725484 0.11524896 -0.0366968 0.03411877 -0.19709359 0.25341442 -0.078705095 0.2523892 -0.022258814 -0.17239918 0.13817371 -0.19775519 -0.11952152 0.07781735 -0.15710202 0.16225763
1906 0.01695309 0.056005742 -0.031240053 -0.29198018 0.23530573 0.07469861 0.33139294 0.26847875 -0.0008965003 0.009786579 0.17254336 0.0131794885 0.14759743 -0.19708768 -0.06995753 0.28455344 0.055224482 0.088146634 -0.09567792 -0.063238986 -0.22003697 0.08945804 -0.03555616 -0.23438045 -0.2267919 -0.026047383 0.13031673 -0.23502545 0.057751216 0.30780327 0.17329754 0.017555438 -0.15547124 -0.11459862 0.27430362 -0.115913615 -0.30855814 -0.2547554 -0.034765553 0.04371529 -0.1647435 -0.2861983 0.066217914 -0.24664555 0.15144168 0.03643767 -0.04096157 -0.0780288 -0.03054186 0.014666279 -0.21549785 0.35485792 0.21046361 0.24880348 -0.20165406 0.15850094 0.15053119 -0.0002921462 0.25056863 -0.26227328 -0.24473971 0.022495896 -0.12541477 -0.0094425045 0.24060829 0.20122302 0.016889438 0.1110498 0.21779719 -0.10307998 -0.07597984 0.2606412 -0.002717977 -0.246038 -0.23185223 0.13187063 -0.036944028 0.059135646 0.3708555 0.0070821573 0.38035333 0.3333166 -0.12692589 -0.04867184 0.09725957 0.042879865 0.16841117 0.1992694 -0.16563617 0.40706927 -0.08552445 0.22010145 -0.23446608 -0.3525381 -0.0014592418 -0.46214196 -0.46127167 0.10364567 -0.25283968 0.19390237
523 -0.09549579 0.25622392 -0.14488104 -0.20275737 0.2788103 0.01266569 0.17083827 0.043758467 -0.24162216 -0.053493228 0.0677932 0.13983999 0.03991011 -0.15623467 0.11115628 0.3205502 0.038645227 0.16609514 0.02260722 0.17801102 -0.050877433 0.13198534 -0.07559717 -0.22222666 -0.3489048 -0.055663638 0.18063092 -0.05513186 0.033903386 0.0664 -0.0063167764 0.00051506807 -0.2735586 -0.0857976 0.25576022 -0.021009011 -0.07346225 -0.24910443 -0.12361298 0.12348168 -0.034508836 -0.30812845 -0.09762731 -0.09074094 0.19795537 0.08294036 -0.054249104 0.18042322 0.120994404 0.16906483 0.15728788 0.3706837 0.014379514 0.0038216119 -0.005485111 0.02046988 -0.06088624 0.037215266 0.07953536 -0.29892167 -0.050268576 -0.08266178 -0.032212537 -0.039337028 0.04463385 0.22415322 -0.009257248 -0.010362759 0.31306916 -0.0057184654 0.015157063 -0.07662422 -0.17103145 -0.09381137 0.021369526 0.18265074 -0.063658044 0.10427458 0.29094514 -0.15595299 0.2949448 0.09507428 0.12914428 -0.038719814 0.016261969 0.14407219 -0.07862808 0.03136751 -0.22228622 0.24692643 -0.06329401 0.29234403 0.012703631 -0.15586533 0.13148403 -0.14216591 -0.042347554 0.06292456 -0.1288316 0.18520537
572 -0.04878187 0.09482821 -0.13197826 -0.20881905 0.21238023 0.04374451 0.17685275 0.120257765 -0.10881594 -0.04183192 0.11590307 0.07598384 0.01859066 -0.13407257 0.005779364 0.20972086 0.015338187 0.11599587 -0.046935692 0.042447086 -0.090543315 0.051495653 -0.054480597 -0.21331891 -0.24886382 -0.09302884 0.085333034 -0.09189619 0.05943633 0.16111948 0.08665834 -0.004985454 -0.16280964 -0.057448674 0.13483848 -0.017010823 -0.08781326 -0.17591749 -0.06621005 0.054971673 -0.06323218 -0.24079368 0.032919176 -0.14730513 0.10770658 0.023022445 -0.0792937 0.026117064 0.0957481 0.011816272 0.0027804195 0.30184454 0.114265494 0.08710503 -0.05786397 0.061932247 -0.0077626584 -0.018118117 0.15466817 -0.21000293 -0.13589855 0.016005244 -0.15436667 -0.027005512 0.13273457 0.18667579 -0.017096872 0.038985047 0.21717753 -0.026918592 -0.039917674 0.09878385 -0.08660861 -0.1589447 -0.053658415 0.16785993 0.006679535 0.023091914 0.29467887 -0.051326983 0.33386755 0.23889233 0.001297447 0.011325702 0.06302762 0.12683767 0.09124763 0.0855847 -0.15568808 0.30288327 -0.09165333 0.18149622 -0.070772946 -0.2407344 0.067544565 -0.2597108 -0.24172911 0.07551262 -0.19012979 0.1683897
1107 0.042678285 0.08924907 0.018246006 -0.31384075 0.26341373 0.08326043 0.38727355 0.2946203 0.014033821 0.02323414 0.16503792 0.0004644763 0.1824062 -0.21130294 -0.053103406 0.34575096 0.06911816 0.09666879 -0.08189246 -0.041313108 -0.24662296 0.115856215 -0.04401461 -0.25308853 -0.24832346 0.0016019808 0.18620989 -0.28462023 0.06672543 0.34053472 0.17419405 0.0312794 -0.17578262 -0.13840517 0.36202365 -0.14379233 -0.37893897 -0.30549812 -0.05748089 0.07396784 -0.1889654 -0.3107242 0.05370624 -0.27404654 0.19360457 0.0507574 -0.015345709 -0.08472522 -0.06282216 0.06527879 -0.25470346 0.38602737 0.2142865 0.28151727 -0.23804775 0.17816782 0.18580529 0.017442204 0.24975803 -0.29909116 -0.2608108 -0.015921919 -0.086820155 -0.013828572 0.25768113 0.22732 0.021803414 0.1308828 0.2517007 -0.12609188 -0.073239736 0.25186563 0.008030772 -0.24082035 -0.2612642 0.12880714 -0.05675331 0.09015916 0.38965723 -0.002510303 0.39840564 0.34192964 -0.13746725 -0.0882207 0.08756855 0.021568064 0.1544934 0.22536042 -0.17883503 0.40911502 -0.083556 0.26647142 -0.2623833 -0.37298816 -0.012884832 -0.5091474 -0.49441713 0.110048525 -0.277918 0.19031458
1638 0.038242344 0.09389224 0.0024144612 -0.31878805 0.2695471 0.08576821 0.39620006 0.2884353 0.015382252 0.008218466 0.16563322 0.0069707143 0.17229772 -0.21079956 -0.051089212 0.3393532 0.071768336 0.09342976 -0.07979868 -0.051714424 -0.25125095 0.10518982 -0.03452509 -0.26013198 -0.2584691 8.753377e-05 0.18623321 -0.2644587 0.06404277 0.3451073 0.17552513 0.03934633 -0.17005299 -0.14281753 0.34655836 -0.1552641 -0.36780503 -0.28925443 -0.051391415 0.074108176 -0.19135378 -0.29413804 0.042603865 -0.28040636 0.1841842 0.05743479 -0.030058185 -0.093548104 -0.062436853 0.06292179 -0.24980141 0.38454896 0.2220845 0.2787651 -0.22790559 0.17544353 0.18428594 0.0015435729 0.2589469 -0.3011447 -0.26785243 -0.011868212 -0.0928069 -0.0070098913 0.25340828 0.22417407 0.02053605 0.14153178 0.23998629 -0.13022277 -0.07165258 0.25034046 0.010340736 -0.24126141 -0.26918024 0.13623789 -0.04508609 0.07500769 0.3919519 -0.006085501 0.3950638 0.35484636 -0.14011458 -0.08293969 0.0866478 0.031218098 0.14587967 0.23561132 -0.17335913 0.41203845 -0.07538364 0.26180533 -0.2549686 -0.38828537 -0.014272445 -0.5139494 -0.49681726 0.112955645 -0.2898492 0.1997793
1639 -0.020290548 0.015724266 -0.09172139 -0.24205166 0.17950718 0.046815973 0.21059626 0.20329833 -0.028886111 -0.016093463 0.17169368 0.015503606 0.08814997 -0.14624323 -0.08714332 0.17918019 0.00868371 0.07589633 -0.10749256 -0.08310457 -0.15725845 0.050128862 -0.039332043 -0.21081991 -0.1779203 -0.08278405 0.06460005 -0.15834959 0.0597367 0.26684612 0.14641538 0.0071484745 -0.12763743 -0.07994994 0.13139506 -0.05079851 -0.1961381 -0.18706301 -0.023929922 0.026376756 -0.12832227 -0.22991875 0.10930179 -0.22465314 0.10765599 -0.0027994073 -0.07039677 -0.06532432 0.059478275 -0.09239183 -0.14868614 0.3162217 0.21513136 0.19938962 -0.121676564 0.14058684 0.068585776 -0.05694487 0.21438387 -0.15467948 -0.19490077 0.05146643 -0.16800751 -0.02349277 0.20851907 0.17203301 -0.014185954 0.07068221 0.18861203 -0.059847392 -0.06671819 0.26726717 -0.03354161 -0.2259674 -0.16215965 0.12986018 0.008125166 0.0224507 0.3264478 0.025671832 0.34710497 0.315973 -0.10654927 0.012422513 0.10852153 0.092816666 0.19588257 0.13646848 -0.14973998 0.36840183 -0.10140666 0.16283692 -0.19037536 -0.3132904 0.01245613 -0.37551913 -0.40002432 0.05781173 -0.22880629 0.18862146
1112 -0.17409827 0.0033382294 -0.29529068 -0.18751009 0.15906271 0.010010075 -0.031907473 0.07429918 -0.19392586 -0.08627151 0.13874547 0.10089731 -0.10512486 -0.0702863 -0.04778265 0.023147343 -0.037740313 0.13588983 -0.092530236 -0.018836053 -0.019304903 -0.07231878 -0.05276374 -0.18629329 -0.2266451 -0.23590542 -0.04770671 0.00457875 0.06539807 0.13750255 0.088059254 -0.051314354 -0.12469283 -0.0023992143 -0.13567816 0.07255666 0.15059265 -0.048858333 -0.03067093 -0.012409933 -0.0038882594 -0.20411085 0.124853134 -0.1325734 -0.0013493125 -0.040165536 -0.12337615 0.055098966 0.2693231 -0.2081304 0.1245363 0.2929359 0.14053567 0.044272818 0.084706046 0.058205653 -0.13874643 -0.11061903 0.10522881 -0.077646144 -0.11440728 0.14196163 -0.28318015 -0.05531013 0.116450384 0.16339408 -0.027118297 -0.03677738 0.17614163 0.03331155 -0.04427339 0.19492097 -0.17725666 -0.18367977 0.018064324 0.18883808 0.065815724 -0.030395832 0.30985335 -0.001026958 0.32386702 0.30642605 0.028135803 0.13070212 0.11787524 0.22870782 0.17021847 -0.008523415 -0.13083896 0.30808643 -0.09681666 0.10283395 -0.029023997 -0.21709973 0.10866599 -0.16994603 -0.17906459 -0.0029264588 -0.14473209 0.23434938
409 -0.083069146 0.15861149 -0.15588927 -0.1836289 0.24482113 0.010162341 0.15666428 0.017253255 -0.17216414 -0.090808615 0.12980708 0.13579315 0.02291097 -0.12926549 0.0739965 0.27678415 -0.012935444 0.12926035 -0.0055907546 0.09176449 -0.058752965 0.10228861 -0.06677424 -0.21733852 -0.24452363 -0.11724523 0.16157295 0.0017747299 0.06653281 0.13686983 0.039239373 0.0028580031 -0.22300364 -0.07985896 0.15945062 0.0012335085 -0.07260387 -0.22061272 -0.11107959 0.12781797 -0.028856935 -0.25097427 -0.052180935 -0.08634034 0.13747464 0.03989959 -0.11159268 0.14793237 0.13370763 0.06152791 0.08739376 0.31956235 0.12440262 -0.0150074 -0.00023044365 0.028321126 -0.09739873 -0.015991867 0.122536354 -0.18364803 -0.044866536 -0.056823492 -0.11060437 -0.050519895 0.055888854 0.2143005 -0.015657675 0.042626455 0.25187334 0.025832554 -0.018757995 -0.013396247 -0.13310099 -0.08501582 0.013042387 0.15179011 0.041662127 0.038129997 0.24861863 -0.08943362 0.31630024 0.14874515 0.09785543 0.019356957 0.04569368 0.17315955 0.003725389 0.027543284 -0.16069339 0.23251003 -0.08893355 0.20308286 0.00815341 -0.21394297 0.11964216 -0.1959134 -0.12618436 0.07846687 -0.16617925 0.16371357
1249 0.030963259 0.139266 -0.024034254 -0.31207317 0.22712065 0.055077028 0.31156582 0.25316548 -0.02481279 0.0676196 0.16000225 -0.026553588 0.1956812 -0.25531608 -0.021634636 0.35288996 0.07962263 0.099611685 -0.1294446 0.008643132 -0.208342 0.16240464 -0.03774936 -0.25048685 -0.23762222 0.003054997 0.15711011 -0.25699604 0.025604608 0.23948549 0.10311578 0.032162692 -0.16204171 -0.14188291 0.33510563 -0.09921597 -0.34542248 -0.33346835 -0.06214395 0.07077898 -0.17869699 -0.34656233 0.06577185 -0.20117925 0.23427148 0.02656147 0.007577717 -0.048299935 -0.051766988 0.0715268 -0.19882293 0.36713827 0.12511599 0.23853968 -0.20792195 0.17702116 0.15937285 0.051473856 0.20406483 -0.3173954 -0.21745819 -0.02453618 -0.01787769 -0.014472796 0.20855975 0.20461859 -0.009059557 0.04695417 0.3003661 -0.13615294 -0.065361254 0.17328916 -0.026924707 -0.25211173 -0.23200534 0.11059032 -0.12066344 0.12649602 0.3884527 -0.033616386 0.37606522 0.23483264 -0.08183548 -0.08400611 0.08430273 0.017421536 0.11952817 0.14931765 -0.2374611 0.3650091 -0.04644184 0.2890007 -0.26815113 -0.30589208 0.040055566 -0.39941072 -0.38787258 0.073465444 -0.21621959 0.1877717
1263 0.05176032 0.058625493 0.019637633 -0.31461778 0.26772764 0.0840594 0.41725063 0.30234143 0.03311253 -0.007871469 0.19358207 0.010575657 0.18067057 -0.21089989 -0.07554552 0.34489885 0.05063107 0.08353554 -0.07498019 -0.066754416 -0.25869358 0.11815269 -0.039102778 -0.25226915 -0.24236818 -0.0029929718 0.18866603 -0.2787521 0.076174416 0.38110295 0.2036034 0.034714017 -0.17573386 -0.13887426 0.35187376 -0.15095693 -0.39617702 -0.29686373 -0.05073768 0.06950315 -0.191701 -0.31461743 0.063717514 -0.2910642 0.19391191 0.059294697 -0.038716197 -0.10967121 -0.07134943 0.04464209 -0.28340596 0.39435443 0.2475616 0.30352432 -0.24675748 0.1898359 0.20133646 0.0012667483 0.27611026 -0.29146808 -0.28364927 -0.0055615134 -0.12784533 -0.004377977 0.28199556 0.22730961 0.023707425 0.17140742 0.22004463 -0.122963674 -0.09554704 0.29115275 0.024830343 -0.2557689 -0.27871576 0.13031211 -0.022688437 0.07409897 0.38815746 0.014243699 0.41067538 0.38688743 -0.16909933 -0.075784825 0.0901595 0.024038421 0.17682406 0.2513857 -0.1678914 0.4310981 -0.09222688 0.24444555 -0.27169755 -0.40916464 -0.022260942 -0.556842 -0.5553348 0.119660065 -0.30130404 0.194883
177 0.023910161 0.08280953 -0.013529881 -0.29539835 0.23828004 0.07714207 0.35945094 0.28358597 -0.0027393638 0.014521527 0.16476907 0.006635978 0.16186608 -0.19405442 -0.06874302 0.30310065 0.061968673 0.08621823 -0.094929665 -0.059860315 -0.23280685 0.09765605 -0.034640662 -0.24163234 -0.23975775 -0.01614948 0.1510977 -0.2514776 0.06421565 0.32846114 0.17306381 0.017246516 -0.16612999 -0.12979816 0.29944688 -0.12992816 -0.33447558 -0.27843273 -0.050308302 0.06174049 -0.17905141 -0.29166168 0.062936686 -0.2658795 0.17969163 0.038128674 -0.0344255 -0.096969455 -0.0447289 0.026483966 -0.23052782 0.37235382 0.21535757 0.270154 -0.21061172 0.1693628 0.17230736 -0.0020448598 0.25156692 -0.27856636 -0.2564347 0.013086775 -0.115640506 -0.011200091 0.24947378 0.2175897 0.010971128 0.119003564 0.22284578 -0.11565539 -0.0812155 0.27093175 -0.0014047555 -0.25123912 -0.2551809 0.122251734 -0.03773438 0.06597205 0.3886112 0.014514463 0.38085377 0.3491145 -0.13359022 -0.05519183 0.08769822 0.02545576 0.16013825 0.21383956 -0.16547514 0.40558523 -0.073214196 0.23999554 -0.2549532 -0.369929 -0.009928383 -0.47921452 -0.48684275 0.10377121 -0.26846793 0.20163397
1052 0.04326082 0.08243397 -0.006642478 -0.2789522 0.23465133 0.063208334 0.35193473 0.22300272 0.0059685726 -0.0072387923 0.18513036 0.008974296 0.1873938 -0.20797065 -0.03931538 0.3468657 0.040391535 0.07508471 -0.096648775 -0.05498797 -0.21162462 0.14737764 -0.037783846 -0.23881878 -0.19736043 -0.018820422 0.19022731 -0.21493915 0.06985811 0.31970647 0.15937093 0.04251557 -0.17187446 -0.13984133 0.31533796 -0.11914135 -0.35224313 -0.3122524 -0.07130196 0.09429983 -0.15890515 -0.2895735 0.0440658 -0.2341396 0.19662188 0.03963976 -0.053651717 -0.044546816 -0.03496713 0.047206983 -0.23946452 0.35996944 0.24081166 0.22980678 -0.18975449 0.1777784 0.13498291 0.010829275 0.25553882 -0.24562289 -0.2132035 -0.04359381 -0.08235246 -0.014566816 0.2247003 0.21665336 -0.010529635 0.1333103 0.2318692 -0.099148124 -0.0757803 0.23098712 -0.011136442 -0.22413026 -0.22125317 0.09413913 -0.0151487095 0.06523007 0.35293972 0.010435052 0.3704704 0.28474435 -0.09821717 -0.057033688 0.08666018 0.039389588 0.16077375 0.19791514 -0.16295546 0.37121576 -0.089797966 0.23316327 -0.21318969 -0.3727319 0.015199562 -0.4592482 -0.44691825 0.103876926 -0.27601033 0.17375284
587 -0.08914404 0.16040811 -0.12505984 -0.21549955 0.24246246 0.035762835 0.18167719 0.12837003 -0.1513002 -0.051133685 0.09414084 0.088878386 0.025124436 -0.120321736 0.033301912 0.22872669 0.033484243 0.12149392 -0.0015569037 0.08011206 -0.09142319 0.03612712 -0.07237605 -0.22149435 -0.30008447 -0.062188905 0.12844585 -0.09588865 0.058628004 0.14646168 0.0800958 -0.0032547691 -0.19093402 -0.06983386 0.19477849 -0.04491357 -0.08756375 -0.17816415 -0.06695824 0.051706024 -0.065246895 -0.2643818 -0.019317633 -0.15031996 0.13316303 0.053739205 -0.047581013 0.04354483 0.068809435 0.06621481 0.022992553 0.33090788 0.08342275 0.09418184 -0.05784723 0.06473791 0.0073704026 -0.018732194 0.12779897 -0.26330832 -0.15348886 0.00026552787 -0.12782694 -0.03555924 0.1259985 0.20617592 -0.0022933998 0.052525334 0.23241293 -0.026441444 -0.047794856 0.08044056 -0.0712526 -0.14664325 -0.054118864 0.18574284 -0.027892312 0.067687236 0.28867385 -0.078457505 0.3366086 0.24047557 0.008963888 0.007829339 0.06360842 0.09511624 0.011740352 0.07653765 -0.15104678 0.29468524 -0.083850145 0.22485967 -0.087630205 -0.18320453 0.053726915 -0.26391792 -0.19288494 0.07542819 -0.18329476 0.18620804
588 -0.11233382 0.09588707 -0.18444438 -0.19571115 0.19808324 0.034349855 0.09643525 0.08905535 -0.15430696 -0.053897314 0.120147415 0.10038583 -0.020209905 -0.10024457 -0.009499886 0.16880809 0.00086748315 0.13181119 -0.049700014 0.027628137 -0.06194782 0.016804578 -0.03570869 -0.18771236 -0.24365403 -0.13440631 0.060387455 -0.04857779 0.05733658 0.14010414 0.077749275 -0.005581853 -0.15476927 -0.05035384 0.05252479 0.016223917 -0.009508895 -0.13225484 -0.07053986 0.056318916 -0.035636604 -0.23663464 0.023326958 -0.1313836 0.0912835 0.006176253 -0.09428482 0.0683486 0.16906072 -0.058142874 0.051264163 0.30865654 0.13886796 0.053334918 -0.014747831 0.05718497 -0.08634029 -0.05040974 0.1123232 -0.16803946 -0.1129318 0.051923726 -0.16992053 -0.029331932 0.09754847 0.17974724 -0.013920236 0.003996086 0.21397977 0.0011944077 -0.02896009 0.0997428 -0.14689814 -0.1452145 -0.028688582 0.15326986 0.023470594 0.012693676 0.29702652 -0.039589953 0.3211329 0.2350925 0.042826787 0.045476295 0.076762125 0.16807805 0.084381394 0.04234888 -0.1587922 0.27786192 -0.091854766 0.16083623 -0.05709564 -0.21538714 0.09372001 -0.20618758 -0.19339325 0.026069706 -0.16199476 0.19953461
1124 0.006280919 0.03992767 -0.03791796 -0.2812124 0.21529603 0.07568176 0.30329427 0.27558124 -0.0046811923 0.007844413 0.15454072 -0.0012999468 0.113495365 -0.17590699 -0.09209261 0.23895116 0.04713441 0.07868388 -0.09587434 -0.06533256 -0.21828665 0.06538083 -0.03654848 -0.2148975 -0.21941414 -0.04226319 0.10239323 -0.235021 0.06265558 0.3186468 0.17306794 0.011755704 -0.13963696 -0.10978206 0.23030327 -0.113524474 -0.26938573 -0.217668 -0.025713209 0.023701869 -0.15526952 -0.25782552 0.09591641 -0.2586214 0.14195251 0.02648322 -0.03630211 -0.09791638 -0.020867066 -0.025320442 -0.19808291 0.35272226 0.20844613 0.26898178 -0.17695738 0.1659105 0.15558991 -0.019129995 0.22843122 -0.23144266 -0.24425596 0.04274855 -0.15207255 -0.010181037 0.24784882 0.18555687 0.017161185 0.11121972 0.20763093 -0.09905929 -0.084633574 0.28222415 -0.0013297979 -0.25064886 -0.22303008 0.12695612 -0.02967766 0.05886366 0.367811 0.028189763 0.36177367 0.36484796 -0.13444404 -0.035496276 0.08925336 0.045471583 0.18548104 0.20423092 -0.1496598 0.40061906 -0.0771934 0.20713955 -0.2452754 -0.34034795 -0.017487181 -0.45625824 -0.46374846 0.088353544 -0.25792956 0.20311281
590 0.052123822 0.11011892 0.026381433 -0.33469835 0.27739823 0.082217574 0.4293822 0.2904356 0.0053600483 0.008295593 0.17237458 -0.009850012 0.19883908 -0.22363745 -0.043743785 0.38901588 0.08792537 0.096992694 -0.07467509 -0.021240894 -0.26192862 0.14788553 -0.03734387 -0.27396372 -0.27523607 0.016546432 0.20508258 -0.29135197 0.06551309 0.340584 0.1808484 0.039458565 -0.19164547 -0.15134203 0.40586677 -0.16224743 -0.41375598 -0.32890365 -0.05884086 0.08094984 -0.19665937 -0.3288984 0.027635574 -0.28270906 0.22175162 0.07147063 -0.017160697 -0.082662605 -0.0849392 0.09071208 -0.26150322 0.40718198 0.21606286 0.29015914 -0.2489743 0.18456829 0.20794399 0.02533744 0.2731736 -0.32709846 -0.2721097 -0.031245578 -0.0751785 -0.013411949 0.26756164 0.23540995 0.021647695 0.15280879 0.26527363 -0.12749194 -0.07225993 0.23750791 0.013200346 -0.24131875 -0.28001025 0.12959604 -0.06420043 0.110830575 0.39752775 -0.011449783 0.39954278 0.3366968 -0.13439146 -0.09836664 0.09314208 0.013581358 0.14364013 0.23643692 -0.19468014 0.41820365 -0.08537588 0.2793543 -0.26624766 -0.38928854 -0.017724557 -0.5274519 -0.51405513 0.116415076 -0.2906589 0.20045583
1654 0.064353295 0.08710786 -0.02076639 -0.2311287 0.2075886 0.061669827 0.26307338 0.14323673 0.019331489 0.014743655 0.2572324 -0.0076931478 0.17046864 -0.20815508 0.0056684464 0.37704578 -0.009911348 0.064123616 -0.12259175 -0.0945273 -0.2063271 0.21010798 -0.03565809 -0.22682953 -0.10262959 -0.05896911 0.19545418 -0.12893346 0.06722465 0.29385328 0.10299271 0.07331973 -0.1712025 -0.1551693 0.33406928 -0.06455931 -0.36731973 -0.334799 -0.10335068 0.1323339 -0.15108132 -0.293538 0.051692374 -0.13356169 0.18629757 -0.021811428 -0.09307802 0.039119005 -0.025063671 0.009354728 -0.23507316 0.33755478 0.22465642 0.16662301 -0.13159133 0.13219996 0.09573557 0.03590142 0.26979676 -0.19443235 -0.14378557 -0.10660514 -0.03732175 -0.008779996 0.1683467 0.18716048 -0.04463495 0.12172918 0.2041671 -0.096025854 -0.059700906 0.18787543 -0.0068414514 -0.20100927 -0.20222336 0.07693435 -0.010309065 0.060697705 0.30627722 -0.010429443 0.33563104 0.198388 -0.045743585 -0.044855632 0.14967862 0.0866083 0.16825278 0.14774553 -0.18276675 0.35081255 -0.080751054 0.19486295 -0.1775136 -0.36484626 0.074384995 -0.38337368 -0.37891933 0.13074087 -0.23960455 0.11786999
1299 -0.10093675 0.16438568 -0.17606546 -0.19654773 0.24424163 0.030606583 0.13202067 0.046442814 -0.21813199 -0.068445496 0.12080944 0.11823727 0.009236636 -0.12687546 0.065523855 0.25573474 0.0070215175 0.14292434 -0.00052550033 0.111589506 -0.03549029 0.06898495 -0.069743454 -0.21734352 -0.2889138 -0.103343725 0.12742126 -0.017764391 0.06796511 0.10068959 0.040117245 -0.008108637 -0.20194215 -0.064001106 0.15166351 0.010860364 -0.03360327 -0.1933423 -0.116698645 0.10681649 -0.019926317 -0.2799876 -0.050264332 -0.100343786 0.13931343 0.048792854 -0.094536915 0.13933451 0.15252505 0.06979689 0.11493989 0.32249233 0.080221534 0.016638177 0.013672591 0.030427441 -0.09547636 -0.0112644695 0.0990566 -0.227485 -0.08087251 -0.032145236 -0.10981843 -0.033351123 0.07422791 0.19274332 -0.021227108 0.005488377 0.25042784 -0.004521231 -0.026397223 0.0036491859 -0.14485094 -0.10276759 0.011383516 0.16989306 0.0038933768 0.055679377 0.27921602 -0.10084298 0.3087236 0.16040884 0.09062902 0.021694306 0.053157147 0.15792489 0.0047034984 0.026526377 -0.17881882 0.24588247 -0.07558456 0.22304119 -0.009748806 -0.21077257 0.13765404 -0.16246179 -0.1100099 0.05574098 -0.151086 0.16852808
594 -0.033192944 0.13850597 -0.088686824 -0.23957768 0.20129363 0.032814246 0.17406225 0.14634377 -0.106294245 0.020601131 0.13014877 0.037848894 0.103958584 -0.18979418 0.010118781 0.27548814 0.046330683 0.099971384 -0.08423584 0.049963076 -0.117549405 0.11668806 -0.036412444 -0.21114816 -0.23523982 -0.067103416 0.11120372 -0.13212042 0.037238594 0.16270804 0.06158226 0.026012894 -0.1643829 -0.08717424 0.19995177 -0.023279505 -0.18694262 -0.25273058 -0.08107665 0.06762658 -0.09752359 -0.29417568 0.040539358 -0.1309462 0.17346697 0.021638665 -0.04005433 0.039430685 0.046708718 0.028044611 -0.030010432 0.32132557 0.102143526 0.113902345 -0.10305618 0.10332798 0.028213179 0.016509445 0.14948726 -0.24775743 -0.11914182 -0.0048263376 -0.05165709 -0.022995852 0.1318798 0.17313361 -0.02394997 -0.0010546821 0.2696524 -0.058693204 -0.050407805 0.09235677 -0.08939599 -0.16848429 -0.10880709 0.11887377 -0.05043761 0.09008172 0.32194942 -0.053793613 0.33373183 0.18448664 0.010689034 -0.019228397 0.07064762 0.09710415 0.073678926 0.07061115 -0.21183157 0.29894006 -0.059300113 0.22522661 -0.11931919 -0.22649598 0.10141551 -0.25464833 -0.22173883 0.03818851 -0.17250405 0.17850699
1128 -0.09842965 0.21347478 -0.17786187 -0.18655741 0.24122857 0.0035726523 0.13076067 0.0021677562 -0.23543315 -0.0843125 0.13469984 0.1499826 0.017946316 -0.14782694 0.094031796 0.28769302 -0.0073649916 0.12910561 -0.0036299953 0.12931962 -0.033370715 0.108721726 -0.054898143 -0.20498466 -0.29532382 -0.09303574 0.15715535 -0.0049368176 0.06842188 0.07515743 0.0055915327 0.02140703 -0.22168048 -0.051839966 0.16484155 0.0072734025 -0.04970607 -0.20702398 -0.11231738 0.12302438 -0.016585851 -0.29613325 -0.08028689 -0.08129595 0.15406737 0.061111305 -0.10185703 0.17581719 0.15355535 0.11100581 0.15651526 0.34611058 0.06937022 -0.036665525 0.020934852 0.006515393 -0.12353993 0.007100362 0.08016548 -0.21543121 -0.027676363 -0.058049686 -0.09345023 -0.034420498 0.041904945 0.20568906 -0.0375589 0.01973911 0.26979783 0.025965495 -0.029353777 -0.047829606 -0.1638545 -0.07940561 0.040102664 0.16025448 0.034020253 0.039422207 0.2747485 -0.11741408 0.31218556 0.12428184 0.13621615 0.004340672 0.033591725 0.17473276 -0.023204697 0.024531541 -0.1720169 0.22749011 -0.10108597 0.21961883 0.026646549 -0.18213849 0.16923395 -0.14756693 -0.08318547 0.077060916 -0.16981594 0.15486494
1658 -0.0024951287 0.047703672 -0.042170066 -0.28112155 0.24083376 0.06324591 0.30239236 0.2264603 -0.012957701 -0.009729726 0.17519699 0.036770456 0.10067733 -0.17268625 -0.06361833 0.2646679 0.027129918 0.10562065 -0.06666063 -0.057359193 -0.19396211 0.059322894 -0.04818666 -0.22573702 -0.21783832 -0.043975893 0.14188355 -0.20995402 0.06683458 0.3046858 0.15376341 0.016659997 -0.1560294 -0.11002185 0.2320197 -0.09683709 -0.26150873 -0.22927165 -0.0445877 0.053735863 -0.13729359 -0.25589058 0.044915907 -0.24478702 0.1478301 0.03325069 -0.056252263 -0.061850477 0.022597311 -0.0008582008 -0.17115173 0.3428476 0.21801119 0.2323061 -0.17726825 0.1348842 0.11638974 -0.02675515 0.22717145 -0.22142018 -0.22338179 0.023646515 -0.14701517 -0.025826871 0.22569048 0.19126204 0.016772464 0.11485204 0.19461162 -0.095906384 -0.0713431 0.24643862 -0.023297088 -0.20720719 -0.19784202 0.12082233 -0.0071537844 0.04315222 0.35018367 0.01654736 0.36492348 0.3350618 -0.11569208 -0.032794375 0.0795394 0.06775298 0.15979782 0.18356436 -0.15927434 0.37374142 -0.09149453 0.19881383 -0.21117134 -0.34745833 -0.0037582624 -0.44016266 -0.4293342 0.09761292 -0.26044875 0.20728807
1659 -0.061488803 0.122848764 -0.12671489 -0.23872177 0.19252811 0.0151608065 0.14131662 0.14945637 -0.12600058 0.018078653 0.11024437 0.03136245 0.06698428 -0.16441038 -0.00012848558 0.2213353 0.03847876 0.10311161 -0.08234021 0.04914511 -0.10926001 0.07312156 -0.045485955 -0.20953432 -0.2377304 -0.07222619 0.08053088 -0.117244355 0.028188333 0.13269342 0.066073634 -0.005161693 -0.17808281 -0.086633585 0.17377481 -0.030052923 -0.1086691 -0.2227094 -0.044432107 0.060039364 -0.08529177 -0.28120342 0.059872057 -0.14740664 0.14549278 0.008889684 -0.030211259 0.033103853 0.07547557 -0.0030498272 -0.00530465 0.3168537 0.075260945 0.10571585 -0.06380715 0.09251779 0.012987182 -0.009541887 0.13178805 -0.23646145 -0.12911005 0.011371254 -0.08261649 -0.016210131 0.15287288 0.18818331 -0.0017379523 -0.015207981 0.26568365 -0.064671814 -0.026801992 0.104495205 -0.0990491 -0.17983066 -0.09086749 0.13895392 -0.08530138 0.08686647 0.3350254 -0.049024086 0.3178451 0.20523526 -0.0002413875 -0.0075644283 0.067869425 0.10314149 0.06855733 0.0591122 -0.20143378 0.302163 -0.05839339 0.23310058 -0.12738852 -0.21521293 0.091564104 -0.22862338 -0.21771994 0.026452864 -0.13384628 0.18045574
597 0.009086283 0.051296923 -0.041287284 -0.24516983 0.21320926 0.06651369 0.30737206 0.1971483 -0.01591211 -0.050857093 0.1801217 0.04592455 0.13512138 -0.15656303 -0.03955503 0.28389245 0.01466182 0.08072931 -0.058569875 -0.06143925 -0.19274698 0.087551266 -0.03838221 -0.21040404 -0.19096251 -0.051207125 0.1514738 -0.16905686 0.07773343 0.30669233 0.16006845 0.021795332 -0.14934741 -0.103608094 0.22726299 -0.08558041 -0.2792915 -0.24836464 -0.04857853 0.07112325 -0.12509651 -0.25789747 0.06479163 -0.21125162 0.14245425 0.031192312 -0.08278518 -0.038726468 0.020177051 0.0067907316 -0.17944364 0.32756627 0.23925334 0.19369848 -0.14781165 0.1394843 0.08968373 -0.025655963 0.23727633 -0.19663355 -0.1939272 0.0015753193 -0.13346714 -0.018319933 0.21161954 0.22089738 -0.002092404 0.14062339 0.18096538 -0.059891507 -0.06348226 0.22528702 -0.020216374 -0.20059063 -0.18110007 0.110021465 0.045156915 0.030573878 0.3260464 0.009904362 0.36998898 0.30721676 -0.08175876 -0.015188519 0.092085786 0.07253397 0.17348254 0.19260807 -0.13600563 0.33933482 -0.097364046 0.19079928 -0.17381968 -0.3555347 0.017500851 -0.4327177 -0.43299928 0.10634673 -0.28381324 0.16412848
1662 -0.028704675 0.1549516 -0.065266915 -0.254367 0.2621102 0.050163645 0.25100952 0.1852024 -0.13357668 -0.0066139293 0.1048383 0.053159732 0.09696326 -0.18201223 0.013718986 0.3123402 0.064879015 0.11501694 -0.024179542 0.06776155 -0.14239618 0.10771917 -0.05225165 -0.22728057 -0.30332863 -0.029024122 0.15939446 -0.16291988 0.054200675 0.18887064 0.07446626 0.013886412 -0.1900614 -0.07832132 0.27928373 -0.066681124 -0.19915661 -0.23420952 -0.07172543 0.0786978 -0.104674034 -0.28809932 -0.013809376 -0.16653475 0.17548205 0.077368885 -0.029383404 0.027235625 0.020812705 0.108620055 -0.025077939 0.3516361 0.10330399 0.13719521 -0.11439069 0.083730295 0.05810481 0.019982135 0.15385064 -0.29354832 -0.16050972 -0.022068627 -0.074724376 -0.02349192 0.15292157 0.1945801 0.0059420792 0.04516994 0.27095613 -0.06570615 -0.04223497 0.08678374 -0.073333204 -0.16082498 -0.11559017 0.16439135 -0.056353297 0.093179606 0.33473507 -0.06654032 0.33210546 0.22083695 -0.018027375 -0.053229667 0.058122523 0.06887299 0.029411146 0.12002707 -0.19113179 0.32302594 -0.06745061 0.25352308 -0.13024518 -0.23630694 0.06618614 -0.31212807 -0.24598032 0.07378919 -0.17662603 0.17749459
267 -0.0077810204 0.11708627 -0.05954561 -0.25004125 0.22761092 0.04674533 0.25292206 0.1794526 -0.07730938 -0.0074255485 0.15138113 0.03851908 0.118186995 -0.17624933 -0.014667248 0.29549643 0.048481002 0.09012543 -0.07181227 0.012151613 -0.15266907 0.099618286 -0.03764068 -0.22190143 -0.23192273 -0.04696173 0.13321559 -0.1627651 0.04992459 0.23154661 0.10886947 0.026320996 -0.18061739 -0.09086654 0.2364478 -0.068576686 -0.2229788 -0.2438942 -0.06457168 0.073073715 -0.11379569 -0.28136835 0.02062913 -0.18004161 0.15532261 0.034444623 -0.05126361 0.004938658 0.019951615 0.051926326 -0.0885513 0.34394836 0.14538111 0.15897031 -0.12257156 0.11179811 0.061072316 0.011790264 0.1807861 -0.25343263 -0.17433526 -0.015374476 -0.087419175 -0.0069637666 0.17291299 0.19280383 -0.005405662 0.07514861 0.23746085 -0.07386127 -0.061839733 0.1504953 -0.04489703 -0.18419324 -0.13037495 0.12745722 -0.021067534 0.05825956 0.3227741 -0.039668083 0.33933026 0.23870751 -0.03686477 -0.041154828 0.07797178 0.08226143 0.09049727 0.12216977 -0.16616112 0.33870485 -0.08178012 0.22559845 -0.1565018 -0.2834206 0.059279103 -0.3385841 -0.32025614 0.08870339 -0.21834232 0.17971396
1666 0.0384651 0.098408215 -0.0013810656 -0.3110043 0.2575045 0.07085309 0.36276677 0.2660546 -0.0026723424 0.022839861 0.17112838 0.004727065 0.17225213 -0.22708751 -0.04582841 0.34965694 0.06524894 0.096766815 -0.08413766 -0.025257105 -0.22832122 0.1258543 -0.04798891 -0.25480804 -0.24683268 -0.0039890525 0.17590441 -0.26532382 0.058369625 0.3251114 0.15617327 0.024428237 -0.1845406 -0.1443754 0.34457096 -0.1300336 -0.3549269 -0.30486786 -0.059909184 0.07694194 -0.18203843 -0.31697083 0.048171975 -0.2547968 0.19730723 0.04725142 -0.02369674 -0.07805553 -0.053004354 0.06563104 -0.22881906 0.38097805 0.20341808 0.26330176 -0.22367154 0.17627607 0.17748006 0.020671714 0.24586798 -0.30022362 -0.25242868 -0.012815861 -0.07951844 -0.013515227 0.24460718 0.21829772 0.010496504 0.119073674 0.2538062 -0.12583366 -0.07820242 0.24302958 -0.013252374 -0.25012997 -0.25671458 0.12689278 -0.055164285 0.08568938 0.3863231 -0.007938263 0.3923473 0.3305363 -0.12876418 -0.07010691 0.08282508 0.032789577 0.14045952 0.20579176 -0.18746018 0.4064366 -0.07360423 0.2639324 -0.26121873 -0.36193836 0.0008208551 -0.4870247 -0.47407314 0.10840887 -0.26861203 0.19555722
1671 -0.064399935 0.11397113 -0.118385985 -0.20734584 0.21792367 0.044540264 0.16683106 0.123277195 -0.13569927 -0.041485723 0.13485268 0.0792377 0.023994721 -0.12677291 0.020894753 0.23340493 -0.00012063911 0.12056601 -0.018863792 0.056888036 -0.085805684 0.060418878 -0.06204964 -0.19781189 -0.24929784 -0.085024 0.115307815 -0.07064125 0.06656781 0.15455204 0.07142864 0.008299149 -0.1801681 -0.06504258 0.14628601 0.0020155634 -0.09205545 -0.17847309 -0.07221883 0.05129037 -0.05447846 -0.25769442 0.009269858 -0.1275545 0.12273913 0.021324072 -0.07264779 0.04993783 0.1074811 0.01653724 0.028713783 0.31887618 0.11471952 0.0689845 -0.046232887 0.05272248 -0.046905838 -0.01775774 0.14557254 -0.20156349 -0.117955126 0.010136021 -0.14789395 -0.015709983 0.10751973 0.19137655 -0.020529397 0.026012948 0.21764533 -0.0010363196 -0.03224643 0.07783018 -0.09656312 -0.14937635 -0.05515241 0.15053247 0.014031711 0.036691952 0.2949797 -0.045048323 0.32566187 0.21788535 0.025755059 0.006056826 0.066458285 0.12854315 0.07586971 0.062035635 -0.15318884 0.2786561 -0.07891061 0.18277426 -0.07954821 -0.23799558 0.09038922 -0.2696321 -0.22984868 0.07108287 -0.18259509 0.16379909
1672 0.031350642 0.09222754 0.0074795466 -0.31006965 0.26603568 0.08740351 0.38372493 0.278326 0.00081644265 0.007559788 0.1643291 0.0076202536 0.17188053 -0.21144037 -0.056523986 0.33593982 0.06761308 0.097644284 -0.08533128 -0.034850728 -0.2411456 0.1127343 -0.046032157 -0.25359 -0.2541149 -0.007799836 0.17605112 -0.27207932 0.06017158 0.33054304 0.176064 0.031051327 -0.16591908 -0.13431036 0.33696693 -0.14099596 -0.35936978 -0.28864726 -0.050556947 0.06704055 -0.19006799 -0.31051353 0.04415099 -0.25826687 0.18965852 0.050383024 -0.020013856 -0.09290137 -0.05352931 0.052740976 -0.24078356 0.37746197 0.21462522 0.26663494 -0.22393507 0.17867889 0.17817304 0.010746255 0.2519827 -0.29919857 -0.26474175 -0.0021030314 -0.10620489 -0.0076759094 0.2466307 0.22070034 0.020908223 0.12980719 0.24253394 -0.121345036 -0.08050584 0.24550551 -0.0026408923 -0.24345852 -0.26303655 0.13191764 -0.05237814 0.07987451 0.3861141 0.005583229 0.39005286 0.34004173 -0.13413186 -0.06633665 0.08970284 0.011562536 0.14989616 0.21791278 -0.1717502 0.4096927 -0.077274926 0.24898277 -0.25353432 -0.3728006 -0.01770394 -0.50050694 -0.49175307 0.11514163 -0.2844861 0.19784024
1141 -0.04464363 0.15411673 -0.09212824 -0.24256516 0.22969024 0.052815538 0.21829215 0.122964114 -0.12693651 -0.018706622 0.1232773 0.062673695 0.076276906 -0.15379965 0.01903494 0.269744 0.037265975 0.11845143 -0.046298634 0.07743902 -0.10843334 0.103471264 -0.05831833 -0.22366585 -0.2819363 -0.050443277 0.1433142 -0.116486885 0.05285586 0.1548194 0.07205041 0.016461875 -0.20008123 -0.093425125 0.23073876 -0.03710784 -0.15299757 -0.22558047 -0.0873159 0.09530796 -0.088640966 -0.27202633 -0.015672382 -0.14527506 0.16322176 0.04824087 -0.055325013 0.05725113 0.04940708 0.07801637 0.0029906062 0.34100682 0.104062475 0.10253236 -0.09881575 0.07552456 0.028268246 0.022016635 0.13746707 -0.26751205 -0.13794468 -0.019560888 -0.07604587 -0.026203733 0.12706813 0.20764397 -0.013460767 0.027988777 0.26137844 -0.04344117 -0.019934213 0.070000194 -0.09418195 -0.13846327 -0.08930985 0.14507495 -0.03729977 0.06484218 0.29843184 -0.0734568 0.3301931 0.2066016 0.020616379 -0.033372115 0.05193187 0.09685458 0.024132222 0.08504559 -0.17874858 0.28637594 -0.07214964 0.24875228 -0.098080285 -0.2350316 0.065242246 -0.266894 -0.22303015 0.06946225 -0.17867577 0.17704558
1143 -0.020097524 0.08069564 -0.06142297 -0.23528585 0.22623183 0.06101908 0.26200625 0.17515087 -0.04107904 -0.036839645 0.15971848 0.051440272 0.09642595 -0.15340942 -0.015155236 0.2758975 0.03200517 0.09629993 -0.057595666 -0.021871453 -0.15695117 0.09491875 -0.03767722 -0.20671953 -0.22011507 -0.067608066 0.13997944 -0.15426034 0.07758076 0.25472984 0.12369109 0.015186525 -0.15304576 -0.0931942 0.20972525 -0.06861462 -0.22654167 -0.21496183 -0.0628913 0.065866575 -0.1032318 -0.2610927 0.021438997 -0.18710119 0.13357796 0.038164586 -0.075039595 -0.01581701 0.028230442 0.025125066 -0.11366123 0.3476758 0.19714598 0.15882427 -0.12955731 0.109064534 0.061685488 -0.009417689 0.19177091 -0.2149411 -0.17956817 -0.007694976 -0.12627493 -0.014178273 0.18093091 0.19728523 -0.004833516 0.10440696 0.19849892 -0.05887354 -0.05321242 0.17286478 -0.032199215 -0.17924975 -0.14450613 0.13171045 0.014455404 0.052608307 0.31615448 -0.010212733 0.34529686 0.2898998 -0.053801235 -0.016733898 0.08305524 0.07388615 0.13041082 0.15510565 -0.14152543 0.32866335 -0.08853003 0.1908573 -0.14158311 -0.2989811 0.027946096 -0.36335233 -0.3515077 0.08598575 -0.2308464 0.18798952
1419 0.004555838 0.1002372 0.00262889 -0.3021166 0.2578979 0.087709785 0.36399624 0.27140883 -0.0274353 -0.0010733623 0.13705368 0.032224387 0.13589102 -0.18470475 -0.047283355 0.303366 0.07197767 0.09867427 -0.042079408 -0.018142965 -0.23090237 0.0830657 -0.05721598 -0.24026793 -0.27893403 -0.009986824 0.15979458 -0.24345942 0.06556254 0.30237958 0.16724944 0.010881605 -0.17384009 -0.13134712 0.32560262 -0.13100801 -0.2918588 -0.2451695 -0.04006833 0.06595952 -0.1627242 -0.27273098 0.0046633193 -0.26425675 0.1715135 0.07198829 -0.034921106 -0.07157913 -0.054901283 0.08314509 -0.18300617 0.36090758 0.18854152 0.2574205 -0.1982888 0.15944472 0.17581868 0.002221098 0.22683449 -0.3118397 -0.26699153 0.011383985 -0.11353121 -0.02283599 0.23408112 0.20788975 0.038380075 0.12391882 0.22508667 -0.112217605 -0.072360806 0.22442167 -0.0117509365 -0.2079258 -0.22992918 0.14765468 -0.056654524 0.086859174 0.367269 -0.008817974 0.3714223 0.3525637 -0.11654783 -0.06117895 0.06191804 0.02642811 0.104161315 0.21663593 -0.15873578 0.3944341 -0.08027469 0.26109195 -0.21747555 -0.33363223 -0.025081437 -0.46955594 -0.43814686 0.11164695 -0.26115653 0.20450585
1678 0.0162517 0.13153808 -0.0038157103 -0.279179 0.25530884 0.08066649 0.34875903 0.2324907 -0.050016288 -0.0076704007 0.14341113 0.044705156 0.1450073 -0.19022363 -0.02488946 0.3372822 0.059471216 0.09506575 -0.032976862 0.019967703 -0.19853616 0.11418949 -0.04548702 -0.24013004 -0.27665186 0.004499942 0.19692138 -0.21271536 0.06579649 0.27243108 0.13504596 0.036303215 -0.19042592 -0.10856247 0.3352421 -0.10478427 -0.31239814 -0.28239262 -0.0765779 0.06918099 -0.14179318 -0.30365023 -0.006348623 -0.22225687 0.18370469 0.062230058 -0.029172746 -0.02753827 -0.026906144 0.10396229 -0.14837447 0.3756194 0.17109604 0.20793189 -0.1793676 0.13865812 0.11620044 0.024308788 0.20837767 -0.3054355 -0.20428273 -0.02761778 -0.088841744 -0.008094628 0.21134812 0.21218324 0.006751082 0.12115534 0.25589177 -0.09722921 -0.071374394 0.16418336 -0.027815616 -0.19877289 -0.19487473 0.14183043 -0.039969567 0.08755288 0.3594818 -0.041701052 0.3656759 0.2965424 -0.07747125 -0.078415535 0.069676414 0.03555951 0.08499796 0.19267178 -0.17883736 0.3644224 -0.07680795 0.2536952 -0.18720268 -0.32835612 0.016321857 -0.4287637 -0.3971357 0.1155418 -0.2548564 0.17121314
608 -0.11070016 0.17980681 -0.17535484 -0.22004265 0.24112855 0.02885638 0.12160036 0.043140136 -0.23251425 -0.08357706 0.10572364 0.13495837 -0.013591276 -0.122022524 0.07499792 0.25232255 0.012413725 0.15008396 0.012792772 0.13144273 -0.0426938 0.06663812 -0.08225151 -0.20368679 -0.31091753 -0.11509109 0.11142731 -0.020130333 0.057239685 0.08315875 0.024300693 -0.011964519 -0.22004326 -0.036343735 0.14456972 0.0079925945 -0.01860007 -0.17835332 -0.08795926 0.08641932 -0.010955443 -0.27449754 -0.052902903 -0.112433836 0.13071641 0.051631242 -0.086499006 0.12839507 0.14884388 0.084137686 0.14937127 0.3470991 0.045537766 0.0056188926 0.008893159 0.013399454 -0.09163866 0.0014290413 0.08986013 -0.24835226 -0.07013845 -0.021252975 -0.120167226 -0.027006097 0.061245274 0.20494035 -0.020396534 0.005853313 0.2691987 0.004960459 -0.014679415 -0.018768596 -0.1414216 -0.11927986 0.032720428 0.19515382 -0.00041934155 0.064415574 0.28727114 -0.097216524 0.30759472 0.16497356 0.106938 0.015590663 0.052985653 0.16053471 -0.0192001 0.029418625 -0.18152562 0.25113943 -0.07001887 0.23075192 0.0012074918 -0.16631933 0.120745875 -0.17026332 -0.095893264 0.055881616 -0.13804212 0.17532499
610 -0.08451136 0.14721866 -0.15236218 -0.19737749 0.2151896 0.01717296 0.1368499 0.047201123 -0.17685266 -0.05469901 0.11604409 0.08889784 0.01887077 -0.14324887 0.032587178 0.25375685 0.0044198497 0.11214528 -0.031675056 0.057838038 -0.06382884 0.076047316 -0.06442311 -0.20827174 -0.24191965 -0.120450586 0.11447932 -0.052023217 0.06032338 0.107421026 0.04300922 0.0014283909 -0.1837538 -0.050059497 0.13655289 0.0041690837 -0.059010692 -0.19877923 -0.089194655 0.07839334 -0.02689352 -0.2627571 -0.002068043 -0.106321335 0.14415143 0.02469265 -0.095045805 0.10820964 0.14298283 0.014593666 0.0966011 0.32332635 0.09603504 0.033586636 0.006586773 0.051562976 -0.0513336 -0.016029876 0.114314154 -0.18297781 -0.07166579 -0.01497268 -0.11803631 -0.02789927 0.07226189 0.18611601 -0.03160987 0.0026568228 0.24603695 0.010959706 -0.008888249 0.05417968 -0.13027501 -0.13346255 -0.018541776 0.14660305 0.012406198 0.049100846 0.28533217 -0.08147128 0.29539493 0.1644688 0.07358804 0.008417434 0.07083244 0.14218396 0.047031682 0.042278044 -0.17444557 0.26240975 -0.064849935 0.19769144 -0.035786152 -0.20786549 0.10914126 -0.19466941 -0.15668435 0.05114418 -0.16975546 0.16405074
1146 -0.067114964 0.19168423 -0.12382803 -0.21626939 0.24902204 0.026980922 0.15940264 0.083981395 -0.19189283 -0.01604369 0.11410824 0.08621921 0.044605456 -0.16431342 0.06674548 0.30115685 0.0352519 0.13325651 -0.020556297 0.12801267 -0.06697817 0.12700014 -0.06591816 -0.22359751 -0.28989932 -0.06435671 0.16457379 -0.076146774 0.046447907 0.104215644 0.024790972 0.016910221 -0.21588635 -0.09208201 0.22871329 -0.017672874 -0.10330926 -0.23299357 -0.112130046 0.11022102 -0.057013348 -0.3005684 -0.052222688 -0.10251664 0.18467024 0.049695905 -0.05521837 0.112998866 0.09463274 0.10517033 0.06489374 0.33835799 0.06093956 0.04486793 -0.046080995 0.046294454 -0.047109064 0.025897563 0.114239275 -0.27272853 -0.08368187 -0.04492104 -0.044686608 -0.038712382 0.07107482 0.20300236 -0.018959036 -0.002878933 0.28959355 -0.04026529 -0.016022429 -0.003099666 -0.11908905 -0.11087424 -0.03944732 0.15336941 -0.045473717 0.10611315 0.29042524 -0.10841607 0.30837107 0.14568433 0.08127628 -0.014246933 0.051304016 0.11299788 -0.015581395 0.032293126 -0.2154107 0.2500435 -0.06251032 0.25284794 -0.053862203 -0.18442689 0.13105403 -0.18916059 -0.12580292 0.059634354 -0.15469226 0.17123054
2126 0.045553844 0.09746529 0.006404071 -0.31787547 0.2667865 0.07722795 0.3877483 0.27732792 0.005337457 0.012301279 0.17086539 0.0029670843 0.18481039 -0.20795904 -0.049066126 0.35466138 0.06323647 0.08677914 -0.0857901 -0.03193553 -0.23613945 0.133957 -0.04510763 -0.25446373 -0.24374725 -0.0042983526 0.18501104 -0.25966895 0.069028415 0.32892108 0.17073861 0.03686832 -0.17431912 -0.14064915 0.34308642 -0.13194898 -0.3758499 -0.3087108 -0.06765113 0.081316836 -0.17513026 -0.3177511 0.038088135 -0.2653888 0.19751094 0.054629967 -0.028203372 -0.06878548 -0.050779168 0.063494615 -0.23498634 0.3786405 0.21577571 0.27254084 -0.22384477 0.17215344 0.1757668 0.0068326667 0.25042215 -0.29658544 -0.24734846 -0.0119871665 -0.096981704 -0.004663164 0.24301115 0.22874837 0.016955093 0.13412832 0.24381562 -0.11553531 -0.07953039 0.23705423 0.003089223 -0.23270181 -0.25845188 0.12534867 -0.045092188 0.082495816 0.37653118 -0.0053583137 0.39003763 0.33556926 -0.121242985 -0.07670316 0.089838736 0.031246562 0.153939 0.216966 -0.17863007 0.40369084 -0.08112791 0.25867516 -0.2468648 -0.3823487 0.0035012509 -0.49747252 -0.4898502 0.117874 -0.28049392 0.19281675
53 -0.093196414 0.14681529 -0.18767303 -0.20829003 0.19935684 0.004664082 0.08105363 0.058254343 -0.18441704 -0.02914821 0.13835624 0.08466655 0.014109987 -0.16027151 0.040630285 0.23718987 -0.0004191083 0.1330645 -0.06753834 0.07431002 -0.039513014 0.09310522 -0.04873544 -0.20423493 -0.23958626 -0.13263655 0.088917375 -0.032815903 0.049454477 0.08766539 0.0200741 -0.003238642 -0.17871627 -0.04973868 0.10378219 0.030103412 -0.03528793 -0.20960627 -0.08500742 0.076134644 -0.03770253 -0.2937478 0.029553132 -0.076529995 0.14247546 0.0035812373 -0.07366492 0.11791916 0.14922108 -0.0014190362 0.08344246 0.32471707 0.06992308 0.02604272 -0.0073007103 0.05635397 -0.0892916 -0.011309881 0.10503338 -0.20160124 -0.073909886 -0.004214702 -0.0947266 -0.027549783 0.079986565 0.17539868 -0.039262697 -0.043351676 0.2652422 -0.0128004365 -0.021580828 0.0335091 -0.14942685 -0.1443765 -0.0035682346 0.13503186 -0.021163959 0.060581233 0.30362314 -0.07228415 0.3166429 0.13216369 0.09479899 0.023396574 0.08300628 0.16463517 0.050632156 0.0020385536 -0.21033426 0.25184804 -0.0781637 0.2062131 -0.058333963 -0.1819443 0.14371957 -0.15185383 -0.12017919 0.020048093 -0.13848676 0.17006642
1151 -0.014983238 0.02824582 -0.05634489 -0.28762707 0.21643323 0.06740342 0.28289014 0.28236175 -0.010700137 0.0013606639 0.15793121 0.013833882 0.099965714 -0.178906 -0.08278877 0.22642426 0.055729415 0.091034316 -0.09159359 -0.06328017 -0.21258567 0.036817435 -0.031120125 -0.2165955 -0.2280826 -0.047651496 0.08427688 -0.23673572 0.06118492 0.3075655 0.17443073 0.009358272 -0.14021261 -0.09705463 0.2090423 -0.11056386 -0.245241 -0.19488454 -0.018389093 0.025840158 -0.15314004 -0.25624838 0.1002579 -0.25435337 0.12359654 0.024012176 -0.04733709 -0.120062105 -0.007505661 -0.034185648 -0.18678717 0.32860923 0.21026559 0.25814915 -0.1687143 0.16924953 0.14582922 -0.027154151 0.21916814 -0.23644097 -0.26515028 0.06488155 -0.1536592 -0.025556145 0.24259856 0.19513837 0.018482598 0.09607982 0.18717448 -0.09689741 -0.081455596 0.29177696 -0.020399764 -0.24738556 -0.21721321 0.13578391 -0.027291609 0.050934184 0.37425375 0.026820742 0.36896226 0.3756719 -0.1324791 -0.016436277 0.084521614 0.05213694 0.19134237 0.19210345 -0.15248877 0.40199322 -0.0796964 0.20322186 -0.23533179 -0.3485902 -0.02198588 -0.45759088 -0.46048754 0.07424987 -0.2552598 0.21913819
1686 -0.0051073087 0.12189758 -0.05488174 -0.26571572 0.21067236 0.04821938 0.2674472 0.1723706 -0.048959 0.006247964 0.1525761 0.04106219 0.13379866 -0.19341925 -0.008368303 0.3126312 0.030189792 0.10307715 -0.075160414 0.009659614 -0.15632534 0.13092771 -0.028174743 -0.21318263 -0.20859686 -0.04541295 0.1524085 -0.1651865 0.058597058 0.23789693 0.10157494 0.024083342 -0.17718595 -0.11391937 0.2551776 -0.06130042 -0.24994862 -0.2759706 -0.084915675 0.09293478 -0.11440952 -0.29054117 0.028682042 -0.17531893 0.18282916 0.030886553 -0.045296416 0.006318619 0.019210964 0.045714162 -0.121050924 0.3451563 0.16477147 0.15753274 -0.13281341 0.12317718 0.062269583 0.0074598924 0.17812568 -0.24019241 -0.15375867 -0.032265685 -0.05725642 -0.014375966 0.16519658 0.19722605 -0.008953342 0.064556755 0.24122977 -0.06583146 -0.052176382 0.14972222 -0.054813758 -0.19031373 -0.1666422 0.11174695 -0.04603387 0.08382724 0.32502648 -0.027282266 0.3447668 0.2311432 -0.031720348 -0.043527044 0.07717106 0.071400836 0.102428876 0.13365524 -0.18465392 0.31245974 -0.08161938 0.2257442 -0.16270472 -0.29371434 0.058869842 -0.36119696 -0.32492957 0.06403552 -0.21595892 0.17156401
1734 -0.13720047 0.09888384 -0.2346855 -0.15927571 0.18866955 0.0036497584 0.007752412 0.015189368 -0.2303473 -0.07403082 0.15287624 0.13516285 -0.050185684 -0.11654047 0.03417526 0.16362439 -0.029687583 0.13311921 -0.060354643 0.05856262 -0.0071934117 0.022191547 -0.058134954 -0.19432713 -0.23406978 -0.18798047 0.042698864 0.03336214 0.05789752 0.08449613 0.044296682 -0.015175598 -0.17865998 -0.03270447 -0.012837025 0.064004555 0.06793847 -0.13561481 -0.072664574 0.058152266 0.0030703333 -0.26528457 0.029136652 -0.083409406 0.08483231 -0.0073872698 -0.12888348 0.1369584 0.23688072 -0.075038105 0.15153314 0.31406388 0.09631298 -0.026490318 0.06514776 0.010266822 -0.15734681 -0.05407896 0.10226905 -0.12928797 -0.045127336 0.031896207 -0.18180679 -0.03939476 0.066358134 0.17434905 -0.033552323 -0.028101671 0.22813982 0.029406503 -0.028897401 0.054801576 -0.17139351 -0.12908156 0.051385086 0.16601594 0.049729064 -0.007058271 0.2922474 -0.06911901 0.3368437 0.17808318 0.0936027 0.086747445 0.09468496 0.21641973 0.07337235 -0.01943832 -0.1726663 0.26643172 -0.10542182 0.15447403 0.0017077369 -0.19354342 0.15782064 -0.1278827 -0.10084168 0.046349388 -0.14729542 0.1685885
1155 0.0043463693 0.05703716 -0.04411365 -0.26391265 0.2131224 0.073573805 0.27460888 0.22282735 -0.023262896 0.007215796 0.1470862 0.017533515 0.11768135 -0.17556123 -0.063148856 0.2535258 0.045382064 0.0948365 -0.08422351 -0.03054178 -0.18339719 0.07468808 -0.045218807 -0.21632764 -0.22693124 -0.03504227 0.12326472 -0.20159903 0.055531196 0.26704776 0.1418215 0.016845044 -0.1541204 -0.09846876 0.22574623 -0.079193994 -0.24272993 -0.22292173 -0.04662845 0.049382284 -0.14466509 -0.2756765 0.06102335 -0.22777504 0.14188874 0.030609861 -0.039164804 -0.0536059 -0.001434446 0.0010452097 -0.14536452 0.34265503 0.17905526 0.21015263 -0.15920177 0.1390042 0.110417396 -0.0077964836 0.19978389 -0.23962113 -0.21074952 0.01932891 -0.124556184 -0.015016849 0.20824076 0.19070725 0.0068935063 0.09049246 0.22103888 -0.090333 -0.07940033 0.21566524 -0.025062636 -0.2157817 -0.1979486 0.1304837 -0.035251297 0.059349842 0.34888843 0.0052387957 0.3540818 0.3137497 -0.09626686 -0.028110355 0.08855424 0.05558671 0.1425328 0.16055897 -0.15562022 0.3550213 -0.07628962 0.21107319 -0.19882268 -0.31017524 0.016095456 -0.3923326 -0.3947335 0.08320307 -0.2195473 0.18304431
616 0.038634945 0.055323258 0.0019043826 -0.28681704 0.23440614 0.07037444 0.36493856 0.26406977 0.023338074 -0.0012844529 0.19720331 -0.0007042674 0.17598669 -0.19800647 -0.06674973 0.32292685 0.039658763 0.0773772 -0.10467172 -0.090967044 -0.24338976 0.10746363 -0.035686545 -0.23358105 -0.19094488 -0.031351674 0.16948277 -0.23880965 0.07288895 0.35584864 0.18163294 0.029432839 -0.15422496 -0.13238488 0.28929174 -0.122226335 -0.3658982 -0.2948711 -0.053470172 0.0727675 -0.17269169 -0.29205742 0.08265461 -0.25441083 0.16953842 0.03509513 -0.04905089 -0.09042573 -0.02760426 0.0022996454 -0.26047096 0.36487758 0.24880633 0.2689756 -0.20913707 0.18489498 0.17005047 -0.01549102 0.2681306 -0.23405188 -0.23543374 -0.0060929237 -0.113233544 -0.010409798 0.26038736 0.21512339 0.005451807 0.1484527 0.21755612 -0.10641614 -0.08647597 0.27892065 0.0018784299 -0.24783586 -0.25764212 0.09803905 -0.012507074 0.056708883 0.37657377 0.027467506 0.39531896 0.34339932 -0.14464651 -0.04191753 0.10483139 0.03893352 0.19658044 0.22438906 -0.15846564 0.39964163 -0.098087125 0.22107758 -0.2542334 -0.39202324 2.397377e-06 -0.5012604 -0.51081324 0.10453701 -0.29637724 0.18995629
1690 -0.1068223 0.15260166 -0.16413616 -0.20766996 0.24319856 0.04852992 0.13388173 0.0727141 -0.2103823 -0.048369262 0.10399069 0.119471066 -0.022192439 -0.12419517 0.04530022 0.2308282 0.010939208 0.12934147 0.007114956 0.116812795 -0.052987885 0.062066868 -0.060258772 -0.2160443 -0.30846536 -0.09564811 0.11940435 -0.046142947 0.054007094 0.09337482 0.038119934 -0.0007480313 -0.20960361 -0.05398523 0.15769228 0.018166712 -0.015187416 -0.16344635 -0.08580678 0.08062954 -0.025706312 -0.2791236 -0.030731635 -0.107984215 0.119137086 0.045353714 -0.074253246 0.11974906 0.13860878 0.065333225 0.13556522 0.32453918 0.06158427 0.032780595 -0.015507261 0.024623346 -0.07814298 -0.008886549 0.10301166 -0.24111693 -0.07808059 -0.0046112323 -0.12963293 -0.03101815 0.08012389 0.1897325 -0.023871511 0.0047676815 0.26534495 0.005225174 -0.022870623 0.012339448 -0.14673811 -0.11031369 0.008941034 0.19987245 -0.026727429 0.054756787 0.284157 -0.09059792 0.3150104 0.18951678 0.0800389 0.017905092 0.033796705 0.13271919 -0.0030335737 0.03041915 -0.17727906 0.2844372 -0.077050745 0.22032793 -0.026036324 -0.18026215 0.12913065 -0.17069717 -0.11087763 0.053976934 -0.14706333 0.1853986
1691 9.535541e-05 0.11004473 -0.045454275 -0.28701922 0.22890988 0.05821417 0.288053 0.21448721 -0.049367815 0.009406859 0.14479624 0.027164709 0.11250734 -0.181156 -0.018803652 0.29054627 0.057198893 0.10094861 -0.06850108 0.009287344 -0.17620414 0.11002564 -0.04110064 -0.22729743 -0.24442174 -0.027684975 0.15204369 -0.20297843 0.05187402 0.2554269 0.12577727 0.028576782 -0.1684606 -0.1044567 0.2657466 -0.08717108 -0.25542587 -0.25036255 -0.058961373 0.05886067 -0.1317864 -0.29141107 0.024332186 -0.21031797 0.16949409 0.050792374 -0.033645518 -0.026591199 -0.0022144327 0.040425844 -0.14007021 0.3505328 0.15216301 0.1992007 -0.16122596 0.13122727 0.100561656 0.008528498 0.19426216 -0.2763457 -0.19664472 0.00040393881 -0.08625665 -0.0113142505 0.19636951 0.19799933 0.004213568 0.08419031 0.24851973 -0.091418765 -0.054559633 0.17676847 -0.03724036 -0.20278525 -0.1813448 0.1279794 -0.0562124 0.07927226 0.34388274 -0.029809874 0.35706255 0.26914495 -0.059664696 -0.054242447 0.06956063 0.05455572 0.101942234 0.155871 -0.18064515 0.34925643 -0.074655496 0.23655944 -0.19302726 -0.3066392 0.024667216 -0.39135405 -0.34969437 0.077294685 -0.21823327 0.18706168
1693 -0.099708535 0.09822929 -0.15862806 -0.18859419 0.22616951 0.015339794 0.14246716 0.05685387 -0.14746596 -0.08465495 0.12392506 0.12293627 0.00025949717 -0.10957957 0.021696553 0.20196803 -0.01553591 0.123950034 -0.02021236 0.037816424 -0.06049743 0.028835086 -0.042822044 -0.20415577 -0.23639898 -0.13724355 0.10145813 -0.03772834 0.059372887 0.1736754 0.09194008 -0.012177951 -0.18584448 -0.067993045 0.08429576 -0.0023931006 -0.051074065 -0.1572886 -0.07530366 0.09356186 -0.039208345 -0.22349818 -0.01319369 -0.14188771 0.10245589 0.031206183 -0.11586652 0.08654525 0.15771824 -0.0136388475 0.056095526 0.28607392 0.16164048 0.026120113 0.004648071 0.065634646 -0.0610047 -0.061387137 0.1260085 -0.16122843 -0.10678298 -5.3723412e-05 -0.16874133 -0.045980517 0.10234626 0.20986144 0.0070252614 0.059469543 0.20695722 0.007831147 -0.02659739 0.10216307 -0.12999749 -0.11023552 -0.024225216 0.14377438 0.06287889 0.005432765 0.25934386 -0.05269454 0.30434757 0.24388133 0.030490782 0.04314984 0.0712484 0.16983606 0.08285499 0.07052761 -0.14215167 0.27088785 -0.090233535 0.18021312 -0.0045537413 -0.25439155 0.08807333 -0.22561237 -0.18033586 0.063308105 -0.18689364 0.19046977
620 -0.04133239 -0.0122418795 -0.1370372 -0.22831951 0.15717067 0.03683573 0.13140228 0.18773587 -0.04825354 -0.0004270925 0.17386846 0.006503102 0.035434417 -0.14240049 -0.076440826 0.14557026 0.0024462712 0.07640772 -0.12753128 -0.0845949 -0.12214548 0.010910236 -0.024777055 -0.18656005 -0.16162695 -0.121159814 0.016890898 -0.12968463 0.055647213 0.23691088 0.12473892 -0.012848921 -0.101510555 -0.06083805 0.034248006 -0.022489494 -0.114784315 -0.14849703 -0.007283686 -0.005033436 -0.09335976 -0.2399505 0.13972194 -0.1891068 0.07082892 -0.028584387 -0.07181437 -0.037316848 0.10805131 -0.14349908 -0.09578143 0.28348377 0.19357657 0.16618359 -0.070063815 0.13382334 0.029424053 -0.06217224 0.18526481 -0.11099721 -0.17241473 0.07641696 -0.1798052 -0.022591956 0.18545981 0.15841441 -0.02126078 0.027255004 0.17550172 -0.051248766 -0.07758717 0.25017062 -0.06087195 -0.22758593 -0.13500127 0.110981435 0.028040234 0.0006483192 0.32965642 0.044171117 0.33765507 0.29746076 -0.07231709 0.045713454 0.12227055 0.11293346 0.21941532 0.09618526 -0.14706662 0.33653685 -0.06921098 0.13543753 -0.17190951 -0.29337937 0.058466364 -0.31140712 -0.3376939 0.040132474 -0.20213217 0.18480141
1483 -0.02998636 0.0765075 -0.0817028 -0.2403328 0.22617231 0.055765517 0.24918956 0.18861584 -0.07212983 -0.02032782 0.12302142 0.036616515 0.080652036 -0.15910432 -0.033361915 0.24179447 0.046619073 0.111822926 -0.057148315 -0.0055319145 -0.15446874 0.063592926 -0.04577355 -0.20767595 -0.2474282 -0.0634205 0.1104607 -0.16107087 0.055265997 0.23950899 0.11478157 0.01678432 -0.17244211 -0.09170662 0.20596184 -0.061642498 -0.18478255 -0.20971787 -0.04958992 0.062419374 -0.10345863 -0.25271165 0.037867263 -0.21066025 0.1402047 0.03227053 -0.057927076 -0.011003166 0.0449231 0.024107287 -0.07412486 0.34072247 0.16037512 0.16644791 -0.113483 0.11899688 0.07467117 -0.0067193797 0.1742657 -0.23305315 -0.17236611 0.009984586 -0.13314217 -0.0126877045 0.17627314 0.19053733 0.016293664 0.07826433 0.21004036 -0.0665022 -0.06101956 0.18211451 -0.048157893 -0.1870005 -0.12568791 0.14069664 -0.006456204 0.05307017 0.33649632 -0.02327269 0.3376818 0.2902986 -0.055190615 -0.02655143 0.06773171 0.086941734 0.10440411 0.14017174 -0.14629862 0.33036357 -0.080941185 0.2202976 -0.14835888 -0.29152417 0.022249699 -0.33749065 -0.3262068 0.08963278 -0.21351974 0.19262336
622 -0.02254642 0.088907115 -0.10749012 -0.22907719 0.2036832 0.046868887 0.19588517 0.15241641 -0.105587594 -0.014493485 0.13438575 0.04302402 0.07247475 -0.14581294 -0.015801214 0.23562962 0.03147457 0.10847699 -0.06487467 0.004065443 -0.11301655 0.05782883 -0.040395264 -0.19824633 -0.23072697 -0.0769734 0.110318184 -0.12402827 0.050572302 0.19443475 0.08882345 0.011770158 -0.1749673 -0.0717018 0.16003317 -0.036288813 -0.14077082 -0.19921535 -0.07028415 0.06411116 -0.089949384 -0.26601884 0.043988835 -0.16259255 0.12811233 0.027063007 -0.06318405 0.025566854 0.0793415 -0.003763115 -0.04411742 0.30476338 0.13532196 0.12704691 -0.07411347 0.08964558 0.013404281 -0.013091943 0.15015212 -0.20190163 -0.15525222 0.010198268 -0.11968843 -0.016040534 0.15117136 0.17947882 -0.016804455 0.04491174 0.21511598 -0.041584432 -0.05719625 0.14845286 -0.075077355 -0.1878936 -0.0970014 0.13783282 -0.0014432856 0.050767846 0.3183534 -0.017947132 0.32359743 0.24745578 -0.02630874 -0.008755645 0.07844067 0.10324918 0.091084465 0.10447756 -0.15133694 0.31489325 -0.06684465 0.19825208 -0.117757104 -0.2659065 0.06021512 -0.2950735 -0.27929118 0.0676208 -0.1992164 0.16830572
1566 -0.0126991775 0.08925306 -0.079087175 -0.2194359 0.2361079 0.045184873 0.23450276 0.14337958 -0.07078093 -0.04831521 0.1489397 0.03905987 0.09678586 -0.16783403 -0.009868396 0.27904302 0.027382648 0.1004063 -0.061335247 -0.020108536 -0.11628446 0.103744745 -0.025492635 -0.20889825 -0.20126566 -0.071085714 0.14253356 -0.1453415 0.07123433 0.23019922 0.099503644 0.021237317 -0.17190385 -0.093960576 0.19669944 -0.053625442 -0.20792219 -0.24138571 -0.085260294 0.08429385 -0.09635645 -0.25741467 0.042131774 -0.1672133 0.16362557 0.02970505 -0.07502938 0.021966372 0.07333832 0.0037879802 -0.08989057 0.3303074 0.17972173 0.13402432 -0.08510734 0.115512945 0.038619418 -0.002576817 0.1830256 -0.18207914 -0.13887845 -0.022389576 -0.09484554 -0.024192715 0.15676428 0.18252116 -0.0055488097 0.0715138 0.22301099 -0.04634399 -0.048759364 0.15258557 -0.0767895 -0.16158557 -0.11330393 0.107554555 0.007387256 0.04031211 0.30316296 -0.021896435 0.30549067 0.21641426 -0.02021227 -0.012290931 0.07469809 0.1137102 0.1261287 0.1415509 -0.14925466 0.30279472 -0.07563769 0.18562691 -0.12183439 -0.29984275 0.056229156 -0.31534228 -0.30417466 0.073203936 -0.21716623 0.17046458
625 0.014070762 0.05603649 -0.022599723 -0.2748708 0.22432165 0.05943149 0.31445566 0.2314437 -0.0035346593 -0.006625004 0.18318607 0.014008686 0.14502314 -0.17897087 -0.05091784 0.29971573 0.039096143 0.088872075 -0.086872235 -0.04837417 -0.1937152 0.10991615 -0.037478987 -0.22892319 -0.2063231 -0.03775936 0.16101323 -0.21141368 0.07094964 0.30720705 0.15671901 0.03055296 -0.16146493 -0.11309288 0.2661276 -0.107942805 -0.30266172 -0.26238218 -0.054510444 0.06672594 -0.15726201 -0.2858811 0.059727 -0.21980733 0.15472655 0.040319066 -0.05022805 -0.06051175 -0.014795576 0.012140513 -0.20495282 0.35044566 0.21420556 0.22724095 -0.17419852 0.155667 0.121659406 -0.0034455515 0.23718177 -0.23293675 -0.21762358 0.0002588379 -0.111031786 -0.009982611 0.2172561 0.21015263 0.0028450089 0.119128376 0.21468827 -0.08277623 -0.06821638 0.23412439 -0.01576331 -0.2222726 -0.21013096 0.117307596 -0.004459022 0.056951057 0.35112265 0.004214528 0.36451772 0.31811318 -0.10993417 -0.0440776 0.097442545 0.052556388 0.15474255 0.19100088 -0.16500677 0.37815553 -0.09001743 0.21451773 -0.21134654 -0.352632 0.017002609 -0.43880776 -0.44302502 0.107262164 -0.2549613 0.1718868
441 0.035292864 0.07207754 0.0046922253 -0.31243724 0.2477305 0.077220775 0.3698397 0.29270414 0.015062932 0.018089514 0.1777627 0.0004133217 0.17247032 -0.20003842 -0.06770969 0.32047787 0.06755383 0.08167091 -0.087330446 -0.044035323 -0.23969041 0.108041406 -0.038189042 -0.24639642 -0.24278879 -0.0021140862 0.16640608 -0.26006442 0.065693006 0.33183205 0.16972096 0.03201129 -0.15896446 -0.13214533 0.3286889 -0.14248498 -0.35313013 -0.27953026 -0.039409265 0.060094427 -0.19009885 -0.299338 0.058627974 -0.26638457 0.1815699 0.048990097 -0.024286387 -0.101621844 -0.05675795 0.04379684 -0.24390437 0.37283313 0.21331686 0.2825054 -0.23305036 0.1724109 0.18482697 0.010168781 0.24269378 -0.28221178 -0.265807 -0.0030225874 -0.09764168 -0.016059019 0.25088018 0.2191564 0.020057444 0.13415633 0.22530213 -0.118197896 -0.08417444 0.26490557 0.012593716 -0.24505797 -0.25792915 0.12685135 -0.042131234 0.07731993 0.3889753 0.009018406 0.38407007 0.3486122 -0.14014208 -0.07495606 0.0916523 0.023505915 0.1510445 0.22928709 -0.16772568 0.41246387 -0.08004425 0.25353074 -0.2703017 -0.3716849 -0.015531191 -0.4998571 -0.49780005 0.105289385 -0.28169143 0.19864723
627 -0.0059702503 0.12978788 -0.021505766 -0.29431102 0.26751575 0.067082494 0.35015514 0.24146122 -0.04985028 -0.006885611 0.12943213 0.047396943 0.12765376 -0.19489455 -0.023653353 0.33529657 0.072890624 0.10722854 -0.035862416 0.015683591 -0.20345053 0.11450782 -0.049501456 -0.24688362 -0.28285947 -0.0020421708 0.17312622 -0.21983619 0.05199572 0.26798004 0.14093153 0.017799573 -0.1960962 -0.12268977 0.33453715 -0.114510715 -0.2974383 -0.2645757 -0.056208685 0.076072946 -0.14639363 -0.29454607 -0.011579051 -0.23106891 0.18987995 0.076832555 -0.03318782 -0.036924865 -0.037346583 0.107124336 -0.14635871 0.36569643 0.15995753 0.22164482 -0.17721513 0.14269692 0.1351815 0.020554326 0.20299646 -0.3107075 -0.22994117 -0.019199211 -0.09244547 -0.012215359 0.20968762 0.21714015 0.021979656 0.10683168 0.25149024 -0.10194742 -0.060327362 0.17104882 -0.016028084 -0.19479634 -0.19953202 0.15303922 -0.06351085 0.08832779 0.36018628 -0.041726425 0.35391328 0.29209745 -0.072097346 -0.07174075 0.06564074 0.040320728 0.079843245 0.18973404 -0.17353243 0.36259666 -0.07543546 0.26558104 -0.20063303 -0.31151366 0.0064975633 -0.4190452 -0.3834556 0.094650224 -0.23957995 0.19836305
1730 0.05289995 0.083286166 0.010221349 -0.30855623 0.26240072 0.07781562 0.39965832 0.2832401 0.010217051 0.009982019 0.178784 -0.0022303548 0.18677633 -0.21087036 -0.05747556 0.35815206 0.06720593 0.09053212 -0.084481806 -0.04610082 -0.25191274 0.123358846 -0.04135498 -0.24479598 -0.24535747 -0.001526287 0.18387704 -0.26939216 0.06584006 0.35778064 0.17289566 0.029009242 -0.17762902 -0.14364873 0.34946352 -0.14794035 -0.38764307 -0.3044418 -0.054311935 0.069833696 -0.19134013 -0.31151256 0.04669777 -0.2753332 0.19492403 0.051873717 -0.027570004 -0.0839129 -0.06410497 0.06743661 -0.25944686 0.38906696 0.22277336 0.27650586 -0.23794428 0.18150574 0.19508556 0.015112673 0.26209766 -0.29458323 -0.2535483 -0.015662372 -0.09747962 -0.012610916 0.26943186 0.21979539 0.013355419 0.14181429 0.24750409 -0.12269262 -0.08697951 0.26589575 0.0067437855 -0.2470404 -0.2601043 0.11523532 -0.033439074 0.08024728 0.38569725 0.009750817 0.39673302 0.34799984 -0.14441873 -0.07905959 0.09584886 0.024643362 0.16640638 0.2305839 -0.17059499 0.41402203 -0.084881425 0.2593711 -0.2618472 -0.3855533 -0.0018860996 -0.5087632 -0.5045506 0.11747757 -0.29189402 0.19097497
1527 -0.07921126 0.1567423 -0.13620214 -0.17279296 0.23465191 0.006822452 0.1549561 -0.011289494 -0.16279107 -0.12581919 0.1543747 0.13174379 0.03934821 -0.120573 0.07913804 0.2804431 -0.02445498 0.120830536 -0.016583323 0.040898267 -0.040620696 0.10850368 -0.04151781 -0.20727561 -0.20364371 -0.12817052 0.1778028 0.0009743329 0.08426305 0.15322548 0.057560436 0.021093387 -0.21099734 -0.08550564 0.12259909 0.013188544 -0.08093906 -0.22438452 -0.1122063 0.14581737 -0.009679818 -0.2370337 -0.03767916 -0.08301106 0.1385711 0.029916102 -0.14956251 0.15619016 0.16937575 0.037393086 0.067879096 0.32144734 0.1598559 -0.01395982 0.024529725 0.042755418 -0.11294915 -0.015491732 0.14427237 -0.14143261 -0.037054874 -0.07920028 -0.121326834 -0.05788207 0.049645305 0.2294856 -0.023737686 0.052800506 0.22667597 0.04826648 -0.01868989 0.0010964937 -0.13987547 -0.067275584 0.010757439 0.10918655 0.09763333 0.018016731 0.2374314 -0.06970283 0.3079161 0.14473876 0.109398805 0.0353995 0.057665233 0.17546558 0.056540716 0.05528707 -0.14363028 0.2173367 -0.10570109 0.18861862 0.028142283 -0.25324517 0.13906284 -0.21158716 -0.14246678 0.0787917 -0.19323748 0.16718757
235 -0.1451861 0.1302621 -0.17348665 -0.22541524 0.23277321 0.042195372 0.13425551 0.10971665 -0.1856501 -0.04919494 0.07175992 0.13420506 -0.06014159 -0.08287746 0.02023399 0.16303822 0.04148496 0.15297893 0.0043349126 0.075266175 -0.07148747 -0.022274645 -0.07204745 -0.21029302 -0.3340273 -0.12284264 0.06655267 -0.075502284 0.040445242 0.12922311 0.083570056 -0.031795207 -0.19905026 -0.058613755 0.121077515 -0.043117132 0.04171529 -0.10751204 -0.05331408 0.05381659 -0.040875196 -0.21589424 -0.0424653 -0.16245177 0.09520708 0.045381155 -0.08170705 0.04316906 0.13905214 0.009170023 0.11830351 0.30480006 0.08415179 0.05867781 -0.02190142 0.05509456 -0.027895926 -0.040190082 0.094445914 -0.24585092 -0.14661057 0.06415765 -0.1699825 -0.04373385 0.11297723 0.18835104 0.0324217 -0.008608679 0.23552722 -0.020255523 0.0021459777 0.10514415 -0.14400305 -0.12971307 -0.02610594 0.21145718 -0.044590976 0.040617853 0.30612132 -0.06725601 0.29329604 0.28604653 0.028313376 0.045672387 0.041512556 0.14090165 0.014512173 0.049511604 -0.16271058 0.29963055 -0.061144136 0.23784564 -0.04810344 -0.19162689 0.05701025 -0.2012321 -0.15322624 0.043670297 -0.14384712 0.25939536
475 0.030707978 0.0821135 -0.0053885486 -0.29145822 0.24550441 0.07682574 0.35534486 0.2687287 -0.006808915 0.0074281134 0.16288331 0.004237383 0.16359267 -0.20150647 -0.063697875 0.31723762 0.057280693 0.092178345 -0.084183335 -0.041652337 -0.22356823 0.10128466 -0.032669824 -0.24635437 -0.23835965 -0.011250113 0.16060942 -0.25170302 0.06630699 0.31515342 0.16148071 0.021392968 -0.16408302 -0.1276476 0.3113581 -0.11880584 -0.32723746 -0.26813704 -0.04345082 0.06249923 -0.1618626 -0.297063 0.054371316 -0.24728674 0.18069422 0.045024186 -0.027330814 -0.084641494 -0.037470628 0.046160955 -0.21389304 0.3678724 0.20115668 0.26548216 -0.20719837 0.16997696 0.16960905 0.0037676531 0.23646636 -0.28263777 -0.24995396 0.008860474 -0.10844738 -0.0069578043 0.24474218 0.20958668 0.013581842 0.12590545 0.23546383 -0.116353914 -0.07426592 0.24717844 -0.009668172 -0.23301557 -0.24101628 0.12859957 -0.038041443 0.07896065 0.37762105 -0.001303916 0.3714622 0.3336783 -0.12582783 -0.057209805 0.08242258 0.034083698 0.14689091 0.21419285 -0.16086441 0.40071657 -0.077039324 0.2381602 -0.24634257 -0.36099932 -0.0021767665 -0.47051966 -0.46627036 0.11027004 -0.2641836 0.2013028
1537 0.02241395 0.11121321 -0.0073587094 -0.29538685 0.25516826 0.07106078 0.3637692 0.24112694 -0.010299123 0.001388857 0.1548008 0.0140752345 0.17185624 -0.20187968 -0.041432023 0.35395336 0.0689955 0.09368631 -0.078967065 -0.02416947 -0.22080006 0.13748556 -0.037692428 -0.23858647 -0.25481173 -0.0074358797 0.18460202 -0.24921352 0.06437442 0.3040004 0.1457399 0.02663006 -0.17891143 -0.14104556 0.34415913 -0.13025732 -0.35241348 -0.30342835 -0.06234313 0.08407357 -0.17129721 -0.31011912 0.02557341 -0.24151208 0.19938564 0.06433831 -0.02197334 -0.048627477 -0.04359217 0.084999375 -0.19692104 0.3791353 0.20064737 0.25107926 -0.20215756 0.16447426 0.1552597 0.02346872 0.23420686 -0.29372868 -0.2252891 -0.03318968 -0.07070032 -0.011534141 0.23370247 0.2157199 0.013380967 0.1200808 0.24482578 -0.1033072 -0.06028234 0.20339513 -0.019921618 -0.21953389 -0.22680363 0.11711299 -0.056554962 0.09022852 0.3735616 -0.011922049 0.3757894 0.29869762 -0.09547054 -0.07912718 0.07210256 0.038333695 0.12876847 0.19854842 -0.18652746 0.3782815 -0.076092735 0.2501562 -0.22622108 -0.35068816 0.006820431 -0.45558095 -0.4370728 0.10505794 -0.26086876 0.18606897
1634 0.04755179 0.060962897 0.010942677 -0.29520866 0.23739028 0.08442943 0.3780938 0.27282244 0.040933438 -0.002280718 0.19573927 0.00878168 0.18327124 -0.19791847 -0.06175107 0.34317634 0.054735865 0.08378929 -0.0916782 -0.07157931 -0.24662544 0.12041517 -0.03449936 -0.23643965 -0.21147975 -0.012571855 0.18030742 -0.2607752 0.073886715 0.36715502 0.17899512 0.037748322 -0.16246457 -0.13992508 0.31961814 -0.13757046 -0.3898963 -0.29525173 -0.049823247 0.081324354 -0.18310039 -0.28977254 0.062215522 -0.2651299 0.18994011 0.033888668 -0.03939779 -0.103448674 -0.05187928 0.035142843 -0.28283358 0.3720968 0.2525133 0.27975792 -0.22878507 0.19086981 0.17595759 0.00018420232 0.27501112 -0.2691423 -0.25237465 -0.023460263 -0.10420377 -0.01893639 0.25380892 0.21352567 0.0062025567 0.15420142 0.22380225 -0.11802912 -0.09025108 0.28129533 0.018961234 -0.2466612 -0.27057403 0.112125576 -0.010479325 0.062777475 0.37378478 0.028704485 0.38805482 0.34911922 -0.1403468 -0.06641646 0.10263731 0.03453321 0.1854081 0.23359431 -0.16094646 0.39687517 -0.09311422 0.23514502 -0.26375762 -0.40585876 -0.01042966 -0.53215015 -0.52787507 0.11164619 -0.29907772 0.18804191
1946 0.046847954 0.06428055 0.0002740487 -0.29391626 0.2410727 0.069844715 0.3658018 0.2539738 0.011464072 -0.0004850017 0.19137813 0.008997916 0.17630535 -0.20617378 -0.05476401 0.33042374 0.04754216 0.085699566 -0.09216149 -0.072981365 -0.22966686 0.12023442 -0.03897323 -0.23477712 -0.20005427 -0.022666944 0.17485148 -0.23833641 0.07076952 0.3432852 0.18149935 0.037228104 -0.16834162 -0.13686761 0.30673134 -0.122428685 -0.35984254 -0.29501805 -0.060600616 0.07757757 -0.16538756 -0.28720748 0.058624953 -0.25067496 0.17726968 0.043797217 -0.040648468 -0.079635054 -0.042423982 0.023607025 -0.25011864 0.37504232 0.23424506 0.25681394 -0.20306535 0.18251243 0.16047792 -0.0069466983 0.26419446 -0.25408074 -0.23966414 -0.012548342 -0.11135568 -0.0048461007 0.24613124 0.21650627 0.015582212 0.14038011 0.21910167 -0.10566703 -0.07218418 0.26447275 0.0036153663 -0.2360358 -0.2429612 0.11429955 -0.016201537 0.054621425 0.360742 0.010047913 0.39094085 0.33870366 -0.12544374 -0.05812355 0.100563005 0.042674303 0.17201647 0.22193985 -0.15839773 0.39865085 -0.094683975 0.22334552 -0.23854461 -0.3911592 3.5647325e-05 -0.48941833 -0.486732 0.116210096 -0.28422406 0.19186382
1819 -0.08263728 0.06817353 -0.16855614 -0.20017016 0.1830751 0.011422748 0.08760597 0.083321676 -0.123916306 -0.051716294 0.15633479 0.076506674 0.010036503 -0.11996924 6.3852596e-05 0.18716565 -0.018847598 0.10663406 -0.07063147 0.0058962237 -0.06782505 0.0504225 -0.0450127 -0.18804657 -0.19449088 -0.13653322 0.07205201 -0.044755746 0.063410856 0.15765972 0.080141775 -0.0031214904 -0.1455652 -0.052984644 0.055678155 0.01712989 -0.05399396 -0.16486128 -0.062413566 0.06101079 -0.045400944 -0.2423142 0.05680141 -0.12235503 0.10017182 -0.013829501 -0.103755645 0.05771632 0.14759167 -0.064181104 0.021538192 0.29491255 0.14718507 0.05551194 -0.015123021 0.07286094 -0.064794935 -0.042615738 0.14207937 -0.13999069 -0.10541594 0.030836597 -0.1480207 -0.034499172 0.110614724 0.17140563 -0.025417926 0.01412075 0.20731577 -0.00049229653 -0.038951002 0.12087024 -0.121869 -0.14773603 -0.03231407 0.12459141 0.036116872 0.010258068 0.28979298 -0.028343279 0.31626645 0.21859346 0.03397601 0.044061907 0.08855392 0.1618581 0.11848708 0.047336053 -0.15723544 0.27848855 -0.09034394 0.16082506 -0.06285843 -0.2394206 0.10350952 -0.22063646 -0.20346148 0.03916393 -0.17166865 0.17513353
87 -0.13203032 0.14982247 -0.19175906 -0.20015207 0.206331 -0.0002718017 0.08716079 0.03045671 -0.19868004 -0.068102844 0.120666936 0.12191788 -0.009789246 -0.121694915 0.059853796 0.22190721 -0.013756353 0.14648817 -0.04262056 0.079259135 -0.04404236 0.064107314 -0.0533395 -0.19858213 -0.25344053 -0.14864144 0.092380695 -0.018138409 0.046586223 0.1051341 0.04398342 -0.010601189 -0.19905624 -0.066028 0.08232401 0.014577728 -0.006761353 -0.17959632 -0.098295905 0.097242005 -0.024832837 -0.25254107 -0.0048952196 -0.084864266 0.12850928 -0.00020701406 -0.106393024 0.12821814 0.17576344 -0.010166007 0.10650768 0.31419262 0.111735776 0.0034769592 0.03038439 0.05601837 -0.10342283 -0.01694858 0.094456844 -0.19576167 -0.062304024 0.004944718 -0.1206185 -0.05304084 0.06428038 0.19268657 -0.015993522 -0.010849205 0.25788411 0.013807908 -0.0212427 0.036506545 -0.17529736 -0.11556443 0.011470399 0.14935325 0.018367087 0.0396972 0.28074795 -0.071805716 0.3116413 0.17275847 0.10339683 0.041541975 0.05711378 0.18586984 0.04163209 0.013022263 -0.18556531 0.24495946 -0.09073087 0.21988115 -0.018145837 -0.19562262 0.12424224 -0.15894054 -0.10230733 0.030314947 -0.14385197 0.19794324
2071 0.069157384 0.056745045 0.013097418 -0.30094543 0.24295306 0.080950335 0.3918554 0.26936185 0.041180156 0.016382977 0.21378443 -0.016564807 0.2138477 -0.2202153 -0.059914913 0.35756484 0.046964843 0.07654814 -0.10403088 -0.09948687 -0.24956517 0.13538009 -0.022420086 -0.25209346 -0.19123562 -0.014025965 0.18891409 -0.26370046 0.07464423 0.37222266 0.18933108 0.046619974 -0.15635177 -0.15404992 0.33600748 -0.13395666 -0.4245348 -0.32728893 -0.07207742 0.08318692 -0.1994631 -0.30370185 0.076861784 -0.26217824 0.18608934 0.03400766 -0.043439757 -0.08938801 -0.049561527 0.023381285 -0.3025347 0.37459868 0.27117792 0.2775905 -0.22509547 0.18806039 0.174867 0.0009463667 0.29043028 -0.24271914 -0.24817556 -0.02335028 -0.088279 -0.005623141 0.26479128 0.22007604 -0.006518343 0.14796752 0.22295594 -0.109010056 -0.08969977 0.28268322 0.012787473 -0.2581967 -0.28545007 0.08942204 -0.010487588 0.07295765 0.37735566 0.032610998 0.39683408 0.33226508 -0.14355437 -0.06503156 0.11008761 0.034990646 0.21239391 0.23830497 -0.16477701 0.41868404 -0.078220055 0.23307665 -0.26615298 -0.42958668 -0.004274549 -0.5227314 -0.53084224 0.11351835 -0.3001858 0.19294073
744 0.051658608 0.06928237 0.026398161 -0.31082413 0.2604524 0.093705654 0.41765887 0.2885589 0.034290563 -0.0071347365 0.20592596 0.002196971 0.19613054 -0.20638154 -0.060962074 0.37106228 0.053868376 0.084191374 -0.09169729 -0.06962784 -0.2600422 0.14003725 -0.03682316 -0.25762486 -0.22783484 -0.0002364556 0.2016543 -0.26361263 0.085918725 0.38117325 0.1965623 0.036541365 -0.18048632 -0.15221912 0.35418946 -0.15186892 -0.4121469 -0.30901593 -0.064084046 0.09073083 -0.19889133 -0.3088407 0.05746328 -0.27116454 0.20320688 0.057023745 -0.05389725 -0.08662241 -0.06073472 0.05026161 -0.28404915 0.39189833 0.2646292 0.29407045 -0.23607792 0.18471138 0.19038044 0.0015328263 0.2803718 -0.28479505 -0.26855004 -0.02058627 -0.10097185 -0.0076631177 0.26257172 0.2335265 0.01214705 0.1667628 0.22789836 -0.118186705 -0.09091081 0.2807561 0.016663516 -0.24207143 -0.27915004 0.11157473 -0.007572925 0.06750239 0.39074025 0.023708256 0.4117683 0.36281097 -0.14802344 -0.069974095 0.106696285 0.028939696 0.17981666 0.24780098 -0.15930186 0.41370863 -0.093953915 0.24667217 -0.2675985 -0.42708397 -0.013352826 -0.5522704 -0.53915 0.12614805 -0.30379108 0.19160558
1600 0.022121629 0.109338395 -0.01395075 -0.2876034 0.25492117 0.077692986 0.34031814 0.25383028 -0.024480756 0.016280076 0.1616311 0.006628698 0.16112967 -0.19563262 -0.036581315 0.32850844 0.072624266 0.09469322 -0.07073373 -0.0164864 -0.20659898 0.12478575 -0.03857635 -0.24323116 -0.25581592 -0.009357594 0.1724915 -0.23649482 0.06108647 0.28752914 0.13584141 0.034544222 -0.18008895 -0.12964316 0.32683152 -0.11718487 -0.3192633 -0.28666514 -0.05800506 0.068849884 -0.15823628 -0.30770323 0.041448098 -0.23082711 0.19370441 0.05196766 -0.025676247 -0.045373734 -0.04685029 0.07060508 -0.18696536 0.3698269 0.18156311 0.2429664 -0.194423 0.1537866 0.15637912 0.023939934 0.22431819 -0.2955041 -0.22615956 -0.007629794 -0.07616389 -0.015995203 0.22784118 0.2123548 0.020523902 0.107824616 0.23684184 -0.10409861 -0.068617284 0.20117384 -0.01352041 -0.20656647 -0.2196895 0.12371694 -0.059580762 0.09518317 0.35427085 -0.015113338 0.36889872 0.29760784 -0.10364608 -0.069896705 0.07815749 0.029449882 0.119427264 0.19659069 -0.17142054 0.3866264 -0.07079187 0.25966862 -0.22689654 -0.3265491 0.014683769 -0.43795556 -0.4240645 0.10157959 -0.24015273 0.19066116
1821 -0.014773415 0.06932024 -0.047196444 -0.29549432 0.23445529 0.083186135 0.29704347 0.2601836 -0.02731555 -0.011867495 0.14811936 0.027037332 0.10014715 -0.16190176 -0.050747033 0.25923288 0.053710155 0.09595443 -0.06515008 -0.033881243 -0.20227778 0.050242767 -0.047393616 -0.22138603 -0.25362575 -0.037060607 0.1192938 -0.22438477 0.05718474 0.28813142 0.17811966 0.017932624 -0.146669 -0.105256304 0.23956677 -0.10099827 -0.24883328 -0.21181196 -0.040708687 0.044075254 -0.15149765 -0.26433697 0.04500776 -0.2394192 0.13691899 0.040142108 -0.05434041 -0.09222382 -0.010789338 0.014270753 -0.16169652 0.33796924 0.20073242 0.23265958 -0.17968543 0.14905919 0.12921004 -0.00895528 0.21364923 -0.25736913 -0.2448166 0.037341043 -0.14958051 -0.014781978 0.21532865 0.20698461 0.013611052 0.103037775 0.21238686 -0.08307172 -0.08384998 0.24786869 -0.023128556 -0.2315727 -0.20756172 0.14718479 -0.025349401 0.050579187 0.3546962 0.01094597 0.38187215 0.36418316 -0.10674494 -0.04914679 0.07095575 0.04579229 0.14780466 0.17553656 -0.16878715 0.3763932 -0.0837769 0.22792946 -0.21539953 -0.32347804 -0.012189103 -0.45031223 -0.4267659 0.08140307 -0.2557641 0.21606539
1918 -0.039682593 0.17005952 -0.07956931 -0.2622325 0.27230886 0.0370779 0.26217896 0.15851557 -0.14723557 -0.008418363 0.094064444 0.04887343 0.10589527 -0.19704936 0.01603847 0.32194808 0.08093867 0.111304566 -0.036638852 0.07505463 -0.12882474 0.12203508 -0.06318776 -0.22692934 -0.32314548 -0.03123188 0.15634829 -0.16970389 0.04037655 0.17048003 0.058380768 0.021073332 -0.20785287 -0.074528374 0.28882605 -0.072451755 -0.18277887 -0.24789292 -0.078301795 0.10373011 -0.10153972 -0.29507342 -0.041239716 -0.18722299 0.20478462 0.0808253 -0.027463378 0.053505212 0.026697325 0.14729442 0.0033520814 0.3476552 0.07366008 0.13752557 -0.10751512 0.08332743 0.07274677 0.046087548 0.14516853 -0.307464 -0.16608486 -0.048255686 -0.035306226 -0.014200537 0.13909046 0.18622223 0.01885064 0.03705436 0.28497717 -0.077808596 -0.03819107 0.07590928 -0.074003324 -0.15523021 -0.09968723 0.15427434 -0.09542871 0.112790115 0.33512136 -0.09644621 0.31005326 0.2047439 0.00038169706 -0.06521012 0.039460313 0.066478774 -0.0018526693 0.11705966 -0.1941196 0.3224658 -0.05565588 0.28813487 -0.11759718 -0.23252758 0.07526079 -0.26535633 -0.21680535 0.07547935 -0.17061862 0.18907583
647 0.022888321 0.034446396 -0.015763395 -0.301865 0.2207331 0.06982384 0.33479014 0.30399406 0.027088383 0.032967415 0.19583733 -0.014924349 0.16077267 -0.19018161 -0.08676243 0.28599623 0.053018425 0.08220843 -0.12397834 -0.09405907 -0.25729927 0.08807195 -0.034889743 -0.2344922 -0.20864351 -0.032387562 0.12937336 -0.25018314 0.052401874 0.3396971 0.2026437 0.027396614 -0.13299586 -0.13028395 0.26575166 -0.13434562 -0.33203813 -0.25054044 -0.035240635 0.046632092 -0.18481375 -0.2742518 0.10323781 -0.2672637 0.17211615 0.0062033883 -0.03732183 -0.11372817 -0.04143604 -0.02488315 -0.2675499 0.35997137 0.24252619 0.2932487 -0.21703184 0.18768232 0.17804709 -0.012003055 0.24592544 -0.25527793 -0.26874885 0.03244157 -0.12620758 -0.012874445 0.2539103 0.19995517 0.021063533 0.10919809 0.20541213 -0.11322997 -0.0960798 0.31454512 0.00966081 -0.27247474 -0.26705778 0.11482481 -0.032384254 0.06575159 0.39294738 0.038824048 0.3977464 0.38339743 -0.15517537 -0.04705322 0.10008115 0.037295442 0.19945395 0.20449786 -0.1725722 0.41170418 -0.07894122 0.23192397 -0.2807135 -0.3747156 -0.020607797 -0.48985815 -0.5176407 0.09117642 -0.273787 0.19542818
583 0.006953828 0.1282238 -0.023554051 -0.2833872 0.25620615 0.07326558 0.34197733 0.21551684 -0.061058287 -0.010378439 0.1446925 0.03648682 0.14107023 -0.19728367 -0.020873787 0.33990264 0.051158503 0.10405367 -0.048478108 0.0064502005 -0.19482647 0.12682849 -0.054039728 -0.23697497 -0.26339722 -0.01839747 0.18330188 -0.20249143 0.06701064 0.258742 0.13586023 0.021559741 -0.1840576 -0.11640253 0.3231297 -0.10334007 -0.29231098 -0.28890687 -0.064723924 0.0838746 -0.14438315 -0.2984252 0.0046248855 -0.21562424 0.17928539 0.065006435 -0.044354785 -0.02100487 -0.014837041 0.08744719 -0.14430806 0.36884522 0.16267651 0.20147268 -0.16113603 0.13405524 0.112802885 0.02905319 0.21548085 -0.28780973 -0.19464004 -0.025762146 -0.08449412 -0.014199246 0.19767888 0.21332937 0.009691496 0.10309603 0.25383282 -0.08942457 -0.055710763 0.15564446 -0.026236728 -0.19811876 -0.1824288 0.13823971 -0.03908352 0.087478995 0.34620607 -0.04194831 0.36073807 0.26920328 -0.074511126 -0.07204539 0.061328374 0.037889782 0.094075486 0.17950523 -0.1769627 0.35616392 -0.07736956 0.25588298 -0.18380953 -0.33243805 0.03097924 -0.4115119 -0.36975598 0.11519391 -0.23664734 0.18451297
651 -0.010752381 0.14090466 -0.09237755 -0.20595622 0.22209774 0.024779215 0.19957817 0.07354104 -0.100541 -0.058043633 0.1682205 0.07496517 0.105580226 -0.1694904 0.032713402 0.33019042 0.009626184 0.08487604 -0.06367264 0.029531172 -0.09398985 0.1476344 -0.031569403 -0.20729786 -0.18435371 -0.079142235 0.17696027 -0.08698974 0.071777314 0.18603589 0.062037967 0.04787943 -0.19542764 -0.07807242 0.21992612 -0.025647162 -0.20921437 -0.27594152 -0.105845675 0.1254707 -0.080405705 -0.28105292 0.0030536768 -0.11405541 0.1825711 0.0404472 -0.09151248 0.1030822 0.07699339 0.04606727 -0.035101075 0.3183925 0.1548915 0.06052355 -0.056834877 0.08023527 -0.035150535 0.0116477925 0.16564147 -0.19247895 -0.08996609 -0.07120787 -0.052269157 -0.02077163 0.11018761 0.2039875 -0.032014105 0.06508386 0.2510064 -0.029637124 -0.04515953 0.07509557 -0.096481256 -0.12806563 -0.077408336 0.0897087 0.031588234 0.062165517 0.27109963 -0.04889066 0.31919214 0.1615892 0.028725456 -0.018836923 0.080398634 0.13228513 0.06454886 0.09287539 -0.17817818 0.26682952 -0.08578518 0.21109886 -0.067876644 -0.2750577 0.12473836 -0.25657076 -0.22451614 0.08166827 -0.19910622 0.13251214
606 0.028929517 0.09330133 -0.0036926407 -0.30229002 0.25849333 0.07590959 0.3458954 0.28196958 -0.01122374 0.024666963 0.16005436 0.0037325753 0.15682715 -0.20959882 -0.06234861 0.31205258 0.076032035 0.09158399 -0.096065566 -0.036349185 -0.2320455 0.103735276 -0.0399777 -0.2433184 -0.24913925 -0.0062271883 0.15513797 -0.26949573 0.053825837 0.31149122 0.16391164 0.02766695 -0.16987646 -0.13361809 0.3265956 -0.13718528 -0.32624876 -0.26845014 -0.052874554 0.061369304 -0.18200621 -0.3054788 0.048179906 -0.2595696 0.18231238 0.04783893 -0.017057475 -0.08680924 -0.06019456 0.044743862 -0.2242487 0.36282733 0.19719636 0.27778155 -0.2177779 0.17382354 0.18533632 0.003184052 0.22912303 -0.2986421 -0.25554585 -0.002818978 -0.0863901 -0.012162861 0.25237602 0.1992869 0.026662795 0.1106331 0.23661508 -0.13380578 -0.07916723 0.24772097 -0.004690358 -0.2434132 -0.2596988 0.13104673 -0.07184355 0.089655966 0.37929085 -0.00053385703 0.378135 0.33718878 -0.13601767 -0.06775169 0.08463318 0.026603626 0.13876177 0.20273249 -0.17708369 0.4087179 -0.07727219 0.2564724 -0.25180072 -0.33867663 -0.01238154 -0.46646968 -0.46517158 0.10006789 -0.25563198 0.20335926
1687 0.05822011 0.07816519 0.030748894 -0.31886634 0.27431878 0.093611725 0.4347586 0.2969965 0.029249726 -0.0067352494 0.187795 0.01533076 0.19589882 -0.20097913 -0.053067368 0.36649784 0.06439456 0.08043157 -0.07035557 -0.06263675 -0.26132953 0.12543222 -0.042498395 -0.25657701 -0.25044492 0.0140699865 0.20360458 -0.2783209 0.06995 0.38162476 0.2049305 0.042042766 -0.18010028 -0.15292154 0.38048992 -0.16891699 -0.40596473 -0.31653607 -0.05641412 0.0789091 -0.19222243 -0.30122426 0.031875744 -0.28192115 0.19228123 0.06738736 -0.03422895 -0.105763465 -0.078543544 0.07407873 -0.28108883 0.3902539 0.25736418 0.30307746 -0.25861803 0.18564683 0.20667584 0.011001975 0.2863047 -0.3015601 -0.2825417 -0.026563587 -0.098965324 -0.010618661 0.2663373 0.23702703 0.017933946 0.18126698 0.23226422 -0.12175403 -0.087575786 0.2820439 0.027326947 -0.24527174 -0.28328705 0.13551183 -0.02099045 0.07350636 0.38300058 0.01152001 0.39690775 0.3699997 -0.1657615 -0.07966787 0.09224069 0.012401945 0.15682888 0.27149662 -0.15314499 0.42383325 -0.09841297 0.25596732 -0.27131635 -0.41529873 -0.03710178 -0.5657293 -0.5379164 0.1308429 -0.31248876 0.20506407
