2191 128
0 -0.50964886 -0.29298714 -0.24699901 -0.2569462 -0.14349113 -0.14139225 -0.2956836 -0.443396 -0.15402381 -0.16290769 -0.30699053 -0.4810899 -0.23131526 -0.03606808 -0.4098849 -0.32655865 -0.19728775 -0.42362604 -0.2007849 -0.24172263 -0.22464192 -0.3563583 -0.35386008 -0.2557579 -0.15648785 -0.110602036 -0.41114098 -0.36577627 -0.40114117 -0.2561305 -0.35052183 -0.45195618 -0.20576333 -0.17779388 -0.4830776 -0.12784652 -0.33244458 -0.11806214 -0.33494565 -0.3619686 -0.20957759 -0.1142894 -0.25540468 -0.2719746 -0.16448346 -0.39814827 -0.34544754 -0.2359664 -0.4514261 -0.090277925 -0.14405009 -0.14191537 -0.16611987 -0.3391596 -0.13255338 -0.4091743 -0.39071056 -0.31177947 -0.13661985 -0.12479156 -0.31850633 -0.15897675 -0.1806617 -0.10565957 -0.1511102 -0.15496133 -0.35841522 -0.485104 -0.27954835 -0.37113723 -0.19168197 -0.33799192 -0.23394136 -0.26978996 -0.11341424 -0.36255202 -0.23688963 -0.15407722 -0.21407342 -0.34003583 -0.39437076 -0.33738324 -0.38098496 -0.31515476 -0.35342395 -0.33516884 -0.11472019 -0.22422795 -0.0588002 -0.51777476 -0.09003361 -0.3202711 -0.23909712 -0.33569583 -0.3025949 -0.1850066 -0.34209788 -0.16738912 -0.3139412 -0.05138711 -0.14561675 -0.2530472 -0.12333119 -0.27535293 -0.17198177 -0.22955489 -0.1892545 -0.15861796 -0.34730488 -0.13358687 -0.11151997 -0.23732531 -0.436555 -0.17483118 -0.11975961 -0.37727806 -0.14719032 -0.33499473 -0.40609962 -0.32290265 -0.14421244 -0.2959151 -0.17596237 -0.26352274 -0.052930593 -0.2604758 -0.39670673 -0.09215586
1611 -0.45315605 -0.30304936 -0.21456388 -0.1890163 -0.056555666 -0.16919741 -0.2766806 -0.4710167 -0.05477763 -0.18205279 -0.29758984 -0.54265606 -0.19924115 -0.14849027 -0.28579322 -0.33380958 -0.24117613 -0.46341285 -0.17605191 -0.23609748 -0.36481678 -0.3479507 -0.33260152 -0.18783139 -0.06781425 -0.14585909 -0.38772124 -0.33302101 -0.31717998 -0.33921537 -0.38794592 -0.47905713 -0.093053184 -0.12605743 -0.4180223 -0.14299917 -0.3002653 -0.15772393 -0.28446913 -0.3755965 -0.24705994 -0.04235723 -0.32417926 -0.24119785 -0.16905299 -0.3834764 -0.34893084 -0.15511498 -0.46337485 -0.078988425 -0.1081514 -0.1346253 -0.12073537 -0.31098235 -0.13580865 -0.37647757 -0.372627 -0.31975433 -0.11951413 -0.19905657 -0.32221985 -0.110775806 -0.18526022 -0.056234803 -0.10552104 -0.19085461 -0.35521933 -0.39689922 -0.1907684 -0.3331444 -0.15294597 -0.30349594 -0.18329258 -0.35530537 -0.12796669 -0.47149274 -0.3201199 -0.11160238 -0.16385603 -0.27483043 -0.41852066 -0.3416352 -0.4308922 -0.39984417 -0.3301497 -0.36661884 -0.18442005 -0.20373169 -0.08558223 -0.47416636 -0.051111966 -0.3404164 -0.1732418 -0.31564662 -0.4203054 -0.17241637 -0.3387627 -0.090925395 -0.4388965 -0.09536322 -0.14855932 -0.19859296 -0.19253471 -0.18289402 -0.119103625 -0.23372057 -0.106489055 -0.114274524 -0.37592706 -0.1354347 -0.087771 -0.2867544 -0.46172705 -0.21092795 -0.19199954 -0.41606686 -0.08912145 -0.41938233 -0.30651727 -0.46820137 -0.080139264 -0.35080537 -0.15813904 -0.21324027 -0.07131686 -0.31946906 -0.30485916 -0.09136765
553 -0.43348548 -0.21765506 -0.20763524 -0.24672893 -0.13633959 -0.16498408 -0.30030254 -0.4175174 -0.07170378 -0.24199693 -0.36095363 -0.49148637 -0.1869493 -0.12216141 -0.42727968 -0.4163196 -0.24144068 -0.5523926 -0.26727974 -0.08930483 -0.36050847 -0.29435238 -0.25643075 -0.22223607 -0.120652296 -0.12305597 -0.4613237 -0.32939628 -0.33238775 -0.26870984 -0.35851464 -0.49381065 -0.10484067 -0.1613573 -0.39152342 -0.17875949 -0.43371412 -0.12270119 -0.31379005 -0.2908198 -0.11857646 -0.11630235 -0.2905569 -0.23627661 -0.14216386 -0.3886418 -0.37290612 -0.15470427 -0.48801896 -0.06732203 -0.146405 -0.08967919 -0.11774341 -0.294455 -0.10190629 -0.37552258 -0.3665161 -0.43253562 -0.058066458 -0.05324806 -0.3137149 -0.077856205 -0.17071812 0.033116877 -0.06533254 -0.1331753 -0.41066208 -0.41518465 -0.21424444 -0.29845667 -0.0804403 -0.31811297 -0.18080321 -0.41434795 -0.15884642 -0.46790233 -0.26289642 -0.21533386 -0.19800667 -0.30315763 -0.32107228 -0.42670566 -0.43860742 -0.33759424 -0.3953287 -0.3362421 -0.03710164 -0.15420002 -0.10369327 -0.5041783 -0.09181326 -0.28123912 -0.19190043 -0.30892512 -0.3680143 -0.15858944 -0.23442475 -0.024227466 -0.3683643 -0.11601557 -0.1349623 -0.2493655 -0.038380977 -0.19343154 -0.16643773 -0.23754673 -0.07373365 -0.1515713 -0.40255937 -0.10923546 -0.118706666 -0.15137641 -0.40421382 -0.19576852 -0.1464765 -0.4170516 -0.021923533 -0.32804283 -0.34630474 -0.43871385 -0.15243693 -0.20142487 -0.11817757 -0.27159676 -0.09899268 -0.23407476 -0.39926574 -0.17060669
1614 -0.50430673 -0.23112857 -0.10519954 -0.197879 -0.14617191 -0.24227245 -0.34675524 -0.5196685 -0.22329335 -0.20051506 -0.43689623 -0.5127142 -0.22107194 -0.12800725 -0.44060764 -0.17170253 -0.18046026 -0.48300466 -0.2369015 -0.23428984 -0.30076745 -0.35771623 -0.35760874 -0.12167567 -0.25360686 -0.08985342 -0.36480826 -0.3322503 -0.25444445 -0.1733651 -0.3503842 -0.5822132 -0.16226591 -0.021360768 -0.3756972 -0.066186905 -0.5192919 -0.23475754 -0.2174017 -0.44428357 -0.28297618 -0.18525676 -0.2961831 -0.15048005 -0.12119188 -0.37684843 -0.27212372 -0.18807954 -0.32823598 -0.1525746 -0.25087497 -0.052014202 -0.06212169 -0.30486986 -0.13950032 -0.41160902 -0.45206338 -0.31236345 -0.19229126 -0.14037308 -0.3524911 -0.17050624 -0.15241767 -0.045704212 -0.16891101 -0.090821825 -0.41184577 -0.49894962 -0.24509314 -0.2437307 -0.021923032 -0.46122333 -0.201122 -0.5036351 -0.14557403 -0.2836511 -0.24345748 -0.15732177 -0.1444037 -0.3751479 -0.41397977 -0.2721591 -0.37785587 -0.49408075 -0.54724663 -0.3328321 -0.15528814 -0.084325634 -0.17191568 -0.55562156 -0.19039471 -0.3898628 -0.18802465 -0.31184587 -0.28063703 -0.22477806 -0.32274902 -0.06743635 -0.3314903 -0.08419265 -0.12373947 -0.14072786 -0.05844137 -0.2904801 -0.20328008 -0.27619871 -0.20166682 -0.11076605 -0.4603322 -0.0659703 -0.08748185 -0.30321887 -0.5418199 -0.3360605 -0.12093263 -0.5574302 -0.056776192 -0.41438547 -0.2899609 -0.5997384 -0.016538149 -0.24417579 -0.081042066 -0.22773841 -0.10053363 -0.18527983 -0.25725254 -0.16848962
1615 -0.45888278 -0.24376495 -0.2560905 -0.17725222 -0.15770142 -0.09786176 -0.32705635 -0.43973896 -0.10042826 -0.3050601 -0.41865236 -0.53613204 -0.29355958 -0.117538 -0.32837468 -0.30062366 -0.2941928 -0.54709524 -0.2319876 -0.2651561 -0.44520432 -0.32703176 -0.34750244 -0.200309 -0.12379327 -0.09972338 -0.32674387 -0.34146875 -0.38256237 -0.19260167 -0.39074048 -0.47892913 -0.14603919 -0.16226777 -0.40416828 -0.12413254 -0.3099861 -0.1808429 -0.37170133 -0.3831726 -0.21344455 -0.15669392 -0.35244521 -0.27882 -0.1705843 -0.37769076 -0.2658287 -0.09759859 -0.45124966 -0.07112509 -0.16117331 -0.10400529 -0.13286048 -0.384927 -0.1535859 -0.3529058 -0.42147103 -0.3453679 -0.1041544 -0.14955543 -0.32303038 -0.12354832 -0.20083992 -0.10727509 -0.16547778 -0.100731745 -0.3752445 -0.52840674 -0.18333414 -0.2972761 -0.14616162 -0.361618 -0.21355104 -0.36570424 -0.15351258 -0.38462177 -0.29269883 -0.16408198 -0.12578206 -0.32639 -0.42465797 -0.385763 -0.45750275 -0.34702417 -0.421447 -0.38209412 -0.14466935 -0.24571633 -0.06310644 -0.54562086 -0.13688229 -0.31733474 -0.2434992 -0.27358875 -0.3839024 -0.2113757 -0.4120442 -0.058215987 -0.45014015 -0.0463807 -0.20266555 -0.20668629 -0.21111472 -0.29787892 -0.14969186 -0.3483831 -0.13951103 -0.06871083 -0.27087432 -0.14939392 -0.024303304 -0.30825374 -0.43665132 -0.24434164 -0.24196945 -0.33161995 -0.14230122 -0.32386974 -0.33867773 -0.46479866 -0.05600329 -0.31998986 -0.15728413 -0.29887146 -0.037380934 -0.3214626 -0.41899425 -0.090881415
368 -0.41430035 -0.2938259 -0.15749007 -0.21930607 -0.17139412 -0.14602536 -0.31506503 -0.38075057 -0.123121634 -0.099059574 -0.34328446 -0.44642583 -0.23943608 -0.10429795 -0.36321154 -0.21699367 -0.29862452 -0.4833394 -0.24243243 -0.19046263 -0.2915977 -0.34243247 -0.28874105 -0.2232439 -0.13770233 -0.095255695 -0.46718898 -0.32037458 -0.29166612 -0.24369018 -0.40290028 -0.48077193 -0.10236587 -0.15182208 -0.4501864 -0.16884385 -0.3295021 -0.20323336 -0.35060725 -0.35469276 -0.1435244 -0.19834791 -0.30890664 -0.34121874 -0.18436061 -0.44074902 -0.40093824 -0.18811259 -0.5000263 -0.07761198 -0.0949928 -0.15284772 -0.21162482 -0.39075932 -0.047675215 -0.48076817 -0.44853687 -0.36359927 -0.10992241 -0.22390473 -0.29773948 -0.1365758 -0.13688232 -0.044513594 -0.15363124 -0.14629067 -0.4252804 -0.39854988 -0.29813573 -0.3095048 -0.09018608 -0.3356898 -0.21211271 -0.36844948 -0.11677046 -0.4028545 -0.3272781 -0.19101241 -0.1790177 -0.3032461 -0.33244485 -0.34827128 -0.4549739 -0.2813576 -0.33401826 -0.3345452 -0.14659688 -0.18104137 -0.11282263 -0.5078098 -0.07199362 -0.32173288 -0.21214812 -0.3871751 -0.3304158 -0.11121576 -0.33339867 -0.09884647 -0.42454028 -0.029674327 -0.22960761 -0.1988691 -0.12659033 -0.23737553 -0.22919388 -0.165693 -0.063092604 -0.08220565 -0.39031896 -0.07881162 -0.0868898 -0.13714474 -0.51196223 -0.1864475 -0.1959888 -0.36705294 -0.13458757 -0.394846 -0.2617236 -0.42969593 -0.1935689 -0.303106 -0.09894782 -0.26191524 -0.1449182 -0.3150627 -0.35849237 -0.0578078
780 -0.42274657 -0.26718053 -0.2272632 -0.18173873 -0.097661294 -0.15989576 -0.38866666 -0.4365221 -0.033996258 -0.16682963 -0.36017203 -0.5340161 -0.24357036 -0.07917988 -0.322545 -0.35250908 -0.21950988 -0.4581785 -0.20434602 -0.1734042 -0.2858126 -0.42365795 -0.21773231 -0.19025534 -0.079478554 -0.12900585 -0.35296667 -0.31601736 -0.31023696 -0.255488 -0.3411177 -0.47093335 -0.12320169 -0.11416864 -0.4105002 -0.0742496 -0.2988554 -0.1523227 -0.36428317 -0.32531515 -0.100942254 -0.062453594 -0.26812392 -0.24063228 -0.16850714 -0.27137178 -0.30351487 -0.22606735 -0.37832525 -0.12240817 -0.10431071 -0.16688065 -0.09051992 -0.31859687 -0.15146665 -0.38948837 -0.36330014 -0.35147753 -0.04751463 -0.15337624 -0.31772646 -0.08839871 -0.18908855 -0.09693593 -0.105624415 -0.107103884 -0.27315673 -0.4405129 -0.21257646 -0.30455428 -0.12241942 -0.2893151 -0.20468855 -0.32529905 -0.10424411 -0.4030089 -0.23088272 -0.15797399 -0.1651827 -0.2743717 -0.33884633 -0.3456123 -0.39026305 -0.32859334 -0.35729918 -0.38402608 -0.14065216 -0.17653917 -0.10779741 -0.44293657 -0.054772492 -0.32299536 -0.1041584 -0.26448992 -0.34048423 -0.11105316 -0.2930482 -0.095296636 -0.30180743 -0.078798555 -0.1726275 -0.1747037 -0.08168559 -0.25420827 -0.10698938 -0.12743126 -0.11263801 -0.10547485 -0.42386633 -0.10959842 -0.1338988 -0.21001565 -0.44488287 -0.17974833 -0.18793587 -0.40410158 -0.12478401 -0.37247357 -0.30295417 -0.40257952 -0.10910549 -0.29877347 -0.11324092 -0.23266624 -0.072789386 -0.25336546 -0.3126595 -0.046472948
1622 -0.46223623 -0.2538105 -0.21514896 -0.32567903 -0.10820021 -0.2650801 -0.39425606 -0.3942921 -0.17316104 -0.14945172 -0.41442022 -0.45252272 -0.26183304 -0.18609403 -0.4337996 -0.4361275 -0.323001 -0.48463574 -0.28488466 -0.3549574 -0.2651624 -0.42950654 -0.281652 -0.22403108 -0.20273137 -0.1348924 -0.4399593 -0.3866784 -0.44517395 -0.24042967 -0.29585978 -0.53225005 -0.20349371 -0.14935188 -0.42334828 -0.06688414 -0.3808237 -0.19817097 -0.3210848 -0.416678 -0.18324892 -0.11267813 -0.3221837 -0.29743204 -0.17859235 -0.3662207 -0.42776892 -0.17758392 -0.40472254 -0.12794845 -0.16635224 -0.18210797 -0.17331468 -0.40982246 -0.10266685 -0.42652422 -0.30779943 -0.41485277 -0.08214292 -0.16430363 -0.36567718 -0.08200871 -0.18472148 -0.14611141 -0.2296152 -0.07693701 -0.3553436 -0.42987972 -0.20032565 -0.3268939 -0.12069722 -0.3910188 -0.26481047 -0.44087228 -0.15621904 -0.41353375 -0.30122718 -0.1882788 -0.2162148 -0.23683996 -0.3166283 -0.3378583 -0.30744025 -0.34330693 -0.46926007 -0.3406135 -0.018394653 -0.1831921 -0.077104785 -0.43972382 -0.13382182 -0.43618003 -0.24104373 -0.3756932 -0.27570435 -0.21458824 -0.35003528 -0.091622464 -0.33808678 -0.090812914 -0.17658056 -0.2365291 -0.13294731 -0.25757226 -0.2430697 -0.25969774 -0.12680127 -0.16969703 -0.4286974 -0.12905844 -0.025630057 -0.2886742 -0.54684097 -0.27219114 -0.17089725 -0.42746392 -0.15165438 -0.43749413 -0.36791167 -0.45075512 -0.1366395 -0.29927835 -0.18091856 -0.2950741 -0.1120192 -0.2733381 -0.4021445 -0.15263823
1099 -0.36568466 -0.1768071 -0.25756353 -0.29513696 -0.123024456 -0.20155612 -0.40002605 -0.3959075 -0.07554534 -0.17071185 -0.32263017 -0.40292 -0.28671107 -0.13098024 -0.37623072 -0.3174545 -0.18041472 -0.46344104 -0.23201191 -0.24004923 -0.25958607 -0.28872952 -0.351673 -0.18922128 -0.1201139 -0.13329248 -0.2998307 -0.32598633 -0.2822729 -0.2127589 -0.30396217 -0.48449573 -0.12329761 -0.14229721 -0.35142168 -0.11437426 -0.26680827 -0.18560155 -0.31781802 -0.34967932 -0.2047518 -0.14350346 -0.3068988 -0.3317066 -0.21096288 -0.30959964 -0.33353615 -0.2357149 -0.36325434 -0.06305357 -0.11425716 -0.116730355 -0.08951117 -0.29777378 -0.15223531 -0.3130246 -0.4146823 -0.3312427 -0.11798201 -0.10287785 -0.30468765 -0.10375042 -0.22442324 -0.04248873 -0.15977576 -0.09805648 -0.30976197 -0.35401103 -0.21730506 -0.32734543 -0.0940266 -0.29766977 -0.20539942 -0.3499335 -0.114490345 -0.40615258 -0.29842374 -0.10563715 -0.25888062 -0.35872862 -0.33099088 -0.31342086 -0.4054655 -0.28136274 -0.35446924 -0.29437277 -0.1242795 -0.20071197 -0.15816562 -0.46722776 -0.08080722 -0.3104811 -0.21058118 -0.3663072 -0.2993354 -0.14328554 -0.35182917 -0.1316482 -0.34313968 -0.1351556 -0.12987484 -0.25281084 -0.14267388 -0.2366575 -0.15112343 -0.19396134 -0.1861515 -0.13388453 -0.3083612 -0.14881085 -0.14099337 -0.25117436 -0.41432175 -0.25241908 -0.18007255 -0.36521217 -0.10731777 -0.32635722 -0.29852316 -0.3846552 -0.15842962 -0.27058837 -0.09760429 -0.2795729 -0.118660025 -0.30370483 -0.29973492 -0.06924572
1626 -0.40940258 -0.18024196 -0.19013558 -0.2078605 -0.055592787 -0.11992069 -0.28812554 -0.35499603 -0.055544525 -0.10929483 -0.27231082 -0.522575 -0.1943774 -0.025542188 -0.29683968 -0.27796933 -0.22933951 -0.42976257 -0.2068394 -0.15384188 -0.37192625 -0.32716593 -0.23879074 -0.19479284 -0.14126845 -0.06166433 -0.30598506 -0.29497224 -0.3290316 -0.17772739 -0.33738902 -0.4222447 -0.112838924 -0.17679943 -0.34971052 -0.10073314 -0.25054416 -0.20245688 -0.26696378 -0.31750712 -0.12696469 -0.104561046 -0.21194077 -0.27907524 -0.04511953 -0.35514987 -0.2184639 -0.13457774 -0.3595211 -0.100586854 -0.06950142 -0.12434774 -0.11902682 -0.28008685 -0.12907265 -0.37044722 -0.3159278 -0.29471654 -0.09675827 -0.14338325 -0.28804833 -0.029624442 -0.1531417 -0.035493102 -0.10044878 -0.12558517 -0.30208147 -0.30529568 -0.17953622 -0.30432922 -0.10538651 -0.28207192 -0.1524026 -0.31023547 -0.11069431 -0.4001337 -0.20048559 -0.0817496 -0.17547952 -0.2604587 -0.2710251 -0.32834944 -0.3223747 -0.25658232 -0.30359814 -0.28345102 -0.08674925 -0.12952875 -0.093415335 -0.41147295 -0.045132883 -0.23171718 -0.10082131 -0.2584322 -0.31878802 -0.13118751 -0.22425655 -0.10637414 -0.25573227 -0.11202327 -0.121602096 -0.13942568 -0.06134991 -0.20990932 -0.059819695 -0.2103983 -0.1313772 -0.15022652 -0.32882115 -0.0030994178 -0.11726662 -0.15731433 -0.38642827 -0.14153288 -0.14463392 -0.34625188 -0.07715203 -0.35662884 -0.31594044 -0.3266307 -0.13408509 -0.21855858 -0.02320458 -0.20501235 -0.06882458 -0.19879282 -0.29761663 -0.05799405
73 -0.44477883 -0.17554511 -0.21108587 -0.1973863 -0.13828398 -0.10520624 -0.33552068 -0.42359886 -0.0743761 -0.14457573 -0.37132296 -0.46814796 -0.26471633 -0.07264455 -0.25198287 -0.32030502 -0.22366534 -0.41812444 -0.18727337 -0.09982743 -0.32506916 -0.3281469 -0.22304523 -0.24029504 -0.1420507 -0.10227207 -0.3788701 -0.2473286 -0.316112 -0.18952863 -0.33976462 -0.42069575 -0.14163388 -0.1933473 -0.35556388 -0.10511265 -0.2345593 -0.16011404 -0.25171494 -0.3759454 -0.15172847 -0.081630014 -0.22999401 -0.25210258 -0.14541855 -0.23140328 -0.31761017 -0.09199299 -0.35841557 -0.07276074 -0.11072232 -0.13196817 -0.11850673 -0.2966816 -0.20098045 -0.3612692 -0.39622012 -0.34782377 -0.1300457 -0.13291754 -0.25485826 -0.14541657 -0.16329615 -0.022900904 -0.09256872 -0.16061327 -0.31940076 -0.3421095 -0.17905529 -0.29819462 -0.22513774 -0.27063957 -0.20401697 -0.32358882 -0.16938105 -0.40072474 -0.2823901 -0.13457516 -0.13109747 -0.22945409 -0.32539204 -0.2672409 -0.32492855 -0.26727208 -0.33761594 -0.28419003 -0.17586127 -0.11461853 -0.09344041 -0.41857323 -0.07968488 -0.29645613 -0.15807877 -0.29183275 -0.31057748 -0.104999326 -0.29394498 -0.11158363 -0.324751 -0.17081484 -0.108234584 -0.16531993 -0.14839876 -0.21105869 -0.10201969 -0.2350394 -0.13239168 -0.13898437 -0.32809862 -0.13949965 -0.041345563 -0.1995159 -0.3732073 -0.14318693 -0.13262515 -0.4433224 -0.14409648 -0.29666293 -0.28529164 -0.35328454 -0.08825799 -0.27307022 -0.11296278 -0.18012945 -0.08409276 -0.2544628 -0.26610205 -0.123186424
1353 -0.42813373 -0.24543932 -0.15718767 -0.16009533 -0.08555414 -0.186203 -0.4126124 -0.43471518 -0.13673264 -0.15683411 -0.30439636 -0.48440847 -0.26767352 -0.10794041 -0.33120728 -0.34922758 -0.16479579 -0.44525066 -0.23934443 -0.20376877 -0.20064461 -0.33872268 -0.2602546 -0.21718045 -0.11780014 -0.18802075 -0.34258717 -0.38655794 -0.3630463 -0.22285965 -0.3714364 -0.5164673 -0.19240169 -0.058810364 -0.4279171 -0.102264546 -0.37492934 -0.14304125 -0.30800733 -0.31043658 -0.16366999 -0.059342742 -0.27104425 -0.27081382 -0.20430604 -0.4014464 -0.41462517 -0.14903931 -0.39388826 -0.09590613 -0.16240145 -0.15744042 -0.1774953 -0.35597596 -0.18935022 -0.33174664 -0.46692362 -0.32360417 -0.043321036 -0.053983536 -0.26014003 -0.14192653 -0.17312643 -0.04786476 -0.16586946 -0.1919054 -0.32804564 -0.4100421 -0.30206096 -0.32291088 -0.10800606 -0.26501825 -0.17602682 -0.3255416 -0.17824641 -0.39378867 -0.22508895 -0.19174445 -0.1978046 -0.3310813 -0.35401472 -0.30386767 -0.42652598 -0.29949522 -0.41373006 -0.2969825 -0.13811447 -0.21422581 -0.15920782 -0.4337082 -0.08091846 -0.29492244 -0.21939504 -0.35574827 -0.33246455 -0.13604982 -0.27177173 -0.101781785 -0.3292567 -0.14951839 -0.18138318 -0.19684397 -0.121937536 -0.1033408 -0.17492628 -0.30290896 -0.15720885 -0.060967423 -0.29885396 -0.0809346 -0.17930667 -0.27963004 -0.43793353 -0.25478324 -0.113057375 -0.38309947 -0.057579648 -0.46102872 -0.35424727 -0.5359131 -0.1449317 -0.28152987 -0.11296474 -0.2732283 -0.10791641 -0.32760218 -0.3672783 -0.13384779
1906 -0.46274167 -0.27672967 -0.24447195 -0.22175883 -0.093712226 -0.19008674 -0.37058595 -0.43941233 -0.015370426 -0.19872941 -0.3922162 -0.547213 -0.32378328 -0.12759183 -0.40452155 -0.3260201 -0.34134895 -0.44256732 -0.27231392 -0.17766193 -0.2844822 -0.37713408 -0.31232843 -0.1753932 -0.15354815 -0.120816074 -0.30458763 -0.37921622 -0.31453952 -0.19004667 -0.38099617 -0.44096985 -0.15628123 -0.08253463 -0.35114834 -0.1564217 -0.35997826 -0.20211375 -0.34508705 -0.3724085 -0.14420608 -0.13282607 -0.32158127 -0.26532027 -0.13393569 -0.37386495 -0.34045097 -0.16266157 -0.43664166 -0.11496808 -0.0710231 -0.17581983 -0.08415853 -0.33582482 -0.10671767 -0.37885147 -0.43306303 -0.35895783 -0.032879636 -0.1712458 -0.29654807 -0.067783974 -0.16024123 -0.13044256 -0.13756101 -0.0991307 -0.3361591 -0.40061203 -0.19987868 -0.3669959 -0.09624302 -0.32334885 -0.22720289 -0.33694208 -0.12464895 -0.41628772 -0.27228186 -0.10937407 -0.095597126 -0.30361572 -0.363766 -0.2871109 -0.354423 -0.38757983 -0.42760697 -0.43390518 -0.16017437 -0.12877859 -0.04666431 -0.48249826 -0.09933197 -0.38652894 -0.19687729 -0.34539062 -0.30452904 -0.21099222 -0.31784016 -0.11053294 -0.31343278 -0.1165172 -0.17067169 -0.22839597 -0.09771421 -0.23447064 -0.134165 -0.27489635 -0.10719582 -0.1854875 -0.3935893 -0.08387106 -0.14343148 -0.2493222 -0.42954102 -0.23087671 -0.12185321 -0.4153056 -0.06348964 -0.36899266 -0.31569287 -0.4374785 -0.17337933 -0.3142701 -0.100250736 -0.31059554 -0.14566885 -0.2593136 -0.3942376 -0.0954338
523 -0.41192785 -0.19370298 -0.13779823 -0.21582167 -0.19552042 -0.09679941 -0.47270933 -0.4309369 -0.14451462 -0.20504959 -0.3999137 -0.52611285 -0.20439732 -0.115690924 -0.38246402 -0.40131503 -0.30965263 -0.519906 -0.26074928 -0.16025868 -0.35281956 -0.45816198 -0.35254577 -0.27573243 -0.1812921 -0.15197252 -0.29902515 -0.37643158 -0.39750132 -0.20509747 -0.2579652 -0.42917776 -0.2387216 -0.17383842 -0.47039858 -0.044326402 -0.24384108 -0.19710687 -0.4278101 -0.38557085 -0.1833361 -0.16362952 -0.22866611 -0.28004682 -0.23496523 -0.37034613 -0.25715542 -0.14617066 -0.36153182 -0.05268618 -0.11772963 -0.12076192 -0.10672008 -0.36451763 -0.20029418 -0.27527118 -0.34893093 -0.33908853 -0.16122285 -0.15340827 -0.39450142 -0.16671906 -0.23800786 -0.115771666 -0.14720824 -0.17638601 -0.34955844 -0.36470768 -0.223159 -0.4235079 -0.21939437 -0.35718858 -0.24385996 -0.25243136 -0.22984448 -0.367699 -0.25533503 -0.11894553 -0.22934042 -0.3129159 -0.35942692 -0.34520027 -0.36110437 -0.35252056 -0.34523854 -0.45018363 -0.17013504 -0.22485414 -0.17134014 -0.4890232 -0.14965533 -0.3222427 -0.20735805 -0.33464053 -0.3475983 -0.11739414 -0.3321629 -0.13714151 -0.25828293 -0.05116719 -0.20597021 -0.21857421 -0.18246663 -0.24564655 -0.17801037 -0.28905264 -0.14341436 -0.1661403 -0.3911746 -0.14615276 -0.142092 -0.28246447 -0.38401031 -0.32423094 -0.21100421 -0.40109855 -0.14877957 -0.29887185 -0.5519477 -0.37474793 -0.17833339 -0.22973621 -0.06769263 -0.1761862 -0.05292678 -0.32582015 -0.43344527 -0.082053825
1107 -0.52234614 -0.34479797 -0.26358733 -0.2406081 -0.08743359 -0.19665343 -0.37907222 -0.50594074 -0.07690311 -0.255175 -0.41126457 -0.6119024 -0.34519684 -0.049441077 -0.4073939 -0.31657806 -0.23202153 -0.5319459 -0.278092 -0.2644844 -0.35764727 -0.35454193 -0.2620252 -0.21323596 -0.112925485 -0.12015299 -0.41637522 -0.31485748 -0.3809655 -0.25644043 -0.37010348 -0.5147647 -0.11294242 -0.18712114 -0.41865036 -0.18319964 -0.30817357 -0.19191478 -0.30308285 -0.33363146 -0.19100611 -0.02762029 -0.32847673 -0.28766334 -0.16760635 -0.40565285 -0.40111074 -0.20220438 -0.47258028 -0.13505417 -0.10840165 -0.16167913 -0.14061567 -0.35334513 -0.11416749 -0.50164324 -0.46978435 -0.3830219 -0.06825604 -0.12985262 -0.35205293 -0.13056295 -0.22038262 -0.093465224 -0.1865536 -0.13182105 -0.4308361 -0.4046204 -0.2702526 -0.3001515 -0.120636664 -0.40075904 -0.23005724 -0.37151965 -0.06287122 -0.5287772 -0.28465268 -0.124378085 -0.17258315 -0.3214662 -0.38583136 -0.42373744 -0.4007581 -0.3828865 -0.38378298 -0.4211599 -0.05880604 -0.16969399 -0.09307122 -0.55495536 -0.08307921 -0.3315979 -0.20556024 -0.36936828 -0.3479875 -0.1404823 -0.3199375 -0.114456475 -0.3976216 -0.1075082 -0.102548115 -0.19172208 -0.12790222 -0.2870692 -0.15648909 -0.21328576 -0.108390726 -0.109406404 -0.42582566 -0.16213444 -0.14713465 -0.20390062 -0.53909427 -0.15855215 -0.13209954 -0.4276192 -0.07965964 -0.3783483 -0.28854197 -0.41897917 -0.12734023 -0.3209546 -0.115704834 -0.24130176 -0.10447269 -0.32248706 -0.32002637 -0.026676292
1639 -0.47380048 -0.17626141 -0.15165626 -0.23209985 -0.121741354 -0.18305697 -0.3711053 -0.33682758 -0.072452195 -0.11465901 -0.33784816 -0.5512302 -0.30385154 -0.05550244 -0.432403 -0.43934542 -0.19220905 -0.4849929 -0.2871462 -0.21544781 -0.2273681 -0.45600936 -0.36965096 -0.25012589 -0.10853286 -0.19232477 -0.41529042 -0.36283496 -0.366326 -0.2079974 -0.329576 -0.4210659 -0.13449818 -0.13046102 -0.47889686 -0.09932194 -0.25964174 -0.15563643 -0.36564538 -0.3892021 -0.20081809 -0.09183388 -0.2313923 -0.27837676 -0.14597054 -0.39585733 -0.3873148 -0.23969026 -0.42438826 -0.078697264 -0.11904484 -0.15520845 -0.16287605 -0.36085266 -0.11973981 -0.40103117 -0.44135857 -0.346297 -0.08600492 -0.16084561 -0.31844494 -0.09276738 -0.24493621 -0.0507182 -0.1687796 -0.07017319 -0.33015308 -0.41814548 -0.17687719 -0.40384793 -0.12385651 -0.36375383 -0.18008605 -0.37084568 -0.13004091 -0.4611051 -0.2546954 -0.16650613 -0.19693075 -0.29732618 -0.32355693 -0.3718523 -0.41182557 -0.32835397 -0.38637942 -0.3939428 -0.07904331 -0.12743 -0.03972208 -0.42922625 -0.12041471 -0.3906411 -0.14818935 -0.35022315 -0.32862765 -0.121975206 -0.30468112 -0.13205117 -0.27923125 -0.0015363112 -0.2179129 -0.24933814 -0.12943089 -0.2563195 -0.18028669 -0.28506872 -0.161366 -0.19844988 -0.33617994 -0.025177265 -0.08584525 -0.2142986 -0.46561557 -0.23837164 -0.09074398 -0.40586463 -0.017282238 -0.33534196 -0.407269 -0.43795535 -0.19150305 -0.28721437 -0.10435368 -0.29760537 -0.11483731 -0.290472 -0.40252134 -0.14486578
409 -0.48062873 -0.28738087 -0.16540176 -0.25984415 -0.21455012 -0.112278596 -0.36077693 -0.3769637 -0.17345382 -0.22984827 -0.45641014 -0.48587465 -0.19945912 -0.13041317 -0.35481754 -0.51844245 -0.19164744 -0.44660226 -0.14590818 -0.238124 -0.22647794 -0.41174722 -0.382068 -0.19699858 -0.11010366 -0.09014114 -0.40071234 -0.3464721 -0.42444086 -0.16966407 -0.38049683 -0.4603322 -0.12479593 -0.15780209 -0.39811522 -0.097574614 -0.295187 -0.10403168 -0.3869031 -0.24792568 -0.17989543 -0.17328356 -0.25301218 -0.30794677 -0.1559784 -0.38495317 -0.38132364 -0.14974083 -0.46818098 -0.08893248 -0.21437109 -0.15132833 -0.09181949 -0.3925484 -0.109444514 -0.33417994 -0.47620535 -0.2879556 -0.22661257 -0.026497588 -0.20740812 -0.18355241 -0.18775779 -0.09744195 -0.17534259 -0.11414703 -0.37066972 -0.43065816 -0.18744342 -0.38906652 -0.12839781 -0.3140054 -0.1938592 -0.25050706 -0.1509718 -0.43881565 -0.2406204 -0.11207583 -0.15387969 -0.34100324 -0.295736 -0.2883546 -0.5161188 -0.25646314 -0.50099874 -0.3677673 -0.2719127 -0.12825531 -0.13058674 -0.46560094 -0.11441107 -0.31085813 -0.2079337 -0.2994877 -0.38802704 -0.21073006 -0.29362798 -0.15318407 -0.42840075 -0.0995479 -0.11392845 -0.14661556 -0.09281828 -0.19270103 -0.08848581 -0.34331423 -0.14545713 -0.024810744 -0.44140625 -0.033807065 -0.071606986 -0.27062115 -0.44240782 -0.15213202 -0.14249901 -0.37395507 -0.054285515 -0.33546078 -0.47570276 -0.44618988 -0.11390104 -0.2902583 -0.18046294 -0.22962268 -0.02476926 -0.33555067 -0.4239606 -0.15515423
1249 -0.44851097 -0.27957857 -0.21571334 -0.273477 -0.15615384 -0.18968819 -0.29953635 -0.38874266 -0.15476929 -0.1809061 -0.36471567 -0.48240575 -0.28356513 -0.10156109 -0.33049208 -0.31021664 -0.25380108 -0.49424687 -0.23972447 -0.19956064 -0.30832312 -0.30114445 -0.25550956 -0.27092582 -0.11971762 -0.12819599 -0.410154 -0.3736808 -0.34243163 -0.25281113 -0.34525904 -0.49997386 -0.14185533 -0.18011098 -0.40173823 -0.10681248 -0.3644827 -0.20146334 -0.28990737 -0.30838555 -0.12504876 -0.06870768 -0.29948726 -0.25706872 -0.19310856 -0.32668862 -0.342947 -0.19825158 -0.42652288 -0.122729264 -0.14500886 -0.13418107 -0.123768054 -0.27511448 -0.1317728 -0.4454034 -0.4249513 -0.39548793 -0.124351695 -0.11546215 -0.3854149 -0.15926059 -0.23099701 -0.12456941 -0.19678114 -0.115117066 -0.32088563 -0.37775233 -0.23596771 -0.38489467 -0.15352751 -0.32507142 -0.20842429 -0.34849975 -0.14937666 -0.4600926 -0.25892437 -0.13067834 -0.17890835 -0.33810195 -0.35567102 -0.33904943 -0.42980996 -0.3178347 -0.36485356 -0.3293626 -0.17721297 -0.15339312 -0.15722811 -0.5136561 -0.11789025 -0.35292372 -0.25174683 -0.34556344 -0.31800494 -0.13685654 -0.2828429 -0.14029054 -0.36897886 -0.079353586 -0.22584985 -0.13246243 -0.11663323 -0.26644275 -0.15129314 -0.18793271 -0.14983603 -0.07685673 -0.33494148 -0.10916517 -0.08676497 -0.23075359 -0.40422946 -0.21341312 -0.21513219 -0.4660925 -0.13737676 -0.39297184 -0.2982057 -0.35367653 -0.1297063 -0.28937635 -0.16718334 -0.3089293 -0.06541238 -0.28557327 -0.34274378 -0.07132497
1263 -0.45192692 -0.24032639 -0.2128692 -0.24504152 -0.11750034 -0.1658832 -0.35475314 -0.4612359 -0.1523256 -0.1612359 -0.37247616 -0.5709163 -0.26759136 -0.14344715 -0.35481602 -0.2609136 -0.23093835 -0.45265397 -0.21210968 -0.21183892 -0.36377758 -0.3563276 -0.25213924 -0.20936738 -0.1355741 -0.09357142 -0.40656552 -0.3015043 -0.37420356 -0.22802436 -0.3895849 -0.4843173 -0.13789932 -0.21716157 -0.4429334 -0.067640305 -0.34174165 -0.15122846 -0.33388868 -0.38699687 -0.14320986 -0.11164036 -0.2776265 -0.23392037 -0.13117972 -0.3320911 -0.33965608 -0.16752933 -0.42266843 -0.06957747 -0.11944319 -0.13393675 -0.08214294 -0.3341038 -0.0698573 -0.40536466 -0.39690647 -0.35443664 -0.12547241 -0.13033089 -0.30296102 -0.18138854 -0.18947765 -0.034149874 -0.14907697 -0.13299851 -0.4108158 -0.4460435 -0.263428 -0.35378107 -0.18967658 -0.30738735 -0.21473514 -0.35467413 -0.16342317 -0.4834895 -0.28006905 -0.13251646 -0.16582417 -0.30209875 -0.3179129 -0.3431979 -0.44377097 -0.3785943 -0.36569193 -0.32712108 -0.119211905 -0.20754457 -0.18370382 -0.5451925 -0.07246654 -0.2775446 -0.16009364 -0.33653468 -0.3553234 -0.17952716 -0.2752501 -0.062869065 -0.371525 -0.10576061 -0.16534112 -0.17888004 -0.13220607 -0.21149682 -0.13989024 -0.24725436 -0.085534945 -0.10028207 -0.3942925 -0.14769666 -0.08337027 -0.21764043 -0.49625683 -0.1822172 -0.20178781 -0.45092517 -0.09295543 -0.36915916 -0.26456627 -0.45320964 -0.108509734 -0.31867665 -0.13457708 -0.30128253 -0.008286524 -0.24561775 -0.27168325 -0.041636366
177 -0.37422386 -0.26550195 -0.22597602 -0.26012358 -0.07723939 -0.15338391 -0.29591677 -0.39662024 -0.08573886 -0.20934013 -0.38973594 -0.5079303 -0.2824224 -0.096446924 -0.32950574 -0.28331345 -0.24168788 -0.41092443 -0.19043829 -0.17745851 -0.27905545 -0.36909184 -0.27409837 -0.2467166 -0.10316358 -0.121518984 -0.33048686 -0.3591295 -0.25542828 -0.23142107 -0.33389714 -0.419574 -0.047138434 -0.10775393 -0.3679369 -0.14989094 -0.29769665 -0.1334409 -0.28369117 -0.3453298 -0.14198335 -0.061093867 -0.23213044 -0.26465425 -0.15667334 -0.32463273 -0.37611008 -0.17699398 -0.40744358 -0.0401981 -0.025863236 -0.12847714 -0.10114161 -0.3490435 -0.16158742 -0.3158717 -0.41403124 -0.4132162 -0.10427656 -0.12801832 -0.3128307 -0.12365105 -0.22440599 -0.06752199 -0.17938331 -0.08413374 -0.34250438 -0.35015595 -0.24953859 -0.27107373 -0.09311422 -0.31548342 -0.18401538 -0.26502025 -0.092874266 -0.39956507 -0.22737797 -0.16226986 -0.14823246 -0.29562473 -0.37754518 -0.30080205 -0.38033256 -0.32071134 -0.2856207 -0.30144748 -0.096315525 -0.114078276 -0.07615199 -0.47308785 -0.098917395 -0.31917956 -0.17120177 -0.3116837 -0.3267696 -0.15266703 -0.3203193 -0.116927244 -0.31835797 -0.058718193 -0.16133608 -0.09474813 -0.083957665 -0.25748488 -0.11748071 -0.22628509 -0.102065936 -0.12426114 -0.32134917 -0.08844536 -0.1132198 -0.23581503 -0.4173348 -0.1379546 -0.21302667 -0.3487036 -0.07958998 -0.3500353 -0.27823308 -0.44834262 -0.13616906 -0.24192761 -0.09050154 -0.25105843 -0.0966651 -0.24633768 -0.33423963 -0.064537786
587 -0.4731196 -0.20051487 -0.16630165 -0.23127726 -0.14702818 -0.17035335 -0.33410951 -0.4440736 -0.13042323 -0.18308686 -0.3104658 -0.49456048 -0.2470671 -0.048174597 -0.37775192 -0.29613414 -0.269016 -0.46793365 -0.26004642 -0.26260844 -0.39455768 -0.29368597 -0.23326266 -0.15270004 -0.091551065 -0.1055488 -0.27582607 -0.37475726 -0.31439036 -0.2548846 -0.334316 -0.51148474 -0.11836008 -0.07227725 -0.36965585 -0.2207119 -0.44211444 -0.14018242 -0.28412476 -0.32768303 -0.11483081 -0.078391194 -0.30980816 -0.3022972 -0.12871952 -0.32450968 -0.3778927 -0.13296227 -0.44457966 -0.16065794 -0.2252467 -0.1046164 -0.12404052 -0.28985408 -0.14381246 -0.41524348 -0.34633523 -0.34085485 -0.13524008 -0.16104473 -0.3736763 -0.08460798 -0.16565773 -0.11028727 -0.13593505 -0.121975794 -0.4363289 -0.4989876 -0.21908395 -0.28755856 -0.12639052 -0.31574348 -0.17765665 -0.3813859 -0.085763745 -0.384934 -0.24741152 -0.12993948 -0.1832851 -0.3400735 -0.39362472 -0.35487556 -0.43519783 -0.35755596 -0.38613546 -0.33356047 -0.07675015 -0.21781412 -0.16812348 -0.5542668 -0.10019453 -0.32013834 -0.14256534 -0.34868392 -0.3952313 -0.18627194 -0.36100468 -0.06915378 -0.34982488 -0.059215534 -0.18229793 -0.20978725 -0.05814888 -0.23136738 -0.20084982 -0.31846407 -0.17079188 -0.14673245 -0.3785039 -0.124713205 -0.18164966 -0.2341181 -0.44835025 -0.1654123 -0.13798404 -0.44405565 -0.096054785 -0.44745183 -0.2703772 -0.42398688 -0.037202176 -0.292043 -0.11056844 -0.16365874 -0.16203837 -0.23268087 -0.37339002 -0.08423125
590 -0.51399034 -0.2759715 -0.27989486 -0.27414083 -0.14643596 -0.20063601 -0.32508835 -0.49743733 -0.15498397 -0.16502117 -0.3708581 -0.5959792 -0.24215667 -0.12212517 -0.38768122 -0.33409053 -0.2470005 -0.5214596 -0.17801462 -0.15044832 -0.34849256 -0.30957037 -0.25066015 -0.20674764 -0.10841961 -0.12099575 -0.3905895 -0.3710973 -0.32067308 -0.22251289 -0.36611697 -0.49523744 -0.17985612 -0.1985579 -0.44737172 -0.09695935 -0.34604904 -0.21523726 -0.351801 -0.31071106 -0.09384797 -0.05572441 -0.25906274 -0.24681433 -0.22427808 -0.38321236 -0.39850646 -0.16868581 -0.45967612 -0.096060626 -0.13549249 -0.17635599 -0.13346149 -0.34398597 -0.13826646 -0.43447042 -0.44641256 -0.39551258 -0.1488512 -0.15601371 -0.33162585 -0.16002217 -0.16693984 -0.08427056 -0.17817414 -0.18965463 -0.3237831 -0.41188413 -0.31117848 -0.2697637 -0.17358162 -0.3736988 -0.18746977 -0.3714979 -0.14325269 -0.46769127 -0.26712406 -0.09180805 -0.13631777 -0.3539136 -0.41616717 -0.3221614 -0.42101318 -0.361053 -0.4060901 -0.326818 -0.17178611 -0.13017057 -0.15285258 -0.47171664 -0.09141355 -0.34274948 -0.20921934 -0.34983888 -0.3252368 -0.22018392 -0.24045919 -0.10699147 -0.36960658 -0.12675251 -0.14714417 -0.13348886 -0.08976502 -0.28165367 -0.113513425 -0.20677343 -0.057977855 -0.09373384 -0.34836993 -0.111116104 -0.14230524 -0.19409446 -0.44508132 -0.18799113 -0.16297126 -0.4649271 -0.13084242 -0.43332383 -0.28008947 -0.43008152 -0.13728257 -0.28630206 -0.14149565 -0.3078524 -0.050591804 -0.2523261 -0.3489318 -0.062813036
1654 -0.47334218 -0.20437725 -0.08884622 -0.27179816 -0.23584795 -0.138476 -0.35713074 -0.41634703 -0.20414014 -0.18962258 -0.35081932 -0.45427427 -0.20380104 -0.10757172 -0.33193636 -0.40014187 -0.23692922 -0.46745038 -0.20603755 -0.2020134 -0.28651115 -0.32841086 -0.23333494 -0.2303671 -0.113272905 -0.12122177 -0.36352557 -0.3837476 -0.34252128 -0.20716046 -0.37601116 -0.49499837 -0.121504225 -0.20103578 -0.4553125 -0.16128579 -0.27611476 -0.1702371 -0.32681662 -0.32989216 -0.2202841 -0.1783587 -0.26484355 -0.27558133 -0.1737074 -0.3790865 -0.35805187 -0.15720604 -0.38407344 -0.11131884 -0.22466706 -0.14191194 -0.14947587 -0.32844928 -0.1818961 -0.38016 -0.4384513 -0.33759508 -0.15705433 -0.19888358 -0.28158423 -0.17771776 -0.22021735 -0.08724135 -0.124560855 -0.14294676 -0.35327128 -0.37273392 -0.21376255 -0.3135894 -0.19572827 -0.38283226 -0.23594923 -0.30607575 -0.21725516 -0.40220267 -0.2665303 -0.13143633 -0.16752215 -0.34642965 -0.35755217 -0.40052968 -0.39518812 -0.3586897 -0.34315458 -0.36829376 -0.28533587 -0.1468924 -0.2333087 -0.47180316 -0.068841204 -0.31543845 -0.25572133 -0.3418863 -0.34335142 -0.14732102 -0.33535427 -0.21370359 -0.3897897 -0.12664817 -0.1798241 -0.23915933 -0.11267026 -0.25386828 -0.15332408 -0.23186278 -0.11558338 -0.059859585 -0.378085 -0.15279816 -0.07894798 -0.2701962 -0.3756957 -0.18017004 -0.15337864 -0.41281492 -0.14495884 -0.36717075 -0.25661153 -0.4195845 -0.17019378 -0.23468292 -0.125418 -0.26368412 -0.087370634 -0.27542427 -0.34531507 -0.049474735
1299 -0.491299 -0.2916164 -0.21906865 -0.26705855 -0.091144815 -0.19045918 -0.39594978 -0.3927985 -0.108498946 -0.2159969 -0.31166783 -0.51622146 -0.3209029 -0.09175179 -0.47759387 -0.3196394 -0.30605975 -0.51312363 -0.279628 -0.19410153 -0.23205502 -0.41664186 -0.30103657 -0.22766514 -0.15896463 -0.21294668 -0.39667052 -0.41884097 -0.4107101 -0.32706994 -0.3866112 -0.5373134 -0.14716981 -0.07771834 -0.36850867 -0.067832425 -0.37114295 -0.1932975 -0.28259802 -0.3610478 -0.23893626 -0.09595187 -0.22131358 -0.31368014 -0.21999025 -0.35848337 -0.43082848 -0.23300567 -0.4057838 -0.20309548 -0.1310435 -0.1020987 -0.12985584 -0.30592978 -0.10697736 -0.3873957 -0.42486867 -0.39669248 -0.1154047 -0.11773399 -0.33491537 -0.20310383 -0.25362122 -0.11157588 -0.16774762 -0.15724573 -0.31058767 -0.4566885 -0.27906522 -0.36665764 -0.077909246 -0.2846175 -0.17663069 -0.35473832 -0.030813215 -0.41612077 -0.2699849 -0.1862034 -0.23056093 -0.36874723 -0.37133905 -0.40878254 -0.40159303 -0.31109267 -0.34366664 -0.3840966 -0.12161714 -0.17329067 -0.12921701 -0.47751546 -0.048859913 -0.3591095 -0.13266324 -0.34655198 -0.29081273 -0.15933864 -0.31555113 -0.12446789 -0.379559 -0.115393154 -0.1617042 -0.1904903 -0.15511954 -0.26363274 -0.14141928 -0.25032988 -0.11900412 -0.18807352 -0.41023597 -0.07154796 -0.148616 -0.20282893 -0.3517851 -0.25465888 -0.16299282 -0.35761902 -0.11357325 -0.42673993 -0.38850725 -0.46877176 -0.20122252 -0.33048674 -0.129701 -0.28532985 -0.09669447 -0.31352547 -0.33096924 -0.069275014
1128 -0.457373 -0.3588843 -0.19964859 -0.25922254 -0.14249651 -0.24022806 -0.30868 -0.4230197 -0.16632296 -0.19650143 -0.3686888 -0.46895525 -0.24949363 -0.0053427923 -0.36541674 -0.32593575 -0.20397806 -0.42870638 -0.17794353 -0.15494366 -0.3177911 -0.3407374 -0.30924705 -0.25515404 -0.05200019 -0.13573498 -0.4056498 -0.41772705 -0.37742355 -0.21424054 -0.30934474 -0.51905805 -0.104656495 -0.14797725 -0.3603049 -0.2059863 -0.29754525 -0.20794995 -0.3118104 -0.38621646 -0.15108912 -0.06295712 -0.35533983 -0.28488758 -0.12767954 -0.4328693 -0.28253785 -0.11590065 -0.4670961 -0.09608141 -0.18904234 -0.18975167 -0.14500362 -0.26441425 -0.18210725 -0.4741678 -0.38710937 -0.37806392 -0.10556469 -0.16917881 -0.2713472 -0.13418594 -0.13405602 -0.03212613 -0.21110184 -0.16571936 -0.41189346 -0.50791997 -0.24183844 -0.33593073 -0.11454026 -0.37827417 -0.14993869 -0.37072113 -0.06576524 -0.4365438 -0.30132148 -0.18575452 -0.1534905 -0.30268222 -0.39958766 -0.38905963 -0.4156769 -0.32434273 -0.34925267 -0.38550124 -0.18448159 -0.25315157 -0.10993171 -0.44806582 -0.13498366 -0.23846357 -0.13392256 -0.3623748 -0.361073 -0.13739441 -0.22428091 -0.09098009 -0.29836747 -0.024815358 -0.20164473 -0.19265296 -0.18612206 -0.27670333 -0.17031288 -0.2077047 -0.15146379 -0.23215497 -0.44065714 -0.039717462 -0.16269137 -0.2778993 -0.40675983 -0.2051504 -0.0903587 -0.39369497 -0.027040804 -0.36204168 -0.322125 -0.46067086 -0.14253436 -0.2862786 -0.093065515 -0.18759482 -0.15105891 -0.2742546 -0.39595768 -0.055253476
1659 -0.48516804 -0.33790845 -0.30860302 -0.21797092 -0.15669152 -0.1698255 -0.32874033 -0.4843013 -0.08147326 -0.18800268 -0.3054863 -0.46456835 -0.29666674 -0.04304383 -0.45285377 -0.3228415 -0.20090972 -0.48999786 -0.24696563 -0.22550021 -0.3247026 -0.32848993 -0.32746133 -0.21104813 -0.18840395 -0.14015917 -0.34833163 -0.32160842 -0.27880874 -0.19341362 -0.3143531 -0.6227812 -0.109679595 -0.16461544 -0.35574958 -0.15269938 -0.25618038 -0.14022247 -0.35387108 -0.38281828 -0.24093364 -0.11372626 -0.35701084 -0.27386796 -0.26666984 -0.35718617 -0.34535447 -0.15111507 -0.3611984 -0.17120597 -0.13137804 -0.21748148 -0.15297844 -0.4161667 -0.13944425 -0.4332977 -0.4425001 -0.30612943 -0.06799593 -0.09178757 -0.28772646 -0.12466951 -0.12185966 -0.10133266 -0.13809912 -0.090219446 -0.37783507 -0.4886158 -0.22059858 -0.35878402 -0.067566454 -0.37701285 -0.20346193 -0.4252141 -0.09907379 -0.37080818 -0.26768082 -0.15201886 -0.17969833 -0.32667074 -0.42201915 -0.33438054 -0.45192298 -0.3556326 -0.4123573 -0.4104269 -0.2560883 -0.25959516 -0.19653021 -0.50598437 -0.03489259 -0.3397314 -0.2496825 -0.28685662 -0.35932717 -0.15099247 -0.32226256 -0.088534966 -0.45577523 -0.075975694 -0.16811909 -0.17380644 -0.17020209 -0.2625037 -0.20012274 -0.25604117 -0.08600785 -0.10719492 -0.29934523 -0.0886605 -0.1110726 -0.27467307 -0.42691603 -0.2075014 -0.049077947 -0.3224435 -0.116465606 -0.37338087 -0.36093923 -0.4129408 -0.12212954 -0.29379737 -0.21864203 -0.20679076 -0.06952148 -0.2699396 -0.29735538 -0.084759206
597 -0.5016459 -0.22565715 -0.29200375 -0.25168747 -0.09061252 -0.13355713 -0.31530383 -0.40949392 -0.07034453 -0.226951 -0.40330273 -0.5068275 -0.26012272 -0.066438414 -0.35622635 -0.36247095 -0.20672904 -0.5407322 -0.27039778 -0.21438618 -0.28786138 -0.35765672 -0.27961394 -0.13595657 -0.07507358 -0.17108569 -0.3921765 -0.35052735 -0.2579682 -0.24282654 -0.3560247 -0.503606 -0.18284367 -0.17973699 -0.43109775 -0.17418413 -0.3402736 -0.17662136 -0.34452993 -0.40455648 -0.18810503 -0.14756957 -0.29508543 -0.29105318 -0.16023092 -0.41443014 -0.32751447 -0.16779464 -0.44903502 -0.08924853 -0.14718606 -0.15938687 -0.15754949 -0.36202472 -0.09503182 -0.41486546 -0.3797165 -0.37379676 -0.04599361 -0.18370861 -0.2902271 -0.054119777 -0.17027542 -0.11473054 -0.12892048 -0.11300834 -0.30352208 -0.4297962 -0.29227006 -0.3820056 -0.062425196 -0.28851387 -0.21340571 -0.35379645 -0.06972336 -0.4610071 -0.24761903 -0.12542894 -0.23377529 -0.35512647 -0.3537812 -0.37506554 -0.43030262 -0.24069463 -0.30191773 -0.36025277 -0.057637084 -0.16866307 -0.057934906 -0.51360387 -0.00065303297 -0.3290264 -0.1546782 -0.36250123 -0.41481566 -0.17029856 -0.33396327 -0.1730892 -0.3444621 -0.037124004 -0.20817979 -0.20127094 -0.12561038 -0.21642844 -0.1802351 -0.2490952 -0.15324956 -0.14905289 -0.4433795 -0.093964934 -0.029282248 -0.21688223 -0.47084665 -0.17623805 -0.13588691 -0.39000216 -0.12344386 -0.37967438 -0.34735414 -0.46740124 -0.15747558 -0.3218663 -0.11830827 -0.2597708 -0.09972339 -0.2518255 -0.3032837 -0.122325115
267 -0.46395263 -0.32962006 -0.2134351 -0.24656789 -0.24827667 -0.15524997 -0.34249222 -0.4694483 -0.16329966 -0.1933895 -0.3029751 -0.50665647 -0.21316712 -0.07758591 -0.39245477 -0.31510845 -0.17243738 -0.48122588 -0.25897935 -0.2746152 -0.37774727 -0.27966067 -0.26593503 -0.114592925 -0.12745385 -0.06638111 -0.40441957 -0.32976335 -0.2530553 -0.27309483 -0.31068107 -0.4511571 -0.14083229 -0.20642404 -0.4357287 -0.13223076 -0.43132278 -0.16629307 -0.28716776 -0.31805304 -0.12773935 -0.18256147 -0.33154202 -0.32046813 -0.14701854 -0.42344505 -0.34211025 -0.11108698 -0.47070575 -0.08953196 -0.14127319 -0.1281199 -0.13618366 -0.3931969 -0.09821061 -0.40128285 -0.36592826 -0.36268836 -0.10250511 -0.18390049 -0.2793304 -0.06897674 -0.12878352 -0.11936182 -0.17366163 -0.11807362 -0.30823097 -0.37245402 -0.2632942 -0.28419 -0.08375537 -0.35451874 -0.210806 -0.31993034 -0.1523666 -0.5050523 -0.21726282 -0.1558655 -0.16783671 -0.2943368 -0.4539791 -0.36240244 -0.48013955 -0.3481226 -0.4312602 -0.39515242 -0.07149233 -0.072303616 -0.17939873 -0.36303154 -0.11549785 -0.28298795 -0.06364361 -0.38302276 -0.31983113 -0.1579045 -0.22487326 -0.052745998 -0.3480706 -0.128698 -0.2757377 -0.21432827 -0.17938678 -0.17418145 -0.18830624 -0.22933725 -0.11079651 -0.10875299 -0.44762525 -0.1849488 -0.12737557 -0.15212362 -0.4607461 -0.19449861 -0.1219935 -0.4875724 -0.18682684 -0.43708616 -0.30097124 -0.45029983 -0.11237784 -0.3181609 -0.17217943 -0.2303015 -0.18226428 -0.30489108 -0.29281527 -0.081072204
1666 -0.52487844 -0.20115879 -0.24373534 -0.25419965 -0.10622116 -0.15456544 -0.33384794 -0.50657225 -0.14756176 -0.10412373 -0.40566117 -0.6113856 -0.2892423 -0.11567118 -0.34364364 -0.29419485 -0.21158877 -0.5248987 -0.26188415 -0.2153162 -0.32779583 -0.35478425 -0.2198274 -0.2501793 -0.12947594 -0.064694345 -0.34583443 -0.36747506 -0.39767405 -0.25025186 -0.45692244 -0.48633215 -0.15819995 -0.20687686 -0.4362898 -0.11959348 -0.2629977 -0.14289783 -0.37604824 -0.35434824 -0.15176204 -0.11326226 -0.31495103 -0.24787691 -0.15706192 -0.35748026 -0.37364274 -0.128488 -0.47645697 -0.13063656 -0.093386576 -0.14936471 -0.15426093 -0.3478348 -0.1911334 -0.44164333 -0.5037989 -0.40702423 -0.13465548 -0.16222176 -0.3799533 -0.09081745 -0.16046879 -0.08753773 -0.14019 -0.17697738 -0.38206118 -0.43900806 -0.25097588 -0.3625802 -0.19705664 -0.36352938 -0.22862053 -0.4597457 -0.17113234 -0.48351523 -0.2677146 -0.10882824 -0.09531932 -0.36589786 -0.39827627 -0.40562454 -0.41325703 -0.38910967 -0.40540624 -0.32258457 -0.16198878 -0.14116758 -0.1433543 -0.5757797 -0.17519613 -0.31616285 -0.22838949 -0.31410217 -0.3423944 -0.11425655 -0.29587612 -0.1263995 -0.37635186 -0.18362969 -0.105156414 -0.22281769 -0.16461928 -0.23259237 -0.09422168 -0.23112829 -0.16192691 -0.13161512 -0.35440797 -0.084943175 -0.12622945 -0.1855912 -0.559404 -0.21579102 -0.1957591 -0.39810488 -0.088383496 -0.36113963 -0.32738796 -0.46618596 -0.073689565 -0.30821273 -0.1162259 -0.2363352 -0.07734084 -0.28045842 -0.40411168 -0.0874067
1671 -0.50217193 -0.31424835 -0.18753034 -0.2929978 -0.09170123 -0.24656439 -0.31993955 -0.43513003 -0.16370744 -0.1649218 -0.32492018 -0.57031053 -0.17963924 -0.117409445 -0.38600346 -0.27856812 -0.27070037 -0.4953878 -0.2356139 -0.26456824 -0.30738994 -0.30095306 -0.22223122 -0.24277954 -0.13336816 -0.12514056 -0.39117515 -0.32664534 -0.40824437 -0.22938488 -0.44259652 -0.5751958 -0.119432345 -0.19161443 -0.4640556 -0.14377785 -0.3216198 -0.21427853 -0.28507406 -0.34971014 -0.18286441 -0.16010025 -0.28527498 -0.26986787 -0.2431099 -0.39044246 -0.40741596 -0.20841733 -0.4511722 -0.086444534 -0.19016968 -0.1526833 -0.17009126 -0.40120393 -0.1375636 -0.3705794 -0.4869872 -0.47254428 -0.1275702 -0.101305805 -0.28937998 -0.20389596 -0.303513 -0.11112603 -0.13032325 -0.15996398 -0.3819391 -0.3595705 -0.2644578 -0.29479915 -0.17369157 -0.29784858 -0.21893434 -0.30923194 -0.17639184 -0.48611408 -0.3021545 -0.12525189 -0.16582446 -0.3835512 -0.34358376 -0.41157123 -0.37338942 -0.40826216 -0.34476396 -0.39842844 -0.2665524 -0.15589775 -0.12765478 -0.40981784 -0.13189156 -0.34761846 -0.19373773 -0.33351046 -0.31625476 -0.19688947 -0.32346356 -0.12945542 -0.37696618 -0.12243294 -0.121823065 -0.17739436 -0.10234173 -0.2891961 -0.19425288 -0.15168667 -0.14082743 -0.11358974 -0.3609365 -0.11955936 -0.1396504 -0.21981148 -0.39365622 -0.2602209 -0.19695297 -0.41065827 -0.13126586 -0.4237445 -0.40738007 -0.35971105 -0.15619822 -0.34058198 -0.19391114 -0.31499618 -0.1504222 -0.23922336 -0.37020165 -0.10779355
1672 -0.5267262 -0.31062087 -0.22108033 -0.2211523 -0.12701677 -0.14643244 -0.31829637 -0.46115372 -0.1326255 -0.13010769 -0.34026632 -0.5382416 -0.2307237 -0.14551365 -0.333994 -0.34348616 -0.22490568 -0.59141123 -0.21256374 -0.16855049 -0.30031636 -0.25107646 -0.24792884 -0.28237286 -0.11283369 -0.051354732 -0.49046046 -0.36840484 -0.35287997 -0.24682625 -0.3509439 -0.5137173 -0.14466573 -0.16983394 -0.47804236 -0.09220085 -0.34128743 -0.14854395 -0.22300826 -0.3826672 -0.16919081 -0.15150812 -0.32860556 -0.3351874 -0.1388442 -0.39655146 -0.35437545 -0.12080049 -0.4803949 -0.12764479 -0.14778191 -0.10627351 -0.1029318 -0.31702465 -0.12818974 -0.4555264 -0.50998163 -0.398187 -0.15903874 -0.11811232 -0.2724173 -0.12799945 -0.22349647 -0.11325935 -0.18107636 -0.11040272 -0.39368734 -0.5067331 -0.30525672 -0.29949006 -0.1556844 -0.35453075 -0.20546523 -0.3329235 -0.09776523 -0.4306502 -0.3182286 -0.06539876 -0.20427127 -0.2903249 -0.39628318 -0.29485598 -0.50894165 -0.3205145 -0.28821623 -0.28769487 -0.13986343 -0.19661956 -0.124741845 -0.51732105 -0.08543554 -0.30293787 -0.21738489 -0.36059985 -0.41009185 -0.185612 -0.27400157 -0.06553363 -0.3531741 -0.07593023 -0.16813682 -0.13535692 -0.12665199 -0.2273752 -0.11875496 -0.20669758 -0.12767929 -0.07362497 -0.33544704 -0.16354148 -0.04873072 -0.22879846 -0.48270226 -0.19840124 -0.13010393 -0.43132526 -0.15429296 -0.34945977 -0.29482067 -0.4763877 -0.13526335 -0.2673539 -0.1372878 -0.23677543 -0.027014017 -0.274586 -0.21414052 -0.071218416
1141 -0.5239021 -0.24024418 -0.24032795 -0.18448393 -0.15747969 -0.12435054 -0.37792495 -0.5846906 -0.11697604 -0.24440753 -0.3148139 -0.4880538 -0.29225275 -0.1818374 -0.41891232 -0.34522948 -0.20755358 -0.47340414 -0.22490875 -0.14879027 -0.34672177 -0.26764247 -0.3269752 -0.17359981 -0.1996469 -0.11174444 -0.35256118 -0.31166613 -0.2654475 -0.2302058 -0.31085214 -0.4939583 -0.17583531 -0.15523852 -0.36392313 -0.12299814 -0.33223993 -0.14904587 -0.29905644 -0.27226296 -0.20056994 -0.23212278 -0.31932947 -0.26036853 -0.18166332 -0.29462847 -0.36073837 -0.2024366 -0.36700228 -0.015632307 -0.23565261 -0.11062723 -0.120405495 -0.31163105 -0.16305551 -0.34340253 -0.4299097 -0.32673478 -0.13452044 -0.18566535 -0.34947777 -0.11326575 -0.15402919 -0.060282696 -0.07905754 -0.13284978 -0.41435203 -0.3546031 -0.23287943 -0.33573875 -0.12160317 -0.3014829 -0.1766244 -0.37182873 -0.14768992 -0.42456698 -0.19175632 -0.08423502 -0.16244121 -0.35070258 -0.4019897 -0.35999462 -0.39067152 -0.34268782 -0.37536836 -0.3732756 -0.12828813 -0.2422173 -0.2797636 -0.51227623 -0.011578636 -0.3328043 -0.20021947 -0.38757065 -0.40740916 -0.14240883 -0.312851 -0.10232724 -0.3526182 -0.15746163 -0.17768234 -0.22194612 -0.13019602 -0.29711655 -0.19875231 -0.20741478 -0.1625467 -0.10517371 -0.30757228 -0.079766154 -0.16134764 -0.28777513 -0.4402011 -0.22031629 -0.16143833 -0.39004833 -0.08585228 -0.3886349 -0.37907326 -0.46392775 -0.14480792 -0.24134605 -0.11340624 -0.22648071 -0.08215699 -0.3213491 -0.36476165 -0.02123992
1143 -0.40076587 -0.24256352 -0.19642727 -0.24829291 -0.22322038 -0.20242432 -0.3500605 -0.33786592 -0.18310064 -0.15392178 -0.316148 -0.46897593 -0.23513225 -0.17336075 -0.37871513 -0.38878432 -0.19112758 -0.46431485 -0.25611222 -0.17648211 -0.2546245 -0.35612455 -0.3020901 -0.22873116 -0.17602229 -0.07521757 -0.43904835 -0.34670815 -0.3632351 -0.2580918 -0.4403521 -0.41470528 -0.10244282 -0.2841898 -0.48659912 -0.095657066 -0.30821306 -0.18371709 -0.3771889 -0.30940607 -0.21176723 -0.13531499 -0.2696166 -0.24233186 -0.19448404 -0.39631152 -0.38522646 -0.17063889 -0.40904918 -0.09080016 -0.14678828 -0.20218873 -0.115951836 -0.41113338 -0.12893762 -0.3162422 -0.41318074 -0.35828587 -0.15408602 -0.1697347 -0.2989072 -0.2339866 -0.27710432 -0.10396999 -0.1431063 -0.15003623 -0.2943407 -0.3272967 -0.28504607 -0.41723347 -0.20377043 -0.2930813 -0.14228792 -0.3002093 -0.14415056 -0.3750999 -0.20585573 -0.09600813 -0.15295587 -0.33673364 -0.33907425 -0.34648392 -0.43123838 -0.3117796 -0.3396136 -0.35816842 -0.1835086 -0.17166962 -0.20666091 -0.44155475 -0.08822072 -0.29325417 -0.21230184 -0.33137453 -0.30835223 -0.16564082 -0.2819291 -0.19321059 -0.31052387 -0.119896494 -0.15831588 -0.25760707 -0.16247001 -0.21271074 -0.24181156 -0.19279619 -0.19483338 -0.1617844 -0.28735897 -0.1225518 -0.12990175 -0.18931077 -0.39745837 -0.19821031 -0.227706 -0.44035253 -0.12225155 -0.36788484 -0.33466992 -0.44054657 -0.18707208 -0.21229827 -0.13332383 -0.3581858 -0.08673024 -0.26451385 -0.38774163 -0.091834754
1419 -0.4841681 -0.25742003 -0.19752018 -0.16360898 -0.1372452 -0.16656122 -0.28804478 -0.38688546 -0.15045123 -0.1635312 -0.35928097 -0.41406956 -0.25734362 -0.13463223 -0.35986134 -0.23863187 -0.25024748 -0.49430466 -0.25081456 -0.28973982 -0.28850454 -0.2946631 -0.2617397 -0.23348199 -0.11234236 -0.10964121 -0.39790496 -0.26868826 -0.32291576 -0.14659698 -0.44512334 -0.44961214 -0.14620385 -0.22002792 -0.4408364 -0.05126038 -0.24338475 -0.16979706 -0.32606918 -0.34914953 -0.25569823 -0.113517046 -0.27854672 -0.29819897 -0.18507634 -0.43068752 -0.2895134 -0.14005789 -0.43328053 -0.1929606 -0.15996453 -0.1869574 -0.13576347 -0.3538651 -0.03963269 -0.3896194 -0.3370491 -0.3408227 -0.13929358 -0.15647034 -0.33293542 -0.11586418 -0.24224427 -0.039572656 -0.12250989 -0.122574605 -0.41506082 -0.41376257 -0.28125247 -0.30239877 -0.17144066 -0.31683633 -0.28752166 -0.31894425 -0.18222287 -0.3652533 -0.26198176 -0.06765544 -0.19179063 -0.32795677 -0.33653066 -0.35559282 -0.4582823 -0.38071272 -0.3369753 -0.32155544 -0.16442806 -0.16468586 -0.20102003 -0.5529688 -0.07301863 -0.31396005 -0.16748409 -0.2893038 -0.36879525 -0.18257682 -0.3310055 -0.108495705 -0.28345373 -0.076063864 -0.17984432 -0.20251043 -0.1722927 -0.26137894 -0.18693094 -0.25986978 -0.106623426 -0.16754334 -0.397056 -0.17818753 -0.09136559 -0.23576231 -0.51415914 -0.14470136 -0.12402139 -0.40862438 -0.05307585 -0.31618732 -0.28516954 -0.48865953 -0.12342425 -0.31762436 -0.1651075 -0.31649384 -0.08774247 -0.24866731 -0.19323309 -0.18227637
608 -0.48584637 -0.26875466 -0.17030488 -0.1996734 -0.15444256 -0.22055237 -0.3519766 -0.33357152 -0.15612337 -0.23500927 -0.28950492 -0.42359707 -0.24329512 -0.15113938 -0.41022864 -0.35695028 -0.25392935 -0.47731382 -0.29045165 -0.24369664 -0.22082837 -0.34239432 -0.26518014 -0.34893322 -0.1241458 -0.087394945 -0.3287508 -0.3188227 -0.40520665 -0.20821884 -0.38313597 -0.5555399 -0.09207605 -0.20934477 -0.3873036 -0.18359719 -0.35244885 -0.15755303 -0.23388767 -0.32311073 -0.19157831 -0.063298725 -0.34035903 -0.3050762 -0.1442525 -0.42179686 -0.38946685 -0.1827185 -0.4581556 -0.12948482 -0.20641497 -0.16918568 -0.1261491 -0.31391415 -0.17220144 -0.395318 -0.41637155 -0.4333377 -0.10558119 -0.14744668 -0.30095106 -0.14867711 -0.2398988 -0.114936344 -0.12195533 -0.046222012 -0.24998835 -0.45944673 -0.27056083 -0.4305256 -0.09341885 -0.34319833 -0.23541383 -0.31851947 -0.091105655 -0.42159343 -0.23230751 -0.17165636 -0.12679286 -0.2640319 -0.31735614 -0.3731413 -0.4926756 -0.32150087 -0.42110887 -0.40635496 -0.118566886 -0.19273895 -0.03302679 -0.5139564 -0.039537128 -0.3548414 -0.26553133 -0.27526817 -0.35513407 -0.14900921 -0.37269786 -0.12962994 -0.3582655 -0.11043242 -0.19968371 -0.19436651 -0.14647792 -0.20835197 -0.19292907 -0.28516278 -0.059706867 -0.11714747 -0.38228017 -0.10132291 -0.11520745 -0.27430463 -0.43294698 -0.252548 -0.12331529 -0.3937579 -0.070520915 -0.33669302 -0.32720646 -0.39489076 -0.21706171 -0.26816833 -0.12464143 -0.36696684 -0.11867537 -0.3480744 -0.42463905 -0.06328532
610 -0.47701022 -0.23646152 -0.2261266 -0.25163573 -0.103212796 -0.17970785 -0.3595404 -0.52267486 -0.080527335 -0.1545884 -0.33572873 -0.4524311 -0.28661427 -0.20784009 -0.33334255 -0.3286409 -0.26535922 -0.5763711 -0.2508839 -0.21014033 -0.32991955 -0.32644412 -0.3373731 -0.21960564 -0.1421784 -0.12328457 -0.35594642 -0.38042873 -0.3472183 -0.23801544 -0.3858905 -0.46847764 -0.09494274 -0.16728716 -0.40908334 -0.17795496 -0.29829246 -0.18789856 -0.27830744 -0.31338117 -0.23284419 -0.13720095 -0.28517208 -0.2988037 -0.2333479 -0.4188562 -0.32943478 -0.10877346 -0.46052796 -0.17062937 -0.12098471 -0.13083883 -0.16974689 -0.350491 -0.12486791 -0.35761675 -0.40683976 -0.3453569 -0.041272923 -0.060384598 -0.27522936 -0.09659872 -0.19292976 -0.04920429 -0.21235116 -0.10529269 -0.386285 -0.44039127 -0.27750129 -0.30233145 -0.053780712 -0.34745076 -0.21868125 -0.2841441 -0.105446294 -0.43673167 -0.2224183 -0.1708154 -0.20529456 -0.3627084 -0.38598713 -0.39032003 -0.36440313 -0.30510026 -0.35168183 -0.37958524 -0.10954758 -0.25220534 -0.18165016 -0.49344406 -0.048965722 -0.38617858 -0.17096457 -0.3286743 -0.32073522 -0.15653694 -0.30383256 -0.08897847 -0.42442232 -0.0658738 -0.10920967 -0.21236561 -0.14105122 -0.28853825 -0.17783795 -0.21253161 -0.18863188 -0.1434449 -0.3078992 -0.15274027 -0.11493098 -0.1793513 -0.4369031 -0.13826616 -0.13625427 -0.39919406 -0.12615137 -0.3636181 -0.38187554 -0.43452182 -0.08124629 -0.25568625 -0.08356434 -0.27455315 -0.06774535 -0.22983597 -0.3928794 -0.0814584
1146 -0.37674627 -0.17515688 -0.15686819 -0.19047406 -0.09045006 -0.30101964 -0.34457973 -0.363762 -0.150021 -0.22566918 -0.40392733 -0.53607434 -0.16288675 -0.1541734 -0.3360307 -0.42863712 -0.26116 -0.41814595 -0.2094395 -0.2127956 -0.25968754 -0.37260538 -0.20777296 -0.11623534 -0.094390154 -0.21030171 -0.4676171 -0.3500596 -0.4240856 -0.19995259 -0.31876335 -0.529647 -0.14242487 -0.21010886 -0.47801843 -0.21112572 -0.31336603 -0.11614831 -0.4217453 -0.3891011 -0.19183886 -0.049920056 -0.17010842 -0.25129193 -0.15712538 -0.41588902 -0.34328708 -0.22027259 -0.4439838 -0.10160815 -0.192156 -0.23975892 -0.17202808 -0.3108147 -0.03088883 -0.41968533 -0.39987278 -0.30314845 -0.18598042 -0.06954273 -0.32152516 -0.1875516 -0.33232683 -0.08376235 -0.23739102 -0.09162745 -0.32294157 -0.39026442 -0.20898893 -0.33173543 -0.05392834 -0.43873915 -0.22010851 -0.36284456 -0.2728973 -0.50626874 -0.2798626 -0.14600556 -0.124152325 -0.29251394 -0.34099343 -0.35980675 -0.3500267 -0.39276677 -0.35248688 -0.35512337 -0.16860086 -0.0925404 -0.2008379 -0.526412 -0.104433656 -0.40386486 -0.27826422 -0.27402103 -0.3421088 -0.21824835 -0.32264575 -0.06721147 -0.37349412 -0.18242978 -0.15827736 -0.18518053 -0.19879353 -0.20258701 -0.25292465 -0.2983873 -0.1394498 -0.06950953 -0.34198245 -0.10512588 -0.13788182 -0.25228605 -0.45118093 -0.24383695 -0.15298449 -0.354449 -0.1770758 -0.4004089 -0.2955703 -0.49761668 -0.122718334 -0.29382637 -0.16633245 -0.36823866 -0.095572524 -0.31891736 -0.33092117 -0.059122678
2126 -0.44869375 -0.22986458 -0.1833788 -0.23534802 -0.14800212 -0.17135625 -0.36565384 -0.44400856 -0.16219932 -0.1949163 -0.36679074 -0.55176896 -0.23165996 -0.07836039 -0.35501847 -0.3206687 -0.21946001 -0.52681655 -0.23679283 -0.13624048 -0.3249241 -0.355175 -0.2444837 -0.27381048 -0.07263918 -0.13395494 -0.41790652 -0.33172318 -0.35193193 -0.21763113 -0.33239225 -0.46924782 -0.10306727 -0.2363677 -0.43047568 -0.113669254 -0.33816424 -0.17935804 -0.31462035 -0.36193404 -0.15474056 -0.093867 -0.2788148 -0.2835836 -0.14170237 -0.3306333 -0.3817215 -0.13515048 -0.42748466 -0.019739974 -0.13337137 -0.14531675 -0.10254308 -0.3264906 -0.19659881 -0.42815605 -0.44916898 -0.37749368 -0.06941027 -0.11067041 -0.36544728 -0.18883498 -0.17719223 -0.029193675 -0.08769134 -0.19785132 -0.34980515 -0.4155479 -0.24427144 -0.3071774 -0.15376407 -0.32020068 -0.20161724 -0.36920956 -0.18637815 -0.48664147 -0.23635033 -0.20182298 -0.12170491 -0.3044103 -0.32482144 -0.30272576 -0.39161384 -0.3055443 -0.32424304 -0.27916798 -0.088026546 -0.13363479 -0.18725327 -0.5067296 -0.027420718 -0.26748532 -0.15351233 -0.3332906 -0.3478628 -0.121301726 -0.2698141 -0.11526626 -0.36381572 -0.22420768 -0.071980886 -0.21086319 -0.14888676 -0.2714238 -0.1365472 -0.22457515 -0.18583581 -0.14201467 -0.38376027 -0.099128224 -0.101922765 -0.19834791 -0.43676826 -0.14446867 -0.15855356 -0.47806618 -0.051247872 -0.41457516 -0.3102695 -0.44749704 -0.08536349 -0.26950082 -0.08184811 -0.24185698 -0.10328374 -0.2731694 -0.3310038 -0.08511755
53 -0.4043326 -0.20462345 -0.1241542 -0.18920739 -0.09866506 -0.1630147 -0.27046007 -0.38564453 -0.1298735 -0.07236885 -0.3183956 -0.42968473 -0.19917816 -0.09331534 -0.33914977 -0.34355697 -0.24013482 -0.47765595 -0.18409225 -0.2564757 -0.31372318 -0.30509457 -0.31451866 -0.19573192 -0.13566498 -0.08519071 -0.34732383 -0.32667837 -0.29255617 -0.10427616 -0.36923808 -0.47459155 -0.15733281 -0.23528734 -0.43243328 -0.13320772 -0.27176347 -0.16941778 -0.3611413 -0.32644352 -0.14974873 -0.18172517 -0.2221018 -0.2559268 -0.19864659 -0.36969256 -0.3278434 -0.16274141 -0.46429953 -0.08468844 -0.10672661 -0.0655127 -0.14386497 -0.30350068 -0.13689631 -0.3401836 -0.45324227 -0.315011 -0.1446969 -0.099982396 -0.32467207 -0.161971 -0.26161864 -0.061046924 -0.09029625 -0.038778346 -0.30825365 -0.4377093 -0.20259154 -0.32443833 -0.07637774 -0.30485213 -0.1537057 -0.2994928 -0.16228226 -0.39204523 -0.19252649 -0.22697888 -0.12059257 -0.33796072 -0.37079304 -0.36262986 -0.39633808 -0.29828215 -0.3877179 -0.31061712 -0.21468215 -0.09699587 -0.11269968 -0.41356888 -0.094372995 -0.2563085 -0.16890794 -0.33025396 -0.34832016 -0.14243571 -0.321763 -0.10488006 -0.3828337 -0.15254869 -0.1591185 -0.14690845 -0.06220898 -0.2081468 -0.08451786 -0.24110281 -0.1100561 -0.10945201 -0.38911453 -0.08827975 -0.09559866 -0.20333567 -0.36889645 -0.2287399 -0.21062426 -0.3331007 -0.13348621 -0.4267355 -0.40146622 -0.3776874 -0.09748297 -0.34253138 -0.14960752 -0.30436766 -0.06405528 -0.3403889 -0.3862569 -0.09072193
1686 -0.50055087 -0.2849526 -0.15561086 -0.28085396 -0.151955 -0.12399987 -0.4378615 -0.497575 -0.15507461 -0.21704434 -0.34977818 -0.48803654 -0.22639811 -0.048825767 -0.35626885 -0.28275904 -0.2667575 -0.49097776 -0.13343069 -0.1757854 -0.31816858 -0.3717589 -0.35364735 -0.24630089 -0.030833436 -0.03535541 -0.3453755 -0.42519507 -0.25144273 -0.17697418 -0.4072256 -0.3951315 -0.07920578 -0.0308298 -0.3265655 -0.15992117 -0.21388502 -0.19085954 -0.3574748 -0.3099866 -0.14358465 -0.14736855 -0.31466055 -0.2192726 -0.06289368 -0.26844817 -0.3310341 -0.1619367 -0.42561603 -0.10922076 -0.12671296 -0.1350411 -0.120682634 -0.36645016 -0.1417735 -0.41656414 -0.43026525 -0.41029358 -0.16056786 -0.16564736 -0.29708162 -0.17617984 -0.17376147 -0.100640856 -0.1292249 -0.15398674 -0.4305094 -0.3458623 -0.2182718 -0.36750698 -0.21959542 -0.36709166 -0.21264449 -0.31606683 -0.16343227 -0.53093714 -0.22372977 -0.17158587 -0.17837977 -0.352339 -0.43183088 -0.3343335 -0.43812162 -0.3379259 -0.33279806 -0.33606315 -0.22610536 -0.17056812 -0.17263365 -0.4576552 -0.081451304 -0.35192868 -0.1975842 -0.28006086 -0.26941475 -0.12516887 -0.40223923 -0.116513245 -0.3746353 -0.12700185 -0.0677565 -0.15883748 -0.04463131 -0.28169468 -0.21207371 -0.16453396 -0.1270563 -0.17560017 -0.31123915 -0.15085104 -0.047613967 -0.17606412 -0.4529175 -0.15700816 -0.10746169 -0.3846982 -0.100220524 -0.333766 -0.19931129 -0.41286013 -0.114438914 -0.2599921 -0.13871858 -0.15840438 0.012277842 -0.21512297 -0.3638831 -0.070867844
1155 -0.45822358 -0.31723544 -0.14276144 -0.22197473 -0.093785584 -0.08991066 -0.3158503 -0.4378147 -0.12209636 -0.09987229 -0.38540325 -0.5655839 -0.30699512 -0.053299833 -0.44531378 -0.34618363 -0.19458094 -0.4715217 -0.24595149 -0.20216194 -0.31244805 -0.33128715 -0.3002611 -0.21080379 -0.18703704 -0.17194971 -0.37112445 -0.34407836 -0.30624196 -0.21202266 -0.37810725 -0.58005154 -0.12914723 -0.20035028 -0.42500073 -0.08548202 -0.3478616 -0.10836327 -0.30351982 -0.38591954 -0.10342067 -0.09481442 -0.2948372 -0.27794468 -0.2015955 -0.35152897 -0.33732015 -0.163597 -0.49411884 -0.05495707 -0.22136258 -0.046285864 -0.113727964 -0.27443525 -0.07128724 -0.44132924 -0.45166132 -0.35168982 -0.059889026 -0.08330969 -0.28237683 -0.069073796 -0.21180098 -0.034877814 -0.10299742 -0.14649619 -0.40079424 -0.43680164 -0.32943228 -0.43631202 -0.13460132 -0.38000104 -0.17891169 -0.2794544 -0.17620389 -0.37247443 -0.24952018 -0.07957527 -0.18437515 -0.3777624 -0.39857098 -0.4042933 -0.5525665 -0.316636 -0.39591843 -0.3404392 -0.20189758 -0.22265191 -0.13239156 -0.5254614 -0.13534315 -0.35942504 -0.18059005 -0.35079482 -0.26064038 -0.15584734 -0.30992392 -0.044214573 -0.3296889 -0.02222704 -0.12817205 -0.13250042 -0.12818658 -0.2594983 -0.13520756 -0.20607217 -0.1340449 -0.14945929 -0.37817413 -0.07542274 -0.12181794 -0.24021414 -0.4002039 -0.20063417 -0.17622323 -0.41088524 -0.093124524 -0.3720444 -0.39078593 -0.37719926 -0.24308005 -0.32498464 -0.14987203 -0.2287573 -0.038252305 -0.2029556 -0.39853936 -0.08745977
1690 -0.4239204 -0.29463947 -0.17305824 -0.1865919 -0.11946174 -0.15243591 -0.34615442 -0.41432545 -0.057200488 -0.24282482 -0.31103095 -0.5007488 -0.26116964 -0.06206429 -0.38085613 -0.2518931 -0.23877744 -0.5211231 -0.1724578 -0.2706339 -0.27538273 -0.24406762 -0.27042526 -0.17514724 -0.051571894 -0.10898794 -0.35791358 -0.37441072 -0.29382366 -0.18611458 -0.35403904 -0.37821656 -0.060598355 -0.15144442 -0.3105452 -0.14332762 -0.40222692 -0.16613324 -0.32407457 -0.33388135 -0.14952281 -0.054054093 -0.2720955 -0.3215066 -0.14731923 -0.3746206 -0.28726235 -0.14375319 -0.40823302 -0.07419821 -0.21003206 -0.09137482 -0.059026446 -0.33163074 -0.14861688 -0.3838388 -0.39232007 -0.3471075 -0.2129302 -0.05907024 -0.3284804 -0.124307156 -0.14354393 0.067166865 -0.055208333 -0.1742165 -0.30425107 -0.46280566 -0.29570636 -0.33458158 -0.074879706 -0.38149035 -0.15679578 -0.29514894 -0.023865793 -0.43212372 -0.23218563 -0.19678442 -0.15219608 -0.34294826 -0.4166968 -0.28141138 -0.36052474 -0.32893202 -0.3629483 -0.3310032 -0.23248528 -0.18467622 -0.05237527 -0.50816476 -0.099634774 -0.28318518 -0.19394483 -0.3538369 -0.3260363 -0.21163395 -0.2830436 -0.123037755 -0.38677654 -0.07354497 -0.14342484 -0.11365105 -0.13756363 -0.25889024 -0.15748683 -0.2061049 -0.07339684 -0.19199975 -0.3937275 -0.101075724 -0.051459562 -0.24246581 -0.39982852 -0.16433237 -0.15494151 -0.37406453 -0.1265922 -0.36323342 -0.23389915 -0.43059245 -0.20187922 -0.31436488 -0.119590536 -0.21433547 -0.11826129 -0.31288832 -0.37216902 -0.086362
1691 -0.5268592 -0.2608627 -0.24097769 -0.19007562 -0.06479903 -0.15001284 -0.3527653 -0.50639486 -0.1047634 -0.13531809 -0.4201437 -0.4715987 -0.25700566 -0.068839386 -0.37565294 -0.3713576 -0.2892831 -0.49682465 -0.24082568 -0.2221787 -0.26002133 -0.34742808 -0.366162 -0.20746079 -0.10184064 -0.08658222 -0.3499091 -0.37890694 -0.37713346 -0.26558253 -0.394489 -0.55379134 -0.11808538 -0.12946615 -0.40077338 -0.1532301 -0.3934473 -0.12543185 -0.33754215 -0.39364082 -0.23276885 -0.09529233 -0.3764143 -0.282479 -0.25665894 -0.43129572 -0.40629122 -0.20086412 -0.52784497 -0.07500502 -0.15008351 -0.055550426 -0.040995803 -0.410495 -0.15466003 -0.4243548 -0.4348424 -0.37939763 -0.1368761 -0.1283441 -0.40897083 -0.06669362 -0.15100633 -0.035542954 -0.16660598 -0.1637956 -0.41839066 -0.46744296 -0.26262006 -0.35867235 -0.10655176 -0.29946387 -0.22051077 -0.35255823 -0.07888224 -0.4280251 -0.34557313 -0.13393147 -0.21802668 -0.35453844 -0.38543162 -0.37235346 -0.4806516 -0.31953898 -0.3027302 -0.3579794 -0.089498796 -0.15451215 -0.09558266 -0.55805784 -0.078926645 -0.25517547 -0.18367924 -0.36036217 -0.3905644 -0.14405163 -0.28779414 -0.07601155 -0.33815512 -0.039727297 -0.16285013 -0.15156327 -0.045285195 -0.30200526 -0.12652259 -0.26636434 -0.10348421 -0.15657274 -0.38661727 -0.101143815 -0.106991254 -0.23884395 -0.5004609 -0.1628019 -0.17480436 -0.42002583 -0.09119576 -0.35787013 -0.3039416 -0.49509797 -0.16377535 -0.38353413 -0.20892222 -0.23610213 -0.08725276 -0.19037855 -0.31052598 -0.013257665
1693 -0.449474 -0.24585235 -0.25999138 -0.20239861 -0.12090217 -0.15038694 -0.36175007 -0.589673 -0.052931484 -0.10696744 -0.28829738 -0.4542881 -0.2244304 -0.09244569 -0.43926784 -0.32631776 -0.23502187 -0.5375954 -0.2429558 -0.20138207 -0.33841297 -0.32631442 -0.31588367 -0.2039198 -0.08069606 -0.14794144 -0.35830685 -0.3122238 -0.35523698 -0.14971665 -0.3928529 -0.54338264 -0.13337387 -0.21171847 -0.43523106 -0.2076209 -0.28321323 -0.0576978 -0.25487804 -0.3111798 -0.14714701 -0.13109195 -0.24023496 -0.34065378 -0.18730488 -0.38420063 -0.32897034 -0.13637032 -0.45650324 -0.07268454 -0.11287142 -0.11370187 -0.08857166 -0.3673073 -0.13151579 -0.43222117 -0.35985643 -0.45984432 -0.0835328 -0.08423942 -0.34033242 -0.08279979 -0.15673457 -0.06953677 -0.16779588 -0.13205892 -0.38252142 -0.42942634 -0.28059825 -0.31930217 -0.13259445 -0.30282626 -0.20530482 -0.3829934 -0.109755054 -0.41120028 -0.36525533 -0.12667039 -0.19740911 -0.38610086 -0.3587413 -0.40590832 -0.48944816 -0.27516842 -0.32118586 -0.36488262 -0.1824689 -0.19753212 -0.15664768 -0.56949764 -0.09042564 -0.27233636 -0.11654552 -0.3175968 -0.36310527 -0.10836818 -0.26769075 -0.15969862 -0.32285115 -0.12300195 -0.12869133 -0.12662761 -0.13017009 -0.2189614 -0.1845047 -0.24354707 -0.087996565 -0.14438604 -0.30202207 -0.082859494 -0.06593186 -0.17876703 -0.5232011 -0.16862543 -0.22696471 -0.35598573 -0.07997197 -0.35528263 -0.34492037 -0.3788781 -0.14598857 -0.24913643 -0.14038937 -0.20933592 -0.063377336 -0.26813143 -0.3037357 -0.12606838
620 -0.48004565 -0.21901786 -0.16246349 -0.2018286 -0.14372894 -0.23823665 -0.4061463 -0.35040426 -0.05347615 -0.2066282 -0.33044145 -0.5347362 -0.16949762 -0.059220433 -0.47890702 -0.32702374 -0.20854902 -0.39263126 -0.20397313 -0.18120252 -0.3015199 -0.32780004 -0.2822405 -0.17253684 -0.15352945 -0.10469698 -0.36006296 -0.32086056 -0.3151988 -0.19865482 -0.32754782 -0.4932743 -0.09535047 -0.05015477 -0.38083455 -0.0631031 -0.36875057 -0.24862778 -0.2525424 -0.3429005 -0.21512607 -0.23281686 -0.24442454 -0.20326984 -0.10453625 -0.29888654 -0.409309 -0.17924961 -0.4002525 -0.11425101 -0.21817234 -0.047047656 -0.042841256 -0.32002184 -0.115281 -0.42256388 -0.51220477 -0.5064859 -0.16717349 -0.15512241 -0.3656624 -0.15020633 -0.18269283 -0.10399884 -0.113622025 -0.06888097 -0.39647806 -0.36399242 -0.22316511 -0.2763526 -0.1810568 -0.3758036 -0.18881331 -0.43445903 -0.100941494 -0.4642919 -0.21622895 -0.1677502 -0.32523677 -0.43015176 -0.42580602 -0.30855113 -0.41766816 -0.43394423 -0.43434268 -0.35366645 -0.099440806 -0.19330753 -0.13021433 -0.49737057 -0.12790261 -0.349557 -0.122265235 -0.36938342 -0.30979457 -0.14022835 -0.43341136 -0.034528174 -0.30266446 -0.13018404 -0.1569385 -0.30670488 -0.118222885 -0.2529784 -0.12691526 -0.26310834 -0.14267312 -0.024813583 -0.357306 -0.13873108 -0.105445445 -0.23515685 -0.38700724 -0.23816526 -0.14045702 -0.41259548 -0.029646778 -0.39270118 -0.33944246 -0.40964967 -0.13006888 -0.2559323 -0.123051226 -0.27886832 -0.09876742 -0.2903076 -0.27075416 -0.071088
1483 -0.56456316 -0.26098546 -0.21029246 -0.16536973 -0.10859319 -0.14453106 -0.3358353 -0.4956008 -0.09072512 -0.1663451 -0.32287988 -0.49214974 -0.2991502 -0.087148026 -0.30446497 -0.31609198 -0.24180345 -0.52766865 -0.20528118 -0.27017424 -0.3013101 -0.29478842 -0.33793247 -0.16647281 -0.13129874 -0.092816964 -0.32788295 -0.36591852 -0.32138819 -0.20052841 -0.31367147 -0.5498404 -0.08513463 -0.22016516 -0.38337246 -0.15966702 -0.27346525 -0.17223656 -0.309414 -0.3300184 -0.15933326 -0.04872086 -0.3242363 -0.24985234 -0.18126278 -0.41690674 -0.3339556 -0.23597637 -0.45153385 -0.08698012 -0.1379502 -0.17845522 -0.12596427 -0.33864406 -0.14101724 -0.35890386 -0.35099944 -0.46705 -0.09757366 -0.081465 -0.32524276 -0.10545798 -0.26378587 -0.057673633 -0.1485741 -0.1203267 -0.37315938 -0.46457806 -0.1565893 -0.4076852 -0.2167859 -0.31717142 -0.20473509 -0.35771033 -0.1464202 -0.37425572 -0.35202786 -0.14866956 -0.1937224 -0.3247738 -0.40402433 -0.33760682 -0.39914167 -0.30521566 -0.40811595 -0.45658597 -0.22937036 -0.22586732 -0.16626051 -0.50859183 -0.078473575 -0.3176708 -0.23500863 -0.32518184 -0.31352392 -0.14290836 -0.31704098 -0.08603624 -0.2904641 -0.07503509 -0.19798778 -0.20512807 -0.08464772 -0.24638069 -0.2001134 -0.21434307 -0.19935416 -0.15959385 -0.28065872 -0.046168115 -0.11801831 -0.21698327 -0.48927298 -0.27814978 -0.11942019 -0.29654074 -0.13814129 -0.3887931 -0.3225326 -0.31985137 -0.14958869 -0.31180486 -0.11085311 -0.26805022 -0.054980326 -0.2794071 -0.32258874 -0.049539823
622 -0.50698286 -0.24230812 -0.123861805 -0.18532585 -0.1394323 -0.21847442 -0.31561607 -0.5228688 -0.17128693 -0.19155644 -0.3391842 -0.51654404 -0.30029568 -0.045033574 -0.39415485 -0.28978047 -0.20431852 -0.4636713 -0.19408552 -0.1802455 -0.49977586 -0.31442323 -0.27108452 -0.23696804 -0.12401309 -0.074788034 -0.39322945 -0.40854388 -0.3728208 -0.26057652 -0.34205845 -0.52619946 -0.07791846 -0.096934214 -0.4814178 -0.070777796 -0.3236273 -0.14406197 -0.32561427 -0.37929112 -0.18129276 -0.0887481 -0.2930498 -0.26273668 -0.11935463 -0.35710627 -0.40166053 -0.1499475 -0.4998798 -0.20153089 -0.17440973 -0.117542125 -0.17686893 -0.24350207 -0.1479039 -0.4596227 -0.49235937 -0.4270266 -0.11904507 -0.13964103 -0.39905223 -0.033306506 -0.15895054 -0.044493474 -0.21950649 -0.14058183 -0.45499212 -0.5263898 -0.26300123 -0.3305603 -0.2218457 -0.35209176 -0.2044858 -0.3953473 -0.21150437 -0.5288101 -0.2738159 -0.107239366 -0.24688001 -0.3264703 -0.3711734 -0.41517028 -0.42187652 -0.36055872 -0.37341842 -0.2462563 -0.09757797 -0.08818306 -0.11324711 -0.49618658 -0.0657142 -0.32930773 -0.22138317 -0.3732641 -0.34605947 -0.159772 -0.3146365 -0.07076176 -0.31732902 -0.02913474 -0.20189117 -0.17869823 -0.1366771 -0.20967434 -0.13763285 -0.30463138 -0.11519624 -0.12220643 -0.38933372 -0.20072106 -0.103029124 -0.2530671 -0.5211011 -0.21330145 -0.116258 -0.41907206 -0.06832918 -0.35422957 -0.29849666 -0.4957864 -0.20973979 -0.30778548 -0.06417085 -0.2647734 -0.06661105 -0.2973665 -0.26016217 -0.06759154
1566 -0.49328953 -0.34684914 -0.1619405 -0.18347041 -0.23772316 -0.12978958 -0.28617957 -0.38836527 -0.22023618 -0.1743842 -0.39193058 -0.46753082 -0.35741523 -0.11957085 -0.34034863 -0.3026403 -0.26581374 -0.5159809 -0.21102574 -0.2117672 -0.35091203 -0.35378367 -0.2852744 -0.24247245 -0.11117635 -0.091555536 -0.36678237 -0.38146666 -0.28753042 -0.2154086 -0.31925532 -0.40864095 -0.19859056 -0.15911588 -0.35676274 -0.09416657 -0.34789068 -0.19532292 -0.36188975 -0.27728185 -0.24061778 -0.11967061 -0.30882892 -0.29848516 -0.19157754 -0.4102241 -0.41707537 -0.16313213 -0.4383516 -0.12294966 -0.08506047 -0.09275155 -0.1673011 -0.34505007 -0.11813172 -0.39290005 -0.39030132 -0.38327476 -0.1520298 -0.10118717 -0.34233838 -0.12329531 -0.1546138 -0.002003944 -0.0869964 -0.07396316 -0.42021522 -0.4143118 -0.25836715 -0.34404603 -0.052477133 -0.2733003 -0.12175341 -0.36658084 -0.12305408 -0.39028868 -0.24635732 -0.14357188 -0.11592813 -0.27699652 -0.46323687 -0.3317914 -0.45090714 -0.35616094 -0.3966868 -0.38742033 -0.11998784 -0.2563378 -0.16779478 -0.51207626 -0.052518874 -0.3212526 -0.15050186 -0.36342657 -0.31209093 -0.154868 -0.32746968 -0.044983756 -0.37925223 -0.039954364 -0.17198472 -0.20141704 -0.16131842 -0.22797573 -0.18087082 -0.22995491 -0.123216406 -0.0780225 -0.37143728 -0.036246754 -0.039604437 -0.20860915 -0.41745195 -0.2107931 -0.13372302 -0.39192173 -0.08647674 -0.4093333 -0.28909037 -0.4667103 -0.22294359 -0.24259499 -0.1745093 -0.26414856 -0.020523978 -0.3800741 -0.3871959 -0.04701945
625 -0.45979473 -0.17506322 -0.2593716 -0.22083235 -0.2664594 -0.22009154 -0.26075253 -0.43874788 -0.32884127 -0.1456974 -0.3031176 -0.5006338 -0.30515435 -0.09722588 -0.4173735 -0.28676844 -0.15764399 -0.41926727 -0.21834353 -0.27081662 -0.3366191 -0.29587302 -0.11980962 -0.15734519 -0.121979095 -0.15946965 -0.3950302 -0.40596777 -0.35752764 -0.30994576 -0.47715244 -0.53939486 -0.17666076 -0.251978 -0.5004966 -0.13546705 -0.33247635 -0.24440072 -0.24168444 -0.37928888 -0.21416476 -0.18110478 -0.29181567 -0.23382346 -0.11633811 -0.42817035 -0.36808607 -0.21188354 -0.46090636 -0.16688201 -0.18508993 -0.14520898 -0.08416921 -0.26943573 -0.06525525 -0.37449583 -0.43216506 -0.401252 -0.07346849 -0.17031711 -0.28885385 -0.15102307 -0.21495087 -0.07534369 -0.1858785 -0.15221988 -0.3896776 -0.42251727 -0.25524786 -0.2306603 -0.19322626 -0.35921463 -0.19096099 -0.33789548 -0.22675219 -0.46964002 -0.27289084 -0.080253765 -0.108655885 -0.33047867 -0.46645275 -0.37615132 -0.48268414 -0.37776604 -0.40694126 -0.3546717 -0.1628539 -0.1075476 -0.26885733 -0.43109688 -0.0938152 -0.2977185 -0.22835062 -0.3767564 -0.3242931 -0.16660154 -0.24047735 -0.101869285 -0.38749474 -0.14500813 -0.22605126 -0.23473914 -0.11021023 -0.20579278 -0.19228779 -0.20575683 -0.20405649 -0.0047188536 -0.4070835 -0.06684377 -0.0674688 -0.21776171 -0.5091657 -0.18746221 -0.19559637 -0.47241107 -0.12564689 -0.36065733 -0.24058573 -0.48403254 -0.14950208 -0.28573883 -0.1280048 -0.31815323 -0.13024803 -0.21364497 -0.32574955 -0.04049551
441 -0.5215494 -0.24987009 -0.22429584 -0.25006732 -0.1108879 -0.13242416 -0.31785473 -0.4993743 -0.11982683 -0.11786922 -0.39801916 -0.5676841 -0.33700445 -0.08715079 -0.38797167 -0.28021976 -0.2558283 -0.5238671 -0.18000743 -0.17961231 -0.35271028 -0.31656566 -0.22605804 -0.21618128 -0.131758 -0.09647478 -0.45357013 -0.36784747 -0.31422842 -0.29375836 -0.37939057 -0.52128667 -0.17295057 -0.18608455 -0.38624787 -0.0935997 -0.34657732 -0.22208302 -0.27579674 -0.3388716 -0.20238364 -0.07961775 -0.29487047 -0.29374158 -0.17232266 -0.37474442 -0.3695631 -0.16280816 -0.45657992 -0.13121535 -0.14003688 -0.16009393 -0.16570741 -0.36898273 -0.12089995 -0.44837824 -0.44079456 -0.46240035 -0.06462378 -0.15749334 -0.37312165 -0.13305277 -0.21565183 -0.06667389 -0.14321235 -0.14674649 -0.38757026 -0.40940204 -0.2837238 -0.36121437 -0.11538197 -0.3384262 -0.20977841 -0.37939566 -0.2027506 -0.44588137 -0.2878147 -0.1274184 -0.13765164 -0.3089984 -0.35152596 -0.37736472 -0.4614624 -0.360641 -0.39616215 -0.37330806 -0.17481034 -0.20591617 -0.14565209 -0.522954 -0.13325343 -0.36123675 -0.23477879 -0.33015844 -0.39284512 -0.13618992 -0.31571278 -0.08774952 -0.33309263 -0.11687171 -0.12602219 -0.17054325 -0.10834088 -0.29514292 -0.11977401 -0.18084018 -0.16185063 -0.15370126 -0.4412481 -0.12678383 -0.17638189 -0.24923794 -0.49665576 -0.22245835 -0.18832102 -0.46604452 -0.17502293 -0.4713559 -0.27356532 -0.46745571 -0.09946852 -0.32639262 -0.18772297 -0.24998878 -0.05773287 -0.21276449 -0.3275288 -0.10175116
627 -0.47325787 -0.24463938 -0.17728655 -0.15459697 -0.17241012 -0.11563446 -0.24299072 -0.3313218 -0.21756683 -0.14113455 -0.3338823 -0.42970887 -0.24232104 -0.10682862 -0.38563272 -0.3390618 -0.22922783 -0.48082528 -0.22114633 -0.26935253 -0.2660863 -0.2685128 -0.1778283 -0.2137271 -0.15194307 -0.03816236 -0.43807998 -0.30238542 -0.31649542 -0.18765686 -0.34572208 -0.41865674 -0.13933374 -0.27704215 -0.44787654 -0.10952558 -0.32540464 -0.17174037 -0.2172163 -0.2926472 -0.24485324 -0.15441917 -0.27738172 -0.28293532 -0.16317473 -0.3093577 -0.34444314 -0.1387249 -0.46449658 -0.10264422 -0.22269467 -0.098768085 -0.11114331 -0.28942263 -0.071178235 -0.37682292 -0.40543452 -0.3312893 -0.12128134 -0.14387831 -0.3329111 -0.11443227 -0.25637257 -0.06867317 -0.1170212 -0.12853913 -0.32244605 -0.38397378 -0.25758848 -0.3220977 -0.07796713 -0.35895106 -0.2522853 -0.36361453 -0.12952271 -0.40225598 -0.22488372 -0.16430847 -0.18970275 -0.36739072 -0.30313477 -0.359495 -0.42901096 -0.28654757 -0.29475713 -0.35932428 -0.1210395 -0.17510122 -0.1001726 -0.53094065 -0.082834326 -0.29677734 -0.089049995 -0.36494768 -0.28627858 -0.16482742 -0.28043243 -0.121881686 -0.34944466 -0.107320204 -0.14661507 -0.20688747 -0.11982393 -0.27468088 -0.11620083 -0.19615315 -0.09277605 -0.09407528 -0.39964208 -0.13171127 -0.0390309 -0.23823467 -0.51342356 -0.17603986 -0.15442072 -0.3423542 -0.17274679 -0.35942128 -0.29903623 -0.40647846 -0.220897 -0.20956866 -0.16619664 -0.24139845 -0.024509763 -0.19490974 -0.20718618 -0.0915302
1730 -0.46635175 -0.22836225 -0.2020592 -0.17279421 -0.1184146 -0.119384825 -0.31475708 -0.45869645 -0.10116414 -0.17393856 -0.35852614 -0.51514226 -0.22477186 -0.06887505 -0.29731065 -0.2664611 -0.20520173 -0.42187014 -0.205102 -0.1863019 -0.2988871 -0.314733 -0.28668892 -0.16281937 -0.091634534 -0.09271368 -0.36796233 -0.30426654 -0.3421921 -0.19936721 -0.39232528 -0.3623414 -0.1443473 -0.1780764 -0.38893992 -0.10712328 -0.30334616 -0.20106557 -0.36262092 -0.31117108 -0.07613041 -0.12929104 -0.18184023 -0.26433867 -0.15514779 -0.32664582 -0.32278034 -0.16586937 -0.41117263 -0.07914521 -0.15483119 -0.1253325 -0.1619402 -0.35683253 -0.10671862 -0.40479198 -0.4239772 -0.3174931 -0.15109435 -0.07623571 -0.2823155 -0.11427287 -0.2076299 0.059466302 -0.08683174 -0.1214558 -0.33705947 -0.405481 -0.26768252 -0.29889518 -0.17033264 -0.32472187 -0.1956191 -0.39222497 -0.1297704 -0.49220905 -0.25363725 -0.11126282 -0.10121389 -0.29638657 -0.33194458 -0.3338552 -0.381276 -0.33717448 -0.34495363 -0.31686327 -0.08381354 -0.0937015 -0.118973054 -0.48083273 -0.09724262 -0.28790206 -0.2235161 -0.30147815 -0.3018844 -0.16355598 -0.34612507 -0.034510817 -0.3637245 -0.1337526 -0.1492433 -0.16239473 -0.10684071 -0.21689136 -0.079979986 -0.16333623 -0.083192445 -0.12128525 -0.34188208 -0.14052676 -0.08621746 -0.20885888 -0.45818758 -0.16653441 -0.13632397 -0.35259086 -0.11769134 -0.3513448 -0.3348453 -0.3853997 -0.05759812 -0.32215413 -0.109854996 -0.27644828 -0.05942626 -0.2326575 -0.32534793 -0.10127685
1527 -0.51645684 -0.30907974 -0.21165068 -0.17909367 -0.12986837 -0.18505782 -0.41733643 -0.41775972 -0.13055445 -0.23411988 -0.30753002 -0.42904755 -0.35444748 -0.09367631 -0.43250942 -0.32893723 -0.20846339 -0.46249434 -0.23614419 -0.33238587 -0.339714 -0.3485826 -0.2285155 -0.2335022 -0.08726835 -0.16293415 -0.36178997 -0.37355348 -0.36618182 -0.26652363 -0.34439853 -0.5691131 -0.12453083 -0.15644072 -0.37851992 -0.07063103 -0.31997558 -0.16843235 -0.2895542 -0.27885124 -0.13368742 -0.08774946 -0.25305423 -0.25684747 -0.17381553 -0.4028543 -0.38426018 -0.20589271 -0.42402664 -0.10837313 -0.1686217 -0.1628489 -0.23131438 -0.32169288 -0.15452565 -0.38164422 -0.38053885 -0.37977803 -0.021542117 -0.10167631 -0.37545732 -0.21156478 -0.23033594 -0.05453614 -0.1055918 -0.100216046 -0.30092713 -0.49968415 -0.2690048 -0.41082802 -0.18863045 -0.41584092 -0.20699453 -0.33534878 -0.1544948 -0.5348265 -0.27848956 -0.11486323 -0.14616027 -0.37876558 -0.32639608 -0.30735418 -0.48788673 -0.3291954 -0.33623302 -0.3541894 -0.085769884 -0.21815343 -0.113918446 -0.4758111 -0.088968046 -0.31518686 -0.19435982 -0.3541284 -0.29791838 -0.21291588 -0.32468626 -0.11806997 -0.35492742 -0.083357416 -0.15017332 -0.21445416 -0.083104916 -0.28129262 -0.107386686 -0.27935454 -0.05998515 -0.16094486 -0.4326604 -0.08987577 -0.15224586 -0.19627197 -0.45702535 -0.21538542 -0.12906365 -0.35415718 -0.11119989 -0.41805044 -0.38569945 -0.36888784 -0.17268114 -0.31305093 -0.09902688 -0.26239437 -0.06328835 -0.2626517 -0.40164548 -0.15114732
235 -0.5004213 -0.2972863 -0.27433693 -0.18792394 -0.10168773 -0.14402895 -0.3896372 -0.5571365 -0.106489696 -0.17224798 -0.33956885 -0.4617301 -0.28624308 -0.20342343 -0.3917261 -0.32567906 -0.19984083 -0.48070714 -0.22569716 -0.20238371 -0.3743579 -0.3574286 -0.29395235 -0.17326908 -0.1383626 -0.1602715 -0.23325574 -0.3431935 -0.37048694 -0.2784621 -0.4124287 -0.52563506 -0.1080516 -0.12547825 -0.41013208 -0.15613185 -0.21279755 -0.14231847 -0.3463566 -0.25925073 -0.17911799 -0.16312282 -0.3071377 -0.29463366 -0.21093188 -0.35472274 -0.3691063 -0.20721178 -0.37508163 -0.10810038 -0.10808512 -0.13651243 -0.15979224 -0.3333504 -0.09531792 -0.45211464 -0.41509914 -0.34836513 -0.108250044 -0.10682453 -0.32246462 -0.12714587 -0.19172584 -0.09548835 -0.1231539 -0.08895206 -0.39814183 -0.41464105 -0.2763563 -0.351969 -0.18752334 -0.34438336 -0.22132292 -0.25107354 -0.082820274 -0.39243636 -0.27057874 -0.13884003 -0.23529582 -0.37835094 -0.38837254 -0.40731716 -0.485355 -0.3156874 -0.43405256 -0.33006078 -0.1060011 -0.15066132 -0.17878304 -0.50290245 -0.02870906 -0.36049956 -0.2916083 -0.30220088 -0.27154812 -0.23115909 -0.318941 -0.07023615 -0.3784889 -0.06857671 -0.09927695 -0.13630396 -0.07335894 -0.27776477 -0.12773953 -0.28316703 -0.07020811 -0.12918293 -0.29028636 -0.24929512 -0.11674458 -0.25047448 -0.45439273 -0.116846256 -0.13396144 -0.4190688 -0.08705658 -0.32582077 -0.30578512 -0.399891 -0.10280619 -0.3743617 -0.11043846 -0.17036231 -0.065155745 -0.33723086 -0.38009658 -0.0982495
475 -0.45280084 -0.21476868 -0.25197938 -0.28477848 -0.08788935 -0.1667624 -0.31402162 -0.3709851 -0.09055911 -0.21582797 -0.34507313 -0.47948667 -0.30131358 -0.11796677 -0.3535976 -0.3348244 -0.27939206 -0.49391404 -0.23105104 -0.222261 -0.34946522 -0.3506163 -0.29116833 -0.2038682 -0.14170451 -0.13703388 -0.41881537 -0.3561309 -0.36779222 -0.24302709 -0.3829245 -0.46966574 -0.15705584 -0.1359197 -0.4083905 -0.13169432 -0.31370518 -0.20314114 -0.3224165 -0.33828896 -0.21104272 -0.11274201 -0.2658898 -0.28738078 -0.16783313 -0.3253329 -0.39570972 -0.14254369 -0.43705487 -0.06135832 -0.1110232 -0.21212927 -0.14312384 -0.33919987 -0.17641573 -0.42584547 -0.39952967 -0.37676427 -0.051226277 -0.1545731 -0.33966088 -0.06490145 -0.20009159 -0.073192395 -0.16471127 -0.10657729 -0.41194126 -0.39292517 -0.21679571 -0.32354018 -0.103439726 -0.34582672 -0.22054672 -0.35290477 -0.037839625 -0.45425367 -0.26877946 -0.1676966 -0.16304818 -0.3520975 -0.37887028 -0.3955317 -0.42429057 -0.32545492 -0.3761817 -0.35836282 -0.051647544 -0.15913671 -0.10802855 -0.47438475 -0.10374949 -0.3086377 -0.20768355 -0.32553363 -0.29805675 -0.16994703 -0.34390476 -0.1333079 -0.33152235 -0.09249119 -0.092402205 -0.19988996 -0.15933536 -0.23706006 -0.09887471 -0.29225668 -0.15151408 -0.19130075 -0.38541558 -0.12845705 -0.15742213 -0.22357376 -0.415304 -0.19681938 -0.15474153 -0.3839942 -0.14468548 -0.35753444 -0.30627486 -0.39587864 -0.1272419 -0.28900346 -0.15634844 -0.2702366 -0.08838053 -0.28417632 -0.35524654 -0.09599194
1537 -0.4407231 -0.26772583 -0.23170435 -0.15852879 -0.1054778 -0.1781397 -0.3122786 -0.41227362 -0.166137 -0.1603673 -0.27462503 -0.4633889 -0.17740057 -0.087167285 -0.41660514 -0.31834456 -0.17157994 -0.46923843 -0.14521275 -0.22020693 -0.32903236 -0.2592487 -0.29371533 -0.26004457 -0.12388196 -0.10354227 -0.3098335 -0.317717 -0.3678934 -0.18431833 -0.33286074 -0.5333518 -0.1059832 -0.16329382 -0.42297578 -0.12913814 -0.30666733 -0.083205536 -0.2951443 -0.35469836 -0.1719021 -0.1553304 -0.2947918 -0.2596773 -0.18768401 -0.36940417 -0.3042121 -0.1833156 -0.43093506 -0.052924216 -0.11248447 -0.05807938 -0.09208309 -0.29317915 -0.13477544 -0.41964412 -0.35388765 -0.35547116 -0.12965202 -0.0637854 -0.23830624 -0.1613665 -0.18051168 -0.053160943 -0.1442364 -0.10374688 -0.34989375 -0.42209217 -0.26026466 -0.35750064 -0.17577654 -0.38556817 -0.23581229 -0.2823381 -0.17431477 -0.3957419 -0.2532089 -0.08799288 -0.21407786 -0.31577063 -0.37804708 -0.33904514 -0.42360765 -0.40729913 -0.32434732 -0.3078823 -0.14980224 -0.14548239 -0.1493866 -0.4640201 -0.14232515 -0.31576747 -0.092923224 -0.33261174 -0.3856156 -0.14304312 -0.31455845 -0.1139737 -0.35808584 -0.12485637 -0.12598805 -0.14416105 -0.12893577 -0.23542069 -0.18737026 -0.20085075 -0.18046862 -0.05023372 -0.3454198 -0.15669505 -0.109724104 -0.19807543 -0.45291454 -0.15844868 -0.17073388 -0.3842353 -0.10059577 -0.31498158 -0.37810266 -0.37303078 -0.13856135 -0.29257342 -0.13605028 -0.20375922 -0.060311746 -0.2284746 -0.3506631 -0.09868004
1634 -0.42975196 -0.20132664 -0.205662 -0.19661053 -0.11910237 -0.1936196 -0.32101998 -0.3930771 -0.07368661 -0.15937762 -0.32776234 -0.43841973 -0.2595433 -0.057197597 -0.31603363 -0.2956247 -0.15980911 -0.38121417 -0.20595673 -0.18964534 -0.33765253 -0.33947378 -0.23106979 -0.20734635 -0.11230459 -0.10581888 -0.3274429 -0.35136017 -0.32044336 -0.23233478 -0.31561467 -0.4171531 -0.12422019 -0.12683032 -0.32313228 -0.16276942 -0.2640519 -0.17405216 -0.3227078 -0.34284663 -0.15342353 -0.11867338 -0.20619702 -0.2673199 -0.12196398 -0.2527023 -0.30628893 -0.14732069 -0.32473907 -0.054619562 -0.11253015 -0.1040915 -0.11412641 -0.28238568 -0.119487844 -0.35080233 -0.3479208 -0.30907485 -0.103373006 -0.13973612 -0.22700767 -0.12705402 -0.20723508 -0.055898536 -0.13760403 -0.11533757 -0.31956738 -0.36672235 -0.22655885 -0.29370862 -0.1364684 -0.27119702 -0.16144133 -0.27831563 -0.12941848 -0.3702913 -0.20902216 -0.11433046 -0.15997954 -0.27715975 -0.3024898 -0.31430274 -0.32825345 -0.3058416 -0.3090838 -0.24177812 -0.11447269 -0.11581587 -0.070712246 -0.39341003 -0.11096926 -0.25954455 -0.19608329 -0.27660814 -0.25152937 -0.17196062 -0.26068792 -0.0987826 -0.27017328 -0.06444575 -0.14156227 -0.16110855 -0.13087915 -0.23370531 -0.13982306 -0.21700592 -0.095402114 -0.13679941 -0.32327864 -0.09606578 -0.13933383 -0.19940041 -0.45821458 -0.15013292 -0.11734271 -0.36190796 -0.10995256 -0.33737463 -0.31828463 -0.35384127 -0.036098488 -0.23004138 -0.09796139 -0.22129367 -0.087836884 -0.25775883 -0.26650503 -0.05580408
1946 -0.52621514 -0.25054625 -0.25040907 -0.29853007 -0.17537643 -0.19685182 -0.26348394 -0.46135178 -0.18476933 -0.12931746 -0.3465375 -0.5977899 -0.2829139 -0.07528832 -0.4317933 -0.29202944 -0.23967104 -0.5822037 -0.22168843 -0.19987312 -0.3995802 -0.3232698 -0.21082318 -0.24807625 -0.14033766 -0.11273807 -0.35678232 -0.3326875 -0.43232957 -0.24219301 -0.5118503 -0.55155784 -0.10250775 -0.20092817 -0.47942114 -0.059583377 -0.36671048 -0.16193096 -0.3022786 -0.43631157 -0.13747752 -0.052157845 -0.23350096 -0.27415287 -0.157612 -0.33308345 -0.4024167 -0.18470229 -0.478583 -0.10336882 -0.14415675 -0.16872297 -0.16323482 -0.3344048 -0.14065169 -0.4590858 -0.45035487 -0.42940655 -0.1676363 -0.14066729 -0.3226801 -0.1476955 -0.20620702 -0.046853673 -0.13614868 -0.1466973 -0.41239482 -0.534243 -0.29002807 -0.25586653 -0.18543331 -0.4031542 -0.20153952 -0.41709033 -0.1966676 -0.5130377 -0.25820133 -0.16109483 -0.16306753 -0.36352324 -0.46133962 -0.39072132 -0.42976618 -0.41834146 -0.41063952 -0.28645024 -0.21248868 -0.20034471 -0.15133221 -0.56572473 -0.094441086 -0.32117555 -0.221028 -0.36970195 -0.39570346 -0.1783797 -0.2746912 -0.16536723 -0.45358187 -0.16204445 -0.100012146 -0.1337607 -0.11031945 -0.27756765 -0.06138415 -0.2090766 -0.1769993 -0.118092634 -0.398766 -0.076374225 -0.12432543 -0.23810923 -0.50972044 -0.14225586 -0.17365603 -0.4190507 -0.15116216 -0.40721497 -0.301307 -0.4958497 -0.12683307 -0.30408943 -0.17226486 -0.23420985 -0.08059063 -0.19463384 -0.37152943 -0.12280154
1819 -0.33077833 -0.24536717 -0.16469584 -0.17770705 -0.10003283 -0.16085826 -0.23854874 -0.26552573 -0.1312697 -0.15146041 -0.3000139 -0.4072937 -0.21751921 -0.11393998 -0.29486352 -0.24333058 -0.25280023 -0.3932252 -0.21513513 -0.11078655 -0.25445747 -0.1935208 -0.22741084 -0.20507789 -0.16023083 -0.13720499 -0.36217114 -0.38147914 -0.24776426 -0.18303676 -0.32018167 -0.35603586 -0.07931089 -0.12273162 -0.30499825 -0.09690101 -0.30882737 -0.12984292 -0.24915273 -0.30744827 -0.17790996 -0.1320214 -0.21588063 -0.26616713 -0.14138937 -0.29590493 -0.2450403 -0.10156 -0.31832775 -0.049332153 -0.113657944 -0.093240306 -0.08237137 -0.34755242 -0.14321908 -0.32571927 -0.34167126 -0.24774209 -0.033474904 -0.12629703 -0.26066548 -0.10286575 -0.1423449 -0.03376173 -0.045296103 -0.097156756 -0.3018283 -0.29808044 -0.21077882 -0.18053207 -0.07553782 -0.30341756 -0.120172255 -0.3085871 -0.0938241 -0.35752606 -0.1791641 -0.16003047 -0.18945625 -0.22496055 -0.31719863 -0.2948639 -0.32427534 -0.22685686 -0.3166065 -0.31946728 -0.0587217 -0.14666328 -0.121323444 -0.38083458 -0.06684697 -0.23865254 -0.09501852 -0.33359644 -0.2556974 -0.15015441 -0.26031205 -0.053952377 -0.24781577 -0.07486893 -0.081391715 -0.18124107 -0.15299986 -0.2064247 -0.036591616 -0.15918003 -0.1079847 -0.04509979 -0.2045332 -0.10491858 -0.14916366 -0.15736772 -0.3992629 -0.1725765 -0.12463873 -0.3421405 -0.06679223 -0.3399087 -0.27387023 -0.3496907 -0.16329576 -0.17832416 -0.15544118 -0.24619763 -0.048110705 -0.242859 -0.24632822 -0.09339951
87 -0.5883906 -0.36114404 -0.18871957 -0.2299321 -0.1502979 -0.1587925 -0.40077052 -0.46802416 -0.096657805 -0.19266142 -0.32319075 -0.5415687 -0.3065204 -0.04205773 -0.38355 -0.40982357 -0.30965492 -0.51603633 -0.22858489 -0.2643245 -0.29550976 -0.29170042 -0.3473963 -0.25302345 -0.12326169 -0.09960698 -0.4008464 -0.3539649 -0.34547037 -0.21735886 -0.34419364 -0.59737796 -0.09432567 -0.1333744 -0.41807318 -0.079273894 -0.36608416 -0.1795771 -0.2829059 -0.3650498 -0.2542065 -0.1832962 -0.35931775 -0.30031154 -0.12455549 -0.3854571 -0.34436056 -0.1645978 -0.43698344 -0.11292759 -0.15511467 -0.10858331 -0.10464498 -0.3914385 -0.09734372 -0.48918387 -0.4411377 -0.44658136 -0.06322112 -0.10903954 -0.28695914 -0.16875355 -0.22475655 -0.14968094 -0.21450995 -0.1469561 -0.38793457 -0.49533328 -0.2340616 -0.3807436 -0.16003452 -0.3682478 -0.21228075 -0.33453014 -0.07253259 -0.44176945 -0.2842623 -0.12874205 -0.183358 -0.34804925 -0.42913705 -0.4415272 -0.48219538 -0.29904214 -0.32765174 -0.3267435 -0.21031561 -0.19545321 -0.12968038 -0.50806254 -0.100316286 -0.32489166 -0.2454118 -0.42597085 -0.3233726 -0.1756809 -0.30456603 -0.16515177 -0.3608734 -0.05820321 -0.23098119 -0.16109568 -0.10457623 -0.26949012 -0.11073651 -0.2751191 -0.07513491 -0.11211059 -0.3894179 -0.12804592 -0.16966797 -0.26376855 -0.40675402 -0.10866182 -0.115199804 -0.39175805 -0.13117005 -0.48231864 -0.38630235 -0.39252454 -0.14783163 -0.30230185 -0.17601413 -0.36551365 -0.018742228 -0.29945996 -0.3960494 -0.0871335
2071 -0.50929856 -0.23627813 -0.2383118 -0.2850801 -0.12034494 -0.19143492 -0.30076584 -0.4915595 -0.09648202 -0.20069492 -0.41548014 -0.5789115 -0.28937826 -0.07899888 -0.400494 -0.30479074 -0.20903349 -0.51139355 -0.27697715 -0.243998 -0.33617833 -0.30791783 -0.22084048 -0.1649784 -0.090389304 -0.07263197 -0.40659252 -0.34641486 -0.33845323 -0.2535425 -0.385335 -0.5036839 -0.11826662 -0.22116075 -0.47362086 -0.10720692 -0.34715015 -0.1389765 -0.2996008 -0.38203543 -0.166688 -0.09525273 -0.28929496 -0.31909946 -0.12623177 -0.42519733 -0.36412534 -0.15282497 -0.44505095 -0.10159546 -0.13663675 -0.080692716 -0.13194543 -0.37792248 -0.12154788 -0.39317295 -0.47293338 -0.42621738 -0.07834253 -0.09906858 -0.36651406 -0.13079529 -0.188058 -0.09328186 -0.10903561 -0.12456595 -0.40108997 -0.36043227 -0.27657422 -0.24911247 -0.10560318 -0.34810945 -0.23604451 -0.37397602 -0.11256573 -0.49498516 -0.24877651 -0.19743912 -0.1298862 -0.29968938 -0.38485965 -0.34616604 -0.45783004 -0.41195247 -0.3931012 -0.37324157 -0.14546937 -0.1646686 -0.19346924 -0.57079655 -0.05389715 -0.31411454 -0.18152075 -0.3983877 -0.37900805 -0.16093194 -0.34112662 -0.103757374 -0.3733296 -0.11808602 -0.122891895 -0.22980368 -0.18292773 -0.2496167 -0.084348105 -0.20019738 -0.10496129 -0.117388345 -0.44727406 -0.13364474 -0.15217711 -0.21090475 -0.52743685 -0.15347174 -0.12886854 -0.44767818 -0.17156498 -0.44198614 -0.23390754 -0.49199328 -0.08057156 -0.2877181 -0.16916949 -0.24873431 -0.10093913 -0.20861796 -0.29600927 -0.08786313
744 -0.32226363 -0.22551449 -0.23535779 -0.2742872 -0.07952968 -0.17619786 -0.28176987 -0.3466302 -0.09175659 -0.20863311 -0.32410058 -0.33473718 -0.24557121 -0.038919855 -0.3271264 -0.33315936 -0.19324903 -0.39845118 -0.18734615 -0.15749875 -0.28430894 -0.2968107 -0.20239846 -0.18527393 -0.088476084 -0.1472606 -0.32594526 -0.28666052 -0.33809945 -0.20108345 -0.3298778 -0.3784522 -0.091511756 -0.06309985 -0.33645985 -0.10722232 -0.21788521 -0.1667025 -0.23860168 -0.27896294 -0.15882085 -0.05280763 -0.16608377 -0.28351992 -0.13669859 -0.25572547 -0.31789818 -0.16644816 -0.29375285 -0.06986262 -0.05365035 -0.15531163 -0.18240319 -0.25203595 -0.10499467 -0.37875602 -0.33132783 -0.36221367 -0.04404592 -0.12203678 -0.29014105 -0.12580626 -0.16325809 -0.079967916 -0.10845306 -0.051611226 -0.27336845 -0.3055718 -0.19593008 -0.2408969 -0.078429185 -0.28167805 -0.19638272 -0.27425715 -0.11378527 -0.39672112 -0.26127604 -0.07737481 -0.16024175 -0.25932008 -0.25421193 -0.2680162 -0.3635925 -0.26691228 -0.3340206 -0.24902053 -0.07885998 -0.15586208 -0.10283361 -0.33002183 -0.087188825 -0.33709133 -0.17304091 -0.27873582 -0.2786834 -0.12840526 -0.23912159 -0.09745129 -0.22793925 -0.06741327 -0.085402235 -0.17581259 -0.1216461 -0.19746731 -0.14697523 -0.20142077 -0.09201329 -0.11762889 -0.30518124 -0.07082832 -0.13071749 -0.2119735 -0.37392312 -0.15796831 -0.14788452 -0.35009518 -0.042156707 -0.35786211 -0.26818874 -0.3127866 -0.13933353 -0.23823516 -0.13668562 -0.19447386 -0.109996654 -0.2107425 -0.31961298 -0.12699051
1600 -0.45643803 -0.28923738 -0.21968368 -0.17549165 -0.09115986 -0.1592062 -0.27023262 -0.43840057 -0.17499322 -0.14005007 -0.31638262 -0.53256094 -0.17358737 -0.14180672 -0.39066476 -0.272478 -0.23456936 -0.5210962 -0.20202997 -0.23562813 -0.32317126 -0.3068683 -0.29060254 -0.2641387 -0.067541026 -0.0960256 -0.41668707 -0.32693514 -0.22654934 -0.18198173 -0.33341935 -0.5049889 -0.07457932 -0.20687094 -0.45570657 -0.06517925 -0.26820135 -0.16005643 -0.29337698 -0.29561412 -0.116982676 -0.11770499 -0.2790904 -0.2409768 -0.19107442 -0.3521142 -0.37561703 -0.17108554 -0.43514362 -0.07532298 -0.23123215 -0.11493287 -0.042288315 -0.3098267 -0.15350169 -0.3541734 -0.46867085 -0.3774726 -0.12743092 -0.11014465 -0.27715942 -0.15360837 -0.18994305 -0.015032637 -0.13957775 -0.20225477 -0.44344026 -0.5184396 -0.27847442 -0.30737647 -0.21806668 -0.33508477 -0.15364866 -0.27953157 -0.17283015 -0.34111553 -0.2354923 -0.11432564 -0.14766899 -0.29492196 -0.3999471 -0.33898863 -0.43704185 -0.32012534 -0.27576905 -0.38427553 -0.1619065 -0.200417 -0.17154221 -0.48351908 -0.12272208 -0.31331202 -0.15114799 -0.3634694 -0.3778381 -0.17310408 -0.30646786 -0.10273679 -0.37028062 -0.12149819 -0.1335071 -0.20835689 -0.10854576 -0.2332383 -0.18668966 -0.25411907 -0.15520474 -0.052986216 -0.34649563 -0.124687456 -0.06370016 -0.2418335 -0.5147279 -0.16791742 -0.23305373 -0.41042137 -0.10268506 -0.39866498 -0.3000829 -0.45070276 -0.18997927 -0.30893123 -0.08300992 -0.2604128 -0.08688798 -0.22793324 -0.2421422 -0.06385276
1821 -0.48126063 -0.30771664 -0.22294943 -0.17690864 -0.101243034 -0.1405045 -0.36603758 -0.42463407 -0.08466304 -0.21444042 -0.38748622 -0.489413 -0.25599054 -0.09016144 -0.36350203 -0.32647187 -0.2719105 -0.5310616 -0.18205091 -0.19055305 -0.37373498 -0.34717622 -0.33151767 -0.19023532 -0.10988393 -0.08862604 -0.34485176 -0.36700773 -0.26804447 -0.16270664 -0.31294864 -0.45284483 -0.11416556 -0.101562105 -0.40013596 -0.10328255 -0.31847724 -0.17837003 -0.33573458 -0.3140657 -0.1676182 -0.11927588 -0.29516488 -0.26524207 -0.15174237 -0.37736067 -0.25995523 -0.13425307 -0.4799337 -0.05544516 -0.14147641 -0.14224687 -0.17143337 -0.35168478 -0.13144673 -0.415908 -0.4624013 -0.3561073 -0.109117985 -0.15318932 -0.35175514 -0.10869272 -0.16355811 -0.072727196 -0.09833758 -0.14312348 -0.37400684 -0.41550675 -0.31335086 -0.36381593 -0.12858836 -0.45441762 -0.20989867 -0.40340874 -0.13341372 -0.38922152 -0.26076362 -0.04927966 -0.1747831 -0.25722343 -0.35967535 -0.37986547 -0.3718463 -0.30513 -0.3740904 -0.38774282 -0.17686547 -0.14893803 -0.09798968 -0.45641842 -0.094796166 -0.30750397 -0.21211267 -0.35740316 -0.27931163 -0.16581018 -0.29814863 -0.15809864 -0.3977372 -0.05974411 -0.14837584 -0.13542181 -0.1433634 -0.19711617 -0.20368873 -0.25642657 -0.14100347 -0.15681504 -0.34387407 -0.13181265 -0.076672904 -0.22867472 -0.35995418 -0.23491266 -0.097266346 -0.35576677 -0.120304905 -0.35192835 -0.34979156 -0.41869417 -0.19155017 -0.29565322 -0.06419369 -0.2435385 -0.08326516 -0.26802033 -0.34727427 -0.07398159
1918 -0.52034205 -0.27010134 -0.13747303 -0.2468696 -0.12542698 -0.0663885 -0.30319485 -0.43341962 -0.1045076 -0.20875338 -0.38026363 -0.43367288 -0.24116985 -0.06747887 -0.3520134 -0.34607697 -0.23020363 -0.5513046 -0.206942 -0.2722138 -0.24837963 -0.32826105 -0.17819895 -0.24204616 -0.08652391 -0.06992477 -0.40802285 -0.3032076 -0.28354943 -0.18498467 -0.34668034 -0.41725254 -0.1733653 -0.15756415 -0.36887652 -0.11037302 -0.32996103 -0.21044229 -0.3228452 -0.28443518 -0.16495688 -0.049007963 -0.32312042 -0.2851875 -0.17184734 -0.3318518 -0.33972684 -0.20249878 -0.41292682 -0.12384402 -0.2005577 -0.16232362 -0.13497517 -0.3256493 -0.12701768 -0.4279228 -0.4137167 -0.38181916 -0.046436593 -0.09982351 -0.31669137 -0.17262109 -0.22966646 -0.1127818 -0.121451974 -0.16085462 -0.31795996 -0.4396854 -0.2215759 -0.41079542 -0.058694806 -0.3335623 -0.15922613 -0.36640975 -0.12414076 -0.3314843 -0.3394597 -0.125898 -0.17631774 -0.31549293 -0.32833675 -0.3663251 -0.34566495 -0.2998968 -0.3246964 -0.3470337 -0.14126942 -0.23041196 -0.025544068 -0.4237407 -0.07553099 -0.31115302 -0.2857687 -0.33503598 -0.2927096 -0.14934681 -0.3000227 -0.08337935 -0.27982643 -0.084561005 -0.13899931 -0.14427076 -0.13559015 -0.27509144 -0.17477189 -0.22739592 -0.13306066 -0.16360538 -0.40403476 -0.14154337 -0.08276459 -0.19229402 -0.36815807 -0.15079668 -0.09214006 -0.36516047 -0.09541744 -0.4352307 -0.33629295 -0.4076481 -0.16272879 -0.29239473 -0.16687438 -0.30907425 -0.050663043 -0.29692122 -0.41541892 -0.06625959
